{"learner":{"attributes":{"scikit_learn":"{\"n_estimators\": 100, \"objective\": \"reg:squarederror\", \"max_depth\": null, \"learning_rate\": null, \"verbosity\": null, \"booster\": null, \"tree_method\": null, \"gamma\": null, \"min_child_weight\": null, \"max_delta_step\": null, \"subsample\": null, \"colsample_bytree\": null, \"colsample_bylevel\": null, \"colsample_bynode\": null, \"reg_alpha\": null, \"reg_lambda\": null, \"scale_pos_weight\": null, \"base_score\": null, \"missing\": NaN, \"num_parallel_tree\": null, \"kwargs\": {}, \"random_state\": 42, \"n_jobs\": null, \"monotone_constraints\": null, \"interaction_constraints\": null, \"importance_type\": \"gain\", \"gpu_id\": null, \"validate_parameters\": null, \"n_features_in_\": 4, \"type\": \"XGBRegressor\"}"},"gradient_booster":{"model":{"gbtree_model_param":{"num_trees":"100","size_leaf_vector":"0"},"tree_info":[0,0,0,0,0,0,0,0,0,0,0,0,0,0,0,0,0,0,0,0,0,0,0,0,0,0,0,0,0,0,0,0,0,0,0,0,0,0,0,0,0,0,0,0,0,0,0,0,0,0,0,0,0,0,0,0,0,0,0,0,0,0,0,0,0,0,0,0,0,0,0,0,0,0,0,0,0,0,0,0,0,0,0,0,0,0,0,0,0,0,0,0,0,0,0,0,0,0,0,0],"trees":[{"base_weights":[1.9669167E1,1.3842064E1,4.6206665E1,1.10369215E1,3.83E1,4.5129027E0,1.9227858E1,9.8671875E0,2.2387806E-1,-3.143846E-1,4.5744827E-1],"default_left":[true,true,false,true,false,true,false,false,true,false,false],"id":0,"leaf_child_counts":[0,0,0,0,0,0,0,0,0,0,0],"left_children":[1,3,-1,5,-1,7,-1,-1,9,-1,-1],"loss_changes":[2.5494004E4,9.182404E3,0E0,6.699829E3,0E0,1.6512463E3,0E0,0E0,5.298423E0,0E0,0E0],"parents":[2147483647,0,0,1,1,3,3,5,5,8,8],"right_children":[2,4,-1,6,-1,8,-1,-1,10,-1,-1],"split_conditions":[4.397548E1,5.522875E2,1.3862E1,2.3060164E0,1.149E1,9.519306E-1,5.7683573E0,2.9601564E0,1.467699E0,-9.431539E-2,1.372345E-1],"split_indices":[0,1,0,0,0,0,0,0,0,0,0],"sum_hessian":[1.68E2,1.39E2,2.9E1,1.26E2,1.3E1,7.1E1,5.5E1,3.1E1,4E1,1.2E1,2.8E1],"tree_param":{"num_deleted":"0","num_feature":"4","num_nodes":"11","size_leaf_vector":"0"}},{"base_weights":[1.397033E1,9.834169E0,3.2806732E1,7.7949114E0,2.7630714E1,3.2007413E0,1.3562507E1,6.999536E0,1.5776142E-1,-2.2732426E-1,3.24946E-1],"default_left":[true,true,false,true,false,true,false,false,true,false,false],"id":1,"leaf_child_counts":[0,0,0,0,0,0,0,0,0,0,0],"left_children":[1,3,-1,5,-1,7,-1,-1,9,-1,-1],"loss_changes":[1.2844227E4,4.865468E3,0E0,3.321748E3,0E0,8.311909E2,0E0,0E0,2.713464E0,0E0,0E0],"parents":[2147483647,0,0,1,1,3,3,5,5,8,8],"right_children":[2,4,-1,6,-1,8,-1,-1,10,-1,-1],"split_conditions":[4.397548E1,5.522875E2,9.84202E0,2.3060164E0,8.289215E0,9.519306E-1,4.0687523E0,2.099861E0,1.467699E0,-6.819728E-2,9.74838E-2],"split_indices":[0,1,0,0,0,0,0,0,0,0,0],"sum_hessian":[1.68E2,1.39E2,2.9E1,1.26E2,1.3E1,7.1E1,5.5E1,3.1E1,4E1,1.2E1,2.8E1],"tree_param":{"num_deleted":"0","num_feature":"4","num_nodes":"11","size_leaf_vector":"0"}},{"base_weights":[9.92319E0,6.9873977E0,2.329278E1,5.50524E0,1.9933586E1,2.27009E0,9.56641E0,4.9652953E0,1.1114729E-1,-1.6437294E-1,2.308237E-1],"default_left":[true,true,false,true,false,true,false,false,true,false,false],"id":2,"leaf_child_counts":[0,0,0,0,0,0,0,0,0,0,0],"left_children":[1,3,-1,5,-1,7,-1,-1,9,-1,-1],"loss_changes":[6.470549E3,2.5766216E3,0E0,1.6468721E3,0E0,4.1840134E2,0E0,0E0,1.3898451E0,0E0,0E0],"parents":[2147483647,0,0,1,1,3,3,5,5,8,8],"right_children":[2,4,-1,6,-1,8,-1,-1,10,-1,-1],"split_conditions":[4.397548E1,5.522875E2,6.9878345E0,2.3060164E0,5.980076E0,9.519306E-1,2.869923E0,1.4895886E0,1.467699E0,-4.9311884E-2,6.924711E-2],"split_indices":[0,1,0,0,0,0,0,0,0,0,0],"sum_hessian":[1.68E2,1.39E2,2.9E1,1.26E2,1.3E1,7.1E1,5.5E1,3.1E1,4E1,1.2E1,2.8E1],"tree_param":{"num_deleted":"0","num_feature":"4","num_nodes":"11","size_leaf_vector":"0"}},{"base_weights":[7.0488796E0,4.9651747E0,1.6537872E1,3.8881516E0,1.4380658E1,1.6100287E0,6.7477355E0,3.5222564E0,7.8289315E-2,-1.1885428E-1,1.6396439E-1],"default_left":[true,true,false,true,false,true,false,false,true,false,false],"id":3,"leaf_child_counts":[0,0,0,0,0,0,0,0,0,0,0],"left_children":[1,3,-1,5,-1,7,-1,-1,9,-1,-1],"loss_changes":[3.2593975E3,1.363783E3,0E0,8.1647546E2,0E0,2.1061475E2,0E0,0E0,7.119899E-1,0E0,0E0],"parents":[2147483647,0,0,1,1,3,3,5,5,8,8],"right_children":[2,4,-1,6,-1,8,-1,-1,10,-1,-1],"split_conditions":[4.397548E1,5.522875E2,4.961362E0,2.3060164E0,4.3141975E0,9.519306E-1,2.0243208E0,1.056677E0,1.467699E0,-3.5656285E-2,4.9189318E-2],"split_indices":[0,1,0,0,0,0,0,0,0,0,0],"sum_hessian":[1.68E2,1.39E2,2.9E1,1.26E2,1.3E1,7.1E1,5.5E1,3.1E1,4E1,1.2E1,2.8E1],"tree_param":{"num_deleted":"0","num_feature":"4","num_nodes":"11","size_leaf_vector":"0"}},{"base_weights":[5.0074115E0,3.5285418E0,1.174189E1,2.7460725E0,1.0374618E1,1.1418841E0,4.7595634E0,2.4986007E0,5.5132587E-2,-8.594079E-2,1.1647125E-1],"default_left":[true,true,false,true,false,true,false,false,true,false,false],"id":4,"leaf_child_counts":[0,0,0,0,0,0,0,0,0,0,0],"left_children":[1,3,-1,5,-1,7,-1,-1,9,-1,-1],"loss_changes":[1.6417095E3,7.214689E2,0E0,4.047774E2,0E0,1.06020035E2,0E0,0E0,3.64793E-1,0E0,0E0],"parents":[2147483647,0,0,1,1,3,3,5,5,8,8],"right_children":[2,4,-1,6,-1,8,-1,-1,10,-1,-1],"split_conditions":[4.397548E1,5.522875E2,3.522567E0,2.3060164E0,3.1123855E0,9.519306E-1,1.4278691E0,7.4958026E-1,1.467699E0,-2.5782239E-2,3.494138E-2],"split_indices":[0,1,0,0,0,0,0,0,0,0,0],"sum_hessian":[1.68E2,1.39E2,2.9E1,1.26E2,1.3E1,7.1E1,5.5E1,3.1E1,4E1,1.2E1,2.8E1],"tree_param":{"num_deleted":"0","num_feature":"4","num_nodes":"11","size_leaf_vector":"0"}},{"base_weights":[3.5573862E0,2.5078287E0,8.3367405E0,1.9394678E0,7.4845443E0,8.098569E-1,3.357191E0,1.7724447E0,3.8816206E-2,-6.21418E-2,8.273475E-2],"default_left":[true,true,false,true,false,true,false,false,true,false,false],"id":5,"leaf_child_counts":[0,0,0,0,0,0,0,0,0,0,0],"left_children":[1,3,-1,5,-1,7,-1,-1,9,-1,-1],"loss_changes":[8.2683203E2,3.8148395E2,0E0,2.0066858E2,0E0,5.3369198E1,0E0,0E0,1.8693236E-1,0E0,0E0],"parents":[2147483647,0,0,1,1,3,3,5,5,8,8],"right_children":[2,4,-1,6,-1,8,-1,-1,10,-1,-1],"split_conditions":[4.397548E1,5.522875E2,2.5010223E0,2.3060164E0,2.2453635E0,9.519306E-1,1.0071573E0,5.3173345E-1,1.467699E0,-1.8642541E-2,2.4820426E-2],"split_indices":[0,1,0,0,0,0,0,0,0,0,0],"sum_hessian":[1.68E2,1.39E2,2.9E1,1.26E2,1.3E1,7.1E1,5.5E1,3.1E1,4E1,1.2E1,2.8E1],"tree_param":{"num_deleted":"0","num_feature":"4","num_nodes":"11","size_leaf_vector":"0"}},{"base_weights":[2.5273974E0,1.782554E0,5.919086E0,1.3697929E0,5.3995624E0,5.7437074E-1,2.368018E0,1.2573278E0,2.732201E-2,1.5143273E0,2.4787512E0,-4.4933297E-2,5.8770183E-2],"default_left":[true,true,false,true,false,true,true,false,true,false,false,false,false],"id":6,"leaf_child_counts":[0,0,0,0,0,0,0,0,0,0,0,0,0],"left_children":[1,3,-1,5,-1,7,9,-1,11,-1,-1,-1,-1],"loss_changes":[4.1638965E2,2.0161823E2,0E0,9.947917E1,0E0,2.6865627E1,1.5401611E0,0E0,9.580493E-2,0E0,0E0,0E0,0E0],"parents":[2147483647,0,0,1,1,3,3,5,5,6,6,8,8],"right_children":[2,4,-1,6,-1,8,10,-1,12,-1,-1,-1,-1],"split_conditions":[4.397548E1,5.522875E2,1.7757258E0,2.3060164E0,1.6198688E0,9.519306E-1,3.5713294E0,3.7719837E-1,1.467699E0,4.542982E-1,7.436254E-1,-1.347999E-2,1.7631056E-2],"split_indices":[0,1,0,0,0,0,0,0,0,0,0,0,0],"sum_hessian":[1.68E2,1.39E2,2.9E1,1.26E2,1.3E1,7.1E1,5.5E1,3.1E1,4E1,8E0,4.7E1,1.2E1,2.8E1],"tree_param":{"num_deleted":"0","num_feature":"4","num_nodes":"13","size_leaf_vector":"0"}},{"base_weights":[1.7986151E0,1.2706387E0,4.2025504E0,9.712902E-1,3.8953981E0,4.073561E-1,1.6790038E0,8.919171E-1,1.9226654E-2,1.1105068E0,1.7506177E0,-3.2490227E-2,4.1747097E-2],"default_left":[true,true,false,true,false,true,true,false,true,false,false,false,false],"id":7,"leaf_child_counts":[0,0,0,0,0,0,0,0,0,0,0,0,0],"left_children":[1,3,-1,5,-1,7,9,-1,11,-1,-1,-1,-1],"loss_changes":[2.0915845E2,1.0621695E2,0E0,5.000222E1,0E0,1.3524062E1,3.358307E-1,0E0,4.9108535E-2,0E0,0E0,0E0,0E0],"parents":[2147483647,0,0,1,1,3,3,5,5,6,6,8,8],"right_children":[2,4,-1,6,-1,8,10,-1,12,-1,-1,-1,-1],"split_conditions":[4.397548E1,5.522875E2,1.2607652E0,2.3060164E0,1.1686195E0,9.519306E-1,3.5713294E0,2.6757514E-1,1.467699E0,3.3315206E-1,5.2518535E-1,-9.747068E-3,1.252413E-2],"split_indices":[0,1,0,0,0,0,0,0,0,0,0,0,0],"sum_hessian":[1.68E2,1.39E2,2.9E1,1.26E2,1.3E1,7.1E1,5.5E1,3.1E1,4E1,8E0,4.7E1,1.2E1,2.8E1],"tree_param":{"num_deleted":"0","num_feature":"4","num_nodes":"13","size_leaf_vector":"0"}},{"base_weights":[1.2800843E0,9.058565E-1,2.983811E0,6.887906E-1,2.81025E0,2.889041E-1,1.1906306E0,6.3270354E-1,1.3526393E-2,-2.3492929E-2,2.9654834E-2],"default_left":[true,true,false,true,false,true,false,false,true,false,false],"id":8,"leaf_child_counts":[0,0,0,0,0,0,0,0,0,0,0],"left_children":[1,3,-1,5,-1,7,-1,-1,9,-1,-1],"loss_changes":[1.0504843E2,5.5937355E1,0E0,2.5142258E1,0E0,6.80802E0,0E0,0E0,2.51763E-2,0E0,0E0],"parents":[2147483647,0,0,1,1,3,3,5,5,8,8],"right_children":[2,4,-1,6,-1,8,-1,-1,10,-1,-1],"split_conditions":[4.397548E1,5.522875E2,8.9514333E-1,2.3060164E0,8.4307504E-1,9.519306E-1,3.5718918E-1,1.8981107E-1,1.467699E0,-7.047879E-3,8.8964505E-3],"split_indices":[0,1,0,0,0,0,0,0,0,0,0],"sum_hessian":[1.68E2,1.39E2,2.9E1,1.26E2,1.3E1,7.1E1,5.5E1,3.1E1,4E1,1.2E1,2.8E1],"tree_param":{"num_deleted":"0","num_feature":"4","num_nodes":"11","size_leaf_vector":"0"}},{"base_weights":[9.095923E-1,6.4404196E-1,2.1185074E0,4.8647514E-1,2.0273948E0,2.0489493E-1,8.398198E-1,4.4882438E-1,9.513549E-3,4.968695E-1,8.866267E-1,-1.6987195E-2,2.1065138E-2],"default_left":[true,true,false,true,false,true,true,false,true,false,false,false,false],"id":9,"leaf_child_counts":[0,0,0,0,0,0,0,0,0,0,0,0,0],"left_children":[1,3,-1,5,-1,7,9,-1,11,-1,-1,-1,-1],"loss_changes":[5.2889297E1,2.9529587E1,0E0,1.2463774E1,0E0,3.4271975E0,4.583969E-1,0E0,1.2908993E-2,0E0,0E0,0E0,0E0],"parents":[2147483647,0,0,1,1,3,3,5,5,6,6,8,8],"right_children":[2,4,-1,6,-1,8,10,-1,12,-1,-1,-1,-1],"split_conditions":[4.397548E1,5.522875E2,6.355522E-1,2.3060164E0,6.0821843E-1,9.519306E-1,3.5713294E0,1.3464732E-1,1.467699E0,1.4906086E-1,2.6598802E-1,-5.096159E-3,6.319542E-3],"split_indices":[0,1,0,0,0,0,0,0,0,0,0,0,0],"sum_hessian":[1.68E2,1.39E2,2.9E1,1.26E2,1.3E1,7.1E1,5.5E1,3.1E1,4E1,8E0,4.7E1,1.2E1,2.8E1],"tree_param":{"num_deleted":"0","num_feature":"4","num_nodes":"13","size_leaf_vector":"0"}},{"base_weights":[6.473343E-1,4.5910904E-1,1.5041411E0,3.4487075E-1,1.4626199E0,1.4531353E-1,5.952859E-1,3.1838474E-1,6.6893334E-3,3.6437067E-1,6.261807E-1,-1.2283055E-2,1.496353E-2],"default_left":[true,true,false,true,false,true,true,false,true,false,false,false,false],"id":10,"leaf_child_counts":[0,0,0,0,0,0,0,0,0,0,0,0,0],"left_children":[1,3,-1,5,-1,7,9,-1,11,-1,-1,-1,-1],"loss_changes":[2.6564514E1,1.5545097E1,0E0,6.25996E0,0E0,1.7252839E0,1.7134666E-1,0E0,6.6200304E-3,0E0,0E0,0E0,0E0],"parents":[2147483647,0,0,1,1,3,3,5,5,6,6,8,8],"right_children":[2,4,-1,6,-1,8,10,-1,12,-1,-1,-1,-1],"split_conditions":[4.397548E1,5.522875E2,4.5124236E-1,2.3060164E0,4.38786E-1,9.519306E-1,3.5713294E0,9.551542E-2,1.467699E0,1.0931121E-1,1.8785422E-1,-3.6849168E-3,4.489059E-3],"split_indices":[0,1,0,0,0,0,0,0,0,0,0,0,0],"sum_hessian":[1.68E2,1.39E2,2.9E1,1.26E2,1.3E1,7.1E1,5.5E1,3.1E1,4E1,8E0,4.7E1,1.2E1,2.8E1],"tree_param":{"num_deleted":"0","num_feature":"4","num_nodes":"13","size_leaf_vector":"0"}},{"base_weights":[4.6072894E-1,3.2732096E-1,1.0679419E0,2.4450761E-1,1.0551761E0,1.0305732E-1,4.2200607E-1,2.2585434E-1,4.7021452E-3,3.544084E-1,4.973693E-1,-8.881588E-3,1.0629261E-2],"default_left":[true,true,false,true,false,true,true,false,true,false,false,false,false],"id":11,"leaf_child_counts":[0,0,0,0,0,0,0,0,0,0,0,0,0],"left_children":[1,3,-1,5,-1,7,9,-1,11,-1,-1,-1,-1],"loss_changes":[1.334063E1,8.180657E0,0E0,3.1451244E0,0E0,8.685339E-1,1.0901356E-1,0E0,3.3954117E-3,0E0,0E0,0E0,0E0],"parents":[2147483647,0,0,1,1,3,3,5,5,6,6,8,8],"right_children":[2,4,-1,6,-1,8,10,-1,12,-1,-1,-1,-1],"split_conditions":[4.397548E1,5.522875E2,3.203826E-1,2.3060164E0,3.1655285E-1,9.519306E-1,4.7228058E2,6.77563E-2,1.467699E0,1.0632253E-1,1.492108E-1,-2.6644764E-3,3.1887784E-3],"split_indices":[0,1,0,0,0,0,1,0,0,0,0,0,0],"sum_hessian":[1.68E2,1.39E2,2.9E1,1.26E2,1.3E1,7.1E1,5.5E1,3.1E1,4E1,3.2E1,2.3E1,1.2E1,2.8E1],"tree_param":{"num_deleted":"0","num_feature":"4","num_nodes":"13","size_leaf_vector":"0"}},{"base_weights":[3.2819542E-1,2.3369876E-1,7.5824004E-1,1.7370492E-1,7.612358E-1,7.308831E-2,2.9996726E-1,1.6021508E-1,3.3042824E-3,1.7269485E-1,3.1758153E-1,-6.4220703E-3,7.5504305E-3],"default_left":[true,true,false,true,false,true,true,false,true,false,false,false,false],"id":12,"leaf_child_counts":[0,0,0,0,0,0,0,0,0,0,0,0,0],"left_children":[1,3,-1,5,-1,7,9,-1,11,-1,-1,-1,-1],"loss_changes":[6.690586E0,4.298625E0,0E0,1.5914953E0,0E0,4.372347E-1,7.069683E-2,0E0,1.7417704E-3,0E0,0E0,0E0,0E0],"parents":[2147483647,0,0,1,1,3,3,5,5,6,6,8,8],"right_children":[2,4,-1,6,-1,8,10,-1,12,-1,-1,-1,-1],"split_conditions":[4.397548E1,5.522875E2,2.2747202E-1,2.3060164E0,2.2837074E-1,9.519306E-1,3.5713294E0,4.8064526E-2,1.467699E0,5.1808458E-2,9.527446E-2,-1.9266212E-3,2.2651292E-3],"split_indices":[0,1,0,0,0,0,0,0,0,0,0,0,0],"sum_hessian":[1.68E2,1.39E2,2.9E1,1.26E2,1.3E1,7.1E1,5.5E1,3.1E1,4E1,8E0,4.7E1,1.2E1,2.8E1],"tree_param":{"num_deleted":"0","num_feature":"4","num_nodes":"13","size_leaf_vector":"0"}},{"base_weights":[2.3359124E-1,1.6661686E-1,5.38352E-1,1.231329E-1,5.491773E-1,5.1834196E-2,2.1260385E-1,1.13652855E-1,2.3212347E-3,1.694571E-1,2.6307216E-1,-4.643656E-3,5.3633843E-3],"default_left":[true,true,false,true,false,true,true,false,true,false,false,false,false],"id":13,"leaf_child_counts":[0,0,0,0,0,0,0,0,0,0,0,0,0],"left_children":[1,3,-1,5,-1,7,9,-1,11,-1,-1,-1,-1],"loss_changes":[3.359789E0,2.2613122E0,0E0,7.9913366E-1,0E0,2.201156E-1,7.7363014E-2,0E0,8.9362345E-4,0E0,0E0,0E0,0E0],"parents":[2147483647,0,0,1,1,3,3,5,5,6,6,8,8],"right_children":[2,4,-1,6,-1,8,10,-1,12,-1,-1,-1,-1],"split_conditions":[4.397548E1,5.522875E2,1.6150561E-1,2.3060164E0,1.647532E-1,9.519306E-1,4.7228058E2,3.4095857E-2,1.467699E0,5.083713E-2,7.892165E-2,-1.3930968E-3,1.6090154E-3],"split_indices":[0,1,0,0,0,0,1,0,0,0,0,0,0],"sum_hessian":[1.68E2,1.39E2,2.9E1,1.26E2,1.3E1,7.1E1,5.5E1,3.1E1,4E1,3.2E1,2.3E1,1.2E1,2.8E1],"tree_param":{"num_deleted":"0","num_feature":"4","num_nodes":"13","size_leaf_vector":"0"}},{"base_weights":[1.6641511E-1,1.1898061E-1,3.822289E-1,8.748497E-2,3.961924E-1,4.224805E-2,1.6105723E-1,8.062258E-2,1.632493E-2,1.8743832E-1,1.2928909E-1,1.6301216E-3,8.145407E-2,-3.3577222E-3,3.8098404E-3],"default_left":[true,true,false,true,false,true,true,false,true,false,false,true,false,false,false],"id":14,"leaf_child_counts":[0,0,0,0,0,0,0,0,0,0,0,0,0,0,0],"left_children":[1,3,-1,5,-1,7,9,-1,11,-1,-1,13,-1,-1,-1],"loss_changes":[1.6845784E0,1.1876737E0,0E0,4.1587484E-1,0E0,7.826686E-2,1.5994072E-2,0E0,4.676317E-2,0E0,0E0,4.5854843E-4,0E0,0E0,0E0],"parents":[2147483647,0,0,1,1,3,3,5,5,6,6,8,8,11,11],"right_children":[2,4,-1,6,-1,8,10,-1,12,-1,-1,14,-1,-1,-1],"split_conditions":[4.397548E1,5.522875E2,1.14668675E-1,3.5713294E0,1.1885773E-1,9.519306E-1,7.8866873E0,2.4186777E-2,2.3060164E0,5.62315E-2,3.8786728E-2,1.467699E0,2.4436222E-2,-1.0073168E-3,1.1429521E-3],"split_indices":[0,1,0,0,0,0,0,0,0,0,0,0,0,0,0],"sum_hessian":[1.68E2,1.39E2,2.9E1,1.26E2,1.3E1,7.9E1,4.7E1,3.1E1,4.8E1,2.3E1,2.4E1,4E1,8E0,1.2E1,2.8E1],"tree_param":{"num_deleted":"0","num_feature":"4","num_nodes":"15","size_leaf_vector":"0"}},{"base_weights":[1.1872278E-1,8.516219E-2,2.7138144E-1,6.237143E-2,2.8582397E-1,3.0182917E-2,1.1471955E-1,5.7191342E-2,1.1928784E-2,1.335489E-1,9.20546E-2,1.1443758E-3,5.9732333E-2,-2.4278897E-3,2.7062749E-3],"default_left":[true,true,false,true,false,true,true,false,true,false,false,true,false,false,false],"id":15,"leaf_child_counts":[0,0,0,0,0,0,0,0,0,0,0,0,0,0,0],"left_children":[1,3,-1,5,-1,7,9,-1,11,-1,-1,13,-1,-1,-1],"loss_changes":[8.4272885E-1,6.2242556E-1,0E0,2.1053347E-1,0E0,3.8759008E-2,8.1909895E-3,0E0,2.5192758E-2,0E0,0E0,2.3533078E-4,0E0,0E0,0E0],"parents":[2147483647,0,0,1,1,3,3,5,5,6,6,8,8,11,11],"right_children":[2,4,-1,6,-1,8,10,-1,12,-1,-1,14,-1,-1,-1],"split_conditions":[4.397548E1,5.522875E2,8.141443E-2,3.5713294E0,8.57472E-2,9.519306E-1,7.8866873E0,1.7157404E-2,2.3060164E0,4.006467E-2,2.761638E-2,1.467699E0,1.79197E-2,-7.2836695E-4,8.118825E-4],"split_indices":[0,1,0,0,0,0,0,0,0,0,0,0,0,0,0],"sum_hessian":[1.68E2,1.39E2,2.9E1,1.26E2,1.3E1,7.9E1,4.7E1,3.1E1,4.8E1,2.3E1,2.4E1,4E1,8E0,1.2E1,2.8E1],"tree_param":{"num_deleted":"0","num_feature":"4","num_nodes":"15","size_leaf_vector":"0"}},{"base_weights":[8.470391E-2,6.096073E-2,1.9268195E-1,4.4469878E-2,2.0620196E-1,2.1567509E-2,8.1714034E-2,4.056996E-2,8.717592E-3,9.515437E-2,6.554276E-2,8.031057E-4,4.3803852E-2,-1.7555493E-3,1.9223958E-3],"default_left":[true,true,false,true,false,true,true,false,true,false,false,true,false,false,false],"id":16,"leaf_child_counts":[0,0,0,0,0,0,0,0,0,0,0,0,0,0,0],"left_children":[1,3,-1,5,-1,7,9,-1,11,-1,-1,13,-1,-1,-1],"loss_changes":[4.215263E-1,3.2615143E-1,0E0,1.0656601E-1,0E0,1.9180723E-2,4.195988E-3,0E0,1.3571616E-2,0E0,0E0,1.2079382E-4,0E0,0E0,0E0],"parents":[2147483647,0,0,1,1,3,3,5,5,6,6,8,8,11,11],"right_children":[2,4,-1,6,-1,8,10,-1,12,-1,-1,14,-1,-1,-1],"split_conditions":[4.397548E1,5.522875E2,5.780459E-2,3.5713294E0,6.1860587E-2,9.519306E-1,7.8866873E0,1.2170989E-2,2.3060164E0,2.8546311E-2,1.9662827E-2,1.467699E0,1.3141156E-2,-5.2666484E-4,5.7671877E-4],"split_indices":[0,1,0,0,0,0,0,0,0,0,0,0,0,0,0],"sum_hessian":[1.68E2,1.39E2,2.9E1,1.26E2,1.3E1,7.9E1,4.7E1,3.1E1,4.8E1,2.3E1,2.4E1,4E1,8E0,1.2E1,2.8E1],"tree_param":{"num_deleted":"0","num_feature":"4","num_nodes":"15","size_leaf_vector":"0"}},{"base_weights":[6.0436472E-2,4.3640178E-2,1.3680464E-1,3.1708393E-2,1.4876135E-1,1.3111708E-2,5.5052195E-2,2.8779507E-2,5.6338456E-4,4.4113997E-2,6.7798376E-2,-1.2693956E-3,1.3655486E-3],"default_left":[true,true,false,true,false,true,true,false,true,false,false,false,false],"id":17,"leaf_child_counts":[0,0,0,0,0,0,0,0,0,0,0,0,0],"left_children":[1,3,-1,5,-1,7,9,-1,11,-1,-1,-1,-1],"loss_changes":[2.1080655E-1,1.7088261E-1,0E0,5.4411083E-2,0E0,1.413932E-2,4.8166662E-3,0E0,6.2011226E-5,0E0,0E0,0E0,0E0],"parents":[2147483647,0,0,1,1,3,3,5,5,6,6,8,8],"right_children":[2,4,-1,6,-1,8,10,-1,12,-1,-1,-1,-1],"split_conditions":[4.397548E1,5.522875E2,4.1041393E-2,2.3060164E0,4.4628404E-2,9.519306E-1,4.7228058E2,8.633852E-3,1.467699E0,1.32342E-2,2.0339513E-2,-3.808187E-4,4.096646E-4],"split_indices":[0,1,0,0,0,0,1,0,0,0,0,0,0],"sum_hessian":[1.68E2,1.39E2,2.9E1,1.26E2,1.3E1,7.1E1,5.5E1,3.1E1,4E1,3.2E1,2.3E1,1.2E1,2.8E1],"tree_param":{"num_deleted":"0","num_feature":"4","num_nodes":"13","size_leaf_vector":"0"}},{"base_weights":[4.3062046E-2,3.1168384E-2,9.7130395E-2,2.2528196E-2,1.0732092E-1,1.0659013E-2,4.1840833E-2,2.0415694E-2,4.069772E-3,4.830591E-2,3.3960722E-2,3.9507268E-4,2.0357873E-2,-9.1787486E-4,9.7001216E-4],"default_left":[true,true,false,true,false,true,true,false,true,false,false,true,false,false,false],"id":18,"leaf_child_counts":[0,0,0,0,0,0,0,0,0,0,0,0,0,0,0],"left_children":[1,3,-1,5,-1,7,9,-1,11,-1,-1,13,-1,-1,-1],"loss_changes":[1.0565153E-1,8.9698374E-2,0E0,2.8665617E-2,0E0,5.0600423E-3,8.048862E-4,0E0,2.9247971E-3,0E0,0E0,3.183983E-5,0E0,0E0,0E0],"parents":[2147483647,0,0,1,1,3,3,5,5,6,6,8,8,11,11],"right_children":[2,4,-1,6,-1,8,10,-1,12,-1,-1,14,-1,-1,-1],"split_conditions":[4.397548E1,5.522875E2,2.913912E-2,3.5713294E0,3.2196276E-2,9.519306E-1,7.8866873E0,6.1247083E-3,2.3060164E0,1.4491773E-2,1.0188217E-2,1.467699E0,6.1073625E-3,-2.7536246E-4,2.9100367E-4],"split_indices":[0,1,0,0,0,0,0,0,0,0,0,0,0,0,0],"sum_hessian":[1.68E2,1.39E2,2.9E1,1.26E2,1.3E1,7.9E1,4.7E1,3.1E1,4.8E1,2.3E1,2.4E1,4E1,8E0,1.2E1,2.8E1],"tree_param":{"num_deleted":"0","num_feature":"4","num_nodes":"15","size_leaf_vector":"0"}},{"base_weights":[3.0724542E-2,2.2311497E-2,6.896127E-2,1.6060358E-2,7.742459E-2,7.6144948E-3,2.9802203E-2,1.4482588E-2,2.973812E-3,3.4417707E-2,2.417923E-2,2.769406E-4,1.4929135E-2,-6.636977E-4,6.890564E-4],"default_left":[true,true,false,true,false,true,true,false,true,false,false,true,false,false,false],"id":19,"leaf_child_counts":[0,0,0,0,0,0,0,0,0,0,0,0,0,0,0],"left_children":[1,3,-1,5,-1,7,9,-1,11,-1,-1,13,-1,-1,-1],"loss_changes":[5.2826524E-2,4.69893E-2,0E0,1.4512908E-2,0E0,2.5067423E-3,4.1354448E-4,0E0,1.5757221E-3,0E0,0E0,1.6351054E-5,0E0,0E0,0E0],"parents":[2147483647,0,0,1,1,3,3,5,5,6,6,8,8,11,11],"right_children":[2,4,-1,6,-1,8,10,-1,12,-1,-1,14,-1,-1,-1],"split_conditions":[4.397548E1,5.522875E2,2.0688381E-2,3.5713294E0,2.3227379E-2,9.519306E-1,7.8866873E0,4.3447763E-3,2.3060164E0,1.0325313E-2,7.2537693E-3,1.467699E0,4.478741E-3,-1.9910933E-4,2.0671693E-4],"split_indices":[0,1,0,0,0,0,0,0,0,0,0,0,0,0,0],"sum_hessian":[1.68E2,1.39E2,2.9E1,1.26E2,1.3E1,7.9E1,4.7E1,3.1E1,4.8E1,2.3E1,2.4E1,4E1,8E0,1.2E1,2.8E1],"tree_param":{"num_deleted":"0","num_feature":"4","num_nodes":"15","size_leaf_vector":"0"}},{"base_weights":[2.192362E-2,1.5972713E-2,4.8963737E-2,1.1450359E-2,5.5856023E-2,5.4405034E-3,2.1228233E-2,1.0273427E-2,2.1732778E-3,2.4523417E-2,1.7215729E-2,1.9404947E-4,1.0948287E-2,-4.799045E-4,4.894754E-4],"default_left":[true,true,false,true,false,true,true,false,true,false,false,true,false,false,false],"id":20,"leaf_child_counts":[0,0,0,0,0,0,0,0,0,0,0,0,0,0,0],"left_children":[1,3,-1,5,-1,7,9,-1,11,-1,-1,13,-1,-1,-1],"loss_changes":[2.6412256E-2,2.4611734E-2,0E0,7.347489E-3,0E0,1.240893E-3,2.1246448E-4,0E0,8.488952E-4,0E0,0E0,8.398144E-6,0E0,0E0,0E0],"parents":[2147483647,0,0,1,1,3,3,5,5,6,6,8,8,11,11],"right_children":[2,4,-1,6,-1,8,10,-1,12,-1,-1,14,-1,-1,-1],"split_conditions":[4.397548E1,5.522875E2,1.4689121E-2,3.5713294E0,1.6756808E-2,9.519306E-1,7.8866873E0,3.0820281E-3,2.3060164E0,7.357025E-3,5.1647187E-3,1.467699E0,3.2844862E-3,-1.4397135E-4,1.4684262E-4],"split_indices":[0,1,0,0,0,0,0,0,0,0,0,0,0,0,0],"sum_hessian":[1.68E2,1.39E2,2.9E1,1.26E2,1.3E1,7.9E1,4.7E1,3.1E1,4.8E1,2.3E1,2.4E1,4E1,8E0,1.2E1,2.8E1],"tree_param":{"num_deleted":"0","num_feature":"4","num_nodes":"15","size_leaf_vector":"0"}},{"base_weights":[1.5644029E-2,1.143536E-2,3.476302E-2,8.163934E-3,4.0295057E-2,3.8878694E-3,1.51206255E-2,7.2874725E-3,1.5883762E-3,1.74733E-2,1.2257232E-2,1.3588987E-4,8.028772E-3,-3.4700448E-4,3.476739E-4],"default_left":[true,true,false,true,false,true,true,false,true,false,false,true,false,false,false],"id":21,"leaf_child_counts":[0,0,0,0,0,0,0,0,0,0,0,0,0,0,0],"left_children":[1,3,-1,5,-1,7,9,-1,11,-1,-1,13,-1,-1,-1],"loss_changes":[1.3201144E-2,1.2888765E-2,0E0,3.7191147E-3,0E0,6.1381387E-4,1.0918453E-4,0E0,4.5728375E-4,0E0,0E0,4.313686E-6,0E0,0E0,0E0],"parents":[2147483647,0,0,1,1,3,3,5,5,6,6,8,8,11,11],"right_children":[2,4,-1,6,-1,8,10,-1,12,-1,-1,14,-1,-1,-1],"split_conditions":[4.397548E1,5.522875E2,1.0428906E-2,3.5713294E0,1.2088518E-2,9.519306E-1,7.8866873E0,2.1862418E-3,2.3060164E0,5.2419906E-3,3.6771698E-3,1.467699E0,2.4086316E-3,-1.04101346E-4,1.0430217E-4],"split_indices":[0,1,0,0,0,0,0,0,0,0,0,0,0,0,0],"sum_hessian":[1.68E2,1.39E2,2.9E1,1.26E2,1.3E1,7.9E1,4.7E1,3.1E1,4.8E1,2.3E1,2.4E1,4E1,8E0,1.2E1,2.8E1],"tree_param":{"num_deleted":"0","num_feature":"4","num_nodes":"15","size_leaf_vector":"0"}},{"base_weights":[1.1164036E-2,8.18774E-3,2.4681281E-2,5.821314E-3,2.9069765E-2,2.3519264E-3,1.0178004E-2,5.169958E-3,9.51232E-5,8.217002E-3,1.2450297E-2,-2.5091262E-4,2.469626E-4],"default_left":[true,true,false,true,false,true,true,false,true,false,false,false,false],"id":22,"leaf_child_counts":[0,0,0,0,0,0,0,0,0,0,0,0,0],"left_children":[1,3,-1,5,-1,7,9,-1,11,-1,-1,-1,-1],"loss_changes":[6.5970086E-3,6.748982E-3,0E0,1.8956731E-3,0E0,4.5740965E-4,1.4723046E-4,0E0,2.2161828E-6,0E0,0E0,0E0,0E0],"parents":[2147483647,0,0,1,1,3,3,5,5,6,6,8,8],"right_children":[2,4,-1,6,-1,8,10,-1,12,-1,-1,-1,-1],"split_conditions":[4.397548E1,5.522875E2,7.4043847E-3,2.3060164E0,8.72093E-3,9.519306E-1,4.7228058E2,1.5509875E-3,1.467699E0,2.4651007E-3,3.7350894E-3,-7.527379E-5,7.408878E-5],"split_indices":[0,1,0,0,0,0,1,0,0,0,0,0,0],"sum_hessian":[1.68E2,1.39E2,2.9E1,1.26E2,1.3E1,7.1E1,5.5E1,3.1E1,4E1,3.2E1,2.3E1,1.2E1,2.8E1],"tree_param":{"num_deleted":"0","num_feature":"4","num_nodes":"13","size_leaf_vector":"0"}},{"base_weights":[7.956428E-3,5.849453E-3,1.7523766E-2,4.1363146E-3,2.0972252E-2,1.9171179E-3,7.7488027E-3,3.667742E-3,7.3472824E-4,8.871317E-3,6.361237E-3,6.655949E-5,3.6969716E-3,-1.8142279E-4,1.754288E-4],"default_left":[true,true,false,true,false,true,true,false,true,false,false,true,false,false,false],"id":23,"leaf_child_counts":[0,0,0,0,0,0,0,0,0,0,0,0,0,0,0],"left_children":[1,3,-1,5,-1,7,9,-1,11,-1,-1,13,-1,-1,-1],"loss_changes":[3.3042217E-3,3.5402952E-3,0E0,1.003281E-3,0E0,1.628988E-4,1.8330757E-5,0E0,9.673857E-5,0E0,0E0,1.1387308E-6,0E0,0E0,0E0],"parents":[2147483647,0,0,1,1,3,3,5,5,6,6,8,8,11,11],"right_children":[2,4,-1,6,-1,8,10,-1,12,-1,-1,14,-1,-1,-1],"split_conditions":[4.397548E1,5.522875E2,5.2571297E-3,3.5713294E0,6.291676E-3,9.519306E-1,7.8866873E0,1.1003227E-3,2.3060164E0,2.6613951E-3,1.9083711E-3,1.467699E0,1.1090916E-3,-5.4426837E-5,5.2628642E-5],"split_indices":[0,1,0,0,0,0,0,0,0,0,0,0,0,0,0],"sum_hessian":[1.68E2,1.39E2,2.9E1,1.26E2,1.3E1,7.9E1,4.7E1,3.1E1,4.8E1,2.3E1,2.4E1,4E1,8E0,1.2E1,2.8E1],"tree_param":{"num_deleted":"0","num_feature":"4","num_nodes":"15","size_leaf_vector":"0"}},{"base_weights":[5.678082E-3,4.1880417E-3,1.2442335E-2,2.9487398E-3,1.5131133E-2,1.3695859E-3,5.5192313E-3,2.6015937E-3,5.370585E-4,6.32143E-3,4.5283507E-3,4.654832E-5,2.711932E-3],"default_left":[true,true,false,true,false,true,true,false,true,false,false,false,false],"id":24,"leaf_child_counts":[0,0,0,0,0,0,0,0,0,0,0,0,0],"left_children":[1,3,-1,5,-1,7,9,-1,11,-1,-1,-1,-1],"loss_changes":[1.6512438E-3,1.854033E-3,0E0,5.079595E-4,0E0,8.0657206E-5,9.528827E-6,0E0,5.2146846E-5,0E0,0E0,5.851783E-7,0E0],"parents":[2147483647,0,0,1,1,3,3,5,5,6,6,8,8],"right_children":[2,4,-1,6,-1,8,10,-1,12,-1,-1,-1,-1],"split_conditions":[4.397548E1,5.522875E2,3.7327006E-3,3.5713294E0,4.53934E-3,9.519306E-1,7.8866873E0,7.804782E-4,2.3060164E0,1.8964291E-3,1.3585052E-3,1.3964497E-5,8.135796E-4],"split_indices":[0,1,0,0,0,0,0,0,0,0,0,0,0],"sum_hessian":[1.68E2,1.39E2,2.9E1,1.26E2,1.3E1,7.9E1,4.7E1,3.1E1,4.8E1,2.3E1,2.4E1,4E1,8E0],"tree_param":{"num_deleted":"0","num_feature":"4","num_nodes":"13","size_leaf_vector":"0"}},{"base_weights":[4.052213E-3,2.9989788E-3,8.832232E-3,2.1026342E-3,1.0915892E-2,9.788752E-4,3.931761E-3,1.8458664E-3,3.9269973E-4,4.504522E-3,3.22464E-3,3.2936656E-5,1.9879872E-3],"default_left":[true,true,false,true,false,true,true,false,true,false,false,false,false],"id":25,"leaf_child_counts":[0,0,0,0,0,0,0,0,0,0,0,0,0],"left_children":[1,3,-1,5,-1,7,9,-1,11,-1,-1,-1,-1],"loss_changes":[8.2433945E-4,9.7052753E-4,0E0,2.5719946E-4,0E0,3.9931845E-5,4.915055E-6,0E0,2.8056873E-5,0E0,0E0,5.835825E-7,0E0],"parents":[2147483647,0,0,1,1,3,3,5,5,6,6,8,8],"right_children":[2,4,-1,6,-1,8,10,-1,12,-1,-1,-1,-1],"split_conditions":[4.397548E1,5.522875E2,2.6496698E-3,3.5713294E0,3.274768E-3,9.519306E-1,7.8866873E0,5.5376E-4,2.3060164E0,1.3513566E-3,9.67392E-4,9.880997E-6,5.9639616E-4],"split_indices":[0,1,0,0,0,0,0,0,0,0,0,0,0],"sum_hessian":[1.68E2,1.39E2,2.9E1,1.26E2,1.3E1,7.9E1,4.7E1,3.1E1,4.8E1,2.3E1,2.4E1,4E1,8E0],"tree_param":{"num_deleted":"0","num_feature":"4","num_nodes":"13","size_leaf_vector":"0"}},{"base_weights":[2.8918914E-3,2.147485E-3,6.269391E-3,1.4990122E-3,7.876669E-3,6.995223E-4,2.800266E-3,1.3090968E-3,2.8715693E-4,3.2085578E-3,2.2962952E-3,2.328797E-5,1.4573203E-3],"default_left":[true,true,false,true,false,true,true,false,true,false,false,false,false],"id":26,"leaf_child_counts":[0,0,0,0,0,0,0,0,0,0,0,0,0],"left_children":[1,3,-1,5,-1,7,9,-1,11,-1,-1,-1,-1],"loss_changes":[4.114419E-4,5.0832354E-4,0E0,1.301642E-4,0E0,1.9733478E-5,2.5090412E-6,0E0,1.5095782E-5,0E0,0E0,5.821268E-7,0E0],"parents":[2147483647,0,0,1,1,3,3,5,5,6,6,8,8],"right_children":[2,4,-1,6,-1,8,10,-1,12,-1,-1,-1,-1],"split_conditions":[4.397548E1,5.522875E2,1.8808175E-3,3.5713294E0,2.3630008E-3,9.519306E-1,7.8866873E0,3.9272907E-4,2.3060164E0,9.625674E-4,6.888886E-4,6.9863913E-6,4.371961E-4],"split_indices":[0,1,0,0,0,0,0,0,0,0,0,0,0],"sum_hessian":[1.68E2,1.39E2,2.9E1,1.26E2,1.3E1,7.9E1,4.7E1,3.1E1,4.8E1,2.3E1,2.4E1,4E1,8E0],"tree_param":{"num_deleted":"0","num_feature":"4","num_nodes":"13","size_leaf_vector":"0"}},{"base_weights":[2.0642676E-3,1.5379871E-3,4.4514337E-3,1.0688324E-3,5.6840354E-3,4.22034E-4,1.881344E-3,9.2846155E-4,1.6479957E-5,1.5304161E-3,2.2854805E-3],"default_left":[true,true,false,true,false,true,true,false,false,false,false],"id":27,"leaf_child_counts":[0,0,0,0,0,0,0,0,0,0,0],"left_children":[1,3,-1,5,-1,7,9,-1,-1,-1,-1],"loss_changes":[2.0547159E-4,2.6624408E-4,0E0,6.5948465E-5,0E0,1.47723285E-5,4.4443295E-6,0E0,5.81101E-7,0E0,0E0],"parents":[2147483647,0,0,1,1,3,3,5,5,6,6],"right_children":[2,4,-1,6,-1,8,10,-1,-1,-1,-1],"split_conditions":[4.397548E1,5.522875E2,1.3354302E-3,2.3060164E0,1.7052107E-3,9.519306E-1,4.7228058E2,2.7853847E-4,4.9439873E-6,4.5912483E-4,6.8564416E-4],"split_indices":[0,1,0,0,0,0,1,0,0,0,0],"sum_hessian":[1.68E2,1.39E2,2.9E1,1.26E2,1.3E1,7.1E1,5.5E1,3.1E1,4E1,3.2E1,2.3E1],"tree_param":{"num_deleted":"0","num_feature":"4","num_nodes":"11","size_leaf_vector":"0"}},{"base_weights":[1.4715139E-3,1.2261317E-3,4.100663E-3,7.5947016E-4,3.1607945E-3,3.4375192E-4,1.4365116E-3,6.5869093E-4,1.310621E-4,1.1653435E-5,6.6047243E-4],"default_left":[true,true,false,true,false,true,false,false,true,false,false],"id":28,"leaf_child_counts":[0,0,0,0,0,0,0,0,0,0,0],"left_children":[1,3,-1,5,-1,7,-1,-1,9,-1,-1],"loss_changes":[1.0400178E-4,1.3844139E-4,0E0,3.5251433E-5,0E0,5.2724163E-6,2.9849616E-7,0E0,3.0898964E-6,5.802747E-7,0E0],"parents":[2147483647,0,0,1,1,3,3,5,5,8,8],"right_children":[2,4,-1,6,-1,8,-1,-1,10,-1,-1],"split_conditions":[5.522875E2,4.397548E1,1.230199E-3,3.5713294E0,9.4823836E-4,9.519306E-1,4.309535E-4,1.9760728E-4,2.3060164E0,3.4960306E-6,1.9814174E-4],"split_indices":[1,0,0,0,0,0,0,0,0,0,0],"sum_hessian":[1.68E2,1.55E2,1.3E1,1.26E2,2.9E1,7.9E1,4.7E1,3.1E1,4.8E1,4E1,8E0],"tree_param":{"num_deleted":"0","num_feature":"4","num_nodes":"11","size_leaf_vector":"0"}},{"base_weights":[1.0477195E-3,8.693823E-4,2.9600689E-3,5.381553E-4,2.242597E-3,2.4566278E-4,1.0144314E-3,4.6744943E-4,9.5808995E-5,1.2161732E-3,7.801819E-4,8.226894E-6,4.8414865E-4],"default_left":[true,true,false,true,false,true,true,false,true,false,false,false,false],"id":29,"leaf_child_counts":[0,0,0,0,0,0,0,0,0,0,0,0,0],"left_children":[1,3,-1,5,-1,7,9,-1,11,-1,-1,-1,-1],"loss_changes":[5.506286E-5,6.974906E-5,0E0,1.7442802E-5,0E0,2.6140597E-6,1.3195422E-6,0E0,1.6625854E-6,0E0,0E0,5.795973E-7,0E0],"parents":[2147483647,0,0,1,1,3,3,5,5,6,6,8,8],"right_children":[2,4,-1,6,-1,8,10,-1,12,-1,-1,-1,-1],"split_conditions":[5.522875E2,4.397548E1,8.880207E-4,3.5713294E0,6.7277916E-4,9.519306E-1,7.8866873E0,1.4023483E-4,2.3060164E0,3.6485196E-4,2.3405458E-4,2.4680685E-6,1.452446E-4],"split_indices":[1,0,0,0,0,0,0,0,0,0,0,0,0],"sum_hessian":[1.68E2,1.55E2,1.3E1,1.26E2,2.9E1,7.9E1,4.7E1,3.1E1,4.8E1,2.3E1,2.4E1,4E1,8E0],"tree_param":{"num_deleted":"0","num_feature":"4","num_nodes":"13","size_leaf_vector":"0"}},{"base_weights":[7.480859E-4,6.188479E-4,2.1347317E-3,3.8372108E-4,1.5935898E-3,1.756169E-4,7.2256726E-4,3.3164024E-4,7.014007E-5],"default_left":[true,true,false,true,false,true,false,false,false],"id":30,"leaf_child_counts":[0,0,0,0,0,0,0,0,0],"left_children":[1,3,-1,5,-1,7,-1,-1,-1],"loss_changes":[2.8964969E-5,3.514183E-5,0E0,8.828549E-6,0E0,1.2932865E-6,6.811806E-7,0E0,9.940813E-7],"parents":[2147483647,0,0,1,1,3,3,5,5],"right_children":[2,4,-1,6,-1,8,-1,-1,-1],"split_conditions":[5.522875E2,4.397548E1,6.4041954E-4,3.5713294E0,4.7807695E-4,9.519306E-1,2.1677019E-4,9.949208E-5,2.1042022E-5],"split_indices":[1,0,0,0,0,0,0,0,0],"sum_hessian":[1.68E2,1.55E2,1.3E1,1.26E2,2.9E1,7.9E1,4.7E1,3.1E1,4.8E1],"tree_param":{"num_deleted":"0","num_feature":"4","num_nodes":"9","size_leaf_vector":"0"}},{"base_weights":[5.32327E-4,4.385148E-4,1.5396391E-3,2.7109365E-4,1.1326472E-3,9.6325246E-5,4.9095496E-4,-1.8913929E-4,1.5657047E-4,3.5410217E-4,6.586711E-4],"default_left":[true,true,false,true,false,true,true,false,false,false,false],"id":31,"leaf_child_counts":[0,0,0,0,0,0,0,0,0,0,0],"left_children":[1,3,-1,5,-1,7,9,-1,-1,-1,-1],"loss_changes":[1.5295027E-5,1.782209E-5,0E0,4.832659E-6,0E0,1.2678607E-6,1.0520989E-6,0E0,4.235702E-7,0E0,0E0],"parents":[2147483647,0,0,1,1,3,3,5,5,6,6],"right_children":[2,4,-1,6,-1,8,10,-1,-1,-1,-1],"split_conditions":[5.522875E2,4.397548E1,4.6189173E-4,2.3060164E0,3.3979415E-4,4.8033563E2,4.7228058E2,-5.674179E-5,4.6971145E-5,1.06230655E-4,1.9760133E-4],"split_indices":[1,0,0,0,0,1,1,0,0,0,0],"sum_hessian":[1.68E2,1.55E2,1.3E1,1.26E2,2.9E1,7.1E1,5.5E1,1.2E1,5.9E1,3.2E1,2.3E1],"tree_param":{"num_deleted":"0","num_feature":"4","num_nodes":"11","size_leaf_vector":"0"}},{"base_weights":[3.7901677E-4,3.1089364E-4,1.1110306E-3,1.9185609E-4,8.0445607E-4,6.739712E-5,3.4844875E-4],"default_left":[true,true,false,true,false,false,false],"id":32,"leaf_child_counts":[0,0,0,0,0,0,0],"left_children":[1,3,-1,5,-1,-1,-1],"loss_changes":[8.082126E-6,9.0110425E-6,0E0,2.4516644E-6,0E0,8.6895E-7,5.4131715E-7],"parents":[2147483647,0,0,1,1,3,3],"right_children":[2,4,-1,6,-1,-1,-1],"split_conditions":[5.522875E2,4.397548E1,3.3330917E-4,2.3060164E0,2.4133683E-4,2.0219137E-5,1.0453463E-4],"split_indices":[1,0,0,0,0,0,0],"sum_hessian":[1.68E2,1.55E2,1.3E1,1.26E2,2.9E1,7.1E1,5.5E1],"tree_param":{"num_deleted":"0","num_feature":"4","num_nodes":"7","size_leaf_vector":"0"}},{"base_weights":[2.696507E-4,2.2007029E-4,8.028575E-4,1.3517113E-4,5.72141E-4,4.7546295E-5,2.4541788E-4],"default_left":[true,true,false,true,false,false,false],"id":33,"leaf_child_counts":[0,0,0,0,0,0,0],"left_children":[1,3,-1,5,-1,-1,-1],"loss_changes":[4.2911042E-6,4.585582E-6,0E0,1.2151961E-6,0E0,8.737078E-7,6.086734E-7],"parents":[2147483647,0,0,1,1,3,3],"right_children":[2,4,-1,6,-1,-1,-1],"split_conditions":[5.522875E2,4.397548E1,2.4085726E-4,2.3060164E0,1.7164231E-4,1.4263889E-5,7.3625364E-5],"split_indices":[1,0,0,0,0,0,0],"sum_hessian":[1.68E2,1.55E2,1.3E1,1.26E2,2.9E1,7.1E1,5.5E1],"tree_param":{"num_deleted":"0","num_feature":"4","num_nodes":"7","size_leaf_vector":"0"}},{"base_weights":[1.9150197E-4,1.5543631E-4,5.796977E-4,9.497648E-5,4.0620167E-4],"default_left":[true,true,false,false,false],"id":34,"leaf_child_counts":[0,0,0,0,0],"left_children":[1,3,-1,-1,-1],"loss_changes":[2.2759846E-6,2.3265723E-6,0E0,6.6107225E-7,0E0],"parents":[2147483647,0,0,1,1],"right_children":[2,4,-1,-1,-1],"split_conditions":[5.522875E2,4.397548E1,1.7390933E-4,2.8492945E-5,1.218605E-4],"split_indices":[1,0,0,0,0],"sum_hessian":[1.68E2,1.55E2,1.3E1,1.26E2,2.9E1],"tree_param":{"num_deleted":"0","num_feature":"4","num_nodes":"5","size_leaf_vector":"0"}},{"base_weights":[1.3575434E-4,-2.0421876E-5,1.9089175E-4],"default_left":[true,false,false],"id":35,"leaf_child_counts":[0,0,0],"left_children":[1,-1,-1],"loss_changes":[1.4591831E-6,5.539893E-7,8.019765E-7],"parents":[2147483647,0,0],"right_children":[2,-1,-1],"split_conditions":[4.7228058E2,-6.126563E-6,5.7267527E-5],"split_indices":[1,0,0],"sum_hessian":[1.68E2,4.4E1,1.24E2],"tree_param":{"num_deleted":"0","num_feature":"4","num_nodes":"3","size_leaf_vector":"0"}},{"base_weights":[9.5278556E-5,7.058565E-5,3.6362238E-4,-4.0567582E-5,1.6390857E-4],"default_left":[true,true,false,false,false],"id":36,"leaf_child_counts":[0,0,0,0,0],"left_children":[1,3,-1,-1,-1],"loss_changes":[1.0941592E-6,1.6248598E-6,0E0,7.374272E-7,5.9256877E-7],"parents":[2147483647,0,0,1,1],"right_children":[2,4,-1,-1,-1],"split_conditions":[5.522875E2,2.3060164E0,1.0908672E-4,-1.2170275E-5,4.9172573E-5],"split_indices":[1,0,0,0,0],"sum_hessian":[1.68E2,1.55E2,1.3E1,7.1E1,8.4E1],"tree_param":{"num_deleted":"0","num_feature":"4","num_nodes":"5","size_leaf_vector":"0"}},{"base_weights":[6.727319E-5],"default_left":[false],"id":37,"leaf_child_counts":[0],"left_children":[-1],"loss_changes":[7.854993E-7],"parents":[2147483647],"right_children":[-1],"split_conditions":[2.0181958E-5],"split_indices":[0],"sum_hessian":[1.68E2],"tree_param":{"num_deleted":"0","num_feature":"4","num_nodes":"1","size_leaf_vector":"0"}},{"base_weights":[4.7250964E-5],"default_left":[false],"id":38,"leaf_child_counts":[0],"left_children":[-1],"loss_changes":[7.9328953E-7],"parents":[2147483647],"right_children":[-1],"split_conditions":[1.417529E-5],"split_indices":[0],"sum_hessian":[1.68E2],"tree_param":{"num_deleted":"0","num_feature":"4","num_nodes":"1","size_leaf_vector":"0"}},{"base_weights":[3.313313E-5],"default_left":[false],"id":39,"leaf_child_counts":[0],"left_children":[-1],"loss_changes":[7.8382647E-7],"parents":[2147483647],"right_children":[-1],"split_conditions":[9.9399385E-6],"split_indices":[0],"sum_hessian":[1.68E2],"tree_param":{"num_deleted":"0","num_feature":"4","num_nodes":"1","size_leaf_vector":"0"}},{"base_weights":[2.3081106E-5],"default_left":[false],"id":40,"leaf_child_counts":[0],"left_children":[-1],"loss_changes":[7.7663395E-7],"parents":[2147483647],"right_children":[-1],"split_conditions":[6.924332E-6],"split_indices":[0],"sum_hessian":[1.68E2],"tree_param":{"num_deleted":"0","num_feature":"4","num_nodes":"1","size_leaf_vector":"0"}},{"base_weights":[1.5840022E-5],"default_left":[false],"id":41,"leaf_child_counts":[0],"left_children":[-1],"loss_changes":[7.7794357E-7],"parents":[2147483647],"right_children":[-1],"split_conditions":[4.7520066E-6],"split_indices":[0],"sum_hessian":[1.68E2],"tree_param":{"num_deleted":"0","num_feature":"4","num_nodes":"1","size_leaf_vector":"0"}},{"base_weights":[1.16483E-5],"default_left":[false],"id":42,"leaf_child_counts":[0],"left_children":[-1],"loss_changes":[7.754819E-7],"parents":[2147483647],"right_children":[-1],"split_conditions":[3.49449E-6],"split_indices":[0],"sum_hessian":[1.68E2],"tree_param":{"num_deleted":"0","num_feature":"4","num_nodes":"1","size_leaf_vector":"0"}},{"base_weights":[7.927771E-6],"default_left":[false],"id":43,"leaf_child_counts":[0],"left_children":[-1],"loss_changes":[7.7483566E-7],"parents":[2147483647],"right_children":[-1],"split_conditions":[2.3783314E-6],"split_indices":[0],"sum_hessian":[1.68E2],"tree_param":{"num_deleted":"0","num_feature":"4","num_nodes":"1","size_leaf_vector":"0"}},{"base_weights":[5.4448315E-6],"default_left":[false],"id":44,"leaf_child_counts":[0],"left_children":[-1],"loss_changes":[7.6832373E-7],"parents":[2147483647],"right_children":[-1],"split_conditions":[1.6334495E-6],"split_indices":[0],"sum_hessian":[1.68E2],"tree_param":{"num_deleted":"0","num_feature":"4","num_nodes":"1","size_leaf_vector":"0"}},{"base_weights":[4.0912064E-6],"default_left":[false],"id":45,"leaf_child_counts":[0],"left_children":[-1],"loss_changes":[7.7448993E-7],"parents":[2147483647],"right_children":[-1],"split_conditions":[1.227362E-6],"split_indices":[0],"sum_hessian":[1.68E2],"tree_param":{"num_deleted":"0","num_feature":"4","num_nodes":"1","size_leaf_vector":"0"}},{"base_weights":[3.0013937E-6],"default_left":[false],"id":46,"leaf_child_counts":[0],"left_children":[-1],"loss_changes":[7.827643E-7],"parents":[2147483647],"right_children":[-1],"split_conditions":[9.004181E-7],"split_indices":[0],"sum_hessian":[1.68E2],"tree_param":{"num_deleted":"0","num_feature":"4","num_nodes":"1","size_leaf_vector":"0"}},{"base_weights":[2.6148452E-6],"default_left":[false],"id":47,"leaf_child_counts":[0],"left_children":[-1],"loss_changes":[7.807488E-7],"parents":[2147483647],"right_children":[-1],"split_conditions":[7.844536E-7],"split_indices":[0],"sum_hessian":[1.68E2],"tree_param":{"num_deleted":"0","num_feature":"4","num_nodes":"1","size_leaf_vector":"0"}},{"base_weights":[2.2554539E-6],"default_left":[false],"id":48,"leaf_child_counts":[0],"left_children":[-1],"loss_changes":[7.7872403E-7],"parents":[2147483647],"right_children":[-1],"split_conditions":[6.766362E-7],"split_indices":[0],"sum_hessian":[1.68E2],"tree_param":{"num_deleted":"0","num_feature":"4","num_nodes":"1","size_leaf_vector":"0"}},{"base_weights":[1.9242777E-6],"default_left":[false],"id":49,"leaf_child_counts":[0],"left_children":[-1],"loss_changes":[7.7665004E-7],"parents":[2147483647],"right_children":[-1],"split_conditions":[5.7728334E-7],"split_indices":[0],"sum_hessian":[1.68E2],"tree_param":{"num_deleted":"0","num_feature":"4","num_nodes":"1","size_leaf_vector":"0"}},{"base_weights":[1.6093254E-6],"default_left":[false],"id":50,"leaf_child_counts":[0],"left_children":[-1],"loss_changes":[7.7447237E-7],"parents":[2147483647],"right_children":[-1],"split_conditions":[4.8279765E-7],"split_indices":[0],"sum_hessian":[1.68E2],"tree_param":{"num_deleted":"0","num_feature":"4","num_nodes":"1","size_leaf_vector":"0"}},{"base_weights":[1.3215302E-6],"default_left":[false],"id":51,"leaf_child_counts":[0],"left_children":[-1],"loss_changes":[7.7228617E-7],"parents":[2147483647],"right_children":[-1],"split_conditions":[3.964591E-7],"split_indices":[0],"sum_hessian":[1.68E2],"tree_param":{"num_deleted":"0","num_feature":"4","num_nodes":"1","size_leaf_vector":"0"}},{"base_weights":[1.223835E-6],"default_left":[false],"id":52,"leaf_child_counts":[0],"left_children":[-1],"loss_changes":[7.7242623E-7],"parents":[2147483647],"right_children":[-1],"split_conditions":[3.6715053E-7],"split_indices":[0],"sum_hessian":[1.68E2],"tree_param":{"num_deleted":"0","num_feature":"4","num_nodes":"1","size_leaf_vector":"0"}},{"base_weights":[1.1381313E-6],"default_left":[false],"id":53,"leaf_child_counts":[0],"left_children":[-1],"loss_changes":[7.7262087E-7],"parents":[2147483647],"right_children":[-1],"split_conditions":[3.414394E-7],"split_indices":[0],"sum_hessian":[1.68E2],"tree_param":{"num_deleted":"0","num_feature":"4","num_nodes":"1","size_leaf_vector":"0"}},{"base_weights":[1.0545438E-6],"default_left":[false],"id":54,"leaf_child_counts":[0],"left_children":[-1],"loss_changes":[7.7273523E-7],"parents":[2147483647],"right_children":[-1],"split_conditions":[3.1636313E-7],"split_indices":[0],"sum_hessian":[1.68E2],"tree_param":{"num_deleted":"0","num_feature":"4","num_nodes":"1","size_leaf_vector":"0"}},{"base_weights":[9.829477E-7],"default_left":[false],"id":55,"leaf_child_counts":[0],"left_children":[-1],"loss_changes":[7.729041E-7],"parents":[2147483647],"right_children":[-1],"split_conditions":[2.948843E-7],"split_indices":[0],"sum_hessian":[1.68E2],"tree_param":{"num_deleted":"0","num_feature":"4","num_nodes":"1","size_leaf_vector":"0"}},{"base_weights":[9.124096E-7],"default_left":[false],"id":56,"leaf_child_counts":[0],"left_children":[-1],"loss_changes":[7.730329E-7],"parents":[2147483647],"right_children":[-1],"split_conditions":[2.737229E-7],"split_indices":[0],"sum_hessian":[1.68E2],"tree_param":{"num_deleted":"0","num_feature":"4","num_nodes":"1","size_leaf_vector":"0"}},{"base_weights":[8.4398766E-7],"default_left":[false],"id":57,"leaf_child_counts":[0],"left_children":[-1],"loss_changes":[7.7308124E-7],"parents":[2147483647],"right_children":[-1],"split_conditions":[2.531963E-7],"split_indices":[0],"sum_hessian":[1.68E2],"tree_param":{"num_deleted":"0","num_feature":"4","num_nodes":"1","size_leaf_vector":"0"}},{"base_weights":[7.864992E-7],"default_left":[false],"id":58,"leaf_child_counts":[0],"left_children":[-1],"loss_changes":[7.732244E-7],"parents":[2147483647],"right_children":[-1],"split_conditions":[2.3594977E-7],"split_indices":[0],"sum_hessian":[1.68E2],"tree_param":{"num_deleted":"0","num_feature":"4","num_nodes":"1","size_leaf_vector":"0"}},{"base_weights":[7.3006873E-7],"default_left":[false],"id":59,"leaf_child_counts":[0],"left_children":[-1],"loss_changes":[7.7332743E-7],"parents":[2147483647],"right_children":[-1],"split_conditions":[2.1902063E-7],"split_indices":[0],"sum_hessian":[1.68E2],"tree_param":{"num_deleted":"0","num_feature":"4","num_nodes":"1","size_leaf_vector":"0"}},{"base_weights":[6.7469637E-7],"default_left":[false],"id":60,"leaf_child_counts":[0],"left_children":[-1],"loss_changes":[7.733902E-7],"parents":[2147483647],"right_children":[-1],"split_conditions":[2.0240891E-7],"split_indices":[0],"sum_hessian":[1.68E2],"tree_param":{"num_deleted":"0","num_feature":"4","num_nodes":"1","size_leaf_vector":"0"}},{"base_weights":[6.302574E-7],"default_left":[false],"id":61,"leaf_child_counts":[0],"left_children":[-1],"loss_changes":[7.735478E-7],"parents":[2147483647],"right_children":[-1],"split_conditions":[1.8907723E-7],"split_indices":[0],"sum_hessian":[1.68E2],"tree_param":{"num_deleted":"0","num_feature":"4","num_nodes":"1","size_leaf_vector":"0"}},{"base_weights":[5.868765E-7],"default_left":[false],"id":62,"leaf_child_counts":[0],"left_children":[-1],"loss_changes":[7.736653E-7],"parents":[2147483647],"right_children":[-1],"split_conditions":[1.7606297E-7],"split_indices":[0],"sum_hessian":[1.68E2],"tree_param":{"num_deleted":"0","num_feature":"4","num_nodes":"1","size_leaf_vector":"0"}},{"base_weights":[5.445537E-7],"default_left":[false],"id":63,"leaf_child_counts":[0],"left_children":[-1],"loss_changes":[7.7374256E-7],"parents":[2147483647],"right_children":[-1],"split_conditions":[1.6336611E-7],"split_indices":[0],"sum_hessian":[1.68E2],"tree_param":{"num_deleted":"0","num_feature":"4","num_nodes":"1","size_leaf_vector":"0"}},{"base_weights":[5.032889E-7],"default_left":[false],"id":64,"leaf_child_counts":[0],"left_children":[-1],"loss_changes":[7.737796E-7],"parents":[2147483647],"right_children":[-1],"split_conditions":[1.5098668E-7],"split_indices":[0],"sum_hessian":[1.68E2],"tree_param":{"num_deleted":"0","num_feature":"4","num_nodes":"1","size_leaf_vector":"0"}},{"base_weights":[4.6308224E-7],"default_left":[false],"id":65,"leaf_child_counts":[0],"left_children":[-1],"loss_changes":[7.737764E-7],"parents":[2147483647],"right_children":[-1],"split_conditions":[1.3892468E-7],"split_indices":[0],"sum_hessian":[1.68E2],"tree_param":{"num_deleted":"0","num_feature":"4","num_nodes":"1","size_leaf_vector":"0"}},{"base_weights":[4.3380896E-7],"default_left":[false],"id":66,"leaf_child_counts":[0],"left_children":[-1],"loss_changes":[7.738681E-7],"parents":[2147483647],"right_children":[-1],"split_conditions":[1.301427E-7],"split_indices":[0],"sum_hessian":[1.68E2],"tree_param":{"num_deleted":"0","num_feature":"4","num_nodes":"1","size_leaf_vector":"0"}},{"base_weights":[4.0453565E-7],"default_left":[false],"id":67,"leaf_child_counts":[0],"left_children":[-1],"loss_changes":[7.739598E-7],"parents":[2147483647],"right_children":[-1],"split_conditions":[1.213607E-7],"split_indices":[0],"sum_hessian":[1.68E2],"tree_param":{"num_deleted":"0","num_feature":"4","num_nodes":"1","size_leaf_vector":"0"}},{"base_weights":[3.7632046E-7],"default_left":[false],"id":68,"leaf_child_counts":[0],"left_children":[-1],"loss_changes":[7.7401137E-7],"parents":[2147483647],"right_children":[-1],"split_conditions":[1.1289614E-7],"split_indices":[0],"sum_hessian":[1.68E2],"tree_param":{"num_deleted":"0","num_feature":"4","num_nodes":"1","size_leaf_vector":"0"}},{"base_weights":[3.4810523E-7],"default_left":[false],"id":69,"leaf_child_counts":[0],"left_children":[-1],"loss_changes":[7.7406287E-7],"parents":[2147483647],"right_children":[-1],"split_conditions":[1.0443157E-7],"split_indices":[0],"sum_hessian":[1.68E2],"tree_param":{"num_deleted":"0","num_feature":"4","num_nodes":"1","size_leaf_vector":"0"}},{"base_weights":[3.209481E-7],"default_left":[false],"id":70,"leaf_child_counts":[0],"left_children":[-1],"loss_changes":[7.740741E-7],"parents":[2147483647],"right_children":[-1],"split_conditions":[9.628443E-8],"split_indices":[0],"sum_hessian":[1.68E2],"tree_param":{"num_deleted":"0","num_feature":"4","num_nodes":"1","size_leaf_vector":"0"}},{"base_weights":[2.94849E-7],"default_left":[false],"id":71,"leaf_child_counts":[0],"left_children":[-1],"loss_changes":[7.7404525E-7],"parents":[2147483647],"right_children":[-1],"split_conditions":[8.8454705E-8],"split_indices":[0],"sum_hessian":[1.68E2],"tree_param":{"num_deleted":"0","num_feature":"4","num_nodes":"1","size_leaf_vector":"0"}},{"base_weights":[2.7862527E-7],"default_left":[false],"id":72,"leaf_child_counts":[0],"left_children":[-1],"loss_changes":[7.741514E-7],"parents":[2147483647],"right_children":[-1],"split_conditions":[8.358758E-8],"split_indices":[0],"sum_hessian":[1.68E2],"tree_param":{"num_deleted":"0","num_feature":"4","num_nodes":"1","size_leaf_vector":"0"}},{"base_weights":[2.624015E-7],"default_left":[false],"id":73,"leaf_child_counts":[0],"left_children":[-1],"loss_changes":[7.7425756E-7],"parents":[2147483647],"right_children":[-1],"split_conditions":[7.8720454E-8],"split_indices":[0],"sum_hessian":[1.68E2],"tree_param":{"num_deleted":"0","num_feature":"4","num_nodes":"1","size_leaf_vector":"0"}},{"base_weights":[2.4723585E-7],"default_left":[false],"id":74,"leaf_child_counts":[0],"left_children":[-1],"loss_changes":[7.7432355E-7],"parents":[2147483647],"right_children":[-1],"split_conditions":[7.417076E-8],"split_indices":[0],"sum_hessian":[1.68E2],"tree_param":{"num_deleted":"0","num_feature":"4","num_nodes":"1","size_leaf_vector":"0"}},{"base_weights":[2.3207015E-7],"default_left":[false],"id":75,"leaf_child_counts":[0],"left_children":[-1],"loss_changes":[7.743896E-7],"parents":[2147483647],"right_children":[-1],"split_conditions":[6.9621045E-8],"split_indices":[0],"sum_hessian":[1.68E2],"tree_param":{"num_deleted":"0","num_feature":"4","num_nodes":"1","size_leaf_vector":"0"}},{"base_weights":[2.1690448E-7],"default_left":[false],"id":76,"leaf_child_counts":[0],"left_children":[-1],"loss_changes":[7.7445554E-7],"parents":[2147483647],"right_children":[-1],"split_conditions":[6.507135E-8],"split_indices":[0],"sum_hessian":[1.68E2],"tree_param":{"num_deleted":"0","num_feature":"4","num_nodes":"1","size_leaf_vector":"0"}},{"base_weights":[2.0279687E-7],"default_left":[false],"id":77,"leaf_child_counts":[0],"left_children":[-1],"loss_changes":[7.744813E-7],"parents":[2147483647],"right_children":[-1],"split_conditions":[6.0839064E-8],"split_indices":[0],"sum_hessian":[1.68E2],"tree_param":{"num_deleted":"0","num_feature":"4","num_nodes":"1","size_leaf_vector":"0"}},{"base_weights":[1.8868926E-7],"default_left":[false],"id":78,"leaf_child_counts":[0],"left_children":[-1],"loss_changes":[7.7450704E-7],"parents":[2147483647],"right_children":[-1],"split_conditions":[5.660678E-8],"split_indices":[0],"sum_hessian":[1.68E2],"tree_param":{"num_deleted":"0","num_feature":"4","num_nodes":"1","size_leaf_vector":"0"}},{"base_weights":[1.7458166E-7],"default_left":[false],"id":79,"leaf_child_counts":[0],"left_children":[-1],"loss_changes":[7.745328E-7],"parents":[2147483647],"right_children":[-1],"split_conditions":[5.23745E-8],"split_indices":[0],"sum_hessian":[1.68E2],"tree_param":{"num_deleted":"0","num_feature":"4","num_nodes":"1","size_leaf_vector":"0"}},{"base_weights":[1.6047404E-7],"default_left":[false],"id":80,"leaf_child_counts":[0],"left_children":[-1],"loss_changes":[7.7455854E-7],"parents":[2147483647],"right_children":[-1],"split_conditions":[4.8142216E-8],"split_indices":[0],"sum_hessian":[1.68E2],"tree_param":{"num_deleted":"0","num_feature":"4","num_nodes":"1","size_leaf_vector":"0"}},{"base_weights":[1.474245E-7],"default_left":[false],"id":81,"leaf_child_counts":[0],"left_children":[-1],"loss_changes":[7.7454405E-7],"parents":[2147483647],"right_children":[-1],"split_conditions":[4.4227352E-8],"split_indices":[0],"sum_hessian":[1.68E2],"tree_param":{"num_deleted":"0","num_feature":"4","num_nodes":"1","size_leaf_vector":"0"}},{"base_weights":[1.3437497E-7],"default_left":[false],"id":82,"leaf_child_counts":[0],"left_children":[-1],"loss_changes":[7.745296E-7],"parents":[2147483647],"right_children":[-1],"split_conditions":[4.0312493E-8],"split_indices":[0],"sum_hessian":[1.68E2],"tree_param":{"num_deleted":"0","num_feature":"4","num_nodes":"1","size_leaf_vector":"0"}},{"base_weights":[1.2132543E-7],"default_left":[false],"id":83,"leaf_child_counts":[0],"left_children":[-1],"loss_changes":[7.745151E-7],"parents":[2147483647],"right_children":[-1],"split_conditions":[3.639763E-8],"split_indices":[0],"sum_hessian":[1.68E2],"tree_param":{"num_deleted":"0","num_feature":"4","num_nodes":"1","size_leaf_vector":"0"}},{"base_weights":[1.0933396E-7],"default_left":[false],"id":84,"leaf_child_counts":[0],"left_children":[-1],"loss_changes":[7.744604E-7],"parents":[2147483647],"right_children":[-1],"split_conditions":[3.280019E-8],"split_indices":[0],"sum_hessian":[1.68E2],"tree_param":{"num_deleted":"0","num_feature":"4","num_nodes":"1","size_leaf_vector":"0"}},{"base_weights":[9.73425E-8],"default_left":[false],"id":85,"leaf_child_counts":[0],"left_children":[-1],"loss_changes":[7.744057E-7],"parents":[2147483647],"right_children":[-1],"split_conditions":[2.920275E-8],"split_indices":[0],"sum_hessian":[1.68E2],"tree_param":{"num_deleted":"0","num_feature":"4","num_nodes":"1","size_leaf_vector":"0"}},{"base_weights":[9.5226355E-8],"default_left":[false],"id":86,"leaf_child_counts":[0],"left_children":[-1],"loss_changes":[7.744861E-7],"parents":[2147483647],"right_children":[-1],"split_conditions":[2.8567907E-8],"split_indices":[0],"sum_hessian":[1.68E2],"tree_param":{"num_deleted":"0","num_feature":"4","num_nodes":"1","size_leaf_vector":"0"}},{"base_weights":[9.3110216E-8],"default_left":[false],"id":87,"leaf_child_counts":[0],"left_children":[-1],"loss_changes":[7.745666E-7],"parents":[2147483647],"right_children":[-1],"split_conditions":[2.7933066E-8],"split_indices":[0],"sum_hessian":[1.68E2],"tree_param":{"num_deleted":"0","num_feature":"4","num_nodes":"1","size_leaf_vector":"0"}},{"base_weights":[9.099407E-8],"default_left":[false],"id":88,"leaf_child_counts":[0],"left_children":[-1],"loss_changes":[7.7464705E-7],"parents":[2147483647],"right_children":[-1],"split_conditions":[2.7298222E-8],"split_indices":[0],"sum_hessian":[1.68E2],"tree_param":{"num_deleted":"0","num_feature":"4","num_nodes":"1","size_leaf_vector":"0"}},{"base_weights":[8.887793E-8],"default_left":[false],"id":89,"leaf_child_counts":[0],"left_children":[-1],"loss_changes":[7.747276E-7],"parents":[2147483647],"right_children":[-1],"split_conditions":[2.666338E-8],"split_indices":[0],"sum_hessian":[1.68E2],"tree_param":{"num_deleted":"0","num_feature":"4","num_nodes":"1","size_leaf_vector":"0"}},{"base_weights":[8.676179E-8],"default_left":[false],"id":90,"leaf_child_counts":[0],"left_children":[-1],"loss_changes":[7.7480803E-7],"parents":[2147483647],"right_children":[-1],"split_conditions":[2.6028538E-8],"split_indices":[0],"sum_hessian":[1.68E2],"tree_param":{"num_deleted":"0","num_feature":"4","num_nodes":"1","size_leaf_vector":"0"}},{"base_weights":[8.464565E-8],"default_left":[false],"id":91,"leaf_child_counts":[0],"left_children":[-1],"loss_changes":[7.748885E-7],"parents":[2147483647],"right_children":[-1],"split_conditions":[2.5393696E-8],"split_indices":[0],"sum_hessian":[1.68E2],"tree_param":{"num_deleted":"0","num_feature":"4","num_nodes":"1","size_leaf_vector":"0"}},{"base_weights":[8.252951E-8],"default_left":[false],"id":92,"leaf_child_counts":[0],"left_children":[-1],"loss_changes":[7.74969E-7],"parents":[2147483647],"right_children":[-1],"split_conditions":[2.4758855E-8],"split_indices":[0],"sum_hessian":[1.68E2],"tree_param":{"num_deleted":"0","num_feature":"4","num_nodes":"1","size_leaf_vector":"0"}},{"base_weights":[8.0413365E-8],"default_left":[false],"id":93,"leaf_child_counts":[0],"left_children":[-1],"loss_changes":[7.750495E-7],"parents":[2147483647],"right_children":[-1],"split_conditions":[2.4124011E-8],"split_indices":[0],"sum_hessian":[1.68E2],"tree_param":{"num_deleted":"0","num_feature":"4","num_nodes":"1","size_leaf_vector":"0"}},{"base_weights":[7.829723E-8],"default_left":[false],"id":94,"leaf_child_counts":[0],"left_children":[-1],"loss_changes":[7.7513E-7],"parents":[2147483647],"right_children":[-1],"split_conditions":[2.348917E-8],"split_indices":[0],"sum_hessian":[1.68E2],"tree_param":{"num_deleted":"0","num_feature":"4","num_nodes":"1","size_leaf_vector":"0"}},{"base_weights":[7.618108E-8],"default_left":[false],"id":95,"leaf_child_counts":[0],"left_children":[-1],"loss_changes":[7.752105E-7],"parents":[2147483647],"right_children":[-1],"split_conditions":[2.2854325E-8],"split_indices":[0],"sum_hessian":[1.68E2],"tree_param":{"num_deleted":"0","num_feature":"4","num_nodes":"1","size_leaf_vector":"0"}},{"base_weights":[7.406494E-8],"default_left":[false],"id":96,"leaf_child_counts":[0],"left_children":[-1],"loss_changes":[7.7529097E-7],"parents":[2147483647],"right_children":[-1],"split_conditions":[2.2219483E-8],"split_indices":[0],"sum_hessian":[1.68E2],"tree_param":{"num_deleted":"0","num_feature":"4","num_nodes":"1","size_leaf_vector":"0"}},{"base_weights":[7.300687E-8],"default_left":[false],"id":97,"leaf_child_counts":[0],"left_children":[-1],"loss_changes":[7.753312E-7],"parents":[2147483647],"right_children":[-1],"split_conditions":[2.1902062E-8],"split_indices":[0],"sum_hessian":[1.68E2],"tree_param":{"num_deleted":"0","num_feature":"4","num_nodes":"1","size_leaf_vector":"0"}},{"base_weights":[7.1948804E-8],"default_left":[false],"id":98,"leaf_child_counts":[0],"left_children":[-1],"loss_changes":[7.753715E-7],"parents":[2147483647],"right_children":[-1],"split_conditions":[2.1584642E-8],"split_indices":[0],"sum_hessian":[1.68E2],"tree_param":{"num_deleted":"0","num_feature":"4","num_nodes":"1","size_leaf_vector":"0"}},{"base_weights":[7.089073E-8],"default_left":[false],"id":99,"leaf_child_counts":[0],"left_children":[-1],"loss_changes":[7.754117E-7],"parents":[2147483647],"right_children":[-1],"split_conditions":[2.1267219E-8],"split_indices":[0],"sum_hessian":[1.68E2],"tree_param":{"num_deleted":"0","num_feature":"4","num_nodes":"1","size_leaf_vector":"0"}}]},"name":"gbtree"},"learner_model_param":{"base_score":"5E-1","num_class":"0","num_feature":"4"},"objective":{"name":"reg:squarederror","reg_loss_param":{"scale_pos_weight":"1"}}},"version":[1,2,0]}