{"learner":{"attributes":{"scikit_learn":"{\"n_estimators\": 100, \"objective\": \"reg:squarederror\", \"max_depth\": null, \"learning_rate\": null, \"verbosity\": null, \"booster\": null, \"tree_method\": null, \"gamma\": null, \"min_child_weight\": null, \"max_delta_step\": null, \"subsample\": null, \"colsample_bytree\": null, \"colsample_bylevel\": null, \"colsample_bynode\": null, \"reg_alpha\": null, \"reg_lambda\": null, \"scale_pos_weight\": null, \"base_score\": null, \"missing\": NaN, \"num_parallel_tree\": null, \"kwargs\": {}, \"random_state\": 42, \"n_jobs\": null, \"monotone_constraints\": null, \"interaction_constraints\": null, \"importance_type\": \"gain\", \"gpu_id\": null, \"validate_parameters\": null, \"n_features_in_\": 4, \"type\": \"XGBRegressor\"}"},"gradient_booster":{"model":{"gbtree_model_param":{"num_trees":"100","size_leaf_vector":"0"},"tree_info":[0,0,0,0,0,0,0,0,0,0,0,0,0,0,0,0,0,0,0,0,0,0,0,0,0,0,0,0,0,0,0,0,0,0,0,0,0,0,0,0,0,0,0,0,0,0,0,0,0,0,0,0,0,0,0,0,0,0,0,0,0,0,0,0,0,0,0,0,0,0,0,0,0,0,0,0,0,0,0,0,0,0,0,0,0,0,0,0,0,0,0,0,0,0,0,0,0,0,0,0],"trees":[{"base_weights":[4.99546E0,1.00524845E1,2.957647E-1,-4.5E-1,1.7876E1,8.806195E-2,6.953276E-1,-4.6978334E-1,-2.681111E-1,2.5502083E1,8.947442E0,1.580875E0,-2.5433963E-2,1.8100001E-1,2.0173333E0,4.22E-1,-9.8108694E-2,-4.146154E-1,2.6179103E-2,-7.7192998E-3,1.9945455E-1],"default_left":[true,true,true,true,true,true,false,false,false,false,false,true,true,false,false,false,true,false,true,false,false],"id":0,"leaf_child_counts":[0,0,0,0,0,0,0,0,0,0,0,0,0,0,0,0,0,0,0,0,0],"left_children":[1,3,5,7,9,11,-1,-1,-1,-1,-1,13,15,-1,-1,-1,17,-1,19,-1,-1],"loss_changes":[7.744897E3,1.290816E4,1.4047121E1,1.1873436E-1,5.899916E3,1.918559E1,0E0,0E0,0E0,0E0,0E0,4.5227604E0,3.4882193E0,0E0,0E0,0E0,3.629943E0,0E0,3.950816E-1,0E0,0E0],"parents":[2147483647,0,0,1,1,2,2,3,3,4,4,5,5,11,11,12,12,16,16,18,18],"right_children":[2,4,6,8,10,12,-1,-1,-1,-1,-1,14,16,-1,-1,-1,18,-1,20,-1,-1],"split_conditions":[8.982523E2,3.1600344E0,8.4036316E1,2.8271443E-1,6.07871E2,1.0202606E0,2.0859829E-1,-1.40935E-1,-8.043334E-2,7.650625E0,2.6842327E0,3.6902735E-1,9.425227E2,5.4300006E-2,6.052E-1,1.266E-1,2.6596777E1,-1.2438462E-1,4.9618103E1,-2.31579E-3,5.9836365E-2],"split_indices":[1,0,0,0,0,0,0,0,0,0,0,0,1,0,0,0,0,0,0,0,0],"sum_hessian":[3.25E2,1.56E2,1.69E2,6.7E1,8.9E1,1.12E2,5.7E1,5.9E1,8E0,4.7E1,4.2E1,7E0,1.05E2,2E0,5E0,1.4E1,9.1E1,2.5E1,6.6E1,5.6E1,1E1],"tree_param":{"num_deleted":"0","num_feature":"4","num_nodes":"21","size_leaf_vector":"0"}},{"base_weights":[3.5306911E0,7.1011558E0,2.1249315E-1,-3.1825542E-1,1.2628032E1,1.18905E0,1.6326034E-1,-3.3119723E-1,-1.966148E-1,1.8010847E1,6.325633E0,6.4394283E-1,2.5024E0,-1.7240236E-2,4.9032587E-1,1.448E-1,8.1464E-1,3.0383998E-1,-6.940287E-2,7.576012E-1,4.6725172E-1,-2.950148E-1,1.9183883E-2,-3.225861E-1,-1.4934616E-1,-3.371977E-2,8.170812E-2],"default_left":[true,true,true,true,true,true,true,false,false,false,false,true,false,true,true,false,false,false,true,false,false,true,true,false,false,false,false],"id":1,"leaf_child_counts":[0,0,0,0,0,0,0,0,0,0,0,0,0,0,0,0,0,0,0,0,0,0,0,0,0,0,0],"left_children":[1,3,5,7,9,11,13,-1,-1,-1,-1,15,-1,17,19,-1,-1,-1,21,-1,-1,23,25,-1,-1,-1,-1],"loss_changes":[3.8607793E3,6.4419863E3,7.9792423E0,4.1931152E-2,2.939288E3,4.1159286E0,9.631243E0,0E0,0E0,0E0,0E0,4.7845578E-1,0E0,1.7964169E0,3.704071E-3,0E0,0E0,0E0,1.8443927E0,0E0,0E0,5.6246042E-2,2.2437514E-1,0E0,0E0,0E0,0E0],"parents":[2147483647,0,0,1,1,2,2,3,3,4,4,5,5,6,6,11,11,13,13,14,14,18,18,21,21,22,22],"right_children":[2,4,6,8,10,12,14,-1,-1,-1,-1,16,-1,18,20,-1,-1,-1,22,-1,-1,24,26,-1,-1,-1,-1],"split_conditions":[8.982523E2,3.1600344E0,1.0202606E0,2.8271443E-1,6.07871E2,7.164388E-1,8.4036316E1,-9.935918E-2,-5.8984444E-2,5.4032545E0,1.8976899E0,3.6902735E-1,7.5072E-1,9.425227E2,1.1165376E-2,4.3440003E-2,2.4439201E-1,9.1152E-2,2.6596777E1,2.2728036E-1,1.4017552E-1,6.6570053E0,1.2972222E3,-9.677583E-2,-4.480385E-2,-1.0115932E-2,2.4512436E-2],"split_indices":[1,0,0,0,0,0,0,0,0,0,0,0,0,1,2,0,0,0,0,0,0,0,1,0,0,0,0],"sum_hessian":[3.25E2,1.56E2,1.69E2,6.7E1,8.9E1,7E0,1.62E2,5.9E1,8E0,4.7E1,4.2E1,6E0,1E0,1.05E2,5.7E1,2E0,4E0,1.4E1,9.1E1,2E0,5.5E1,2.5E1,6.6E1,2E1,5E0,3.6E1,3E1],"tree_param":{"num_deleted":"0","num_feature":"4","num_nodes":"27","size_leaf_vector":"0"}},{"base_weights":[2.497596E0,5.016303E0,1.5680388E-1,-2.2510737E-1,8.920744E0,9.621539E-1,1.16315514E-1,-2.3349404E-1,-1.441842E-1,1.272016E1,4.4720755E0,4.918788E-1,2.12704E0,-1.2408082E-2,3.4956354E-1,1.1584002E-1,6.191263E-1,2.1876477E-1,-4.996444E-2,6.0608095E-1,3.2957932E-1,-2.1195573E-1,1.364359E-2,-2.3041862E-1,-1.1200961E-1,-7.6559912E-3,1.2277382E-1],"default_left":[true,true,true,true,true,true,true,false,false,false,false,true,false,true,true,false,false,false,true,false,false,true,true,false,false,false,false],"id":2,"leaf_child_counts":[0,0,0,0,0,0,0,0,0,0,0,0,0,0,0,0,0,0,0,0,0,0,0,0,0,0,0],"left_children":[1,3,5,7,9,11,13,-1,-1,-1,-1,15,-1,17,19,-1,-1,-1,21,-1,-1,23,25,-1,-1,-1,-1],"loss_changes":[1.9212346E3,3.2149778E3,5.431329E0,1.2483835E-2,1.4643252E3,3.336289E0,4.898335E0,0E0,0E0,0E0,0E0,2.6323044E-1,0E0,9.312235E-1,9.757328E-2,0E0,0E0,0E0,9.5085496E-1,0E0,0E0,2.2168636E-2,1.5667664E-1,0E0,0E0,0E0,0E0],"parents":[2147483647,0,0,1,1,2,2,3,3,4,4,5,5,6,6,11,11,13,13,14,14,18,18,21,21,22,22],"right_children":[2,4,6,8,10,12,14,-1,-1,-1,-1,16,-1,18,20,-1,-1,-1,22,-1,-1,24,26,-1,-1,-1,-1],"split_conditions":[8.982523E2,3.1600344E0,1.0202606E0,2.8271443E-1,6.07871E2,7.164388E-1,8.4036316E1,-7.004821E-2,-4.3255262E-2,3.816048E0,1.3416227E0,3.6902735E-1,6.38112E-1,9.425227E2,1.1165376E-2,3.4752008E-2,1.8573791E-1,6.562943E-2,2.6596777E1,1.818243E-1,9.88738E-2,6.6570053E0,4.9618103E1,-6.912559E-2,-3.3602882E-2,-2.2967975E-3,3.6832146E-2],"split_indices":[1,0,0,0,0,0,0,0,0,0,0,0,0,1,2,0,0,0,0,0,0,0,0,0,0,0,0],"sum_hessian":[3.25E2,1.56E2,1.69E2,6.7E1,8.9E1,7E0,1.62E2,5.9E1,8E0,4.7E1,4.2E1,6E0,1E0,1.05E2,5.7E1,2E0,4E0,1.4E1,9.1E1,2E0,5.5E1,2.5E1,6.6E1,2E1,5E0,5.6E1,1E1],"tree_param":{"num_deleted":"0","num_feature":"4","num_nodes":"27","size_leaf_vector":"0"}},{"base_weights":[1.7672774E0,3.5435417E0,1.1644941E-1,-1.5924138E-1,6.3018274E0,7.80833E-1,8.312721E-2,-1.63846E-1,-9.5708825E-2,8.983612E0,3.1616533E0,3.758137E-1,1.807984E0,-8.709838E-3,2.495341E-1,9.267201E-2,4.70536E-1,1.5751064E-1,-3.571633E-2,4.848647E-1,2.3247114E-1,-1.523201E-1,1.0065972E-2,2.5912267E-1,1.8905835E-1,-1.6458473E-1,-8.4007196E-2,-5.399481E-3,8.9290045E-2],"default_left":[true,true,true,true,true,true,true,false,false,false,false,true,false,true,true,false,false,false,true,false,true,true,true,false,false,false,false,false,false],"id":3,"leaf_child_counts":[0,0,0,0,0,0,0,0,0,0,0,0,0,0,0,0,0,0,0,0,0,0,0,0,0,0,0,0,0],"left_children":[1,3,5,7,9,11,13,-1,-1,-1,-1,15,-1,17,19,-1,-1,-1,21,-1,23,25,27,-1,-1,-1,-1,-1,-1],"loss_changes":[9.5551935E2,1.6044968E3,3.6986742E0,4.211426E-3,7.295112E2,2.648663E0,2.4931912E0,0E0,0E0,0E0,0E0,1.4413327E-1,0E0,4.814631E-1,1.2017846E-1,0E0,0E0,0E0,4.9266496E-1,0E0,1.5803576E-2,7.957399E-3,8.257294E-2,0E0,0E0,0E0,0E0,0E0,0E0],"parents":[2147483647,0,0,1,1,2,2,3,3,4,4,5,5,6,6,11,11,13,13,14,14,18,18,20,20,21,21,22,22],"right_children":[2,4,6,8,10,12,14,-1,-1,-1,-1,16,-1,18,20,-1,-1,-1,22,-1,24,26,28,-1,-1,-1,-1,-1,-1],"split_conditions":[8.982523E2,3.1600344E0,1.0202606E0,8.2819885E-1,6.07871E2,7.164388E-1,8.4036316E1,-4.91538E-2,-2.8712649E-2,2.6950836E0,9.4849604E-1,3.6902735E-1,5.4239523E-1,9.425227E2,1.1165376E-2,2.7801605E-2,1.411608E-1,4.7253195E-2,2.6596777E1,1.4545941E-1,1.0606545E2,6.6570053E0,4.9618103E1,7.77368E-2,5.6717508E-2,-4.937542E-2,-2.520216E-2,-1.6198443E-3,2.6787015E-2],"split_indices":[1,0,0,0,0,0,0,0,0,0,0,0,0,1,2,0,0,0,0,0,0,0,0,0,0,0,0,0,0],"sum_hessian":[3.25E2,1.56E2,1.69E2,6.7E1,8.9E1,7E0,1.62E2,6.1E1,6E0,4.7E1,4.2E1,6E0,1E0,1.05E2,5.7E1,2E0,4E0,1.4E1,9.1E1,2E0,5.5E1,2.5E1,6.6E1,3.1E1,2.4E1,2E1,5E0,5.6E1,1E1],"tree_param":{"num_deleted":"0","num_feature":"4","num_nodes":"29","size_leaf_vector":"0"}},{"base_weights":[1.2510661E0,2.5031908E0,8.733288E-2,-1.1261406E-1,4.451763E0,6.3550276E-1,5.9893057E-2,-1.1627873E-1,-7.5670235E-2,6.3446755E0,2.2352154E0,2.8720704E-1,1.5367863E0,-6.1172456E-3,1.7949994E-1,7.413759E-2,3.576073E-1,1.13407664E-1,-2.5538512E-2,3.8789177E-1,1.6513073E-1,-1.09492436E-1,7.421797E-3,1.8381508E-1,1.3460954E-1,-1.1756052E-1,-6.30054E-2,-1.8959496E-2,4.975228E-2],"default_left":[true,true,true,true,true,true,true,false,false,false,false,true,false,true,true,false,false,false,true,false,true,true,true,false,false,false,false,false,false],"id":4,"leaf_child_counts":[0,0,0,0,0,0,0,0,0,0,0,0,0,0,0,0,0,0,0,0,0,0,0,0,0,0,0,0,0],"left_children":[1,3,5,7,9,11,13,-1,-1,-1,-1,15,-1,17,19,-1,-1,-1,21,-1,23,25,27,-1,-1,-1,-1,-1,-1],"loss_changes":[4.7480865E2,8.0074384E2,2.5190244E0,4.0751696E-4,3.6343408E2,2.0699296E0,1.2880297E0,0E0,0E0,0E0,0E0,7.848889E-2,0E0,2.4895671E-1,1.0962379E-1,0E0,0E0,0E0,2.553902E-1,0E0,7.191777E-3,2.344638E-3,7.576439E-2,0E0,0E0,0E0,0E0,0E0,0E0],"parents":[2147483647,0,0,1,1,2,2,3,3,4,4,5,5,6,6,11,11,13,13,14,14,18,18,20,20,21,21,22,22],"right_children":[2,4,6,8,10,12,14,-1,-1,-1,-1,16,-1,18,20,-1,-1,-1,22,-1,24,26,28,-1,-1,-1,-1,-1,-1],"split_conditions":[8.982523E2,3.1600344E0,1.0202606E0,2.8271443E-1,6.07871E2,7.164388E-1,8.4036316E1,-3.4883622E-2,-2.2701072E-2,1.9034027E0,6.7056465E-1,3.6902735E-1,4.610359E-1,9.425227E2,1.1165376E-2,2.2241278E-2,1.072822E-1,3.40223E-2,2.6596777E1,1.16367534E-1,1.0606545E2,6.6570053E0,1.4105571E3,5.5144526E-2,4.0382862E-2,-3.5268158E-2,-1.8901622E-2,-5.687849E-3,1.4925685E-2],"split_indices":[1,0,0,0,0,0,0,0,0,0,0,0,0,1,2,0,0,0,0,0,0,0,1,0,0,0,0,0,0],"sum_hessian":[3.25E2,1.56E2,1.69E2,6.7E1,8.9E1,7E0,1.62E2,5.9E1,8E0,4.7E1,4.2E1,6E0,1E0,1.05E2,5.7E1,2E0,4E0,1.4E1,9.1E1,2E0,5.5E1,2.5E1,6.6E1,3.1E1,2.4E1,2E1,5E0,4.1E1,2.5E1],"tree_param":{"num_deleted":"0","num_feature":"4","num_nodes":"29","size_leaf_vector":"0"}},{"base_weights":[8.858932E-1,1.7682614E0,6.578916E-2,-7.967667E-2,3.144834E0,5.186719E-1,4.315818E-2,4.4809275E0,1.580245E0,2.195483E-1,1.3062683E0,-1.1369408E-2,1.2145696E-1,5.931006E-2,2.717816E-1,8.165354E-2,-2.8043803E-2,-4.2334595E-3,1.3166156E-1,-7.872816E-2,-4.8397146E-3,2.277665E-1,1.17297344E-1,-8.3971806E-2,-4.7254056E-2,-1.4532321E-2,1.1681474E-2,1.3268507E-1,3.1031337E-1,1.303938E-1,9.584199E-2],"default_left":[true,true,true,false,true,true,true,false,false,true,false,true,true,false,false,false,true,false,true,true,true,true,true,false,false,false,false,false,false,false,false],"id":5,"leaf_child_counts":[0,0,0,0,0,0,0,0,0,0,0,0,0,0,0,0,0,0,0,0,0,0,0,0,0,0,0,0,0,0,0],"left_children":[1,3,5,-1,7,9,11,-1,-1,13,-1,15,17,-1,-1,-1,19,-1,21,23,25,27,29,-1,-1,-1,-1,-1,-1,-1,-1],"loss_changes":[2.3578828E2,3.9963046E2,1.719976E0,0E0,1.8105835E2,1.5979202E0,6.973002E-1,0E0,0E0,4.2468995E-2,0E0,1.527467E-1,8.6493015E-2,0E0,0E0,0E0,9.7233966E-2,0E0,5.887282E-2,3.2301247E-4,9.457495E-3,1.3766795E-2,3.2381415E-3,0E0,0E0,0E0,0E0,0E0,0E0,0E0,0E0],"parents":[2147483647,0,0,1,1,2,2,4,4,5,5,6,6,9,9,11,11,12,12,16,16,18,18,19,19,20,20,21,21,22,22],"right_children":[2,4,6,-1,8,10,12,-1,-1,14,-1,16,18,-1,-1,-1,20,-1,22,24,26,28,30,-1,-1,-1,-1,-1,-1,-1,-1],"split_conditions":[8.982523E2,3.1600344E0,1.0202606E0,-2.3903003E-2,6.07871E2,7.164388E-1,6.0354263E1,1.3442783E0,4.7407353E-1,3.6902735E-1,3.918805E-1,9.425227E2,1.3758887E3,1.7793018E-2,8.153448E-2,2.4496064E-2,2.6596777E1,-1.2700378E-3,1.1165376E-2,6.6570053E0,1.4991736E3,8.528743E1,1.0606545E2,-2.5191544E-2,-1.4176217E-2,-4.3596965E-3,3.5044423E-3,3.980552E-2,9.309401E-2,3.911814E-2,2.8752597E-2],"split_indices":[1,0,0,0,0,0,0,0,0,0,0,1,1,0,0,0,0,0,2,0,1,0,0,0,0,0,0,0,0,0,0],"sum_hessian":[3.25E2,1.56E2,1.69E2,6.7E1,8.9E1,7E0,1.62E2,4.7E1,4.2E1,6E0,1E0,9.6E1,6.6E1,2E0,4E0,1.4E1,8.2E1,5E0,6.1E1,2.5E1,5.7E1,6E0,5.5E1,2E1,5E0,3.6E1,2.1E1,4E0,2E0,3.1E1,2.4E1],"tree_param":{"num_deleted":"0","num_feature":"4","num_nodes":"31","size_leaf_vector":"0"}},{"base_weights":[6.277002E-1,1.2492126E0,5.002289E-2,-5.6125186E-2,2.2215877E0,4.2447126E-1,3.1338166E-2,-5.8471885E-2,-3.4244392E-2,3.164655E0,1.1171966E0,1.6787343E-1,1.1103281E0,-8.120724E-3,8.799748E-2,4.7448058E-2,2.0655397E-1,5.879053E-2,-2.011528E-2,-3.1750798E-3,9.540132E-2,-5.6623854E-2,-3.402552E-3,1.784222E-1,8.332011E-2,-1.0290459E-2,8.336315E-3,1.0084064E-1,2.4825072E-1,9.249807E-2,6.823952E-2],"default_left":[true,true,true,true,true,true,true,false,false,false,false,true,false,true,true,false,false,false,true,false,true,false,true,true,true,false,false,false,false,false,false],"id":6,"leaf_child_counts":[0,0,0,0,0,0,0,0,0,0,0,0,0,0,0,0,0,0,0,0,0,0,0,0,0,0,0,0,0,0,0],"left_children":[1,3,5,7,9,11,13,-1,-1,-1,-1,15,-1,17,19,-1,-1,-1,21,-1,23,-1,25,27,29,-1,-1,-1,-1,-1,-1],"loss_changes":[1.1698247E2,1.994013E2,1.1760968E0,1.4892966E-3,9.0200836E1,1.2215205E0,3.651359E-1,0E0,0E0,0E0,0E0,2.2806242E-2,0E0,7.903195E-2,4.5529723E-2,0E0,0E0,0E0,5.0450433E-2,0E0,4.7319353E-2,0E0,4.775445E-3,1.2888089E-2,1.4388859E-3,0E0,0E0,0E0,0E0,0E0,0E0],"parents":[2147483647,0,0,1,1,2,2,3,3,4,4,5,5,6,6,11,11,13,13,14,14,18,18,20,20,22,22,23,23,24,24],"right_children":[2,4,6,8,10,12,14,-1,-1,-1,-1,16,-1,18,20,-1,-1,-1,22,-1,24,-1,26,28,30,-1,-1,-1,-1,-1,-1],"split_conditions":[8.982523E2,3.1600344E0,1.0202606E0,2.8271443E-1,6.07871E2,7.164388E-1,6.0354263E1,-1.7541567E-2,-1.0273318E-2,9.4939655E-1,3.3515897E-1,3.6902735E-1,3.3309844E-1,9.425227E2,1.3758887E3,1.4234418E-2,6.1966192E-2,1.763716E-2,2.6596777E1,-9.5252396E-4,1.1165376E-2,-1.6987156E-2,1.4991736E3,8.528743E1,1.0606545E2,-3.0871378E-3,2.5008945E-3,3.0252194E-2,7.447522E-2,2.7749423E-2,2.0471856E-2],"split_indices":[1,0,0,0,0,0,0,0,0,0,0,0,0,1,1,0,0,0,0,0,2,0,1,0,0,0,0,0,0,0,0],"sum_hessian":[3.25E2,1.56E2,1.69E2,6.7E1,8.9E1,7E0,1.62E2,5.9E1,8E0,4.7E1,4.2E1,6E0,1E0,9.6E1,6.6E1,2E0,4E0,1.4E1,8.2E1,5E0,6.1E1,2.5E1,5.7E1,6E0,5.5E1,3.6E1,2.1E1,4E0,2E0,3.1E1,2.4E1],"tree_param":{"num_deleted":"0","num_feature":"4","num_nodes":"31","size_leaf_vector":"0"}},{"base_weights":[4.4496715E-1,8.8245356E-1,3.8318142E-2,-3.969667E-2,1.5693842E0,3.4829223E-1,2.286961E-2,-4.101536E-2,-2.2345912E-2,2.235038E0,7.8983164E-1,1.283972E-1,9.4377875E-1,-5.683846E-3,6.386685E-2,3.7958443E-2,1.5698102E-1,4.2329207E-2,-1.4292424E-2,4.0012565E-2,8.1018485E-2,-4.0290046E-2,-2.3918957E-3,-2.381295E-3,4.858659E-2,6.896946E-2,1.986006E-1,-5.2348167E-2,-3.2022648E-2,-7.2867614E-3,5.9491005E-3],"default_left":[true,true,true,true,true,true,true,false,false,false,false,true,false,true,true,false,false,false,true,true,true,true,true,false,false,false,false,false,false,false,false],"id":7,"leaf_child_counts":[0,0,0,0,0,0,0,0,0,0,0,0,0,0,0,0,0,0,0,0,0,0,0,0,0,0,0,0,0,0,0],"left_children":[1,3,5,7,9,11,13,-1,-1,-1,-1,15,-1,17,19,-1,-1,-1,21,23,25,27,29,-1,-1,-1,-1,-1,-1,-1,-1],"loss_changes":[5.79627E1,9.951447E1,8.0610436E-1,6.393343E-4,4.49368E1,9.263777E-1,1.9117293E-1,0E0,0E0,0E0,0E0,1.2136839E-2,0E0,4.0697426E-2,2.4170607E-2,0E0,0E0,0E0,2.5582619E-2,1.1020277E-2,4.0139124E-2,9.155944E-4,2.4113767E-3,0E0,0E0,0E0,0E0,0E0,0E0,0E0,0E0],"parents":[2147483647,0,0,1,1,2,2,3,3,4,4,5,5,6,6,11,11,13,13,14,14,18,18,19,19,20,20,21,21,22,22],"right_children":[2,4,6,8,10,12,14,-1,-1,-1,-1,16,-1,18,20,-1,-1,-1,22,24,26,28,30,-1,-1,-1,-1,-1,-1,-1,-1],"split_conditions":[8.982523E2,3.1600344E0,1.0202606E0,8.2819885E-1,6.07871E2,7.164388E-1,6.0354263E1,-1.2304609E-2,-6.703774E-3,6.705114E-1,2.369495E-1,3.6902735E-1,2.8313363E-1,9.425227E2,1.4003523E3,1.13875335E-2,4.7094308E-2,1.2698763E-2,2.6596777E1,9.6221985E1,9.675177E1,5.1208467E0,1.4991736E3,-7.143885E-4,1.4575977E-2,2.0690838E-2,5.9580185E-2,-1.5704451E-2,-9.606794E-3,-2.1860285E-3,1.7847302E-3],"split_indices":[1,0,0,0,0,0,0,0,0,0,0,0,0,1,1,0,0,0,0,0,0,0,1,0,0,0,0,0,0,0,0],"sum_hessian":[3.25E2,1.56E2,1.69E2,6.7E1,8.9E1,7E0,1.62E2,6.1E1,6E0,4.7E1,4.2E1,6E0,1E0,9.6E1,6.6E1,2E0,4E0,1.4E1,8.2E1,2.9E1,3.7E1,2.5E1,5.7E1,5E0,2.4E1,3.5E1,2E0,8E0,1.7E1,3.6E1,2.1E1],"tree_param":{"num_deleted":"0","num_feature":"4","num_nodes":"31","size_leaf_vector":"0"}},{"base_weights":[3.15499E-1,6.2337637E-1,2.9309377E-2,-2.8067205E-2,1.1086518E0,2.865065E-1,1.6506394E-2,-2.9123148E-2,-1.7909003E-2,1.5784957E0,5.5839217E-1,9.823257E-2,8.02212E-1,-4.3881615E-3,4.576185E-2,3.0366758E-2,1.19305536E-1,3.0477023E-2,-1.0712425E-2,2.8470857E-2,5.788923E-2,-3.2329362E-2,-3.2177784E-3,-1.7859936E-3,3.4593668E-2,4.8136175E-2,1.5888047E-1,-4.3156028E-2,-2.6248777E-2,-6.442537E-3,3.3849662E-3,1.11581385E-2,4.8853397E-2],"default_left":[true,true,true,true,true,true,true,false,false,false,false,true,false,true,true,false,false,false,true,true,true,true,true,false,false,true,false,false,false,false,false,false,false],"id":8,"leaf_child_counts":[0,0,0,0,0,0,0,0,0,0,0,0,0,0,0,0,0,0,0,0,0,0,0,0,0,0,0,0,0,0,0,0,0],"left_children":[1,3,5,7,9,11,13,-1,-1,-1,-1,15,-1,17,19,-1,-1,-1,21,23,25,27,29,-1,-1,31,-1,-1,-1,-1,-1,-1,-1],"loss_changes":[2.8706013E1,4.9663452E1,5.550622E-1,2.0783767E-4,2.2386826E1,6.979478E-1,9.9839404E-2,0E0,0E0,0E0,0E0,6.388016E-3,0E0,2.1494158E-2,1.2611076E-2,0E0,0E0,0E0,1.3180898E-2,5.6194924E-3,3.076604E-2,2.4968758E-4,1.3419276E-3,0E0,0E0,4.361719E-4,0E0,0E0,0E0,0E0,0E0,0E0,0E0],"parents":[2147483647,0,0,1,1,2,2,3,3,4,4,5,5,6,6,11,11,13,13,14,14,18,18,19,19,20,20,21,21,22,22,25,25],"right_children":[2,4,6,8,10,12,14,-1,-1,-1,-1,16,-1,18,20,-1,-1,-1,22,24,26,28,30,-1,-1,32,-1,-1,-1,-1,-1,-1,-1],"split_conditions":[8.982523E2,3.1600344E0,1.0202606E0,2.8271443E-1,6.07871E2,7.164388E-1,4.9618103E1,-8.736945E-3,-5.372701E-3,4.7354874E-1,1.6751766E-1,3.6902735E-1,2.406636E-1,9.425227E2,1.4003523E3,9.110028E-3,3.579166E-2,9.143108E-3,6.6570053E0,9.6221985E1,9.675177E1,2.6574283E0,1.4991736E3,-5.357981E-4,1.0378101E-2,6.0354263E1,4.7664143E-2,-1.2946809E-2,-7.874633E-3,-1.9327612E-3,1.0154899E-3,3.3474418E-3,1.4656019E-2],"split_indices":[1,0,0,0,0,0,0,0,0,0,0,0,0,1,1,0,0,0,0,0,0,0,1,0,0,0,0,0,0,0,0,0,0],"sum_hessian":[3.25E2,1.56E2,1.69E2,6.7E1,8.9E1,7E0,1.62E2,5.9E1,8E0,4.7E1,4.2E1,6E0,1E0,9.5E1,6.7E1,2E0,4E0,1.4E1,8.1E1,2.9E1,3.8E1,2E1,6.1E1,5E0,2.4E1,3.6E1,2E0,5E0,1.5E1,4.1E1,2E1,1E0,3.5E1],"tree_param":{"num_deleted":"0","num_feature":"4","num_nodes":"33","size_leaf_vector":"0"}},{"base_weights":[2.2384141E-1,4.4035673E-1,2.2566434E-2,-1.9854536E-2,7.8317904E-1,2.3625022E-1,1.194044E-2,-2.4500674E-2,-1.8077316E-2,1.1148124E0,3.9477023E-1,7.5177334E-2,6.8188024E-1,-3.202914E-3,3.31437E-2,2.4293402E-2,9.067223E-2,2.194345E-2,-7.763799E-3,2.025765E-2,4.2206205E-2,-2.177203E-2,-1.2378718E-3,-1.3395051E-3,2.463066E-2,3.4181863E-2,1.2710436E-1,-3.2367025E-2,-1.7708126E-2,2.4178412E-3,-3.27928E-3,4.8361372E-2,3.099764E-2],"default_left":[true,true,true,true,true,true,true,false,false,false,false,true,false,true,true,false,false,false,true,true,true,true,true,false,false,true,false,false,false,false,false,false,false],"id":9,"leaf_child_counts":[0,0,0,0,0,0,0,0,0,0,0,0,0,0,0,0,0,0,0,0,0,0,0,0,0,0,0,0,0,0,0,0,0],"left_children":[1,3,5,7,9,11,13,-1,-1,-1,-1,15,-1,17,19,-1,-1,-1,21,23,25,27,29,-1,-1,31,-1,-1,-1,-1,-1,-1,-1],"loss_changes":[1.4196854E1,2.4785547E1,3.8318148E-1,1.1858344E-4,1.1152748E1,5.229694E-1,5.244358E-2,0E0,0E0,0E0,0E0,3.3163503E-3,0E0,1.1180573E-2,7.0860386E-3,0E0,0E0,0E0,7.4692173E-3,2.8663306E-3,2.2224158E-2,5.4632407E-4,4.3330848E-4,0E0,0E0,1.7148629E-4,0E0,0E0,0E0,0E0,0E0,0E0,0E0],"parents":[2147483647,0,0,1,1,2,2,3,3,4,4,5,5,6,6,11,11,13,13,14,14,18,18,19,19,20,20,21,21,22,22,25,25],"right_children":[2,4,6,8,10,12,14,-1,-1,-1,-1,16,-1,18,20,-1,-1,-1,22,24,26,28,30,-1,-1,32,-1,-1,-1,-1,-1,-1,-1],"split_conditions":[8.982523E2,3.1600344E0,1.0202606E0,1.6899312E-1,6.07871E2,7.164388E-1,4.9618103E1,-7.350202E-3,-5.4231947E-3,3.3444372E-1,1.1843108E-1,3.6902735E-1,2.0456408E-1,9.425227E2,1.4003523E3,7.288021E-3,2.7201671E-2,6.5830355E-3,2.6596777E1,9.6221985E1,9.675177E1,2.6574283E0,4.7745583E1,-4.0185155E-4,7.3891985E-3,1.4925076E3,3.8131308E-2,-9.710108E-3,-5.312438E-3,7.253524E-4,-9.83784E-4,1.4508412E-2,9.299292E-3],"split_indices":[1,0,0,0,0,0,0,0,0,0,0,0,0,1,1,0,0,0,0,0,0,0,0,0,0,1,0,0,0,0,0,0,0],"sum_hessian":[3.25E2,1.56E2,1.69E2,6.7E1,8.9E1,7E0,1.62E2,1.5E1,5.2E1,4.7E1,4.2E1,6E0,1E0,9.5E1,6.7E1,2E0,4E0,1.4E1,8.1E1,2.9E1,3.8E1,2.5E1,5.6E1,5E0,2.4E1,3.6E1,2E0,5E0,2E1,2E1,3.6E1,4E0,3.2E1],"tree_param":{"num_deleted":"0","num_feature":"4","num_nodes":"33","size_leaf_vector":"0"}},{"base_weights":[1.5895699E-1,3.110528E-1,1.7556991E-2,-1.4086019E-2,5.532571E-1,1.9525689E-1,8.727814E-3,-1.4619774E-2,-7.346193E-3,7.8733593E-1,2.7909335E-1,5.755124E-2,5.795982E-1,-2.2089065E-3,2.4431307E-2,-1.7609859E-2,-1.3290814E-2,1.9434711E-2,6.891091E-2,1.5799288E-2,-5.436786E-3,1.44132795E-2,3.1697348E-2,-1.7515523E-2,-1.3242423E-3,-1.0046264E-3,1.7537046E-2,2.498469E-2,1.0168346E-1,-4.176827E-3,-1.8699763E-2,-3.080118E-3,2.0880767E-3,3.675463E-2,2.2364864E-2],"default_left":[true,true,true,true,true,true,true,true,false,false,false,true,false,true,true,false,false,false,false,false,true,true,true,true,true,false,false,true,false,false,false,false,false,false,false],"id":10,"leaf_child_counts":[0,0,0,0,0,0,0,0,0,0,0,0,0,0,0,0,0,0,0,0,0,0,0,0,0,0,0,0,0,0,0,0,0,0,0],"left_children":[1,3,5,7,9,11,13,15,-1,-1,-1,17,-1,19,21,-1,-1,-1,-1,-1,23,25,27,29,31,-1,-1,33,-1,-1,-1,-1,-1,-1,-1],"loss_changes":[7.0056086E0,1.2371548E1,2.6501632E-1,1.372248E-4,5.5560913E0,3.9005116E-1,2.8048355E-2,1.2320466E-5,0E0,0E0,0E0,1.691673E-3,0E0,5.724341E-3,4.4201575E-3,0E0,0E0,0E0,0E0,0E0,4.099775E-3,1.4624763E-3,1.5311599E-2,2.536145E-4,3.839028E-4,0E0,0E0,2.8805435E-4,0E0,0E0,0E0,0E0,0E0,0E0,0E0],"parents":[2147483647,0,0,1,1,2,2,3,3,4,4,5,5,6,6,7,7,11,11,13,13,14,14,20,20,21,21,22,22,23,23,24,24,27,27],"right_children":[2,4,6,8,10,12,14,16,-1,-1,-1,18,-1,20,22,-1,-1,-1,-1,-1,24,26,28,30,32,-1,-1,34,-1,-1,-1,-1,-1,-1,-1],"split_conditions":[8.982523E2,3.1600344E0,1.0202606E0,8.2819885E-1,6.07871E2,7.164388E-1,6.0354263E1,1.6899312E-1,-2.203858E-3,2.362008E-1,8.372801E-2,3.6902735E-1,1.7387946E-1,9.425227E2,1.4003523E3,-5.282958E-3,-3.9872443E-3,5.8304137E-3,2.0673275E-2,4.7397865E-3,6.6570053E0,9.6221985E1,9.675177E1,1.01009814E3,1.4991736E3,-3.0138792E-4,5.261114E-3,8.241545E1,3.0505039E-2,-1.2530482E-3,-5.609929E-3,-9.2403544E-4,6.2642305E-4,1.102639E-2,6.7094597E-3],"split_indices":[1,0,0,0,0,0,0,0,0,0,0,0,0,1,1,0,0,0,0,0,0,0,0,1,1,0,0,0,0,0,0,0,0,0,0],"sum_hessian":[3.25E2,1.56E2,1.69E2,6.7E1,8.9E1,7E0,1.62E2,6.1E1,6E0,4.7E1,4.2E1,6E0,1E0,9.6E1,6.6E1,1.5E1,4.6E1,2E0,4E0,1.4E1,8.2E1,2.9E1,3.7E1,2E1,6.2E1,5E0,2.4E1,3.5E1,2E0,2E0,1.8E1,4.1E1,2.1E1,4E0,3.1E1],"tree_param":{"num_deleted":"0","num_feature":"4","num_nodes":"35","size_leaf_vector":"0"}},{"base_weights":[1.129866E-1,2.1970183E-1,1.3767326E-2,-1.0028951E-2,3.9083505E-1,1.617277E-1,6.4210063E-3,-1.2657086E-2,-9.046325E-3,5.5605644E-1,1.973127E-1,4.407211E-2,4.9265838E-1,-1.6817644E-3,1.7765785E-2,-9.388404E-3,-5.457181E-3,1.5547772E-2,5.2372288E-2,1.1375511E-2,-4.049781E-3,1.025466E-2,2.3088042E-2,-1.1660325E-2,-5.072559E-4,-7.534921E-4,1.2486429E-2,1.7740361E-2,8.134675E-2,-2.0326473E-2,-8.62903E-3,1.1304347E-3,-1.4230463E-3,2.7933527E-2,1.5658354E-2],"default_left":[true,true,true,true,true,true,true,false,true,false,false,true,false,true,true,false,false,false,false,false,true,true,true,true,true,false,false,true,false,false,false,false,false,false,false],"id":11,"leaf_child_counts":[0,0,0,0,0,0,0,0,0,0,0,0,0,0,0,0,0,0,0,0,0,0,0,0,0,0,0,0,0,0,0,0,0,0,0],"left_children":[1,3,5,7,9,11,13,-1,15,-1,-1,17,-1,19,21,-1,-1,-1,-1,-1,23,25,27,29,31,-1,-1,33,-1,-1,-1,-1,-1,-1,-1],"loss_changes":[3.448731E0,6.176307E0,1.8374547E-1,6.1108265E-5,2.7679453E0,2.8977424E-1,1.5013512E-2,0E0,1.3837591E-5,0E0,0E0,8.430267E-4,0E0,3.0143734E-3,2.481617E-3,0E0,0E0,0E0,0E0,0E0,2.2048499E-3,7.464383E-4,1.0707289E-2,5.076134E-4,8.709621E-5,0E0,0E0,3.4782942E-4,0E0,0E0,0E0,0E0,0E0,0E0,0E0],"parents":[2147483647,0,0,1,1,2,2,3,3,4,4,5,5,6,6,8,8,11,11,13,13,14,14,20,20,21,21,22,22,23,23,24,24,27,27],"right_children":[2,4,6,8,10,12,14,-1,16,-1,-1,18,-1,20,22,-1,-1,-1,-1,-1,24,26,28,30,32,-1,-1,34,-1,-1,-1,-1,-1,-1,-1],"split_conditions":[8.982523E2,3.1600344E0,1.0202606E0,1.6899312E-1,6.07871E2,7.164388E-1,4.9618103E1,-3.797126E-3,8.2819885E-1,1.6681693E-1,5.9193812E-2,3.6902735E-1,1.4779752E-1,9.425227E2,1.4003523E3,-2.8165213E-3,-1.6371544E-3,4.6643317E-3,1.5711688E-2,3.4126535E-3,2.6596777E1,9.6221985E1,9.675177E1,2.6574283E0,4.7745583E1,-2.2604765E-4,3.7459289E-3,1.4925076E3,2.4404027E-2,-6.097942E-3,-2.588709E-3,3.391304E-4,-4.2691393E-4,8.380058E-3,4.6975063E-3],"split_indices":[1,0,0,0,0,0,0,0,0,0,0,0,0,1,1,0,0,0,0,0,0,0,0,0,0,0,0,1,0,0,0,0,0,0,0],"sum_hessian":[3.25E2,1.56E2,1.69E2,6.7E1,8.9E1,7E0,1.62E2,1.5E1,5.2E1,4.7E1,4.2E1,6E0,1E0,9.5E1,6.7E1,4.6E1,6E0,2E0,4E0,1.4E1,8.1E1,2.9E1,3.8E1,2.5E1,5.6E1,5E0,2.4E1,3.6E1,2E0,5E0,2E1,2E1,3.6E1,4E0,3.2E1],"tree_param":{"num_deleted":"0","num_feature":"4","num_nodes":"35","size_leaf_vector":"0"}},{"base_weights":[8.038384E-2,1.551784E-1,1.0836015E-2,-7.1416004E-3,2.7609596E-1,1.3423103E-1,4.7133407E-3,-9.097282E-3,-6.4164586E-3,3.9271507E-1,1.3949566E-1,3.376129E-2,4.1875958E-1,-1.1755786E-3,1.3168741E-2,-6.709155E-3,-4.240036E-3,1.2438238E-2,3.980286E-2,8.190353E-3,-2.8540532E-3,2.4832392E-2,1.0434231E-2,-8.496331E-3,-2.7554866E-4,1.0275656E-2,6.507739E-2,-1.5244854E-2,-6.1635943E-3,-1.0076665E-3,9.682653E-4,2.1229481E-2,-5.6514144E-4],"default_left":[true,true,true,true,true,true,true,false,true,false,false,true,false,true,true,false,false,false,false,false,true,true,false,true,true,true,false,false,false,false,false,false,false],"id":12,"leaf_child_counts":[0,0,0,0,0,0,0,0,0,0,0,0,0,0,0,0,0,0,0,0,0,0,0,0,0,0,0,0,0,0,0,0,0],"left_children":[1,3,5,7,9,11,13,-1,15,-1,-1,17,-1,19,21,-1,-1,-1,-1,-1,23,25,-1,27,29,31,-1,-1,-1,-1,-1,-1,-1],"loss_changes":[1.6941049E0,3.0834641E0,1.2780362E-1,3.8061524E-5,1.3789363E0,2.145542E-1,8.131767E-3,0E0,5.3157564E-6,0E0,0E0,4.0669646E-4,0E0,1.5482623E-3,1.8778164E-3,0E0,0E0,0E0,0E0,0E0,1.2051959E-3,6.3613155E-3,0E0,3.1534256E-4,5.379155E-5,1.1994796E-3,0E0,0E0,0E0,0E0,0E0,0E0,0E0],"parents":[2147483647,0,0,1,1,2,2,3,3,4,4,5,5,6,6,8,8,11,11,13,13,14,14,20,20,21,21,23,23,24,24,25,25],"right_children":[2,4,6,8,10,12,14,-1,16,-1,-1,18,-1,20,22,-1,-1,-1,-1,-1,24,26,-1,28,30,32,-1,-1,-1,-1,-1,-1,-1],"split_conditions":[8.982523E2,3.1600344E0,1.0202606E0,1.6899312E-1,6.07871E2,7.164388E-1,6.0354263E1,-2.7291847E-3,2.8271443E-1,1.17814526E-1,4.1848697E-2,3.6902735E-1,1.2562788E-1,9.425227E2,1.1165376E-2,-2.0127466E-3,-1.2720108E-3,3.7314715E-3,1.1940858E-2,2.457106E-3,2.6596777E1,8.6908295E1,3.1302695E-3,2.6574283E0,1.4991736E3,7.257198E1,1.9523216E-2,-4.5734565E-3,-1.8490783E-3,-3.0229994E-4,2.904796E-4,6.368845E-3,-1.6954244E-4],"split_indices":[1,0,0,0,0,0,0,0,0,0,0,0,0,1,2,0,0,0,0,0,0,0,0,0,1,0,0,0,0,0,0,0,0],"sum_hessian":[3.25E2,1.56E2,1.69E2,6.7E1,8.9E1,7E0,1.62E2,1.5E1,5.2E1,4.7E1,4.2E1,6E0,1E0,9.6E1,6.6E1,4.4E1,8E0,2E0,4E0,1.4E1,8.2E1,1.1E1,5.5E1,2.5E1,5.7E1,9E0,2E0,5E0,2E1,3.6E1,2.1E1,4E0,5E0],"tree_param":{"num_deleted":"0","num_feature":"4","num_nodes":"33","size_leaf_vector":"0"}},{"base_weights":[5.7249617E-2,1.09603286E-1,8.562703E-3,-5.087561E-3,1.9504078E-1,1.11624174E-1,3.451939E-3,-6.538671E-3,-4.5534982E-3,2.7735454E-1,9.8619804E-2,2.5871744E-2,3.559456E-1,-8.6389383E-4,9.648712E-3,9.950578E-3,3.0250097E-2,5.5024056E-3,-2.1893654E-3,1.9526208E-2,7.359808E-3,-3.8029356E-3,6.3216733E-3,-1.35572655E-2,-1.0991698E-3,7.812887E-3,5.2061874E-2,8.281821E-3,5.8852388E-3,-3.957759E-3,-1.9307024E-4,1.613443E-2,-4.2387843E-4],"default_left":[true,true,true,true,true,true,true,false,false,false,false,true,false,true,true,false,false,true,true,true,true,false,false,false,true,true,false,false,false,false,false,false,false],"id":13,"leaf_child_counts":[0,0,0,0,0,0,0,0,0,0,0,0,0,0,0,0,0,0,0,0,0,0,0,0,0,0,0,0,0,0,0,0,0],"left_children":[1,3,5,7,9,11,13,-1,-1,-1,-1,15,-1,17,19,-1,-1,21,23,25,27,-1,-1,-1,29,31,-1,-1,-1,-1,-1,-1,-1],"loss_changes":[8.300154E-1,1.5394192E0,8.915756E-2,2.2925087E-5,6.869569E-1,1.584003E-1,4.3676468E-3,0E0,0E0,0E0,0E0,1.8695323E-4,0E0,8.305666E-4,1.3710698E-3,0E0,0E0,1.5364145E-4,9.889503E-4,4.166455E-3,2.7395785E-5,0E0,0E0,0E0,1.9349836E-4,6.922649E-4,0E0,0E0,0E0,0E0,0E0,0E0,0E0],"parents":[2147483647,0,0,1,1,2,2,3,3,4,4,5,5,6,6,11,11,13,13,14,14,17,17,18,18,19,19,20,20,24,24,25,25],"right_children":[2,4,6,8,10,12,14,-1,-1,-1,-1,16,-1,18,20,-1,-1,22,24,26,28,-1,-1,-1,30,32,-1,-1,-1,-1,-1,-1,-1],"split_conditions":[8.982523E2,3.1600344E0,1.0202606E0,1.6899312E-1,6.07871E2,7.164388E-1,6.0354263E1,-1.9616014E-3,-1.3660495E-3,8.320636E-2,2.9585943E-2,3.6902735E-1,1.0678368E-1,1.0055736E3,1.1165376E-2,2.9851736E-3,9.07503E-3,1.7315938E0,5.1208467E0,8.6908295E1,1.0606545E2,-1.1408807E-3,1.8965021E-3,-4.0671797E-3,2.6596777E1,7.257198E1,1.5618563E-2,2.4845465E-3,1.7655717E-3,-1.1873278E-3,-5.7921075E-5,4.8403293E-3,-1.2716354E-4],"split_indices":[1,0,0,0,0,0,0,0,0,0,0,0,0,1,2,0,0,0,0,0,0,0,0,0,0,0,0,0,0,0,0,0,0],"sum_hessian":[3.25E2,1.56E2,1.69E2,6.7E1,8.9E1,7E0,1.62E2,1.5E1,5.2E1,4.7E1,4.2E1,6E0,1E0,9.6E1,6.6E1,2E0,4E0,1.6E1,8E1,1.1E1,5.5E1,1E0,1.5E1,6E0,7.4E1,9E0,2E0,3.1E1,2.4E1,1.7E1,5.7E1,4E0,5E0],"tree_param":{"num_deleted":"0","num_feature":"4","num_nodes":"33","size_leaf_vector":"0"}},{"base_weights":[4.0836528E-2,7.3504776E-2,2.4891878E-3,6.1662956E-3,1.3778192E-1,-1.2541803E-3,7.076743E-3,-7.981349E-4,3.0255365E-1,1.9588183E-1,6.972199E-2,-5.490738E-3,-4.0113824E-4,1.4497299E-2,5.2277436E-3,-3.6102291E-3,9.30821E-3,-7.9656835E-4,-1.0071113E-2,7.960458E-3,-7.588723E-4,5.7742163E-3,4.16495E-2,5.8749113E-3,4.190259E-3,-3.8073284E-3,-1.8950982E-3,2.2990156E-2,4.1270135E-3,1.4430614E-3,-1.7836218E-3,-3.1041058E-3,-2.1068098E-4,1.0903995E-2,-3.1793118E-4,-4.6996693E-3,-3.4054443E-3,-3.232495E-3,5.397087E-3,5.859917E-4,-6.571525E-4,2.056539E-3,1.2262178E-2],"default_left":[true,true,true,true,true,true,true,true,false,false,false,true,true,true,true,true,true,true,false,false,true,true,false,false,false,true,false,false,false,true,false,false,true,true,false,false,false,false,false,false,false,false,false],"id":14,"leaf_child_counts":[0,0,0,0,0,0,0,0,0,0,0,0,0,0,0,0,0,0,0,0,0,0,0,0,0,0,0,0,0,0,0,0,0,0,0,0,0,0,0,0,0,0,0],"left_children":[1,3,5,7,9,11,13,15,-1,-1,-1,17,19,21,23,25,27,29,-1,-1,31,33,-1,-1,-1,35,-1,-1,-1,37,-1,-1,39,41,-1,-1,-1,-1,-1,-1,-1,-1,-1],"loss_changes":[4.082104E-1,7.609357E-1,2.6019844E-3,1.7982419E-1,3.4222758E-1,3.0137028E-4,8.572126E-4,2.477724E-3,0E0,0E0,0E0,2.9299245E-4,2.1841818E-4,2.8385685E-3,1.298252E-5,1.577218E-5,1.2520072E-3,2.0258947E-5,0E0,0E0,8.805495E-5,3.4723172E-4,0E0,0E0,0E0,5.5126147E-6,0E0,0E0,0E0,7.290787E-5,0E0,0E0,2.065951E-5,4.688109E-5,0E0,0E0,0E0,0E0,0E0,0E0,0E0,0E0,0E0],"parents":[2147483647,0,0,1,1,2,2,3,3,4,4,5,5,6,6,7,7,11,11,12,12,13,13,14,14,15,15,16,16,17,17,20,20,21,21,25,25,29,29,32,32,33,33],"right_children":[2,4,6,8,10,12,14,16,-1,-1,-1,18,20,22,24,26,28,30,-1,-1,32,34,-1,-1,-1,36,-1,-1,-1,38,-1,-1,40,42,-1,-1,-1,-1,-1,-1,-1,-1,-1],"split_conditions":[9.456442E2,3.6676865E0,4.9618103E1,9.337759E2,6.07871E2,1.217344E3,1.1165376E-2,8.9015155E2,9.07661E-2,5.876455E-2,2.0916598E-2,1.0173619E3,3.2157254E0,8.6908295E1,1.0606545E2,2.8271443E-1,1.3758857E0,5.279498E0,-3.021334E-3,2.3881376E-3,2.60726E1,7.257198E1,1.2494851E-2,1.7624735E-3,1.2570778E-3,1.6899312E-1,-5.685295E-4,6.897047E-3,1.2381041E-3,2.2643313E0,-5.3508655E-4,-9.3123177E-4,4.7745583E1,6.0354263E1,-9.537936E-5,-1.4099008E-3,-1.0216334E-3,-9.6974854E-4,1.6191262E-3,1.7579753E-4,-1.9714575E-4,6.1696174E-4,3.6786534E-3],"split_indices":[1,0,0,1,0,1,2,1,0,0,0,1,0,0,0,0,0,0,0,0,0,0,0,0,0,0,0,0,0,0,0,0,0,0,0,0,0,0,0,0,0,0,0],"sum_hessian":[3.25E2,1.75E2,1.5E2,8.6E1,8.9E1,8.3E1,6.7E1,8.5E1,1E0,4.7E1,4.2E1,1.3E1,7E1,1.2E1,5.5E1,6.7E1,1.8E1,7E0,6E0,2E0,6.8E1,1E1,2E0,3.1E1,2.4E1,5.9E1,8E0,4E0,1.4E1,2E0,5E0,1.2E1,5.6E1,5E0,5E0,1.5E1,4.4E1,1E0,1E0,2E1,3.6E1,1E0,4E0],"tree_param":{"num_deleted":"0","num_feature":"4","num_nodes":"43","size_leaf_vector":"0"}},{"base_weights":[2.9179959E-2,5.2450664E-2,1.8632424E-3,5.4187234E-3,9.733209E-2,-8.9543994E-4,5.2436255E-3,-4.989814E-4,2.5717068E-1,1.383407E-1,4.929151E-2,-4.051163E-3,-2.6057285E-4,1.143234E-2,3.7133235E-3,-2.5712792E-3,6.9439253E-3,-5.4331194E-4,-7.481398E-3,6.3683786E-3,-5.450117E-4,4.4237752E-3,3.3319633E-2,4.1674767E-3,2.9834746E-3,-3.377887E-3,-2.2792602E-3,1.7472576E-2,2.9714466E-3,-2.7476205E-3,1.6410649E-4,-2.2445058E-3,-1.4784618E-4,8.348714E-3,-2.3845832E-4,-2.4065142E-3,-1.3897386E-3,4.5875236E-3,-1.3377169E-3,4.1858497E-4,-4.653383E-4,1.7480552E-3,9.319234E-3],"default_left":[true,true,true,true,true,true,true,true,false,false,false,true,true,true,true,true,true,true,false,false,true,true,false,false,false,false,true,false,false,false,true,false,true,true,false,false,false,false,false,false,false,false,false],"id":15,"leaf_child_counts":[0,0,0,0,0,0,0,0,0,0,0,0,0,0,0,0,0,0,0,0,0,0,0,0,0,0,0,0,0,0,0,0,0,0,0,0,0,0,0,0,0,0,0],"left_children":[1,3,5,7,9,11,13,15,-1,-1,-1,17,19,21,23,25,27,29,-1,-1,31,33,-1,-1,-1,-1,35,-1,-1,-1,37,-1,39,41,-1,-1,-1,-1,-1,-1,-1,-1,-1],"loss_changes":[2.0713374E-1,3.7098402E-1,1.4128314E-3,1.2974039E-1,1.7048788E-1,1.6723541E-4,6.0154893E-4,1.3443117E-3,0E0,0E0,0E0,1.6439384E-4,1.3734358E-4,1.8467822E-3,6.1283936E-6,8.317962E-6,7.4275327E-4,1.292585E-5,0E0,0E0,4.624181E-5,2.032796E-4,0E0,0E0,0E0,0E0,2.6549096E-6,0E0,0E0,0E0,5.263915E-5,0E0,1.0445517E-5,2.214589E-5,0E0,0E0,0E0,0E0,0E0,0E0,0E0,0E0,0E0],"parents":[2147483647,0,0,1,1,2,2,3,3,4,4,5,5,6,6,7,7,11,11,12,12,13,13,14,14,15,15,16,16,17,17,20,20,21,21,26,26,30,30,32,32,33,33],"right_children":[2,4,6,8,10,12,14,16,-1,-1,-1,18,20,22,24,26,28,30,-1,-1,32,34,-1,-1,-1,-1,36,-1,-1,-1,38,-1,40,42,-1,-1,-1,-1,-1,-1,-1,-1,-1],"split_conditions":[9.456442E2,3.6676865E0,4.9618103E1,9.337759E2,6.07871E2,1.217344E3,1.1165376E-2,8.9015155E2,7.715121E-2,4.150221E-2,1.4787453E-2,1.0173619E3,3.2157254E0,8.6908295E1,1.0606545E2,1.6899312E-1,1.3758857E0,2.2643313E0,-2.2444194E-3,1.9105136E-3,2.60726E1,7.257198E1,9.995891E-3,1.250243E-3,8.9504244E-4,-1.0133662E-3,2.8271443E-1,5.241773E-3,8.91434E-4,-8.242862E-4,5.279498E0,-6.7335175E-4,4.7745583E1,6.0354263E1,-7.15375E-5,-7.219543E-4,-4.169216E-4,1.3762572E-3,-4.013151E-4,1.2557549E-4,-1.396015E-4,5.2441657E-4,2.7957703E-3],"split_indices":[1,0,0,1,0,1,2,1,0,0,0,1,0,0,0,0,0,0,0,0,0,0,0,0,0,0,0,0,0,0,0,0,0,0,0,0,0,0,0,0,0,0,0],"sum_hessian":[3.25E2,1.75E2,1.5E2,8.6E1,8.9E1,8.3E1,6.7E1,8.5E1,1E0,4.7E1,4.2E1,1.3E1,7E1,1.2E1,5.5E1,6.7E1,1.8E1,7E0,6E0,2E0,6.8E1,1E1,2E0,3.1E1,2.4E1,1.5E1,5.2E1,4E0,1.4E1,1E0,6E0,1.2E1,5.6E1,5E0,5E0,4.4E1,8E0,1E0,5E0,2E1,3.6E1,1E0,4E0],"tree_param":{"num_deleted":"0","num_feature":"4","num_nodes":"43","size_leaf_vector":"0"}},{"base_weights":[2.0892039E-2,3.749626E-2,1.400418E-3,4.7256523E-3,6.875789E-2,-6.3717767E-4,3.8968534E-3,-3.0300353E-4,2.1859503E-1,9.7703315E-2,3.484769E-2,5.094707E-3,-8.391103E-4,9.021442E-3,2.63763E-3,-1.8315462E-3,5.183518E-3,-3.9750477E-3,-4.4637316E-4,3.3919758E-3,2.6655674E-2,2.9562805E-3,2.1242523E-3,-2.4278557E-3,-1.6169708E-3,1.327908E-2,2.1394293E-3,1.0426119E-3,-5.5576093E-3,-1.5065605E-3,-1.0374607E-4,6.397476E-3,-1.7885368E-4,-2.3354776E-3,3.8993955E-3,2.9898115E-4,-3.2951703E-4,1.4858544E-3,7.082629E-3],"default_left":[true,true,true,true,true,true,true,true,false,false,false,false,true,true,true,true,true,true,true,true,false,false,false,false,false,false,false,true,false,false,true,true,false,false,false,false,false,false,false],"id":16,"leaf_child_counts":[0,0,0,0,0,0,0,0,0,0,0,0,0,0,0,0,0,0,0,0,0,0,0,0,0,0,0,0,0,0,0,0,0,0,0,0,0,0,0],"left_children":[1,3,5,7,9,11,13,15,-1,-1,-1,-1,17,19,21,23,25,27,29,31,-1,-1,-1,-1,-1,-1,-1,33,-1,-1,35,37,-1,-1,-1,-1,-1,-1,-1],"loss_changes":[1.0545516E-1,1.799805E-1,7.7057874E-4,9.36326E-2,8.4934324E-2,1.0150121E-4,4.1500886E-4,7.3072274E-4,0E0,0E0,0E0,0E0,9.921675E-5,1.2001117E-3,2.8810464E-6,4.775051E-6,4.3981895E-4,7.7261226E-5,2.672412E-5,1.1919763E-4,0E0,0E0,0E0,0E0,9.167561E-7,0E0,0E0,3.8058366E-5,0E0,0E0,5.281194E-6,9.667507E-6,0E0,0E0,0E0,0E0,0E0,0E0,0E0],"parents":[2147483647,0,0,1,1,2,2,3,3,4,4,5,5,6,6,7,7,12,12,13,13,14,14,15,15,16,16,17,17,18,18,19,19,27,27,30,30,31,31],"right_children":[2,4,6,8,10,12,14,16,-1,-1,-1,-1,18,20,22,24,26,28,30,32,-1,-1,-1,-1,-1,-1,-1,34,-1,-1,36,38,-1,-1,-1,-1,-1,-1,-1],"split_conditions":[9.456442E2,3.6676865E0,4.9618103E1,9.337759E2,6.07871E2,6.728492E-1,1.1165376E-2,8.9015155E2,6.557851E-2,2.9310996E-2,1.0454308E-2,1.5284122E-3,5.1208467E0,8.6908295E1,1.0606545E2,1.6899312E-1,1.3758857E0,1.01009814E3,2.6596777E1,7.257198E1,7.996703E-3,8.8688417E-4,6.372757E-4,-7.2835677E-4,-4.8509124E-4,3.9837244E-3,6.418288E-4,2.2643313E0,-1.6672829E-3,-4.5196817E-4,4.7745583E1,6.0354263E1,-5.3656106E-5,-7.006433E-4,1.1698187E-3,8.9694346E-5,-9.885511E-5,4.4575633E-4,2.1247887E-3],"split_indices":[1,0,0,1,0,0,2,1,0,0,0,0,0,0,0,0,0,1,0,0,0,0,0,0,0,0,0,0,0,0,0,0,0,0,0,0,0,0,0],"sum_hessian":[3.25E2,1.75E2,1.5E2,8.6E1,8.9E1,8.3E1,6.7E1,8.5E1,1E0,4.7E1,4.2E1,2E0,8.1E1,1.2E1,5.5E1,6.7E1,1.8E1,8E0,7.3E1,1E1,2E0,3.1E1,2.4E1,1.5E1,5.2E1,4E0,1.4E1,2E0,6E0,1.7E1,5.6E1,5E0,5E0,1E0,1E0,2E1,3.6E1,1E0,4E0],"tree_param":{"num_deleted":"0","num_feature":"4","num_nodes":"39","size_leaf_vector":"0"}},{"base_weights":[1.4994687E-2,2.686556E-2,1.0591358E-3,4.1009528E-3,4.8572842E-2,-4.4758624E-4,2.9048051E-3,-1.7242684E-4,1.858058E-1,6.900372E-2,2.4636678E-2,4.0757456E-3,-6.076156E-4,7.1237455E-3,1.8735369E-3,-1.2999277E-3,3.8719147E-3,-4.6169655E-3,-3.9691923E-4,2.6031842E-3,2.1324554E-2,2.0970795E-3,1.5124608E-3,-1.3850586E-3,-5.879518E-4,1.0092092E-2,1.5403946E-3,3.3144858E-3,-4.8699474E-4,4.9066544E-3,-1.3415019E-4,-1.7450205E-3,-1.2262932E-3,-1.7692226E-3,-1.2756139E-4,1.2629628E-3,5.3828E-3],"default_left":[true,true,true,true,true,true,true,true,false,false,false,false,true,true,true,true,true,false,true,true,false,false,false,true,false,false,false,false,true,true,false,false,false,false,false,false,false],"id":17,"leaf_child_counts":[0,0,0,0,0,0,0,0,0,0,0,0,0,0,0,0,0,0,0,0,0,0,0,0,0,0,0,0,0,0,0,0,0,0,0,0,0],"left_children":[1,3,5,7,9,11,13,15,-1,-1,-1,-1,17,19,21,23,25,-1,27,29,-1,-1,-1,31,-1,-1,-1,-1,33,35,-1,-1,-1,-1,-1,-1,-1],"loss_changes":[5.3900793E-2,8.6772576E-2,4.2121764E-4,6.758699E-2,4.2313308E-2,6.328124E-5,2.8251187E-4,3.971931E-4,0E0,0E0,0E0,0E0,6.74374E-5,7.790314E-4,1.3483368E-6,3.3072138E-6,2.6000105E-4,0E0,2.8024366E-5,7.001727E-5,0E0,0E0,0E0,1.2890669E-6,0E0,0E0,0E0,0E0,3.57226E-5,3.6112906E-6,0E0,0E0,0E0,0E0,0E0,0E0,0E0],"parents":[2147483647,0,0,1,1,2,2,3,3,4,4,5,5,6,6,7,7,12,12,13,13,14,14,15,15,16,16,18,18,19,19,23,23,28,28,29,29],"right_children":[2,4,6,8,10,12,14,16,-1,-1,-1,-1,18,20,22,24,26,-1,28,30,-1,-1,-1,32,-1,-1,-1,-1,34,36,-1,-1,-1,-1,-1,-1,-1],"split_conditions":[9.456442E2,3.6676865E0,4.9618103E1,9.337759E2,6.07871E2,6.728492E-1,1.1165376E-2,8.9015155E2,5.5741742E-2,2.0701118E-2,7.391004E-3,1.2227237E-3,1.5760081E0,8.6908295E1,1.0606545E2,2.8271443E-1,1.3758857E0,-1.3850897E-3,1.0055736E3,7.257198E1,6.3973665E-3,6.291239E-4,4.5373823E-4,1.6899312E-1,-1.7638554E-4,3.0276277E-3,4.621184E-4,9.943458E-4,6.6570053E0,6.0354263E1,-4.024506E-5,-5.235062E-4,-3.6788796E-4,-5.307668E-4,-3.826842E-5,3.7888886E-4,1.6148401E-3],"split_indices":[1,0,0,1,0,0,2,1,0,0,0,0,0,0,0,0,0,0,1,0,0,0,0,0,0,0,0,0,0,0,0,0,0,0,0,0,0],"sum_hessian":[3.25E2,1.75E2,1.5E2,8.6E1,8.9E1,8.3E1,6.7E1,8.5E1,1E0,4.7E1,4.2E1,2E0,8.1E1,1.2E1,5.5E1,6.7E1,1.8E1,3E0,7.8E1,1E1,2E0,3.1E1,2.4E1,5.9E1,8E0,4E0,1.4E1,1E0,7.7E1,5E0,5E0,1.5E1,4.4E1,1.6E1,6.1E1,1E0,4E0],"tree_param":{"num_deleted":"0","num_feature":"4","num_nodes":"37","size_leaf_vector":"0"}},{"base_weights":[1.0790712E-2,1.9296153E-2,8.056236E-4,3.5392116E-3,3.4313463E-2,-3.1018024E-4,2.172122E-3,-9.253944E-5,1.579349E-1,4.8734527E-2,1.7417543E-2,3.2605927E-3,-4.3703557E-4,5.62898E-3,1.3308494E-3,-9.256528E-4,2.894E-3,-3.578149E-3,-2.724598E-4,1.9998008E-3,1.7059645E-2,-1.2542339E-3,-8.089934E-4,7.6699494E-3,1.1090835E-3,2.8173123E-3,-3.4819162E-4,3.7669241E-3,-1.0062257E-4,-2.4557887E-3,-2.0108113E-4],"default_left":[true,true,true,true,true,true,true,true,false,false,false,false,true,true,false,true,true,false,true,true,false,false,false,false,false,false,true,false,false,false,false],"id":18,"leaf_child_counts":[0,0,0,0,0,0,0,0,0,0,0,0,0,0,0,0,0,0,0,0,0,0,0,0,0,0,0,0,0,0,0],"left_children":[1,3,5,7,9,11,13,15,-1,-1,-1,-1,17,19,-1,21,23,-1,25,27,-1,-1,-1,-1,-1,-1,29,-1,-1,-1,-1],"loss_changes":[2.767085E-2,4.1524887E-2,2.3091013E-4,4.8797842E-2,2.1080308E-2,3.947461E-5,1.9026361E-4,2.1665769E-4,0E0,0E0,0E0,0E0,4.1415107E-5,5.051752E-4,6.281771E-7,1.591914E-6,1.5346213E-4,0E0,1.94665E-5,4.120782E-5,0E0,0E0,7.795388E-7,0E0,0E0,0E0,2.369006E-5,8.440693E-7,0E0,0E0,0E0],"parents":[2147483647,0,0,1,1,2,2,3,3,4,4,5,5,6,6,7,7,12,12,13,13,15,15,16,16,18,18,19,19,26,26],"right_children":[2,4,6,8,10,12,14,16,-1,-1,-1,-1,18,20,-1,22,24,-1,26,28,-1,-1,-1,-1,-1,-1,30,-1,-1,-1,-1],"split_conditions":[9.456442E2,3.6676865E0,4.9618103E1,9.337759E2,6.07871E2,6.728492E-1,1.1165376E-2,8.9015155E2,4.7380473E-2,1.4620359E-2,5.225263E-3,9.781779E-4,1.5760081E0,8.6908295E1,3.9925482E-4,1.6899312E-1,1.3758857E0,-1.0734447E-3,1.0055736E3,7.257198E1,5.1178937E-3,-3.7627018E-4,-2.4269804E-4,2.300985E-3,3.3272506E-4,8.451937E-4,5.1208467E0,1.1300773E-3,-3.0186773E-5,-7.3673663E-4,-6.0324342E-5],"split_indices":[1,0,0,1,0,0,2,1,0,0,0,0,0,0,0,0,0,0,1,0,0,0,0,0,0,0,0,0,0,0,0],"sum_hessian":[3.25E2,1.75E2,1.5E2,8.6E1,8.9E1,8.3E1,6.7E1,8.5E1,1E0,4.7E1,4.2E1,2E0,8.1E1,1.2E1,5.5E1,6.7E1,1.8E1,3E0,7.8E1,1E1,2E0,1.5E1,5.2E1,4E0,1.4E1,1E0,7.7E1,5E0,5E0,4E0,7.3E1],"tree_param":{"num_deleted":"0","num_feature":"4","num_nodes":"31","size_leaf_vector":"0"}},{"base_weights":[7.7861403E-3,1.3900889E-2,6.074522E-4,1.2446098E-2,1.3424468E-1,-2.1769053E-4,1.6178129E-3,-4.1347605E-5,2.4240255E-2,2.608478E-3,-3.1843217E-4,4.4185566E-3,9.387508E-4,-6.570588E-4,2.1644265E-3,3.441928E-2,1.2313899E-2,-2.7730658E-3,-1.9011614E-4,1.4998262E-3,1.3647716E-2,1.1009146E-3,6.936312E-4,-7.1235123E-4,-2.1543603E-4,5.8291676E-3,7.9855125E-4,-1.1006737E-3,-3.8951212E-3,2.3947153E-3,-2.539565E-4,2.8251708E-3,-7.548928E-5,-9.6275524E-4,2.4070343E-5,5.084574E-4,3.186822E-3],"default_left":[true,true,true,true,false,true,true,true,true,false,true,true,true,true,true,false,false,true,true,true,false,false,false,false,false,false,false,false,false,false,true,true,false,false,false,false,false],"id":19,"leaf_child_counts":[0,0,0,0,0,0,0,0,0,0,0,0,0,0,0,0,0,0,0,0,0,0,0,0,0,0,0,0,0,0,0,0,0,0,0,0,0],"left_children":[1,3,5,7,-1,9,11,13,15,-1,17,19,21,23,25,-1,-1,27,29,31,-1,-1,-1,-1,-1,-1,-1,-1,-1,-1,33,35,-1,-1,-1,-1,-1],"loss_changes":[1.4301609E-2,2.9142395E-2,1.2623964E-4,2.5774809E-2,0E0,2.4746507E-5,1.2517985E-4,1.18220465E-4,1.0502044E-2,0E0,2.5300242E-5,3.297173E-4,1.4623438E-6,1.5069854E-6,9.0451125E-5,0E0,0E0,3.2188073E-6,1.364446E-5,2.3179464E-5,0E0,0E0,0E0,3.7544123E-7,0E0,0E0,0E0,0E0,0E0,0E0,1.5394251E-5,3.4066907E-6,0E0,0E0,0E0,0E0,0E0],"parents":[2147483647,0,0,1,1,2,2,3,3,5,5,6,6,7,7,8,8,10,10,11,11,12,12,13,13,14,14,17,17,18,18,19,19,30,30,31,31],"right_children":[2,4,6,8,-1,10,12,14,16,-1,18,20,22,24,26,-1,-1,28,30,32,-1,-1,-1,-1,-1,-1,-1,-1,-1,-1,34,36,-1,-1,-1,-1,-1],"split_conditions":[9.456442E2,9.337759E2,4.9618103E1,3.6676865E0,4.0273406E-2,6.728492E-1,1.1165376E-2,8.9015155E2,6.07871E2,7.8254344E-4,1.5760081E0,8.6908295E1,1.0606545E2,2.8271443E-1,1.3758857E0,1.0325784E-2,3.6941697E-3,1.1829113E0,1.0055736E3,7.257198E1,4.0943148E-3,3.3027437E-4,2.0808936E-4,-2.1370538E-4,-6.463081E-5,1.7487503E-3,2.3956539E-4,-3.302021E-4,-1.1685364E-3,7.184146E-4,2.6596777E1,6.0354263E1,-2.2646786E-5,-2.888266E-4,7.2211033E-6,1.5253724E-4,9.560466E-4],"split_indices":[1,1,0,0,0,0,2,1,0,0,0,0,0,0,0,0,0,0,1,0,0,0,0,0,0,0,0,0,0,0,0,0,0,0,0,0,0],"sum_hessian":[3.25E2,1.75E2,1.5E2,1.74E2,1E0,8.3E1,6.7E1,8.5E1,8.9E1,2E0,8.1E1,1.2E1,5.5E1,6.7E1,1.8E1,4.7E1,4.2E1,3E0,7.8E1,1E1,2E0,3.1E1,2.4E1,5.9E1,8E0,4E0,1.4E1,2E0,1E0,1E0,7.7E1,5E0,5E0,2.1E1,5.6E1,1E0,4E0],"tree_param":{"num_deleted":"0","num_feature":"4","num_nodes":"37","size_leaf_vector":"0"}},{"base_weights":[5.6386306E-3,1.0048576E-2,4.6121998E-4,8.801904E-3,1.14108086E-1,-1.557043E-4,1.2165203E-3,-9.0613785E-6,1.7123472E-2,2.0867784E-3,-2.3584752E-4,3.4914613E-3,6.666854E-4,-4.6403543E-4,1.6197436E-3,2.4308026E-2,8.7052835E-3,-2.3158307E-3,-1.275465E-4,1.1485978E-3,1.091814E-2,-7.011313E-4,-3.837039E-4,4.4301273E-3,5.7496625E-4,-8.805388E-4,-3.3108531E-3,2.035508E-3,-1.8137423E-4,2.1623771E-3,-5.6614477E-5,-1.6353389E-3,-8.068236E-5,4.3219328E-4,2.4219751E-3],"default_left":[true,true,true,true,false,true,true,true,true,false,true,true,false,true,true,false,false,true,true,true,false,false,false,false,false,false,false,false,true,true,false,false,false,false,false],"id":20,"leaf_child_counts":[0,0,0,0,0,0,0,0,0,0,0,0,0,0,0,0,0,0,0,0,0,0,0,0,0,0,0,0,0,0,0,0,0,0,0],"left_children":[1,3,5,7,-1,9,11,13,15,-1,17,19,-1,21,23,-1,-1,25,27,29,-1,-1,-1,-1,-1,-1,-1,-1,31,33,-1,-1,-1,-1,-1],"loss_changes":[7.43863E-3,2.182777E-2,7.054985E-5,1.2831338E-2,0E0,1.5588623E-5,8.272953E-5,6.448312E-5,5.2316766E-3,0E0,1.8176295E-5,2.1365548E-4,7.200888E-7,1.026121E-6,5.3241103E-5,0E0,0E0,2.7972565E-6,9.56734E-6,1.3562432E-5,0E0,0E0,3.9481165E-7,0E0,0E0,0E0,0E0,0E0,1.1287445E-5,1.6481536E-6,0E0,0E0,0E0,0E0,0E0],"parents":[2147483647,0,0,1,1,2,2,3,3,5,5,6,6,7,7,8,8,10,10,11,11,13,13,14,14,17,17,18,18,19,19,28,28,29,29],"right_children":[2,4,6,8,-1,10,12,14,16,-1,18,20,-1,22,24,-1,-1,26,28,30,-1,-1,-1,-1,-1,-1,-1,-1,32,34,-1,-1,-1,-1,-1],"split_conditions":[9.456442E2,9.337759E2,4.9618103E1,3.6676865E0,3.4232426E-2,6.728492E-1,1.1165376E-2,8.9015155E2,6.07871E2,6.260335E-4,1.5760081E0,8.6908295E1,2.0000563E-4,1.6899312E-1,1.3758857E0,7.292408E-3,2.6115852E-3,1.1829113E0,1.0055736E3,7.257198E1,3.2754422E-3,-2.1033939E-4,-1.1511118E-4,1.3290383E-3,1.7248988E-4,-2.6416164E-4,-9.93256E-4,6.106524E-4,5.1208467E0,6.0354263E1,-1.6984344E-5,-4.906017E-4,-2.4204708E-5,1.2965799E-4,7.2659255E-4],"split_indices":[1,1,0,0,0,0,2,1,0,0,0,0,0,0,0,0,0,0,1,0,0,0,0,0,0,0,0,0,0,0,0,0,0,0,0],"sum_hessian":[3.25E2,1.75E2,1.5E2,1.74E2,1E0,8.3E1,6.7E1,8.5E1,8.9E1,2E0,8.1E1,1.2E1,5.5E1,6.7E1,1.8E1,4.7E1,4.2E1,3E0,7.8E1,1E1,2E0,1.5E1,5.2E1,4E0,1.4E1,2E0,1E0,1E0,7.7E1,5E0,5E0,4E0,7.3E1,1E0,4E0],"tree_param":{"num_deleted":"0","num_feature":"4","num_nodes":"35","size_leaf_vector":"0"}},{"base_weights":[4.0977686E-3,7.291727E-3,3.478722E-4,6.2249163E-3,9.699178E-2,-1.1537232E-4,9.149997E-4,7.3370675E-6,1.2096993E-2,1.6694268E-3,-1.7926286E-4,2.7605523E-3,4.702285E-4,-3.2961086E-4,1.2128698E-3,1.7168144E-2,6.154848E-3,-1.9354359E-3,-8.807356E-5,8.8032265E-4,8.734544E-3,3.366971E-3,4.139781E-4,-7.04431E-4,-2.8142254E-3,1.2641686E-3,-1.5808534E-4,1.6563833E-3,-4.2458374E-5,-2.6035327E-3,-5.680929E-5],"default_left":[true,true,true,true,false,true,true,true,true,false,true,true,false,false,true,false,false,true,true,true,false,false,false,false,false,false,true,false,false,false,false],"id":21,"leaf_child_counts":[0,0,0,0,0,0,0,0,0,0,0,0,0,0,0,0,0,0,0,0,0,0,0,0,0,0,0,0,0,0,0],"left_children":[1,3,5,7,-1,9,11,13,15,-1,17,19,-1,-1,21,-1,-1,23,25,27,-1,-1,-1,-1,-1,-1,29,-1,-1,-1,-1],"loss_changes":[3.9019696E-3,1.6238194E-2,3.977609E-5,6.3891797E-3,0E0,9.877937E-6,5.451962E-5,3.5333127E-5,2.606349E-3,0E0,1.2961364E-5,1.3833298E-4,9.255218E-7,6.4276765E-7,3.1303127E-5,0E0,0E0,2.3447483E-6,7.679004E-6,7.947801E-6,0E0,0E0,0E0,0E0,0E0,4.4396893E-7,1.8674655E-5,7.4936906E-7,0E0,0E0,0E0],"parents":[2147483647,0,0,1,1,2,2,3,3,5,5,6,6,7,7,8,8,10,10,11,11,14,14,17,17,18,18,19,19,26,26],"right_children":[2,4,6,8,-1,10,12,14,16,-1,18,20,-1,-1,22,-1,-1,24,26,28,-1,-1,-1,-1,-1,-1,30,-1,-1,-1,-1],"split_conditions":[9.456442E2,9.337759E2,4.9618103E1,3.6676865E0,2.9097535E-2,6.728492E-1,1.1165376E-2,8.9015155E2,6.07871E2,5.008281E-4,1.5760081E0,8.6908295E1,1.4106855E-4,-9.888326E-5,1.3758857E0,5.1504434E-3,1.8464545E-3,1.1829113E0,3.7433393E0,7.257198E1,2.6203631E-3,1.0100913E-3,1.2419344E-4,-2.113293E-4,-8.4426766E-4,3.7925062E-4,5.1208467E0,4.96915E-4,-1.2737512E-5,-7.8105985E-4,-1.7042788E-5],"split_indices":[1,1,0,0,0,0,2,1,0,0,0,0,0,0,0,0,0,0,0,0,0,0,0,0,0,0,0,0,0,0,0],"sum_hessian":[3.25E2,1.75E2,1.5E2,1.74E2,1E0,8.3E1,6.7E1,8.5E1,8.9E1,2E0,8.1E1,1.2E1,5.5E1,6.7E1,1.8E1,4.7E1,4.2E1,3E0,7.8E1,1E1,2E0,4E0,1.4E1,2E0,1E0,3E0,7.5E1,5E0,5E0,2E0,7.3E1],"tree_param":{"num_deleted":"0","num_feature":"4","num_nodes":"31","size_leaf_vector":"0"}},{"base_weights":[2.9894134E-3,5.315365E-3,2.5857319E-4,4.4035325E-3,8.2443E-2,-8.84646E-5,6.9498573E-4,1.716906E-5,8.546019E-3,-7.4435276E-4,4.0297888E-5,2.3323197E-3,3.3171795E-4,-2.3218006E-4,9.086728E-4,1.2125592E-2,4.3514716E-3,9.480771E-5,-1.5970572E-3,1.3355216E-3,-1.5787382E-5,7.024884E-4,6.9876513E-3,4.5050867E-4,1.6639709E-4,2.5588274E-3,2.980431E-4,7.9167634E-4,-2.694279E-4,-1.7305817E-4,3.3521515E-4,1.4431715E-3,-3.182888E-5,-3.5304204E-4,1.5405566E-3],"default_left":[true,true,true,true,false,true,true,true,true,true,true,true,true,false,true,false,false,true,false,false,true,true,false,false,false,false,false,true,false,false,false,false,false,false,false],"id":22,"leaf_child_counts":[0,0,0,0,0,0,0,0,0,0,0,0,0,0,0,0,0,0,0,0,0,0,0,0,0,0,0,0,0,0,0,0,0,0,0],"left_children":[1,3,5,7,-1,9,11,13,15,17,19,21,23,-1,25,-1,-1,27,-1,-1,29,31,-1,-1,-1,-1,-1,33,-1,-1,-1,-1,-1,-1,-1],"loss_changes":[2.0693133E-3,1.2014591E-2,2.2930679E-5,3.179682E-3,0E0,7.2085677E-6,3.9077302E-5,1.9328403E-5,1.2985575E-3,1.0169197E-5,5.251378E-6,8.614012E-5,1.0247977E-6,6.521766E-7,1.8382396E-5,0E0,0E0,2.2438946E-6,4.0652776E-7,0E0,3.922183E-6,5.484898E-6,0E0,0E0,0E0,0E0,0E0,3.115652E-6,0E0,5.7743546E-7,0E0,0E0,0E0,0E0,0E0],"parents":[2147483647,0,0,1,1,2,2,3,3,5,5,6,6,7,7,8,8,9,9,10,10,11,11,12,12,14,14,17,17,20,20,21,21,27,27],"right_children":[2,4,6,8,-1,10,12,14,16,18,20,22,24,-1,26,-1,-1,28,-1,-1,30,32,-1,-1,-1,-1,-1,34,-1,-1,-1,-1,-1,-1,-1],"split_conditions":[9.456442E2,9.337759E2,6.0354263E1,3.6676865E0,2.47329E-2,1.217344E3,1.1165376E-2,8.9015155E2,6.07871E2,1.0173619E3,3.2157254E0,8.6908295E1,1.0606545E2,-6.965402E-5,1.3758857E0,3.6376778E-3,1.3054415E-3,5.279498E0,-4.7911718E-4,4.0065648E-4,1.6014368E3,7.257198E1,2.0962956E-3,1.351526E-4,4.991913E-5,7.676483E-4,8.941293E-5,2.2643313E0,-8.082837E-5,-5.1917454E-5,1.0056455E-4,4.3295146E-4,-9.548665E-6,-1.05912615E-4,4.62167E-4],"split_indices":[1,1,0,0,0,1,2,1,0,1,0,0,0,0,0,0,0,0,0,0,1,0,0,0,0,0,0,0,0,0,0,0,0,0,0],"sum_hessian":[3.25E2,1.75E2,1.5E2,1.74E2,1E0,8.4E1,6.6E1,8.5E1,8.9E1,1.3E1,7.1E1,1.1E1,5.5E1,6.7E1,1.8E1,4.7E1,4.2E1,7E0,6E0,2E0,6.9E1,9E0,2E0,3.1E1,2.4E1,4E0,1.4E1,2E0,5E0,4.8E1,2.1E1,4E0,5E0,1E0,1E0],"tree_param":{"num_deleted":"0","num_feature":"4","num_nodes":"35","size_leaf_vector":"0"}},{"base_weights":[2.1951115E-3,3.8938993E-3,2.0053031E-4,3.115276E-3,7.0076466E-2,-5.903356E-5,5.268348E-4,2.117128E-5,6.037251E-3,1.0684133E-3,-9.90734E-5,1.8425882E-3,2.3547986E-4,-1.6355183E-4,6.811713E-4,8.564055E-3,3.0762318E-3,-1.3526676E-3,-3.5155274E-5,5.3406955E-4,5.590121E-3,1.9446611E-3,2.1459658E-4,-3.685349E-4,-2.1525328E-3,1.1037479E-3,-9.386251E-5,1.096797E-3,-2.3881594E-5,-1.7634152E-3,-2.5828904E-5],"default_left":[true,true,true,true,false,true,true,true,true,false,true,true,false,false,true,false,false,true,true,true,false,false,false,false,false,false,true,false,false,false,false],"id":23,"leaf_child_counts":[0,0,0,0,0,0,0,0,0,0,0,0,0,0,0,0,0,0,0,0,0,0,0,0,0,0,0,0,0,0,0],"left_children":[1,3,5,7,-1,9,11,13,15,-1,17,19,-1,-1,21,-1,-1,23,25,27,-1,-1,-1,-1,-1,-1,29,-1,-1,-1,-1],"loss_changes":[1.1038277E-3,8.851197E-3,1.2820326E-5,1.5820292E-3,0E0,3.9429888E-6,2.5250642E-5,1.0596291E-5,6.470275E-4,0E0,6.60302E-6,5.5859087E-5,5.1311054E-7,6.846467E-7,1.07834185E-5,0E0,0E0,2.3554103E-6,5.452549E-6,3.1659374E-6,0E0,0E0,0E0,0E0,0E0,0E0,8.700552E-6,0E0,0E0,0E0,0E0],"parents":[2147483647,0,0,1,1,2,2,3,3,5,5,6,6,7,7,8,8,10,10,11,11,14,14,17,17,18,18,19,19,26,26],"right_children":[2,4,6,8,-1,10,12,14,16,-1,18,20,-1,-1,22,-1,-1,24,26,28,-1,-1,-1,-1,-1,-1,30,-1,-1,-1,-1],"split_conditions":[9.456442E2,9.337759E2,6.0354263E1,3.6676865E0,2.102294E-2,6.728492E-1,1.1165376E-2,8.9015155E2,6.07871E2,3.2052398E-4,1.5760081E0,8.6908295E1,7.064396E-5,-4.906555E-5,1.3758857E0,2.5692165E-3,9.228696E-4,1.1829113E0,3.7433393E0,7.257198E1,1.6770363E-3,5.833984E-4,6.4378975E-5,-1.10560475E-4,-6.4575986E-4,3.3112438E-4,5.1208467E0,3.290391E-4,-7.1644786E-6,-5.290246E-4,-7.748671E-6],"split_indices":[1,1,0,0,0,0,2,1,0,0,0,0,0,0,0,0,0,0,0,0,0,0,0,0,0,0,0,0,0,0,0],"sum_hessian":[3.25E2,1.75E2,1.5E2,1.74E2,1E0,8.4E1,6.6E1,8.5E1,8.9E1,2E0,8.2E1,1.1E1,5.5E1,6.7E1,1.8E1,4.7E1,4.2E1,3E0,7.9E1,9E0,2E0,4E0,1.4E1,2E0,1E0,3E0,7.6E1,4E0,5E0,2E0,7.4E1],"tree_param":{"num_deleted":"0","num_feature":"4","num_nodes":"31","size_leaf_vector":"0"}},{"base_weights":[1.6179521E-3,2.8683585E-3,1.4980989E-4,2.2040056E-3,5.9565067E-2,-4.887068E-5,3.9963136E-4,2.1782444E-5,4.264752E-3,-4.66291E-4,3.297314E-5,1.4563898E-3,1.6604683E-4,-1.4527218E-4,4.352066E-4,6.0483813E-3,2.1745437E-3,7.806299E-5,-1.0217968E-3,8.5475045E-4,-2.716934E-6,4.0603877E-4,4.472097E-3,1.4779329E-3,1.6621429E-4,5.9940293E-4,-1.9561748E-4,-1.829653E-3,-5.8221194E-4,-1.1461156E-4,2.466264E-4,8.335829E-4,-1.792113E-5,-2.448056E-4,1.14391E-3,1.8473109E-4,-1.410732E-3],"default_left":[true,true,true,true,false,true,true,true,true,true,true,true,false,false,true,false,false,true,true,false,true,true,false,false,false,true,false,false,true,false,false,false,false,false,false,false,false],"id":24,"leaf_child_counts":[0,0,0,0,0,0,0,0,0,0,0,0,0,0,0,0,0,0,0,0,0,0,0,0,0,0,0,0,0,0,0,0,0,0,0,0,0],"left_children":[1,3,5,7,-1,9,11,13,15,17,19,21,-1,-1,23,-1,-1,25,27,-1,29,31,-1,-1,-1,33,-1,-1,35,-1,-1,-1,-1,-1,-1,-1,-1],"loss_changes":[5.980327E-4,6.498045E-3,7.5143657E-6,7.868837E-4,0E0,2.9192533E-6,1.6296613E-5,6.002763E-6,3.2238162E-4,4.3132504E-6,2.1140315E-6,3.6194768E-5,5.3702024E-7,5.076628E-7,6.7664805E-6,0E0,0E0,1.2586981E-6,1.4206039E-6,0E0,1.9812787E-6,1.8275542E-6,0E0,0E0,0E0,1.6590681E-6,0E0,0E0,4.073173E-6,6.083831E-7,3.0070169E-10,0E0,0E0,0E0,0E0,0E0,0E0],"parents":[2147483647,0,0,1,1,2,2,3,3,5,5,6,6,7,7,8,8,9,9,10,10,11,11,14,14,17,17,18,18,20,20,21,21,25,25,28,28],"right_children":[2,4,6,8,-1,10,12,14,16,18,20,22,-1,-1,24,-1,-1,26,28,-1,30,32,-1,-1,-1,34,-1,-1,36,-1,-1,-1,-1,-1,-1,-1,-1],"split_conditions":[9.456442E2,9.337759E2,6.0354263E1,3.6676865E0,1.7869521E-2,1.217344E3,1.1165376E-2,3.9939797E-1,6.07871E2,1.0173619E3,3.2157254E0,8.6908295E1,4.981405E-5,-4.3581655E-5,8.6823374E-1,1.8145145E-3,6.523631E-4,5.279498E0,1.0263787E3,2.5642515E-4,1.6014368E3,7.257198E1,1.3416291E-3,4.433799E-4,4.9864288E-5,2.2643313E0,-5.8685247E-5,-5.488959E-4,3.0229537E0,-3.438347E-5,7.3987925E-5,2.5007487E-4,-5.376339E-6,-7.344168E-5,3.4317301E-4,5.541933E-5,-4.2321964E-4],"split_indices":[1,1,0,0,0,1,2,0,0,1,0,0,0,0,0,0,0,0,1,0,1,0,0,0,0,0,0,0,0,0,0,0,0,0,0,0,0],"sum_hessian":[3.25E2,1.75E2,1.5E2,1.74E2,1E0,8.4E1,6.6E1,8.5E1,8.9E1,1.3E1,7.1E1,1.1E1,5.5E1,6.1E1,2.4E1,4.7E1,4.2E1,7E0,6E0,2E0,6.9E1,9E0,2E0,4E0,2E1,2E0,5E0,1E0,5E0,4.8E1,2.1E1,4E0,5E0,1E0,1E0,3E0,2E0],"tree_param":{"num_deleted":"0","num_feature":"4","num_nodes":"37","size_leaf_vector":"0"}},{"base_weights":[1.2001856E-3,2.1261293E-3,1.1299164E-4,1.5596463E-3,5.063033E-2,-3.9019687E-5,3.0415537E-4,2.0469106E-5,3.0130863E-3,-3.7680892E-4,2.7203492E-5,1.151661E-3,1.1711568E-4,-1.0239282E-4,3.243479E-4,4.272282E-3,1.5374006E-3,8.102204E-5,-8.462145E-4,6.8380433E-4,-1.3251656E-6,3.0868052E-4,3.5777092E-3,1.1231661E-3,1.1870797E-4,-1.5552049E-3,-4.688486E-4,-2.6863255E-4,5.8611404E-5,6.3350203E-4,-1.3450782E-5,1.4316663E-4,-1.128586E-3],"default_left":[true,true,true,true,false,true,true,true,true,true,true,true,false,false,true,false,false,false,true,false,true,true,false,false,false,false,true,false,false,false,false,false,false],"id":25,"leaf_child_counts":[0,0,0,0,0,0,0,0,0,0,0,0,0,0,0,0,0,0,0,0,0,0,0,0,0,0,0,0,0,0,0,0,0],"left_children":[1,3,5,7,-1,9,11,13,15,17,19,21,-1,-1,23,-1,-1,-1,25,-1,27,29,-1,-1,-1,-1,31,-1,-1,-1,-1,-1,-1],"loss_changes":[3.279376E-4,4.756953E-3,4.399785E-6,3.914311E-4,0E0,1.911656E-6,1.0485777E-5,3.2440325E-6,1.6066781E-4,3.0772792E-6,1.3496059E-6,2.3436967E-5,5.4816996E-7,5.2717775E-7,3.973394E-6,0E0,0E0,8.55386E-7,1.1436864E-6,0E0,1.1372491E-6,1.0548729E-6,0E0,0E0,0E0,0E0,2.584192E-6,0E0,4.9314355E-7,0E0,0E0,0E0,0E0],"parents":[2147483647,0,0,1,1,2,2,3,3,5,5,6,6,7,7,8,8,9,9,10,10,11,11,14,14,18,18,20,20,21,21,26,26],"right_children":[2,4,6,8,-1,10,12,14,16,18,20,22,-1,-1,24,-1,-1,-1,26,-1,28,30,-1,-1,-1,-1,32,-1,-1,-1,-1,-1,-1],"split_conditions":[9.456442E2,9.337759E2,6.0354263E1,3.6676865E0,1.51891E-2,1.217344E3,1.1165376E-2,3.9939797E-1,6.07871E2,1.0173619E3,3.2157254E0,8.6908295E1,3.5134704E-5,-3.071785E-5,8.6823374E-1,1.2816847E-3,4.6122022E-4,2.4306612E-5,1.0263787E3,2.051413E-4,2.60726E1,7.257198E1,1.0733128E-3,3.3694983E-4,3.5612393E-5,-4.6656147E-4,3.0229537E0,-8.0589765E-5,1.7583421E-5,1.9005062E-4,-4.0352347E-6,4.2949992E-5,-3.385758E-4],"split_indices":[1,1,0,0,0,1,2,0,0,1,0,0,0,0,0,0,0,0,1,0,0,0,0,0,0,0,0,0,0,0,0,0,0],"sum_hessian":[3.25E2,1.75E2,1.5E2,1.74E2,1E0,8.4E1,6.6E1,8.5E1,8.9E1,1.3E1,7.1E1,1.1E1,5.5E1,6.1E1,2.4E1,4.7E1,4.2E1,7E0,6E0,2E0,6.9E1,9E0,2E0,4E0,2E1,1E0,5E0,1.2E1,5.7E1,4E0,5E0,3E0,2E0],"tree_param":{"num_deleted":"0","num_feature":"4","num_nodes":"33","size_leaf_vector":"0"}},{"base_weights":[8.9520146E-4,1.5863406E-3,8.370681E-5,1.1035684E-3,4.3035746E-2,-5.840962E-5,2.4466068E-4,1.8310257E-5,2.1283308E-3,5.470316E-4,-8.0661695E-5,1.273116E-4,2.8621356E-3,-7.816873E-5,2.3202984E-4,3.0172467E-3,1.0865566E-3,-8.9439144E-4,-3.6772475E-5,-1.9424252E-4,1.9841497E-4,6.4055517E-4,8.48057E-5,7.143493E-4,-7.74261E-5,-9.0286817E-4,-4.145776E-5],"default_left":[true,true,true,true,false,true,true,true,true,false,true,true,false,false,true,false,false,false,true,false,false,false,false,false,true,false,false],"id":26,"leaf_child_counts":[0,0,0,0,0,0,0,0,0,0,0,0,0,0,0,0,0,0,0,0,0,0,0,0,0,0,0],"left_children":[1,3,5,7,-1,9,11,13,15,-1,17,19,-1,-1,21,-1,-1,-1,23,-1,-1,-1,-1,-1,25,-1,-1],"loss_changes":[1.827062E-4,3.474377E-3,3.4682928E-6,1.945841E-4,0E0,1.1353827E-6,2.1443851E-5,1.7914101E-6,8.0066064E-5,0E0,2.7885142E-6,1.6161279E-6,0E0,5.043008E-7,1.5695864E-6,0E0,0E0,5.8583123E-7,2.376032E-6,0E0,4.1026578E-7,7.869753E-7,0E0,9.5363475E-8,2.1299234E-6,0E0,0E0],"parents":[2147483647,0,0,1,1,2,2,3,3,5,5,6,6,7,7,8,8,10,10,11,11,14,14,18,18,24,24],"right_children":[2,4,6,8,-1,10,12,14,16,-1,18,20,-1,-1,22,-1,-1,-1,24,-1,-1,-1,-1,-1,26,-1,-1],"split_conditions":[9.456442E2,9.337759E2,1.4003523E3,3.6676865E0,1.2910725E-2,6.728492E-1,9.675177E1,2.8271443E-1,6.07871E2,1.6410949E-4,1.5760081E0,2.60726E1,8.586407E-4,-2.3450619E-5,8.6823374E-1,9.0517406E-4,3.2596698E-4,-2.6831744E-4,3.7433393E0,-5.8272755E-5,5.9524493E-5,1.9216655E-4,2.5441712E-5,2.143048E-4,5.6450233E0,-2.7086047E-4,-1.2437328E-5],"split_indices":[1,1,1,0,0,0,0,0,0,0,0,0,0,0,0,0,0,0,0,0,0,0,0,0,0,0,0],"sum_hessian":[3.25E2,1.75E2,1.5E2,1.74E2,1E0,8E1,7E1,8.5E1,8.9E1,2E0,7.8E1,6.8E1,2E0,5.9E1,2.6E1,4.7E1,4.2E1,3E0,7.5E1,1.2E1,5.6E1,6E0,2E1,3E0,7.2E1,2E0,7E1],"tree_param":{"num_deleted":"0","num_feature":"4","num_nodes":"27","size_leaf_vector":"0"}},{"base_weights":[6.725844E-4,1.1868678E-3,5.3691652E-5,7.8038825E-4,1.867363E-2,-4.3320804E-4,9.5641684E-5,1.5074323E-5,1.5030173E-3,3.6580324E-2,5.112917E-4,2.6243574E-6,1.8338163E-4,-5.605267E-5,1.908663E-4,2.130131E-3,7.680294E-4,8.91452E-5,2.2896926E-3,6.999254E-4,6.0572864E-5],"default_left":[true,true,true,true,true,false,true,true,true,false,false,false,true,false,true,false,false,false,false,false,false],"id":27,"leaf_child_counts":[0,0,0,0,0,0,0,0,0,0,0,0,0,0,0,0,0,0,0,0,0],"left_children":[1,3,5,7,9,-1,11,13,15,-1,-1,-1,17,-1,19,-1,-1,-1,-1,-1,-1],"loss_changes":[1.036976E-4,1.2506533E-3,3.084826E-6,9.6759E-5,1.2822064E-3,6.770724E-7,1.1257832E-6,1.0860043E-6,3.9846884E-5,0E0,6.8583745E-7,5.936104E-7,1.38887635E-5,4.9980923E-7,1.61578E-6,0E0,0E0,8.2445865E-7,0E0,0E0,0E0],"parents":[2147483647,0,0,1,1,2,2,3,3,4,4,6,6,7,7,8,8,12,12,14,14],"right_children":[2,4,6,8,10,-1,12,14,16,-1,-1,-1,18,-1,20,-1,-1,-1,-1,-1,-1],"split_conditions":[1.0055736E3,9.337759E2,1.217344E3,3.6676865E0,1.0721469E0,-1.2996241E-4,1.4003523E3,3.9939797E-1,6.07871E2,1.0974098E-2,1.5338752E-4,7.873073E-7,9.675177E1,-1.6815802E-5,8.6823374E-1,6.390393E-4,2.3040884E-4,2.674356E-5,6.869078E-4,2.0997763E-4,1.817186E-5],"split_indices":[1,1,1,0,0,0,1,0,0,0,0,0,0,0,0,0,0,0,0,0,0],"sum_hessian":[3.25E2,1.77E2,1.48E2,1.74E2,3E0,1.1E1,1.37E2,8.5E1,8.9E1,1E0,2E0,6.7E1,7E1,6.1E1,2.4E1,4.7E1,4.2E1,6.8E1,2E0,4E0,2E1],"tree_param":{"num_deleted":"0","num_feature":"4","num_nodes":"21","size_leaf_vector":"0"}},{"base_weights":[5.100066E-4,8.9931214E-4,4.1507377E-5,5.523642E-4,1.5853453E-2,-3.1407355E-4,7.2126684E-5,1.3005227E-5,1.0616144E-3,3.1093359E-2,4.0903315E-4,1.5044808E-3,5.4256304E-4],"default_left":[true,true,true,true,true,false,false,false,true,false,false,false,false],"id":28,"leaf_child_counts":[0,0,0,0,0,0,0,0,0,0,0,0,0],"left_children":[1,3,5,7,9,-1,-1,-1,11,-1,-1,-1,-1],"loss_changes":[5.9421604E-5,9.1476185E-4,1.6449117E-6,4.8053207E-5,9.2876784E-4,8.463385E-7,7.1146127E-7,8.2684625E-7,1.9872059E-5,0E0,7.5641907E-7,0E0,0E0],"parents":[2147483647,0,0,1,1,2,2,3,3,4,4,8,8],"right_children":[2,4,6,8,10,-1,-1,-1,12,-1,-1,-1,-1],"split_conditions":[1.0055736E3,9.337759E2,1.217344E3,3.6676865E0,1.0721469E0,-9.422207E-5,2.1638007E-5,3.901568E-6,6.07871E2,9.328008E-3,1.2270996E-4,4.5134427E-4,1.6276892E-4],"split_indices":[1,1,1,0,0,0,0,0,0,0,0,0,0],"sum_hessian":[3.25E2,1.77E2,1.48E2,1.74E2,3E0,1.1E1,1.37E2,8.5E1,8.9E1,1E0,2E0,4.7E1,4.2E1],"tree_param":{"num_deleted":"0","num_feature":"4","num_nodes":"13","size_leaf_vector":"0"}},{"base_weights":[3.8752455E-4,6.8583724E-4,2.8550143E-5,3.8993437E-4,1.3460128E-2,-1.9295997E-4,6.438861E-5,9.157175E-6,7.4945553E-4,2.6429415E-2,3.272264E-4,-1.0756729E-3,-9.5040676E-5,-3.3980315E-5,1.8167344E-4,1.0618567E-3,3.8329946E-4,3.7069447E-4,-2.749987E-4,9.240027E-5,1.8173059E-3],"default_left":[true,true,true,true,true,true,true,false,true,false,false,false,true,false,true,false,false,false,false,false,false],"id":29,"leaf_child_counts":[0,0,0,0,0,0,0,0,0,0,0,0,0,0,0,0,0,0,0,0,0],"left_children":[1,3,5,7,9,11,13,-1,15,-1,-1,-1,17,-1,19,-1,-1,-1,-1,-1,-1],"loss_changes":[3.4890658E-5,6.6758227E-4,1.1952733E-6,2.3950193E-5,6.7264907E-4,1.7128945E-6,1.4944699E-6,8.257594E-7,9.887877E-6,0E0,8.0159055E-7,0E0,1.778196E-6,2.5446163E-8,8.4471485E-6,0E0,0E0,1.6555543E-7,2.9553485E-7,4.982014E-7,0E0],"parents":[2147483647,0,0,1,1,2,2,3,3,4,4,5,5,6,6,8,8,12,12,14,14],"right_children":[2,4,6,8,10,12,14,-1,16,-1,-1,-1,18,-1,20,-1,-1,-1,-1,-1,-1],"split_conditions":[1.0055736E3,9.337759E2,6.6570053E0,3.6676865E0,1.0721469E0,1.0263787E3,1.4003523E3,2.7471524E-6,6.07871E2,7.928825E-3,9.816792E-5,-3.2270188E-4,3.0229537E0,-1.0194095E-5,9.675177E1,3.1855702E-4,1.1498984E-4,1.1120835E-4,-8.249961E-5,2.7720082E-5,5.451918E-4],"split_indices":[1,1,0,0,0,1,1,0,0,0,0,0,0,0,0,0,0,0,0,0,0],"sum_hessian":[3.25E2,1.77E2,1.48E2,1.74E2,3E0,2E1,1.28E2,8.5E1,8.9E1,1E0,2E0,1E0,1.9E1,7E1,5.8E1,4.7E1,4.2E1,5E0,1.4E1,5.6E1,2E0],"tree_param":{"num_deleted":"0","num_feature":"4","num_nodes":"21","size_leaf_vector":"0"}},{"base_weights":[2.9799851E-4,5.275375E-4,2.1784204E-5,2.7535055E-4,1.1428831E-2,6.4378432E-6,5.2925217E-4,2.246499E-2,2.617805E-4,7.499655E-4,2.7056626E-4],"default_left":[true,true,false,true,true,false,true,false,false,false,false],"id":30,"leaf_child_counts":[0,0,0,0,0,0,0,0,0,0,0],"left_children":[1,3,-1,5,7,-1,9,-1,-1,-1,-1],"loss_changes":[2.0657542E-5,4.8620417E-4,7.1173497E-7,1.1945134E-5,4.870845E-4,8.2489714E-7,4.935673E-6,0E0,8.305017E-7,0E0,0E0],"parents":[2147483647,0,0,1,1,3,3,4,4,6,6],"right_children":[2,4,-1,6,8,-1,10,-1,-1,-1,-1],"split_conditions":[1.0055736E3,9.337759E2,6.5352615E-6,3.6676865E0,1.0721469E0,1.9313532E-6,6.07871E2,6.7394977E-3,7.853415E-5,2.2498965E-4,8.1169885E-5],"split_indices":[1,1,0,0,0,0,0,0,0,0,0],"sum_hessian":[3.25E2,1.77E2,1.48E2,1.74E2,3E0,8.5E1,8.9E1,1E0,2E0,4.7E1,4.2E1],"tree_param":{"num_deleted":"0","num_feature":"4","num_nodes":"11","size_leaf_vector":"0"}},{"base_weights":[2.3048095E-4,4.0932253E-4,1.5284435E-5,1.9451868E-4,9.70466E-3,4.5336565E-6,3.738986E-4,1.9095182E-2,2.0942464E-4,5.2958727E-4,1.9141131E-4],"default_left":[true,true,false,true,true,false,true,false,false,false,false],"id":31,"leaf_child_counts":[0,0,0,0,0,0,0,0,0,0,0],"left_children":[1,3,-1,5,7,-1,9,-1,-1,-1,-1],"loss_changes":[1.25402075E-5,3.5352024E-4,7.119992E-7,5.9622175E-6,3.5266188E-4,8.243431E-7,2.4556402E-6,0E0,8.4900614E-7,0E0,0E0],"parents":[2147483647,0,0,1,1,3,3,4,4,6,6],"right_children":[2,4,-1,6,8,-1,10,-1,-1,-1,-1],"split_conditions":[1.0055736E3,9.337759E2,4.5853308E-6,3.6676865E0,1.0721469E0,1.360097E-6,6.07871E2,5.728555E-3,6.28274E-5,1.5887618E-4,5.7423396E-5],"split_indices":[1,1,0,0,0,0,0,0,0,0,0],"sum_hessian":[3.25E2,1.77E2,1.48E2,1.74E2,3E0,8.5E1,8.9E1,1E0,2E0,4.7E1,4.2E1],"tree_param":{"num_deleted":"0","num_feature":"4","num_nodes":"11","size_leaf_vector":"0"}},{"base_weights":[1.7989741E-4,4.7896345E-4,9.921735E-5,8.629936E-6,1.6230822E-2,3.7457547E-4,3.610642E-5,-4.9288745E-5,5.203911E-4,-6.626542E-4,4.9370534E-5],"default_left":[true,true,true,true,false,false,true,false,false,false,false],"id":32,"leaf_child_counts":[0,0,0,0,0,0,0,0,0,0,0],"left_children":[1,3,5,7,-1,-1,9,-1,-1,-1,-1],"loss_changes":[7.818423E-6,5.1105523E-4,4.4700273E-6,2.0412058E-6,0E0,0E0,1.9883566E-6,5.018988E-7,0E0,3.8063183E-7,7.653398E-7],"parents":[2147483647,0,0,1,1,2,2,3,3,6,6],"right_children":[2,4,6,8,-1,-1,10,-1,-1,-1,-1],"split_conditions":[1.0202606E0,7.164388E-1,8.664878E2,8.8247253E2,4.869247E-3,1.1237265E-4,1.2560041E0,-1.4786624E-5,1.5611734E-4,-1.9879626E-4,1.481116E-5],"split_indices":[0,0,1,1,0,0,0,0,0,0,0],"sum_hessian":[3.25E2,6.8E1,2.57E2,6.7E1,1E0,4.7E1,2.1E2,6.1E1,6E0,3E0,2.07E2],"tree_param":{"num_deleted":"0","num_feature":"4","num_nodes":"11","size_leaf_vector":"0"}},{"base_weights":[1.4100534E-4,4.078867E-4,6.9083566E-5,8.117654E-6,1.3796091E-2,2.6438633E-4,2.4327086E-5,-3.4739864E-5,3.8655315E-4,-5.135569E-4,3.455405E-5],"default_left":[true,true,true,true,false,false,true,false,false,false,false],"id":33,"leaf_child_counts":[0,0,0,0,0,0,0,0,0,0,0],"left_children":[1,3,5,7,-1,-1,9,-1,-1,-1,-1],"loss_changes":[6.229255E-6,3.691891E-4,2.248763E-6,1.1163075E-6,0E0,0E0,1.1784398E-6,5.060966E-7,0E0,4.6014247E-7,7.6434424E-7],"parents":[2147483647,0,0,1,1,2,2,3,3,6,6],"right_children":[2,4,6,8,-1,-1,10,-1,-1,-1,-1],"split_conditions":[1.0202606E0,7.164388E-1,8.664878E2,8.8247253E2,4.1388273E-3,7.93159E-5,1.2560041E0,-1.042196E-5,1.1596595E-4,-1.5406706E-4,1.0366215E-5],"split_indices":[0,0,1,1,0,0,0,0,0,0,0],"sum_hessian":[3.25E2,6.8E1,2.57E2,6.7E1,1E0,4.7E1,2.1E2,6.1E1,6E0,3E0,2.07E2],"tree_param":{"num_deleted":"0","num_feature":"4","num_nodes":"11","size_leaf_vector":"0"}},{"base_weights":[1.11390415E-4,3.4536095E-4,4.722961E-5,7.2387593E-6,7.894344E-3,1.4435446E-4,-1.0617399E-5,1.1726618E-2,1.1489773E-4,-6.072742E-4,6.3627374E-7],"default_left":[true,true,true,false,true,false,true,false,false,false,false],"id":34,"leaf_child_counts":[0,0,0,0,0,0,0,0,0,0,0],"left_children":[1,3,5,-1,7,-1,9,-1,-1,-1,-1],"loss_changes":[4.877516E-6,1.7861636E-4,1.445457E-6,7.155454E-7,8.809153E-5,1.5572641E-7,1.0881485E-6,0E0,0E0,5.5176997E-8,4.4102623E-7],"parents":[2147483647,0,0,1,1,2,2,4,4,6,6],"right_children":[2,4,6,-1,8,-1,10,-1,-1,-1,-1],"split_conditions":[1.0989628E0,7.164388E-1,9.1086E2,2.1716278E-6,1.0202606E0,4.330634E-5,1.5760081E0,3.5179856E-3,3.446932E-5,-1.8218227E-4,1.9088213E-7],"split_indices":[0,0,1,0,0,0,0,0,0,0,0],"sum_hessian":[3.25E2,6.9E1,2.56E2,6.7E1,2E0,9.5E1,1.61E2,1E0,1E0,2E0,1.59E2],"tree_param":{"num_deleted":"0","num_feature":"4","num_nodes":"11","size_leaf_vector":"0"}},{"base_weights":[8.8419394E-5,2.9253322E-4,3.2480144E-5,5.1009906E-6,6.7101526E-3,9.967566E-3,9.766314E-5],"default_left":[true,true,false,false,true,false,false],"id":35,"leaf_child_counts":[0,0,0,0,0,0,0],"left_children":[1,3,-1,-1,5,-1,-1],"loss_changes":[3.712758E-6,1.2908992E-4,8.139378E-7,7.150257E-7,6.364536E-5,0E0,0E0],"parents":[2147483647,0,0,1,1,4,4],"right_children":[2,4,-1,-1,6,-1,-1],"split_conditions":[1.0989628E0,7.164388E-1,9.744043E-6,1.5302973E-6,1.0202606E0,2.9902698E-3,2.9298944E-5],"split_indices":[0,0,0,0,0,0,0],"sum_hessian":[3.25E2,6.9E1,2.56E2,6.7E1,2E0,1E0,1E0],"tree_param":{"num_deleted":"0","num_feature":"4","num_nodes":"7","size_leaf_vector":"0"}},{"base_weights":[7.124596E-5,2.4793655E-4,2.28429E-5,3.5977264E-6,5.7036374E-3,8.472443E-3,8.301344E-5],"default_left":[true,true,false,false,true,false,false],"id":36,"leaf_child_counts":[0,0,0,0,0,0,0],"left_children":[1,3,-1,-1,5,-1,-1],"loss_changes":[2.7824074E-6,9.329224E-5,8.067715E-7,7.14683E-7,4.5983914E-5,0E0,0E0],"parents":[2147483647,0,0,1,1,4,4],"right_children":[2,4,-1,-1,6,-1,-1],"split_conditions":[1.0989628E0,7.164388E-1,6.8528702E-6,1.0793179E-6,1.0202606E0,2.541733E-3,2.4904033E-5],"split_indices":[0,0,0,0,0,0,0],"sum_hessian":[3.25E2,6.9E1,2.56E2,6.7E1,2E0,1E0,1E0],"tree_param":{"num_deleted":"0","num_feature":"4","num_nodes":"7","size_leaf_vector":"0"}},{"base_weights":[5.7692632E-5,2.1023456E-4,1.591976E-5,2.5287325E-6,4.848155E-3,7.2016716E-3,7.056119E-5],"default_left":[true,true,false,false,true,false,false],"id":37,"leaf_child_counts":[0,0,0,0,0,0,0],"left_children":[1,3,-1,-1,5,-1,-1],"loss_changes":[2.0739624E-6,6.742036E-5,8.0333683E-7,7.14362E-7,3.3224285E-5,0E0,0E0],"parents":[2147483647,0,0,1,1,4,4],"right_children":[2,4,-1,-1,6,-1,-1],"split_conditions":[1.0989628E0,7.164388E-1,4.7759286E-6,7.5861976E-7,1.0202606E0,2.1605017E-3,2.1168358E-5],"split_indices":[0,0,0,0,0,0,0],"sum_hessian":[3.25E2,6.9E1,2.56E2,6.7E1,2E0,1E0,1E0],"tree_param":{"num_deleted":"0","num_feature":"4","num_nodes":"7","size_leaf_vector":"0"}},{"base_weights":[4.6958867E-5,1.1367147E-4,-3.3053228E-5,4.0121024E-5,3.3030855E-3,6.121397E-3,3.2318258E-4],"default_left":[true,true,false,false,true,false,false],"id":38,"leaf_child_counts":[0,0,0,0,0,0,0],"left_children":[1,3,-1,-1,5,-1,-1],"loss_changes":[1.7438848E-6,4.1623218E-5,6.657743E-7,8.759895E-7,3.1614847E-5,0E0,3.5579617E-7],"parents":[2147483647,0,0,1,1,4,4],"right_children":[2,4,-1,-1,6,-1,-1],"split_conditions":[1.0055736E3,9.337759E2,-9.915969E-6,1.2036307E-5,1.0721469E0,1.8364192E-3,9.695478E-5],"split_indices":[1,1,0,0,0,0,0],"sum_hessian":[3.25E2,1.77E2,1.48E2,1.74E2,3E0,1E0,2E0],"tree_param":{"num_deleted":"0","num_feature":"4","num_nodes":"7","size_leaf_vector":"0"}},{"base_weights":[3.884102E-5,9.05678E-5,-2.3214072E-5,2.822249E-5,2.7955333E-3,5.203247E-3,2.5854632E-4],"default_left":[true,true,false,false,true,false,false],"id":39,"leaf_child_counts":[0,0,0,0,0,0,0],"left_children":[1,3,-1,-1,5,-1,-1],"loss_changes":[1.0485332E-6,2.9939363E-5,6.659054E-7,8.7250544E-7,2.3088076E-5,0E0,3.8399676E-7],"parents":[2147483647,0,0,1,1,4,4],"right_children":[2,4,-1,-1,6,-1,-1],"split_conditions":[1.0055736E3,9.337759E2,-6.964222E-6,8.466747E-6,1.0721469E0,1.5609742E-3,7.75639E-5],"split_indices":[1,1,0,0,0,0,0],"sum_hessian":[3.25E2,1.77E2,1.48E2,1.74E2,3E0,1E0,2E0],"tree_param":{"num_deleted":"0","num_feature":"4","num_nodes":"7","size_leaf_vector":"0"}},{"base_weights":[3.2318734E-5],"default_left":[false],"id":40,"leaf_child_counts":[0],"left_children":[-1],"loss_changes":[9.2682933E-7],"parents":[2147483647],"right_children":[-1],"split_conditions":[9.695621E-6],"split_indices":[0],"sum_hessian":[3.25E2],"tree_param":{"num_deleted":"0","num_feature":"4","num_nodes":"1","size_leaf_vector":"0"}},{"base_weights":[2.2700764E-5],"default_left":[false],"id":41,"leaf_child_counts":[0],"left_children":[-1],"loss_changes":[9.2341486E-7],"parents":[2147483647],"right_children":[-1],"split_conditions":[6.8102295E-6],"split_indices":[0],"sum_hessian":[3.25E2],"tree_param":{"num_deleted":"0","num_feature":"4","num_nodes":"1","size_leaf_vector":"0"}},{"base_weights":[1.581684E-5],"default_left":[false],"id":42,"leaf_child_counts":[0],"left_children":[-1],"loss_changes":[9.1990876E-7],"parents":[2147483647],"right_children":[-1],"split_conditions":[4.745052E-6],"split_indices":[0],"sum_hessian":[3.25E2],"tree_param":{"num_deleted":"0","num_feature":"4","num_nodes":"1","size_leaf_vector":"0"}},{"base_weights":[1.1208016E-5],"default_left":[false],"id":43,"leaf_child_counts":[0],"left_children":[-1],"loss_changes":[9.1887597E-7],"parents":[2147483647],"right_children":[-1],"split_conditions":[3.3624049E-6],"split_indices":[0],"sum_hessian":[3.25E2],"tree_param":{"num_deleted":"0","num_feature":"4","num_nodes":"1","size_leaf_vector":"0"}},{"base_weights":[7.739708E-6],"default_left":[false],"id":44,"leaf_child_counts":[0],"left_children":[-1],"loss_changes":[9.1653857E-7],"parents":[2147483647],"right_children":[-1],"split_conditions":[2.3219125E-6],"split_indices":[0],"sum_hessian":[3.25E2],"tree_param":{"num_deleted":"0","num_feature":"4","num_nodes":"1","size_leaf_vector":"0"}},{"base_weights":[5.545466E-6],"default_left":[false],"id":45,"leaf_child_counts":[0],"left_children":[-1],"loss_changes":[9.164892E-7],"parents":[2147483647],"right_children":[-1],"split_conditions":[1.6636399E-6],"split_indices":[0],"sum_hessian":[3.25E2],"tree_param":{"num_deleted":"0","num_feature":"4","num_nodes":"1","size_leaf_vector":"0"}},{"base_weights":[3.819314E-6],"default_left":[false],"id":46,"leaf_child_counts":[0],"left_children":[-1],"loss_changes":[9.1523754E-7],"parents":[2147483647],"right_children":[-1],"split_conditions":[1.1457942E-6],"split_indices":[0],"sum_hessian":[3.25E2],"tree_param":{"num_deleted":"0","num_feature":"4","num_nodes":"1","size_leaf_vector":"0"}},{"base_weights":[2.5835745E-6],"default_left":[false],"id":47,"leaf_child_counts":[0],"left_children":[-1],"loss_changes":[9.1400557E-7],"parents":[2147483647],"right_children":[-1],"split_conditions":[7.750724E-7],"split_indices":[0],"sum_hessian":[3.25E2],"tree_param":{"num_deleted":"0","num_feature":"4","num_nodes":"1","size_leaf_vector":"0"}},{"base_weights":[1.8924532E-6],"default_left":[false],"id":48,"leaf_child_counts":[0],"left_children":[-1],"loss_changes":[9.1430223E-7],"parents":[2147483647],"right_children":[-1],"split_conditions":[5.67736E-7],"split_indices":[0],"sum_hessian":[3.25E2],"tree_param":{"num_deleted":"0","num_feature":"4","num_nodes":"1","size_leaf_vector":"0"}},{"base_weights":[1.3542688E-6],"default_left":[false],"id":49,"leaf_child_counts":[0],"left_children":[-1],"loss_changes":[9.142731E-7],"parents":[2147483647],"right_children":[-1],"split_conditions":[4.0628063E-7],"split_indices":[0],"sum_hessian":[3.25E2],"tree_param":{"num_deleted":"0","num_feature":"4","num_nodes":"1","size_leaf_vector":"0"}},{"base_weights":[1.0649874E-6],"default_left":[false],"id":50,"leaf_child_counts":[0],"left_children":[-1],"loss_changes":[9.1499777E-7],"parents":[2147483647],"right_children":[-1],"split_conditions":[3.1949622E-7],"split_indices":[0],"sum_hessian":[3.25E2],"tree_param":{"num_deleted":"0","num_feature":"4","num_nodes":"1","size_leaf_vector":"0"}},{"base_weights":[8.3048263E-7],"default_left":[false],"id":51,"leaf_child_counts":[0],"left_children":[-1],"loss_changes":[9.155206E-7],"parents":[2147483647],"right_children":[-1],"split_conditions":[2.491448E-7],"split_indices":[0],"sum_hessian":[3.25E2],"tree_param":{"num_deleted":"0","num_feature":"4","num_nodes":"1","size_leaf_vector":"0"}},{"base_weights":[6.529828E-7],"default_left":[false],"id":52,"leaf_child_counts":[0],"left_children":[-1],"loss_changes":[9.159686E-7],"parents":[2147483647],"right_children":[-1],"split_conditions":[1.9589486E-7],"split_indices":[0],"sum_hessian":[3.25E2],"tree_param":{"num_deleted":"0","num_feature":"4","num_nodes":"1","size_leaf_vector":"0"}},{"base_weights":[5.05691E-7],"default_left":[false],"id":53,"leaf_child_counts":[0],"left_children":[-1],"loss_changes":[9.1625543E-7],"parents":[2147483647],"right_children":[-1],"split_conditions":[1.517073E-7],"split_indices":[0],"sum_hessian":[3.25E2],"tree_param":{"num_deleted":"0","num_feature":"4","num_nodes":"1","size_leaf_vector":"0"}},{"base_weights":[3.9700623E-7],"default_left":[false],"id":54,"leaf_child_counts":[0],"left_children":[-1],"loss_changes":[9.1651543E-7],"parents":[2147483647],"right_children":[-1],"split_conditions":[1.1910188E-7],"split_indices":[0],"sum_hessian":[3.25E2],"tree_param":{"num_deleted":"0","num_feature":"4","num_nodes":"1","size_leaf_vector":"0"}},{"base_weights":[3.1253586E-7],"default_left":[false],"id":55,"leaf_child_counts":[0],"left_children":[-1],"loss_changes":[9.1673184E-7],"parents":[2147483647],"right_children":[-1],"split_conditions":[9.376076E-8],"split_indices":[0],"sum_hessian":[3.25E2],"tree_param":{"num_deleted":"0","num_feature":"4","num_nodes":"1","size_leaf_vector":"0"}},{"base_weights":[2.3949846E-7],"default_left":[false],"id":56,"leaf_child_counts":[0],"left_children":[-1],"loss_changes":[9.1684575E-7],"parents":[2147483647],"right_children":[-1],"split_conditions":[7.184954E-8],"split_indices":[0],"sum_hessian":[3.25E2],"tree_param":{"num_deleted":"0","num_feature":"4","num_nodes":"1","size_leaf_vector":"0"}},{"base_weights":[1.8320772E-7],"default_left":[false],"id":57,"leaf_child_counts":[0],"left_children":[-1],"loss_changes":[9.1693994E-7],"parents":[2147483647],"right_children":[-1],"split_conditions":[5.4962317E-8],"split_indices":[0],"sum_hessian":[3.25E2],"tree_param":{"num_deleted":"0","num_feature":"4","num_nodes":"1","size_leaf_vector":"0"}},{"base_weights":[1.5231409E-7],"default_left":[false],"id":58,"leaf_child_counts":[0],"left_children":[-1],"loss_changes":[9.1710945E-7],"parents":[2147483647],"right_children":[-1],"split_conditions":[4.569423E-8],"split_indices":[0],"sum_hessian":[3.25E2],"tree_param":{"num_deleted":"0","num_feature":"4","num_nodes":"1","size_leaf_vector":"0"}},{"base_weights":[1.2428299E-7],"default_left":[false],"id":59,"leaf_child_counts":[0],"left_children":[-1],"loss_changes":[9.1723285E-7],"parents":[2147483647],"right_children":[-1],"split_conditions":[3.72849E-8],"split_indices":[0],"sum_hessian":[3.25E2],"tree_param":{"num_deleted":"0","num_feature":"4","num_nodes":"1","size_leaf_vector":"0"}},{"base_weights":[1.0172557E-7],"default_left":[false],"id":60,"leaf_child_counts":[0],"left_children":[-1],"loss_changes":[9.173306E-7],"parents":[2147483647],"right_children":[-1],"split_conditions":[3.0517672E-8],"split_indices":[0],"sum_hessian":[3.25E2],"tree_param":{"num_deleted":"0","num_feature":"4","num_nodes":"1","size_leaf_vector":"0"}},{"base_weights":[8.169927E-8],"default_left":[false],"id":61,"leaf_child_counts":[0],"left_children":[-1],"loss_changes":[9.1739327E-7],"parents":[2147483647],"right_children":[-1],"split_conditions":[2.4509783E-8],"split_indices":[0],"sum_hessian":[3.25E2],"tree_param":{"num_deleted":"0","num_feature":"4","num_nodes":"1","size_leaf_vector":"0"}},{"base_weights":[7.118047E-8],"default_left":[false],"id":62,"leaf_child_counts":[0],"left_children":[-1],"loss_changes":[9.174893E-7],"parents":[2147483647],"right_children":[-1],"split_conditions":[2.1354143E-8],"split_indices":[0],"sum_hessian":[3.25E2],"tree_param":{"num_deleted":"0","num_feature":"4","num_nodes":"1","size_leaf_vector":"0"}},{"base_weights":[6.230148E-8],"default_left":[false],"id":63,"leaf_child_counts":[0],"left_children":[-1],"loss_changes":[9.175706E-7],"parents":[2147483647],"right_children":[-1],"split_conditions":[1.8690445E-8],"split_indices":[0],"sum_hessian":[3.25E2],"tree_param":{"num_deleted":"0","num_feature":"4","num_nodes":"1","size_leaf_vector":"0"}},{"base_weights":[5.3948146E-8],"default_left":[false],"id":64,"leaf_child_counts":[0],"left_children":[-1],"loss_changes":[9.176424E-7],"parents":[2147483647],"right_children":[-1],"split_conditions":[1.6184444E-8],"split_indices":[0],"sum_hessian":[3.25E2],"tree_param":{"num_deleted":"0","num_feature":"4","num_nodes":"1","size_leaf_vector":"0"}},{"base_weights":[4.5949054E-8],"default_left":[false],"id":65,"leaf_child_counts":[0],"left_children":[-1],"loss_changes":[9.177033E-7],"parents":[2147483647],"right_children":[-1],"split_conditions":[1.37847165E-8],"split_indices":[0],"sum_hessian":[3.25E2],"tree_param":{"num_deleted":"0","num_feature":"4","num_nodes":"1","size_leaf_vector":"0"}},{"base_weights":[4.2155204E-8],"default_left":[false],"id":66,"leaf_child_counts":[0],"left_children":[-1],"loss_changes":[9.177696E-7],"parents":[2147483647],"right_children":[-1],"split_conditions":[1.2646562E-8],"split_indices":[0],"sum_hessian":[3.25E2],"tree_param":{"num_deleted":"0","num_feature":"4","num_nodes":"1","size_leaf_vector":"0"}},{"base_weights":[3.8515616E-8],"default_left":[false],"id":67,"leaf_child_counts":[0],"left_children":[-1],"loss_changes":[9.1783716E-7],"parents":[2147483647],"right_children":[-1],"split_conditions":[1.1554685E-8],"split_indices":[0],"sum_hessian":[3.25E2],"tree_param":{"num_deleted":"0","num_feature":"4","num_nodes":"1","size_leaf_vector":"0"}},{"base_weights":[3.5270272E-8],"default_left":[false],"id":68,"leaf_child_counts":[0],"left_children":[-1],"loss_changes":[9.1789406E-7],"parents":[2147483647],"right_children":[-1],"split_conditions":[1.0581082E-8],"split_indices":[0],"sum_hessian":[3.25E2],"tree_param":{"num_deleted":"0","num_feature":"4","num_nodes":"1","size_leaf_vector":"0"}},{"base_weights":[3.2007787E-8],"default_left":[false],"id":69,"leaf_child_counts":[0],"left_children":[-1],"loss_changes":[9.1795084E-7],"parents":[2147483647],"right_children":[-1],"split_conditions":[9.602337E-9],"split_indices":[0],"sum_hessian":[3.25E2],"tree_param":{"num_deleted":"0","num_feature":"4","num_nodes":"1","size_leaf_vector":"0"}},{"base_weights":[2.8950991E-8],"default_left":[false],"id":70,"leaf_child_counts":[0],"left_children":[-1],"loss_changes":[9.179955E-7],"parents":[2147483647],"right_children":[-1],"split_conditions":[8.685298E-9],"split_indices":[0],"sum_hessian":[3.25E2],"tree_param":{"num_deleted":"0","num_feature":"4","num_nodes":"1","size_leaf_vector":"0"}},{"base_weights":[2.62313E-8],"default_left":[false],"id":71,"leaf_child_counts":[0],"left_children":[-1],"loss_changes":[9.180428E-7],"parents":[2147483647],"right_children":[-1],"split_conditions":[7.8693905E-9],"split_indices":[0],"sum_hessian":[3.25E2],"tree_param":{"num_deleted":"0","num_feature":"4","num_nodes":"1","size_leaf_vector":"0"}},{"base_weights":[2.3877282E-8],"default_left":[false],"id":72,"leaf_child_counts":[0],"left_children":[-1],"loss_changes":[9.180793E-7],"parents":[2147483647],"right_children":[-1],"split_conditions":[7.163185E-9],"split_indices":[0],"sum_hessian":[3.25E2],"tree_param":{"num_deleted":"0","num_feature":"4","num_nodes":"1","size_leaf_vector":"0"}},{"base_weights":[2.2071774E-8],"default_left":[false],"id":73,"leaf_child_counts":[0],"left_children":[-1],"loss_changes":[9.1812007E-7],"parents":[2147483647],"right_children":[-1],"split_conditions":[6.621532E-9],"split_indices":[0],"sum_hessian":[3.25E2],"tree_param":{"num_deleted":"0","num_feature":"4","num_nodes":"1","size_leaf_vector":"0"}},{"base_weights":[2.0271978E-8],"default_left":[false],"id":74,"leaf_child_counts":[0],"left_children":[-1],"loss_changes":[9.181608E-7],"parents":[2147483647],"right_children":[-1],"split_conditions":[6.0815935E-9],"split_indices":[0],"sum_hessian":[3.25E2],"tree_param":{"num_deleted":"0","num_feature":"4","num_nodes":"1","size_leaf_vector":"0"}},{"base_weights":[1.8832143E-8],"default_left":[false],"id":75,"leaf_child_counts":[0],"left_children":[-1],"loss_changes":[9.181907E-7],"parents":[2147483647],"right_children":[-1],"split_conditions":[5.649643E-9],"split_indices":[0],"sum_hessian":[3.25E2],"tree_param":{"num_deleted":"0","num_feature":"4","num_nodes":"1","size_leaf_vector":"0"}},{"base_weights":[1.7398019E-8],"default_left":[false],"id":76,"leaf_child_counts":[0],"left_children":[-1],"loss_changes":[9.182207E-7],"parents":[2147483647],"right_children":[-1],"split_conditions":[5.219406E-9],"split_indices":[0],"sum_hessian":[3.25E2],"tree_param":{"num_deleted":"0","num_feature":"4","num_nodes":"1","size_leaf_vector":"0"}},{"base_weights":[1.612388E-8],"default_left":[false],"id":77,"leaf_child_counts":[0],"left_children":[-1],"loss_changes":[9.182519E-7],"parents":[2147483647],"right_children":[-1],"split_conditions":[4.837164E-9],"split_indices":[0],"sum_hessian":[3.25E2],"tree_param":{"num_deleted":"0","num_feature":"4","num_nodes":"1","size_leaf_vector":"0"}},{"base_weights":[1.4855452E-8],"default_left":[false],"id":78,"leaf_child_counts":[0],"left_children":[-1],"loss_changes":[9.1828315E-7],"parents":[2147483647],"right_children":[-1],"split_conditions":[4.456636E-9],"split_indices":[0],"sum_hessian":[3.25E2],"tree_param":{"num_deleted":"0","num_feature":"4","num_nodes":"1","size_leaf_vector":"0"}},{"base_weights":[1.3935557E-8],"default_left":[false],"id":79,"leaf_child_counts":[0],"left_children":[-1],"loss_changes":[9.1830333E-7],"parents":[2147483647],"right_children":[-1],"split_conditions":[4.1806674E-9],"split_indices":[0],"sum_hessian":[3.25E2],"tree_param":{"num_deleted":"0","num_feature":"4","num_nodes":"1","size_leaf_vector":"0"}},{"base_weights":[1.304423E-8],"default_left":[false],"id":80,"leaf_child_counts":[0],"left_children":[-1],"loss_changes":[9.1832385E-7],"parents":[2147483647],"right_children":[-1],"split_conditions":[3.9132693E-9],"split_indices":[0],"sum_hessian":[3.25E2],"tree_param":{"num_deleted":"0","num_feature":"4","num_nodes":"1","size_leaf_vector":"0"}},{"base_weights":[1.2130048E-8],"default_left":[false],"id":81,"leaf_child_counts":[0],"left_children":[-1],"loss_changes":[9.183441E-7],"parents":[2147483647],"right_children":[-1],"split_conditions":[3.6390146E-9],"split_indices":[0],"sum_hessian":[3.25E2],"tree_param":{"num_deleted":"0","num_feature":"4","num_nodes":"1","size_leaf_vector":"0"}},{"base_weights":[1.1238721E-8],"default_left":[false],"id":82,"leaf_child_counts":[0],"left_children":[-1],"loss_changes":[9.1836455E-7],"parents":[2147483647],"right_children":[-1],"split_conditions":[3.3716165E-9],"split_indices":[0],"sum_hessian":[3.25E2],"tree_param":{"num_deleted":"0","num_feature":"4","num_nodes":"1","size_leaf_vector":"0"}},{"base_weights":[1.03245394E-8],"default_left":[false],"id":83,"leaf_child_counts":[0],"left_children":[-1],"loss_changes":[9.1838484E-7],"parents":[2147483647],"right_children":[-1],"split_conditions":[3.097362E-9],"split_indices":[0],"sum_hessian":[3.25E2],"tree_param":{"num_deleted":"0","num_feature":"4","num_nodes":"1","size_leaf_vector":"0"}},{"base_weights":[9.438926E-9],"default_left":[false],"id":84,"leaf_child_counts":[0],"left_children":[-1],"loss_changes":[9.1840536E-7],"parents":[2147483647],"right_children":[-1],"split_conditions":[2.831678E-9],"split_indices":[0],"sum_hessian":[3.25E2],"tree_param":{"num_deleted":"0","num_feature":"4","num_nodes":"1","size_leaf_vector":"0"}},{"base_weights":[8.530458E-9],"default_left":[false],"id":85,"leaf_child_counts":[0],"left_children":[-1],"loss_changes":[9.184257E-7],"parents":[2147483647],"right_children":[-1],"split_conditions":[2.5591376E-9],"split_indices":[0],"sum_hessian":[3.25E2],"tree_param":{"num_deleted":"0","num_feature":"4","num_nodes":"1","size_leaf_vector":"0"}},{"base_weights":[8.004803E-9],"default_left":[false],"id":86,"leaf_child_counts":[0],"left_children":[-1],"loss_changes":[9.184354E-7],"parents":[2147483647],"right_children":[-1],"split_conditions":[2.401441E-9],"split_indices":[0],"sum_hessian":[3.25E2],"tree_param":{"num_deleted":"0","num_feature":"4","num_nodes":"1","size_leaf_vector":"0"}},{"base_weights":[7.479149E-9],"default_left":[false],"id":87,"leaf_child_counts":[0],"left_children":[-1],"loss_changes":[9.18445E-7],"parents":[2147483647],"right_children":[-1],"split_conditions":[2.2437447E-9],"split_indices":[0],"sum_hessian":[3.25E2],"tree_param":{"num_deleted":"0","num_feature":"4","num_nodes":"1","size_leaf_vector":"0"}},{"base_weights":[6.9477806E-9],"default_left":[false],"id":88,"leaf_child_counts":[0],"left_children":[-1],"loss_changes":[9.184545E-7],"parents":[2147483647],"right_children":[-1],"split_conditions":[2.0843343E-9],"split_indices":[0],"sum_hessian":[3.25E2],"tree_param":{"num_deleted":"0","num_feature":"4","num_nodes":"1","size_leaf_vector":"0"}},{"base_weights":[6.4164127E-9],"default_left":[false],"id":89,"leaf_child_counts":[0],"left_children":[-1],"loss_changes":[9.184641E-7],"parents":[2147483647],"right_children":[-1],"split_conditions":[1.924924E-9],"split_indices":[0],"sum_hessian":[3.25E2],"tree_param":{"num_deleted":"0","num_feature":"4","num_nodes":"1","size_leaf_vector":"0"}},{"base_weights":[5.8964718E-9],"default_left":[false],"id":90,"leaf_child_counts":[0],"left_children":[-1],"loss_changes":[9.1847375E-7],"parents":[2147483647],"right_children":[-1],"split_conditions":[1.7689415E-9],"split_indices":[0],"sum_hessian":[3.25E2],"tree_param":{"num_deleted":"0","num_feature":"4","num_nodes":"1","size_leaf_vector":"0"}},{"base_weights":[5.5250853E-9],"default_left":[false],"id":91,"leaf_child_counts":[0],"left_children":[-1],"loss_changes":[9.1848455E-7],"parents":[2147483647],"right_children":[-1],"split_conditions":[1.6575257E-9],"split_indices":[0],"sum_hessian":[3.25E2],"tree_param":{"num_deleted":"0","num_feature":"4","num_nodes":"1","size_leaf_vector":"0"}},{"base_weights":[5.142272E-9],"default_left":[false],"id":92,"leaf_child_counts":[0],"left_children":[-1],"loss_changes":[9.184953E-7],"parents":[2147483647],"right_children":[-1],"split_conditions":[1.5426816E-9],"split_indices":[0],"sum_hessian":[3.25E2],"tree_param":{"num_deleted":"0","num_feature":"4","num_nodes":"1","size_leaf_vector":"0"}},{"base_weights":[4.759458E-9],"default_left":[false],"id":93,"leaf_child_counts":[0],"left_children":[-1],"loss_changes":[9.1850603E-7],"parents":[2147483647],"right_children":[-1],"split_conditions":[1.4278375E-9],"split_indices":[0],"sum_hessian":[3.25E2],"tree_param":{"num_deleted":"0","num_feature":"4","num_nodes":"1","size_leaf_vector":"0"}},{"base_weights":[4.388072E-9],"default_left":[false],"id":94,"leaf_child_counts":[0],"left_children":[-1],"loss_changes":[9.1851683E-7],"parents":[2147483647],"right_children":[-1],"split_conditions":[1.3164216E-9],"split_indices":[0],"sum_hessian":[3.25E2],"tree_param":{"num_deleted":"0","num_feature":"4","num_nodes":"1","size_leaf_vector":"0"}},{"base_weights":[4.0223993E-9],"default_left":[false],"id":95,"leaf_child_counts":[0],"left_children":[-1],"loss_changes":[9.185277E-7],"parents":[2147483647],"right_children":[-1],"split_conditions":[1.2067198E-9],"split_indices":[0],"sum_hessian":[3.25E2],"tree_param":{"num_deleted":"0","num_feature":"4","num_nodes":"1","size_leaf_vector":"0"}},{"base_weights":[3.6452994E-9],"default_left":[false],"id":96,"leaf_child_counts":[0],"left_children":[-1],"loss_changes":[9.1853843E-7],"parents":[2147483647],"right_children":[-1],"split_conditions":[1.0935899E-9],"split_indices":[0],"sum_hessian":[3.25E2],"tree_param":{"num_deleted":"0","num_feature":"4","num_nodes":"1","size_leaf_vector":"0"}},{"base_weights":[3.2681995E-9],"default_left":[false],"id":97,"leaf_child_counts":[0],"left_children":[-1],"loss_changes":[9.1854923E-7],"parents":[2147483647],"right_children":[-1],"split_conditions":[9.804599E-10],"split_indices":[0],"sum_hessian":[3.25E2],"tree_param":{"num_deleted":"0","num_feature":"4","num_nodes":"1","size_leaf_vector":"0"}},{"base_weights":[2.9025269E-9],"default_left":[false],"id":98,"leaf_child_counts":[0],"left_children":[-1],"loss_changes":[9.185601E-7],"parents":[2147483647],"right_children":[-1],"split_conditions":[8.707581E-10],"split_indices":[0],"sum_hessian":[3.25E2],"tree_param":{"num_deleted":"0","num_feature":"4","num_nodes":"1","size_leaf_vector":"0"}},{"base_weights":[2.8968132E-9],"default_left":[false],"id":99,"leaf_child_counts":[0],"left_children":[-1],"loss_changes":[9.1856003E-7],"parents":[2147483647],"right_children":[-1],"split_conditions":[8.69044E-10],"split_indices":[0],"sum_hessian":[3.25E2],"tree_param":{"num_deleted":"0","num_feature":"4","num_nodes":"1","size_leaf_vector":"0"}}]},"name":"gbtree"},"learner_model_param":{"base_score":"5E-1","num_class":"0","num_feature":"4"},"objective":{"name":"reg:squarederror","reg_loss_param":{"scale_pos_weight":"1"}}},"version":[1,2,0]}