{"learner":{"attributes":{"scikit_learn":"{\"n_estimators\": 100, \"objective\": \"reg:squarederror\", \"max_depth\": null, \"learning_rate\": null, \"verbosity\": null, \"booster\": null, \"tree_method\": null, \"gamma\": null, \"min_child_weight\": null, \"max_delta_step\": null, \"subsample\": null, \"colsample_bytree\": null, \"colsample_bylevel\": null, \"colsample_bynode\": null, \"reg_alpha\": null, \"reg_lambda\": null, \"scale_pos_weight\": null, \"base_score\": null, \"missing\": NaN, \"num_parallel_tree\": null, \"kwargs\": {}, \"random_state\": 42, \"n_jobs\": null, \"monotone_constraints\": null, \"interaction_constraints\": null, \"importance_type\": \"gain\", \"gpu_id\": null, \"validate_parameters\": null, \"n_features_in_\": 1, \"type\": \"XGBRegressor\"}"},"gradient_booster":{"model":{"gbtree_model_param":{"num_trees":"100","size_leaf_vector":"0"},"tree_info":[0,0,0,0,0,0,0,0,0,0,0,0,0,0,0,0,0,0,0,0,0,0,0,0,0,0,0,0,0,0,0,0,0,0,0,0,0,0,0,0,0,0,0,0,0,0,0,0,0,0,0,0,0,0,0,0,0,0,0,0,0,0,0,0,0,0,0,0,0,0,0,0,0,0,0,0,0,0,0,0,0,0,0,0,0,0,0,0,0,0,0,0,0,0,0,0,0,0,0,0],"trees":[{"base_weights":[4.508835E0,1.7718012E0,3.450276E1,4.583496E0,7.995174E-1,5.22075E1,1.9345776E1,3.5616502E-2,2.626442E1,2.984281E-1,3.2491229E0,1.0726956E0,-9.421196E-2,-2.6782596E-1,9.296572E-1,3.3016417E0,6.533333E-2,-4.8439026E-2,-4.4719046E-1,4.7827274E-1,-2.9377124E-1,2.1262257E0,3.4216753E-1,-9.243421E-2,4.6969232E-1,-1.92875E-1,1.701E0,-3.527549E-1,-1.7409709E-1,4.4310936E-1,5.646E0,2.5852874E-1,1.1316667E0],"default_left":[true,true,true,true,true,false,false,true,false,true,true,false,true,true,true,false,false,true,false,true,true,true,true,false,false,false,false,false,false,false,false,false,false],"id":0,"leaf_child_counts":[0,0,0,0,0,0,0,0,0,0,0,0,0,0,0,0,0,0,0,0,0,0,0,0,0,0,0,0,0,0,0,0,0],"left_children":[1,3,5,7,9,-1,-1,11,-1,13,15,-1,17,19,21,-1,-1,23,-1,25,27,29,31,-1,-1,-1,-1,-1,-1,-1,-1,-1,-1],"loss_changes":[8.638425E4,2.6371526E3,2.2604852E4,2.4452416E4,8.8158203E2,0E0,0E0,2.7837393E1,0E0,2.1399576E2,2.0183716E1,0E0,2.951201E0,6.257551E0,1.9821349E2,0E0,0E0,3.7818425E0,0E0,9.355018E0,2.0985851E0,5.484479E2,1.2319689E1,0E0,0E0,0E0,0E0,0E0,0E0,0E0,0E0,0E0,0E0],"parents":[2147483647,0,0,1,1,2,2,3,3,4,4,7,7,9,9,10,10,12,12,13,13,14,14,17,17,19,19,20,20,21,21,22,22],"right_children":[2,4,6,8,10,-1,-1,12,-1,14,16,-1,18,20,22,-1,-1,24,-1,26,28,30,32,-1,-1,-1,-1,-1,-1,-1,-1,-1,-1],"split_conditions":[4.694897E3,1.8932416E0,5.8461455E3,1.6959383E0,7.921697E2,1.56622505E1,5.803733E0,1.3771379E-1,7.8793263E0,1.15237465E2,3.363416E3,3.218087E-1,1.4625938E0,3.3015904E0,1.4651758E2,9.904925E-1,1.96E-2,1.1509012E0,-1.3415715E-1,2.462257E0,7.274704E1,1.4181688E2,5.217855E2,-2.7730266E-2,1.409077E-1,-5.78625E-2,5.1030004E-1,-1.05826475E-1,-5.222913E-2,1.3293281E-1,1.6938001E0,7.755862E-2,3.395E-1],"split_indices":[0,0,0,0,0,0,0,0,0,0,0,0,0,0,0,0,0,0,0,0,0,0,0,0,0,0,0,0,0,0,0,0,0],"sum_hessian":[1.052E3,9.65E2,8.7E1,2.47E2,7.18E2,3.9E1,4.8E1,2.05E2,4.2E1,5.97E2,1.21E2,2.2E1,1.83E2,3.15E2,2.82E2,1.19E2,2E0,1.63E2,2E1,1E1,3.05E2,9.2E1,1.9E2,1.51E2,1.2E1,7E0,3E0,2.03E2,1.02E2,6.3E1,2.9E1,1.73E2,1.7E1],"tree_param":{"num_deleted":"0","num_feature":"1","num_nodes":"33","size_leaf_vector":"0"}},{"base_weights":[3.187708E0,1.2524021E0,2.4395864E1,3.2414317E0,5.6459713E-1,3.6936806E1,1.3660486E1,2.639188E-2,1.8568333E1,2.1314411E-1,2.2826655E0,7.6487863E-1,-6.60624E-2,-1.8654658E-1,6.5868866E-1,2.3194032E0,5.2266676E-2,-3.9116657E-1,-2.1778017E-2,4.579708E-1,-2.047742E-1,1.5080004E0,2.4170081E-1,2.4369287E0,1.9200541E0,2.8020293E-1,-1.3578948E-1,-1.4224532E-1,2.62985E0,-2.8613386E-1,-1.4913437E-1,3.1225365E-1,4.00866E0,-2.2023102E-2,3.97921E-1],"default_left":[true,true,true,true,true,false,false,true,false,true,true,false,true,true,true,true,false,false,true,true,true,true,true,false,false,false,false,false,false,false,false,false,false,false,false],"id":1,"leaf_child_counts":[0,0,0,0,0,0,0,0,0,0,0,0,0,0,0,0,0,0,0,0,0,0,0,0,0,0,0,0,0,0,0,0,0,0,0],"left_children":[1,3,5,7,9,-1,-1,11,-1,13,15,-1,17,19,21,23,-1,-1,25,27,29,31,33,-1,-1,-1,-1,-1,-1,-1,-1,-1,-1,-1,-1],"loss_changes":[4.3189062E4,1.3197201E3,1.134302E4,1.2220105E4,4.3366025E2,0E0,0E0,1.411544E1,0E0,1.06614716E2,9.875427E0,0E0,2.640536E0,3.8061562E0,9.9860725E1,9.530029E-1,0E0,0E0,5.650022E0,1.2106456E1,1.351594E0,2.7683273E2,7.8777714E0,0E0,0E0,0E0,0E0,0E0,0E0,0E0,0E0,0E0,0E0,0E0,0E0],"parents":[2147483647,0,0,1,1,2,2,3,3,4,4,7,7,9,9,10,10,12,12,13,13,14,14,15,15,18,18,19,19,20,20,21,21,22,22],"right_children":[2,4,6,8,10,-1,-1,12,-1,14,16,-1,18,20,22,24,-1,-1,26,28,30,32,34,-1,-1,-1,-1,-1,-1,-1,-1,-1,-1,-1,-1],"split_conditions":[4.694897E3,1.8932416E0,5.8461455E3,1.6959383E0,7.921697E2,1.1081042E1,4.098146E0,1.3771379E-1,5.5705E0,1.15237465E2,3.363416E3,2.2946359E-1,2.981806E-1,2.489828E0,1.4651758E2,1.8161771E3,1.5680004E-2,-1.17349975E-1,5.4023886E-1,2.462257E0,2.6835484E1,1.4181688E2,1.8149492E2,7.310786E-1,5.7601625E-1,8.406088E-2,-4.0736847E-2,-4.26736E-2,7.8895503E-1,-8.584016E-2,-4.474031E-2,9.36761E-2,1.202598E0,-6.606931E-3,1.193763E-1],"split_indices":[0,0,0,0,0,0,0,0,0,0,0,0,0,0,0,0,0,0,0,0,0,0,0,0,0,0,0,0,0,0,0,0,0,0,0],"sum_hessian":[1.052E3,9.65E2,8.7E1,2.47E2,7.18E2,3.9E1,4.8E1,2.05E2,4.2E1,5.97E2,1.21E2,2.2E1,1.83E2,3.15E2,2.82E2,1.19E2,2E0,2.1E1,1.62E2,8E0,3.07E2,9.2E1,1.9E2,8.8E1,3.1E1,4.4E1,1.18E2,7E0,1E0,1.23E2,1.84E2,6.3E1,2.9E1,7.1E1,1.19E2],"tree_param":{"num_deleted":"0","num_feature":"1","num_nodes":"35","size_leaf_vector":"0"}},{"base_weights":[2.2544274E0,8.860743E-1,1.7249596E1,2.2920907E0,3.998738E-1,2.6132788E1,9.645976E0,1.9228877E-2,1.312738E1,1.5258673E-1,1.6087083E0,5.4539174E-1,-4.6645984E-2,-1.2863417E-1,4.66061E-1,1.6344746E0,4.1813333E-2,-2.791507E-1,-1.4978811E-2,4.0349972E-1,-1.437659E-1,1.0695387E0,1.6978098E-1,1.7140645E0,1.3620384E0,1.9801006E-1,-9.539495E-2,-1.0490593E-1,2.2353725E0,-1.9018346E-1,-9.4244435E-2,2.2004126E-1,2.8461485E0,1.1413256E-1,6.9828343E-1],"default_left":[true,true,true,true,true,false,false,true,false,true,true,false,true,true,true,true,false,false,true,true,true,true,true,false,false,false,false,false,false,false,false,false,false,false,false],"id":2,"leaf_child_counts":[0,0,0,0,0,0,0,0,0,0,0,0,0,0,0,0,0,0,0,0,0,0,0,0,0,0,0,0,0,0,0,0,0,0,0],"left_children":[1,3,5,7,9,-1,-1,11,-1,13,15,-1,17,19,21,23,-1,-1,25,27,29,31,33,-1,-1,-1,-1,-1,-1,-1,-1,-1,-1,-1,-1],"loss_changes":[2.1590893E4,6.594467E2,5.691834E3,6.107272E3,2.1468459E2,0E0,0E0,7.1655865E0,0E0,5.277695E1,4.8572083E0,0E0,1.3505677E0,2.6024742E0,5.0418346E1,2.6733398E-1,0E0,0E0,2.810711E0,8.616515E0,6.900654E-1,1.3973169E2,5.5376754E0,0E0,0E0,0E0,0E0,0E0,0E0,0E0,0E0,0E0,0E0,0E0,0E0],"parents":[2147483647,0,0,1,1,2,2,3,3,4,4,7,7,9,9,10,10,12,12,13,13,14,14,15,15,18,18,19,19,20,20,21,21,22,22],"right_children":[2,4,6,8,10,-1,-1,12,-1,14,16,-1,18,20,22,24,-1,-1,26,28,30,32,34,-1,-1,-1,-1,-1,-1,-1,-1,-1,-1,-1,-1],"split_conditions":[4.694897E3,1.8932416E0,5.8461455E3,1.6959383E0,7.921697E2,7.8398366E0,2.8937929E0,1.3771379E-1,3.9382143E0,1.15237465E2,3.363416E3,1.6361752E-1,2.981806E-1,2.489828E0,1.4651758E2,1.8161771E3,1.25440005E-2,-8.374521E-2,5.4023886E-1,2.462257E0,3.5115788E1,1.4181688E2,5.217855E2,5.1421934E-1,4.0861154E-1,5.940302E-2,-2.8618485E-2,-3.147178E-2,6.706118E-1,-5.705504E-2,-2.8273331E-2,6.601238E-2,8.538446E-1,3.423977E-2,2.0948504E-1],"split_indices":[0,0,0,0,0,0,0,0,0,0,0,0,0,0,0,0,0,0,0,0,0,0,0,0,0,0,0,0,0,0,0,0,0,0,0],"sum_hessian":[1.052E3,9.65E2,8.7E1,2.47E2,7.18E2,3.9E1,4.8E1,2.05E2,4.2E1,5.97E2,1.21E2,2.2E1,1.83E2,3.15E2,2.82E2,1.19E2,2E0,2.1E1,1.62E2,8E0,3.07E2,9.2E1,1.9E2,8.8E1,3.1E1,4.4E1,1.18E2,7E0,1E0,1.57E2,1.5E2,6.3E1,2.9E1,1.73E2,1.7E1],"tree_param":{"num_deleted":"0","num_feature":"1","num_nodes":"35","size_leaf_vector":"0"}},{"base_weights":[1.594657E0,6.271895E-1,1.219669E1,1.6207896E0,2.836012E-1,1.8488949E1,6.81124E0,1.399739E-2,9.280753E0,1.0968261E-1,1.1337627E0,3.8888803E-1,-3.2940015E-2,-8.8291354E-2,3.303543E-1,1.1518226E0,3.345068E-2,-1.8567176E-1,9.420056E-3,3.1639802E-1,-1.0255048E-1,7.387059E-1,1.0317472E-1,1.2056229E0,9.6619594E-1,3.459602E-1,-6.701695E-2,-7.736812E-2,1.0248308E0,-1.2514909E-1,-3.4888517E-2,1.5506032E-1,1.7022482E0,-1.1890723E-1,2.2075865E-1],"default_left":[true,true,true,true,true,false,false,true,false,true,true,false,true,true,true,true,false,false,true,true,true,true,true,false,false,false,false,false,false,false,false,false,false,false,false],"id":3,"leaf_child_counts":[0,0,0,0,0,0,0,0,0,0,0,0,0,0,0,0,0,0,0,0,0,0,0,0,0,0,0,0,0,0,0,0,0,0,0],"left_children":[1,3,5,7,9,-1,-1,11,-1,13,15,-1,17,19,21,23,-1,-1,25,27,29,31,33,-1,-1,-1,-1,-1,-1,-1,-1,-1,-1,-1,-1],"loss_changes":[1.07931E4,3.2932257E2,2.8560918E3,3.0522466E3,1.061862E2,0E0,0E0,3.6376672E0,0E0,2.6154144E1,2.3857727E0,0E0,1.192179E0,1.8559299E0,2.617745E1,3.3554077E-2,0E0,0E0,3.753183E0,3.1478143E0,4.6352816E-1,5.653513E1,4.8049774E0,0E0,0E0,0E0,0E0,0E0,0E0,0E0,0E0,0E0,0E0,0E0,0E0],"parents":[2147483647,0,0,1,1,2,2,3,3,4,4,7,7,9,9,10,10,12,12,13,13,14,14,15,15,18,18,19,19,20,20,21,21,22,22],"right_children":[2,4,6,8,10,-1,-1,12,-1,14,16,-1,18,20,22,24,-1,-1,26,28,30,32,34,-1,-1,-1,-1,-1,-1,-1,-1,-1,-1,-1,-1],"split_conditions":[4.694897E3,1.8932416E0,5.8461455E3,1.6959383E0,7.921697E2,5.5466847E0,2.0433722E0,1.3771379E-1,2.784226E0,1.15237465E2,3.363416E3,1.16666414E-1,3.2588434E-1,3.3015904E0,1.4852106E2,1.8161771E3,1.0035205E-2,-5.570153E-2,5.4023886E-1,2.462257E0,8.417426E1,1.4181688E2,1.8149492E2,3.616869E-1,2.898588E-1,1.0378806E-1,-2.0105086E-2,-2.3210436E-2,3.0744925E-1,-3.7544727E-2,-1.0466555E-2,4.65181E-2,5.106745E-1,-3.567217E-2,6.62276E-2],"split_indices":[0,0,0,0,0,0,0,0,0,0,0,0,0,0,0,0,0,0,0,0,0,0,0,0,0,0,0,0,0,0,0,0,0,0,0],"sum_hessian":[1.052E3,9.65E2,8.7E1,2.47E2,7.18E2,3.9E1,4.8E1,2.05E2,4.2E1,5.97E2,1.21E2,2.2E1,1.83E2,3.15E2,2.82E2,1.19E2,2E0,3.9E1,1.44E2,1E1,3.05E2,1E2,1.82E2,8.8E1,3.1E1,2.6E1,1.18E2,7E0,3E0,2.28E2,7.7E1,6.3E1,3.7E1,6.3E1,1.19E2],"tree_param":{"num_deleted":"0","num_feature":"1","num_nodes":"35","size_leaf_vector":"0"}},{"base_weights":[1.1276602E0,4.436025E-1,8.623934E0,1.1463628E0,2.0058696E-1,1.2738206E1,4.4094462E0,1.0500344E-2,6.561277E0,6.6876285E-2,7.5803524E-1,-7.658022E0,4.857753E0,2.7729407E-1,-2.2905938E-2,-6.1056394E-2,2.1860506E-1,4.378883E-1,7.9905665E-1,4.292414E-3,-2.3422135E-1,3.3735687E-1,-7.25001E-2,5.6781316E-1,3.070299E-2,8.1170523E-1,2.6760539E-2,-3.1478133E-2,4.2220247E-1,-5.705899E-2,1.7463418E0,-5.8542705E-1,-6.89224E-2,1.0926909E-1,1.5271134E0,1.11183465E-1,-2.1706739E-1],"default_left":[true,true,true,true,true,false,true,true,false,true,true,false,false,false,true,true,true,false,true,true,false,true,true,true,true,false,false,false,false,false,false,false,false,false,false,false,false],"id":4,"leaf_child_counts":[0,0,0,0,0,0,0,0,0,0,0,0,0,0,0,0,0,0,0,0,0,0,0,0,0,0,0,0,0,0,0,0,0,0,0,0,0],"left_children":[1,3,5,7,9,-1,11,13,-1,15,17,-1,-1,-1,19,21,23,-1,25,27,-1,29,31,33,35,-1,-1,-1,-1,-1,-1,-1,-1,-1,-1,-1,-1],"loss_changes":[5.395836E3,1.6474513E2,1.4697119E3,1.5252793E3,5.3541256E1,0E0,2.8064752E2,1.8423446E0,0E0,1.1291178E1,1.4755707E0,0E0,0E0,0E0,1.0585327E0,1.4652056E0,1.7436666E1,0E0,1.1700363E0,2.4649048E0,0E0,5.1011786E0,5.2486134E-1,4.0742107E1,3.4938126E0,0E0,0E0,0E0,0E0,0E0,0E0,0E0,0E0,0E0,0E0,0E0,0E0],"parents":[2147483647,0,0,1,1,2,2,3,3,4,4,6,6,7,7,9,9,10,10,14,14,15,15,16,16,18,18,19,19,21,21,22,22,23,23,24,24],"right_children":[2,4,6,8,10,-1,12,14,-1,16,18,-1,-1,-1,20,22,24,-1,26,28,-1,30,32,34,36,-1,-1,-1,-1,-1,-1,-1,-1,-1,-1,-1,-1],"split_conditions":[4.694897E3,1.8932416E0,7.0746987E3,1.6959383E0,5.217855E2,3.821462E0,7.4366025E3,1.3771379E-1,1.9683832E0,1.15237465E2,7.921697E2,-2.2974067E0,1.4573259E0,8.318822E-2,1.4625938E0,2.489828E0,1.4651758E2,1.3136649E-1,3.363416E3,1.1509012E0,-7.026641E-2,2.462257E0,2.6782374E0,1.4181688E2,1.8936938E2,2.4351157E-1,8.028162E-3,-9.4434405E-3,1.2666075E-1,-1.7117698E-2,5.239026E-1,-1.7562813E-1,-2.067672E-2,3.278073E-2,4.5813406E-1,3.3355042E-2,-6.512022E-2],"split_indices":[0,0,0,0,0,0,0,0,0,0,0,0,0,0,0,0,0,0,0,0,0,0,0,0,0,0,0,0,0,0,0,0,0,0,0,0,0],"sum_hessian":[1.052E3,9.65E2,8.7E1,2.47E2,7.18E2,4.3E1,4.4E1,2.05E2,4.2E1,5.8E2,1.38E2,1E0,4.3E1,2.2E1,1.83E2,3.15E2,2.65E2,1.7E1,1.21E2,1.63E2,2E1,8E0,3.07E2,9.2E1,1.73E2,1.19E2,2E0,1.51E2,1.2E1,7E0,1E0,1E0,3.06E2,6.3E1,2.9E1,1.31E2,4.2E1],"tree_param":{"num_deleted":"0","num_feature":"1","num_nodes":"37","size_leaf_vector":"0"}},{"base_weights":[7.952809E-1,3.1388718E-1,6.0706334E0,8.1091565E-1,1.4201383E-1,9.355006E0,3.2656217E0,7.98199E-3,4.6386695E0,4.813806E-2,5.333793E-1,1.4898902E0,3.433548E0,1.9772276E-1,-1.5778987E-2,-4.340554E-2,1.53016E-1,3.1381994E-1,5.6140137E-1,4.391596E0,-6.509319E0,6.507425E-3,-1.720668E-1,2.9245922E-1,-5.323847E-2,3.8530082E-1,2.1309527E-2,5.7022285E-1,2.1408439E-2,-4.6870477E-2,2.2481985E-1,-4.208099E-2,1.4843905E0,-3.861106E-2,-1.5422934E-1,7.582561E-2,1.0842503E0,-1.07692376E-1,1.1127872E-1,6.072242E-1,4.4949335E-1],"default_left":[true,true,true,true,true,false,true,true,false,true,true,true,false,false,true,true,true,false,true,false,false,true,false,true,true,true,true,true,false,false,false,false,false,false,false,false,false,false,false,false,false],"id":5,"leaf_child_counts":[0,0,0,0,0,0,0,0,0,0,0,0,0,0,0,0,0,0,0,0,0,0,0,0,0,0,0,0,0,0,0,0,0,0,0,0,0,0,0,0,0],"left_children":[1,3,5,7,9,-1,11,13,-1,15,17,19,-1,-1,21,23,25,-1,27,-1,-1,29,-1,31,33,35,37,39,-1,-1,-1,-1,-1,-1,-1,-1,-1,-1,-1,-1,-1],"loss_changes":[2.6722104E3,8.2406296E1,7.8016797E2,7.621742E2,2.6390194E1,0E0,9.49585E0,9.318556E-1,0E0,5.5847673E0,6.790199E-1,1.678544E2,0E0,0E0,6.420091E-1,1.0426582E0,8.282604E0,0E0,5.68943E-1,0E0,0E0,1.8983331E0,0E0,3.651205E0,4.416473E-1,2.1115927E1,2.0314622E0,2.6311493E-1,0E0,0E0,0E0,0E0,0E0,0E0,0E0,0E0,0E0,0E0,0E0,0E0,0E0],"parents":[2147483647,0,0,1,1,2,2,3,3,4,4,6,6,7,7,9,9,10,10,11,11,14,14,15,15,16,16,18,18,21,21,23,23,24,24,25,25,26,26,27,27],"right_children":[2,4,6,8,10,-1,12,14,-1,16,18,20,-1,-1,22,24,26,-1,28,-1,-1,30,-1,32,34,36,38,40,-1,-1,-1,-1,-1,-1,-1,-1,-1,-1,-1,-1,-1],"split_conditions":[4.694897E3,1.8932416E0,5.8461455E3,1.6959383E0,5.217855E2,2.8065019E0,7.4366025E3,1.3771379E-1,1.3916008E0,1.06784225E2,7.921697E2,7.0746987E3,1.0300645E0,5.9316833E-2,1.2154217E0,2.489828E0,1.4651758E2,9.414599E-2,3.363416E3,1.3174788E0,-1.9527957E0,9.489506E-1,-5.162004E-2,2.462257E0,9.31828E1,1.4181688E2,1.8149492E2,1.8161771E3,6.422532E-3,-1.4061144E-2,6.7445956E-2,-1.2624298E-2,4.4531718E-1,-1.1583318E-2,-4.6268806E-2,2.2747684E-2,3.2527512E-1,-3.2307714E-2,3.338362E-2,1.8216728E-1,1.3484801E-1],"split_indices":[0,0,0,0,0,0,0,0,0,0,0,0,0,0,0,0,0,0,0,0,0,0,0,0,0,0,0,0,0,0,0,0,0,0,0,0,0,0,0,0,0],"sum_hessian":[1.052E3,9.65E2,8.7E1,2.47E2,7.18E2,3.9E1,4.8E1,2.05E2,4.2E1,5.8E2,1.38E2,5E0,4.3E1,2.2E1,1.83E2,3.1E2,2.7E2,1.7E1,1.21E2,4E0,1E0,1.61E2,2.2E1,8E0,3.02E2,9.7E1,1.73E2,1.19E2,2E0,1.3E2,3.1E1,7E0,1E0,2.65E2,3.7E1,6.8E1,2.9E1,7.1E1,1.02E2,8.8E1,3.1E1],"tree_param":{"num_deleted":"0","num_feature":"1","num_nodes":"41","size_leaf_vector":"0"}},{"base_weights":[5.622003E-1,2.224065E-1,4.285821E0,5.734984E-1,1.0099733E-1,6.6186657E0,2.2939918E0,5.8839074E-3,3.2794309E0,3.494267E-2,3.7636968E-1,9.3703747E-1,2.4268947E0,6.7754254E-2,-5.786384E-2,-2.811504E-2,1.0972197E-1,2.2490427E-1,3.9563203E-1,3.3376133E0,-5.532921E0,-1.7664181E-2,1.8657671E-1,-3.0032957E-1,3.342822E-2,2.5279844E-1,-3.6232267E-2,1.6601342E-1,-1.8606883E-1,4.017977E-1,1.712676E-2,1.4098488E-1,-1.08445786E-1,2.686502E-1,5.3101093E-2,1.0054739E-1,-1.2269111E-1,-3.1034736E-2,1.2617319E0,-4.918213E-1,-3.314624E-2,2.8590828E-1,8.0284365E-2,-4.4791973E-1,6.1102357E-2,4.595004E-1,3.524885E-1],"default_left":[true,true,true,true,true,false,true,true,false,true,true,true,false,true,true,true,true,false,true,false,false,true,true,false,true,true,true,true,true,true,false,false,false,false,false,false,false,false,false,false,false,false,false,false,false,false,false],"id":6,"leaf_child_counts":[0,0,0,0,0,0,0,0,0,0,0,0,0,0,0,0,0,0,0,0,0,0,0,0,0,0,0,0,0,0,0,0,0,0,0,0,0,0,0,0,0,0,0,0,0,0,0],"left_children":[1,3,5,7,9,-1,11,13,-1,15,17,19,-1,21,23,25,27,-1,29,-1,-1,31,33,-1,35,37,39,41,43,45,-1,-1,-1,-1,-1,-1,-1,-1,-1,-1,-1,-1,-1,-1,-1,-1,-1],"loss_changes":[1.3313689E3,4.1118587E1,3.937202E2,3.8089047E2,1.3065187E1,0E0,6.562744E0,8.1640404E-1,0E0,2.7427392E0,3.1656456E-1,1.116565E2,0E0,1.0690067E0,2.2678292E0,7.2971493E-1,4.459921E0,0E0,2.7783394E-1,0E0,0E0,9.08239E-1,4.6774602E-1,0E0,7.9823124E-1,2.6164765E0,4.1673365E-1,2.2794237E0,2.8104143E0,1.7946434E-1,0E0,0E0,0E0,0E0,0E0,0E0,0E0,0E0,0E0,0E0,0E0,0E0,0E0,0E0,0E0,0E0,0E0],"parents":[2147483647,0,0,1,1,2,2,3,3,4,4,6,6,7,7,9,9,10,10,11,11,13,13,14,14,15,15,16,16,18,18,21,21,22,22,24,24,25,25,26,26,27,27,28,28,29,29],"right_children":[2,4,6,8,10,-1,12,14,-1,16,18,20,-1,22,24,26,28,-1,30,-1,-1,32,34,-1,36,38,40,42,44,46,-1,-1,-1,-1,-1,-1,-1,-1,-1,-1,-1,-1,-1,-1,-1,-1,-1],"split_conditions":[4.694897E3,1.8932416E0,5.8461455E3,1.6959383E0,5.217855E2,1.9855998E0,7.4366025E3,6.9095874E-1,9.838293E-1,1.15237465E2,7.921697E2,7.0746987E3,7.280684E-1,3.2588434E-1,8.180206E-1,2.489828E0,1.8936938E2,6.747128E-2,3.363416E3,1.001284E0,-1.6598763E0,1.3771379E-1,5.4023886E-1,-9.009887E-2,1.2154217E0,2.462257E0,2.6782374E0,1.4651758E2,2.2715201E2,1.0817059E3,5.138028E-3,4.2295463E-2,-3.253374E-2,8.059506E-2,1.5930329E-2,3.0164218E-2,-3.6807336E-2,-9.3104215E-3,3.7851956E-1,-1.475464E-1,-9.943873E-3,8.5772485E-2,2.4085311E-2,-1.3437593E-1,1.8330708E-2,1.3785012E-1,1.0574655E-1],"split_indices":[0,0,0,0,0,0,0,0,0,0,0,0,0,0,0,0,0,0,0,0,0,0,0,0,0,0,0,0,0,0,0,0,0,0,0,0,0,0,0,0,0,0,0,0,0,0,0],"sum_hessian":[1.052E3,9.65E2,8.7E1,2.47E2,7.18E2,3.9E1,4.8E1,2.05E2,4.2E1,5.8E2,1.38E2,5E0,4.3E1,1.04E2,1.01E2,3.15E2,2.65E2,1.7E1,1.21E2,4E0,1E0,6.1E1,4.3E1,2.7E1,7.4E1,8E0,3.07E2,2.23E2,4.2E1,1.19E2,2E0,2.2E1,3.9E1,2.6E1,1.7E1,5.2E1,2.2E1,7E0,1E0,1E0,3.06E2,9.2E1,1.31E2,2E1,2.2E1,5.1E1,6.8E1],"tree_param":{"num_deleted":"0","num_feature":"1","num_nodes":"47","size_leaf_vector":"0"}},{"base_weights":[3.969307E-1,1.57253E-1,3.0234275E0,4.004474E-1,6.946816E-2,4.545254E0,1.4682318E0,4.165072E-3,1.9932653E0,-2.6625076E-2,1.7381163E-1,4.682707E0,2.5365863E0,-4.7029824E0,1.7153727E0,4.8440237E-2,-4.1453138E-2,2.3184812E0,2.1798214E-1,-1.4491475E-2,-1.6921817E-1,6.8690455E-1,1.2391868E-1,-1.2207467E-2,1.3279745E-1,-2.1344851E-1,2.331118E-2,-2.2888115E-2,1.0724721E0,-4.5087434E-2,4.818249E-2,-6.382345E-1,-1.9116761E-2,9.917511E-3,2.657337E-1,1.0052836E-1,-7.672538E-2,1.9104014E-1,3.8055785E-2,2.1595176E-1,-1.6810069E-2,-1.1336464E-1,6.2320507E-3,-4.1804808E-1,-4.164827E-2,1.6630459E-1,-6.953119E-3,-9.958417E-2,8.636609E-2,1.611814E-1,2.789813E-1],"default_left":[true,true,true,true,true,true,true,true,true,true,true,false,false,false,false,true,true,false,true,true,true,false,true,true,true,false,true,true,false,true,true,false,false,true,true,false,false,false,false,false,false,false,false,false,false,false,false,false,false,false,false],"id":7,"leaf_child_counts":[0,0,0,0,0,0,0,0,0,0,0,0,0,0,0,0,0,0,0,0,0,0,0,0,0,0,0,0,0,0,0,0,0,0,0,0,0,0,0,0,0,0,0,0,0,0,0,0,0,0,0],"left_children":[1,3,5,7,9,11,13,15,17,19,21,-1,-1,-1,-1,23,25,-1,27,29,31,-1,33,35,37,-1,39,41,-1,43,45,-1,-1,47,49,-1,-1,-1,-1,-1,-1,-1,-1,-1,-1,-1,-1,-1,-1,-1,-1],"loss_changes":[6.624015E2,2.0595106E1,2.0159949E2,1.615803E2,7.1336117E0,2.7008057E-1,7.6699524E1,4.1807726E-1,2.8939484E1,6.3943994E-1,8.644383E0,0E0,0E0,0E0,0E0,5.388086E-1,1.1411705E0,0E0,1.8769379E0,6.5989906E-1,2.0293994E0,0E0,5.0414915E0,4.586689E-1,2.3552221E-1,0E0,5.833037E-1,2.1784026E-2,0E0,2.7888682E-1,7.3709524E-1,0E0,0E0,1.4651976E0,1.4755821E-1,0E0,0E0,0E0,0E0,0E0,0E0,0E0,0E0,0E0,0E0,0E0,0E0,0E0,0E0,0E0,0E0],"parents":[2147483647,0,0,1,1,2,2,3,3,4,4,5,5,6,6,7,7,8,8,9,9,10,10,15,15,16,16,18,18,19,19,20,20,22,22,23,23,24,24,26,26,27,27,29,29,30,30,33,33,34,34],"right_children":[2,4,6,8,10,12,14,16,18,20,22,-1,-1,-1,-1,24,26,-1,28,30,32,-1,34,36,38,-1,40,42,-1,44,46,-1,-1,48,50,-1,-1,-1,-1,-1,-1,-1,-1,-1,-1,-1,-1,-1,-1,-1,-1],"split_conditions":[4.694897E3,2.489828E0,7.0746987E3,1.6959383E0,1.4181688E2,5.8461455E3,7.4366025E3,6.9095874E-1,1.8932416E0,1.19494705E2,1.4651758E2,1.4048121E0,7.609759E-1,-1.4108948E0,5.1461184E-1,3.2588434E-1,8.180206E-1,6.9554436E-1,2.462257E0,8.417426E1,1.3360759E2,2.0607138E-1,5.217855E2,1.3771379E-1,5.4023886E-1,-6.403456E-2,9.0035784E-1,2.2435308E0,3.2174164E-1,2.6782374E0,9.31828E1,-1.9147035E-1,-5.7350285E-3,1.8149492E2,7.921697E2,3.0158509E-2,-2.3017615E-2,5.7312045E-2,1.1416736E-2,6.478553E-2,-5.043021E-3,-3.4009393E-2,1.8696153E-3,-1.2541443E-1,-1.2494481E-2,4.989138E-2,-2.0859358E-3,-2.9875252E-2,2.5909828E-2,4.8354425E-2,8.369439E-2],"split_indices":[0,0,0,0,0,0,0,0,0,0,0,0,0,0,0,0,0,0,0,0,0,0,0,0,0,0,0,0,0,0,0,0,0,0,0,0,0,0,0,0,0,0,0,0,0,0,0,0,0,0,0],"sum_hessian":[1.052E3,9.65E2,8.7E1,2.55E2,7.1E2,4.3E1,4.4E1,2.05E2,5E1,3.7E2,3.4E2,3.9E1,4E0,1E0,4.3E1,1.04E2,1.01E2,4.2E1,8E0,3.42E2,2.8E1,2.9E1,3.11E2,6.1E1,4.3E1,2.7E1,7.4E1,7E0,1E0,2.3E2,1.12E2,6E0,2.2E1,1.73E2,1.38E2,2.2E1,3.9E1,2.6E1,1.7E1,1.2E1,6.2E1,1E0,6E0,1E0,2.29E2,3.5E1,7.7E1,7.1E1,1.02E2,1.7E1,1.21E2],"tree_param":{"num_deleted":"0","num_feature":"1","num_nodes":"51","size_leaf_vector":"0"}},{"base_weights":[2.8010505E-1,1.1121946E-1,2.1308253E0,2.8444085E-1,4.8693582E-2,3.2309005E0,1.0078444E0,3.2630085E-3,1.4146014E0,-1.9411977E-2,1.2264804E-1,-3.9975352E0,1.2124561E0,3.4630723E-2,-2.9059276E-2,1.6391113E0,1.8476549E-1,-1.0406733E-2,-1.252529E-1,4.877022E-1,8.715358E-2,3.914789E-3,1.4396949E-1,-1.0994924E-1,4.4879008E-2,-2.0039154E-2,9.116013E-1,-5.5186298E-2,1.48799615E-2,-4.7411704E-1,-1.3631077E-2,6.9194683E-3,1.8696351E-1,2.7994214E-2,-3.097702E-1,4.7006312E-1,2.7273316E-2,-5.5441983E-2,-3.169833E-1,3.6096996E-1,-3.5163708E-2,-9.635994E-2,4.6295202E-3,-3.5534087E-1,-4.9857065E-2,-2.685984E-4,8.10229E-2,6.0673617E-2,-1.5825419E-1,2.0550367E-1,1.2366294E-1],"default_left":[true,true,true,true,true,false,true,true,true,true,true,false,false,true,true,false,true,true,true,false,true,true,true,true,true,true,false,true,true,false,false,true,true,false,false,false,false,false,false,false,false,false,false,false,false,false,false,false,false,false,false],"id":8,"leaf_child_counts":[0,0,0,0,0,0,0,0,0,0,0,0,0,0,0,0,0,0,0,0,0,0,0,0,0,0,0,0,0,0,0,0,0,0,0,0,0,0,0,0,0,0,0,0,0,0,0,0,0,0,0],"left_children":[1,3,5,7,9,-1,11,13,15,17,19,-1,-1,21,23,-1,25,27,29,-1,31,33,35,37,39,41,-1,43,45,-1,-1,47,49,-1,-1,-1,-1,-1,-1,-1,-1,-1,-1,-1,-1,-1,-1,-1,-1,-1,-1],"loss_changes":[3.2888864E2,1.044872E1,1.0545572E2,8.134607E1,3.5834813E0,0E0,5.0933994E1,2.0986483E-1,1.377877E1,3.5230523E-1,4.3759685E0,0E0,0E0,3.5207286E-1,6.149826E-1,0E0,1.358002E0,3.892094E-1,1.1228219E0,0E0,2.4972527E0,6.3560015E-1,8.624191E-1,5.3538394E-1,1.3789351E0,1.5507961E-2,0E0,1.8063328E-1,2.2045526E-1,0E0,0E0,1.5545076E0,1.3771725E-1,0E0,0E0,0E0,0E0,0E0,0E0,0E0,0E0,0E0,0E0,0E0,0E0,0E0,0E0,0E0,0E0,0E0,0E0],"parents":[2147483647,0,0,1,1,2,2,3,3,4,4,6,6,7,7,8,8,9,9,10,10,13,13,14,14,16,16,17,17,18,18,20,20,21,21,22,22,23,23,24,24,25,25,27,27,28,28,31,31,32,32],"right_children":[2,4,6,8,10,-1,12,14,16,18,20,-1,-1,22,24,-1,26,28,30,-1,32,34,36,38,40,42,-1,44,46,-1,-1,48,50,-1,-1,-1,-1,-1,-1,-1,-1,-1,-1,-1,-1,-1,-1,-1,-1,-1,-1],"split_conditions":[4.694897E3,2.489828E0,7.0746987E3,1.6959383E0,1.4181688E2,9.6927017E-1,7.4366025E3,6.9095874E-1,1.8932416E0,1.19494705E2,1.4651758E2,-1.1992606E0,3.6373684E-1,4.4507366E-1,9.489506E-1,4.917334E-1,2.462257E0,2.6835484E1,1.3360759E2,1.4631066E-1,5.217855E2,3.8507906E-1,5.4023886E-1,9.0035784E-1,1.0223107E0,2.2435308E0,2.7348042E-1,2.6782374E0,1.06784225E2,-1.4223512E-1,-4.0893233E-3,1.8936938E2,1.8161771E3,8.398265E-3,-9.293106E-2,1.4101894E-1,8.181995E-3,-1.6632596E-2,-9.5095E-2,1.0829099E-1,-1.0549113E-2,-2.8907983E-2,1.3888561E-3,-1.0660227E-1,-1.495712E-2,-8.057953E-5,2.4306873E-2,1.8202085E-2,-4.7476258E-2,6.1651103E-2,3.7098885E-2],"split_indices":[0,0,0,0,0,0,0,0,0,0,0,0,0,0,0,0,0,0,0,0,0,0,0,0,0,0,0,0,0,0,0,0,0,0,0,0,0,0,0,0,0,0,0,0,0,0,0,0,0,0,0],"sum_hessian":[1.052E3,9.65E2,8.7E1,2.55E2,7.1E2,4.3E1,4.4E1,2.05E2,5E1,3.7E2,3.4E2,1E0,4.3E1,1.04E2,1.01E2,4.2E1,8E0,3.42E2,2.8E1,2.9E1,3.11E2,8.2E1,2.2E1,4.8E1,5.3E1,7E0,1E0,1.23E2,2.19E2,6E0,2.2E1,1.73E2,1.38E2,7.7E1,5E0,5E0,1.7E1,3.9E1,9E0,1E1,4.3E1,1E0,6E0,1E0,1.22E2,1.79E2,4E1,1.31E2,4.2E1,1.05E2,3.3E1],"tree_param":{"num_deleted":"0","num_feature":"1","num_nodes":"51","size_leaf_vector":"0"}},{"base_weights":[1.9692281E-1,7.864089E-2,1.4930979E0,2.0186393E-1,3.369E-2,2.3679779E0,7.4843895E-1,2.5301443E-3,9.728242E-1,-3.323839E-3,1.0558129E-1,-1.723113E-1,8.5698587E-1,1.1903895E-2,-7.256987E-2,1.1588135E0,1.5733689E-1,9.062788E-3,-1.672521E-1,2.5115803E-1,7.359444E-2,1.1523883E0,-3.3979049E0,-8.059898E-3,3.2661262E-1,-1.7467292E-2,4.67611E-1,-1.519152E-2,1.3863927E-1,-1.3132192E-1,1.22775465E-1,9.906752E-3,-2.5143525E-1,-8.1905946E-2,3.4390795E-3,7.748611E-1,1.06907286E-1,-8.553407E-3,-9.272272E-2,3.4626842E-1,-2.0548569E-2,6.1363827E-2,-2.9940322E-1,4.22056E-1,1.1246223E-1],"default_left":[true,true,true,true,true,false,true,true,true,true,true,true,false,true,false,false,true,true,false,false,true,false,false,true,false,true,true,true,true,true,true,false,false,false,false,false,false,false,false,false,false,false,false,false,false],"id":9,"leaf_child_counts":[0,0,0,0,0,0,0,0,0,0,0,0,0,0,0,0,0,0,0,0,0,0,0,0,0,0,0,0,0,0,0,0,0,0,0,0,0,0,0,0,0,0,0,0,0],"left_children":[1,3,5,7,9,-1,11,13,15,17,19,21,-1,23,-1,-1,25,27,-1,-1,29,-1,-1,31,-1,33,35,37,39,41,43,-1,-1,-1,-1,-1,-1,-1,-1,-1,-1,-1,-1,-1,-1],"loss_changes":[1.6132231E2,5.3438587E0,5.555858E1,3.9646576E1,1.8869805E0,0E0,5.0449524E0,1.4588144E-1,7.856285E0,9.538288E-1,1.1037426E0,2.9553364E1,0E0,1.158664E0,0E0,0E0,6.047772E-1,1.3755045E0,0E0,0E0,2.0216446E0,0E0,0E0,7.6333016E-1,0E0,1.1059108E-2,3.6046672E-1,1.8911673E-1,2.2877057E0,1.2814606E0,4.4946933E-1,0E0,0E0,0E0,0E0,0E0,0E0,0E0,0E0,0E0,0E0,0E0,0E0,0E0,0E0],"parents":[2147483647,0,0,1,1,2,2,3,3,4,4,6,6,7,7,8,8,9,9,10,10,11,11,13,13,16,16,17,17,20,20,23,23,25,25,26,26,27,27,28,28,29,29,30,30],"right_children":[2,4,6,8,10,-1,12,14,16,18,20,22,-1,24,-1,-1,26,28,-1,-1,30,-1,-1,32,-1,34,36,38,40,42,44,-1,-1,-1,-1,-1,-1,-1,-1,-1,-1,-1,-1,-1,-1],"split_conditions":[4.694897E3,3.3015904E0,5.8461455E3,1.6959383E0,1.8149492E2,7.1039337E-1,7.4366025E3,1.2154217E0,1.8932416E0,1.7213618E2,1.8494298E2,7.0746987E3,2.5709578E-1,1.1509012E0,-2.1770962E-2,3.4764406E-1,2.462257E0,1.4181688E2,-5.017563E-2,7.534741E-2,2.2715201E2,3.457165E-1,-1.0193715E0,1.0223107E0,9.798379E-2,2.2435308E0,2.489828E0,1.19494705E2,1.4651758E2,1.8936938E2,2.9524634E2,2.9720257E-3,-7.543058E-2,-2.4571786E-2,1.0317239E-3,2.3245834E-1,3.2072186E-2,-2.5660223E-3,-2.7816817E-2,1.0388053E-1,-6.164571E-3,1.840915E-2,-8.9820966E-2,1.266168E-1,3.373867E-2],"split_indices":[0,0,0,0,0,0,0,0,0,0,0,0,0,0,0,0,0,0,0,0,0,0,0,0,0,0,0,0,0,0,0,0,0,0,0,0,0,0,0,0,0,0,0,0,0],"sum_hessian":[1.052E3,9.65E2,8.7E1,2.57E2,7.08E2,3.9E1,4.8E1,2.05E2,5.2E1,4.68E2,2.4E2,5E0,4.3E1,1.83E2,2.2E1,4.2E1,1E1,4.36E2,3.2E1,4.2E1,1.98E2,4E0,1E0,1.73E2,1E1,7E0,3E0,3.68E2,6.8E1,3.8E1,1.6E2,1.62E2,1.1E1,1E0,6E0,1E0,2E0,3.4E2,2.8E1,2.9E1,3.9E1,1.8E1,2E1,4E0,1.56E2],"tree_param":{"num_deleted":"0","num_feature":"1","num_nodes":"45","size_leaf_vector":"0"}},{"base_weights":[1.3885996E-1,5.5849675E-2,1.0485085E0,1.436007E-1,2.3838935E-2,1.6225661E0,4.6390754E-1,1.789328E-3,6.9208264E-1,6.335103E-3,1.0800627E-1,1.6753458E0,8.758152E-1,-2.888219E0,6.057336E-1,-1.1272594E-2,3.8764972E-2,8.192534E-1,1.3204406E-1,-4.0343963E-2,1.851607E-2,1.4866118E-1,7.670963E-2,4.277913E-3,-2.3407264E-1,2.598218E-1,-1.738026E-2,-1.5169611E-2,3.934604E-1,-1.9727405E-2,-5.8119603E-2,3.0190345E-2,-6.1177608E-2,-5.7899344E-1,9.434815E-2,-1.1953434E-2,1.6875944E-1,-3.151278E-1,2.8872699E-2,-6.962004E-2,2.5547424E-3,6.5863204E-1,8.552583E-2,-4.2174295E-2,2.8567487E-2,-6.0165126E-2,-1.1884071E-2,1.1057198E-2,1.3884845E-1,-3.4691218E-1,-3.9516627E-3,1.01063676E-1,-8.931991E-2],"default_left":[true,true,true,true,true,true,true,true,true,true,true,false,false,false,false,true,true,false,true,true,true,false,true,true,false,false,true,true,true,true,true,true,true,false,true,false,false,false,false,false,false,false,false,false,false,false,false,false,false,false,false,false,false],"id":10,"leaf_child_counts":[0,0,0,0,0,0,0,0,0,0,0,0,0,0,0,0,0,0,0,0,0,0,0,0,0,0,0,0,0,0,0,0,0,0,0,0,0,0,0,0,0,0,0,0,0,0,0,0,0,0,0,0,0],"left_children":[1,3,5,7,9,11,13,15,17,19,21,-1,-1,-1,-1,23,25,-1,27,29,31,-1,33,35,-1,-1,37,39,41,43,45,47,49,-1,51,-1,-1,-1,-1,-1,-1,-1,-1,-1,-1,-1,-1,-1,-1,-1,-1,-1,-1],"loss_changes":[7.945365E1,2.7100472E0,2.877961E1,2.0066254E1,1.0438507E0,2.6689148E-1,2.3143337E1,9.9929415E-2,3.6665096E0,3.3508152E-1,1.4382446E-1,0E0,0E0,0E0,0E0,5.310934E-1,6.747253E-1,0E0,4.292933E-1,4.3563098E-2,4.3632787E-1,0E0,8.757869E-1,3.8646224E-1,0E0,0E0,6.150535E-1,7.898651E-3,2.7029198E-1,6.408088E-2,5.432412E-3,8.4668505E-1,9.7971493E-1,0E0,9.5366955E-2,0E0,0E0,0E0,0E0,0E0,0E0,0E0,0E0,0E0,0E0,0E0,0E0,0E0,0E0,0E0,0E0,0E0,0E0],"parents":[2147483647,0,0,1,1,2,2,3,3,4,4,5,5,6,6,7,7,8,8,9,9,10,10,15,15,16,16,18,18,19,19,20,20,22,22,23,23,26,26,27,27,28,28,29,29,30,30,31,31,32,32,34,34],"right_children":[2,4,6,8,10,12,14,16,18,20,22,-1,-1,-1,-1,24,26,-1,28,30,32,-1,34,36,-1,-1,38,40,42,44,46,48,50,-1,52,-1,-1,-1,-1,-1,-1,-1,-1,-1,-1,-1,-1,-1,-1,-1,-1,-1,-1],"split_conditions":[4.694897E3,3.3015904E0,7.0746987E3,1.6959383E0,7.921697E2,5.8461455E3,7.4366025E3,9.489506E-1,1.8932416E0,2.6835484E1,1.0817059E3,5.0260377E-1,2.6274458E-1,-8.6646575E-1,1.8172008E-1,9.0035784E-1,1.0223107E0,2.4577603E-1,2.462257E0,4.7423897E0,1.8936938E2,4.4598356E-2,1.3493938E3,8.180206E-1,-7.02218E-2,7.794654E-2,1.105345E0,2.2435308E0,2.489828E0,4.2878733E0,2.384575E1,1.8149492E2,2.1923315E2,-1.7369804E-1,3.363416E3,-3.5860303E-3,5.062783E-2,-9.453834E-2,8.66181E-3,-2.0886013E-2,7.664228E-4,1.9758962E-1,2.565775E-2,-1.2652289E-2,8.570246E-3,-1.8049538E-2,-3.5652213E-3,3.3171596E-3,4.165454E-2,-1.0407366E-1,-1.1854989E-3,3.0319104E-2,-2.6795974E-2],"split_indices":[0,0,0,0,0,0,0,0,0,0,0,0,0,0,0,0,0,0,0,0,0,0,0,0,0,0,0,0,0,0,0,0,0,0,0,0,0,0,0,0,0,0,0,0,0,0,0,0,0,0,0,0,0],"sum_hessian":[1.052E3,9.65E2,8.7E1,2.57E2,7.08E2,4.3E1,4.4E1,2.05E2,5.2E1,5.87E2,1.21E2,3.9E1,4E0,1E0,4.3E1,1.52E2,5.3E1,4.2E1,1E1,1.21E2,4.66E2,5.1E1,7E1,1.43E2,9E0,1E1,4.3E1,7E0,3E0,5.7E1,6.4E1,4.07E2,5.9E1,1E0,6.9E1,1.31E2,1.2E1,5E0,3.8E1,1E0,6E0,1E0,2E0,3.9E1,1.8E1,6.1E1,3E0,3.47E2,6E1,9E0,5E1,6.7E1,2E0],"tree_param":{"num_deleted":"0","num_feature":"1","num_nodes":"53","size_leaf_vector":"0"}},{"base_weights":[9.7474284E-2,3.9308287E-2,7.348706E-1,1.0213999E-1,1.6388843E-2,1.1531888E0,3.0951792E-1,1.1015134E-3,4.9292842E-1,4.2883293E-3,7.4575014E-2,-2.4549863E0,4.281427E-1,2.5465565E-2,-2.3989927E-2,5.791939E-1,1.1089702E-1,-1.802737E-2,1.8471682E-2,9.120846E-2,2.8841145E-2,-1.6088763E-2,8.344063E-2,-1.3507026E-1,1.7799929E-2,-1.31336795E-2,3.3123416E-1,-2.885908E-2,-6.25259E-3,1.1714714E-1,7.484642E-3,1.0492049E-1,7.00444E-2,3.734271E-2,-7.145592E-2,6.423528E-2,-6.187287E-2,1.5186265E-1,3.891866E-2,5.123963E-2,-6.0030684E-2,-5.9177037E-2,1.8978055E-3,5.5983734E-1,6.842065E-2,-1.3879563E-2,-4.2406708E-2,6.2142856E-2,-1.4397518E-2,-9.8117806E-2,2.139231E-2,-4.9214447E-1,9.853989E-2],"default_left":[true,true,true,true,true,false,true,true,true,true,true,false,false,true,true,false,true,true,true,true,true,true,true,false,true,true,true,true,true,false,true,false,true,false,false,false,false,false,false,false,false,false,false,false,false,false,false,false,false,false,false,false,false],"id":11,"leaf_child_counts":[0,0,0,0,0,0,0,0,0,0,0,0,0,0,0,0,0,0,0,0,0,0,0,0,0,0,0,0,0,0,0,0,0,0,0,0,0,0,0,0,0,0,0,0,0,0,0,0,0,0,0,0,0],"left_children":[1,3,5,7,9,-1,11,13,15,17,19,-1,-1,21,23,-1,25,27,29,31,33,35,37,-1,39,41,43,45,47,-1,49,-1,51,-1,-1,-1,-1,-1,-1,-1,-1,-1,-1,-1,-1,-1,-1,-1,-1,-1,-1,-1,-1],"loss_changes":[3.901087E1,1.3894316E0,1.5301151E1,1.0186501E1,4.9887466E-1,0E0,1.5808329E1,1.2654471E-1,1.6824436E0,1.8644175E-1,9.0176284E-2,0E0,0E0,2.5429952E-1,4.758914E-1,0E0,3.0496454E-1,2.9026449E-2,3.8941762E-1,1.847887E-2,3.165954E-2,2.3198341E-1,1.281262E-1,0E0,1.9827338E-1,5.6491066E-3,2.0201561E-1,2.3560911E-2,6.273013E-2,0E0,4.7942123E-1,0E0,6.5725017E-1,0E0,0E0,0E0,0E0,0E0,0E0,0E0,0E0,0E0,0E0,0E0,0E0,0E0,0E0,0E0,0E0,0E0,0E0,0E0,0E0],"parents":[2147483647,0,0,1,1,2,2,3,3,4,4,6,6,7,7,8,8,9,9,10,10,13,13,14,14,16,16,17,17,18,18,19,19,20,20,21,21,22,22,24,24,25,25,26,26,27,27,28,28,30,30,32,32],"right_children":[2,4,6,8,10,-1,12,14,16,18,20,-1,-1,22,24,-1,26,28,30,32,34,36,38,-1,40,42,44,46,48,-1,50,-1,52,-1,-1,-1,-1,-1,-1,-1,-1,-1,-1,-1,-1,-1,-1,-1,-1,-1,-1,-1,-1],"split_conditions":[4.694897E3,3.3015904E0,7.0746987E3,1.6959383E0,7.921697E2,3.4595665E-1,7.4366025E3,6.9095874E-1,1.8932416E0,8.417426E1,1.8161771E3,-7.364959E-1,1.2844281E-1,3.2588434E-1,8.180206E-1,1.7375818E-1,2.462257E0,2.384575E1,9.31828E1,1.0817059E3,3.363416E3,1.3771379E-1,3.8507906E-1,-4.052108E-2,1.2154217E0,2.2435308E0,2.489828E0,4.7423897E0,3.0621353E1,3.5144143E-2,1.06784225E2,3.1476147E-2,1.3493938E3,1.1202813E-2,-2.1436777E-2,1.9270584E-2,-1.8561862E-2,4.5558795E-2,1.1675598E-2,1.5371889E-2,-1.8009206E-2,-1.7753111E-2,5.6934165E-4,1.6795121E-1,2.0526195E-2,-4.163869E-3,-1.2722013E-2,1.8642858E-2,-4.3192557E-3,-2.9435342E-2,6.417693E-3,-1.4764334E-1,2.9561969E-2],"split_indices":[0,0,0,0,0,0,0,0,0,0,0,0,0,0,0,0,0,0,0,0,0,0,0,0,0,0,0,0,0,0,0,0,0,0,0,0,0,0,0,0,0,0,0,0,0,0,0,0,0,0,0,0,0],"sum_hessian":[1.052E3,9.65E2,8.7E1,2.57E2,7.08E2,4.3E1,4.4E1,2.05E2,5.2E1,5.87E2,1.21E2,1E0,4.3E1,1.04E2,1.01E2,4.2E1,1E1,2.28E2,3.59E2,8.8E1,3.3E1,6.1E1,4.3E1,2.7E1,7.4E1,7E0,3E0,1.18E2,1.1E2,3.5E1,3.24E2,5.1E1,3.7E1,3.1E1,2E0,2.2E1,3.9E1,1.6E1,2.7E1,5.2E1,2.2E1,1E0,6E0,1E0,2E0,5.7E1,6.1E1,1.1E1,9.9E1,3.7E1,2.87E2,1E0,3.6E1],"tree_param":{"num_deleted":"0","num_feature":"1","num_nodes":"53","size_leaf_vector":"0"}},{"base_weights":[6.824203E-2,2.7797967E-2,5.1143205E-1,7.289281E-2,1.1349073E-2,8.4799963E-1,2.2624564E-1,8.4283395E-4,3.5156074E-1,-7.220117E-3,3.140972E-2,-3.715346E-1,3.026192E-1,-6.9795228E-3,4.2062446E-2,4.094772E-1,9.320007E-2,-1.4121969E-3,-7.5264275E-2,2.3644008E-1,1.15945935E-2,3.8885385E-1,-2.0867383E0,4.4258875E-3,-1.6132139E-1,2.1568763E-1,-4.2804487E-2,1.7865557E-2,4.232726E-1,-8.011455E-3,5.472072E-2,-3.367024E-1,7.576214E-3,-7.2033346E-2,3.6530763E-2,-7.865593E-3,1.7498684E-1,-2.4915574E-1,-6.298888E-2,9.5665686E-2,-3.411678E-1,3.594765E-4,-5.9218764E-2,-2.402963E-2,-1.2803684E-1,1.3060857E-1,1.601882E-2],"default_left":[true,true,true,true,true,false,true,true,true,true,true,true,false,true,true,false,true,true,true,false,true,false,false,true,true,false,false,true,false,true,false,false,false,true,true,false,false,false,false,false,false,false,false,false,false,false,false],"id":12,"leaf_child_counts":[0,0,0,0,0,0,0,0,0,0,0,0,0,0,0,0,0,0,0,0,0,0,0,0,0,0,0,0,0,0,0,0,0,0,0,0,0,0,0,0,0,0,0,0,0,0,0],"left_children":[1,3,5,7,9,-1,11,13,15,17,19,21,-1,23,25,-1,27,29,31,-1,33,-1,-1,35,37,-1,-1,39,-1,41,-1,-1,-1,43,45,-1,-1,-1,-1,-1,-1,-1,-1,-1,-1,-1,-1],"loss_changes":[1.8860184E1,7.1571314E-1,8.254778E0,5.1798325E0,2.6433638E-1,0E0,2.3495083E0,6.6715084E-2,7.548928E-1,1.4572068E-1,1.3826401E0,8.636763E0,0E0,3.0701178E-1,4.954886E-1,0E0,2.659624E-1,1.2675692E-1,6.3062316E-1,0E0,6.5326387E-1,0E0,0E0,3.4309715E-1,8.794966E-2,0E0,0E0,3.1196648E-1,0E0,1.3118906E-1,0E0,0E0,0E0,1.9048634E-1,4.6297E-1,0E0,0E0,0E0,0E0,0E0,0E0,0E0,0E0,0E0,0E0,0E0,0E0],"parents":[2147483647,0,0,1,1,2,2,3,3,4,4,6,6,7,7,8,8,9,9,10,10,11,11,13,13,14,14,16,16,17,17,18,18,20,20,23,23,24,24,27,27,29,29,33,33,34,34],"right_children":[2,4,6,8,10,-1,12,14,16,18,20,22,-1,24,26,-1,28,30,32,-1,34,-1,-1,36,38,-1,-1,40,-1,42,-1,-1,-1,44,46,-1,-1,-1,-1,-1,-1,-1,-1,-1,-1,-1,-1],"split_conditions":[4.694897E3,3.3015904E0,5.8461455E3,1.6959383E0,1.4181688E2,2.543999E-1,7.4366025E3,1.1509012E0,1.8932416E0,1.19494705E2,1.4651758E2,7.0746987E3,9.078576E-2,1.0223107E0,1.2154217E0,1.2284317E-1,2.6782374E0,1.15237465E2,1.3360759E2,7.093202E-2,1.8149492E2,1.1665616E-1,-6.260215E-1,9.489506E-1,1.105345E0,6.4706296E-2,-1.2841347E-2,2.489828E0,1.269818E-1,9.31828E1,1.6416216E-2,-1.01010725E-1,2.2728643E-3,1.7213618E2,1.8494298E2,-2.359678E-3,5.2496053E-2,-7.474673E-2,-1.8896664E-2,2.8699707E-2,-1.0235035E-1,1.0784295E-4,-1.776563E-2,-7.208889E-3,-3.8411055E-2,3.9182574E-2,4.8056464E-3],"split_indices":[0,0,0,0,0,0,0,0,0,0,0,0,0,0,0,0,0,0,0,0,0,0,0,0,0,0,0,0,0,0,0,0,0,0,0,0,0,0,0,0,0,0,0,0,0,0,0],"sum_hessian":[1.052E3,9.65E2,8.7E1,2.57E2,7.08E2,3.9E1,4.8E1,2.05E2,5.2E1,3.68E2,3.4E2,5E0,4.3E1,1.73E2,3.2E1,4.2E1,1E1,3.4E2,2.8E1,2.9E1,3.11E2,4E0,1E0,1.62E2,1.1E1,1E1,2.2E1,9E0,1E0,3.05E2,3.5E1,6E0,2.2E1,7.1E1,2.4E2,1.52E2,1E1,5E0,6E0,8E0,1E0,2.63E2,4.2E1,3.9E1,3.2E1,4.2E1,1.98E2],"tree_param":{"num_deleted":"0","num_feature":"1","num_nodes":"47","size_leaf_vector":"0"}},{"base_weights":[4.775969E-2,1.961788E-2,3.5613728E-1,5.1740266E-2,7.901102E-3,5.79002E-1,1.3031092E-1,6.3055154E-4,2.494169E-1,-1.5051756E-4,4.664251E-2,5.9996104E-1,2.9552954E-1,-1.7737275E0,2.1389651E-1,2.0714944E-2,-2.0050742E-2,2.8949127E-1,7.0088334E-2,6.1406284E-3,-5.561495E-2,6.9336385E-2,2.9364705E-2,-1.212035E-3,9.894209E-2,-9.372096E-2,7.720149E-3,-3.6453784E-2,2.6565048E-1,-1.2896731E-3,6.316802E-2,-2.633469E-1,-1.3792703E-2,-4.2072558E-1,4.1804932E-2,1.7139437E-2,-2.3957917E-1,3.4529582E-1,1.1327401E-2,1.1001481E-1,-1.3510815E-2,-6.465034E-2,-2.3189943E-2,4.6151185E-1,4.6526074E-2,5.4718633E-3,-9.078973E-2,9.233725E-2,-6.1711953E-3,-9.4361894E-2,1.0722873E-2,6.5101184E-2,1.5223573E-2],"default_left":[true,true,true,true,true,true,true,true,true,true,true,false,false,false,false,true,true,false,true,true,true,false,true,true,true,false,true,true,true,true,true,false,true,false,true,false,false,false,false,false,false,false,false,false,false,false,false,false,false,false,false,false,false],"id":13,"leaf_child_counts":[0,0,0,0,0,0,0,0,0,0,0,0,0,0,0,0,0,0,0,0,0,0,0,0,0,0,0,0,0,0,0,0,0,0,0,0,0,0,0,0,0,0,0,0,0,0,0,0,0,0,0,0,0],"left_children":[1,3,5,7,9,11,13,15,17,19,21,-1,-1,-1,-1,23,25,-1,27,29,31,-1,33,35,37,-1,39,41,43,45,47,-1,49,-1,51,-1,-1,-1,-1,-1,-1,-1,-1,-1,-1,-1,-1,-1,-1,-1,-1,-1,-1],"loss_changes":[9.131267E0,3.631654E-1,4.3534784E0,2.6064675E0,2.2116616E-1,8.411121E-2,7.541152E0,8.598182E-2,3.6059332E-1,2.0551519E-1,4.580021E-2,0E0,0E0,0E0,0E0,1.8022487E-1,2.0940408E-1,0E0,2.3887563E-1,2.2423501E-1,5.176367E-1,0E0,4.1513342E-1,3.6718047E-1,4.925254E-1,0E0,1.6437246E-1,1.4927201E-3,1.5019968E-1,2.8431582E-1,1.2394673E-1,0E0,1.0174704E-1,0E0,4.2356156E-2,0E0,0E0,0E0,0E0,0E0,0E0,0E0,0E0,0E0,0E0,0E0,0E0,0E0,0E0,0E0,0E0,0E0,0E0],"parents":[2147483647,0,0,1,1,2,2,3,3,4,4,5,5,6,6,7,7,8,8,9,9,10,10,15,15,16,16,18,18,19,19,20,20,22,22,23,23,24,24,26,26,27,27,28,28,29,29,30,30,32,32,34,34],"right_children":[2,4,6,8,10,12,14,16,18,20,22,-1,-1,-1,-1,24,26,-1,28,30,32,-1,34,36,38,-1,40,42,44,46,48,-1,50,-1,52,-1,-1,-1,-1,-1,-1,-1,-1,-1,-1,-1,-1,-1,-1,-1,-1,-1,-1],"split_conditions":[4.694897E3,3.3015904E0,7.0746987E3,1.6959383E0,7.921697E2,5.8461455E3,7.4366025E3,6.9095874E-1,1.8932416E0,1.8936938E2,1.0817059E3,1.7998832E-1,8.865887E-2,-5.3211826E-1,6.416896E-2,4.4507366E-1,8.180206E-1,8.684738E-2,2.462257E0,1.8149492E2,2.1923315E2,2.0800916E-2,1.3493938E3,3.8507906E-1,5.4023886E-1,-2.8116288E-2,9.0035784E-1,2.2435308E0,2.489828E0,1.7213618E2,1.8494298E2,-7.900408E-2,2.2715201E2,-1.2621768E-1,1.8161771E3,5.141831E-3,-7.1873754E-2,1.0358875E-1,3.3982203E-3,3.3004444E-2,-4.053245E-3,-1.9395104E-2,-6.9569834E-3,1.3845356E-1,1.3957823E-2,1.6415591E-3,-2.723692E-2,2.7701177E-2,-1.8513587E-3,-2.8308569E-2,3.216862E-3,1.9530356E-2,4.5670723E-3],"split_indices":[0,0,0,0,0,0,0,0,0,0,0,0,0,0,0,0,0,0,0,0,0,0,0,0,0,0,0,0,0,0,0,0,0,0,0,0,0,0,0,0,0,0,0,0,0,0,0,0,0,0,0,0,0],"sum_hessian":[1.052E3,9.65E2,8.7E1,2.57E2,7.08E2,4.3E1,4.4E1,2.05E2,5.2E1,5.87E2,1.21E2,3.9E1,4E0,1E0,4.3E1,1.04E2,1.01E2,4.2E1,1E1,5.28E2,5.9E1,5.1E1,7E1,8.2E1,2.2E1,2.7E1,7.4E1,7E0,3E0,4.68E2,6E1,9E0,5E1,1E0,6.9E1,7.7E1,5E0,5E0,1.7E1,1.2E1,6.2E1,1E0,6E0,1E0,2E0,4.36E2,3.2E1,4.2E1,1.8E1,1.1E1,3.9E1,3.6E1,3.3E1],"tree_param":{"num_deleted":"0","num_feature":"1","num_nodes":"53","size_leaf_vector":"0"}},{"base_weights":[3.3307873E-2,1.3803773E-2,2.4703118E-1,3.720267E-2,5.269613E-3,4.114067E-1,8.0818884E-2,6.408454E-4,1.7860895E-1,-1.4372111E-2,1.4609915E-2,4.244721E-1,2.2460213E-1,-1.5076684E0,1.5118605E-1,4.3141328E-2,-4.675198E-3,2.046636E-1,6.0521778E-2,-1.2339456E-2,-5.765331E-2,8.127839E-2,9.195846E-3,-4.6487644E-2,6.891513E-3,-3.9866054E-3,3.528028E-1,-1.5729625E-2,2.9068425E-2,-1.348074E-1,-3.4102038E-2,-5.3757336E-2,1.5022313E-2,-6.294794E-2,-2.4981637E-2,8.459015E-2,-1.0795503E-2,6.156411E-2,-2.9697153E-1,-1.0225303E-2,-7.976634E-2,4.9260285E-2,4.219929E-3],"default_left":[true,true,true,true,true,true,true,true,true,true,true,false,false,false,false,false,true,false,true,true,true,false,true,true,true,true,false,true,false,false,false,false,true,false,false,false,false,false,false,false,false,false,false],"id":14,"leaf_child_counts":[0,0,0,0,0,0,0,0,0,0,0,0,0,0,0,0,0,0,0,0,0,0,0,0,0,0,0,0,0,0,0,0,0,0,0,0,0,0,0,0,0,0,0],"left_children":[1,3,5,7,9,11,13,15,17,19,21,-1,-1,-1,-1,-1,23,-1,25,27,29,-1,31,33,35,37,-1,39,-1,-1,-1,-1,41,-1,-1,-1,-1,-1,-1,-1,-1,-1,-1],"loss_changes":[4.386E0,1.9270444E-1,2.371019E0,1.3337641E0,1.3028285E-1,1.2052536E-2,5.2579193E0,4.6744183E-2,1.5067959E-1,1.943504E-2,1.7286843E-1,0E0,0E0,0E0,0E0,0E0,8.930874E-2,0E0,2.0880684E-1,3.1340774E-2,1.3573565E-2,0E0,1.6439797E-1,1.2587264E-2,2.0018046E-1,2.103365E-1,0E0,7.109003E-2,0E0,0E0,0E0,0E0,1.5106148E-1,0E0,0E0,0E0,0E0,0E0,0E0,0E0,0E0,0E0,0E0],"parents":[2147483647,0,0,1,1,2,2,3,3,4,4,5,5,6,6,7,7,8,8,9,9,10,10,16,16,18,18,19,19,20,20,22,22,23,23,24,24,25,25,27,27,32,32],"right_children":[2,4,6,8,10,12,14,16,18,20,22,-1,-1,-1,-1,-1,24,-1,26,28,30,-1,32,34,36,38,-1,40,-1,-1,-1,-1,42,-1,-1,-1,-1,-1,-1,-1,-1,-1,-1],"split_conditions":[4.694897E3,3.3015904E0,7.0746987E3,1.6959383E0,8.417426E1,5.8461455E3,7.4366025E3,1.3771379E-1,1.8932416E0,7.643015E1,9.31828E1,1.2734163E-1,6.7380644E-2,-4.5230052E-1,4.5355815E-2,1.2942399E-2,3.2588434E-1,6.1399084E-2,2.6782374E0,7.274704E1,8.146624E1,2.4383519E-2,1.06784225E2,2.981806E-1,5.4023886E-1,2.489828E0,1.0584085E-1,6.715033E1,8.720528E-3,-4.044222E-2,-1.0230612E-2,-1.61272E-2,1.4651758E2,-1.8884381E-2,-7.494491E-3,2.5377046E-2,-3.238651E-3,1.8469233E-2,-8.9091465E-2,-3.067591E-3,-2.3929903E-2,1.4778086E-2,1.2659788E-3],"split_indices":[0,0,0,0,0,0,0,0,0,0,0,0,0,0,0,0,0,0,0,0,0,0,0,0,0,0,0,0,0,0,0,0,0,0,0,0,0,0,0,0,0,0,0],"sum_hessian":[1.052E3,9.65E2,8.7E1,2.57E2,7.08E2,4.3E1,4.4E1,2.05E2,5.2E1,2.28E2,4.8E2,3.9E1,4E0,1E0,4.3E1,2.2E1,1.83E2,4.2E1,1E1,2.19E2,9E0,3.5E1,4.45E2,3.9E1,1.44E2,9E0,1E0,2.03E2,1.6E1,1E0,8E0,3.7E1,4.08E2,2.1E1,1.8E1,2.6E1,1.18E2,8E0,1E0,1.88E2,1.5E1,9.7E1,3.11E2],"tree_param":{"num_deleted":"0","num_feature":"1","num_nodes":"43","size_leaf_vector":"0"}},{"base_weights":[2.3171492E-2,9.725426E-3,1.7050931E-1,2.645003E-2,3.625746E-3,2.924093E-1,4.752911E-2,4.9083476E-4,1.2684898E-1,-2.0036018E-3,3.0727636E-2,-1.2815181E0,1.0686014E-1,-6.6421614E-3,3.8086306E-2,1.446921E-1,4.5566928E-2,2.5264642E-3,-4.1910287E-2,3.2846194E-2,-6.425723E-2,1.3054968E-3,-1.1404434E-1,1.6349271E-1,-2.3546599E-2,-4.497224E-2,2.1525353E-1,-7.89225E-3,2.6389688E-2,-1.933826E-1,-1.1388064E-2,4.7693945E-2,2.1180553E-2,-8.23541E-3,1.3389215E-1,-1.8079022E-1,-4.0541545E-2,-4.4557948E-2,-1.942371E-2,3.8305044E-1,3.1637747E-2,-2.4219588E-3,-7.194318E-2,1.5199997E-1,-2.3580242E-3,4.442847E-2,-3.587908E-2,-3.5824978E-1,3.202879E-2],"default_left":[true,true,true,true,true,false,true,true,true,true,true,false,false,true,true,false,true,true,true,true,false,true,true,false,true,false,true,true,true,false,true,false,true,false,false,false,false,false,false,false,false,false,false,false,false,false,false,false,false],"id":15,"leaf_child_counts":[0,0,0,0,0,0,0,0,0,0,0,0,0,0,0,0,0,0,0,0,0,0,0,0,0,0,0,0,0,0,0,0,0,0,0,0,0,0,0,0,0,0,0,0,0,0,0,0,0],"left_children":[1,3,5,7,9,-1,11,13,15,17,19,-1,-1,21,23,-1,25,27,29,31,-1,33,35,-1,37,-1,39,41,43,-1,45,-1,47,-1,-1,-1,-1,-1,-1,-1,-1,-1,-1,-1,-1,-1,-1,-1,-1],"loss_changes":[2.0844545E0,9.845035E-2,1.305335E0,6.7235696E-1,1.0823084E-1,0E0,3.6853616E0,5.5495657E-2,7.0273995E-2,1.06404476E-1,2.6660785E-2,0E0,0E0,1.4867456E-1,2.5891203E-1,0E0,1.7867656E-1,1.3173042E-1,2.7519405E-1,1.977484E-2,0E0,2.0729716E-1,5.154258E-2,0E0,1.1269506E-3,0E0,1.1112179E-1,1.2911496E-1,5.817308E-1,0E0,7.1311235E-2,0E0,2.9548872E-1,0E0,0E0,0E0,0E0,0E0,0E0,0E0,0E0,0E0,0E0,0E0,0E0,0E0,0E0,0E0,0E0],"parents":[2147483647,0,0,1,1,2,2,3,3,4,4,6,6,7,7,8,8,9,9,10,10,13,13,14,14,16,16,17,17,18,18,19,19,21,21,22,22,24,24,26,26,27,27,28,28,30,30,32,32],"right_children":[2,4,6,8,10,-1,12,14,16,18,20,-1,-1,22,24,-1,26,28,30,32,-1,34,36,-1,38,-1,40,42,44,-1,46,-1,48,-1,-1,-1,-1,-1,-1,-1,-1,-1,-1,-1,-1,-1,-1,-1,-1],"split_conditions":[4.694897E3,3.3015904E0,7.0746987E3,1.6959383E0,7.921697E2,8.772279E-2,7.4366025E3,1.1509012E0,1.8932416E0,1.8936938E2,3.363416E3,-3.8445544E-1,3.205804E-2,1.0223107E0,1.2154217E0,4.340763E-2,2.462257E0,1.4181688E2,2.1923315E2,1.0817059E3,-1.9277168E-2,9.489506E-1,1.105345E0,4.9047817E-2,1.4625938E0,-1.3491672E-2,2.489828E0,1.19494705E2,1.4651758E2,-5.8014784E-2,2.9524634E2,1.4308184E-2,1.3493938E3,-2.470623E-3,4.0167645E-2,-5.4237068E-2,-1.2162464E-2,-1.3367385E-2,-5.827113E-3,1.1491514E-1,9.491324E-3,-7.2658766E-4,-2.1582954E-2,4.559999E-2,-7.074073E-4,1.3328542E-2,-1.0763724E-2,-1.0747494E-1,9.608638E-3],"split_indices":[0,0,0,0,0,0,0,0,0,0,0,0,0,0,0,0,0,0,0,0,0,0,0,0,0,0,0,0,0,0,0,0,0,0,0,0,0,0,0,0,0,0,0,0,0,0,0,0,0],"sum_hessian":[1.052E3,9.65E2,8.7E1,2.57E2,7.08E2,4.3E1,4.4E1,2.05E2,5.2E1,5.87E2,1.21E2,1E0,4.3E1,1.73E2,3.2E1,4.2E1,1E1,5.28E2,5.9E1,1.19E2,2E0,1.62E2,1.1E1,1E1,2.2E1,7E0,3E0,3.68E2,1.6E2,9E0,5E1,5.1E1,6.8E1,1.52E2,1E1,5E0,6E0,2E0,2E1,1E0,2E0,3.4E2,2.8E1,2.9E1,1.31E2,1.5E1,3.5E1,1E0,6.7E1],"tree_param":{"num_deleted":"0","num_feature":"1","num_nodes":"49","size_leaf_vector":"0"}},{"base_weights":[1.5987432E-2,6.828256E-3,1.1634852E-1,1.9117642E-2,2.3466055E-3,2.0668021E-1,2.543868E-2,3.4916727E-4,9.17061E-2,-5.666789E-3,1.4429196E-2,2.1478334E-1,1.0051918E-1,-1.0892904E0,7.553003E-2,1.39213335E-2,-1.3625603E-2,8.2118265E-2,2.9513675E-1,2.6049956E-3,-1.5806124E-1,2.5732693E-1,4.5892526E-3,-2.6595204E-3,7.315131E-2,-4.7882117E-2,1.7711338E-2,9.381358E-2,-2.5717145E-1,-5.585039E-3,8.206599E-2,-4.0490526E-1,-9.7775064E-2,-6.491981E-2,1.4088048E-2,1.2460235E-2,-1.9877309E-1,2.3988318E-1,1.351006E-2,-1.5206159E-2,-1.7379774E-1,9.7376116E-2,-2.6073859E-3,8.2666144E-2,3.2559276E-1,-1.6975071E-3,-5.1104464E-2,1.0792006E-1,-1.3232682E-2,6.4734705E-2,3.0735044E-3],"default_left":[true,true,true,true,true,true,true,true,true,true,true,false,false,false,false,true,true,true,false,true,true,false,true,true,true,true,true,true,false,true,true,false,false,false,true,false,false,false,false,false,false,false,false,false,false,false,false,false,false,false,false],"id":16,"leaf_child_counts":[0,0,0,0,0,0,0,0,0,0,0,0,0,0,0,0,0,0,0,0,0,0,0,0,0,0,0,0,0,0,0,0,0,0,0,0,0,0,0,0,0,0,0,0,0,0,0,0,0,0,0],"left_children":[1,3,5,7,9,11,13,15,17,19,21,-1,-1,-1,-1,23,25,27,-1,29,31,-1,33,35,37,39,41,43,-1,45,47,-1,-1,-1,49,-1,-1,-1,-1,-1,-1,-1,-1,-1,-1,-1,-1,-1,-1,-1,-1],"loss_changes":[9.6714926E-1,5.315926E-2,7.1740174E-1,3.5146067E-1,6.872897E-2,1.6260624E-2,2.594997E0,3.9261274E-2,7.913825E-2,5.3867686E-1,6.7521733E-1,0E0,0E0,0E0,0E0,1.0331333E-1,1.10344484E-1,2.3046741E-1,0E0,2.6467842E-1,2.8779858E-1,0E0,1.8116347E-1,2.4858746E-1,2.254734E-1,1.9896348E-1,8.766297E-2,1.0485548E-1,0E0,6.521084E-2,9.5054686E-2,0E0,0E0,0E0,1.3424285E-1,0E0,0E0,0E0,0E0,0E0,0E0,0E0,0E0,0E0,0E0,0E0,0E0,0E0,0E0,0E0,0E0],"parents":[2147483647,0,0,1,1,2,2,3,3,4,4,5,5,6,6,7,7,8,8,9,9,10,10,15,15,16,16,17,17,19,19,20,20,22,22,23,23,24,24,25,25,26,26,27,27,29,29,30,30,34,34],"right_children":[2,4,6,8,10,12,14,16,18,20,22,-1,-1,-1,-1,24,26,28,-1,30,32,-1,34,36,38,40,42,44,-1,46,48,-1,-1,-1,50,-1,-1,-1,-1,-1,-1,-1,-1,-1,-1,-1,-1,-1,-1,-1,-1],"split_conditions":[4.694897E3,3.3015904E0,7.0746987E3,1.6959383E0,1.574982E2,5.8461455E3,7.4366025E3,6.9095874E-1,2.6782374E0,1.4852106E2,1.7213618E2,6.4435005E-2,3.0155756E-2,-3.267871E-1,2.265901E-2,4.4507366E-1,9.489506E-1,2.489828E0,8.854103E-2,1.4181688E2,1.4930383E2,7.719808E-2,1.8149492E2,3.8507906E-1,5.4023886E-1,9.0035784E-1,1.0223107E0,2.462257E0,-7.715144E-2,1.19494705E2,1.4651758E2,-1.21471584E-1,-2.933252E-2,-1.9475942E-2,1.8494298E2,3.7380706E-3,-5.963193E-2,7.196496E-2,4.053018E-3,-4.561848E-3,-5.2139323E-2,2.9212836E-2,-7.822158E-4,2.4799844E-2,9.7677834E-2,-5.0925213E-4,-1.533134E-2,3.2376017E-2,-3.969805E-3,1.9420411E-2,9.220514E-4],"split_indices":[0,0,0,0,0,0,0,0,0,0,0,0,0,0,0,0,0,0,0,0,0,0,0,0,0,0,0,0,0,0,0,0,0,0,0,0,0,0,0,0,0,0,0,0,0,0,0,0,0,0,0],"sum_hessian":[1.052E3,9.65E2,8.7E1,2.57E2,7.08E2,4.3E1,4.4E1,2.05E2,5.2E1,4.26E2,2.82E2,3.9E1,4E0,1E0,4.3E1,1.04E2,1.01E2,5.1E1,1E0,4.05E2,2.1E1,1E1,2.72E2,8.2E1,2.2E1,4.8E1,5.3E1,5E1,1E0,3.68E2,3.7E1,3E0,1.8E1,3.2E1,2.4E2,7.7E1,5E0,5E0,1.7E1,3.9E1,9E0,1E1,4.3E1,4.9E1,1E0,3.4E2,2.8E1,2.9E1,8E0,4.2E1,1.98E2],"tree_param":{"num_deleted":"0","num_feature":"1","num_nodes":"51","size_leaf_vector":"0"}},{"base_weights":[1.1054534E-2,4.8476798E-3,7.906325E-2,2.2887075E-3,2.0056179E-2,1.46827E-1,1.1048393E-2,5.2712513E-3,-5.2282643E-2,2.5966441E-2,1.0401817E-3,1.5196033E-1,7.6395035E-2,-9.258968E-1,5.3385712E-2,3.148552E-3,3.0448435E-2,-1.1483916E-1,7.1073384E-3,2.1021007E-2,3.4620874E-2,5.982112E-3,-5.202047E-2,6.532887E-3,-3.1960238E-2,4.5765955E-2,-5.8200797E-3,-1.6618967E-1,-8.321965E-2,2.9774553E-1,-6.9750465E-2,3.0165462E-2,-3.0497324E-1,3.3864796E-3,5.8193892E-2,-3.138016E-1,-1.29549E-2,2.100394E-2,3.2756653E-2],"default_left":[true,true,true,true,true,true,true,true,true,true,true,false,false,false,false,true,true,true,true,true,false,false,false,true,true,false,false,false,false,false,false,true,false,false,false,false,false,false,false],"id":17,"leaf_child_counts":[0,0,0,0,0,0,0,0,0,0,0,0,0,0,0,0,0,0,0,0,0,0,0,0,0,0,0,0,0,0,0,0,0,0,0,0,0,0,0],"left_children":[1,3,5,7,9,11,13,15,17,19,21,-1,-1,-1,-1,23,25,27,29,31,-1,-1,-1,33,35,-1,-1,-1,-1,-1,-1,37,-1,-1,-1,-1,-1,-1,-1],"loss_changes":[4.4410932E-1,3.754901E-2,4.039647E-1,1.3504204E-1,1.5595142E-2,4.299164E-3,1.8344783E0,4.191079E-2,1.605711E-1,3.8090274E-3,9.226742E-3,0E0,0E0,0E0,0E0,8.647204E-2,3.415453E-2,2.026698E-2,5.345377E-1,2.1787249E-1,0E0,0E0,0E0,1.07571304E-1,3.3875006E-1,0E0,0E0,0E0,0E0,0E0,0E0,9.499863E-4,0E0,0E0,0E0,0E0,0E0,0E0,0E0],"parents":[2147483647,0,0,1,1,2,2,3,3,4,4,5,5,6,6,7,7,8,8,9,9,10,10,15,15,16,16,17,17,18,18,19,19,23,23,24,24,31,31],"right_children":[2,4,6,8,10,12,14,16,18,20,22,-1,-1,-1,-1,24,26,28,30,32,-1,-1,-1,34,36,-1,-1,-1,-1,-1,-1,38,-1,-1,-1,-1,-1,-1,-1],"split_conditions":[4.694897E3,5.217855E2,7.0746987E3,1.8936938E2,1.8161771E3,5.8461455E3,7.4366025E3,1.8149492E2,2.2715201E2,1.3493938E3,3.363416E3,4.55881E-2,2.2918511E-2,-2.7776906E-1,1.6015714E-2,1.4852106E2,1.8494298E2,2.0506177E2,2.9524634E2,1.0817059E3,1.0386262E-2,1.7946337E-3,-1.5606142E-2,1.4181688E2,1.4930383E2,1.3729787E-2,-1.746024E-3,-4.9856905E-2,-2.4965895E-2,8.932366E-2,-2.092514E-2,7.921697E2,-9.1491975E-2,1.0159439E-3,1.7458169E-2,-9.414048E-2,-3.88647E-3,6.301182E-3,9.826996E-3],"split_indices":[0,0,0,0,0,0,0,0,0,0,0,0,0,0,0,0,0,0,0,0,0,0,0,0,0,0,0,0,0,0,0,0,0,0,0,0,0,0,0],"sum_hessian":[1.052E3,9.65E2,8.7E1,8.27E2,1.38E2,4.3E1,4.4E1,7.85E2,4.2E1,1.05E2,3.3E1,3.9E1,4E0,1E0,4.3E1,7.25E2,6E1,2E1,2.2E1,6.9E1,3.6E1,3.1E1,2E0,6.62E2,6.3E1,4.2E1,1.8E1,6E0,1.4E1,4E0,1.8E1,6.8E1,1E0,6.25E2,3.7E1,3E0,6E1,1.7E1,5.1E1],"tree_param":{"num_deleted":"0","num_feature":"1","num_nodes":"39","size_leaf_vector":"0"}},{"base_weights":[7.4094883E-3,3.2352007E-3,5.3147584E-2,1.2857617E-2,-2.7089025E-4,1.0433483E-1,1.9167715E-3,-6.139259E-3,5.159407E-2,-1.9077932E-2,3.631712E-3,1.07510805E-1,5.8060072E-2,-7.870123E-1,3.773362E-2,-2.5330213E-4,-8.557856E-2,4.6247374E-2,2.5035828E-1,-1.2053115E-2,-3.931036E-2,7.1746305E-2,2.5684997E-3,-5.2950177E-3,6.98954E-2,-1.3578743E-1,-3.0316886E-2,5.208418E-2,-2.191037E-1,-2.4278905E-2,-2.5986868E-3,-4.2617742E-2,-1.842664E-2,-2.6061324E-2,3.95918E-3,3.2481204E-3,-1.277867E-1,4.598165E-2,2.7624583E-1,-5.4078925E-2,-2.2128163E-2,2.5850156E-2,-1.7968096E-2,-3.515017E-2,-7.490184E-2,-7.4683004E-3,-2.2038735E-2,1.7460424E-2,-9.0953E-2,1.966128E-2,1.1279426E-4],"default_left":[true,true,true,true,true,true,true,true,true,true,true,false,false,false,false,true,true,true,false,true,true,false,true,true,false,false,false,true,false,true,true,true,true,true,true,false,false,false,false,false,false,false,false,false,false,false,false,false,false,false,false],"id":18,"leaf_child_counts":[0,0,0,0,0,0,0,0,0,0,0,0,0,0,0,0,0,0,0,0,0,0,0,0,0,0,0,0,0,0,0,0,0,0,0,0,0,0,0,0,0,0,0,0,0,0,0,0,0,0,0],"left_children":[1,3,5,7,9,11,13,15,17,19,21,-1,-1,-1,-1,23,25,27,-1,29,31,-1,33,35,-1,-1,-1,37,-1,39,41,43,45,47,49,-1,-1,-1,-1,-1,-1,-1,-1,-1,-1,-1,-1,-1,-1,-1,-1],"loss_changes":[2.0087099E-1,3.259349E-2,2.3056807E-1,1.9017163E-1,5.2107338E-2,2.2447109E-4,1.3012596E0,8.13366E-2,7.8753784E-2,1.6865939E-2,4.2398833E-2,0E0,0E0,0E0,0E0,5.801828E-2,2.9178858E-2,1.4151123E-1,0E0,1.057099E-2,1.355879E-3,0E0,2.3195839E-2,1.6052397E-1,0E0,0E0,0E0,1.0083789E-1,0E0,1.3670176E-3,2.3638299E-2,3.6353692E-3,7.2903465E-5,7.784145E-2,3.3457346E-2,0E0,0E0,0E0,0E0,0E0,0E0,0E0,0E0,0E0,0E0,0E0,0E0,0E0,0E0,0E0,0E0],"parents":[2147483647,0,0,1,1,2,2,3,3,4,4,5,5,6,6,7,7,8,8,9,9,10,10,15,15,16,16,17,17,19,19,20,20,22,22,23,23,27,27,29,29,30,30,31,31,32,32,33,33,34,34],"right_children":[2,4,6,8,10,12,14,16,18,20,22,-1,-1,-1,-1,24,26,28,-1,30,32,-1,34,36,-1,-1,-1,38,-1,40,42,44,46,48,50,-1,-1,-1,-1,-1,-1,-1,-1,-1,-1,-1,-1,-1,-1,-1,-1],"split_conditions":[4.694897E3,3.3015904E0,7.0746987E3,1.1509012E0,2.6835484E1,5.8461455E3,7.4366025E3,1.0223107E0,2.6782374E0,5.077314E0,3.0621353E1,3.2253243E-2,1.7418023E-2,-2.361037E-1,1.1320086E-2,9.489506E-1,1.105345E0,2.489828E0,7.5107485E-2,4.2878733E0,1.7466358E1,2.1523893E-2,3.5115788E1,9.0035784E-1,2.0968622E-2,-4.073623E-2,-9.095066E-3,2.462257E0,-6.573111E-2,3.8203459E0,4.7423897E0,9.429336E0,2.384575E1,3.386701E1,9.31828E1,9.744362E-4,-3.833601E-2,1.3794496E-2,8.2873754E-2,-1.6223678E-2,-6.638449E-3,7.755047E-3,-5.390429E-3,-1.0545052E-2,-2.2470552E-2,-2.2404902E-3,-6.611621E-3,5.2381274E-3,-2.7285902E-2,5.898384E-3,3.3838278E-5],"split_indices":[0,0,0,0,0,0,0,0,0,0,0,0,0,0,0,0,0,0,0,0,0,0,0,0,0,0,0,0,0,0,0,0,0,0,0,0,0,0,0,0,0,0,0,0,0,0,0,0,0,0,0],"sum_hessian":[1.052E3,9.65E2,8.7E1,2.57E2,7.08E2,4.3E1,4.4E1,1.73E2,8.4E1,1.21E2,5.87E2,3.9E1,4E0,1E0,4.3E1,1.62E2,1.1E1,8.3E1,1E0,9.1E1,3E1,8E0,5.79E2,1.52E2,1E1,5E0,6E0,8.2E1,1E0,3.9E1,5.2E1,2.5E1,5E0,2.6E1,5.53E2,1.43E2,9E0,8.1E1,1E0,1E0,3.8E1,1.8E1,3.4E1,2.2E1,3E0,2E0,3E0,1.6E1,1E1,1.08E2,4.45E2],"tree_param":{"num_deleted":"0","num_feature":"1","num_nodes":"51","size_leaf_vector":"0"}},{"base_weights":[5.00408E-3,2.2469182E-3,3.5213333E-2,1.4941429E-4,1.273351E-2,7.416309E-2,-3.6533938E-3,2.3970269E-3,-8.398263E-2,2.2625954E-1,5.8522127E-3,-6.6896045E-1,2.6670868E-2,-1.8616872E-4,1.952818E-2,-1.2348419E-1,-5.994973E-2,-4.9958702E-2,1.343894E-2,3.1763813E-3,-1.0151274E-1,1.9064924E-1,-9.2192617E-4,1.4546931E-2,-4.163893E-2,-1.6993208E-5,3.527008E-2,-2.4322158E-1,-6.633652E-2,-4.229816E-2,2.1477053E-2,2.1316284E-2,7.566753E-3],"default_left":[true,true,true,true,true,false,true,true,true,false,true,false,false,true,true,false,false,false,true,true,true,false,true,true,false,false,false,false,false,false,false,false,false],"id":19,"leaf_child_counts":[0,0,0,0,0,0,0,0,0,0,0,0,0,0,0,0,0,0,0,0,0,0,0,0,0,0,0,0,0,0,0,0,0],"left_children":[1,3,5,7,9,-1,11,13,15,-1,17,-1,-1,19,21,-1,-1,-1,23,25,27,-1,29,31,-1,-1,-1,-1,-1,-1,-1,-1,-1],"loss_changes":[8.762714E-2,2.1245912E-2,1.334897E-1,1.5261288E-1,2.3523898E-1,0E0,9.257143E-1,3.4786586E-2,1.2533233E-2,0E0,6.7148685E-2,0E0,0E0,2.3337196E-1,3.6061847E-1,0E0,0E0,0E0,9.088298E-3,6.794961E-2,9.353073E-2,0E0,8.7099485E-2,6.3121337E-3,0E0,0E0,0E0,0E0,0E0,0E0,0E0,0E0,0E0],"parents":[2147483647,0,0,1,1,2,2,3,3,4,4,6,6,7,7,8,8,10,10,13,13,14,14,18,18,19,19,20,20,22,22,23,23],"right_children":[2,4,6,8,10,-1,12,14,16,-1,18,-1,-1,20,22,-1,-1,-1,24,26,28,-1,30,32,-1,-1,-1,-1,-1,-1,-1,-1,-1],"split_conditions":[4.694897E3,2.2715201E2,7.0746987E3,1.8936938E2,2.9524634E2,2.2248928E-2,7.4366025E3,1.574982E2,2.0506177E2,6.787787E-2,5.217855E2,-2.0068814E-1,8.00126E-3,1.4852106E2,1.7213618E2,-3.704526E-2,-1.798492E-2,-1.4987611E-2,3.363416E3,1.3360759E2,1.4930383E2,5.7194773E-2,1.8149492E2,1.0817059E3,-1.249168E-2,-5.0979625E-6,1.0581024E-2,-7.296648E-2,-1.9900957E-2,-1.2689449E-2,6.4431163E-3,6.3948855E-3,2.270026E-3],"split_indices":[0,0,0,0,0,0,0,0,0,0,0,0,0,0,0,0,0,0,0,0,0,0,0,0,0,0,0,0,0,0,0,0,0],"sum_hessian":[1.052E3,9.65E2,8.7E1,8.05E2,1.6E2,4.3E1,4.4E1,7.85E2,2E1,4E0,1.56E2,1E0,4.3E1,6.83E2,1.02E2,6E0,1.4E1,1.8E1,1.38E2,6.62E2,2.1E1,1E1,9.2E1,1.36E2,2E0,6.03E2,5.9E1,3E0,1.8E1,3.2E1,6E1,6.8E1,6.8E1],"tree_param":{"num_deleted":"0","num_feature":"1","num_nodes":"33","size_leaf_vector":"0"}},{"base_weights":[3.305641E-3,7.731448E-4,1.7753689E-2,1.3552113E-3,-2.603792E-1,2.7390307E-2,-6.8394556E-3,9.609162E-3,-1.8009287E-3,1.1265298E-2,5.2421223E-2,-5.686164E-1,1.8851303E-2,-1.7096874E-3,6.3610874E-2,-6.782156E-2,-9.754366E-4,2.2273783E-2,-1.0458546E-3,5.437255E-2,2.632637E-2,2.7650403E-2,-5.370407E-3,2.3481154E-1,-1.7095996E-3,2.0116977E-3,-3.331113E-2,-3.6372248E-2,3.218863E-3,-1.8623559E-1,-1.1302846E-3],"default_left":[true,true,true,true,false,true,true,true,true,true,true,false,false,true,false,false,true,false,true,false,false,false,true,false,true,false,false,false,false,false,false],"id":20,"leaf_child_counts":[0,0,0,0,0,0,0,0,0,0,0,0,0,0,0,0,0,0,0,0,0,0,0,0,0,0,0,0,0,0,0],"left_children":[1,3,5,7,-1,9,11,13,15,17,19,-1,-1,21,-1,-1,23,-1,25,-1,-1,-1,27,-1,29,-1,-1,-1,-1,-1,-1],"loss_changes":[3.8515154E-2,1.3670406E-1,3.7395507E-2,2.3358664E-2,0E0,4.501894E-2,6.601805E-1,1.5169558E-1,3.530403E-2,9.510194E-3,8.090362E-4,0E0,0E0,2.228918E-2,0E0,0E0,1.1153554E-1,0E0,3.421206E-3,0E0,0E0,0E0,4.9113184E-2,0E0,6.831155E-2,0E0,0E0,0E0,0E0,0E0,0E0],"parents":[2147483647,0,0,1,1,2,2,3,3,5,5,6,6,7,7,8,8,9,9,10,10,13,13,16,16,18,18,22,22,24,24],"right_children":[2,4,6,8,-1,10,12,14,16,18,20,-1,-1,22,-1,-1,24,-1,26,-1,-1,-1,28,-1,30,-1,-1,-1,-1,-1,-1],"split_conditions":[1.3493938E3,1.0817059E3,7.0746987E3,1.8932416E0,-7.8113765E-2,4.694897E3,7.4366025E3,1.6959383E0,2.462257E0,1.8161771E3,5.8461455E3,-1.7058492E-1,5.655391E-3,1.3771379E-1,1.9083263E-2,-2.034647E-2,2.489828E0,6.682135E-3,3.363416E3,1.6311765E-2,7.897912E-3,8.295122E-3,3.2588434E-1,7.044347E-2,2.6782374E0,6.0350937E-4,-9.993339E-3,-1.0911675E-2,9.656589E-4,-5.587068E-2,-3.390854E-4],"split_indices":[0,0,0,0,0,0,0,0,0,0,0,0,0,0,0,0,0,0,0,0,0,0,0,0,0,0,0,0,0,0,0],"sum_hessian":[1.052E3,8.96E2,1.56E2,8.95E2,1E0,1.12E2,4.4E1,2.47E2,6.48E2,6.9E1,4.3E1,1E0,4.3E1,2.05E2,4.2E1,7E0,6.41E2,3.6E1,3.3E1,3.9E1,4E0,2.2E1,1.83E2,1E0,6.4E2,3.1E1,2E0,3.9E1,1.44E2,1E0,6.39E2],"tree_param":{"num_deleted":"0","num_feature":"1","num_nodes":"31","size_leaf_vector":"0"}},{"base_weights":[2.1143255E-3,-4.7831447E-4,1.053188E-2,1.1415667E-3,-6.1085377E-2,1.7222846E-1,7.175262E-3,-8.7169686E-4,1.4500118E-2,-9.144046E-2,-4.284731E-2,-3.543869E-2,1.0726102E-2,2.0794044E-3,-6.527501E-2,1.3896225E-1,-3.7712645E-4,1.5409138E-2,-8.4525375E-3,-2.1152326E-4,4.9814112E-2,-8.851481E-2,-4.716172E-2,-2.9664433E-2,1.5473008E-2,8.386165E-3,3.7245143E-2,-4.8332393E-1,1.33246295E-2,1.9615225E-3,-4.501393E-2,-3.435646E-2,-1.882424E-1,2.6360217E-2,-9.980835E-3,1.5348217E-2,1.502111E-3,3.8468696E-2,2.0007705E-2],"default_left":[true,true,true,true,true,false,true,true,true,false,false,false,true,true,true,false,true,true,true,true,false,true,false,false,true,true,true,false,false,false,false,false,false,false,false,false,false,false,false],"id":21,"leaf_child_counts":[0,0,0,0,0,0,0,0,0,0,0,0,0,0,0,0,0,0,0,0,0,0,0,0,0,0,0,0,0,0,0,0,0,0,0,0,0,0,0],"left_children":[1,3,5,7,9,-1,11,13,15,-1,-1,-1,17,19,21,-1,23,25,27,29,-1,31,-1,-1,33,35,37,-1,-1,-1,-1,-1,-1,-1,-1,-1,-1,-1,-1],"loss_changes":[2.298538E-2,7.919978E-2,1.3336712E-1,2.1151548E-2,7.707998E-3,0E0,3.730106E-2,1.3013726E-1,1.9077274E-1,0E0,0E0,0E0,2.042827E-2,7.163922E-2,8.45398E-3,0E0,4.3630317E-2,2.7598027E-2,4.71801E-1,6.1034203E-2,0E0,5.834564E-2,0E0,0E0,1.7167497E-2,6.6388194E-3,1.5832856E-4,0E0,0E0,0E0,0E0,0E0,0E0,0E0,0E0,0E0,0E0,0E0,0E0],"parents":[2147483647,0,0,1,1,2,2,3,3,4,4,6,6,7,7,8,8,12,12,13,13,14,14,16,16,17,17,18,18,19,19,21,21,24,24,25,25,26,26],"right_children":[2,4,6,8,10,-1,12,14,16,-1,-1,-1,18,20,22,-1,24,26,28,30,-1,32,-1,-1,34,36,38,-1,-1,-1,-1,-1,-1,-1,-1,-1,-1,-1,-1],"split_conditions":[2.2715201E2,1.8936938E2,2.9524634E2,1.574982E2,2.0506177E2,5.166854E-2,5.217855E2,1.4651758E2,1.7213618E2,-2.743214E-2,-1.2854193E-2,-1.0631608E-2,7.0746987E3,1.4181688E2,1.4930383E2,4.1688677E-2,1.8149492E2,4.694897E3,7.4366025E3,1.19494705E2,1.4944234E-2,1.4852106E2,-1.4148517E-2,-8.89933E-3,1.8494298E2,1.0817059E3,5.8461455E3,-1.4499718E-1,3.997389E-3,5.8845675E-4,-1.350418E-2,-1.0306939E-2,-5.6472722E-2,7.908066E-3,-2.9942507E-3,4.6044653E-3,4.5063332E-4,1.1540609E-2,6.002312E-3],"split_indices":[0,0,0,0,0,0,0,0,0,0,0,0,0,0,0,0,0,0,0,0,0,0,0,0,0,0,0,0,0,0,0,0,0,0,0,0,0,0,0],"sum_hessian":[1.052E3,8.05E2,2.47E2,7.85E2,2E1,4E0,2.43E2,6.83E2,1.02E2,6E0,1.4E1,1.8E1,2.25E2,6.54E2,2.9E1,1E1,9.2E1,1.81E2,4.4E1,6.25E2,2.9E1,1.1E1,1.8E1,3.2E1,6E1,1.38E2,4.3E1,1E0,4.3E1,5.97E2,2.8E1,8E0,3E0,4.2E1,1.8E1,6.8E1,7E1,3.9E1,4E0],"tree_param":{"num_deleted":"0","num_feature":"1","num_nodes":"39","size_leaf_vector":"0"}},{"base_weights":[1.3291776E-3,-4.359516E-4,7.060488E-3,7.466468E-4,-4.4678163E-2,1.3089363E-1,4.493987E-3,6.3670906E-3,-1.9959263E-3,-6.79272E-2,-3.0850068E-2,-2.5366629E-2,6.984508E-3,4.7367495E-3,2.1268243E-1,-6.83618E-3,7.192948E-3,1.0910831E-2,-9.050501E-3,5.9942715E-3,-1.5859447E-1,-2.4078046E-3,-2.2158474E-1,3.2400995E-2,-2.7919866E-3,5.906662E-3,2.6471484E-2,-4.1082534E-1,9.417686E-3,4.4546765E-3,1.9929552E-1,-9.415696E-3,1.18153365E-2,-4.83901E-2,1.0516125E-2,1.08103985E-2,1.0578666E-3],"default_left":[true,true,true,true,true,false,true,true,true,false,false,false,true,true,false,true,true,true,true,true,false,true,false,false,true,true,false,false,false,false,false,false,false,false,false,false,false],"id":22,"leaf_child_counts":[0,0,0,0,0,0,0,0,0,0,0,0,0,0,0,0,0,0,0,0,0,0,0,0,0,0,0,0,0,0,0,0,0,0,0,0,0],"left_children":[1,3,5,7,9,-1,11,13,15,-1,-1,-1,17,19,-1,21,23,25,27,29,-1,31,-1,-1,33,35,-1,-1,-1,-1,-1,-1,-1,-1,-1,-1,-1],"loss_changes":[1.0655757E-2,4.2203896E-2,7.8230605E-2,1.2128489E-2,4.65573E-3,0E0,1.8323084E-2,8.577461E-2,2.3577232E-2,0E0,0E0,0E0,1.4327399E-2,5.3736567E-2,0E0,3.2945904E-1,4.615169E-2,1.4015643E-2,3.3777142E-1,7.5299256E-2,0E0,3.4100164E-2,0E0,0E0,8.0609754E-2,3.2935971E-3,0E0,0E0,0E0,0E0,0E0,0E0,0E0,0E0,0E0,0E0,0E0],"parents":[2147483647,0,0,1,1,2,2,3,3,4,4,6,6,7,7,8,8,12,12,13,13,15,15,16,16,17,17,18,18,19,19,21,21,24,24,25,25],"right_children":[2,4,6,8,10,-1,12,14,16,-1,-1,-1,18,20,-1,22,24,26,28,30,-1,32,-1,-1,34,36,-1,-1,-1,-1,-1,-1,-1,-1,-1,-1,-1],"split_conditions":[2.2715201E2,1.8936938E2,2.9524634E2,3.3015904E0,2.0506177E2,3.926809E-2,5.217855E2,2.6782374E0,1.3360759E2,-2.037816E-2,-9.255021E-3,-7.609989E-3,7.0746987E3,2.489828E0,6.380473E-2,1.19494705E2,1.4651758E2,4.694897E3,7.4366025E3,2.462257E0,-4.7578346E-2,8.417426E1,-6.647542E-2,9.720299E-3,1.574982E2,1.0817059E3,7.941445E-3,-1.2324761E-1,2.8253058E-3,1.336403E-3,5.978866E-2,-2.824709E-3,3.5446011E-3,-1.4517031E-2,3.1548375E-3,3.2431197E-3,3.1735998E-4],"split_indices":[0,0,0,0,0,0,0,0,0,0,0,0,0,0,0,0,0,0,0,0,0,0,0,0,0,0,0,0,0,0,0,0,0,0,0,0,0],"sum_hessian":[1.052E3,8.05E2,2.47E2,7.85E2,2E1,4E0,2.43E2,2.57E2,5.28E2,6E0,1.4E1,1.8E1,2.25E2,2.56E2,1E0,3.46E2,1.82E2,1.81E2,4.4E1,2.55E2,1E0,3.4E2,6E0,5.1E1,1.31E2,1.38E2,4.3E1,1E0,4.3E1,2.54E2,1E0,2.28E2,1.12E2,2.9E1,1.02E2,6.8E1,7E1],"tree_param":{"num_deleted":"0","num_feature":"1","num_nodes":"37","size_leaf_vector":"0"}},{"base_weights":[8.3829765E-4,-1.1182028E-2,1.5887229E-3,1.7874703E-2,-2.7610097E-2,7.669915E-2,2.7881915E-4,-3.9448496E-2,-1.2449312E-2,-1.5314294E-1,1.2265553E-3,-1.8745817E-2,-6.7269504E-2,1.758492E-1,1.4067286E-4,-3.6177386E-2,1.9130936E-3,5.077299E-3,-6.1406203E-2,8.4529474E-2,7.3075725E-4],"default_left":[true,true,true,false,true,false,true,true,false,false,true,false,false,false,true,true,true,false,false,false,false],"id":23,"leaf_child_counts":[0,0,0,0,0,0,0,0,0,0,0,0,0,0,0,0,0,0,0,0,0],"left_children":[1,3,5,-1,7,-1,9,11,-1,-1,13,-1,-1,-1,15,17,19,-1,-1,-1,-1],"loss_changes":[9.5162E-3,3.0088972E-2,9.757896E-2,0E0,6.6880733E-3,0E0,1.4210151E-1,1.1410303E-2,0E0,0E0,1.8409596E-1,0E0,0E0,0E0,6.2251482E-2,4.714809E-2,8.999952E-2,0E0,0E0,0E0,0E0],"parents":[2147483647,0,0,1,1,2,2,4,4,6,6,7,7,10,10,14,14,15,15,16,16],"right_children":[2,4,6,-1,8,-1,10,12,-1,-1,14,-1,-1,-1,16,18,20,-1,-1,-1,-1],"split_conditions":[3.2588434E-1,1.3771379E-1,3.8507906E-1,5.362411E-3,2.981806E-1,2.3009747E-2,4.4507366E-1,2.3407894E-1,-3.7347937E-3,-4.5942884E-2,5.4023886E-1,-5.6237453E-3,-2.0180851E-2,5.2754764E-2,8.180206E-1,6.9095874E-1,9.0035784E-1,1.5231898E-3,-1.8421862E-2,2.5358843E-2,2.1922718E-4],"split_indices":[0,0,0,0,0,0,0,0,0,0,0,0,0,0,0,0,0,0,0,0,0],"sum_hessian":[1.052E3,6.1E1,9.91E2,2.2E1,3.9E1,1.6E1,9.75E2,2.1E1,1.8E1,5E0,9.7E2,1.3E1,8E0,5E0,9.65E2,4.4E1,9.21E2,1.7E1,2.7E1,1.2E1,9.09E2],"tree_param":{"num_deleted":"0","num_feature":"1","num_nodes":"21","size_leaf_vector":"0"}},{"base_weights":[6.0046505E-4,-6.143608E-3,1.9332699E-3,-1.6327954E-3,-6.690352E-2,1.03328325E-1,6.490413E-4,-5.191259E-3,4.8010636E-2,-1.0442777E-1,-2.5182217E-2,-3.3705126E-2,1.5800517E-3,1.1564032E-3,-9.607847E-2,4.2875867E-2,-6.2503526E-4,-4.757991E-3,6.11213E-2,-5.1894464E-2,-1.1091702E-4,5.6564636E-3,-4.3642268E-2,1.692915E-1,-5.3534546E-4],"default_left":[true,true,true,true,true,false,true,true,false,false,false,false,true,true,false,false,true,true,false,false,true,false,false,false,false],"id":24,"leaf_child_counts":[0,0,0,0,0,0,0,0,0,0,0,0,0,0,0,0,0,0,0,0,0,0,0,0,0],"left_children":[1,3,5,7,9,-1,11,13,-1,-1,-1,-1,15,17,-1,-1,19,21,-1,-1,23,-1,-1,-1,-1],"loss_changes":[9.476803E-3,4.7580082E-2,1.1452164E-1,2.9043896E-2,1.6157005E-2,0E0,2.7879411E-2,8.838007E-2,0E0,0E0,0E0,0E0,7.724641E-2,5.1361285E-2,0E0,0E0,2.1239234E-2,5.3701393E-2,0E0,0E0,5.7538092E-2,0E0,0E0,0E0,0E0],"parents":[2147483647,0,0,1,1,2,2,3,3,4,4,6,6,7,7,12,12,13,13,16,16,17,17,20,20],"right_children":[2,4,6,8,10,-1,12,14,-1,-1,-1,-1,16,18,-1,-1,20,22,-1,-1,24,-1,-1,-1,-1],"split_conditions":[1.1509012E0,1.0223107E0,1.2154217E0,9.489506E-1,1.105345E0,3.0998498E-2,1.6959383E0,9.0035784E-1,1.4403191E-2,-3.132833E-2,-7.5546657E-3,-1.0111539E-2,1.8932416E0,8.180206E-1,-2.8823541E-2,1.2862761E-2,2.462257E0,6.9095874E-1,1.8336391E-2,-1.5568339E-2,2.489828E0,1.6969391E-3,-1.3092681E-2,5.0787453E-2,-1.6060364E-4],"split_indices":[0,0,0,0,0,0,0,0,0,0,0,0,0,0,0,0,0,0,0,0,0,0,0,0,0],"sum_hessian":[1.052E3,1.73E2,8.79E2,1.62E2,1.1E1,1E1,8.69E2,1.52E2,1E1,5E0,6E0,2.2E1,8.47E2,1.43E2,9E0,4.2E1,8.05E2,1.31E2,1.2E1,7E0,7.98E2,1.04E2,2.7E1,1E0,7.97E2],"tree_param":{"num_deleted":"0","num_feature":"1","num_nodes":"25","size_leaf_vector":"0"}},{"base_weights":[4.4160528E-4,-9.886934E-3,1.0866938E-3,1.1122294E-2,-2.1720069E-2,5.344583E-2,1.735873E-4,-3.040669E-2,-1.0518714E-2,-1.16271324E-1,8.929445E-4,-1.50994975E-2,-5.0839353E-2,1.3047278E-1,8.717645E-5,-1.3510943E-2,1.431437E-3,-7.5602587E-3,-5.00727E-2,7.51479E-2,4.9774436E-4],"default_left":[true,true,true,false,true,false,true,true,false,false,true,false,false,false,true,true,true,false,false,false,false],"id":25,"leaf_child_counts":[0,0,0,0,0,0,0,0,0,0,0,0,0,0,0,0,0,0,0,0,0],"left_children":[1,3,5,-1,7,-1,9,11,-1,-1,13,-1,-1,-1,15,17,19,-1,-1,-1,-1],"loss_changes":[7.0266966E-3,1.5655087E-2,4.7417723E-2,0E0,3.5722367E-3,0E0,8.185894E-2,6.11322E-3,0E0,0E0,1.0137199E-1,0E0,0E0,0E0,1.7677255E-2,1.854981E-2,6.0531687E-2,0E0,0E0,0E0,0E0],"parents":[2147483647,0,0,1,1,2,2,4,4,6,6,7,7,10,10,14,14,15,15,16,16],"right_children":[2,4,6,-1,8,-1,10,12,-1,-1,14,-1,-1,-1,16,18,20,-1,-1,-1,-1],"split_conditions":[3.2588434E-1,1.3771379E-1,3.8507906E-1,3.3366883E-3,2.981806E-1,1.603375E-2,4.4507366E-1,2.3407894E-1,-3.1556142E-3,-3.4881398E-2,5.4023886E-1,-4.5298496E-3,-1.5251807E-2,3.9141834E-2,1.1509012E0,1.0223107E0,1.2154217E0,-2.2680778E-3,-1.502181E-2,2.254437E-2,1.4932331E-4],"split_indices":[0,0,0,0,0,0,0,0,0,0,0,0,0,0,0,0,0,0,0,0,0],"sum_hessian":[1.052E3,6.1E1,9.91E2,2.2E1,3.9E1,1.6E1,9.75E2,2.1E1,1.8E1,5E0,9.7E2,1.3E1,8E0,5E0,9.65E2,8.6E1,8.79E2,7.5E1,1.1E1,1E1,8.69E2],"tree_param":{"num_deleted":"0","num_feature":"1","num_nodes":"21","size_leaf_vector":"0"}},{"base_weights":[3.1498095E-4,-9.4970077E-4,4.4239266E-3,-9.528991E-5,-3.2883853E-2,9.931271E-2,2.4613533E-3,1.9496866E-3,-4.100318E-3,-5.063844E-2,-2.2406124E-2,-1.8354205E-2,4.200443E-3,-1.4777323E-3,4.8165683E-2,-4.176503E-2,2.1676267E-3,7.494209E-3,-9.214354E-3,9.663339E-4,-2.8028361E-2,1.8730575E-2,-1.4368629E-3,3.9538173E-3,1.8508304E-2,-3.493055E-1,6.4537525E-3,-7.275489E-4,3.773721E-1,-1.10219344E-1,-7.864943E-3,-1.6478403E-1,4.819241E-3,4.609337E-3,-2.7299523E-2,1.9273425E-2,8.685684E-3],"default_left":[true,true,true,true,true,false,true,true,true,false,false,false,true,true,false,false,true,true,true,true,true,false,true,true,true,false,false,false,false,false,false,false,false,false,false,false,false],"id":26,"leaf_child_counts":[0,0,0,0,0,0,0,0,0,0,0,0,0,0,0,0,0,0,0,0,0,0,0,0,0,0,0,0,0,0,0,0,0,0,0,0,0],"left_children":[1,3,5,7,9,-1,11,13,15,-1,-1,-1,17,19,-1,-1,21,23,25,27,29,-1,31,33,35,-1,-1,-1,-1,-1,-1,-1,-1,-1,-1,-1,-1],"loss_changes":[5.4761246E-3,2.1988487E-2,4.5939647E-2,6.4454824E-3,2.7719717E-3,0E0,8.909926E-3,8.2598396E-2,6.28879E-2,0E0,0E0,0E0,1.005491E-2,3.156435E-2,0E0,0E0,1.3698438E-2,7.0237676E-3,2.4204062E-1,2.8463846E-1,6.708043E-2,0E0,1.9393642E-1,2.9735507E-3,1.6327761E-4,0E0,0E0,0E0,0E0,0E0,0E0,0E0,0E0,0E0,0E0,0E0,0E0],"parents":[2147483647,0,0,1,1,2,2,3,3,4,4,6,6,7,7,8,8,12,12,13,13,16,16,17,17,18,18,19,19,20,20,22,22,23,23,24,24],"right_children":[2,4,6,8,10,-1,12,14,16,-1,-1,-1,18,20,-1,-1,22,24,26,28,30,-1,32,34,36,-1,-1,-1,-1,-1,-1,-1,-1,-1,-1,-1,-1],"split_conditions":[2.2715201E2,1.8936938E2,2.9524634E2,9.31828E1,2.0506177E2,2.9793814E-2,5.217855E2,8.417426E1,1.06784225E2,-1.5191533E-2,-6.7218374E-3,-5.5062617E-3,7.0746987E3,6.715033E1,1.4449705E-2,-1.252951E-2,1.19494705E2,4.694897E3,7.4366025E3,6.1208298E1,7.216625E1,5.619173E-3,1.3360759E2,3.363416E3,5.8461455E3,-1.04791656E-1,1.9361258E-3,-2.1826469E-4,1.1321163E-1,-3.3065803E-2,-2.359483E-3,-4.943521E-2,1.4457724E-3,1.3828012E-3,-8.189857E-3,5.7820277E-3,2.6057053E-3],"split_indices":[0,0,0,0,0,0,0,0,0,0,0,0,0,0,0,0,0,0,0,0,0,0,0,0,0,0,0,0,0,0,0,0,0,0,0,0,0],"sum_hessian":[1.052E3,8.05E2,2.47E2,7.85E2,2E1,4E0,2.43E2,5.2E2,2.65E2,6E0,1.4E1,1.8E1,2.25E2,4.85E2,3.5E1,3.7E1,2.28E2,1.81E2,4.4E1,4.45E2,4E1,4E1,1.88E2,1.38E2,4.3E1,1E0,4.3E1,4.44E2,1E0,7E0,3.3E1,6E0,1.82E2,1.36E2,2E0,3.9E1,4E0],"tree_param":{"num_deleted":"0","num_feature":"1","num_nodes":"37","size_leaf_vector":"0"}},{"base_weights":[1.6175347E-4,3.4785196E-3,-9.13482E-4,2.0851663E-3,1.8078518E-1,-1.1296225E-2,9.64456E-4,3.1464375E-3,-1.3480014E-1,-6.097386E-3,-2.6360642E-2,5.4916836E-2,2.350169E-4,2.0298953E-3,1.4393234E-1,-1.50408E-2,7.674045E-4,-2.861114E-2,-1.2215047E-2,-1.656472E-2,9.422835E-4,-2.3445417E-3,2.0011978E-2,-4.467171E-2,-1.3135604E-2,2.0957666E-2,-1.0214948E-2,-2.2585487E-2,-5.610586E-2,-4.247474E-3,-1.5136965E-2,1.4968768E-2,-6.379241E-2,2.4950868E-2,-4.0185158E-4,3.7104223E-4,-2.3967275E-2,3.037892E-2,-3.8211826E-2,6.266574E-3,3.2076627E-1,-8.128677E-2,6.754882E-4],"default_left":[true,true,true,true,false,true,true,true,false,true,true,false,true,true,false,true,true,true,true,true,true,true,true,false,false,false,false,false,false,false,false,false,false,true,true,false,false,false,false,false,false,false,false],"id":27,"leaf_child_counts":[0,0,0,0,0,0,0,0,0,0,0,0,0,0,0,0,0,0,0,0,0,0,0,0,0,0,0,0,0,0,0,0,0,0,0,0,0,0,0,0,0,0,0],"left_children":[1,3,5,7,-1,9,11,13,-1,15,17,-1,19,21,-1,23,25,27,29,31,33,35,37,-1,-1,-1,-1,-1,-1,-1,-1,-1,-1,39,41,-1,-1,-1,-1,-1,-1,-1,-1],"loss_changes":[3.7584966E-3,6.336215E-2,1.553142E-2,3.775916E-2,0E0,9.394001E-3,2.6551705E-2,3.9949343E-2,0E0,5.6598517E-3,6.3738786E-4,0E0,7.940831E-3,2.0105597E-2,0E0,1.6713161E-3,1.19661195E-2,3.0403342E-3,7.538975E-5,4.1164745E-2,2.0695595E-2,1.2104874E-2,3.1340964E-2,0E0,0E0,0E0,0E0,0E0,0E0,0E0,0E0,0E0,0E0,1.8591136E-1,5.303636E-2,0E0,0E0,0E0,0E0,0E0,0E0,0E0,0E0],"parents":[2147483647,0,0,1,1,2,2,3,3,5,5,6,6,7,7,9,9,10,10,12,12,13,13,15,15,16,16,17,17,18,18,19,19,20,20,21,21,22,22,33,33,34,34],"right_children":[2,4,6,8,-1,10,12,14,-1,16,18,-1,20,22,-1,24,26,28,30,32,34,36,38,-1,-1,-1,-1,-1,-1,-1,-1,-1,-1,40,42,-1,-1,-1,-1,-1,-1,-1,-1],"split_conditions":[3.3015904E0,2.6782374E0,2.6835484E1,2.489828E0,5.4235555E-2,5.077314E0,3.0621353E1,2.462257E0,-4.044004E-2,4.2878733E0,1.7466358E1,1.6475052E-2,3.5115788E1,1.6959383E0,4.3179706E-2,3.8203459E0,4.7423897E0,9.429336E0,2.384575E1,3.386701E1,6.715033E1,1.2154217E0,1.8932416E0,-1.3401514E-2,-3.9406815E-3,6.2873E-3,-3.0644846E-3,-6.7756465E-3,-1.683176E-2,-1.2742423E-3,-4.5410898E-3,4.4906307E-3,-1.9137723E-2,6.1208298E1,7.216625E1,1.1131267E-4,-7.190183E-3,9.113676E-3,-1.1463548E-2,1.8799723E-3,9.622989E-2,-2.4386033E-2,2.0264646E-4],"split_indices":[0,0,0,0,0,0,0,0,0,0,0,0,0,0,0,0,0,0,0,0,0,0,0,0,0,0,0,0,0,0,0,0,0,0,0,0,0,0,0,0,0,0,0],"sum_hessian":[1.052E3,2.57E2,7.95E2,2.56E2,1E0,1.21E2,6.74E2,2.55E2,1E0,9.1E1,3E1,8E0,6.66E2,2.54E2,1E0,3.9E1,5.2E1,2.5E1,5E0,2.6E1,6.4E2,2.05E2,4.9E1,1E0,3.8E1,1.8E1,3.4E1,2.2E1,3E0,2E0,3E0,1.6E1,1E1,3.3E1,6.07E2,1.83E2,2.2E1,4.2E1,7E0,3.2E1,1E0,7E0,6E2],"tree_param":{"num_deleted":"0","num_feature":"1","num_nodes":"43","size_leaf_vector":"0"}},{"base_weights":[1.8900943E-4,5.95659E-4,-8.933178E-3,-4.0177398E-4,8.508064E-3,-2.9701102E-1,4.3642954E-3,9.465921E-5,-2.2260296E-1,5.5958442E-3,1.2947776E-2,1.8032913E-3,-2.2731386E-3,1.3280118E-2,-2.9310375E-3,1.34376045E-2,6.4395904E-3,-5.7945854E-4,3.392032E-2,-2.9762555E-2,8.1497646E-4,-1.054097E-3,-2.1974722E-2,3.8358776E-4,-4.645882E-2,1.3050748E-2,-8.6556404E-4],"default_left":[true,true,true,true,true,false,false,true,false,true,true,true,true,false,true,false,false,true,false,false,true,false,false,false,false,false,false],"id":28,"leaf_child_counts":[0,0,0,0,0,0,0,0,0,0,0,0,0,0,0,0,0,0,0,0,0,0,0,0,0,0,0],"left_children":[1,3,5,7,9,-1,-1,11,-1,13,15,17,19,-1,21,-1,-1,23,-1,-1,25,-1,-1,-1,-1,-1,-1],"loss_changes":[3.9114607E-3,7.966541E-3,1.7367809E-1,9.8967396E-2,1.3885703E-3,0E0,0E0,3.6290423E-3,0E0,4.625527E-3,5.373452E-5,3.9890148E-2,3.194308E-2,0E0,1.1921278E-3,0E0,0E0,2.1491222E-2,0E0,0E0,6.9820546E-3,0E0,0E0,0E0,0E0,0E0,0E0],"parents":[2147483647,0,0,1,1,2,2,3,3,4,4,7,7,9,9,10,10,11,11,12,12,14,14,17,17,20,20],"right_children":[2,4,6,8,10,-1,-1,12,-1,14,16,18,20,-1,22,-1,-1,24,-1,-1,26,-1,-1,-1,-1,-1,-1],"split_conditions":[7.0746987E3,1.3493938E3,7.4366025E3,1.0817059E3,4.694897E3,-8.910331E-2,1.3092887E-3,9.31828E1,-6.6780895E-2,1.8161771E3,5.8461455E3,8.417426E1,1.06784225E2,3.9840355E-3,3.363416E3,4.0312815E-3,1.9318772E-3,7.643015E1,1.0176097E-2,-8.9287665E-3,1.19494705E2,-3.162291E-4,-6.5924167E-3,1.15076335E-4,-1.3937647E-2,3.9152247E-3,-2.5966924E-4],"split_indices":[0,0,0,0,0,0,0,0,0,0,0,0,0,0,0,0,0,0,0,0,0,0,0,0,0,0,0],"sum_hessian":[1.052E3,1.008E3,4.4E1,8.96E2,1.12E2,1E0,4.3E1,8.95E2,1E0,6.9E1,4.3E1,5.2E2,3.75E2,3.6E1,3.3E1,3.9E1,4E0,4.85E2,3.5E1,3.7E1,3.38E2,3.1E1,2E0,4.76E2,9E0,4E1,2.98E2],"tree_param":{"num_deleted":"0","num_feature":"1","num_nodes":"27","size_leaf_vector":"0"}},{"base_weights":[-2.0049374E-5,-7.2449646E-3,4.3152805E-4,7.922945E-3,-1.5785389E-2,3.8347535E-2,-2.2933635E-4,-2.21916E-2,-7.5368597E-3,-8.721028E-2,3.083722E-4,-1.090075E-2,-3.728941E-2,9.784778E-2,-2.9778184E-4,-1.6275419E-2,4.8236075E-4,4.170471E-3,-2.8837942E-2,4.628145E-2,-1.7244203E-4],"default_left":[true,true,true,false,true,false,true,true,false,false,true,false,false,false,true,true,true,false,false,false,false],"id":29,"leaf_child_counts":[0,0,0,0,0,0,0,0,0,0,0,0,0,0,0,0,0,0,0,0,0],"left_children":[1,3,5,-1,7,-1,9,11,-1,-1,13,-1,-1,-1,15,17,19,-1,-1,-1,-1],"loss_changes":[3.4386532E-3,8.15657E-3,2.4865676E-2,0E0,1.9464176E-3,0E0,4.56748E-2,3.3437945E-3,0E0,0E0,5.743845E-2,0E0,0E0,0E0,1.20488815E-2,1.1678605E-2,2.7658181E-2,0E0,0E0,0E0,0E0],"parents":[2147483647,0,0,1,1,2,2,4,4,6,6,7,7,10,10,14,14,15,15,16,16],"right_children":[2,4,6,-1,8,-1,10,12,-1,-1,14,-1,-1,-1,16,18,20,-1,-1,-1,-1],"split_conditions":[3.2588434E-1,1.3771379E-1,3.8507906E-1,2.3768835E-3,2.981806E-1,1.1504261E-2,4.4507366E-1,2.3407894E-1,-2.261058E-3,-2.6163086E-2,5.4023886E-1,-3.2702251E-3,-1.1186823E-2,2.9354336E-2,8.180206E-1,6.9095874E-1,9.0035784E-1,1.2511413E-3,-8.651383E-3,1.3884435E-2,-5.173261E-5],"split_indices":[0,0,0,0,0,0,0,0,0,0,0,0,0,0,0,0,0,0,0,0,0],"sum_hessian":[1.052E3,6.1E1,9.91E2,2.2E1,3.9E1,1.6E1,9.75E2,2.1E1,1.8E1,5E0,9.7E2,1.3E1,8E0,5E0,9.65E2,4.4E1,9.21E2,1.7E1,2.7E1,1.2E1,9.09E2],"tree_param":{"num_deleted":"0","num_feature":"1","num_nodes":"21","size_leaf_vector":"0"}},{"base_weights":[-7.5375183E-6,3.5575154E-4,-8.153118E-3,-3.599814E-4,6.0341293E-3,-2.5243348E-1,3.135833E-3,6.190855E-5,-1.8918669E-1,3.926284E-3,9.250381E-3,-6.194739E-4,6.0963305E-3,9.454131E-3,-2.2047933E-3,9.558534E-3,4.9350737E-3,2.9189125E-4,-1.8550474E-2,7.55646E-2,2.0338283E-3,-6.977208E-4,-1.7545303E-2,-5.231112E-4,1.4045377E-2,-1.1596711E-2,-2.3958618E-2,-1.3034679E-2,6.153652E-3],"default_left":[true,true,true,true,true,false,false,true,false,true,true,true,true,false,true,false,false,true,true,false,true,false,false,false,false,false,false,false,false],"id":30,"leaf_child_counts":[0,0,0,0,0,0,0,0,0,0,0,0,0,0,0,0,0,0,0,0,0,0,0,0,0,0,0,0,0],"left_children":[1,3,5,7,9,-1,-1,11,-1,13,15,17,19,-1,21,-1,-1,23,25,-1,27,-1,-1,-1,-1,-1,-1,-1,-1],"loss_changes":[3.1189385E-3,4.1029523E-3,1.2488669E-1,7.147041E-2,7.2974805E-4,0E0,0E0,3.687904E-3,0E0,2.3932606E-3,1.1338387E-5,1.31768165E-2,2.552788E-2,0E0,7.7381317E-4,0E0,0E0,8.615956E-3,1.1888305E-3,0E0,5.4811356E-3,0E0,0E0,0E0,0E0,0E0,0E0,0E0,0E0],"parents":[2147483647,0,0,1,1,2,2,3,3,4,4,7,7,9,9,10,10,11,11,12,12,14,14,17,17,18,18,20,20],"right_children":[2,4,6,8,10,-1,-1,12,-1,14,16,18,20,-1,22,-1,-1,24,26,-1,28,-1,-1,-1,-1,-1,-1,-1,-1],"split_conditions":[7.0746987E3,1.3493938E3,7.4366025E3,1.0817059E3,4.694897E3,-7.573005E-2,9.4074995E-4,2.2715201E2,-5.675601E-2,1.8161771E3,5.8461455E3,1.8494298E2,2.9524634E2,2.8362395E-3,3.363416E3,2.8675604E-3,1.4805222E-3,1.8149492E2,1.8936938E2,2.266938E-2,5.217855E2,-2.0931625E-4,-5.263591E-3,-1.5693337E-4,4.2136135E-3,-3.4790135E-3,-7.187586E-3,-3.9104037E-3,1.8460957E-3],"split_indices":[0,0,0,0,0,0,0,0,0,0,0,0,0,0,0,0,0,0,0,0,0,0,0,0,0,0,0,0,0],"sum_hessian":[1.052E3,1.008E3,4.4E1,8.96E2,1.12E2,1E0,4.3E1,8.95E2,1E0,6.9E1,4.3E1,8.05E2,9E1,3.6E1,3.3E1,3.9E1,4E0,7.67E2,3.8E1,4E0,8.6E1,3.1E1,2E0,7.25E2,4.2E1,1.8E1,2E1,1.8E1,6.8E1],"tree_param":{"num_deleted":"0","num_feature":"1","num_nodes":"29","size_leaf_vector":"0"}},{"base_weights":[-1.15322255E-4,2.0828146E-4,-7.368674E-3,-3.6262027E-3,8.9260796E-4,-2.1456845E-1,2.2169678E-3,8.6351606E-4,-6.791554E-2,3.7161026E-2,4.2053568E-4,-2.3680509E-3,3.3609923E-2,-6.563553E-2,8.907446E-4,2.4481441E-3,-2.0344209E-2,3.3151466E-2,2.2570461E-4,-2.8977285E-3,2.163333E-2,-3.1212162E-2,-1.7791567E-2,-5.659031E-3,5.4835286E-2,-1.7000195E-2,7.182046E-4],"default_left":[true,true,true,true,true,false,false,true,false,false,true,true,false,false,true,true,true,true,true,false,false,false,false,false,false,false,false],"id":31,"leaf_child_counts":[0,0,0,0,0,0,0,0,0,0,0,0,0,0,0,0,0,0,0,0,0,0,0,0,0,0,0],"left_children":[1,3,5,7,9,-1,-1,11,-1,-1,13,15,-1,-1,17,19,21,23,25,-1,-1,-1,-1,-1,-1,-1,-1],"loss_changes":[2.4731485E-3,2.6508921E-3,8.985212E-2,4.422072E-2,1.4657338E-2,0E0,0E0,1.5317988E-2,0E0,0E0,2.6366413E-2,1.1477928E-2,0E0,0E0,1.8057352E-2,1.0831652E-2,2.2146199E-4,1.4616832E-2,7.019791E-3,0E0,0E0,0E0,0E0,0E0,0E0,0E0,0E0],"parents":[2147483647,0,0,1,1,2,2,3,3,4,4,7,7,10,10,11,11,14,14,15,15,16,16,17,17,18,18],"right_children":[2,4,6,8,10,-1,-1,12,-1,-1,14,16,-1,-1,18,20,22,24,26,-1,-1,-1,-1,-1,-1,-1,-1],"split_conditions":[7.0746987E3,9.489506E-1,7.4366025E3,9.0035784E-1,1.0223107E0,-6.4370535E-2,6.6509034E-4,8.180206E-1,-2.0374661E-2,1.1148308E-2,1.105345E0,6.9095874E-1,1.0082977E-2,-1.969066E-2,1.2154217E0,4.4507366E-1,7.5403106E-1,1.1509012E0,1.6959383E0,-8.6931855E-4,6.4899996E-3,-9.363649E-3,-5.33747E-3,-1.6977094E-3,1.6450586E-2,-5.1000584E-3,2.1546139E-4],"split_indices":[0,0,0,0,0,0,0,0,0,0,0,0,0,0,0,0,0,0,0,0,0,0,0,0,0,0,0],"sum_hessian":[1.052E3,1.008E3,4.4E1,1.52E2,8.56E2,1E0,4.3E1,1.43E2,9E0,1E1,8.46E2,1.31E2,1.2E1,5E0,8.41E2,1.04E2,2.7E1,1.6E1,8.25E2,8.2E1,2.2E1,3E0,2.4E1,6E0,1E1,2.2E1,8.03E2],"tree_param":{"num_deleted":"0","num_feature":"1","num_nodes":"27","size_leaf_vector":"0"}},{"base_weights":[-1.5832718E-4,2.8652532E-3,-1.138133E-3,1.6810211E-3,1.5360647E-1,-8.385136E-3,1.7338184E-4,2.5832208E-3,-1.14641055E-1,-4.5421924E-3,-1.9519513E-2,4.0164024E-2,-3.6648198E-4,1.6342801E-3,1.2228155E-1,-1.1080946E-2,4.7841703E-4,-2.1052962E-2,-9.621314E-3,4.944714E-3,-1.7110317E-3,-1.3366963E-3,1.3842017E-2,-3.803189E-2,-9.414719E-3,1.4885821E-2,-7.3564146E-3,-1.6221011E-2,-4.3573443E-2,-3.47923E-3,-1.1822548E-2,-1.971943E-3,2.4020297E-2,-1.5229029E-2,8.161301E-4,1.871602E-5,-1.2121878E-2,2.1358224E-2,-2.8287847E-2,1.5606174E-3,-3.3921048E-2,-5.418753E-3,-1.22367956E-1,2.1294886E-2,-1.8548259E-3],"default_left":[true,true,true,true,false,true,true,true,false,true,true,false,true,true,false,true,true,true,true,true,true,true,true,false,false,false,false,false,false,false,false,true,false,true,true,false,false,false,false,false,false,false,false,false,false],"id":32,"leaf_child_counts":[0,0,0,0,0,0,0,0,0,0,0,0,0,0,0,0,0,0,0,0,0,0,0,0,0,0,0,0,0,0,0,0,0,0,0,0,0,0,0,0,0,0,0,0,0],"left_children":[1,3,5,7,-1,9,11,13,-1,15,17,-1,19,21,-1,23,25,27,29,31,33,35,37,-1,-1,-1,-1,-1,-1,-1,-1,39,-1,41,43,-1,-1,-1,-1,-1,-1,-1,-1,-1,-1],"loss_changes":[3.1227963E-3,4.579804E-2,7.567078E-3,2.72672E-2,0E0,5.1315697E-3,1.4587632E-2,2.8878333E-2,0E0,3.0255262E-3,2.6797317E-4,0E0,4.771619E-3,9.267071E-3,0E0,1.4381958E-3,6.092124E-3,2.122459E-3,3.9987615E-5,1.7859166E-2,1.8220862E-2,3.0116108E-3,1.6437015E-2,0E0,0E0,0E0,0E0,0E0,0E0,0E0,0E0,1.1339153E-2,0E0,8.762616E-2,2.4653533E-2,0E0,0E0,0E0,0E0,0E0,0E0,0E0,0E0,0E0,0E0],"parents":[2147483647,0,0,1,1,2,2,3,3,5,5,6,6,7,7,9,9,10,10,12,12,13,13,15,15,16,16,17,17,18,18,19,19,20,20,21,21,22,22,31,31,33,33,34,34],"right_children":[2,4,6,8,-1,10,12,14,-1,16,18,-1,20,22,-1,24,26,28,30,32,34,36,38,-1,-1,-1,-1,-1,-1,-1,-1,40,-1,42,44,-1,-1,-1,-1,-1,-1,-1,-1,-1,-1],"split_conditions":[3.3015904E0,2.6782374E0,2.6835484E1,2.489828E0,4.6081945E-2,5.077314E0,3.0621353E1,2.462257E0,-3.439232E-2,4.2878733E0,1.7466358E1,1.2049207E-2,9.31828E1,1.6959383E0,3.668447E-2,3.8203459E0,4.7423897E0,9.429336E0,2.384575E1,8.417426E1,1.3360759E2,1.2154217E0,1.8932416E0,-1.1409568E-2,-2.824416E-3,4.4657467E-3,-2.2069244E-3,-4.8663034E-3,-1.3072033E-2,-1.0437691E-3,-3.5467644E-3,7.643015E1,7.2060893E-3,1.19494705E2,1.4651758E2,5.6148065E-6,-3.6365634E-3,6.407467E-3,-8.486355E-3,4.6818523E-4,-1.0176315E-2,-1.6256259E-3,-3.671039E-2,6.3884663E-3,-5.564478E-4],"split_indices":[0,0,0,0,0,0,0,0,0,0,0,0,0,0,0,0,0,0,0,0,0,0,0,0,0,0,0,0,0,0,0,0,0,0,0,0,0,0,0,0,0,0,0,0,0],"sum_hessian":[1.052E3,2.57E2,7.95E2,2.56E2,1E0,1.21E2,6.74E2,2.55E2,1E0,9.1E1,3E1,8E0,6.66E2,2.54E2,1E0,3.9E1,5.2E1,2.5E1,5E0,1.34E2,5.32E2,2.05E2,4.9E1,1E0,3.8E1,1.8E1,3.4E1,2.2E1,3E0,2E0,3E0,9.9E1,3.5E1,8.3E1,4.49E2,1.83E2,2.2E1,4.2E1,7E0,9E1,9E0,7.7E1,6E0,5.1E1,3.98E2],"tree_param":{"num_deleted":"0","num_feature":"1","num_nodes":"45","size_leaf_vector":"0"}},{"base_weights":[-1.2482174E-4,2.171167E-3,-8.688422E-4,1.1635409E-3,1.3056552E-1,-6.152415E-3,8.740191E-5,1.9293743E-3,-9.74449E-2,-3.3096992E-3,-1.4390398E-2,1.753044E-2,-5.8258785E-4,1.1217303E-3,1.03939295E-1,-3.2327108E-2,-2.6355835E-3,-1.1566287E-2,-2.0008637E-2,2.9453628E-2,1.0186961E-2,-4.693088E-2,2.1368952E-4,-2.5069427E-3,8.807917E-3,-6.6627227E-3,3.7751088E-4,-3.3769418E-2,-7.5000115E-3,1.97785E-2,-8.8074664E-4,6.058507E-4,-1.68855E-2,3.9875064E-2,3.939216E-3,1.0655118E-2,-5.2125477E-3,-2.7833853E-3,-9.162478E-3,3.8714064E-3,2.7235627E-1,-6.046528E-2,-8.614263E-5],"default_left":[true,true,true,true,false,true,true,true,false,true,true,true,true,true,false,false,true,false,true,false,false,false,true,true,true,false,true,false,true,true,true,false,false,false,false,false,false,false,false,false,false,false,false],"id":33,"leaf_child_counts":[0,0,0,0,0,0,0,0,0,0,0,0,0,0,0,0,0,0,0,0,0,0,0,0,0,0,0,0,0,0,0,0,0,0,0,0,0,0,0,0,0,0,0],"left_children":[1,3,5,7,-1,9,11,13,-1,15,17,19,21,23,-1,-1,25,-1,27,-1,-1,-1,29,31,33,-1,35,-1,37,39,41,-1,-1,-1,-1,-1,-1,-1,-1,-1,-1,-1,-1],"loss_changes":[1.8006868E-3,3.3226445E-2,4.0222364E-3,1.959604E-2,0E0,2.8093983E-3,7.898706E-3,2.097466E-2,0E0,1.7144192E-3,2.6043644E-4,1.8888991E-3,2.4035897E-2,7.134199E-3,0E0,0E0,1.106723E-3,0E0,1.2958851E-3,0E0,0E0,0E0,1.3742791E-2,7.798032E-3,1.2245968E-2,0E0,3.1005193E-3,0E0,2.1544693E-5,1.3555005E-1,2.8781226E-2,0E0,0E0,0E0,0E0,0E0,0E0,0E0,0E0,0E0,0E0,0E0,0E0],"parents":[2147483647,0,0,1,1,2,2,3,3,5,5,6,6,7,7,9,9,10,10,11,11,12,12,13,13,16,16,18,18,22,22,23,23,24,24,26,26,28,28,29,29,30,30],"right_children":[2,4,6,8,-1,10,12,14,-1,16,18,20,22,24,-1,-1,26,-1,28,-1,-1,-1,30,32,34,-1,36,-1,38,40,42,-1,-1,-1,-1,-1,-1,-1,-1,-1,-1,-1,-1],"split_conditions":[3.3015904E0,2.6782374E0,2.6835484E1,2.489828E0,3.9169658E-2,5.077314E0,3.386701E1,2.462257E0,-2.923347E-2,3.8203459E0,9.429336E0,3.0621353E1,3.5115788E1,1.1509012E0,3.118179E-2,-9.698133E-3,4.2878733E0,-3.4698863E-3,1.7466358E1,8.836089E-3,3.0560885E-3,-1.4079264E-2,6.715033E1,9.0035784E-1,1.2154217E0,-1.9988168E-3,4.7423897E0,-1.0130825E-2,2.384575E1,6.1208298E1,7.216625E1,1.8175523E-4,-5.06565E-3,1.196252E-2,1.1817649E-3,3.1965356E-3,-1.5637644E-3,-8.350156E-4,-2.7487436E-3,1.161422E-3,8.170688E-2,-1.8139584E-2,-2.584279E-5],"split_indices":[0,0,0,0,0,0,0,0,0,0,0,0,0,0,0,0,0,0,0,0,0,0,0,0,0,0,0,0,0,0,0,0,0,0,0,0,0,0,0,0,0,0,0],"sum_hessian":[1.052E3,2.57E2,7.95E2,2.56E2,1E0,1.21E2,6.74E2,2.55E2,1E0,9.1E1,3E1,2.4E1,6.5E2,2.54E2,1E0,1E0,9E1,2.2E1,8E0,8E0,1.6E1,1E1,6.4E2,1.73E2,8.1E1,3.8E1,5.2E1,3E0,5E0,3.3E1,6.07E2,1.43E2,3E1,1E1,7.1E1,1.8E1,3.4E1,2E0,3E0,3.2E1,1E0,7E0,6E2],"tree_param":{"num_deleted":"0","num_feature":"1","num_nodes":"43","size_leaf_vector":"0"}},{"base_weights":[-6.9609896E-6,2.6049363E-4,-6.0037333E-3,-8.178803E-4,2.522295E-3,-1.8209204E-1,2.136729E-3,5.763292E-4,-4.2797107E-2,9.726711E-2,-7.837658E-4,-4.6678705E-4,1.1067427E-2,-1.3576598E-1,-2.0972235E-2,-2.5084283E-2,2.0426456E-3,5.923395E-4,-9.087977E-2,1.5054456E-2,-1.3198455E-2,1.0288188E-2,5.690876E-4,-1.61367E-4,1.0835654E-2,1.0204567E-2,1.827089E-2,-1.2901378E-2,3.141534E-3],"default_left":[true,true,true,true,true,false,false,true,true,false,true,true,true,false,false,false,true,true,false,true,false,false,true,false,false,false,false,false,false],"id":34,"leaf_child_counts":[0,0,0,0,0,0,0,0,0,0,0,0,0,0,0,0,0,0,0,0,0,0,0,0,0,0,0,0,0],"left_children":[1,3,5,7,9,-1,-1,11,13,-1,15,17,19,-1,-1,-1,21,23,-1,25,-1,-1,27,-1,-1,-1,-1,-1,-1],"loss_changes":[1.6904334E-3,2.4630823E-3,6.48939E-2,4.0057708E-2,1.0218991E-1,0E0,0E0,7.2606634E-3,4.1791424E-2,0E0,2.1755146E-2,5.789214E-2,6.003622E-3,0E0,0E0,0E0,3.4448262E-3,4.618579E-3,0E0,6.247191E-4,0E0,0E0,8.426327E-3,0E0,0E0,0E0,0E0,0E0,0E0],"parents":[2147483647,0,0,1,1,2,2,3,3,4,4,7,7,8,8,10,10,11,11,12,12,16,16,17,17,19,19,22,22],"right_children":[2,4,6,8,10,-1,-1,12,14,-1,16,18,20,-1,-1,-1,22,24,-1,26,-1,-1,28,-1,-1,-1,-1,-1,-1],"split_conditions":[7.0746987E3,1.574982E2,7.4366025E3,1.4852106E2,1.7213618E2,-5.4627616E-2,6.4101873E-4,1.3360759E2,1.4930383E2,2.9180136E-2,1.8149492E2,1.19494705E2,1.4651758E2,-4.07298E-2,-6.2916707E-3,-7.5252852E-3,1.8494298E2,1.06784225E2,-2.7263932E-2,1.4181688E2,-3.9595366E-3,3.0864566E-3,2.2715201E2,-4.8410104E-5,3.2506965E-3,3.0613702E-3,5.481267E-3,-3.8704134E-3,9.4246026E-4],"split_indices":[0,0,0,0,0,0,0,0,0,0,0,0,0,0,0,0,0,0,0,0,0,0,0,0,0,0,0,0,0],"sum_hessian":[1.052E3,1.008E3,4.4E1,6.83E2,3.25E2,1E0,4.3E1,6.62E2,2.1E1,1E1,3.15E2,6.03E2,5.9E1,3E0,1.8E1,3.2E1,2.83E2,5.97E2,6E0,5.1E1,8E0,4.2E1,2.41E2,5.57E2,4E1,2.2E1,2.9E1,3.8E1,2.03E2],"tree_param":{"num_deleted":"0","num_feature":"1","num_nodes":"29","size_leaf_vector":"0"}},{"base_weights":[-9.860518E-5,1.2953155E-3,-1.4609579E-3,1.2292873E-4,1.7086554E-2,-1.9420216E-2,-8.2101535E-5,6.429743E-4,-2.4695538E-2,7.664225E-3,-7.784114E-4,-4.6197994E-5,1.9293884E-2,-1.03070155E-1,-4.5350078E-3,3.98726E-3,8.064157E-3,-6.751068E-2,2.6137588E-4,9.88342E-4,-3.8837597E-2,1.0702398E-2,-1.1000138E-3,-3.0402697E-4,7.2429724E-2,-9.8507814E-2,-8.00221E-3,7.276325E-3,1.2972307E-2,-4.2332027E-2,1.7803806E-4],"default_left":[true,true,true,true,false,false,true,true,true,true,true,true,false,false,false,false,false,false,true,true,true,true,true,false,false,false,false,false,false,false,false],"id":35,"leaf_child_counts":[0,0,0,0,0,0,0,0,0,0,0,0,0,0,0,0,0,0,0,0,0,0,0,0,0,0,0,0,0,0,0],"left_children":[1,3,5,7,-1,-1,9,11,13,15,17,19,-1,-1,-1,-1,-1,-1,21,23,25,27,29,-1,-1,-1,-1,-1,-1,-1,-1],"loss_changes":[2.0015517E-3,9.643401E-3,1.3197212E-2,6.2885513E-3,0E0,0E0,2.6813122E-3,6.1321016E-3,1.5333314E-2,2.8138282E-5,3.165828E-2,1.8538892E-2,0E0,0E0,0E0,0E0,0E0,0E0,6.408208E-3,4.1569903E-2,2.129117E-2,3.1000655E-4,2.1033503E-2,0E0,0E0,0E0,0E0,0E0,0E0,0E0,0E0],"parents":[2147483647,0,0,1,1,2,2,3,3,6,6,7,7,8,8,9,9,10,10,11,11,18,18,19,19,20,20,21,21,22,22],"right_children":[2,4,6,8,-1,-1,10,12,14,16,18,20,-1,-1,-1,-1,-1,-1,22,24,26,28,30,-1,-1,-1,-1,-1,-1,-1,-1],"split_conditions":[9.31828E1,8.417426E1,1.06784225E2,7.643015E1,5.1259664E-3,-5.826065E-3,1.19494705E2,7.274704E1,8.146624E1,1.15237465E2,1.3360759E2,6.976291E1,5.788165E-3,-3.0921048E-2,-1.3605023E-3,1.1961781E-3,2.4192473E-3,-2.0253204E-2,1.4651758E2,4.6100952E1,7.216625E1,1.4181688E2,1.4930383E2,-9.1208094E-5,2.1728918E-2,-2.9552346E-2,-2.4006632E-3,2.1828976E-3,3.8916923E-3,-1.2699609E-2,5.341142E-5],"split_indices":[0,0,0,0,0,0,0,0,0,0,0,0,0,0,0,0,0,0,0,0,0,0,0,0,0,0,0,0,0,0,0],"sum_hessian":[1.052E3,5.2E2,5.32E2,4.85E2,3.5E1,3.7E1,4.95E2,4.76E2,9E0,4E1,4.55E2,4.6E2,1.6E1,1E0,8E0,5E0,3.5E1,6E0,4.49E2,4.49E2,1.1E1,5.1E1,3.98E2,4.42E2,7E0,3E0,8E0,2.2E1,2.9E1,1.1E1,3.87E2],"tree_param":{"num_deleted":"0","num_feature":"1","num_nodes":"31","size_leaf_vector":"0"}},{"base_weights":[-1.2664922E-4,1.8500845E-3,-7.6719024E-4,9.930772E-4,1.1105049E-1,-2.213802E-3,9.043513E-4,1.643506E-3,-8.275835E-2,-6.806249E-4,-3.0407257E-2,7.069119E-2,-1.2305364E-3,9.564747E-4,8.8418245E-2,-1.9783005E-3,6.8356087E-3,-9.569392E-2,-1.5062314E-2,-1.7838815E-2,4.4417015E-4,-2.4037429E-3,5.9385793E-3,-9.83621E-4,-5.0150782E-2,7.608644E-3,1.6096698E-3,7.221355E-3,-5.7633023E-4,5.6398526E-4,-4.489865E-2,3.1753138E-2,2.821389E-3,-3.767926E-3,1.3568909E-3,5.1883226E-3,9.210602E-3,-9.1822585E-3,7.793453E-4],"default_left":[true,true,true,true,false,true,true,true,false,true,true,false,true,true,false,true,true,false,false,false,true,true,true,true,false,true,false,false,true,false,false,false,false,false,false,false,false,false,false],"id":36,"leaf_child_counts":[0,0,0,0,0,0,0,0,0,0,0,0,0,0,0,0,0,0,0,0,0,0,0,0,0,0,0,0,0,0,0,0,0,0,0,0,0,0,0],"left_children":[1,3,5,7,-1,9,11,13,-1,15,17,-1,19,21,-1,23,25,-1,-1,-1,27,29,31,33,-1,35,-1,-1,37,-1,-1,-1,-1,-1,-1,-1,-1,-1,-1],"loss_changes":[1.3347059E-3,2.4034789E-2,1.9267868E-3,1.413592E-2,0E0,1.8436614E-2,5.5212196E-2,1.5177373E-2,0E0,3.9734975E-3,2.0598672E-2,0E0,1.0020961E-2,4.2832186E-3,0E0,1.6577583E-2,2.3014261E-4,0E0,0E0,0E0,2.2726492E-3,1.9320665E-2,8.198709E-3,2.2273068E-3,0E0,1.5382981E-4,0E0,0E0,3.3438741E-3,0E0,0E0,0E0,0E0,0E0,0E0,0E0,0E0,0E0,0E0],"parents":[2147483647,0,0,1,1,2,2,3,3,5,5,6,6,7,7,9,9,10,10,12,12,13,13,15,15,16,16,20,20,21,21,22,22,23,23,25,25,28,28],"right_children":[2,4,6,8,-1,10,12,14,-1,16,18,-1,20,22,-1,24,26,-1,-1,-1,28,30,32,34,-1,36,-1,-1,38,-1,-1,-1,-1,-1,-1,-1,-1,-1,-1],"split_conditions":[3.3015904E0,2.6782374E0,1.574982E2,2.489828E0,3.331515E-2,1.4852106E2,1.7213618E2,2.462257E0,-2.4827506E-2,1.3360759E2,1.4930383E2,2.1207359E-2,1.8149492E2,9.489506E-1,2.6525475E-2,1.19494705E2,1.4651758E2,-2.8708179E-2,-4.5186947E-3,-5.351645E-3,1.8494298E2,9.0035784E-1,1.0223107E0,3.5115788E1,-1.5045235E-2,1.4181688E2,4.8290094E-4,2.1664067E-3,2.2715201E2,1.6919558E-4,-1.3469596E-2,9.525942E-3,8.464167E-4,-1.1303779E-3,4.0706727E-4,1.5564968E-3,2.7631808E-3,-2.7546776E-3,2.338036E-4],"split_indices":[0,0,0,0,0,0,0,0,0,0,0,0,0,0,0,0,0,0,0,0,0,0,0,0,0,0,0,0,0,0,0,0,0,0,0,0,0,0,0],"sum_hessian":[1.052E3,2.57E2,7.95E2,2.56E2,1E0,4.26E2,3.69E2,2.55E2,1E0,4.05E2,2.1E1,1E1,3.59E2,2.54E2,1E0,3.46E2,5.9E1,3E0,1.8E1,3.2E1,3.27E2,1.52E2,1.02E2,3.4E2,6E0,5.1E1,8E0,4.2E1,2.85E2,1.43E2,9E0,1E1,9.2E1,1.55E2,1.85E2,2.2E1,2.9E1,3.8E1,2.47E2],"tree_param":{"num_deleted":"0","num_feature":"1","num_nodes":"39","size_leaf_vector":"0"}},{"base_weights":[-8.546066E-5,1.6429681E-4,-5.683679E-3,-4.5065894E-3,4.696034E-4,-1.5492183E-1,1.2290478E-3,6.4233853E-3,-1.067866E-2,2.8281724E-2,-3.8203103E-5,-1.5418747E-2,-4.628103E-3,-6.4733274E-2,3.805764E-4,-7.1126237E-3,-2.6626188E-2,6.792744E-2,-5.94038E-5,-1.0596808E-2,4.8073582E-4],"default_left":[true,true,true,true,true,false,false,false,true,false,true,true,false,false,true,false,false,false,true,false,false],"id":37,"leaf_child_counts":[0,0,0,0,0,0,0,0,0,0,0,0,0,0,0,0,0,0,0,0,0],"left_children":[1,3,5,7,9,-1,-1,-1,11,-1,13,15,-1,-1,17,-1,-1,-1,19,-1,-1],"loss_changes":[1.4732351E-3,1.4410029E-3,4.661432E-2,4.251149E-3,1.3389851E-2,0E0,0E0,0E0,1.0758471E-3,0E0,2.5275284E-2,1.8586065E-3,0E0,0E0,2.7553812E-2,0E0,0E0,0E0,5.2528135E-3,0E0,0E0],"parents":[2147483647,0,0,1,1,2,2,3,3,4,4,8,8,10,10,11,11,14,14,18,18],"right_children":[2,4,6,8,10,-1,-1,-1,12,-1,14,16,-1,-1,18,-1,-1,-1,20,-1,-1],"split_conditions":[7.0746987E3,3.2588434E-1,7.4366025E3,1.3771379E-1,3.8507906E-1,-4.647655E-2,3.6871436E-4,1.9270157E-3,2.981806E-1,8.484517E-3,4.4507366E-1,2.3407894E-1,-1.3884311E-3,-1.9419983E-2,5.4023886E-1,-2.1337871E-3,-7.987857E-3,2.0378234E-2,8.180206E-1,-3.1790426E-3,1.4422076E-4],"split_indices":[0,0,0,0,0,0,0,0,0,0,0,0,0,0,0,0,0,0,0,0,0],"sum_hessian":[1.052E3,1.008E3,4.4E1,6.1E1,9.47E2,1E0,4.3E1,2.2E1,3.9E1,1.6E1,9.31E2,2.1E1,1.8E1,5E0,9.26E2,1.3E1,8E0,5E0,9.21E2,4.4E1,8.77E2],"tree_param":{"num_deleted":"0","num_feature":"1","num_nodes":"21","size_leaf_vector":"0"}},{"base_weights":[-1.06661304E-4,1.11801346E-4,-5.002709E-3,-1.3793794E-4,5.592173E-3,-1.3168356E-1,8.692091E-4,9.1801875E-4,-1.3711565E-3,5.783224E-3,2.9453277E-3,1.2731647E-4,1.1566999E-2,-1.4284238E-2,-1.680556E-4,5.702047E-4,-2.1011185E-2,4.9152626E-3,-7.324133E-4,9.853138E-5,1.3327334E-2,-8.7885275E-2,-3.815699E-3,2.5310442E-3,5.176097E-3,-3.7378486E-2,-2.3722054E-5],"default_left":[true,true,true,true,true,false,false,true,true,false,false,true,false,false,true,true,true,true,true,false,false,false,false,false,false,false,false],"id":38,"leaf_child_counts":[0,0,0,0,0,0,0,0,0,0,0,0,0,0,0,0,0,0,0,0,0,0,0,0,0,0,0],"left_children":[1,3,5,7,9,-1,-1,11,13,-1,-1,15,-1,-1,17,19,21,23,25,-1,-1,-1,-1,-1,-1,-1,-1],"loss_changes":[1.126852E-3,1.3817534E-3,3.3588145E-2,1.2592084E-3,5.216687E-6,0E0,0E0,4.3854374E-3,6.92654E-3,0E0,0E0,4.5619095E-3,0E0,0E0,1.1769431E-3,2.86889E-3,1.1163982E-2,1.23964855E-5,9.58232E-3,0E0,0E0,0E0,0E0,0E0,0E0,0E0,0E0],"parents":[2147483647,0,0,1,1,2,2,3,3,4,4,7,7,8,8,11,11,14,14,15,15,16,16,17,17,18,18],"right_children":[2,4,6,8,10,-1,-1,12,14,-1,-1,16,-1,-1,18,20,22,24,26,-1,-1,-1,-1,-1,-1,-1,-1],"split_conditions":[7.0746987E3,4.694897E3,7.4366025E3,9.31828E1,5.8461455E3,-3.950507E-2,2.6076275E-4,8.417426E1,1.06784225E2,1.7349672E-3,8.8359835E-4,7.643015E1,3.4701E-3,-4.2852717E-3,1.19494705E2,7.274704E1,8.146624E1,1.15237465E2,1.3360759E2,2.9559416E-5,3.9982004E-3,-2.6365584E-2,-1.1447098E-3,7.593133E-4,1.5528292E-3,-1.1213547E-2,-7.1166164E-6],"split_indices":[0,0,0,0,0,0,0,0,0,0,0,0,0,0,0,0,0,0,0,0,0,0,0,0,0,0,0],"sum_hessian":[1.052E3,1.008E3,4.4E1,9.65E2,4.3E1,1E0,4.3E1,5.2E2,4.45E2,3.9E1,4E0,4.85E2,3.5E1,3.7E1,4.08E2,4.76E2,9E0,4E1,3.68E2,4.6E2,1.6E1,1E0,8E0,5E0,3.5E1,6E0,3.62E2],"tree_param":{"num_deleted":"0","num_feature":"1","num_nodes":"27","size_leaf_vector":"0"}},{"base_weights":[-1.4099095E-4,1.604663E-3,-7.066162E-4,8.77008E-4,9.430599E-2,-2.6929934E-2,-6.397568E-4,1.4306798E-3,-7.0431486E-2,-1.6458109E-3,5.2029407E-4,8.475161E-4,7.506871E-2,-4.8577186E-4,-2.2926265E-2,5.1287122E-2,-1.0323598E-3,1.6026262E-3,-2.2666834E-2,-1.3888727E-3,4.7302055E-3,-7.4265614E-2,-1.0911338E-2,-1.2782289E-2,1.5294504E-4,-8.0190174E-4,1.3084722E-2,-5.1441472E-2,-1.12073915E-2,-8.417112E-4,-2.776688E-2,5.2747186E-3,1.058552E-3,4.971443E-3,-5.7204923E-4],"default_left":[true,true,true,true,false,false,true,true,false,true,true,true,false,true,true,false,true,true,true,true,true,false,false,false,true,false,false,false,false,false,false,false,false,false,false],"id":39,"leaf_child_counts":[0,0,0,0,0,0,0,0,0,0,0,0,0,0,0,0,0,0,0,0,0,0,0,0,0,0,0,0,0,0,0,0,0,0,0],"left_children":[1,3,5,7,-1,-1,9,11,-1,13,15,17,-1,19,21,-1,23,25,27,29,31,-1,-1,-1,33,-1,-1,-1,-1,-1,-1,-1,-1,-1,-1],"loss_changes":[1.0408513E-3,1.7320575E-2,1.3783792E-3,1.0247511E-2,0E0,0E0,9.286802E-4,1.0929793E-2,0E0,1.0505168E-2,2.9217573E-2,4.564087E-3,0E0,1.9143439E-3,1.2760111E-2,0E0,5.0157644E-3,6.8575297E-3,2.0614062E-3,4.970457E-3,1.1437223E-4,0E0,0E0,0E0,1.1486738E-3,0E0,0E0,0E0,0E0,0E0,0E0,0E0,0E0,0E0,0E0],"parents":[2147483647,0,0,1,1,2,2,3,3,6,6,7,7,9,9,10,10,11,11,13,13,14,14,16,16,17,17,18,18,19,19,20,20,24,24],"right_children":[2,4,6,8,-1,-1,10,12,-1,14,16,18,-1,20,22,-1,24,26,28,30,32,-1,-1,-1,34,-1,-1,-1,-1,-1,-1,-1,-1,-1,-1],"split_conditions":[3.3015904E0,2.6782374E0,3.8203459E0,2.489828E0,2.82918E-2,-8.07898E-3,1.574982E2,2.462257E0,-2.1129446E-2,1.4852106E2,1.7213618E2,1.8932416E0,2.2520615E-2,1.3360759E2,1.4930383E2,1.5386137E-2,1.8149492E2,1.6959383E0,2.2435308E0,1.19494705E2,1.4651758E2,-2.2279685E-2,-3.2734016E-3,-3.8346867E-3,1.8494298E2,-2.4057053E-4,3.9254166E-3,-1.5432443E-2,-3.3622177E-3,-2.5251336E-4,-8.330064E-3,1.5824157E-3,3.175656E-4,1.491433E-3,-1.7161478E-4],"split_indices":[0,0,0,0,0,0,0,0,0,0,0,0,0,0,0,0,0,0,0,0,0,0,0,0,0,0,0,0,0,0,0,0,0,0,0],"sum_hessian":[1.052E3,2.57E2,7.95E2,2.56E2,1E0,1E0,7.94E2,2.55E2,1E0,4.25E2,3.69E2,2.54E2,1E0,4.04E2,2.1E1,1E1,3.59E2,2.47E2,7E0,3.45E2,5.9E1,3E0,1.8E1,3.2E1,3.27E2,2.05E2,4.2E1,1E0,6E0,3.39E2,6E0,5.1E1,8E0,4.2E1,2.85E2],"tree_param":{"num_deleted":"0","num_feature":"1","num_nodes":"35","size_leaf_vector":"0"}},{"base_weights":[-1.1090361E-4,7.186786E-5,-4.2065815E-3,-2.70103E-4,2.7858145E-3,-1.1184522E-1,7.8168785E-4,8.946819E-5,-1.6122293E-1,5.8884686E-3,1.2587495E-3,-2.3575392E-4,5.3726067E-3,-2.5085036E-3,4.141201E-3,3.6555623E-5,-6.35617E-3,-1.2976117E-3,-1.4588515E-2,-3.1541268E-4,5.6766532E-2,-1.0114855E-2,-2.0355482E-3],"default_left":[true,true,true,true,true,false,false,true,false,false,true,true,false,true,false,true,true,false,false,false,false,false,false],"id":40,"leaf_child_counts":[0,0,0,0,0,0,0,0,0,0,0,0,0,0,0,0,0,0,0,0,0,0,0],"left_children":[1,3,5,7,9,-1,-1,11,-1,-1,13,15,-1,17,-1,19,21,-1,-1,-1,-1,-1,-1],"loss_changes":[7.885497E-4,9.371959E-4,2.42493E-2,5.19274E-2,5.279768E-4,0E0,0E0,1.5407678E-3,0E0,0E0,8.465253E-4,1.4085496E-3,0E0,4.7840772E-4,0E0,1.61913E-2,5.640456E-4,0E0,0E0,0E0,0E0,0E0,0E0],"parents":[2147483647,0,0,1,1,2,2,3,3,4,4,7,7,10,10,11,11,13,13,15,15,16,16],"right_children":[2,4,6,8,10,-1,-1,12,-1,-1,14,16,-1,18,-1,20,22,-1,-1,