{"learner":{"attributes":{"scikit_learn":"{\"n_estimators\": 100, \"objective\": \"reg:squarederror\", \"max_depth\": null, \"learning_rate\": null, \"verbosity\": null, \"booster\": null, \"tree_method\": null, \"gamma\": null, \"min_child_weight\": null, \"max_delta_step\": null, \"subsample\": null, \"colsample_bytree\": null, \"colsample_bylevel\": null, \"colsample_bynode\": null, \"reg_alpha\": null, \"reg_lambda\": null, \"scale_pos_weight\": null, \"base_score\": null, \"missing\": NaN, \"num_parallel_tree\": null, \"kwargs\": {}, \"random_state\": 42, \"n_jobs\": null, \"monotone_constraints\": null, \"interaction_constraints\": null, \"importance_type\": \"gain\", \"gpu_id\": null, \"validate_parameters\": null, \"n_features_in_\": 3, \"type\": \"XGBRegressor\"}"},"gradient_booster":{"model":{"gbtree_model_param":{"num_trees":"100","size_leaf_vector":"0"},"tree_info":[0,0,0,0,0,0,0,0,0,0,0,0,0,0,0,0,0,0,0,0,0,0,0,0,0,0,0,0,0,0,0,0,0,0,0,0,0,0,0,0,0,0,0,0,0,0,0,0,0,0,0,0,0,0,0,0,0,0,0,0,0,0,0,0,0,0,0,0,0,0,0,0,0,0,0,0,0,0,0,0,0,0,0,0,0,0,0,0,0,0,0,0,0,0,0,0,0,0,0,0],"trees":[{"base_weights":[4.2391953E0,-6.7748666E-2,2.4781744E1,1.5437618E0,-2.6998803E-1,-4.1051564E-1,1.8645E-1,-4.1884425E-1,-2.0671429E-1,1.0244445E-1,2.4408695E-1],"default_left":[true,true,false,false,true,true,true,false,false,false,false],"id":0,"leaf_child_counts":[0,0,0,0,0,0,0,0,0,0,0],"left_children":[1,3,-1,-1,5,7,9,-1,-1,-1,-1],"loss_changes":[1.990869E4,6.136213E1,0E0,0E0,1.0788279E1,1.306858E-1,1.6866767E-1,0E0,0E0,0E0,0E0],"parents":[2147483647,0,0,1,1,4,4,5,5,6,6],"right_children":[2,4,-1,-1,6,8,10,-1,-1,-1,-1],"split_conditions":[5.42058E2,5.1961875E-1,7.4345236E0,4.6312857E-1,2.8376257E2,1.6091895E2,6.1328766E2,-1.2565328E-1,-6.201429E-2,3.0733336E-2,7.322609E-2],"split_indices":[2,0,0,0,0,0,0,0,0,0,0],"sum_hessian":[2.24E2,1.86E2,3.8E1,2E1,1.66E2,1.27E2,3.9E1,1.21E2,6E0,1.7E1,2.2E1],"tree_param":{"num_deleted":"0","num_feature":"3","num_nodes":"11","size_leaf_vector":"0"}},{"base_weights":[3.0021653E0,-4.539509E-2,1.753785E1,1.102687E0,-1.8949288E-1,-2.888271E-1,1.3311398E-1,-3.179808E-1,-2.4693424E-1,7.3418505E-2,1.7404461E-1,-2.8629816E-1,-2.1601921E-1,-2.999794E-1,-9.965715E-2],"default_left":[true,true,false,false,true,true,true,false,true,false,false,true,false,false,false],"id":1,"leaf_child_counts":[0,0,0,0,0,0,0,0,0,0,0,0,0,0,0],"left_children":[1,3,-1,-1,5,7,9,-1,11,-1,-1,13,-1,-1,-1],"loss_changes":[9.96793E3,3.1145502E1,0E0,0E0,5.3901134E0,7.781029E-2,8.4956825E-2,0E0,7.5194836E-3,0E0,0E0,2.6281476E-2,0E0,0E0,0E0],"parents":[2147483647,0,0,1,1,4,4,5,5,6,6,8,8,11,11],"right_children":[2,4,-1,-1,6,8,10,-1,12,-1,-1,14,-1,-1,-1],"split_conditions":[5.42058E2,5.1961875E-1,5.261355E0,3.308061E-1,2.8376257E2,6.3608894E1,6.1328766E2,-9.539425E-2,4.9413495E2,2.2025552E-2,5.2213386E-2,1.7890274E2,-6.480577E-2,-8.999382E-2,-2.9897146E-2],"split_indices":[2,0,0,0,0,0,0,0,2,0,0,0,0,0,0],"sum_hessian":[2.24E2,1.86E2,3.8E1,2E1,1.66E2,1.27E2,3.9E1,7.1E1,5.6E1,1.7E1,2.2E1,2.1E1,3.5E1,1.9E1,2E0],"tree_param":{"num_deleted":"0","num_feature":"3","num_nodes":"15","size_leaf_vector":"0"}},{"base_weights":[2.125455E0,-3.1108351E-2,1.24114E1,7.876336E-1,-1.3387765E-1,-2.0436718E-1,9.503577E-2,-2.3617528E-1,-1.8427633E-1,5.2616622E-2,1.2410138E-1,-2.0388427E-1,-1.5301359E-1,-2.0754932E-1,-7.972571E-2],"default_left":[true,true,false,false,true,true,true,false,true,false,false,true,false,false,false],"id":2,"leaf_child_counts":[0,0,0,0,0,0,0,0,0,0,0,0,0,0,0],"left_children":[1,3,-1,-1,5,7,9,-1,11,-1,-1,13,-1,-1,-1],"loss_changes":[4.9914014E3,1.5839912E1,0E0,0E0,2.7141337E0,3.827715E-2,4.278773E-2,0E0,1.968193E-2,0E0,0E0,5.295038E-3,0E0,0E0,0E0],"parents":[2147483647,0,0,1,1,4,4,5,5,6,6,8,8,11,11],"right_children":[2,4,-1,-1,6,8,10,-1,12,-1,-1,14,-1,-1,-1],"split_conditions":[5.42058E2,5.1961875E-1,3.7234201E0,2.3629008E-1,2.8376257E2,4.19975E2,6.1328766E2,-7.0852585E-2,4.9010333E2,1.5784988E-2,3.7230413E-2,1.7396451E2,-4.5904078E-2,-6.2264796E-2,-2.3917714E-2],"split_indices":[2,0,0,0,0,1,0,0,2,0,0,0,0,0,0],"sum_hessian":[2.24E2,1.86E2,3.8E1,2E1,1.66E2,1.27E2,3.9E1,4.5E1,8.2E1,1.7E1,2.2E1,4.7E1,3.5E1,4.5E1,2E0],"tree_param":{"num_deleted":"0","num_feature":"3","num_nodes":"15","size_leaf_vector":"0"}},{"base_weights":[1.5047506E0,-2.1313995E-2,8.783451E0,5.625954E-1,-9.46121E-2,-1.4464249E-1,6.785042E-2,-1.6686298E-1,-1.3058484E-1,3.7708584E-2,8.848966E-2,-1.4451446E-1,-1.0838464E-1],"default_left":[true,true,false,false,true,true,true,false,true,false,false,false,false],"id":3,"leaf_child_counts":[0,0,0,0,0,0,0,0,0,0,0,0,0],"left_children":[1,3,-1,-1,5,7,9,-1,11,-1,-1,-1,-1],"loss_changes":[2.4994348E3,8.056726E0,0E0,0E0,1.3672004E0,1.8193245E-2,2.1547362E-2,0E0,1.0003805E-2,0E0,0E0,0E0,0E0],"parents":[2147483647,0,0,1,1,4,4,5,5,6,6,8,8],"right_children":[2,4,-1,-1,6,8,10,-1,12,-1,-1,-1,-1],"split_conditions":[5.42058E2,5.1961875E-1,2.6350355E0,1.6877863E-1,2.8376257E2,4.19975E2,6.1328766E2,-5.0058898E-2,4.9010333E2,1.1312576E-2,2.65469E-2,-4.335434E-2,-3.251539E-2],"split_indices":[2,0,0,0,0,1,0,0,2,0,0,0,0],"sum_hessian":[2.24E2,1.86E2,3.8E1,2E1,1.66E2,1.27E2,3.9E1,4.5E1,8.2E1,1.7E1,2.2E1,4.7E1,3.5E1],"tree_param":{"num_deleted":"0","num_feature":"3","num_nodes":"13","size_leaf_vector":"0"}},{"base_weights":[1.0653952E0,-1.4488199E-2,6.21598E0,4.0185386E-1,-6.675583E-2,-1.0223355E-1,4.844177E-2,-1.0473951E-1,-4.395356E-2,2.702446E-2,6.309698E-2,-1.2407196E-1,-9.7377E-2,-3.6367502E-2,-1.0043018E-1],"default_left":[true,true,false,false,true,true,true,true,false,false,false,false,true,false,false],"id":4,"leaf_child_counts":[0,0,0,0,0,0,0,0,0,0,0,0,0,0,0],"left_children":[1,3,-1,-1,5,7,9,11,-1,-1,-1,-1,13,-1,-1],"loss_changes":[1.2515471E3,4.096173E0,0E0,0E0,6.8747276E-1,1.4090419E-2,1.0849848E-2,5.2831173E-3,0E0,0E0,0E0,0E0,1.3671041E-2,0E0,0E0],"parents":[2147483647,0,0,1,1,4,4,5,5,6,6,7,7,12,12],"right_children":[2,4,-1,-1,6,8,10,12,-1,-1,-1,-1,14,-1,-1],"split_conditions":[5.42058E2,5.1961875E-1,1.8647941E0,1.2055616E-1,2.8376257E2,1.6091895E2,6.1328766E2,1.6049824E1,-1.3186068E-2,8.107338E-3,1.8929094E-2,-3.7221592E-2,2.4048784E1,-1.0910251E-2,-3.0129056E-2],"split_indices":[2,0,0,0,0,0,0,0,0,0,0,0,0,0,0],"sum_hessian":[2.24E2,1.86E2,3.8E1,2E1,1.66E2,1.27E2,3.9E1,1.21E2,6E0,1.7E1,2.2E1,2.9E1,9.2E1,5E0,8.7E1],"tree_param":{"num_deleted":"0","num_feature":"3","num_nodes":"15","size_leaf_vector":"0"}},{"base_weights":[7.543142E-1,-9.841488E-3,4.399001E0,2.870385E-1,-4.711477E-2,-7.227791E-2,3.4585156E-2,-8.8657E-2,-6.2329523E-2,1.9367505E-2,4.499092E-2,-7.075599E-2,-4.9362864E-2,-7.89875E-2,-4.7380824E-2],"default_left":[true,true,false,false,true,true,true,false,true,false,false,true,false,false,false],"id":5,"leaf_child_counts":[0,0,0,0,0,0,0,0,0,0,0,0,0,0,0],"left_children":[1,3,-1,-1,5,7,9,-1,11,-1,-1,13,-1,-1,-1],"loss_changes":[6.266927E2,2.082808E0,0E0,0E0,3.458228E-1,1.533103E-2,5.4626875E-3,0E0,5.576104E-3,0E0,0E0,5.493328E-3,0E0,0E0,0E0],"parents":[2147483647,0,0,1,1,4,4,5,5,6,6,8,8,11,11],"right_children":[2,4,-1,-1,6,8,10,-1,12,-1,-1,14,-1,-1,-1],"split_conditions":[5.42058E2,5.1961875E-1,1.3197004E0,8.611155E-2,2.8376257E2,4.19975E2,6.1328766E2,-2.6597101E-2,4.9010333E2,5.8102515E-3,1.3497276E-2,4.6355573E2,-1.480886E-2,-2.3696251E-2,-1.4214247E-2],"split_indices":[2,0,0,0,0,1,0,0,2,0,0,1,0,0,0],"sum_hessian":[2.24E2,1.86E2,3.8E1,2E1,1.66E2,1.27E2,3.9E1,4.5E1,8.2E1,1.7E1,2.2E1,4.7E1,3.5E1,3.3E1,1.4E1],"tree_param":{"num_deleted":"0","num_feature":"3","num_nodes":"15","size_leaf_vector":"0"}},{"base_weights":[5.340013E-1,-6.7494577E-3,3.1131394E0,2.0502749E-1,-3.3339676E-2,-5.1214196E-2,2.4692282E-2,-6.374032E-2,-4.4578437E-2,1.3880036E-2,3.2080464E-2,-4.6141103E-2,-2.0127797E-2,-3.8109723E-2,-5.142346E-2],"default_left":[true,true,false,false,true,true,true,false,true,false,false,true,false,false,false],"id":6,"leaf_child_counts":[0,0,0,0,0,0,0,0,0,0,0,0,0,0,0],"left_children":[1,3,-1,-1,5,7,9,-1,11,-1,-1,13,-1,-1,-1],"loss_changes":[3.13822E2,1.0598692E0,0E0,0E0,1.744926E-1,7.7979565E-3,2.7500335E-3,0E0,2.3953915E-3,0E0,0E0,1.4766604E-3,0E0,0E0,0E0],"parents":[2147483647,0,0,1,1,4,4,5,5,6,6,8,8,11,11],"right_children":[2,4,-1,-1,6,8,10,-1,12,-1,-1,14,-1,-1,-1],"split_conditions":[5.42058E2,5.1961875E-1,9.3394184E-1,6.150825E-2,2.8376257E2,4.1774484E2,6.1328766E2,-1.9122098E-2,1.5598071E2,4.1640108E-3,9.624139E-3,4.257587E2,-6.0383393E-3,-1.1432918E-2,-1.5427039E-2],"split_indices":[2,0,0,0,0,1,0,0,0,0,0,1,0,0,0],"sum_hessian":[2.24E2,1.86E2,3.8E1,2E1,1.66E2,1.27E2,3.9E1,4.1E1,8.6E1,1.7E1,2.2E1,8E1,6E0,3.5E1,4.5E1],"tree_param":{"num_deleted":"0","num_feature":"3","num_nodes":"15","size_leaf_vector":"0"}},{"base_weights":[3.7805536E-1,-4.6001547E-3,2.2031457E0,1.4644818E-1,-2.3566712E-2,-3.6256347E-2,1.7629297E-2,-5.601558E-2,-3.3729397E-2,9.947332E-3,2.2874778E-2,-1.7257124E-2,-3.5640877E-2,1.0823707E-2,-3.406022E-2,-5.4310896E-2,-3.158305E-2],"default_left":[true,true,false,false,true,true,true,false,true,false,false,true,true,false,false,false,false],"id":7,"leaf_child_counts":[0,0,0,0,0,0,0,0,0,0,0,0,0,0,0,0,0],"left_children":[1,3,-1,-1,5,7,9,-1,11,-1,-1,13,15,-1,-1,-1,-1],"loss_changes":[1.5714584E2,5.3918135E-1,0E0,0E0,8.794049E-2,4.501745E-3,1.3842816E-3,0E0,3.0373633E-3,0E0,0E0,6.9744866E-3,6.087959E-3,0E0,0E0,0E0,0E0],"parents":[2147483647,0,0,1,1,4,4,5,5,6,6,8,8,11,11,12,12],"right_children":[2,4,-1,-1,6,8,10,-1,12,-1,-1,14,16,-1,-1,-1,-1],"split_conditions":[5.42058E2,5.1961875E-1,6.6094375E-1,4.3934457E-2,2.8376257E2,6.219511E-1,6.1328766E2,-1.6804675E-2,4.0656268E2,2.9841997E-3,6.8624336E-3,3.314553E1,4.1774484E2,3.2471123E-3,-1.0218067E-2,-1.6293269E-2,-9.4749145E-3],"split_indices":[2,0,0,0,0,0,0,0,1,0,0,0,1,0,0,0,0],"sum_hessian":[2.24E2,1.86E2,3.8E1,2E1,1.66E2,1.27E2,3.9E1,1.2E1,1.15E2,1.7E1,2.2E1,1.3E1,1.02E2,5E0,8E0,1.6E1,8.6E1],"tree_param":{"num_deleted":"0","num_feature":"3","num_nodes":"17","size_leaf_vector":"0"}},{"base_weights":[2.6759508E-1,-3.1974583E-3,1.5591491E0,1.0460581E-1,-1.673441E-2,-2.5766505E-2,1.2586649E-2,-3.5542563E-2,-2.2543795E-2,7.128896E-3,1.6310688E-2,8.11778E-3,-2.4261089E-2,-3.4759253E-2,-1.9280668E-2],"default_left":[true,true,false,false,true,true,true,false,true,false,false,false,true,false,false],"id":8,"leaf_child_counts":[0,0,0,0,0,0,0,0,0,0,0,0,0,0,0],"left_children":[1,3,-1,-1,5,7,9,-1,11,-1,-1,-1,13,-1,-1],"loss_changes":[7.8697205E1,2.746448E-1,0E0,0E0,4.4551015E-2,3.231421E-3,6.967182E-4,0E0,5.4097883E-3,0E0,0E0,0E0,4.244633E-3,0E0,0E0],"parents":[2147483647,0,0,1,1,4,4,5,5,6,6,8,8,12,12],"right_children":[2,4,-1,-1,6,8,10,-1,12,-1,-1,-1,14,-1,-1],"split_conditions":[5.42058E2,5.1961875E-1,4.6774477E-1,3.1381745E-2,2.8376257E2,1.6049824E1,6.1328766E2,-1.0662769E-2,2.4048784E1,2.138669E-3,4.8932065E-3,2.435334E-3,4.19975E2,-1.0427777E-2,-5.7842005E-3],"split_indices":[2,0,0,0,0,0,0,0,0,0,0,0,1,0,0],"sum_hessian":[2.24E2,1.86E2,3.8E1,2E1,1.66E2,1.27E2,3.9E1,2.9E1,9.8E1,1.7E1,2.2E1,5E0,9.3E1,2.8E1,6.5E1],"tree_param":{"num_deleted":"0","num_feature":"3","num_nodes":"15","size_leaf_vector":"0"}},{"base_weights":[1.8945749E-1,-2.1635003E-3,1.1033977E0,7.471834E-2,-1.1818322E-2,-1.9016461E-2,7.529316E-3,-1.6920729E-2,-2.8858664E-2,3.2855317E-3,1.1630251E-2,-2.5235217E-2,-1.3321332E-2,-1.872844E-3,5.109037E-3,-3.066102E-2,-1.9914625E-2,6.088335E-3,-1.4816066E-2],"default_left":[true,true,false,false,true,true,true,true,false,true,false,true,true,false,false,false,false,false,false],"id":9,"leaf_child_counts":[0,0,0,0,0,0,0,0,0,0,0,0,0,0,0,0,0,0,0],"left_children":[1,3,-1,-1,5,7,9,11,-1,13,-1,15,17,-1,-1,-1,-1,-1,-1],"loss_changes":[3.9406666E1,1.396895E-1,0E0,0E0,2.3400767E-2,2.0281412E-3,7.6234876E-4,2.7463268E-3,0E0,2.3532024E-4,0E0,2.5545247E-4,2.237116E-3,0E0,0E0,0E0,0E0,0E0,0E0],"parents":[2147483647,0,0,1,1,4,4,5,5,6,6,7,7,9,9,11,11,12,12],"right_children":[2,4,-1,-1,6,8,10,12,-1,14,-1,16,18,-1,-1,-1,-1,-1,-1],"split_conditions":[5.42058E2,5.1961875E-1,3.3101934E-1,2.2415504E-2,1.6091895E2,1.06300125E2,6.1328766E2,1.6049824E1,-8.6576E-3,2.8376257E2,3.4890755E-3,6.219511E-1,2.4048784E1,-5.6185323E-4,1.5327111E-3,-9.198306E-3,-5.9743878E-3,1.8265006E-3,-4.44482E-3],"split_indices":[2,0,0,0,0,0,0,0,0,0,0,0,0,0,0,0,0,0,0],"sum_hessian":[2.24E2,1.86E2,3.8E1,2E1,1.66E2,1.21E2,4.5E1,1.02E2,1.9E1,2.3E1,2.2E1,2.9E1,7.3E1,6E0,1.7E1,1.2E1,1.7E1,5E0,6.8E1],"tree_param":{"num_deleted":"0","num_feature":"3","num_nodes":"19","size_leaf_vector":"0"}},{"base_weights":[1.340935E-1,-1.5121574E-3,7.808669E-1,5.3370357E-2,-8.404496E-3,-1.3528314E-2,5.367466E-3,-1.8255727E-2,-1.0528454E-2,2.3403086E-3,8.292871E-3,-1.4101261E-2,-2.253003E-2,-8.191074E-3,-1.8296197E-2,-1.3912554E-3,3.6614554E-3,-1.8763347E-2,4.56625E-3,-2.4234882E-2,-1.222753E-2,-1.4272146E-2,-5.517203E-3,-7.249981E-4,-2.0379324E-3],"default_left":[true,true,false,false,true,true,true,true,true,true,false,true,true,true,false,true,false,false,false,false,false,false,false,false,false],"id":10,"leaf_child_counts":[0,0,0,0,0,0,0,0,0,0,0,0,0,0,0,0,0,0,0,0,0,0,0,0,0],"left_children":[1,3,-1,-1,5,7,9,11,13,15,-1,17,19,21,-1,23,-1,-1,-1,-1,-1,-1,-1,-1,-1],"loss_changes":[1.9735062E1,7.118484E-2,0E0,0E0,1.1856972E-2,1.5379488E-3,3.8795243E-4,4.991405E-4,1.2481585E-3,1.2341267E-4,0E0,2.3484463E-3,7.251557E-5,9.1311755E-4,0E0,1.5384758E-6,0E0,0E0,0E0,0E0,0E0,0E0,0E0,0E0,0E0],"parents":[2147483647,0,0,1,1,4,4,5,5,6,6,7,7,8,8,9,9,11,11,12,12,13,13,15,15],"right_children":[2,4,-1,-1,6,8,10,12,14,16,-1,18,20,22,-1,24,-1,-1,-1,-1,-1,-1,-1,-1,-1],"split_conditions":[5.42058E2,5.1961875E-1,2.3426008E-1,1.6011108E-2,1.6091895E2,4.19975E2,6.1328766E2,4.0656268E2,1.06300125E2,2.8376257E2,2.4878613E-3,3.993719E2,4.1774484E2,2.3033909E1,-5.4888595E-3,1.9378036E2,1.0984367E-3,-5.629004E-3,1.369875E-3,-7.2704647E-3,-3.6682591E-3,-4.281644E-3,-1.6551609E-3,-2.1749944E-4,-6.1137974E-4],"split_indices":[2,0,0,0,0,1,0,1,0,0,0,1,1,0,0,0,0,0,0,0,0,0,0,0,0],"sum_hessian":[2.24E2,1.86E2,3.8E1,2E1,1.66E2,1.21E2,4.5E1,4.5E1,7.6E1,2.3E1,2.2E1,2.5E1,2E1,6E1,1.6E1,6E0,1.7E1,2E1,5E0,1.6E1,4E0,1.7E1,4.3E1,4E0,2E0],"tree_param":{"num_deleted":"0","num_feature":"3","num_nodes":"25","size_leaf_vector":"0"}},{"base_weights":[9.4871625E-2,-1.1005048E-3,5.526131E-1,3.8121775E-2,-6.026058E-3,-9.688047E-3,3.817175E-3,-1.0559045E-2,-1.5728319E-3,1.6494337E-3,5.9132017E-3,-1.6989851E-2,-9.116171E-3,-1.0922955E-3,2.6240265E-3,3.4246843E-3,-9.876274E-3,-5.5100024E-4,-1.630356E-3],"default_left":[true,true,false,false,true,true,true,true,false,true,false,false,true,true,false,false,false,false,false],"id":11,"leaf_child_counts":[0,0,0,0,0,0,0,0,0,0,0,0,0,0,0,0,0,0,0],"left_children":[1,3,-1,-1,5,7,9,11,-1,13,-1,-1,15,17,-1,-1,-1,-1,-1],"loss_changes":[9.884952E0,3.6356516E-2,0E0,0E0,6.056631E-3,8.457294E-4,1.992542E-4,8.65791E-4,0E0,6.699589E-5,0E0,0E0,9.1079855E-4,1.1404209E-6,0E0,0E0,0E0,0E0,0E0],"parents":[2147483647,0,0,1,1,4,4,5,5,6,6,7,7,9,9,12,12,13,13],"right_children":[2,4,-1,-1,6,8,10,12,-1,14,-1,-1,16,18,-1,-1,-1,-1,-1],"split_conditions":[5.42058E2,5.1961875E-1,1.6578393E-1,1.1436533E-2,1.6091895E2,4.84341E2,6.1328766E2,4.7264825E2,-4.7184958E-4,2.8376257E2,1.7739605E-3,-5.0969557E-3,4.7414154E2,1.9378036E2,7.87208E-4,1.0274054E-3,-2.9628822E-3,-1.6530008E-4,-4.891068E-4],"split_indices":[2,0,0,0,0,1,0,2,0,0,0,0,2,0,0,0,0,0,0],"sum_hessian":[2.24E2,1.86E2,3.8E1,2E1,1.66E2,1.21E2,4.5E1,1.09E2,1.2E1,2.3E1,2.2E1,1.8E1,9.1E1,6E0,1.7E1,5E0,8.6E1,4E0,2E0],"tree_param":{"num_deleted":"0","num_feature":"3","num_nodes":"19","size_leaf_vector":"0"}},{"base_weights":[6.717276E-2,-7.391185E-4,3.9107913E-1,2.7229905E-2,-4.2517553E-3,-6.8431417E-3,2.713481E-3,-1.42393075E-2,-5.906839E-3,1.1601442E-3,4.2163767E-3,-4.4285846E-3,-1.2337554E-2,-8.5809187E-4,1.8805614E-3,-7.930533E-3,-2.5763062E-3,-1.0341621E-2,-1.773588E-2],"default_left":[true,true,false,false,true,true,true,false,true,true,false,true,true,false,false,false,false,false,false],"id":12,"leaf_child_counts":[0,0,0,0,0,0,0,0,0,0,0,0,0,0,0,0,0,0,0],"left_children":[1,3,-1,-1,5,7,9,-1,11,13,-1,15,17,-1,-1,-1,-1,-1,-1],"loss_changes":[4.949634E0,1.8487595E-2,0E0,0E0,3.032855E-3,7.6074665E-4,1.0249554E-4,0E0,9.910474E-4,3.6509016E-5,0E0,5.6984776E-4,3.2076146E-5,8.2598353E-7,0E0,0E0,0E0,0E0,0E0],"parents":[2147483647,0,0,1,1,4,4,5,5,6,6,8,8,9,9,11,11,12,12],"right_children":[2,4,-1,-1,6,8,10,-1,12,14,-1,16,18,-1,-1,-1,-1,-1,-1],"split_conditions":[5.42058E2,5.1961875E-1,1.1732374E-1,8.168972E-3,1.6091895E2,6.219511E-1,6.1328766E2,-4.2717922E-3,1.06300125E2,2.8376257E2,1.264913E-3,4.7264825E2,1.4110307E2,-2.5742757E-4,5.6416844E-4,-2.37916E-3,-7.728919E-4,-3.1024865E-3,-5.320764E-3],"split_indices":[2,0,0,0,0,0,0,0,0,0,0,2,0,0,0,0,0,0,0],"sum_hessian":[2.24E2,1.86E2,3.8E1,2E1,1.66E2,1.21E2,4.5E1,1.2E1,1.09E2,2.3E1,2.2E1,9E1,1.9E1,6E0,1.7E1,3E1,6E1,1.6E1,3E0],"tree_param":{"num_deleted":"0","num_feature":"3","num_nodes":"19","size_leaf_vector":"0"}},{"base_weights":[4.751537E-2,-5.5003556E-4,2.7676448E-1,1.9449955E-2,-3.0617109E-3,-4.9200924E-3,1.9335996E-3,-7.622152E-3,-3.2419777E-3,8.248904E-4,3.006444E-3,-5.5950913E-3,-9.768887E-3,-2.0240091E-3,-7.4216314E-3,-6.3743547E-4,1.3477454E-3,-1.0296115E-2,-8.30206E-4,-8.342522E-3,-1.3745305E-2,-5.6611598E-3,-4.900836E-4,-2.128154E-4,-1.1326572E-3],"default_left":[true,true,false,false,true,true,true,true,true,true,false,true,true,true,false,true,false,false,false,false,false,false,false,false,false],"id":13,"leaf_child_counts":[0,0,0,0,0,0,0,0,0,0,0,0,0,0,0,0,0,0,0,0,0,0,0,0,0],"left_children":[1,3,-1,-1,5,7,9,11,13,15,-1,17,19,21,-1,23,-1,-1,-1,-1,-1,-1,-1,-1,-1],"loss_changes":[2.4794161E0,9.453211E-3,0E0,0E0,1.5598069E-3,5.284818E-4,5.2235744E-5,1.4551403E-4,3.7696143E-4,1.9209125E-5,0E0,5.738479E-4,4.437752E-6,3.3755173E-4,0E0,1.2309204E-6,0E0,0E0,0E0,0E0,0E0,0E0,0E0,0E0,0E0],"parents":[2147483647,0,0,1,1,4,4,5,5,6,6,7,7,8,8,9,9,11,11,12,12,13,13,15,15],"right_children":[2,4,-1,-1,6,8,10,12,14,16,-1,18,20,22,-1,24,-1,-1,-1,-1,-1,-1,-1,-1,-1],"split_conditions":[5.42058E2,5.1961875E-1,8.3029345E-2,5.8349865E-3,1.6091895E2,4.19975E2,6.1328766E2,4.0656268E2,1.06300125E2,2.8376257E2,9.0193324E-4,8.842141E0,9.841184E1,2.3033909E1,-2.2264896E-3,1.9378036E2,4.0432365E-4,-3.0888345E-3,-2.490618E-4,-2.5027567E-3,-4.123592E-3,-1.698348E-3,-1.4702509E-4,-6.384462E-5,-3.3979717E-4],"split_indices":[2,0,0,0,0,1,0,1,0,0,0,0,0,0,0,0,0,0,0,0,0,0,0,0,0],"sum_hessian":[2.24E2,1.86E2,3.8E1,2E1,1.66E2,1.21E2,4.5E1,4.5E1,7.6E1,2.3E1,2.2E1,2.5E1,2E1,6E1,1.6E1,6E0,1.7E1,1.2E1,1.3E1,1.7E1,3E0,1.7E1,4.3E1,4E0,2E0],"tree_param":{"num_deleted":"0","num_feature":"3","num_nodes":"25","size_leaf_vector":"0"}},{"base_weights":[3.3597432E-2,-4.2405666E-4,1.9586463E-1,1.3892781E-2,-2.2218383E-3,-3.559114E-3,1.3731502E-3,-4.0885587E-3,1.194582E-3,5.774715E-4,2.1437213E-3,-7.7478667E-3,-3.2883913E-3,-5.0386146E-4,9.6590817E-4,-1.018357E-2,-6.150575E-3,-2.320241E-3,-6.6577205E-3],"default_left":[true,true,false,false,true,true,true,true,false,true,false,true,true,false,false,false,false,false,false],"id":14,"leaf_child_counts":[0,0,0,0,0,0,0,0,0,0,0,0,0,0,0,0,0,0,0],"left_children":[1,3,-1,-1,5,7,9,11,-1,13,-1,15,17,-1,-1,-1,-1,-1,-1],"loss_changes":[1.2422116E0,4.843976E-3,0E0,0E0,8.077381E-4,3.1193614E-4,2.69659E-5,2.9660854E-4,0E0,1.0567388E-5,0E0,1.1285185E-5,2.8465805E-4,8.1681424E-7,0E0,0E0,0E0,0E0,0E0],"parents":[2147483647,0,0,1,1,4,4,5,5,6,6,7,7,9,9,11,11,12,12],"right_children":[2,4,-1,-1,6,8,10,12,-1,14,-1,16,18,-1,-1,-1,-1,-1,-1],"split_conditions":[5.42058E2,5.1961875E-1,5.875939E-2,4.1678343E-3,1.6091895E2,4.84341E2,6.1328766E2,4.7264825E2,3.5837461E-4,2.8376257E2,6.431164E-4,2.4233244E1,1.06300125E2,-1.5115844E-4,2.8977246E-4,-3.0550712E-3,-1.8451725E-3,-6.960723E-4,-1.9973163E-3],"split_indices":[2,0,0,0,0,1,0,2,0,0,0,0,0,0,0,0,0,0,0],"sum_hessian":[2.24E2,1.86E2,3.8E1,2E1,1.66E2,1.21E2,4.5E1,1.09E2,1.2E1,2.3E1,2.2E1,1.8E1,9.1E1,6E0,1.7E1,5E0,1.3E1,7.2E1,1.9E1],"tree_param":{"num_deleted":"0","num_feature":"3","num_nodes":"19","size_leaf_vector":"0"}},{"base_weights":[2.3769144E-2,-3.0906347E-4,1.386116E-1,9.923441E-3,-1.593935E-3,-4.4615706E-3,-4.996302E-4,-2.006293E-3,-5.96831E-3,-2.655554E-3,3.982191E-4,4.000204E-3,-4.4371993E-3,-5.2197673E-3,-9.154625E-3,-4.746045E-3,5.875364E-4,-2.7023666E-4,1.1904106E-3,-6.8023554E-3,-3.2356589E-3,-7.637678E-3,-3.4462896E-3,8.637762E-4,-8.0534816E-4,6.922103E-4,1.5285495E-3],"default_left":[true,true,false,false,true,true,true,true,true,true,true,false,false,true,false,true,true,false,true,false,false,false,false,false,false,false,false],"id":15,"leaf_child_counts":[0,0,0,0,0,0,0,0,0,0,0,0,0,0,0,0,0,0,0,0,0,0,0,0,0,0,0],"left_children":[1,3,-1,-1,5,7,9,11,13,15,17,-1,-1,19,-1,21,23,-1,25,-1,-1,-1,-1,-1,-1,-1,-1],"loss_changes":[6.2221295E-1,2.474391E-3,0E0,0E0,5.218281E-4,1.582012E-4,2.3721224E-4,2.9517314E-4,1.8997584E-5,2.4685593E-4,4.6392106E-5,0E0,0E0,5.6490593E-5,0E0,5.6363526E-5,6.467192E-6,2.076356E-7,5.6803547E-6,0E0,0E0,0E0,0E0,0E0,0E0,0E0,0E0],"parents":[2147483647,0,0,1,1,4,4,5,5,6,6,7,7,8,8,9,9,10,10,13,13,15,15,16,16,18,18],"right_children":[2,4,-1,-1,6,8,10,12,14,16,18,-1,-1,20,-1,22,24,-1,26,-1,-1,-1,-1,-1,-1,-1,-1],"split_conditions":[5.42058E2,5.1961875E-1,4.1583482E-2,2.9770324E-3,4.19975E2,4.8281525E2,4.7762762E2,2.524812E1,9.841184E1,4.6355573E2,2.6577875E2,1.2000613E-3,-1.3311598E-3,2.4922974E1,-2.7463876E-3,7.55999E1,1.2139851E2,-8.1071004E-5,6.1328766E2,-2.0407068E-3,-9.7069767E-4,-2.2913036E-3,-1.0338869E-3,2.5913288E-4,-2.4160446E-4,2.0766309E-4,4.5856487E-4],"split_indices":[2,0,0,0,1,2,2,0,0,1,0,0,0,0,0,0,0,0,0,0,0,0,0,0,0,0,0],"sum_hessian":[2.24E2,1.86E2,3.8E1,2E1,1.66E2,4.5E1,1.21E2,1.8E1,2.7E1,3.5E1,8.6E1,5E0,1.3E1,2.4E1,3E0,2.1E1,1.4E1,4.7E1,3.9E1,1.2E1,1.2E1,5E0,1.6E1,1.2E1,2E0,1.7E1,2.2E1],"tree_param":{"num_deleted":"0","num_feature":"3","num_nodes":"27","size_leaf_vector":"0"}},{"base_weights":[1.6798079E-2,-2.4648008E-4,9.809384E-2,7.088088E-3,-1.1673151E-3,-3.2511188E-3,-3.7205045E-4,-1.4113061E-3,-4.383452E-3,-1.9507664E-3,2.854878E-4,3.0001502E-3,-3.2011226E-3,-3.7742925E-3,-7.094834E-3,-3.4733764E-3,4.1244578E-4,-1.9085027E-4,8.499563E-4,-4.918626E-3,-2.339629E-3,-5.728259E-3,-2.473219E-3,6.2457816E-4,-6.4427656E-4,4.960845E-4,1.0899447E-3],"default_left":[true,true,false,false,true,true,true,true,true,true,true,false,false,true,false,true,true,false,true,false,false,false,false,false,false,false,false],"id":16,"leaf_child_counts":[0,0,0,0,0,0,0,0,0,0,0,0,0,0,0,0,0,0,0,0,0,0,0,0,0,0,0],"left_children":[1,3,-1,-1,5,7,9,11,13,15,17,-1,-1,19,-1,21,23,-1,25,-1,-1,-1,-1,-1,-1,-1,-1],"loss_changes":[3.1179553E-1,1.2712583E-3,0E0,0E0,2.755387E-4,8.964451E-5,1.27201E-4,1.5962208E-4,1.9468542E-5,1.309696E-4,2.3554585E-5,0E0,0E0,2.9535586E-5,0E0,3.544797E-5,3.7648763E-6,2.1224139E-7,2.8563009E-6,0E0,0E0,0E0,0E0,0E0,0E0,0E0,0E0],"parents":[2147483647,0,0,1,1,4,4,5,5,6,6,7,7,8,8,9,9,10,10,13,13,15,15,16,16,18,18],"right_children":[2,4,-1,-1,6,8,10,12,14,16,18,-1,-1,20,-1,22,24,-1,26,-1,-1,-1,-1,-1,-1,-1,-1],"split_conditions":[5.42058E2,5.1961875E-1,2.9428152E-2,2.1264264E-3,4.19975E2,4.8281525E2,4.7762762E2,2.524812E1,9.841184E1,4.6355573E2,2.6577875E2,9.000451E-4,-9.603368E-4,2.4922974E1,-2.1284502E-3,7.55999E1,1.2139851E2,-5.7255085E-5,6.1328766E2,-1.4755878E-3,-7.018887E-4,-1.7184778E-3,-7.419658E-4,1.8737346E-4,-1.9328298E-4,1.4882536E-4,3.2698343E-4],"split_indices":[2,0,0,0,1,2,2,0,0,1,0,0,0,0,0,0,0,0,0,0,0,0,0,0,0,0,0],"sum_hessian":[2.24E2,1.86E2,3.8E1,2E1,1.66E2,4.5E1,1.21E2,1.8E1,2.7E1,3.5E1,8.6E1,5E0,1.3E1,2.4E1,3E0,2.1E1,1.4E1,4.7E1,3.9E1,1.2E1,1.2E1,5E0,1.6E1,1.2E1,2E0,1.7E1,2.2E1],"tree_param":{"num_deleted":"0","num_feature":"3","num_nodes":"27","size_leaf_vector":"0"}},{"base_weights":[1.187033E-2,-1.9547115E-4,6.9419935E-2,5.062881E-3,-8.5553055E-4,-2.3707007E-3,-2.7722435E-4,-9.910873E-4,-3.2221992E-3,-1.4340457E-3,2.0464686E-4,2.2501126E-3,-2.309381E-3,-2.7291037E-3,-5.498496E-3,-2.5432014E-3,2.883191E-4,-1.3479195E-4,6.0685724E-4,-3.5565454E-3,-1.6917309E-3,-4.296195E-3,-1.7748977E-3,4.5161694E-4,-5.154113E-4,3.5552017E-4,7.771707E-4],"default_left":[true,true,false,false,true,true,true,true,true,true,true,false,false,true,false,true,true,false,true,false,false,false,false,false,false,false,false],"id":17,"leaf_child_counts":[0,0,0,0,0,0,0,0,0,0,0,0,0,0,0,0,0,0,0,0,0,0,0,0,0,0,0],"left_children":[1,3,-1,-1,5,7,9,11,13,15,17,-1,-1,19,-1,21,23,-1,25,-1,-1,-1,-1,-1,-1,-1,-1],"loss_changes":[1.5624954E-1,6.533757E-4,0E0,0E0,1.4567358E-4,5.084451E-5,6.830102E-5,8.6380576E-5,1.6422127E-5,6.950661E-5,1.1959546E-5,0E0,0E0,1.5442434E-5,0E0,2.2004999E-5,2.2014801E-6,2.0916923E-7,1.4359439E-6,0E0,0E0,0E0,0E0,0E0,0E0,0E0,0E0],"parents":[2147483647,0,0,1,1,4,4,5,5,6,6,7,7,8,8,9,9,10,10,13,13,15,15,16,16,18,18],"right_children":[2,4,-1,-1,6,8,10,12,14,16,18,-1,-1,20,-1,22,24,-1,26,-1,-1,-1,-1,-1,-1,-1,-1],"split_conditions":[5.42058E2,5.1961875E-1,2.0825982E-2,1.5188643E-3,4.19975E2,4.8281525E2,4.7762762E2,2.524812E1,9.841184E1,4.6355573E2,2.6577875E2,6.750338E-4,-6.9281436E-4,2.4922974E1,-1.6495489E-3,7.55999E1,1.2139851E2,-4.0437586E-5,6.1328766E2,-1.0669637E-3,-5.075193E-4,-1.2888586E-3,-5.324693E-4,1.3548508E-4,-1.546234E-4,1.0665606E-4,2.3315122E-4],"split_indices":[2,0,0,0,1,2,2,0,0,1,0,0,0,0,0,0,0,0,0,0,0,0,0,0,0,0,0],"sum_hessian":[2.24E2,1.86E2,3.8E1,2E1,1.66E2,4.5E1,1.21E2,1.8E1,2.7E1,3.5E1,8.6E1,5E0,1.3E1,2.4E1,3E0,2.1E1,1.4E1,4.7E1,3.9E1,1.2E1,1.2E1,5E0,1.6E1,1.2E1,2E0,1.7E1,2.2E1],"tree_param":{"num_deleted":"0","num_feature":"3","num_nodes":"27","size_leaf_vector":"0"}},{"base_weights":[8.387214E-3,-1.5429615E-4,4.9127605E-2,3.6162366E-3,-6.2751106E-4,-1.7299651E-3,-2.0668814E-4,-6.946977E-4,-2.3706835E-3,-1.0549552E-3,1.4669461E-4,1.6875813E-3,-1.6660532E-3,-1.973352E-3,-4.2613344E-3,-1.8630284E-3,2.0054927E-4,-9.519351E-5,4.33293E-4,-2.5716554E-3,-1.2232523E-3,-3.2221477E-3,-1.2737493E-3,3.2655723E-4,-4.12335E-4],"default_left":[true,true,false,false,true,true,true,true,true,true,true,false,false,true,false,true,true,false,false,false,false,false,false,false,false],"id":18,"leaf_child_counts":[0,0,0,0,0,0,0,0,0,0,0,0,0,0,0,0,0,0,0,0,0,0,0,0,0],"left_children":[1,3,-1,-1,5,7,9,11,13,15,17,-1,-1,19,-1,21,23,-1,-1,-1,-1,-1,-1,-1,-1],"loss_changes":[7.830408E-2,3.3592814E-4,0E0,0E0,7.712007E-5,2.8865572E-5,3.6725833E-5,4.6778358E-5,1.26249215E-5,3.689705E-5,6.072499E-6,0E0,0E0,8.073897E-6,0E0,1.3515601E-5,1.2930755E-6,2.0384869E-7,7.215249E-7,0E0,0E0,0E0,0E0,0E0,0E0],"parents":[2147483647,0,0,1,1,4,4,5,5,6,6,7,7,8,8,9,9,10,10,13,13,15,15,16,16],"right_children":[2,4,-1,-1,6,8,10,12,14,16,18,-1,-1,20,-1,22,24,-1,-1,-1,-1,-1,-1,-1,-1],"split_conditions":[5.42058E2,5.1961875E-1,1.4738282E-2,1.084871E-3,4.19975E2,4.8281525E2,4.7762762E2,2.524812E1,9.841184E1,4.6355573E2,2.6577875E2,5.062744E-4,-4.99816E-4,2.4922974E1,-1.2784004E-3,7.55999E1,1.2139851E2,-2.8558054E-5,1.2998791E-4,-7.714967E-4,-3.669757E-4,-9.666443E-4,-3.821248E-4,9.7967175E-5,-1.237005E-4],"split_indices":[2,0,0,0,1,2,2,0,0,1,0,0,0,0,0,0,0,0,0,0,0,0,0,0,0],"sum_hessian":[2.24E2,1.86E2,3.8E1,2E1,1.66E2,4.5E1,1.21E2,1.8E1,2.7E1,3.5E1,8.6E1,5E0,1.3E1,2.4E1,3E0,2.1E1,1.4E1,4.7E1,3.9E1,1.2E1,1.2E1,5E0,1.6E1,1.2E1,2E0],"tree_param":{"num_deleted":"0","num_feature":"3","num_nodes":"25","size_leaf_vector":"0"}},{"base_weights":[5.925043E-3,-1.2189704E-4,3.476742E-2,2.583112E-3,-4.6131795E-4,-1.263376E-3,-1.5512134E-4,-9.3249476E-4,-2.7185E-3,-7.766484E-4,1.0384529E-4,-1.8595048E-3,-4.5161977E-4,-1.3654268E-3,1.3866971E-4,-1.3087403E-5,4.2979224E-4,1.265686E-3,-8.994477E-4,-2.4166096E-3,-9.141019E-4],"default_left":[true,true,false,false,true,true,true,true,false,true,true,false,true,true,false,false,false,false,false,false,false],"id":19,"leaf_child_counts":[0,0,0,0,0,0,0,0,0,0,0,0,0,0,0,0,0,0,0,0,0],"left_children":[1,3,-1,-1,5,7,9,11,-1,13,15,-1,17,19,-1,-1,-1,-1,-1,-1,-1],"loss_changes":[3.9246067E-2,1.7288318E-4,0E0,0E0,4.0817125E-5,1.9612788E-5,1.9717132E-5,1.6545473E-5,0E0,1.9590447E-5,3.3215304E-6,0E0,2.1902972E-5,8.228319E-6,7.6280594E-7,7.357956E-7,0E0,0E0,0E0,0E0,0E0],"parents":[2147483647,0,0,1,1,4,4,5,5,6,6,7,7,9,9,10,10,12,12,13,13],"right_children":[2,4,-1,-1,6,8,10,12,-1,14,16,-1,18,20,-1,-1,-1,-1,-1,-1,-1],"split_conditions":[5.42058E2,5.1961875E-1,1.0430226E-2,7.7493367E-4,4.19975E2,5.000437E1,4.7762762E2,8.842141E0,-8.1555004E-4,4.6355573E2,6.1328766E2,-5.5785145E-4,2.524812E1,7.55999E1,4.1600913E-5,-3.9262213E-6,1.2893768E-4,3.7970583E-4,-2.6983433E-4,-7.249829E-4,-2.7423058E-4],"split_indices":[2,0,0,0,1,0,2,0,0,1,0,0,0,0,0,0,0,0,0,0,0],"sum_hessian":[2.24E2,1.86E2,3.8E1,2E1,1.66E2,4.5E1,1.21E2,3.8E1,7E0,3.5E1,8.6E1,1.2E1,2.6E1,2.1E1,1.4E1,6.4E1,2.2E1,5E0,2.1E1,5E0,1.6E1],"tree_param":{"num_deleted":"0","num_feature":"3","num_nodes":"21","size_leaf_vector":"0"}},{"base_weights":[4.188162E-3,-9.2387265E-5,2.4605457E-2,1.8451271E-3,-3.3547357E-4,-9.1183104E-4,-1.1540867E-4,-7.251336E-4,-2.6908712E-3,-5.702544E-4,7.412989E-5,-1.3445654E-3,-4.4198046E-4,-9.624809E-4,1.9772179E-4,-8.3726154E-5,2.3030117E-4,3.495392E-4,-1.0330523E-3,-1.8124575E-3,-6.4341037E-4],"default_left":[true,true,false,false,true,true,true,true,false,true,true,false,true,true,false,false,false,false,false,false,false],"id":20,"leaf_child_counts":[0,0,0,0,0,0,0,0,0,0,0,0,0,0,0,0,0,0,0,0,0],"left_children":[1,3,-1,-1,5,7,9,11,-1,13,15,-1,17,19,-1,-1,-1,-1,-1,-1,-1],"loss_changes":[1.9666651E-2,8.8692854E-5,0E0,0E0,2.1076385E-5,1.3327306E-5,1.0559991E-5,6.9476737E-6,0E0,1.1034244E-5,2.1640567E-6,0E0,1.48642885E-5,5.3427048E-6,0E0,0E0,2.5899521E-7,0E0,0E0,0E0,0E0],"parents":[2147483647,0,0,1,1,4,4,5,5,6,6,7,7,9,9,10,10,12,12,13,13],"right_children":[2,4,-1,-1,6,8,10,12,-1,14,16,-1,18,20,-1,-1,-1,-1,-1,-1,-1],"split_conditions":[5.42058E2,5.1961875E-1,7.381637E-3,5.5353815E-4,4.19975E2,9.841184E1,4.7762762E2,8.842141E0,-8.072614E-4,4.9858978E2,1.2611599E2,-4.0336963E-4,4.095326E2,7.55999E1,5.931654E-5,-2.5117848E-5,6.9090354E-5,1.0486176E-4,-3.0991572E-4,-5.4373726E-4,-1.9302312E-4],"split_indices":[2,0,0,0,1,0,2,0,0,1,0,0,1,0,0,0,0,0,0,0,0],"sum_hessian":[2.24E2,1.86E2,3.8E1,2E1,1.66E2,4.5E1,1.21E2,4.2E1,3E0,3.5E1,8.6E1,1.2E1,3E1,2.3E1,1.2E1,4.3E1,4.3E1,1.3E1,1.7E1,5E0,1.8E1],"tree_param":{"num_deleted":"0","num_feature":"3","num_nodes":"21","size_leaf_vector":"0"}},{"base_weights":[2.9579054E-3,-7.267089E-5,1.7413286E-2,1.3179041E-3,-2.4709845E-4,-6.6905754E-4,-8.597375E-5,-5.2174286E-4,-2.0854257E-3,-4.1799515E-4,5.2402633E-5,-9.7222405E-4,-3.1600098E-4,-1.3593441E-3,-2.2231488E-4,-1.4923799E-5,2.403946E-4,8.6188316E-4,-5.7566655E-4,1.4297034E-4,-4.6054609E-4],"default_left":[true,true,false,false,true,true,true,true,false,true,true,false,true,false,true,false,false,false,false,false,false],"id":21,"leaf_child_counts":[0,0,0,0,0,0,0,0,0,0,0,0,0,0,0,0,0,0,0,0,0],"left_children":[1,3,-1,-1,5,7,9,11,-1,13,15,-1,17,-1,19,-1,-1,-1,-1,-1,-1],"loss_changes":[9.858095E-3,4.5683366E-5,0E0,0E0,1.1296479E-5,8.509927E-6,5.6270624E-6,3.6781385E-6,0E0,6.3291213E-6,1.1047316E-6,0E0,9.977691E-6,0E0,2.7635367E-6,2.6090885E-7,0E0,0E0,0E0,0E0,0E0],"parents":[2147483647,0,0,1,1,4,4,5,5,6,6,7,7,9,9,10,10,12,12,14,14],"right_children":[2,4,-1,-1,6,8,10,12,-1,14,16,-1,18,-1,20,-1,-1,-1,-1,-1,-1],"split_conditions":[5.42058E2,5.1961875E-1,5.223986E-3,3.9537126E-4,4.19975E2,9.841184E1,4.7762762E2,8.842141E0,-6.256277E-4,2.3033909E1,6.1328766E2,-2.9166724E-4,2.524812E1,-4.0780325E-4,8.3598854E1,-4.47714E-6,7.211838E-5,2.5856495E-4,-1.7269998E-4,4.2891104E-5,-1.3816383E-4],"split_indices":[2,0,0,0,1,0,2,0,0,0,0,0,0,0,0,0,0,0,0,0,0],"sum_hessian":[2.24E2,1.86E2,3.8E1,2E1,1.66E2,4.5E1,1.21E2,4.2E1,3E0,3.5E1,8.6E1,1.2E1,3E1,5E0,3E1,6.4E1,2.2E1,5E0,2.5E1,1.2E1,1.8E1],"tree_param":{"num_deleted":"0","num_feature":"3","num_nodes":"21","size_leaf_vector":"0"}},{"base_weights":[2.08984E-3,-5.5526976E-5,1.2323013E-2,9.414071E-4,-1.8055744E-4,-4.864145E-4,-6.375431E-5,-3.7000573E-4,-1.6162053E-3,-3.0657163E-4,3.7454625E-5,-7.02993E-4,-2.1843023E-4,-1.0195076E-3,-1.586946E-4,2.5850907E-4,-5.77248E-4,1.03376806E-4,-3.296543E-4],"default_left":[true,true,false,false,true,true,true,true,false,true,false,false,true,false,true,false,false,false,false],"id":22,"leaf_child_counts":[0,0,0,0,0,0,0,0,0,0,0,0,0,0,0,0,0,0,0],"left_children":[1,3,-1,-1,5,7,9,11,-1,13,-1,-1,15,-1,17,-1,-1,-1,-1],"loss_changes":[4.9403138E-3,2.3478993E-5,0E0,0E0,5.9350746E-6,5.451804E-6,3.009667E-6,2.0167713E-6,0E0,3.6335769E-6,7.4074654E-7,0E0,5.454387E-6,0E0,1.4229915E-6,0E0,0E0,0E0,0E0],"parents":[2147483647,0,0,1,1,4,4,5,5,6,6,7,7,9,9,12,12,14,14],"right_children":[2,4,-1,-1,6,8,10,12,-1,14,-1,-1,16,-1,18,-1,-1,-1,-1],"split_conditions":[5.42058E2,5.1961875E-1,3.6969038E-3,2.8242214E-4,4.19975E2,9.841184E1,4.7762762E2,8.842141E0,-4.848616E-4,2.3033909E1,1.1236388E-5,-2.1089791E-4,4.095326E2,-3.058523E-4,8.3598854E1,7.755272E-5,-1.731744E-4,3.101304E-5,-9.889629E-5],"split_indices":[2,0,0,0,1,0,2,0,0,0,0,0,1,0,0,0,0,0,0],"sum_hessian":[2.24E2,1.86E2,3.8E1,2E1,1.66E2,4.5E1,1.21E2,4.2E1,3E0,3.5E1,8.6E1,1.2E1,3E1,5E0,3E1,1.3E1,1.7E1,1.2E1,1.8E1],"tree_param":{"num_deleted":"0","num_feature":"3","num_nodes":"19","size_leaf_vector":"0"}},{"base_weights":[1.4755095E-3,-4.3545846E-5,8.721352E-3,6.723404E-4,-1.3330672E-4,-2.232391E-4,1.081076E-4,-1.8676415E-4,-1.2525592E-3,-4.005097E-4,-1.13440474E-4,5.817848E-4,-1.6118061E-4],"default_left":[true,true,false,false,true,true,false,true,false,false,true,false,false],"id":23,"leaf_child_counts":[0,0,0,0,0,0,0,0,0,0,0,0,0],"left_children":[1,3,-1,-1,5,7,-1,9,-1,-1,11,-1,-1],"loss_changes":[2.4769178E-3,1.210598E-5,0E0,0E0,3.6498654E-6,4.3464847E-6,1.2393787E-7,1.8196065E-6,0E0,9.02427E-7,3.0808856E-6,0E0,0E0],"parents":[2147483647,0,0,1,1,4,4,5,5,7,7,10,10],"right_children":[2,4,-1,-1,6,8,-1,10,-1,-1,12,-1,-1],"split_conditions":[5.42058E2,5.1961875E-1,2.6164055E-3,2.0170213E-4,1.6091895E2,1.4110307E2,3.243228E-5,1.6049824E1,-3.757678E-4,-1.20152916E-4,2.4048784E1,1.7453545E-4,-4.8354184E-5],"split_indices":[2,0,0,0,0,0,0,0,0,0,0,0,0],"sum_hessian":[2.24E2,1.86E2,3.8E1,2E1,1.66E2,1.21E2,4.5E1,1.18E2,3E0,2.9E1,8.9E1,5E0,8.4E1],"tree_param":{"num_deleted":"0","num_feature":"3","num_nodes":"13","size_leaf_vector":"0"}},{"base_weights":[1.0438033E-3,-3.12056E-5,6.1715688E-3,4.8024315E-4,-9.533265E-5,-2.9453554E-4,-1.9441954E-5,-1.8478508E-4,-7.9275214E-4,-1.7248694E-4,4.411048E-5,-6.64503E-4,-7.169393E-5],"default_left":[true,true,false,false,true,true,true,false,false,true,false,false,false],"id":24,"leaf_child_counts":[0,0,0,0,0,0,0,0,0,0,0,0,0],"left_children":[1,3,-1,-1,5,7,9,-1,-1,11,-1,-1,-1],"loss_changes":[1.2404812E-3,6.178953E-6,0E0,0E0,2.5189204E-6,2.3687685E-6,1.194227E-6,8.7563365E-7,0E0,1.7376631E-6,2.2840999E-7,0E0,7.7575044E-7],"parents":[2147483647,0,0,1,1,4,4,5,5,6,6,9,9],"right_children":[2,4,-1,-1,6,8,10,-1,-1,12,-1,-1,-1],"split_conditions":[5.42058E2,5.1961875E-1,1.8514707E-3,1.4407295E-4,4.19975E2,5.000437E1,4.7762762E2,-5.5435525E-5,-2.3782565E-4,2.3033909E1,1.3233144E-5,-1.9935092E-4,-2.150818E-5],"split_indices":[2,0,0,0,1,0,2,0,0,0,0,0,0],"sum_hessian":[2.24E2,1.86E2,3.8E1,2E1,1.66E2,4.5E1,1.21E2,3.8E1,7E0,3.5E1,8.6E1,5E0,3E1],"tree_param":{"num_deleted":"0","num_feature":"3","num_nodes":"13","size_leaf_vector":"0"}},{"base_weights":[7.372165E-4,-2.3743945E-5,4.3670214E-3,3.430957E-4,-6.97313E-5,-2.1255025E-4,-1.5309966E-5,-1.536711E-4,-7.923634E-4],"default_left":[true,true,false,false,true,true,false,false,false],"id":25,"leaf_child_counts":[0,0,0,0,0,0,0,0,0],"left_children":[1,3,-1,-1,5,7,-1,-1,-1],"loss_changes":[6.215847E-4,3.1786117E-6,0E0,0E0,1.2947362E-6,1.4486261E-6,6.346648E-7,6.8618067E-7,0E0],"parents":[2147483647,0,0,1,1,4,4,5,5],"right_children":[2,4,-1,-1,6,8,-1,-1,-1],"split_conditions":[5.42058E2,5.1961875E-1,1.3101065E-3,1.0292871E-4,4.19975E2,9.841184E1,-4.59299E-6,-4.6101333E-5,-2.3770904E-4],"split_indices":[2,0,0,0,1,0,0,0,0],"sum_hessian":[2.24E2,1.86E2,3.8E1,2E1,1.66E2,4.5E1,1.21E2,4.2E1,3E0],"tree_param":{"num_deleted":"0","num_feature":"3","num_nodes":"9","size_leaf_vector":"0"}},{"base_weights":[5.2100164E-4,-1.7621529E-5,3.0902715E-3,2.4500347E-4,-5.054071E-5],"default_left":[true,true,false,false,false],"id":26,"leaf_child_counts":[0,0,0,0,0],"left_children":[1,3,-1,-1,-1],"loss_changes":[3.1142484E-4,1.6290726E-6,0E0,0E0,9.674876E-7],"parents":[2147483647,0,0,1,1],"right_children":[2,4,-1,-1,-1],"split_conditions":[5.42058E2,5.1961875E-1,9.270815E-4,7.350104E-5,-1.5162214E-5],"split_indices":[2,0,0,0,0],"sum_hessian":[2.24E2,1.86E2,3.8E1,2E1,1.66E2],"tree_param":{"num_deleted":"0","num_feature":"3","num_nodes":"5","size_leaf_vector":"0"}},{"base_weights":[3.6910258E-4,-1.2019251E-5,2.1870686E-3],"default_left":[true,false,false],"id":27,"leaf_child_counts":[0,0,0],"left_children":[1,-1,-1],"loss_changes":[1.5592125E-4,8.267491E-7,0E0],"parents":[2147483647,0,0],"right_children":[2,-1,-1],"split_conditions":[5.42058E2,-3.6057754E-6,6.561206E-4],"split_indices":[2,0,0],"sum_hessian":[2.24E2,1.86E2,3.8E1],"tree_param":{"num_deleted":"0","num_feature":"3","num_nodes":"3","size_leaf_vector":"0"}},{"base_weights":[2.61262E-4,-8.443131E-6,1.5477645E-3],"default_left":[true,false,false],"id":28,"leaf_child_counts":[0,0,0],"left_children":[1,-1,-1],"loss_changes":[7.808274E-5,8.253858E-7,0E0],"parents":[2147483647,0,0],"right_children":[2,-1,-1],"split_conditions":[5.42058E2,-2.5329396E-6,4.6432938E-4],"split_indices":[2,0,0],"sum_hessian":[2.24E2,1.86E2,3.8E1],"tree_param":{"num_deleted":"0","num_feature":"3","num_nodes":"3","size_leaf_vector":"0"}},{"base_weights":[1.8508236E-4,-5.9188587E-6,1.0961631E-3],"default_left":[true,false,false],"id":29,"leaf_child_counts":[0,0,0],"left_children":[1,-1,-1],"loss_changes":[3.916043E-5,8.254062E-7,0E0],"parents":[2147483647,0,0],"right_children":[2,-1,-1],"split_conditions":[5.42058E2,-1.7756577E-6,3.2884892E-4],"split_indices":[2,0,0],"sum_hessian":[2.24E2,1.86E2,3.8E1],"tree_param":{"num_deleted":"0","num_feature":"3","num_nodes":"3","size_leaf_vector":"0"}},{"base_weights":[1.3113716E-4,-4.1607905E-6,7.76511E-4],"default_left":[true,false,false],"id":30,"leaf_child_counts":[0,0,0],"left_children":[1,-1,-1],"loss_changes":[1.9649726E-5,8.241176E-7,0E0],"parents":[2147483647,0,0],"right_children":[2,-1,-1],"split_conditions":[5.42058E2,-1.2482371E-6,2.329533E-4],"split_indices":[2,0,0],"sum_hessian":[2.24E2,1.86E2,3.8E1],"tree_param":{"num_deleted":"0","num_feature":"3","num_nodes":"3","size_leaf_vector":"0"}},{"base_weights":[9.286445E-5,-2.9249106E-6,5.49781E-4],"default_left":[true,false,false],"id":31,"leaf_child_counts":[0,0,0],"left_children":[1,-1,-1],"loss_changes":[9.849351E-6,8.2319673E-7,0E0],"parents":[2147483647,0,0],"right_children":[2,-1,-1],"split_conditions":[5.42058E2,-8.774732E-7,1.6493432E-4],"split_indices":[2,0,0],"sum_hessian":[2.24E2,1.86E2,3.8E1],"tree_param":{"num_deleted":"0","num_feature":"3","num_nodes":"3","size_leaf_vector":"0"}},{"base_weights":[6.589716E-5,3.234734E-4,-2.5497415E-5],"default_left":[true,false,false],"id":32,"leaf_child_counts":[0,0,0],"left_children":[1,-1,-1],"loss_changes":[5.3049885E-6,4.7271578E-7,9.756993E-7],"parents":[2147483647,0,0],"right_children":[2,-1,-1],"split_conditions":[5.3775465E-1,9.704202E-5,-7.649225E-6],"split_indices":[0,0,0],"sum_hessian":[2.24E2,5.8E1,1.66E2],"tree_param":{"num_deleted":"0","num_feature":"3","num_nodes":"3","size_leaf_vector":"0"}},{"base_weights":[4.6481557E-5,-5.6334356E-6,2.9517442E-4],"default_left":[true,false,false],"id":33,"leaf_child_counts":[0,0,0],"left_children":[1,-1,-1],"loss_changes":[2.9178038E-6,7.162402E-7,0E0],"parents":[2147483647,0,0],"right_children":[2,-1,-1],"split_conditions":[5.42058E2,-1.6900308E-6,8.855233E-5],"split_indices":[2,0,0],"sum_hessian":[2.24E2,1.86E2,3.8E1],"tree_param":{"num_deleted":"0","num_feature":"3","num_nodes":"3","size_leaf_vector":"0"}},{"base_weights":[3.3055683E-5,1.7198466E-4,-1.6224943E-5],"default_left":[true,false,false],"id":34,"leaf_child_counts":[0,0,0],"left_children":[1,-1,-1],"loss_changes":[1.5432545E-6,1.5429782E-7,9.783429E-7],"parents":[2147483647,0,0],"right_children":[2,-1,-1],"split_conditions":[5.3775465E-1,5.15954E-5,-4.8674833E-6],"split_indices":[0,0,0],"sum_hessian":[2.24E2,5.8E1,1.66E2],"tree_param":{"num_deleted":"0","num_feature":"3","num_nodes":"3","size_leaf_vector":"0"}},{"base_weights":[2.3375651E-5],"default_left":[false],"id":35,"leaf_child_counts":[0],"left_children":[-1],"loss_changes":[8.7426804E-7],"parents":[2147483647],"right_children":[-1],"split_conditions":[7.0126957E-6],"split_indices":[0],"sum_hessian":[2.24E2],"tree_param":{"num_deleted":"0","num_feature":"3","num_nodes":"1","size_leaf_vector":"0"}},{"base_weights":[1.6295835E-5],"default_left":[false],"id":36,"leaf_child_counts":[0],"left_children":[-1],"loss_changes":[8.696066E-7],"parents":[2147483647],"right_children":[-1],"split_conditions":[4.8887505E-6],"split_indices":[0],"sum_hessian":[2.24E2],"tree_param":{"num_deleted":"0","num_feature":"3","num_nodes":"1","size_leaf_vector":"0"}},{"base_weights":[1.1277199E-5],"default_left":[false],"id":37,"leaf_child_counts":[0],"left_children":[-1],"loss_changes":[8.6234667E-7],"parents":[2147483647],"right_children":[-1],"split_conditions":[3.3831598E-6],"split_indices":[0],"sum_hessian":[2.24E2],"tree_param":{"num_deleted":"0","num_feature":"3","num_nodes":"1","size_leaf_vector":"0"}},{"base_weights":[7.83763E-6],"default_left":[false],"id":38,"leaf_child_counts":[0],"left_children":[-1],"loss_changes":[8.5868584E-7],"parents":[2147483647],"right_children":[-1],"split_conditions":[2.351289E-6],"split_indices":[0],"sum_hessian":[2.24E2],"tree_param":{"num_deleted":"0","num_feature":"3","num_nodes":"1","size_leaf_vector":"0"}},{"base_weights":[5.572902E-6],"default_left":[false],"id":39,"leaf_child_counts":[0],"left_children":[-1],"loss_changes":[8.637656E-7],"parents":[2147483647],"right_children":[-1],"split_conditions":[1.6718707E-6],"split_indices":[0],"sum_hessian":[2.24E2],"tree_param":{"num_deleted":"0","num_feature":"3","num_nodes":"1","size_leaf_vector":"0"}},{"base_weights":[3.871272E-6],"default_left":[false],"id":40,"leaf_child_counts":[0],"left_children":[-1],"loss_changes":[8.6168563E-7],"parents":[2147483647],"right_children":[-1],"split_conditions":[1.1613816E-6],"split_indices":[0],"sum_hessian":[2.24E2],"tree_param":{"num_deleted":"0","num_feature":"3","num_nodes":"1","size_leaf_vector":"0"}},{"base_weights":[2.589557E-6],"default_left":[false],"id":41,"leaf_child_counts":[0],"left_children":[-1],"loss_changes":[8.542866E-7],"parents":[2147483647],"right_children":[-1],"split_conditions":[7.768671E-7],"split_indices":[0],"sum_hessian":[2.24E2],"tree_param":{"num_deleted":"0","num_feature":"3","num_nodes":"1","size_leaf_vector":"0"}},{"base_weights":[1.954958E-6],"default_left":[false],"id":42,"leaf_child_counts":[0],"left_children":[-1],"loss_changes":[8.623264E-7],"parents":[2147483647],"right_children":[-1],"split_conditions":[5.8648743E-7],"split_indices":[0],"sum_hessian":[2.24E2],"tree_param":{"num_deleted":"0","num_feature":"3","num_nodes":"1","size_leaf_vector":"0"}},{"base_weights":[1.476672E-6],"default_left":[false],"id":43,"leaf_child_counts":[0],"left_children":[-1],"loss_changes":[8.6841015E-7],"parents":[2147483647],"right_children":[-1],"split_conditions":[4.430016E-7],"split_indices":[0],"sum_hessian":[2.24E2],"tree_param":{"num_deleted":"0","num_feature":"3","num_nodes":"1","size_leaf_vector":"0"}},{"base_weights":[1.1135803E-6],"default_left":[false],"id":44,"leaf_child_counts":[0],"left_children":[-1],"loss_changes":[8.730427E-7],"parents":[2147483647],"right_children":[-1],"split_conditions":[3.3407412E-7],"split_indices":[0],"sum_hessian":[2.24E2],"tree_param":{"num_deleted":"0","num_feature":"3","num_nodes":"1","size_leaf_vector":"0"}},{"base_weights":[8.4149343E-7],"default_left":[false],"id":45,"leaf_child_counts":[0],"left_children":[-1],"loss_changes":[8.76522E-7],"parents":[2147483647],"right_children":[-1],"split_conditions":[2.5244805E-7],"split_indices":[0],"sum_hessian":[2.24E2],"tree_param":{"num_deleted":"0","num_feature":"3","num_nodes":"1","size_leaf_vector":"0"}},{"base_weights":[6.350461E-7],"default_left":[false],"id":46,"leaf_child_counts":[0],"left_children":[-1],"loss_changes":[8.7916646E-7],"parents":[2147483647],"right_children":[-1],"split_conditions":[1.9051383E-7],"split_indices":[0],"sum_hessian":[2.24E2],"tree_param":{"num_deleted":"0","num_feature":"3","num_nodes":"1","size_leaf_vector":"0"}},{"base_weights":[4.759017E-7],"default_left":[false],"id":47,"leaf_child_counts":[0],"left_children":[-1],"loss_changes":[8.812077E-7],"parents":[2147483647],"right_children":[-1],"split_conditions":[1.4277052E-7],"split_indices":[0],"sum_hessian":[2.24E2],"tree_param":{"num_deleted":"0","num_feature":"3","num_nodes":"1","size_leaf_vector":"0"}},{"base_weights":[3.5378667E-7],"default_left":[false],"id":48,"leaf_child_counts":[0],"left_children":[-1],"loss_changes":[8.827755E-7],"parents":[2147483647],"right_children":[-1],"split_conditions":[1.0613601E-7],"split_indices":[0],"sum_hessian":[2.24E2],"tree_param":{"num_deleted":"0","num_feature":"3","num_nodes":"1","size_leaf_vector":"0"}},{"base_weights":[2.7389163E-7],"default_left":[false],"id":49,"leaf_child_counts":[0],"left_children":[-1],"loss_changes":[8.83802E-7],"parents":[2147483647],"right_children":[-1],"split_conditions":[8.216749E-8],"split_indices":[0],"sum_hessian":[2.24E2],"tree_param":{"num_deleted":"0","num_feature":"3","num_nodes":"1","size_leaf_vector":"0"}},{"base_weights":[2.158102E-7],"default_left":[false],"id":50,"leaf_child_counts":[0],"left_children":[-1],"loss_changes":[8.845486E-7],"parents":[2147483647],"right_children":[-1],"split_conditions":[6.474306E-8],"split_indices":[0],"sum_hessian":[2.24E2],"tree_param":{"num_deleted":"0","num_feature":"3","num_nodes":"1","size_leaf_vector":"0"}},{"base_weights":[1.6982356E-7],"default_left":[false],"id":51,"leaf_child_counts":[0],"left_children":[-1],"loss_changes":[8.8513997E-7],"parents":[2147483647],"right_children":[-1],"split_conditions":[5.0947072E-8],"split_indices":[0],"sum_hessian":[2.24E2],"tree_param":{"num_deleted":"0","num_feature":"3","num_nodes":"1","size_leaf_vector":"0"}},{"base_weights":[1.3113849E-7],"default_left":[false],"id":52,"leaf_child_counts":[0],"left_children":[-1],"loss_changes":[8.856376E-7],"parents":[2147483647],"right_children":[-1],"split_conditions":[3.934155E-8],"split_indices":[0],"sum_hessian":[2.24E2],"tree_param":{"num_deleted":"0","num_feature":"3","num_nodes":"1","size_leaf_vector":"0"}},{"base_weights":[9.8165536E-8],"default_left":[false],"id":53,"leaf_child_counts":[0],"left_children":[-1],"loss_changes":[8.860618E-7],"parents":[2147483647],"right_children":[-1],"split_conditions":[2.9449662E-8],"split_indices":[0],"sum_hessian":[2.24E2],"tree_param":{"num_deleted":"0","num_feature":"3","num_nodes":"1","size_leaf_vector":"0"}},{"base_weights":[8.1343785E-8],"default_left":[false],"id":54,"leaf_child_counts":[0],"left_children":[-1],"loss_changes":[8.8627826E-7],"parents":[2147483647],"right_children":[-1],"split_conditions":[2.4403137E-8],"split_indices":[0],"sum_hessian":[2.24E2],"tree_param":{"num_deleted":"0","num_feature":"3","num_nodes":"1","size_leaf_vector":"0"}},{"base_weights":[6.683171E-8],"default_left":[false],"id":55,"leaf_child_counts":[0],"left_children":[-1],"loss_changes":[8.8646505E-7],"parents":[2147483647],"right_children":[-1],"split_conditions":[2.0049514E-8],"split_indices":[0],"sum_hessian":[2.24E2],"tree_param":{"num_deleted":"0","num_feature":"3","num_nodes":"1","size_leaf_vector":"0"}},{"base_weights":[5.5978695E-8],"default_left":[false],"id":56,"leaf_child_counts":[0],"left_children":[-1],"loss_changes":[8.8660477E-7],"parents":[2147483647],"right_children":[-1],"split_conditions":[1.679361E-8],"split_indices":[0],"sum_hessian":[2.24E2],"tree_param":{"num_deleted":"0","num_feature":"3","num_nodes":"1","size_leaf_vector":"0"}},{"base_weights":[4.676481E-8],"default_left":[false],"id":57,"leaf_child_counts":[0],"left_children":[-1],"loss_changes":[8.8672334E-7],"parents":[2147483647],"right_children":[-1],"split_conditions":[1.4029443E-8],"split_indices":[0],"sum_hessian":[2.24E2],"tree_param":{"num_deleted":"0","num_feature":"3","num_nodes":"1","size_leaf_vector":"0"}},{"base_weights":[3.8536058E-8],"default_left":[false],"id":58,"leaf_child_counts":[0],"left_children":[-1],"loss_changes":[8.868293E-7],"parents":[2147483647],"right_children":[-1],"split_conditions":[1.1560818E-8],"split_indices":[0],"sum_hessian":[2.24E2],"tree_param":{"num_deleted":"0","num_feature":"3","num_nodes":"1","size_leaf_vector":"0"}},{"base_weights":[3.1168263E-8],"default_left":[false],"id":59,"leaf_child_counts":[0],"left_children":[-1],"loss_changes":[8.869241E-7],"parents":[2147483647],"right_children":[-1],"split_conditions":[9.3504795E-9],"split_indices":[0],"sum_hessian":[2.24E2],"tree_param":{"num_deleted":"0","num_feature":"3","num_nodes":"1","size_leaf_vector":"0"}},{"base_weights":[2.5116735E-8],"default_left":[false],"id":60,"leaf_child_counts":[0],"left_children":[-1],"loss_changes":[8.8700205E-7],"parents":[2147483647],"right_children":[-1],"split_conditions":[7.535021E-9],"split_indices":[0],"sum_hessian":[2.24E2],"tree_param":{"num_deleted":"0","num_feature":"3","num_nodes":"1","size_leaf_vector":"0"}},{"base_weights":[1.9884771E-8],"default_left":[false],"id":61,"leaf_child_counts":[0],"left_children":[-1],"loss_changes":[8.870694E-7],"parents":[2147483647],"right_children":[-1],"split_conditions":[5.9654317E-9],"split_indices":[0],"sum_hessian":[2.24E2],"tree_param":{"num_deleted":"0","num_feature":"3","num_nodes":"1","size_leaf_vector":"0"}},{"base_weights":[1.7144615E-8],"default_left":[false],"id":62,"leaf_child_counts":[0],"left_children":[-1],"loss_changes":[8.871047E-7],"parents":[2147483647],"right_children":[-1],"split_conditions":[5.1433844E-9],"split_indices":[0],"sum_hessian":[2.24E2],"tree_param":{"num_deleted":"0","num_feature":"3","num_nodes":"1","size_leaf_vector":"0"}},{"base_weights":[1.4851491E-8],"default_left":[false],"id":63,"leaf_child_counts":[0],"left_children":[-1],"loss_changes":[8.871342E-7],"parents":[2147483647],"right_children":[-1],"split_conditions":[4.4554476E-9],"split_indices":[0],"sum_hessian":[2.24E2],"tree_param":{"num_deleted":"0","num_feature":"3","num_nodes":"1","size_leaf_vector":"0"}},{"base_weights":[1.2748771E-8],"default_left":[false],"id":64,"leaf_child_counts":[0],"left_children":[-1],"loss_changes":[8.8716126E-7],"parents":[2147483647],"right_children":[-1],"split_conditions":[3.8246313E-9],"split_indices":[0],"sum_hessian":[2.24E2],"tree_param":{"num_deleted":"0","num_feature":"3","num_nodes":"1","size_leaf_vector":"0"}},{"base_weights":[1.07619496E-8],"default_left":[false],"id":65,"leaf_child_counts":[0],"left_children":[-1],"loss_changes":[8.871869E-7],"parents":[2147483647],"right_children":[-1],"split_conditions":[3.228585E-9],"split_indices":[0],"sum_hessian":[2.24E2],"tree_param":{"num_deleted":"0","num_feature":"3","num_nodes":"1","size_leaf_vector":"0"}},{"base_weights":[9.818209E-9],"default_left":[false],"id":66,"leaf_child_counts":[0],"left_children":[-1],"loss_changes":[8.87199E-7],"parents":[2147483647],"right_children":[-1],"split_conditions":[2.945463E-9],"split_indices":[0],"sum_hessian":[2.24E2],"tree_param":{"num_deleted":"0","num_feature":"3","num_nodes":"1","size_leaf_vector":"0"}},{"base_weights":[8.940697E-9],"default_left":[false],"id":67,"leaf_child_counts":[0],"left_children":[-1],"loss_changes":[8.872103E-7],"parents":[2147483647],"right_children":[-1],"split_conditions":[2.6822091E-9],"split_indices":[0],"sum_hessian":[2.24E2],"tree_param":{"num_deleted":"0","num_feature":"3","num_nodes":"1","size_leaf_vector":"0"}},{"base_weights":[8.203917E-9],"default_left":[false],"id":68,"leaf_child_counts":[0],"left_children":[-1],"loss_changes":[8.872198E-7],"parents":[2147483647],"right_children":[-1],"split_conditions":[2.461175E-9],"split_indices":[0],"sum_hessian":[2.24E2],"tree_param":{"num_deleted":"0","num_feature":"3","num_nodes":"1","size_leaf_vector":"0"}},{"base_weights":[7.367796E-9],"default_left":[false],"id":69,"leaf_child_counts":[0],"left_children":[-1],"loss_changes":[8.8723056E-7],"parents":[2147483647],"right_children":[-1],"split_conditions":[2.210339E-9],"split_indices":[0],"sum_hessian":[2.24E2],"tree_param":{"num_deleted":"0","num_feature":"3","num_nodes":"1","size_leaf_vector":"0"}},{"base_weights":[6.697244E-9],"default_left":[false],"id":70,"leaf_child_counts":[0],"left_children":[-1],"loss_changes":[8.872392E-7],"parents":[2147483647],"right_children":[-1],"split_conditions":[2.0091733E-9],"split_indices":[0],"sum_hessian":[2.24E2],"tree_param":{"num_deleted":"0","num_feature":"3","num_nodes":"1","size_leaf_vector":"0"}},{"base_weights":[5.993578E-9],"default_left":[false],"id":71,"leaf_child_counts":[0],"left_children":[-1],"loss_changes":[8.8724823E-7],"parents":[2147483647],"right_children":[-1],"split_conditions":[1.7980735E-9],"split_indices":[0],"sum_hessian":[2.24E2],"tree_param":{"num_deleted":"0","num_feature":"3","num_nodes":"1","size_leaf_vector":"0"}},{"base_weights":[5.753504E-9],"default_left":[false],"id":72,"leaf_child_counts":[0],"left_children":[-1],"loss_changes":[8.8725136E-7],"parents":[2147483647],"right_children":[-1],"split_conditions":[1.7260512E-9],"split_indices":[0],"sum_hessian":[2.24E2],"tree_param":{"num_deleted":"0","num_feature":"3","num_nodes":"1","size_leaf_vector":"0"}},{"base_weights":[5.5134297E-9],"default_left":[false],"id":73,"leaf_child_counts":[0],"left_children":[-1],"loss_changes":[8.8725443E-7],"parents":[2147483647],"right_children":[-1],"split_conditions":[1.654029E-9],"split_indices":[0],"sum_hessian":[2.24E2],"tree_param":{"num_deleted":"0","num_feature":"3","num_nodes":"1","size_leaf_vector":"0"}},{"base_weights":[5.289912E-9],"default_left":[false],"id":74,"leaf_child_counts":[0],"left_children":[-1],"loss_changes":[8.8725733E-7],"parents":[2147483647],"right_children":[-1],"split_conditions":[1.5869737E-9],"split_indices":[0],"sum_hessian":[2.24E2],"tree_param":{"num_deleted":"0","num_feature":"3","num_nodes":"1","size_leaf_vector":"0"}},{"base_weights":[5.066395E-9],"default_left":[false],"id":75,"leaf_child_counts":[0],"left_children":[-1],"loss_changes":[8.8726017E-7],"parents":[2147483647],"right_children":[-1],"split_conditions":[1.5199185E-9],"split_indices":[0],"sum_hessian":[2.24E2],"tree_param":{"num_deleted":"0","num_feature":"3","num_nodes":"1","size_leaf_vector":"0"}},{"base_weights":[4.8263207E-9],"default_left":[false],"id":76,"leaf_child_counts":[0],"left_children":[-1],"loss_changes":[8.872633E-7],"parents":[2147483647],"right_children":[-1],"split_conditions":[1.4478962E-9],"split_indices":[0],"sum_hessian":[2.24E2],"tree_param":{"num_deleted":"0","num_feature":"3","num_nodes":"1","size_leaf_vector":"0"}},{"base_weights":[4.5862465E-9],"default_left":[false],"id":77,"leaf_child_counts":[0],"left_children":[-1],"loss_changes":[8.8726637E-7],"parents":[2147483647],"right_children":[-1],"split_conditions":[1.375874E-9],"split_indices":[0],"sum_hessian":[2.24E2],"tree_param":{"num_deleted":"0","num_feature":"3","num_nodes":"1","size_leaf_vector":"0"}},{"base_weights":[4.4123993E-9],"default_left":[false],"id":78,"leaf_child_counts":[0],"left_children":[-1],"loss_changes":[8.8726864E-7],"parents":[2147483647],"right_children":[-1],"split_conditions":[1.3237198E-9],"split_indices":[0],"sum_hessian":[2.24E2],"tree_param":{"num_deleted":"0","num_feature":"3","num_nodes":"1","size_leaf_vector":"0"}},{"base_weights":[4.2385526E-9],"default_left":[false],"id":79,"leaf_child_counts":[0],"left_children":[-1],"loss_changes":[8.8727086E-7],"parents":[2147483647],"right_children":[-1],"split_conditions":[1.2715659E-9],"split_indices":[0],"sum_hessian":[2.24E2],"tree_param":{"num_deleted":"0","num_feature":"3","num_nodes":"1","size_leaf_vector":"0"}},{"base_weights":[4.048149E-9],"default_left":[false],"id":80,"leaf_child_counts":[0],"left_children":[-1],"loss_changes":[8.872733E-7],"parents":[2147483647],"right_children":[-1],"split_conditions":[1.2144448E-9],"split_indices":[0],"sum_hessian":[2.24E2],"tree_param":{"num_deleted":"0","num_feature":"3","num_nodes":"1","size_leaf_vector":"0"}},{"base_weights":[3.8577452E-9],"default_left":[false],"id":81,"leaf_child_counts":[0],"left_children":[-1],"loss_changes":[8.8727575E-7],"parents":[2147483647],"right_children":[-1],"split_conditions":[1.1573236E-9],"split_indices":[0],"sum_hessian":[2.24E2],"tree_param":{"num_deleted":"0","num_feature":"3","num_nodes":"1","size_leaf_vector":"0"}},{"base_weights":[3.683898E-9],"default_left":[false],"id":82,"leaf_child_counts":[0],"left_children":[-1],"loss_changes":[8.87278E-7],"parents":[2147483647],"right_children":[-1],"split_conditions":[1.1051695E-9],"split_indices":[0],"sum_hessian":[2.24E2],"tree_param":{"num_deleted":"0","num_feature":"3","num_nodes":"1","size_leaf_vector":"0"}},{"base_weights":[3.5100514E-9],"default_left":[false],"id":83,"leaf_child_counts":[0],"left_children":[-1],"loss_changes":[8.8728024E-7],"parents":[2147483647],"right_children":[-1],"split_conditions":[1.0530155E-9],"split_indices":[0],"sum_hessian":[2.24E2],"tree_param":{"num_deleted":"0","num_feature":"3","num_nodes":"1","size_leaf_vector":"0"}},{"base_weights":[3.3196477E-9],"default_left":[false],"id":84,"leaf_child_counts":[0],"left_children":[-1],"loss_changes":[8.872827E-7],"parents":[2147483647],"right_children":[-1],"split_conditions":[9.958944E-10],"split_indices":[0],"sum_hessian":[2.24E2],"tree_param":{"num_deleted":"0","num_feature":"3","num_nodes":"1","size_leaf_vector":"0"}},{"base_weights":[3.1292438E-9],"default_left":[false],"id":85,"leaf_child_counts":[0],"left_children":[-1],"loss_changes":[8.872851E-7],"parents":[2147483647],"right_children":[-1],"split_conditions":[9.387732E-10],"split_indices":[0],"sum_hessian":[2.24E2],"tree_param":{"num_deleted":"0","num_feature":"3","num_nodes":"1","size_leaf_vector":"0"}},{"base_weights":[2.955397E-9],"default_left":[false],"id":86,"leaf_child_counts":[0],"left_children":[-1],"loss_changes":[8.872874E-7],"parents":[2147483647],"right_children":[-1],"split_conditions":[8.8661917E-10],"split_indices":[0],"sum_hessian":[2.24E2],"tree_param":{"num_deleted":"0","num_feature":"3","num_nodes":"1","size_leaf_vector":"0"}},{"base_weights":[2.9057263E-9],"default_left":[false],"id":87,"leaf_child_counts":[0],"left_children":[-1],"loss_changes":[8.87288E-7],"parents":[2147483647],"right_children":[-1],"split_conditions":[8.717179E-10],"split_indices":[0],"sum_hessian":[2.24E2],"tree_param":{"num_deleted":"0","num_feature":"3","num_nodes":"1","size_leaf_vector":"0"}},{"base_weights":[2.8560558E-9],"default_left":[false],"id":88,"leaf_child_counts":[0],"left_children":[-1],"loss_changes":[8.8728865E-7],"parents":[2147483647],"right_children":[-1],"split_conditions":[8.568168E-10],"split_indices":[0],"sum_hessian":[2.24E2],"tree_param":{"num_deleted":"0","num_feature":"3","num_nodes":"1","size_leaf_vector":"0"}},{"base_weights":[2.8063853E-9],"default_left":[false],"id":89,"leaf_child_counts":[0],"left_children":[-1],"loss_changes":[8.872893E-7],"parents":[2147483647],"right_children":[-1],"split_conditions":[8.4191565E-10],"split_indices":[0],"sum_hessian":[2.24E2],"tree_param":{"num_deleted":"0","num_feature":"3","num_nodes":"1","size_leaf_vector":"0"}},{"base_weights":[2.7567149E-9],"default_left":[false],"id":90,"leaf_child_counts":[0],"left_children":[-1],"loss_changes":[8.8728996E-7],"parents":[2147483647],"right_children":[-1],"split_conditions":[8.270145E-10],"split_indices":[0],"sum_hessian":[2.24E2],"tree_param":{"num_deleted":"0","num_feature":"3","num_nodes":"1","size_leaf_vector":"0"}},{"base_weights":[2.7070444E-9],"default_left":[false],"id":91,"leaf_child_counts":[0],"left_children":[-1],"loss_changes":[8.872906E-7],"parents":[2147483647],"right_children":[-1],"split_conditions":[8.121133E-10],"split_indices":[0],"sum_hessian":[2.24E2],"tree_param":{"num_deleted":"0","num_feature":"3","num_nodes":"1","size_leaf_vector":"0"}},{"base_weights":[2.6573737E-9],"default_left":[false],"id":92,"leaf_child_counts":[0],"left_children":[-1],"loss_changes":[8.872912E-7],"parents":[2147483647],"right_children":[-1],"split_conditions":[7.9721213E-10],"split_indices":[0],"sum_hessian":[2.24E2],"tree_param":{"num_deleted":"0","num_feature":"3","num_nodes":"1","size_leaf_vector":"0"}},{"base_weights":[2.6077032E-9],"default_left":[false],"id":93,"leaf_child_counts":[0],"left_children":[-1],"loss_changes":[8.872919E-7],"parents":[2147483647],"right_children":[-1],"split_conditions":[7.82311E-10],"split_indices":[0],"sum_hessian":[2.24E2],"tree_param":{"num_deleted":"0","num_feature":"3","num_nodes":"1","size_leaf_vector":"0"}},{"base_weights":[2.5580327E-9],"default_left":[false],"id":94,"leaf_child_counts":[0],"left_children":[-1],"loss_changes":[8.872925E-7],"parents":[2147483647],"right_children":[-1],"split_conditions":[7.6740986E-10],"split_indices":[0],"sum_hessian":[2.24E2],"tree_param":{"num_deleted":"0","num_feature":"3","num_nodes":"1","size_leaf_vector":"0"}},{"base_weights":[2.5083622E-9],"default_left":[false],"id":95,"leaf_child_counts":[0],"left_children":[-1],"loss_changes":[8.8729314E-7],"parents":[2147483647],"right_children":[-1],"split_conditions":[7.5250867E-10],"split_indices":[0],"sum_hessian":[2.24E2],"tree_param":{"num_deleted":"0","num_feature":"3","num_nodes":"1","size_leaf_vector":"0"}},{"base_weights":[2.4586917E-9],"default_left":[false],"id":96,"leaf_child_counts":[0],"left_children":[-1],"loss_changes":[8.8729377E-7],"parents":[2147483647],"right_children":[-1],"split_conditions":[7.3760753E-10],"split_indices":[0],"sum_hessian":[2.24E2],"tree_param":{"num_deleted":"0","num_feature":"3","num_nodes":"1","size_leaf_vector":"0"}},{"base_weights":[2.409021E-9],"default_left":[false],"id":97,"leaf_child_counts":[0],"left_children":[-1],"loss_changes":[8.872944E-7],"parents":[2147483647],"right_children":[-1],"split_conditions":[7.2270634E-10],"split_indices":[0],"sum_hessian":[2.24E2],"tree_param":{"num_deleted":"0","num_feature":"3","num_nodes":"1","size_leaf_vector":"0"}},{"base_weights":[2.3593505E-9],"default_left":[false],"id":98,"leaf_child_counts":[0],"left_children":[-1],"loss_changes":[8.872951E-7],"parents":[2147483647],"right_children":[-1],"split_conditions":[7.078052E-10],"split_indices":[0],"sum_hessian":[2.24E2],"tree_param":{"num_deleted":"0","num_feature":"3","num_nodes":"1","size_leaf_vector":"0"}},{"base_weights":[2.30968E-9],"default_left":[false],"id":99,"leaf_child_counts":[0],"left_children":[-1],"loss_changes":[8.872957E-7],"parents":[2147483647],"right_children":[-1],"split_conditions":[6.92904E-10],"split_indices":[0],"sum_hessian":[2.24E2],"tree_param":{"num_deleted":"0","num_feature":"3","num_nodes":"1","size_leaf_vector":"0"}}]},"name":"gbtree"},"learner_model_param":{"base_score":"5E-1","num_class":"0","num_feature":"3"},"objective":{"name":"reg:squarederror","reg_loss_param":{"scale_pos_weight":"1"}}},"version":[1,2,1]}