{"learner":{"attributes":{"scikit_learn":"{\"n_estimators\": 100, \"objective\": \"reg:squarederror\", \"max_depth\": null, \"learning_rate\": null, \"verbosity\": null, \"booster\": null, \"tree_method\": null, \"gamma\": null, \"min_child_weight\": null, \"max_delta_step\": null, \"subsample\": null, \"colsample_bytree\": null, \"colsample_bylevel\": null, \"colsample_bynode\": null, \"reg_alpha\": null, \"reg_lambda\": null, \"scale_pos_weight\": null, \"base_score\": null, \"missing\": NaN, \"num_parallel_tree\": null, \"kwargs\": {}, \"random_state\": 42, \"n_jobs\": null, \"monotone_constraints\": null, \"interaction_constraints\": null, \"importance_type\": \"gain\", \"gpu_id\": null, \"validate_parameters\": null, \"n_features_in_\": 4, \"type\": \"XGBRegressor\"}"},"gradient_booster":{"model":{"gbtree_model_param":{"num_trees":"100","size_leaf_vector":"0"},"tree_info":[0,0,0,0,0,0,0,0,0,0,0,0,0,0,0,0,0,0,0,0,0,0,0,0,0,0,0,0,0,0,0,0,0,0,0,0,0,0,0,0,0,0,0,0,0,0,0,0,0,0,0,0,0,0,0,0,0,0,0,0,0,0,0,0,0,0,0,0,0,0,0,0,0,0,0,0,0,0,0,0,0,0,0,0,0,0,0,0,0,0,0,0,0,0,0,0,0,0,0,0],"trees":[{"base_weights":[3.2809174E0,1.9303195E0,8.39E0,1.245E1,1.2232717E0,3.1142107E-1,2.6330557E0,4.155E0,2.0944446E-2,-3.6344737E-1,8.789412E-1,2.3599982E-2,-4.0967646E-1],"default_left":[true,true,false,false,true,true,false,false,true,true,false,false,false],"id":0,"leaf_child_counts":[0,0,0,0,0,0,0,0,0,0,0,0,0],"left_children":[1,3,-1,-1,5,7,-1,-1,9,11,-1,-1,-1],"loss_changes":[8.187429E2,7.062483E2,0E0,0E0,1.1744714E2,6.3551754E1,0E0,0E0,1.8129025E1,6.8959665E-1,0E0,0E0,0E0],"parents":[2147483647,0,0,1,1,4,4,5,5,8,8,9,9],"right_children":[2,4,-1,-1,6,8,-1,-1,10,12,-1,-1,-1],"split_conditions":[8.7967993E2,4.5028473E2,2.5170002E0,3.7350001E0,4.238389E2,1.4216139E0,7.8991675E-1,1.2465001E0,1.9815802E2,1.9300847E0,2.6368237E-1,7.079995E-3,-1.22902945E-1],"split_indices":[0,1,0,0,0,0,0,0,0,0,0,0,0],"sum_hessian":[1.2E2,9.6E1,2.4E1,5E0,9.1E1,5.6E1,3.5E1,3E0,5.3E1,3.7E1,1.6E1,4E0,3.3E1],"tree_param":{"num_deleted":"0","num_feature":"4","num_nodes":"13","size_leaf_vector":"0"}},{"base_weights":[2.3663633E0,1.4122471E0,5.97368E0,9.3375E0,8.800323E-1,2.4245717E-1,1.865081E0,3.220125E0,1.7399237E-2,-2.5746113E-1,6.3076955E-1,-3.5421732E-1,-8.5487194E-2],"default_left":[true,true,false,false,true,true,false,false,true,true,false,false,false],"id":1,"leaf_child_counts":[0,0,0,0,0,0,0,0,0,0,0,0,0],"left_children":[1,3,-1,-1,5,7,-1,-1,9,11,-1,-1,-1],"loss_changes":[4.0802142E2,4.0092255E2,0E0,0E0,5.7327713E1,3.814239E1,0E0,0E0,9.266323E0,6.020212E-1,0E0,0E0,0E0],"parents":[2147483647,0,0,1,1,4,4,5,5,8,8,9,9],"right_children":[2,4,-1,-1,6,8,-1,-1,10,12,-1,-1,-1],"split_conditions":[8.7967993E2,4.5028473E2,1.7921041E0,2.80125E0,4.238389E2,1.4216139E0,5.595243E-1,9.660375E-1,1.9815802E2,7.2419586E2,1.8923087E-1,-1.062652E-1,-2.564616E-2],"split_indices":[0,1,0,0,0,0,0,0,0,1,0,0,0],"sum_hessian":[1.2E2,9.6E1,2.4E1,5E0,9.1E1,5.6E1,3.5E1,3E0,5.3E1,3.7E1,1.6E1,2.3E1,1.4E1],"tree_param":{"num_deleted":"0","num_feature":"4","num_nodes":"13","size_leaf_vector":"0"}},{"base_weights":[1.7074976E0,1.0337702E0,4.2532597E0,7.0031247E0,6.332278E-1,1.8767363E-1,1.321099E0,2.4955966E0,1.3240933E-2,-1.8369415E-1,4.5266992E-1,-2.5237983E-1,-6.1550785E-2],"default_left":[true,true,false,false,true,true,false,false,true,true,false,false,false],"id":2,"leaf_child_counts":[0,0,0,0,0,0,0,0,0,0,0,0,0],"left_children":[1,3,-1,-1,5,7,-1,-1,9,11,-1,-1,-1],"loss_changes":[2.031362E2,2.2749042E2,0E0,0E0,2.7948578E1,2.291386E1,0E0,0E0,4.756258E0,3.0326688E-1,0E0,0E0,0E0],"parents":[2147483647,0,0,1,1,4,4,5,5,8,8,9,9],"right_children":[2,4,-1,-1,6,8,-1,-1,10,12,-1,-1,-1],"split_conditions":[8.7967993E2,4.5028473E2,1.275978E0,2.1009376E0,4.238389E2,1.4216139E0,3.9632973E-1,7.4867904E-1,1.9815802E2,7.2419586E2,1.3580099E-1,-7.5713955E-2,-1.8465236E-2],"split_indices":[0,1,0,0,0,0,0,0,0,1,0,0,0],"sum_hessian":[1.2E2,9.6E1,2.4E1,5E0,9.1E1,5.6E1,3.5E1,3E0,5.3E1,3.7E1,1.6E1,2.3E1,1.4E1],"tree_param":{"num_deleted":"0","num_feature":"4","num_nodes":"13","size_leaf_vector":"0"}},{"base_weights":[1.2329634E0,7.575316E-1,3.0283208E0,5.252343E0,4.5615765E-1,5.5074587E0,2.695546E0,1.4523645E-1,9.357785E-1,1.9340873E0,1.0039416E-2,-1.3106431E-1,3.248572E-1,8.079862E-2,-1.5836579E-1],"default_left":[true,true,true,false,true,false,false,true,false,false,true,true,false,false,false],"id":3,"leaf_child_counts":[0,0,0,0,0,0,0,0,0,0,0,0,0,0,0],"left_children":[1,3,5,-1,7,-1,-1,9,-1,-1,11,13,-1,-1,-1],"loss_changes":[1.0098793E2,1.2900215E2,5.779251E0,0E0,1.3583527E1,0E0,0E0,1.3765881E1,0E0,0E0,2.441363E0,2.3259425E-1,0E0,0E0,0E0],"parents":[2147483647,0,0,1,1,2,2,4,4,7,7,10,10,11,11],"right_children":[2,4,6,-1,8,-1,-1,10,-1,-1,12,14,-1,-1,-1],"split_conditions":[8.7967993E2,4.5028473E2,1.1528064E3,1.575703E0,4.238389E2,1.6522377E0,8.086638E-1,1.4216139E0,2.8073356E-1,5.802262E-1,1.9815802E2,1.9300847E0,9.745716E-2,2.4239587E-2,-4.7509737E-2],"split_indices":[0,1,0,0,0,0,0,0,0,0,0,0,0,0,0],"sum_hessian":[1.2E2,9.6E1,2.4E1,5E0,9.1E1,1E0,2.3E1,5.6E1,3.5E1,3E0,5.3E1,3.7E1,1.6E1,4E0,3.3E1],"tree_param":{"num_deleted":"0","num_feature":"4","num_nodes":"15","size_leaf_vector":"0"}},{"base_weights":[9.041633E-1,3.9392576E0,7.3938113E-1,3.29475E-1,2.2182605E0,1.13146454E-1,6.6284305E-1,4.68134E0,1.9205763E0,1.4989178E0,8.401415E-3,-1.1507874E-1,2.0792161E-1,6.140694E-2,-1.4065707E-1,8.061923E-2,2.331328E-1],"default_left":[true,false,true,true,true,true,false,false,false,false,true,true,true,false,false,false,false],"id":4,"leaf_child_counts":[0,0,0,0,0,0,0,0,0,0,0,0,0,0,0,0,0],"left_children":[1,-1,3,5,7,9,-1,-1,-1,-1,11,13,15,-1,-1,-1,-1],"loss_changes":[5.760305E1,0E0,6.958854E1,6.5597687E0,9.339615E0,8.26111E0,0E0,0E0,0E0,0E0,1.3543137E0,1.6212043E-1,4.8603356E-2,0E0,0E0,0E0,0E0],"parents":[2147483647,0,0,2,2,3,3,4,4,5,5,10,10,11,11,12,12],"right_children":[2,-1,4,6,8,10,-1,-1,-1,-1,12,14,16,-1,-1,-1,-1],"split_conditions":[4.5028473E2,1.1817774E0,8.7967993E2,4.238389E2,1.1528064E3,1.4216139E0,1.9885293E-1,1.4044021E0,5.7617295E-1,4.4967535E-1,1.0877693E2,1.9300847E0,1.9815802E2,1.8422082E-2,-4.2197123E-2,2.4185771E-2,6.9939844E-2],"split_indices":[1,0,0,0,0,0,0,0,0,0,0,0,0,0,0,0,0],"sum_hessian":[1.2E2,5E0,1.15E2,9.1E1,2.4E1,5.6E1,3.5E1,1E0,2.3E1,3E0,5.3E1,3.3E1,2E1,4E0,2.9E1,4E0,1.6E1],"tree_param":{"num_deleted":"0","num_feature":"4","num_nodes":"17","size_leaf_vector":"0"}},{"base_weights":[6.649906E-1,2.9544435E0,5.4083794E-1,2.3844634E-1,1.6320055E0,1.1616611E0,1.9427437E-1,3.9791393E0,1.3684108E0,7.183777E-3,4.6951374E-1,-8.1254385E-2,1.5002729E-1,4.6669282E-2,-9.986651E-2,6.1270606E-2,1.6730705E-1],"default_left":[true,false,true,true,true,false,true,false,false,true,false,true,true,false,false,false,false],"id":5,"leaf_child_counts":[0,0,0,0,0,0,0,0,0,0,0,0,0,0,0,0,0],"left_children":[1,-1,3,5,7,-1,9,-1,-1,11,-1,13,15,-1,-1,-1,-1],"loss_changes":[3.279537E1,0E0,3.7886196E1,3.5260997E0,1.0022209E1,0E0,4.5796556E0,0E0,0E0,6.9436246E-1,0E0,8.561237E-2,2.1956593E-2,0E0,0E0,0E0,0E0],"parents":[2147483647,0,0,2,2,3,3,4,4,6,6,9,9,11,11,12,12],"right_children":[2,-1,4,6,8,-1,10,-1,-1,12,-1,14,16,-1,-1,-1,-1],"split_conditions":[4.5028473E2,8.8633305E-1,8.7967993E2,1.4216139E0,1.1528064E3,3.4849834E-1,4.238389E2,1.1937418E0,4.1052327E-1,1.0877693E2,1.4085414E-1,1.9300847E0,1.9815802E2,1.4000786E-2,-2.9959954E-2,1.8381182E-2,5.0192118E-2],"split_indices":[1,0,0,0,0,0,0,0,0,0,0,0,0,0,0,0,0],"sum_hessian":[1.2E2,5E0,1.15E2,9.1E1,2.4E1,3E0,8.8E1,1E0,2.3E1,5.3E1,3.5E1,3.3E1,2E1,4E0,2.9E1,4E0,1.6E1],"tree_param":{"num_deleted":"0","num_feature":"4","num_nodes":"17","size_leaf_vector":"0"}},{"base_weights":[4.9055588E-1,2.2158322E0,3.9708853E-1,1.7280339E-1,1.2065743E0,9.0028745E-1,1.3816586E-1,3.3822684E0,9.749925E-1,6.0029817E-3,3.3257225E-1,-5.734745E-2,1.08284496E-1,3.546866E-2,-7.090522E-2,4.6565663E-2,1.2006742E-1],"default_left":[true,false,true,true,true,false,true,false,false,true,false,true,true,false,false,false,false],"id":6,"leaf_child_counts":[0,0,0,0,0,0,0,0,0,0,0,0,0,0,0,0,0],"left_children":[1,-1,3,5,7,-1,9,-1,-1,11,-1,13,15,-1,-1,-1,-1],"loss_changes":[1.8632221E1,0E0,2.0851952E1,2.1938498E0,9.298592E0,0E0,2.284708E0,0E0,0E0,3.5610703E-1,0E0,4.5299813E-2,9.680763E-3,0E0,0E0,0E0,0E0],"parents":[2147483647,0,0,2,2,3,3,4,4,6,6,9,9,11,11,12,12],"right_children":[2,-1,4,6,8,-1,10,-1,-1,12,-1,14,16,-1,-1,-1,-1],"split_conditions":[4.5028473E2,6.647497E-1,8.7967993E2,1.4216139E0,1.1528064E3,2.7008626E-1,4.238389E2,1.0146806E0,2.9249775E-1,1.0877693E2,9.977168E-2,1.9300847E0,1.9815802E2,1.0640599E-2,-2.1271568E-2,1.39697E-2,3.6020227E-2],"split_indices":[1,0,0,0,0,0,0,0,0,0,0,0,0,0,0,0,0],"sum_hessian":[1.2E2,5E0,1.15E2,9.1E1,2.4E1,3E0,8.8E1,1E0,2.3E1,5.3E1,3.5E1,3.3E1,2E1,4E0,2.9E1,4E0,1.6E1],"tree_param":{"num_deleted":"0","num_feature":"4","num_nodes":"17","size_leaf_vector":"0"}},{"base_weights":[3.6306798E-1,3.181781E-1,2.874928E0,1.4180149E0,2.2695746E-1,6.9772273E-1,1.6618738E0,9.8279335E-2,6.9468224E-1,4.930941E-3,2.3557195E-1,-4.0455893E-2,7.8179576E-2,-1.8670197E-1,-3.0366557E-2,3.538991E-2,8.616597E-2],"default_left":[true,true,false,true,true,false,false,true,false,true,false,true,true,false,false,false,false],"id":7,"leaf_child_counts":[0,0,0,0,0,0,0,0,0,0,0,0,0,0,0,0,0],"left_children":[1,3,-1,5,7,-1,-1,9,-1,11,-1,13,15,-1,-1,-1,-1],"loss_changes":[1.2728877E1,1.1717505E1,0E0,4.2131996E-1,6.672553E0,0E0,0E0,1.1394664E0,0E0,1.8268709E-1,0E0,4.4498373E-2,4.1270405E-3,0E0,0E0,0E0,0E0],"parents":[2147483647,0,0,1,1,3,3,4,4,7,7,9,9,11,11,12,12],"right_children":[2,4,-1,6,8,-1,-1,10,-1,12,-1,14,16,-1,-1,-1,-1],"split_conditions":[1.640094E3,1.435852E0,8.6247844E-1,1.2432245E0,8.873397E2,2.0931683E-1,4.9856216E-1,4.238389E2,2.0840468E-1,1.0877693E2,7.067159E-2,1.7103491E0,1.9815802E2,-5.6010593E-2,-9.109967E-3,1.0616974E-2,2.5849793E-2],"split_indices":[1,0,0,0,0,0,0,0,0,0,0,0,0,0,0,0,0],"sum_hessian":[1.2E2,1.19E2,1E0,8E0,1.11E2,3E0,5E0,8.8E1,2.3E1,5.3E1,3.5E1,3.3E1,2E1,1E0,3.2E1,4E0,1.6E1],"tree_param":{"num_deleted":"0","num_feature":"4","num_nodes":"17","size_leaf_vector":"0"}},{"base_weights":[2.691954E-1,2.3071054E-1,2.4436889E0,1.0712638E0,1.6110617E-1,5.407352E-1,1.2464056E0,6.926765E-2,4.9496123E-1,2.921025E-3,1.6686349E-1,-3.0234434E-2,5.6462195E-2,-1.5869667E-1,-2.153265E-2,2.6896322E-2,6.1836734E-2],"default_left":[true,true,false,true,true,false,false,true,false,true,false,true,true,false,false,false,false],"id":8,"leaf_child_counts":[0,0,0,0,0,0,0,0,0,0,0,0,0,0,0,0,0],"left_children":[1,3,-1,5,7,-1,-1,9,-1,11,-1,13,15,-1,-1,-1,-1],"loss_changes":[9.562107E0,6.848156E0,0E0,1.622839E-1,3.3997195E0,0E0,0E0,5.7580125E-1,0E0,9.7566925E-2,0E0,3.4589767E-2,1.6737878E-3,0E0,0E0,0E0,0E0],"parents":[2147483647,0,0,1,1,3,3,4,4,7,7,9,9,11,11,12,12],"right_children":[2,4,-1,6,8,-1,-1,10,-1,12,-1,14,16,-1,-1,-1,-1],"split_conditions":[1.640094E3,1.435852E0,7.331067E-1,1.2432245E0,8.873397E2,1.6222057E-1,3.739217E-1,4.238389E2,1.4848837E-1,1.0877693E2,5.0059047E-2,1.7103491E0,1.9815802E2,-4.7609E-2,-6.459795E-3,8.068897E-3,1.8551022E-2],"split_indices":[1,0,0,0,0,0,0,0,0,0,0,0,0,0,0,0,0],"sum_hessian":[1.2E2,1.19E2,1E0,8E0,1.11E2,3E0,5E0,8.8E1,2.3E1,5.3E1,3.5E1,3.3E1,2E1,1E0,3.2E1,4E0,1.6E1],"tree_param":{"num_deleted":"0","num_feature":"4","num_nodes":"17","size_leaf_vector":"0"}},{"base_weights":[2.0034054E-1,1.6739112E-1,2.0771356E0,8.094562E-1,1.1430204E-1,4.1906983E-1,9.3480444E-1,4.8741393E-2,3.526602E-1,1.5364118E-3,1.1819494E-1,-3.484165E-2,2.9650511E-2,-1.3489217E-1,-2.462675E-2,1.3872351E-1,1.3009707E-2],"default_left":[true,true,false,true,true,false,false,true,false,true,false,true,true,false,false,false,false],"id":9,"leaf_child_counts":[0,0,0,0,0,0,0,0,0,0,0,0,0,0,0,0,0],"left_children":[1,3,-1,5,7,-1,-1,9,-1,11,-1,13,15,-1,-1,-1,-1],"loss_changes":[7.1348624E0,3.997875E0,0E0,4.86598E-2,1.7330253E0,0E0,0E0,2.916097E-1,0E0,5.626084E-2,0E0,2.1206183E-2,5.4462176E-2,0E0,0E0,0E0,0E0],"parents":[2147483647,0,0,1,1,3,3,4,4,7,7,9,9,11,11,12,12],"right_children":[2,4,-1,6,8,-1,-1,10,-1,12,-1,14,16,-1,-1,-1,-1],"split_conditions":[1.640094E3,1.435852E0,6.231407E-1,1.2432245E0,8.873397E2,1.2572095E-1,2.8044134E-1,4.238389E2,1.05798066E-1,7.2419586E2,3.5458483E-2,1.833977E0,3.3184114E0,-4.046765E-2,-7.3880255E-3,4.1617054E-2,3.9029124E-3],"split_indices":[1,0,0,0,0,0,0,0,0,1,0,0,0,0,0,0,0],"sum_hessian":[1.2E2,1.19E2,1E0,8E0,1.11E2,3E0,5E0,8.8E1,2.3E1,5.3E1,3.5E1,2.3E1,3E1,1E0,2.2E1,3E0,2.7E1],"tree_param":{"num_deleted":"0","num_feature":"4","num_nodes":"17","size_leaf_vector":"0"}},{"base_weights":[1.4989316E-1,1.2171618E-1,1.7655654E0,6.117485E-1,8.125183E-2,3.247791E-1,7.011034E-1,3.449111E-2,2.5127068E-1,-1.6742665E-2,7.126789E-2,-3.759937E-3,-6.49579E-2,4.0703647E-2,8.372133E-2,-2.6383141E-2,6.4579666E-2],"default_left":[true,true,false,true,true,false,false,true,false,true,true,true,false,false,false,false,false],"id":10,"leaf_child_counts":[0,0,0,0,0,0,0,0,0,0,0,0,0,0,0,0,0],"left_children":[1,3,-1,5,7,-1,-1,9,-1,11,13,15,-1,-1,-1,-1,-1],"loss_changes":[5.293598E0,2.329755E0,0E0,3.0751228E-3,8.817561E-1,0E0,0E0,1.6888815E-1,0E0,2.3542445E-2,1.6385019E-2,4.96317E-2,0E0,0E0,0E0,0E0,0E0],"parents":[2147483647,0,0,1,1,3,3,4,4,7,7,9,9,10,10,11,11],"right_children":[2,4,-1,6,8,-1,-1,10,-1,12,14,16,-1,-1,-1,-1,-1],"split_conditions":[1.640094E3,1.435852E0,5.2966964E-1,1.2432245E0,8.873397E2,9.743373E-2,2.1033102E-1,1.9815802E2,7.5381204E-2,9.398085E2,4.238389E2,7.2419586E2,-1.9487372E-2,1.2211095E-2,2.51164E-2,-7.914943E-3,1.9373901E-2],"split_indices":[1,0,0,0,0,0,0,0,0,1,0,1,0,0,0,0,0],"sum_hessian":[1.2E2,1.19E2,1E0,8E0,1.11E2,3E0,5E0,8.8E1,2.3E1,3.7E1,5.1E1,3E1,7E0,1.6E1,3.5E1,2.3E1,7E0],"tree_param":{"num_deleted":"0","num_feature":"4","num_nodes":"17","size_leaf_vector":"0"}},{"base_weights":[1.1271126E-1,8.863834E-2,1.5007305E0,4.624201E-1,5.78109E-2,2.4472965E-2,1.7903028E-1,-1.193114E-2,5.060533E-2,-1.1070087E-1,-6.269772E-3,2.9210862E-2,5.930257E-2,9.298031E-2,-1.7761847E-2],"default_left":[true,true,false,false,true,true,false,true,true,false,true,false,false,false,false],"id":11,"leaf_child_counts":[0,0,0,0,0,0,0,0,0,0,0,0,0,0,0],"left_children":[1,3,-1,-1,5,7,-1,9,11,-1,13,-1,-1,-1,-1],"loss_changes":[3.9100318E0,1.3559957E0,0E0,0E0,4.4823346E-1,8.527172E-2,0E0,2.0554457E-2,7.943511E-3,0E0,4.385331E-2,0E0,0E0,0E0,0E0],"parents":[2147483647,0,0,1,1,4,4,5,5,7,7,8,8,10,10],"right_children":[2,4,-1,-1,6,8,-1,10,12,-1,14,-1,-1,-1,-1],"split_conditions":[1.640094E3,1.435852E0,4.5021918E-1,1.3872604E-1,8.873397E2,1.9815802E2,5.3709086E-2,1.7103491E0,4.238389E2,-3.3210263E-2,1.9300847E0,8.763259E-3,1.7790772E-2,2.7894095E-2,-5.328554E-3],"split_indices":[1,0,0,0,0,0,0,0,0,0,0,0,0,0,0],"sum_hessian":[1.2E2,1.19E2,1E0,8E0,1.11E2,8.8E1,2.3E1,3.7E1,5.1E1,1E0,3.6E1,1.6E1,3.5E1,3E0,3.3E1],"tree_param":{"num_deleted":"0","num_feature":"4","num_nodes":"15","size_leaf_vector":"0"}},{"base_weights":[8.434054E-2,6.378303E-2,1.2756209E0,4.1022238E-1,4.5153297E-2,2.316533E-2,1.2755913E-1,1.4765924E-1,1.7309813E-2,-8.63192E-3,3.593435E-2,-9.409574E-2,-3.7789592E-3,2.0963037E-2,4.2005964E-2],"default_left":[true,true,false,false,true,true,false,false,true,true,true,false,false,false,false],"id":12,"leaf_child_counts":[0,0,0,0,0,0,0,0,0,0,0,0,0,0,0],"left_children":[1,3,-1,-1,5,7,-1,-1,9,11,13,-1,-1,-1,-1],"loss_changes":[2.8818982E0,7.5596577E-1,0E0,0E0,2.0541778E-1,6.450985E-2,0E0,0E0,4.3310784E-2,1.5405013E-2,3.8462281E-3,0E0,0E0,0E0,0E0],"parents":[2147483647,0,0,1,1,4,4,5,5,8,8,9,9,10,10],"right_children":[2,4,-1,-1,6,8,-1,-1,10,12,14,-1,-1,-1,-1],"split_conditions":[1.640094E3,4.5028473E2,3.826863E-1,1.23066716E-1,8.873397E2,1.4216139E0,3.826774E-2,4.4297773E-2,1.9815802E2,1.7103491E0,4.238389E2,-2.8228723E-2,-1.1336878E-3,6.2889117E-3,1.260179E-2],"split_indices":[1,1,0,0,0,0,0,0,0,0,0,0,0,0,0],"sum_hessian":[1.2E2,1.19E2,1E0,5E0,1.14E2,9.1E1,2.3E1,3E0,8.8E1,3.7E1,5.1E1,1E0,3.6E1,1.6E1,3.5E1],"tree_param":{"num_deleted":"0","num_feature":"4","num_nodes":"15","size_leaf_vector":"0"}},{"base_weights":[6.381388E-2,4.6274368E-2,1.0842776E0,3.0766663E-1,3.2234125E-2,1.6583387E-2,9.088554E-2,1.1443597E-1,1.1999188E-2,-8.644688E-3,2.4318699E-2,8.729119E-3,-2.873579E-2,1.3842727E-2,2.9754162E-2],"default_left":[true,true,false,false,true,true,false,false,true,true,true,false,false,false,false],"id":13,"leaf_child_counts":[0,0,0,0,0,0,0,0,0,0,0,0,0,0,0],"left_children":[1,3,-1,-1,5,7,-1,-1,9,11,13,-1,-1,-1,-1],"loss_changes":[2.1155365E0,4.3048394E-1,0E0,0E0,1.0405567E-1,3.9895833E-2,0E0,0E0,2.2844926E-2,1.21188415E-2,2.7768612E-3,0E0,0E0,0E0,0E0],"parents":[2147483647,0,0,1,1,4,4,5,5,8,8,9,9,10,10],"right_children":[2,4,-1,-1,6,8,-1,-1,10,12,14,-1,-1,-1,-1],"split_conditions":[1.640094E3,4.5028473E2,3.252833E-1,9.229999E-2,8.873397E2,1.4216139E0,2.7265664E-2,3.4330793E-2,1.0877693E2,3.4420395E0,4.238389E2,2.6187357E-3,-8.620737E-3,4.152818E-3,8.926249E-3],"split_indices":[1,1,0,0,0,0,0,0,0,0,0,0,0,0,0],"sum_hessian":[1.2E2,1.19E2,1E0,5E0,1.14E2,9.1E1,2.3E1,3E0,8.8E1,3.3E1,5.5E1,1.8E1,1.5E1,2E1,3.5E1],"tree_param":{"num_deleted":"0","num_feature":"4","num_nodes":"15","size_leaf_vector":"0"}},{"base_weights":[4.8688404E-2,3.373354E-2,9.216361E-1,1.9324988E-1,2.061407E-2,8.868784E-2,2.307496E-1,8.478995E-3,6.475606E-2,-8.129074E-2,1.0422864E-2,7.094596E-2,7.4520963E-3,-1.1098264E-2,1.7256716E-2],"default_left":[true,true,false,true,true,false,false,true,false,false,true,false,true,false,false],"id":14,"leaf_child_counts":[0,0,0,0,0,0,0,0,0,0,0,0,0,0,0],"left_children":[1,3,-1,5,7,-1,-1,9,-1,-1,11,-1,13,-1,-1],"loss_changes":[1.5485425E0,2.4714872E-1,0E0,1.4824748E-2,5.9445556E-2,0E0,0E0,1.6377836E-2,0E0,0E0,1.5293709E-2,0E0,1.5651254E-2,0E0,0E0],"parents":[2147483647,0,0,1,1,3,3,4,4,7,7,10,10,12,12],"right_children":[2,4,-1,6,8,-1,-1,10,-1,-1,12,-1,14,-1,-1],"split_conditions":[1.640094E3,1.435852E0,2.7649084E-1,1.2432245E0,8.873397E2,2.6606353E-2,6.922489E-2,1.7103491E0,1.9426819E-2,-2.4387222E-2,1.9300847E0,2.128379E-2,1.0877693E2,-3.3294794E-3,5.177015E-3],"split_indices":[1,0,0,0,0,0,0,0,0,0,0,0,0,0,0],"sum_hessian":[1.2E2,1.19E2,1E0,8E0,1.11E2,3E0,5E0,8.8E1,2.3E1,1E0,8.7E1,3E0,8.4E1,2.9E1,5.5E1],"tree_param":{"num_deleted":"0","num_feature":"4","num_nodes":"15","size_leaf_vector":"0"}},{"base_weights":[3.730916E-2,2.456356E-2,7.833905E-1,1.4592253E-1,1.4592184E-2,6.873292E-2,1.7306185E-1,5.9211818E-3,4.613914E-2,-6.9097124E-2,7.558857E-3,5.498311E-2,5.2382E-3,-7.022484E-3,1.3154066E-2],"default_left":[true,true,false,true,true,false,false,true,false,false,true,false,true,false,false],"id":15,"leaf_child_counts":[0,0,0,0,0,0,0,0,0,0,0,0,0,0,0],"left_children":[1,3,-1,5,7,-1,-1,9,-1,-1,11,-1,13,-1,-1],"loss_changes":[1.1313769E0,1.430846E-1,0E0,6.9588274E-3,3.03637E-2,0E0,0E0,1.1456447E-2,0E0,0E0,9.396866E-3,0E0,8.341959E-3,0E0,0E0],"parents":[2147483647,0,0,1,1,3,3,4,4,7,7,10,10,12,12],"right_children":[2,4,-1,6,8,-1,-1,10,-1,-1,12,-1,14,-1,-1],"split_conditions":[1.640094E3,1.435852E0,2.3501717E-1,1.2432245E0,8.873397E2,2.0619877E-2,5.1918555E-2,1.7103491E0,1.3841743E-2,-2.0729138E-2,1.9300847E0,1.6494934E-2,1.9815802E2,-2.1067453E-3,3.94622E-3],"split_indices":[1,0,0,0,0,0,0,0,0,0,0,0,0,0,0],"sum_hessian":[1.2E2,1.19E2,1E0,8E0,1.11E2,3E0,5E0,8.8E1,2.3E1,1E0,8.7E1,3E0,8.4E1,3.3E1,5.1E1],"tree_param":{"num_deleted":"0","num_feature":"4","num_nodes":"15","size_leaf_vector":"0"}},{"base_weights":[2.8752785E-2,1.7894356E-2,6.658821E-1,1.1020536E-1,1.0316736E-2,5.3268015E-2,1.2979603E-1,4.1178935E-3,3.2874245E-2,-5.873255E-2,5.4995185E-3,4.2611912E-2,3.6883529E-3,-2.5181617E-3,1.2206058E-2],"default_left":[true,true,false,true,true,false,false,true,false,false,true,false,true,false,false],"id":16,"leaf_child_counts":[0,0,0,0,0,0,0,0,0,0,0,0,0,0,0],"left_children":[1,3,-1,5,7,-1,-1,9,-1,-1,11,-1,13,-1,-1],"loss_changes":[8.251895E-1,8.280276E-2,0E0,3.1249896E-3,1.5525638E-2,0E0,0E0,8.051381E-3,0E0,0E0,5.7579014E-3,0E0,4.524284E-3,0E0,0E0],"parents":[2147483647,0,0,1,1,3,3,4,4,7,7,10,10,12,12],"right_children":[2,4,-1,6,8,-1,-1,10,-1,-1,12,-1,14,-1,-1],"split_conditions":[1.640094E3,1.435852E0,1.9976464E-1,1.2432245E0,8.873397E2,1.5980406E-2,3.893881E-2,1.7103491E0,9.862274E-3,-1.7619766E-2,1.9300847E0,1.2783574E-2,4.238389E2,-7.5544853E-4,3.6618176E-3],"split_indices":[1,0,0,0,0,0,0,0,0,0,0,0,0,0,0],"sum_hessian":[1.2E2,1.19E2,1E0,8E0,1.11E2,3E0,5E0,8.8E1,2.3E1,1E0,8.7E1,3E0,8.4E1,4.9E1,3.5E1],"tree_param":{"num_deleted":"0","num_feature":"4","num_nodes":"15","size_leaf_vector":"0"}},{"base_weights":[2.2297395E-2,1.30498735E-2,5.66E-1,8.32461E-2,7.2925882E-3,4.1282833E-2,9.734726E-2,2.8608174E-3,2.3423215E-2,-4.9922667E-2,4.027933E-3,3.302422E-2,2.616014E-3,-5.1129805E-3,6.709832E-3],"default_left":[true,true,false,true,true,false,false,true,false,false,true,false,true,false,false],"id":17,"leaf_child_counts":[0,0,0,0,0,0,0,0,0,0,0,0,0,0,0],"left_children":[1,3,-1,5,7,-1,-1,9,-1,-1,11,-1,13,-1,-1],"loss_changes":[6.009899E-1,4.7889676E-2,0E0,1.3068058E-3,7.939561E-3,0E0,0E0,5.6838784E-3,0E0,0E0,3.5163634E-3,0E0,2.7238005E-3,0E0,0E0],"parents":[2147483647,0,0,1,1,3,3,4,4,7,7,10,10,12,12],"right_children":[2,4,-1,6,8,-1,-1,10,-1,-1,12,-1,14,-1,-1],"split_conditions":[1.640094E3,1.435852E0,1.698E-1,1.2432245E0,8.873397E2,1.23848505E-2,2.9204179E-2,1.7103491E0,7.026965E-3,-1.49768E-2,1.9300847E0,9.907267E-3,1.0877693E2,-1.5338942E-3,2.0129497E-3],"split_indices":[1,0,0,0,0,0,0,0,0,0,0,0,0,0,0],"sum_hessian":[1.2E2,1.19E2,1E0,8E0,1.11E2,3E0,5E0,8.8E1,2.3E1,1E0,8.7E1,3E0,8.4E1,2.9E1,5.5E1],"tree_param":{"num_deleted":"0","num_feature":"4","num_nodes":"15","size_leaf_vector":"0"}},{"base_weights":[1.737537E-2,9.501831E-3,4.8110008E-1,6.289315E-2,5.126619E-3,3.1994164E-2,7.301029E-2,-4.2434268E-2,5.937386E-3,2.93757E-3,1.6689321E-2,2.5593787E-2,1.8368354E-3,3.0569225E-3,-1.4737133E-2],"default_left":[true,true,false,true,true,false,false,false,true,true,false,false,true,false,false],"id":18,"leaf_child_counts":[0,0,0,0,0,0,0,0,0,0,0,0,0,0,0],"left_children":[1,3,-1,5,7,-1,-1,-1,9,11,-1,-1,13,-1,-1],"loss_changes":[4.3721846E-1,2.770937E-2,0E0,4.7758222E-4,4.570759E-3,0E0,0E0,0E0,3.5311487E-3,2.147575E-3,0E0,0E0,1.7638936E-3,0E0,0E0],"parents":[2147483647,0,0,1,1,3,3,4,4,8,8,9,9,12,12],"right_children":[2,4,-1,6,8,-1,-1,-1,10,12,-1,-1,14,-1,-1],"split_conditions":[1.640094E3,1.435852E0,1.4433002E-1,1.2432245E0,1.7103491E0,9.59825E-3,2.1903086E-2,-1.2730281E-2,8.873397E2,1.9300847E0,5.0067967E-3,7.6781367E-3,1.3792765E3,9.170768E-4,-4.42114E-3],"split_indices":[1,0,0,0,0,0,0,0,0,0,0,0,1,0,0],"sum_hessian":[1.2E2,1.19E2,1E0,8E0,1.11E2,3E0,5E0,1E0,1.1E2,8.7E1,2.3E1,3E0,8.4E1,7.9E1,5E0],"tree_param":{"num_deleted":"0","num_feature":"4","num_nodes":"15","size_leaf_vector":"0"}},{"base_weights":[1.3586607E-2,6.8842517E-3,4.089346E-1,4.752538E-2,3.55698E-3,2.4795473E-2,5.4757755E-2,-3.606913E-2,4.2389194E-3,-4.4476741E-4,8.374453E-3,9.565179E-3,-5.437386E-3,5.797366E-3,1.1891146E-2,1.9835174E-2,6.188835E-3,-1.2602695E-2,2.8082018E-4],"default_left":[true,true,false,true,true,false,false,false,true,true,true,true,true,false,false,false,false,false,false],"id":19,"leaf_child_counts":[0,0,0,0,0,0,0,0,0,0,0,0,0,0,0,0,0,0,0],"left_children":[1,3,-1,5,7,-1,-1,-1,9,11,13,15,17,-1,-1,-1,-1,-1,-1],"loss_changes":[3.1780607E-1,1.6057841E-2,0E0,1.21776015E-4,3.1794244E-3,0E0,0E0,0E0,2.1537438E-3,2.7007293E-3,4.6576932E-4,5.0139404E-4,1.4785569E-3,0E0,0E0,0E0,0E0,0E0,0E0],"parents":[2147483647,0,0,1,1,3,3,4,4,8,8,9,9,10,10,11,11,12,12],"right_children":[2,4,-1,6,8,-1,-1,-1,10,12,14,16,18,-1,-1,-1,-1,-1,-1],"split_conditions":[1.640094E3,1.435852E0,1.2268038E-1,1.2432245E0,1.7103491E0,7.438642E-3,1.6427327E-2,-1.0820739E-2,4.238389E2,3.4420395E0,8.873397E2,1.9300847E0,1.0877693E2,1.7392099E-3,3.567344E-3,5.9505524E-3,1.8566506E-3,-3.7808088E-3,8.424606E-5],"split_indices":[1,0,0,0,0,0,0,0,0,0,0,0,0,0,0,0,0,0,0],"sum_hessian":[1.2E2,1.19E2,1E0,8E0,1.11E2,3E0,5E0,1E0,1.1E2,5.2E1,5.8E1,1.7E1,3.5E1,3.5E1,2.3E1,3E0,1.4E1,1.5E1,2E1],"tree_param":{"num_deleted":"0","num_feature":"4","num_nodes":"19","size_leaf_vector":"0"}},{"base_weights":[1.0710074E-2,5.0060865E-3,3.4759426E-1,3.5919692E-2,2.47726E-3,-3.065876E-2,3.0519878E-3,-2.337893E-4,5.9518893E-3,6.1635426E-3,-6.1658192E-3,4.1064154E-3,8.472105E-3,1.53722465E-2,4.2940485E-3,-2.2106834E-2,2.0055828E-4],"default_left":[true,true,false,false,true,false,true,true,true,true,true,false,false,false,false,false,false],"id":20,"leaf_child_counts":[0,0,0,0,0,0,0,0,0,0,0,0,0,0,0,0,0],"left_children":[1,3,-1,-1,5,-1,7,9,11,13,15,-1,-1,-1,-1,-1,-1],"loss_changes":[2.3077147E-1,9.292034E-3,0E0,0E0,2.2265194E-3,0E0,1.0590473E-3,2.049309E-3,2.3961836E-4,3.8159685E-4,2.846056E-3,0E0,0E0,0E0,0E0,0E0,0E0],"parents":[2147483647,0,0,1,1,4,4,6,6,7,7,8,8,9,9,10,10],"right_children":[2,4,-1,-1,6,-1,8,10,12,14,16,-1,-1,-1,-1,-1,-1],"split_conditions":[1.640094E3,1.435852E0,1.0427828E-1,1.0775908E-2,1.7103491E0,-9.197628E-3,4.238389E2,8.801201E2,8.873397E2,1.9300847E0,1.0877693E2,1.2319246E-3,2.5416315E-3,4.611674E-3,1.2882146E-3,-6.6320505E-3,6.0167487E-5],"split_indices":[1,0,0,0,0,0,0,1,0,0,0,0,0,0,0,0,0],"sum_hessian":[1.2E2,1.19E2,1E0,8E0,1.11E2,1E0,1.1E2,5.2E1,5.8E1,2.5E1,2.7E1,3.5E1,2.3E1,3E0,2.2E1,7E0,2E1],"tree_param":{"num_deleted":"0","num_feature":"4","num_nodes":"17","size_leaf_vector":"0"}},{"base_weights":[8.397558E-3,3.5432873E-3,2.9545498E-1,3.2088917E-2,2.023139E-3,-2.9698625E-4,4.2303256E-3,3.6831421E-3,-4.550803E-3,2.9087265E-3,6.0364604E-3,-3.0501909E-3,6.7141037E-3,-1.6303789E-2,1.4322996E-4,-2.6059944E-2,2.4019978E-3,1.3170251E-2,3.2536278E-3,-2.3754586E-3,-3.8725853E-2,-6.4407586E-4,3.6636522E-4],"default_left":[true,true,false,false,true,true,true,true,true,false,false,true,true,true,true,false,false,false,false,false,false,false,false],"id":21,"leaf_child_counts":[0,0,0,0,0,0,0,0,0,0,0,0,0,0,0,0,0,0,0,0,0,0,0],"left_children":[1,3,-1,-1,5,7,9,11,13,-1,-1,15,17,19,21,-1,-1,-1,-1,-1,-1,-1,-1],"loss_changes":[1.6756108E-1,5.14231E-3,0E0,0E0,5.901654E-4,9.818133E-4,1.2327381E-4,6.3273346E-4,1.5470643E-3,0E0,0E0,1.3171311E-3,4.2631704E-4,2.4064237E-3,3.9251563E-6,0E0,0E0,0E0,0E0,0E0,0E0,0E0,0E0],"parents":[2147483647,0,0,1,1,4,4,5,5,6,6,7,7,8,8,11,11,12,12,13,13,14,14],"right_children":[2,4,-1,-1,6,8,10,12,14,-1,-1,16,18,20,22,-1,-1,-1,-1,-1,-1,-1,-1],"split_conditions":[1.640094E3,4.5028473E2,8.8636495E-2,9.626675E-3,4.238389E2,8.801201E2,8.873397E2,5.7195557E2,1.0877693E2,8.72618E-4,1.8109382E-3,3.3148906E0,1.9300847E0,2.9766354E1,1.9815802E2,-7.817984E-3,7.205994E-4,3.9510755E-3,9.760884E-4,-7.126376E-4,-1.1617756E-2,-1.9322276E-4,1.0990957E-4],"split_indices":[1,1,0,0,0,1,0,1,0,0,0,0,0,0,0,0,0,0,0,0,0,0,0],"sum_hessian":[1.2E2,1.19E2,1E0,5E0,1.14E2,5.6E1,5.8E1,2.9E1,2.7E1,3.5E1,2.3E1,9E0,2E1,7E0,2E1,1E0,8E0,6E0,1.4E1,5E0,2E0,4E0,1.6E1],"tree_param":{"num_deleted":"0","num_feature":"4","num_nodes":"23","size_leaf_vector":"0"}},{"base_weights":[6.5920292E-3,2.4613498E-3,2.5113678E-1,2.4066925E-2,1.3126995E-3,-4.6374934E-4,3.0066806E-3,2.139066E-3,-4.1317483E-3,2.0603538E-3,4.3008924E-3,-2.844872E-3,4.0470785E-3,-3.0980682E-2,-2.8272346E-4,-2.2150952E-2,1.761465E-3,9.783617E-3,1.720613E-3,-1.7815916E-3,2.6291958E-4],"default_left":[true,true,false,false,true,true,true,true,true,false,false,true,true,false,true,false,false,false,false,false,false],"id":22,"leaf_child_counts":[0,0,0,0,0,0,0,0,0,0,0,0,0,0,0,0,0,0,0,0,0],"left_children":[1,3,-1,-1,5,7,9,11,13,-1,-1,15,17,-1,19,-1,-1,-1,-1,-1,-1],"loss_changes":[1.216083E-1,2.9464776E-3,0E0,0E0,3.4746047E-4,5.530242E-4,6.339874E-5,3.3483357E-4,2.4714542E-3,0E0,0E0,9.2832115E-4,3.168127E-4,0E0,1.8461047E-5,0E0,0E0,0E0,0E0,0E0,0E0],"parents":[2147483647,0,0,1,1,4,4,5,5,6,6,7,7,8,8,11,11,12,12,14,14],"right_children":[2,4,-1,-1,6,8,10,12,14,-1,-1,16,18,-1,20,-1,-1,-1,-1,-1,-1],"split_conditions":[1.640094E3,4.5028473E2,7.534104E-2,7.220078E-3,4.238389E2,9.398085E2,8.873397E2,5.7195557E2,1.0600465E3,6.1810616E-4,1.2902678E-3,3.3148906E0,1.9300847E0,-9.294205E-3,1.1914743E2,-6.645286E-3,5.2843953E-4,2.9350852E-3,5.161839E-4,-5.3447747E-4,7.887588E-5],"split_indices":[1,1,0,0,0,1,0,1,1,0,0,0,0,0,0,0,0,0,0,0,0],"sum_hessian":[1.2E2,1.19E2,1E0,5E0,1.14E2,5.6E1,5.8E1,3.3E1,2.3E1,3.5E1,2.3E1,9E0,2.4E1,2E0,2.1E1,1E0,8E0,6E0,1.8E1,5E0,1.6E1],"tree_param":{"num_deleted":"0","num_feature":"4","num_nodes":"21","size_leaf_vector":"0"}},{"base_weights":[5.2098623E-3,1.6955005E-3,2.1346664E-1,1.8050035E-2,8.274769E-4,-5.424427E-4,2.1369336E-3,1.7585619E-3,-2.9884318E-3,1.4593072E-3,3.0643344E-3,-2.603095E-3,3.7518004E-3,-1.1266555E-2,-2.1864576E-4,-1.882831E-2,1.291741E-3,7.267884E-3,1.8608414E-3,-2.4784544E-2,-9.0245006E-4,-1.3361959E-3,1.886452E-4],"default_left":[true,true,false,false,true,true,true,true,true,false,false,true,true,true,true,false,false,false,false,false,false,false,false],"id":23,"leaf_child_counts":[0,0,0,0,0,0,0,0,0,0,0,0,0,0,0,0,0,0,0,0,0,0,0],"left_children":[1,3,-1,-1,5,7,9,11,13,-1,-1,15,17,19,21,-1,-1,-1,-1,-1,-1,-1,-1],"loss_changes":[8.8196725E-2,1.6885985E-3,0E0,0E0,2.0745197E-4,3.260646E-4,3.2605632E-5,2.70581E-4,6.395383E-4,0E0,0E0,6.562668E-4,1.2609977E-4,9.5834624E-4,1.0265763E-5,0E0,0E0,0E0,0E0,0E0,0E0,0E0,0E0],"parents":[2147483647,0,0,1,1,4,4,5,5,6,6,7,7,8,8,11,11,12,12,13,13,14,14],"right_children":[2,4,-1,-1,6,8,10,12,14,-1,-1,16,18,20,22,-1,-1,-1,-1,-1,-1,-1,-1],"split_conditions":[1.640094E3,4.5028473E2,6.404E-2,5.4150107E-3,4.238389E2,8.801201E2,8.873397E2,5.7195557E2,1.0600465E3,4.3779216E-4,9.1930036E-4,3.3148906E0,1.9300847E0,1.0877693E2,1.1914743E2,-5.6484933E-3,3.8752233E-4,2.1803654E-3,5.5825245E-4,-7.4353637E-3,-2.7073504E-4,-4.008588E-4,5.659356E-5],"split_indices":[1,1,0,0,0,1,0,1,1,0,0,0,0,0,0,0,0,0,0,0,0,0,0],"sum_hessian":[1.2E2,1.19E2,1E0,5E0,1.14E2,5.6E1,5.8E1,2.9E1,2.7E1,3.5E1,2.3E1,9E0,2E1,6E0,2.1E1,1E0,8E0,6E0,1.4E1,2E0,4E0,5E0,1.6E1],"tree_param":{"num_deleted":"0","num_feature":"4","num_nodes":"23","size_leaf_vector":"0"}},{"base_weights":[4.144757E-3,1.1551796E-3,1.8144703E-1,1.3537566E-2,4.9909693E-4,-5.652156E-4,1.5188719E-3,1.146896E-3,-2.3794346E-3,1.03373E-3,2.1832983E-3,-2.3482635E-3,2.7566438E-3,-8.987465E-3,-1.6872348E-4,-1.6004063E-2,9.472767E-4,5.3989207E-3,1.339805E-3,-1.9827634E-2,-6.8587065E-4,-1.0021491E-3,1.3535163E-4],"default_left":[true,true,false,false,true,true,true,true,true,false,false,true,true,true,true,false,false,false,false,false,false,false,false],"id":24,"leaf_child_counts":[0,0,0,0,0,0,0,0,0,0,0,0,0,0,0,0,0,0,0,0,0,0,0],"left_children":[1,3,-1,-1,5,7,9,11,13,-1,-1,15,17,19,21,-1,-1,-1,-1,-1,-1,-1,-1],"loss_changes":[6.3927524E-2,9.681076E-4,0E0,0E0,1.256748E-4,1.7977928E-4,1.6761187E-5,1.7526309E-4,4.0752016E-4,0E0,0E0,4.6519266E-4,7.138378E-5,6.163356E-4,5.7109696E-6,0E0,0E0,0E0,0E0,0E0,0E0,0E0,0E0],"parents":[2147483647,0,0,1,1,4,4,5,5,6,6,7,7,8,8,11,11,12,12,13,13,14,14],"right_children":[2,4,-1,-1,6,8,10,12,14,-1,-1,16,18,20,22,-1,-1,-1,-1,-1,-1,-1,-1],"split_conditions":[1.640094E3,4.5028473E2,5.443411E-2,4.06127E-3,4.238389E2,8.801201E2,8.873397E2,5.7195557E2,1.0600465E3,3.10119E-4,6.549895E-4,3.3148906E0,1.9300847E0,1.0877693E2,1.1914743E2,-4.8012193E-3,2.84183E-4,1.6196762E-3,4.019415E-4,-5.9482907E-3,-2.057612E-4,-3.0064472E-4,4.060549E-5],"split_indices":[1,1,0,0,0,1,0,1,1,0,0,0,0,0,0,0,0,0,0,0,0,0,0],"sum_hessian":[1.2E2,1.19E2,1E0,5E0,1.14E2,5.6E1,5.8E1,2.9E1,2.7E1,3.5E1,2.3E1,9E0,2E1,6E0,2.1E1,1E0,8E0,6E0,1.4E1,2E0,4E0,5E0,1.6E1],"tree_param":{"num_deleted":"0","num_feature":"4","num_nodes":"23","size_leaf_vector":"0"}},{"base_weights":[3.3190276E-3,7.761842E-4,1.5423012E-1,9.581915E-3,2.2867281E-4,-3.0123761E-3,5.0169893E-4,-1.36034535E-2,1.1940327E-5,4.010558E-3,2.5106178E-4,-1.5474013E-3,8.711815E-4,4.98011E-4,-7.170379E-3,5.3862424E-4,1.5554229E-3],"default_left":[true,true,false,false,true,true,true,false,false,false,true,true,true,false,false,false,false],"id":25,"leaf_child_counts":[0,0,0,0,0,0,0,0,0,0,0,0,0,0,0,0,0],"left_children":[1,3,-1,-1,5,7,9,-1,-1,-1,11,13,15,-1,-1,-1,-1],"loss_changes":[4.6313226E-2,5.763574E-4,0E0,0E0,1.02388876E-4,2.8843933E-4,9.221485E-5,0E0,0E0,0E0,1.1287431E-4,3.0260495E-4,1.622842E-5,0E0,0E0,0E0,0E0],"parents":[2147483647,0,0,1,1,4,4,5,5,6,6,10,10,11,11,12,12],"right_children":[2,4,-1,-1,6,8,10,-1,-1,-1,12,14,16,-1,-1,-1,-1],"split_conditions":[1.640094E3,5.0381213E2,4.6269037E-2,2.8745746E-3,5.7195557E2,3.3148906E0,1.9300847E0,-4.0810364E-3,3.582098E-6,1.2031675E-3,1.9815802E2,2.9766354E1,8.873397E2,1.494033E-4,-2.151114E-3,1.6158728E-4,4.666269E-4],"split_indices":[1,1,0,0,1,0,0,0,0,0,0,0,0,0,0,0,0],"sum_hessian":[1.2E2,1.19E2,1E0,6E0,1.13E2,8E0,1.05E2,1E0,7E0,6E0,9.9E1,2.5E1,7.4E1,1.9E1,6E0,5.1E1,2.3E1],"tree_param":{"num_deleted":"0","num_feature":"4","num_nodes":"17","size_leaf_vector":"0"}},{"base_weights":[2.6944177E-3,5.3193973E-4,1.3109589E-1,7.757505E-3,1.5032815E-4,-9.481309E-4,6.628934E-4,2.343784E-4,-1.442803E-2,8.460709E-4,-5.4934444E-5,-1.9773494E-3,1.0760283E-3,6.674573E-4,1.1085073E-3,-1.1562935E-2,3.724863E-4,2.9793126E-3,3.5607745E-4,1.199615E-3,5.75006E-4],"default_left":[true,true,false,false,true,true,true,true,false,true,false,true,true,true,false,false,false,false,false,false,false],"id":26,"leaf_child_counts":[0,0,0,0,0,0,0,0,0,0,0,0,0,0,0,0,0,0,0,0,0],"left_children":[1,3,-1,-1,5,7,9,11,-1,13,-1,15,17,19,-1,-1,-1,-1,-1,-1,-1],"loss_changes":[3.3527773E-2,3.2971695E-4,0E0,0E0,6.5377186E-5,5.931655E-4,1.0434182E-5,6.7280205E-5,0E0,2.21323E-6,0E0,2.2955253E-4,3.4566183E-5,1.2781602E-6,0E0,0E0,0E0,0E0,0E0,0E0,0E0],"parents":[2147483647,0,0,1,1,4,4,5,5,6,6,7,7,9,9,11,11,12,12,13,13],"right_children":[2,4,-1,-1,6,8,10,12,-1,14,-1,16,18,20,-1,-1,-1,-1,-1,-1,-1],"split_conditions":[1.640094E3,4.5028473E2,3.932877E-2,2.3272515E-3,1.0877693E2,3.424977E1,8.4639564E-2,5.7195557E2,-4.328409E-3,8.873397E2,-1.6480333E-5,3.3148906E0,1.9300847E0,3.885324E2,3.3255218E-4,-3.4688807E-3,1.11745896E-4,8.937938E-4,1.0682324E-4,3.598845E-4,1.7250181E-4],"split_indices":[1,1,0,0,0,0,2,1,0,0,0,0,0,0,0,0,0,0,0,0,0],"sum_hessian":[1.2E2,1.19E2,1E0,5E0,1.14E2,3.6E1,7.8E1,3.4E1,2E0,6.2E1,1.6E1,9E0,2.5E1,3.9E1,2.3E1,1E0,8E0,6E0,1.9E1,4E0,3.5E1],"tree_param":{"num_deleted":"0","num_feature":"4","num_nodes":"21","size_leaf_vector":"0"}},{"base_weights":[2.1820425E-3,3.4304083E-4,1.1143112E-1,5.440055E-3,2.7057127E-5,-2.2631958E-3,2.212573E-4,-9.828494E-3,-8.8971676E-5,1.2373731E-3,-9.123236E-5,2.2132993E-3,8.1269647E-4,-1.1542425E-2,3.3932776E-4,-2.937046E-4,5.696224E-4],"default_left":[true,true,false,false,true,true,true,false,false,true,true,false,false,false,true,false,false],"id":27,"leaf_child_counts":[0,0,0,0,0,0,0,0,0,0,0,0,0,0,0,0,0],"left_children":[1,3,-1,-1,5,7,9,-1,-1,11,13,-1,-1,-1,15,-1,-1],"loss_changes":[2.4271792E-2,1.9312161E-4,0E0,9.859941E-7,5.1204242E-5,1.4716343E-4,3.3770608E-5,0E0,0E0,8.562587E-6,4.0821166E-4,0E0,0E0,0E0,1.1830018E-5,0E0,0E0],"parents":[2147483647,0,0,1,1,4,4,5,5,6,6,9,9,10,10,14,14],"right_children":[2,4,-1,-1,6,8,10,-1,-1,12,14,-1,-1,-1,16,-1,-1],"split_conditions":[1.640094E3,5.0381213E2,3.342934E-2,1.6320165E-3,5.7195557E2,3.3148906E0,9.398085E2,-2.9485484E-3,-2.6691503E-5,1.9300847E0,1.0166163E3,6.639898E-4,2.4380894E-4,-3.4627274E-3,4.238389E2,-8.811138E-5,1.7088672E-4],"split_indices":[1,1,0,0,1,0,1,0,0,0,1,0,0,0,0,0,0],"sum_hessian":[1.2E2,1.19E2,1E0,6E0,1.13E2,8E0,1.05E2,1E0,7E0,2.4E1,8.1E1,6E0,1.8E1,2E0,7.9E1,2.1E1,5.8E1],"tree_param":{"num_deleted":"0","num_feature":"4","num_nodes":"17","size_leaf_vector":"0"}},{"base_weights":[1.7721986E-3,2.0836575E-4,9.471607E-2,4.458586E-3,-1.5196769E-5,-8.0454245E-4,3.5468914E-4,-5.9035574E-5,-9.233941E-3,2.3210155E-4,6.2594813E-4,-2.502216E-3,3.3693016E-4,7.166505E-4,1.8104681E-4,1.0493398E-3,-8.35422E-3,6.075043E-4,-8.917128E-4],"default_left":[true,true,false,false,true,true,true,true,false,true,false,true,true,false,false,false,false,false,false],"id":28,"leaf_child_counts":[0,0,0,0,0,0,0,0,0,0,0,0,0,0,0,0,0,0,0],"left_children":[1,3,-1,-1,5,7,9,11,-1,13,-1,15,17,-1,-1,-1,-1,-1,-1],"loss_changes":[1.7567456E-2,1.1409056E-4,0E0,0E0,3.3861663E-5,2.3196933E-4,2.4817018E-6,3.4702625E-5,0E0,1.25561E-6,0E0,1.12685004E-4,1.084733E-5,0E0,4.183703E-7,0E0,0E0,0E0,0E0],"parents":[2147483647,0,0,1,1,4,4,5,5,6,6,7,7,9,9,11,11,12,12],"right_children":[2,4,-1,-1,6,8,10,12,-1,14,-1,16,18,-1,-1,-1,-1,-1,-1],"split_conditions":[1.640094E3,4.5028473E2,2.8414823E-2,1.337576E-3,1.0877693E2,3.424977E1,8.873397E2,1.7103491E0,-2.7701824E-3,1.9815802E2,1.8778445E-4,1.4216139E0,1.2166818E3,2.1499516E-4,5.4314045E-5,3.1480193E-4,-2.5062659E-3,1.8225129E-4,-2.6751385E-4],"split_indices":[1,1,0,0,0,0,0,0,0,0,0,0,1,0,0,0,0,0,0],"sum_hessian":[1.2E2,1.19E2,1E0,5E0,1.14E2,3.6E1,7.8E1,3.4E1,2E0,5.5E1,2.3E1,4E0,3E1,4E0,5.1E1,3E0,1E0,2.5E1,5E0],"tree_param":{"num_deleted":"0","num_feature":"4","num_nodes":"19","size_leaf_vector":"0"}},{"base_weights":[1.4484352E-3,1.1870162E-4,8.050823E-2,3.3435822E-3,-5.0585204E-5,-2.1897901E-3,4.6231096E-5,8.133054E-4,-7.101086E-3,-4.525874E-4,2.540131E-4,2.3309902E-4,-7.3871515E-3,3.2060203E-4,-7.6995175E-6,1.6914159E-3,1.644307E-5],"default_left":[true,true,false,false,true,true,true,false,false,true,true,true,false,false,false,false,false],"id":29,"leaf_child_counts":[0,0,0,0,0,0,0,0,0,0,0,0,0,0,0,0,0],"left_children":[1,3,-1,-1,5,7,9,-1,-1,11,13,15,-1,-1,-1,-1,-1],"loss_changes":[1.2710988E-2,6.568071E-5,0E0,0E0,2.3918876E-5,7.95208E-5,1.1619615E-5,0E0,0E0,1.5863482E-4,1.3792142E-6,9.766732E-6,0E0,5.508764E-7,0E0,0E0,0E0],"parents":[2147483647,0,0,1,1,4,4,5,5,6,6,9,9,10,10,11,11],"right_children":[2,4,-1,-1,6,8,10,-1,-1,12,14,16,-1,-1,-1,-1,-1],"split_conditions":[1.640094E3,4.5028473E2,2.415247E-2,1.0030747E-3,1.7103491E0,1.4216139E0,1.0877693E2,2.4399163E-4,-2.130326E-3,3.424977E1,8.4639564E-2,1.9300847E0,-2.2161456E-3,9.6180614E-5,-2.3098553E-6,5.074248E-4,4.932921E-6],"split_indices":[1,1,0,0,0,0,0,0,0,0,2,0,0,0,0,0,0],"sum_hessian":[1.2E2,1.19E2,1E0,5E0,1.14E2,4E0,1.1E2,3E0,1E0,3.2E1,7.8E1,3E1,2E0,6.2E1,1.6E1,3E0,2.7E1],"tree_param":{"num_deleted":"0","num_feature":"4","num_nodes":"17","size_leaf_vector":"0"}},{"base_weights":[1.1928894E-3,6.229929E-5,6.8431854E-2,2.3423068E-3,-7.824766E-5,-1.5452298E-3,4.704561E-5,-6.035923E-3,-2.2940277E-4,5.98066E-4,-1.2152215E-4,1.1091743E-3,3.7828583E-4,-5.909721E-3,9.705433E-5,-6.7289546E-4,1.5735626E-4],"default_left":[true,true,false,false,true,true,true,false,false,true,true,false,false,false,true,false,false],"id":30,"leaf_child_counts":[0,0,0,0,0,0,0,0,0,0,0,0,0,0,0,0,0],"left_children":[1,3,-1,-1,5,7,9,-1,-1,11,13,-1,-1,-1,15,-1,-1],"loss_changes":[9.194122E-3,3.8637052E-5,0E0,2.3393659E-7,2.1026235E-5,5.1796123E-5,9.918412E-6,0E0,0E0,2.3887023E-6,1.0431703E-4,0E0,0E0,0E0,3.8202406E-6,0E0,0E0],"parents":[2147483647,0,0,1,1,4,4,5,5,6,6,9,9,10,10,14,14],"right_children":[2,4,-1,-1,6,8,10,-1,-1,12,14,-1,-1,-1,16,-1,-1],"split_conditions":[1.640094E3,5.0381213E2,2.0529557E-2,7.026921E-4,5.7195557E2,3.3148906E0,9.398085E2,-1.810777E-3,-6.882083E-5,1.9300847E0,1.0166163E3,3.327523E-4,1.1348575E-4,-1.7729163E-3,1.1914743E2,-2.0186865E-4,4.7206882E-5],"split_indices":[1,1,0,0,1,0,1,0,0,0,1,0,0,0,0,0,0],"sum_hessian":[1.2E2,1.19E2,1E0,6E0,1.13E2,8E0,1.05E2,1E0,7E0,2.4E1,8.1E1,6E0,1.8E1,2E0,7.9E1,5E0,7.4E1],"tree_param":{"num_deleted":"0","num_feature":"4","num_nodes":"17","size_leaf_vector":"0"}},{"base_weights":[9.826256E-4,2.1356549E-5,5.8167458E-2,1.9218127E-3,-7.798339E-5,-1.7477531E-3,-2.0659882E-6,3.8057566E-4,-5.130534E-3,1.0612756E-3,-4.142988E-5,-4.8855034E-4,1.2888713E-4,-1.6899363E-5,-4.7277757E-3,4.9866736E-5,3.0789772E-4],"default_left":[true,true,false,false,true,true,true,false,false,false,true,true,true,false,false,false,false],"id":31,"leaf_child_counts":[0,0,0,0,0,0,0,0,0,0,0,0,0,0,0,0,0],"left_children":[1,3,-1,-1,5,7,9,-1,-1,-1,11,13,15,-1,-1,-1,-1],"loss_changes":[6.6501293E-3,2.2804814E-5,0E0,0E0,1.4574315E-5,3.7950907E-5,4.6901246E-6,0E0,0E0,0E0,8.287407E-6,5.990315E-5,1.1021397E-6,0E0,0E0,0E0,0E0],"parents":[2147483647,0,0,1,1,4,4,5,5,6,6,10,10,11,11,12,12],"right_children":[2,4,-1,-1,6,8,10,-1,-1,-1,12,14,16,-1,-1,-1,-1],"split_conditions":[1.640094E3,4.5028473E2,1.7450238E-2,5.765438E-4,1.7103491E0,1.4216139E0,1.9300847E0,1.14172704E-4,-1.5391603E-3,3.183827E-4,1.0877693E2,3.424977E1,8.873397E2,-5.069809E-6,-1.4183328E-3,1.4960021E-5,9.236932E-5],"split_indices":[1,1,0,0,0,0,0,0,0,0,0,0,0,0,0,0,0],"sum_hessian":[1.2E2,1.19E2,1E0,5E0,1.14E2,4E0,1.1E2,3E0,1E0,3E0,1.07E2,2.9E1,7.8E1,2.7E1,2E0,5.5E1,2.3E1],"tree_param":{"num_deleted":"0","num_feature":"4","num_nodes":"17","size_leaf_vector":"0"}},{"base_weights":[8.1674755E-4,-4.8438574E-7,4.944229E-2,1.3284816E-3,-8.208331E-5,-1.5082996E-3,-1.6509082E-5,2.951026E-4,-4.3609543E-3,-2.8270186E-4,9.152482E-5,7.667361E-5,-3.7822227E-3,3.6782818E-4,-3.3236147E-4],"default_left":[true,true,false,false,true,true,true,false,false,true,false,true,false,false,false],"id":32,"leaf_child_counts":[0,0,0,0,0,0,0,0,0,0,0,0,0,0,0],"left_children":[1,3,-1,-1,5,7,9,-1,-1,11,-1,13,-1,-1,-1],"loss_changes":[4.808364E-3,1.31221095E-5,0E0,3.1831496E-7,1.0636725E-5,2.7009348E-5,3.189237E-6,0E0,0E0,4.0534538E-5,5.610829E-7,3.6950248E-6,0E0,0E0,0E0],"parents":[2147483647,0,0,1,1,4,4,5,5,6,6,9,9,11,11],"right_children":[2,4,-1,-1,6,8,10,-1,-1,12,-1,14,-1,-1,-1],"split_conditions":[1.640094E3,5.0381213E2,1.4832688E-2,3.985445E-4,1.7103491E0,1.4216139E0,1.0877693E2,8.853078E-5,-1.3082863E-3,2.985894E1,2.7457447E-5,3.4420395E0,-1.1346668E-3,1.1034846E-4,-9.970844E-5],"split_indices":[1,1,0,0,0,0,0,0,0,0,0,0,0,0,0],"sum_hessian":[1.2E2,1.19E2,1E0,6E0,1.13E2,4E0,1.09E2,3E0,1E0,3.1E1,7.8E1,2.9E1,2E0,1.7E1,1.2E1],"tree_param":{"num_deleted":"0","num_feature":"4","num_nodes":"15","size_leaf_vector":"0"}},{"base_weights":[6.7842356E-4,-1.6349E-5,4.2025566E-2,1.1088053E-3,-7.491054E-5,-1.2998574E-3,-1.9057887E-5,2.2858381E-4,-3.706811E-3,7.3972344E-4,-4.6984438E-5,-3.386854E-4,6.4382824E-5,-3.86865E-5,-3.0257802E-3],"default_left":[true,true,false,false,true,true,true,false,false,false,true,true,false,false,false],"id":33,"leaf_child_counts":[0,0,0,0,0,0,0,0,0,0,0,0,0,0,0],"left_children":[1,3,-1,-1,5,7,9,-1,-1,-1,11,13,-1,-1,-1],"loss_changes":[3.4766374E-3,7.989953E-6,0E0,0E0,7.843128E-6,1.9241752E-5,2.3868615E-6,0E0,0E0,0E0,3.530287E-6,2.4066707E-5,5.6790253E-7,0E0,0E0],"parents":[2147483647,0,0,1,1,4,4,5,5,6,6,10,10,11,11],"right_children":[2,4,-1,-1,6,8,10,-1,-1,-1,12,14,-1,-1,-1],"split_conditions":[1.640094E3,4.5028473E2,1.260767E-2,3.326416E-4,1.7103491E0,1.4216139E0,1.9300847E0,6.8575144E-5,-1.1120434E-3,2.2191704E-4,1.0877693E2,3.424977E1,1.9314848E-5,-1.160595E-5,-9.077341E-4],"split_indices":[1,1,0,0,0,0,0,0,0,0,0,0,0,0,0],"sum_hessian":[1.2E2,1.19E2,1E0,5E0,1.14E2,4E0,1.1E2,3E0,1E0,3E0,1.07E2,2.9E1,7.8E1,2.7E1,2E0],"tree_param":{"num_deleted":"0","num_feature":"4","num_nodes":"15","size_leaf_vector":"0"}},{"base_weights":[5.676516E-4,-2.298099E-5,3.572178E-2,8.3144504E-4,-6.7359906E-5,-1.1186473E-3,-1.9397772E-5,1.770854E-4,-3.150789E-3,1.8690644E-4,-9.4638366E-5,7.288117E-5,4.913658E-4,-2.420624E-3,-6.2309205E-6,-8.220317E-5,1.744628E-4],"default_left":[true,true,false,false,true,true,true,false,false,true,true,false,false,false,true,false,false],"id":34,"leaf_child_counts":[0,0,0,0,0,0,0,0,0,0,0,0,0,0,0,0,0],"left_children":[1,3,-1,-1,5,7,9,-1,-1,11,13,-1,-1,-1,15,-1,-1],"loss_changes":[2.5131647E-3,4.6062264E-6,0E0,0E0,5.776829E-6,1.3723523E-5,1.7406807E-6,0E0,0E0,1.0056706E-6,1.6846943E-5,1.392191E-7,0E0,0E0,1.112558E-6,0E0,0E0],"parents":[2147483647,0,0,1,1,4,4,5,5,6,6,9,9,10,10,14,14],"right_children":[2,4,-1,-1,6,8,10,-1,-1,12,14,-1,-1,-1,16,-1,-1],"split_conditions":[1.640094E3,4.5028473E2,1.0716534E-2,2.4943353E-4,1.7103491E0,1.4216139E0,9.398085E2,5.3125623E-5,-9.4523677E-4,7.2419586E2,1.0166163E3,2.1864353E-5,1.4740974E-4,-7.2618725E-4,8.873397E2,-2.4660952E-5,5.233884E-5],"split_indices":[1,1,0,0,0,0,1,0,0,1,1,0,0,0,0,0,0],"sum_hessian":[1.2E2,1.19E2,1E0,5E0,1.14E2,4E0,1.1E2,3E0,1E0,2.9E1,8.1E1,2.2E1,7E0,2E0,7.9E1,5.6E1,2.3E1],"tree_param":{"num_deleted":"0","num_feature":"4","num_nodes":"17","size_leaf_vector":"0"}},{"base_weights":[4.7616826E-4,-2.5915038E-5,3.0363083E-2,6.2322617E-4,-5.955793E-5,-9.613574E-4,-1.8399774E-5,1.373887E-4,-2.6781708E-3],"default_left":[true,true,false,false,true,true,false,false,false],"id":35,"leaf_child_counts":[0,0,0,0,0,0,0,0,0],"left_children":[1,3,-1,-1,5,7,-1,-1,-1],"loss_changes":[1.816479E-3,2.6577961E-6,0E0,0E0,4.250697E-6,9.799661E-6,9.804803E-7,0E0,0E0],"parents":[2147483647,0,0,1,1,4,4,5,5],"right_children":[2,4,-1,-1,6,8,-1,-1,-1],"split_conditions":[1.640094E3,4.5028473E2,9.108925E-3,1.8696785E-4,1.7103491E0,1.4216139E0,-5.5199325E-6,4.1216612E-5,-8.034513E-4],"split_indices":[1,1,0,0,0,0,0,0,0],"sum_hessian":[1.2E2,1.19E2,1E0,5E0,1.14E2,4E0,1.1E2,3E0,1E0],"tree_param":{"num_deleted":"0","num_feature":"4","num_nodes":"9","size_leaf_vector":"0"}},{"base_weights":[4.0382412E-4,-2.2949584E-5,2.5808334E-2,4.3640472E-4,-5.0954237E-5,-8.2527177E-4,-1.5294767E-5,1.0663271E-4,-2.2764448E-3],"default_left":[true,true,false,false,true,true,false,false,false],"id":36,"leaf_child_counts":[0,0,0,0,0,0,0,0,0],"left_children":[1,3,-1,-1,5,7,-1,-1,-1],"loss_changes":[1.3124716E-3,1.5659236E-6,0E0,9.235123E-9,3.1351176E-6,7.004516E-6,9.878497E-7,0E0,0E0],"parents":[2147483647,0,0,1,1,4,4,5,5],"right_children":[2,4,-1,-1,6,8,-1,-1,-1],"split_conditions":[1.640094E3,5.0381213E2,7.7425004E-3,1.3092143E-4,1.7103491E0,1.4216139E0,-4.5884303E-6,3.1989814E-5,-6.829335E-4],"split_indices":[1,1,0,0,0,0,0,0,0],"sum_hessian":[1.2E2,1.19E2,1E0,6E0,1.13E2,4E0,1.09E2,3E0,1E0],"tree_param":{"num_deleted":"0","num_feature":"4","num_nodes":"9","size_leaf_vector":"0"}},{"base_weights":[3.423553E-4,-2.0414573E-5,2.193737E-2,-1.4966296E-4,4.855817E-5,-1.24141025E-5,-1.92976E-3],"default_left":[true,true,false,true,false,false,false],"id":37,"leaf_child_counts":[0,0,0,0,0,0,0],"left_children":[1,3,-1,5,-1,-1,-1],"loss_changes":[9.483644E-4,1.0770211E-6,0E0,1.0237328E-5,3.2589014E-7,9.65668E-7,0E0],"parents":[2147483647,0,0,1,1,3,3],"right_children":[2,4,-1,6,-1,-1,-1],"split_conditions":[1.640094E3,1.0877693E2,6.5812115E-3,3.424977E1,1.4567451E-5,-3.724231E-6,-5.7892804E-4],"split_indices":[1,0,0,0,0,0,0],"sum_hessian":[1.2E2,1.19E2,1E0,4.1E1,7.8E1,3.9E1,2E0],"tree_param":{"num_deleted":"0","num_feature":"4","num_nodes":"7","size_leaf_vector":"0"}},{"base_weights":[2.8941597E-4,-1.8958783E-5,1.8647194E-2],"default_left":[true,false,false],"id":38,"leaf_child_counts":[0,0,0],"left_children":[1,-1,-1],"loss_changes":[6.8534364E-4,9.139481E-7,0E0],"parents":[2147483647,0,0],"right_children":[2,-1,-1],"split_conditions":[1.640094E3,-5.687635E-6,5.5941585E-3],"split_indices":[1,0,0],"sum_hessian":[1.2E2,1.19E2,1E0],"tree_param":{"num_deleted":"0","num_feature":"4","num_nodes":"3","size_leaf_vector":"0"}},{"base_weights":[2.487989E-4,-1.3295562E-5,1.5850067E-2],"default_left":[true,false,false],"id":39,"leaf_child_counts":[0,0,0],"left_children":[1,-1,-1],"loss_changes":[4.949804E-4,9.1005893E-7,0E0],"parents":[2147483647,0,0],"right_children":[2,-1,-1],"split_conditions":[1.640094E3,-3.9886686E-6,4.75502E-3],"split_indices":[1,0,0],"sum_hessian":[1.2E2,1.19E2,1E0],"tree_param":{"num_deleted":"0","num_feature":"4","num_nodes":"3","size_leaf_vector":"0"}},{"base_weights":[2.1339083E-4,-9.37354E-6,1.3472557E-2],"default_left":[true,false,false],"id":40,"leaf_child_counts":[0,0,0],"left_children":[1,-1,-1],"loss_changes":[3.575203E-4,9.06743E-7,0E0],"parents":[2147483647,0,0],"right_children":[2,-1,-1],"split_conditions":[1.640094E3,-2.8120621E-6,4.041767E-3],"split_indices":[1,0,0],"sum_hessian":[1.2E2,1.19E2,1E0],"tree_param":{"num_deleted":"0","num_feature":"4","num_nodes":"3","size_leaf_vector":"0"}},{"base_weights":[1.827866E-4,-6.552195E-6,1.1451721E-2],"default_left":[true,false,false],"id":41,"leaf_child_counts":[0,0,0],"left_children":[1,-1,-1],"loss_changes":[2.5824626E-4,9.0480825E-7,0E0],"parents":[2147483647,0,0],"right_children":[2,-1,-1],"split_conditions":[1.640094E3,-1.9656586E-6,3.4355165E-3],"split_indices":[1,0,0],"sum_hessian":[1.2E2,1.19E2,1E0],"tree_param":{"num_deleted":"0","num_feature":"4","num_nodes":"3","size_leaf_vector":"0"}},{"base_weights":[1.5629079E-4,-4.6426817E-6,9.734154E-3],"default_left":[true,false,false],"id":42,"leaf_child_counts":[0,0,0],"left_children":[1,-1,-1],"loss_changes":[1.8655445E-4,9.033756E-7,0E0],"parents":[2147483647,0,0],"right_children":[2,-1,-1],"split_conditions":[1.640094E3,-1.3928045E-6,2.9202462E-3],"split_indices":[1,0,0],"sum_hessian":[1.2E2,1.19E2,1E0],"tree_param":{"num_deleted":"0","num_feature":"4","num_nodes":"3","size_leaf_vector":"0"}},{"base_weights":[1.3344211E-4,-3.347181E-6,8.274078E-3],"default_left":[true,false,false],"id":43,"leaf_child_counts":[0,0,0],"left_children":[1,-1,-1],"loss_changes":[1.3476746E-4,9.010467E-7,0E0],"parents":[2147483647,0,0],"right_children":[2,-1,-1],"split_conditions":[1.640094E3,-1.0041543E-6,2.4822236E-3],"split_indices":[1,0,0],"sum_hessian":[1.2E2,1.19E2,1E0],"tree_param":{"num_deleted":"0","num_feature":"4","num_nodes":"3","size_leaf_vector":"0"}},{"base_weights":[1.1388811E-4,-2.385285E-6,7.033348E-3],"default_left":[true,false,false],"id":44,"leaf_child_counts":[0,0,0],"left_children":[1,-1,-1],"loss_changes":[9.736722E-5,9.0029283E-7,0E0],"parents":[2147483647,0,0],"right_children":[2,-1,-1],"split_conditions":[1.640094E3,-7.155855E-7,2.1100044E-3],"split_indices":[1,0,0],"sum_hessian":[1.2E2,1.19E2,1E0],"tree_param":{"num_deleted":"0","num_feature":"4","num_nodes":"3","size_leaf_vector":"0"}},{"base_weights":[9.7218544E-5,-1.6143749E-6,5.9785843E-3],"default_left":[true,false,false],"id":45,"leaf_child_counts":[0,0,0],"left_children":[1,-1,-1],"loss_changes":[7.034362E-5,9.0043983E-7,0E0],"parents":[2147483647,0,0],"right_children":[2,-1,-1],"split_conditions":[1.640094E3,-4.843125E-7,1.7935754E-3],"split_indices":[1,0,0],"sum_hessian":[1.2E2,1.19E2,1E0],"tree_param":{"num_deleted":"0","num_feature":"4","num_nodes":"3","size_leaf_vector":"0"}},{"base_weights":[8.298227E-5,-1.0283868E-6,5.0821304E-3],"default_left":[true,false,false],"id":46,"leaf_child_counts":[0,0,0],"left_children":[1,-1,-1],"loss_changes":[5.082301E-5,9.014601E-7,0E0],"parents":[2147483647,0,0],"right_children":[2,-1,-1],"split_conditions":[1.640094E3,-3.0851606E-7,1.5246392E-3],"split_indices":[1,0,0],"sum_hessian":[1.2E2,1.19E2,1E0],"tree_param":{"num_deleted":"0","num_feature":"4","num_nodes":"3","size_leaf_vector":"0"}},{"base_weights":[7.060918E-5,-8.0482084E-7,4.3201447E-3],"default_left":[true,false,false],"id":47,"leaf_child_counts":[0,0,0],"left_children":[1,-1,-1],"loss_changes":[3.6724112E-5,9.0040305E-7,0E0],"parents":[2147483647,0,0],"right_children":[2,-1,-1],"split_conditions":[1.640094E3,-2.4144626E-7,1.2960434E-3],"split_indices":[1,0,0],"sum_hessian":[1.2E2,1.19E2,1E0],"tree_param":{"num_deleted":"0","num_feature":"4","num_nodes":"3","size_leaf_vector":"0"}},{"base_weights":[6.009184E-5,-6.1739024E-7,3.6725998E-3],"default_left":[true,false,false],"id":48,"leaf_child_counts":[0,0,0],"left_children":[1,-1,-1],"loss_changes":[2.653909E-5,8.9951715E-7,0E0],"parents":[2147483647,0,0],"right_children":[2,-1,-1],"split_conditions":[1.640094E3,-1.8521708E-7,1.10178E-3],"split_indices":[1,0,0],"sum_hessian":[1.2E2,1.19E2,1E0],"tree_param":{"num_deleted":"0","num_feature":"4","num_nodes":"3","size_leaf_vector":"0"}},{"base_weights":[5.1137424E-5,-4.5936613E-7,3.121376E-3],"default_left":[true,false,false],"id":49,"leaf_child_counts":[0,0,0],"left_children":[1,-1,-1],"loss_changes":[1.9169584E-5,8.9877057E-7,0E0],"parents":[2147483647,0,0],"right_children":[2,-1,-1],"split_conditions":[1.640094E3,-1.3780985E-7,9.3641283E-4],"split_indices":[1,0,0],"sum_hessian":[1.2E2,1.19E2,1E0],"tree_param":{"num_deleted":"0","num_feature":"4","num_nodes":"3","size_leaf_vector":"0"}},{"base_weights":[4.3524255E-5,-3.317439E-7,2.653122E-3],"default_left":[true,false,false],"id":50,"leaf_child_counts":[0,0,0],"left_children":[1,-1,-1],"loss_changes":[1.3848909E-5,8.981678E-7,0E0],"parents":[2147483647,0,0],"right_children":[2,-1,-1],"split_conditions":[1.640094E3,-9.952318E-8,7.959366E-4],"split_indices":[1,0,0],"sum_hessian":[1.2E2,1.19E2,1E0],"tree_param":{"num_deleted":"0","num_feature":"4","num_nodes":"3","size_leaf_vector":"0"}},{"base_weights":[3.699709E-5,-2.8526313E-7,2.2554398E-3],"default_left":[true,false,false],"id":51,"leaf_child_counts":[0,0,0],"left_children":[1,-1,-1],"loss_changes":[1.0008404E-5,8.9794827E-7,0E0],"parents":[2147483647,0,0],"right_children":[2,-1,-1],"split_conditions":[1.640094E3,-8.557894E-8,6.766319E-4],"split_indices":[1,0,0],"sum_hessian":[1.2E2,1.19E2,1E0],"tree_param":{"num_deleted":"0","num_feature":"4","num_nodes":"3","size_leaf_vector":"0"}},{"base_weights":[3.144237E-5,-2.4370092E-7,1.9168854E-3],"default_left":[true,false,false],"id":52,"leaf_child_counts":[0,0,0],"left_children":[1,-1,-1],"loss_changes":[7.2292833E-6,8.9775205E-7,0E0],"parents":[2147483647,0,0],"right_children":[2,-1,-1],"split_conditions":[1.640094E3,-7.311028E-8,5.750656E-4],"split_indices":[1,0,0],"sum_hessian":[1.2E2,1.19E2,1E0],"tree_param":{"num_deleted":"0","num_feature":"4","num_nodes":"3","size_leaf_vector":"0"}},{"base_weights":[2.6735002E-5,-2.0602893E-7,1.6298294E-3],"default_left":[true,false,false],"id":53,"leaf_child_counts":[0,0,0],"left_children":[1,-1,-1],"loss_changes":[5.2262067E-6,8.975742E-7,0E0],"parents":[2147483647,0,0],"right_children":[2,-1,-1],"split_conditions":[1.640094E3,-6.1808684E-8,4.8894883E-4],"split_indices":[1,0,0],"sum_hessian":[1.2E2,1.19E2,1E0],"tree_param":{"num_deleted":"0","num_feature":"4","num_nodes":"3","size_leaf_vector":"0"}},{"base_weights":[2.2733988E-5,-1.7137596E-7,1.3856888E-3],"default_left":[true,false,false],"id":54,"leaf_child_counts":[0,0,0],"left_children":[1,-1,-1],"loss_changes":[3.7777336E-6,8.974106E-7,0E0],"parents":[2147483647,0,0],"right_children":[2,-1,-1],"split_conditions":[1.640094E3,-5.141279E-8,4.1570666E-4],"split_indices":[1,0,0],"sum_hessian":[1.2E2,1.19E2,1E0],"tree_param":{"num_deleted":"0","num_feature":"4","num_nodes":"3","size_leaf_vector":"0"}},{"base_weights":[1.9313935E-5,-1.5491193E-7,1.1777878E-3],"default_left":[true,false,false],"id":55,"leaf_child_counts":[0,0,0],"left_children":[1,-1,-1],"loss_changes":[2.7292347E-6,8.973329E-7,0E0],"parents":[2147483647,0,0],"right_children":[2,-1,-1],"split_conditions":[1.640094E3,-4.647358E-8,3.5333633E-4],"split_indices":[1,0,0],"sum_hessian":[1.2E2,1.19E2,1E0],"tree_param":{"num_deleted":"0","num_feature":"4","num_nodes":"3","size_leaf_vector":"0"}},{"base_weights":[1.641262E-5,-1.399089E-7,1.001358E-3],"default_left":[true,false,false],"id":56,"leaf_child_counts":[0,0,0],"left_children":[1,-1,-1],"loss_changes":[1.9728438E-6,8.9726205E-7,0E0],"parents":[2147483647,0,0],"right_children":[2,-1,-1],"split_conditions":[1.640094E3,-4.1972672E-8,3.004074E-4],"split_indices":[1,0,0],"sum_hessian":[1.2E2,1.19E2,1E0],"tree_param":{"num_deleted":"0","num_feature":"4","num_nodes":"3","size_leaf_vector":"0"}},{"base_weights":[1.395093E-5,-1.2666472E-7,8.5163116E-4],"default_left":[true,false,false],"id":57,"leaf_child_counts":[0,0,0],"left_children":[1,-1,-1],"loss_changes":[1.4270032E-6,8.971995E-7,0E0],"parents":[2147483647,0,0],"right_children":[2,-1,-1],"split_conditions":[1.640094E3,-3.7999417E-8,2.5548937E-4],"split_indices":[1,0,0],"sum_hessian":[1.2E2,1.19E2,1E0],"tree_param":{"num_deleted":"0","num_feature":"4","num_nodes":"3","size_leaf_vector":"0"}},{"base_weights":[1.185041E-5,-1.1481655E-7,7.238388E-4],"default_left":[true,false,false],"id":58,"leaf_child_counts":[0,0,0],"left_children":[1,-1,-1],"loss_changes":[1.0308945E-6,8.971436E-7,0E0],"parents":[2147483647,0,0],"right_children":[2,-1,-1],"split_conditions":[1.640094E3,-3.4444966E-8,2.1715165E-4],"split_indices":[1,0,0],"sum_hessian":[1.2E2,1.19E2,1E0],"tree_param":{"num_deleted":"0","num_feature":"4","num_nodes":"3","size_leaf_vector":"0"}},{"base_weights":[1.0064457E-5],"default_left":[false],"id":59,"leaf_child_counts":[0],"left_children":[-1],"loss_changes":[9.259768E-7],"parents":[2147483647],"right_children":[-1],"split_conditions":[3.019337E-6],"split_indices":[0],"sum_hessian":[1.2E2],"tree_param":{"num_deleted":"0","num_feature":"4","num_nodes":"1","size_leaf_vector":"0"}},{"base_weights":[7.085964E-6],"default_left":[false],"id":60,"leaf_child_counts":[0],"left_children":[-1],"loss_changes":[9.2785604E-7],"parents":[2147483647],"right_children":[-1],"split_conditions":[2.1257893E-6],"split_indices":[0],"sum_hessian":[1.2E2],"tree_param":{"num_deleted":"0","num_feature":"4","num_nodes":"1","size_leaf_vector":"0"}},{"base_weights":[5.0271224E-6],"default_left":[false],"id":61,"leaf_child_counts":[0],"left_children":[-1],"loss_changes":[9.301607E-7],"parents":[2147483647],"right_children":[-1],"split_conditions":[1.5081367E-6],"split_indices":[0],"sum_hessian":[1.2E2],"tree_param":{"num_deleted":"0","num_feature":"4","num_nodes":"1","size_leaf_vector":"0"}},{"base_weights":[3.4548093E-6],"default_left":[false],"id":62,"leaf_child_counts":[0],"left_children":[-1],"loss_changes":[9.2723815E-7],"parents":[2147483647],"right_children":[-1],"split_conditions":[1.0364429E-6],"split_indices":[0],"sum_hessian":[1.2E2],"tree_param":{"num_deleted":"0","num_feature":"4","num_nodes":"1","size_leaf_vector":"0"}},{"base_weights":[2.460565E-6],"default_left":[false],"id":63,"leaf_child_counts":[0],"left_children":[-1],"loss_changes":[9.275941E-7],"parents":[2147483647],"right_children":[-1],"split_conditions":[7.381695E-7],"split_indices":[0],"sum_hessian":[1.2E2],"tree_param":{"num_deleted":"0","num_feature":"4","num_nodes":"1","size_leaf_vector":"0"}},{"base_weights":[1.6894836E-6],"default_left":[false],"id":64,"leaf_child_counts":[0],"left_children":[-1],"loss_changes":[9.263813E-7],"parents":[2147483647],"right_children":[-1],"split_conditions":[5.068451E-7],"split_indices":[0],"sum_hessian":[1.2E2],"tree_param":{"num_deleted":"0","num_feature":"4","num_nodes":"1","size_leaf_vector":"0"}},{"base_weights":[1.1003201E-6],"default_left":[false],"id":65,"leaf_child_counts":[0],"left_children":[-1],"loss_changes":[9.2322244E-7],"parents":[2147483647],"right_children":[-1],"split_conditions":[3.3009604E-7],"split_indices":[0],"sum_hessian":[1.2E2],"tree_param":{"num_deleted":"0","num_feature":"4","num_nodes":"1","size_leaf_vector":"0"}},{"base_weights":[8.7087994E-7],"default_left":[false],"id":66,"leaf_child_counts":[0],"left_children":[-1],"loss_changes":[9.2567666E-7],"parents":[2147483647],"right_children":[-1],"split_conditions":[2.61264E-7],"split_indices":[0],"sum_hessian":[1.2E2],"tree_param":{"num_deleted":"0","num_feature":"4","num_nodes":"1","size_leaf_vector":"0"}},{"base_weights":[6.7910446E-7],"default_left":[false],"id":67,"leaf_child_counts":[0],"left_children":[-1],"loss_changes":[9.2773035E-7],"parents":[2147483647],"right_children":[-1],"split_conditions":[2.0373135E-7],"split_indices":[0],"sum_hessian":[1.2E2],"tree_param":{"num_deleted":"0","num_feature":"4","num_nodes":"1","size_leaf_vector":"0"}},{"base_weights":[5.1700624E-7],"default_left":[false],"id":68,"leaf_child_counts":[0],"left_children":[-1],"loss_changes":[9.29468E-7],"parents":[2147483647],"right_children":[-1],"split_conditions":[1.5510187E-7],"split_indices":[0],"sum_hessian":[1.2E2],"tree_param":{"num_deleted":"0","num_feature":"4","num_nodes":"1","size_leaf_vector":"0"}},{"base_weights":[3.8444668E-7],"default_left":[false],"id":69,"leaf_child_counts":[0],"left_children":[-1],"loss_changes":[9.3089017E-7],"parents":[2147483647],"right_children":[-1],"split_conditions":[1.1533401E-7],"split_indices":[0],"sum_hessian":[1.2E2],"tree_param":{"num_deleted":"0","num_feature":"4","num_nodes":"1","size_leaf_vector":"0"}},{"base_weights":[3.3338077E-7],"default_left":[false],"id":70,"leaf_child_counts":[0],"left_children":[-1],"loss_changes":[9.314383E-7],"parents":[2147483647],"right_children":[-1],"split_conditions":[1.0001423E-7],"split_indices":[0],"sum_hessian":[1.2E2],"tree_param":{"num_deleted":"0","num_feature":"4","num_nodes":"1","size_leaf_vector":"0"}},{"base_weights":[2.870215E-7],"default_left":[false],"id":71,"leaf_child_counts":[0],"left_children":[-1],"loss_changes":[9.319361E-7],"parents":[2147483647],"right_children":[-1],"split_conditions":[8.610645E-8],"split_indices":[0],"sum_hessian":[1.2E2],"tree_param":{"num_deleted":"0","num_feature":"4","num_nodes":"1","size_leaf_vector":"0"}},{"base_weights":[2.4533904E-7],"default_left":[false],"id":72,"leaf_child_counts":[0],"left_children":[-1],"loss_changes":[9.323837E-7],"parents":[2147483647],"right_children":[-1],"split_conditions":[7.360171E-8],"split_indices":[0],"sum_hessian":[1.2E2],"tree_param":{"num_deleted":"0","num_feature":"4","num_nodes":"1","size_leaf_vector":"0"}},{"base_weights":[2.0771668E-7],"default_left":[false],"id":73,"leaf_child_counts":[0],"left_children":[-1],"loss_changes":[9.327879E-7],"parents":[2147483647],"right_children":[-1],"split_conditions":[6.231501E-8],"split_indices":[0],"sum_hessian":[1.2E2],"tree_param":{"num_deleted":"0","num_feature":"4","num_nodes":"1","size_leaf_vector":"0"}},{"base_weights":[1.7331452E-7],"default_left":[false],"id":74,"leaf_child_counts":[0],"left_children":[-1],"loss_changes":[9.331575E-7],"parents":[2147483647],"right_children":[-1],"split_conditions":[5.199436E-8],"split_indices":[0],"sum_hessian":[1.2E2],"tree_param":{"num_deleted":"0","num_feature":"4","num_nodes":"1","size_leaf_vector":"0"}},{"base_weights":[1.5694613E-7],"default_left":[false],"id":75,"leaf_child_counts":[0],"left_children":[-1],"loss_changes":[9.333334E-7],"parents":[2147483647],"right_children":[-1],"split_conditions":[4.708384E-8],"split_indices":[0],"sum_hessian":[1.2E2],"tree_param":{"num_deleted":"0","num_feature":"4","num_nodes":"1","size_leaf_vector":"0"}},{"base_weights":[1.4202573E-7],"default_left":[false],"id":76,"leaf_child_counts":[0],"left_children":[-1],"loss_changes":[9.334937E-7],"parents":[2147483647],"right_children":[-1],"split_conditions":[4.260772E-8],"split_indices":[0],"sum_hessian":[1.2E2],"tree_param":{"num_deleted":"0","num_feature":"4","num_nodes":"1","size_leaf_vector":"0"}},{"base_weights":[1.288506E-7],"default_left":[false],"id":77,"leaf_child_counts":[0],"left_children":[-1],"loss_changes":[9.3363536E-7],"parents":[2147483647],"right_children":[-1],"split_conditions":[3.865518E-8],"split_indices":[0],"sum_hessian":[1.2E2],"tree_param":{"num_deleted":"0","num_feature":"4","num_nodes":"1","size_leaf_vector":"0"}},{"base_weights":[1.1682807E-7],"default_left":[false],"id":78,"leaf_child_counts":[0],"left_children":[-1],"loss_changes":[9.337645E-7],"parents":[2147483647],"right_children":[-1],"split_conditions":[3.5048423E-8],"split_indices":[0],"sum_hessian":[1.2E2],"tree_param":{"num_deleted":"0","num_feature":"4","num_nodes":"1","size_leaf_vector":"0"}},{"base_weights":[1.0550692E-7],"default_left":[false],"id":79,"leaf_child_counts":[0],"left_children":[-1],"loss_changes":[9.338862E-7],"parents":[2147483647],"right_children":[-1],"split_conditions":[3.165208E-8],"split_indices":[0],"sum_hessian":[1.2E2],"tree_param":{"num_deleted":"0","num_feature":"4","num_nodes":"1","size_leaf_vector":"0"}},{"base_weights":[9.5300855E-8],"default_left":[false],"id":80,"leaf_child_counts":[0],"left_children":[-1],"loss_changes":[9.33996E-7],"parents":[2147483647],"right_children":[-1],"split_conditions":[2.8590257E-8],"split_indices":[0],"sum_hessian":[1.2E2],"tree_param":{"num_deleted":"0","num_feature":"4","num_nodes":"1","size_leaf_vector":"0"}},{"base_weights":[8.7239336E-8],"default_left":[false],"id":81,"leaf_child_counts":[0],"left_children":[-1],"loss_changes":[9.340826E-7],"parents":[2147483647],"right_children":[-1],"split_conditions":[2.6171803E-8],"split_indices":[0],"sum_hessian":[1.2E2],"tree_param":{"num_deleted":"0","num_feature":"4","num_nodes":"1","size_leaf_vector":"0"}},{"base_weights":[7.9567464E-8],"default_left":[false],"id":82,"leaf_child_counts":[0],"left_children":[-1],"loss_changes":[9.341651E-7],"parents":[2147483647],"right_children":[-1],"split_conditions":[2.3870241E-8],"split_indices":[0],"sum_hessian":[1.2E2],"tree_param":{"num_deleted":"0","num_feature":"4","num_nodes":"1","size_leaf_vector":"0"}},{"base_weights":[7.270955E-8],"default_left":[false],"id":83,"leaf_child_counts":[0],"left_children":[-1],"loss_changes":[9.342388E-7],"parents":[2147483647],"right_children":[-1],"split_conditions":[2.1812864E-8],"split_indices":[0],"sum_hessian":[1.2E2],"tree_param":{"num_deleted":"0","num_feature":"4","num_nodes":"1","size_leaf_vector":"0"}},{"base_weights":[6.6217225E-8],"default_left":[false],"id":84,"leaf_child_counts":[0],"left_children":[-1],"loss_changes":[9.343086E-7],"parents":[2147483647],"right_children":[-1],"split_conditions":[1.9865169E-8],"split_indices":[0],"sum_hessian":[1.2E2],"tree_param":{"num_deleted":"0","num_feature":"4","num_nodes":"1","size_leaf_vector":"0"}},{"base_weights":[6.008474E-8],"default_left":[false],"id":85,"leaf_child_counts":[0],"left_children":[-1],"loss_changes":[9.343745E-7],"parents":[2147483647],"right_children":[-1],"split_conditions":[1.8025421E-8],"split_indices":[0],"sum_hessian":[1.2E2],"tree_param":{"num_deleted":"0","num_feature":"4","num_nodes":"1","size_leaf_vector":"0"}},{"base_weights":[5.4735406E-8],"default_left":[false],"id":86,"leaf_child_counts":[0],"left_children":[-1],"loss_changes":[9.344321E-7],"parents":[2147483647],"right_children":[-1],"split_conditions":[1.6420623E-8],"split_indices":[0],"sum_hessian":[1.2E2],"tree_param":{"num_deleted":"0","num_feature":"4","num_nodes":"1","size_leaf_vector":"0"}},{"base_weights":[4.9724736E-8],"default_left":[false],"id":87,"leaf_child_counts":[0],"left_children":[-1],"loss_changes":[9.3448597E-7],"parents":[2147483647],"right_children":[-1],"split_conditions":[1.4917422E-8],"split_indices":[0],"sum_hessian":[1.2E2],"tree_param":{"num_deleted":"0","num_feature":"4","num_nodes":"1","size_leaf_vector":"0"}},{"base_weights":[4.5045034E-8],"default_left":[false],"id":88,"leaf_child_counts":[0],"left_children":[-1],"loss_changes":[9.345363E-7],"parents":[2147483647],"right_children":[-1],"split_conditions":[1.3513511E-8],"split_indices":[0],"sum_hessian":[1.2E2],"tree_param":{"num_deleted":"0","num_feature":"4","num_nodes":"1","size_leaf_vector":"0"}},{"base_weights":[4.16738E-8],"default_left":[false],"id":89,"leaf_child_counts":[0],"left_children":[-1],"loss_changes":[9.345725E-7],"parents":[2147483647],"right_children":[-1],"split_conditions":[1.2502141E-8],"split_indices":[0],"sum_hessian":[1.2E2],"tree_param":{"num_deleted":"0","num_feature":"4","num_nodes":"1","size_leaf_vector":"0"}},{"base_weights":[3.836799E-8],"default_left":[false],"id":90,"leaf_child_counts":[0],"left_children":[-1],"loss_changes":[9.3460807E-7],"parents":[2147483647],"right_children":[-1],"split_conditions":[1.1510397E-8],"split_indices":[0],"sum_hessian":[1.2E2],"tree_param":{"num_deleted":"0","num_feature":"4","num_nodes":"1","size_leaf_vector":"0"}},{"base_weights":[3.5357544E-8],"default_left":[false],"id":91,"leaf_child_counts":[0],"left_children":[-1],"loss_changes":[9.346404E-7],"parents":[2147483647],"right_children":[-1],"split_conditions":[1.06072635E-8],"split_indices":[0],"sum_hessian":[1.2E2],"tree_param":{"num_deleted":"0","num_feature":"4","num_nodes":"1","size_leaf_vector":"0"}},{"base_weights":[3.2839704E-8],"default_left":[false],"id":92,"leaf_child_counts":[0],"left_children":[-1],"loss_changes":[9.346675E-7],"parents":[2147483647],"right_children":[-1],"split_conditions":[9.851911E-9],"split_indices":[0],"sum_hessian":[1.2E2],"tree_param":{"num_deleted":"0","num_feature":"4","num_nodes":"1","size_leaf_vector":"0"}},{"base_weights":[3.060376E-8],"default_left":[false],"id":93,"leaf_child_counts":[0],"left_children":[-1],"loss_changes":[9.346915E-7],"parents":[2147483647],"right_children":[-1],"split_conditions":[9.181129E-9],"split_indices":[0],"sum_hessian":[1.2E2],"tree_param":{"num_deleted":"0","num_feature":"4","num_nodes":"1","size_leaf_vector":"0"}},{"base_weights":[2.8410149E-8],"default_left":[false],"id":94,"leaf_child_counts":[0],"left_children":[-1],"loss_changes":[9.347151E-7],"parents":[2147483647],"right_children":[-1],"split_conditions":[8.523045E-9],"split_indices":[0],"sum_hessian":[1.2E2],"tree_param":{"num_deleted":"0","num_feature":"4","num_nodes":"1","size_leaf_vector":"0"}},{"base_weights":[2.626272E-8],"default_left":[false],"id":95,"leaf_child_counts":[0],"left_children":[-1],"loss_changes":[9.3473824E-7],"parents":[2147483647],"right_children":[-1],"split_conditions":[7.878817E-9],"split_indices":[0],"sum_hessian":[1.2E2],"tree_param":{"num_deleted":"0","num_feature":"4","num_nodes":"1","size_leaf_vector":"0"}},{"base_weights":[2.4388529E-8],"default_left":[false],"id":96,"leaf_child_counts":[0],"left_children":[-1],"loss_changes":[9.3475836E-7],"parents":[2147483647],"right_children":[-1],"split_conditions":[7.316559E-9],"split_indices":[0],"sum_hessian":[1.2E2],"tree_param":{"num_deleted":"0","num_feature":"4","num_nodes":"1","size_leaf_vector":"0"}},{"base_weights":[2.2548011E-8],"default_left":[false],"id":97,"leaf_child_counts":[0],"left_children":[-1],"loss_changes":[9.3477814E-7],"parents":[2147483647],"right_children":[-1],"split_conditions":[6.7644037E-9],"split_indices":[0],"sum_hessian":[1.2E2],"tree_param":{"num_deleted":"0","num_feature":"4","num_nodes":"1","size_leaf_vector":"0"}},{"base_weights":[2.0745018E-8],"default_left":[false],"id":98,"leaf_child_counts":[0],"left_children":[-1],"loss_changes":[9.347976E-7],"parents":[2147483647],"right_children":[-1],"split_conditions":[6.2235057E-9],"split_indices":[0],"sum_hessian":[1.2E2],"tree_param":{"num_deleted":"0","num_feature":"4","num_nodes":"1","size_leaf_vector":"0"}},{"base_weights":[1.9210452E-8],"default_left":[false],"id":99,"leaf_child_counts":[0],"left_children":[-1],"loss_changes":[9.3481407E-7],"parents":[2147483647],"right_children":[-1],"split_conditions":[5.7631357E-9],"split_indices":[0],"sum_hessian":[1.2E2],"tree_param":{"num_deleted":"0","num_feature":"4","num_nodes":"1","size_leaf_vector":"0"}}]},"name":"gbtree"},"learner_model_param":{"base_score":"5E-1","num_class":"0","num_feature":"4"},"objective":{"name":"reg:squarederror","reg_loss_param":{"scale_pos_weight":"1"}}},"version":[1,2,0]}