{"learner":{"attributes":{"scikit_learn":"{\"n_estimators\": 100, \"objective\": \"reg:squarederror\", \"max_depth\": null, \"learning_rate\": null, \"verbosity\": null, \"booster\": null, \"tree_method\": null, \"gamma\": null, \"min_child_weight\": null, \"max_delta_step\": null, \"subsample\": null, \"colsample_bytree\": null, \"colsample_bylevel\": null, \"colsample_bynode\": null, \"reg_alpha\": null, \"reg_lambda\": null, \"scale_pos_weight\": null, \"base_score\": null, \"missing\": NaN, \"num_parallel_tree\": null, \"kwargs\": {}, \"random_state\": 1, \"n_jobs\": null, \"monotone_constraints\": null, \"interaction_constraints\": null, \"importance_type\": \"gain\", \"gpu_id\": null, \"validate_parameters\": null, \"n_features_in_\": 4, \"type\": \"XGBRegressor\"}"},"gradient_booster":{"model":{"gbtree_model_param":{"num_trees":"100","size_leaf_vector":"0"},"tree_info":[0,0,0,0,0,0,0,0,0,0,0,0,0,0,0,0,0,0,0,0,0,0,0,0,0,0,0,0,0,0,0,0,0,0,0,0,0,0,0,0,0,0,0,0,0,0,0,0,0,0,0,0,0,0,0,0,0,0,0,0,0,0,0,0,0,0,0,0,0,0,0,0,0,0,0,0,0,0,0,0,0,0,0,0,0,0,0,0,0,0,0,0,0,0,0,0,0,0,0,0],"trees":[{"base_weights":[5.6894646E1,2.2477458E2,3.5393894E1,1.0705E0,7.092883E2,8.807977E0,6.859403E1,1.2733333E0,-9.766666E-2,1.5357083E1,3.91646E0,9.934E1,2.2221428E1,-4.9999356E-4,-1.46E-1,2.5675E-1,5.4775715E0,2.8557143E0,5.9215517E0],"default_left":[true,true,true,true,false,true,true,false,true,false,true,false,false,false,false,false,true,false,false],"id":0,"leaf_child_counts":[0,0,0,0,0,0,0,0,0,0,0,0,0,0,0,0,0,0,0],"left_children":[1,3,5,7,-1,9,11,-1,13,-1,15,-1,-1,-1,-1,-1,17,-1,-1],"loss_changes":[6.020574E5,2.0586069E6,1.3267689E5,3.4415665E0,0E0,2.6628345E3,9.331919E4,0E0,1.4016168E-2,0E0,2.8425433E2,0E0,0E0,0E0,0E0,0E0,2.3831665E1,0E0,0E0],"parents":[2147483647,0,0,1,1,2,2,3,3,5,5,6,6,8,8,10,10,16,16],"right_children":[2,4,6,8,-1,10,12,-1,14,-1,16,-1,-1,-1,-1,-1,18,-1,-1],"split_conditions":[1.9697454E3,3.0241903E1,2.3747904E-2,1.6833912E3,2.1278651E2,2.3121953E3,2.1263516E2,3.82E-1,5.973713E-1,4.6071253E0,3.0842363E3,2.9802E1,6.6664286E0,-1.4999807E-4,-4.38E-2,7.7025E-2,3.6757031E3,8.567143E-1,1.7764655E0],"split_indices":[1,0,2,1,0,1,0,0,0,0,1,0,0,0,0,0,1,0,0],"sum_hessian":[1.68E2,1.8E1,1.5E2,1.3E1,5E0,8.4E1,6.6E1,1.1E1,2E0,3.5E1,4.9E1,3.9E1,2.7E1,1E0,1E0,1.5E1,3.4E1,6E0,2.8E1],"tree_param":{"num_deleted":"0","num_feature":"4","num_nodes":"19","size_leaf_vector":"0"}},{"base_weights":[4.134643E1,1.6855928E2,2.5065697E1,7.7349645E-1,5.3196625E2,6.25167E0,4.8560123E1,9.231667E-1,-8.3016664E-2,1.08779335E1,2.795726E0,7.028305E1,1.5793087E1,-4.2499602E-4,-1.241E-1,1.8453908E-1,3.9095337E0,2.1213877E0,4.2063437E0],"default_left":[true,true,true,true,false,true,true,false,true,false,true,false,false,false,false,false,true,false,false],"id":1,"leaf_child_counts":[0,0,0,0,0,0,0,0,0,0,0,0,0,0,0,0,0,0,0],"left_children":[1,3,5,7,-1,9,11,-1,13,-1,15,-1,-1,-1,-1,-1,17,-1,-1],"loss_changes":[3.45794E5,1.1581045E6,6.644218E4,1.8713617E0,0E0,1.3285771E3,4.6580344E4,0E0,1.0126682E-2,0E0,1.4469656E2,0E0,0E0,0E0,0E0,0E0,9.652588E0,0E0,0E0],"parents":[2147483647,0,0,1,1,2,2,3,3,5,5,6,6,8,8,10,10,16,16],"right_children":[2,4,6,8,-1,10,12,-1,14,-1,16,-1,-1,-1,-1,-1,18,-1,-1],"split_conditions":[1.9697454E3,3.0241903E1,2.3747904E-2,1.6833912E3,1.5958987E2,2.3121953E3,2.1263516E2,2.7695003E-1,5.973713E-1,3.2633803E0,3.0842363E3,2.1084915E1,4.7379265E0,-1.2749882E-4,-3.723E-2,5.5361725E-2,3.6757031E3,6.364163E-1,1.2619032E0],"split_indices":[1,0,2,1,0,1,0,0,0,0,1,0,0,0,0,0,1,0,0],"sum_hessian":[1.68E2,1.8E1,1.5E2,1.3E1,5E0,8.4E1,6.6E1,1.1E1,2E0,3.5E1,4.9E1,3.9E1,2.7E1,1E0,1E0,1.5E1,3.4E1,6E0,2.8E1],"tree_param":{"num_deleted":"0","num_feature":"4","num_nodes":"19","size_leaf_vector":"0"}},{"base_weights":[3.0071905E1,1.2640357E2,1.775155E1,5.5856127E-1,3.9897467E2,4.437546E0,3.4377502E1,6.6929585E-1,-7.056416E-2,7.705203E0,1.9960818E0,4.9725254E1,1.1224372E1,-3.6124885E-4,-1.0548499E-1,1.3263744E-1,2.7909112E0,1.656606E0,3.0153232E0],"default_left":[true,true,true,true,false,true,true,false,true,false,true,false,false,false,false,false,true,false,false],"id":2,"leaf_child_counts":[0,0,0,0,0,0,0,0,0,0,0,0,0,0,0,0,0,0,0],"left_children":[1,3,5,7,-1,9,11,-1,13,-1,15,-1,-1,-1,-1,-1,17,-1,-1],"loss_changes":[1.9833214E5,6.515097E5,3.3272504E4,1.0225515E0,0E0,6.627385E2,2.3250219E4,0E0,7.316525E-3,0E0,7.368585E1,0E0,0E0,0E0,0E0,0E0,3.914093E0,0E0,0E0],"parents":[2147483647,0,0,1,1,2,2,3,3,5,5,6,6,8,8,10,10,16,16],"right_children":[2,4,6,8,-1,10,12,-1,14,-1,16,-1,-1,-1,-1,-1,18,-1,-1],"split_conditions":[1.9697454E3,3.0241903E1,2.3747904E-2,1.6833912E3,1.19692406E2,2.3121953E3,2.1263516E2,2.0078877E-1,5.973713E-1,2.311561E0,3.0842363E3,1.4917577E1,3.3673117E0,-1.0837466E-4,-3.16455E-2,3.9791234E-2,5.9318703E1,4.969818E-1,9.04597E-1],"split_indices":[1,0,2,1,0,1,0,0,0,0,1,0,0,0,0,0,0,0,0],"sum_hessian":[1.68E2,1.8E1,1.5E2,1.3E1,5E0,8.4E1,6.6E1,1.1E1,2E0,3.5E1,4.9E1,3.9E1,2.7E1,1E0,1E0,1.5E1,3.4E1,7E0,2.7E1],"tree_param":{"num_deleted":"0","num_feature":"4","num_nodes":"19","size_leaf_vector":"0"}},{"base_weights":[2.1889973E1,9.479099E1,1.257203E1,4.030668E-1,2.99231E2,3.1504345E0,2.4337158E1,4.852395E-1,-5.997954E-2,5.457853E0,1.4260848E0,3.5180614E1,7.9773216E0,-3.0706823E-4,-8.966224E-2,9.533314E-2,1.9936831E0,1.1499037E0,2.1286063E0],"default_left":[true,true,true,true,false,true,true,false,true,false,true,false,false,false,false,false,true,false,false],"id":3,"leaf_child_counts":[0,0,0,0,0,0,0,0,0,0,0,0,0,0,0,0,0,0,0],"left_children":[1,3,5,7,-1,9,11,-1,13,-1,15,-1,-1,-1,-1,-1,17,-1,-1],"loss_changes":[1.1360788E5,3.66516E5,1.6661115E4,5.618012E-1,0E0,3.3041425E2,1.1604965E4,0E0,5.286187E-3,0E0,3.7576553E1,0E0,0E0,0E0,0E0,0E0,1.536911E0,0E0,0E0],"parents":[2147483647,0,0,1,1,2,2,3,3,5,5,6,6,8,8,10,10,16,16],"right_children":[2,4,6,8,-1,10,12,-1,14,-1,16,-1,-1,-1,-1,-1,18,-1,-1],"split_conditions":[1.9697454E3,3.0241903E1,2.3747904E-2,1.6833912E3,8.97693E1,2.3121953E3,2.1263516E2,1.4557186E-1,5.973713E-1,1.6373559E0,3.0842363E3,1.0554185E1,2.3931966E0,-9.212047E-5,-2.6898673E-2,2.8599942E-2,3.6757031E3,3.4497112E-1,6.3858193E-1],"split_indices":[1,0,2,1,0,1,0,0,0,0,1,0,0,0,0,0,1,0,0],"sum_hessian":[1.68E2,1.8E1,1.5E2,1.3E1,5E0,8.4E1,6.6E1,1.1E1,2E0,3.5E1,4.9E1,3.9E1,2.7E1,1E0,1E0,1.5E1,3.4E1,6E0,2.8E1],"tree_param":{"num_deleted":"0","num_feature":"4","num_nodes":"19","size_leaf_vector":"0"}},{"base_weights":[1.594715E1,7.1084625E1,8.903712E0,2.9061687E-1,2.2442322E2,2.236475E0,1.7229256E1,3.5179865E-1,-5.0982606E-2,3.865979E0,1.0185025E0,2.4890285E1,5.6695957E0,-2.6100874E-4,-7.62129E-2,6.8520725E-2,1.4236797E0,8.831959E-1,1.527258E0],"default_left":[true,true,true,true,false,true,true,false,true,false,true,false,false,false,false,false,true,false,false],"id":4,"leaf_child_counts":[0,0,0,0,0,0,0,0,0,0,0,0,0,0,0,0,0,0,0],"left_children":[1,3,5,7,-1,9,11,-1,13,-1,15,-1,-1,-1,-1,-1,17,-1,-1],"loss_changes":[6.4999484E4,2.061884E5,8.34323E3,3.1053102E-1,0E0,1.647612E2,5.79233E3,0E0,3.8192691E-3,0E0,1.9147995E1,0E0,0E0,0E0,0E0,0E0,6.105194E-1,0E0,0E0],"parents":[2147483647,0,0,1,1,2,2,3,3,5,5,6,6,8,8,10,10,16,16],"right_children":[2,4,6,8,-1,10,12,-1,14,-1,16,-1,-1,-1,-1,-1,18,-1,-1],"split_conditions":[1.9697454E3,3.0241903E1,2.3747904E-2,1.6833912E3,6.7326965E1,2.3121953E3,2.1263516E2,1.055396E-1,5.973713E-1,1.1597937E0,3.0842363E3,7.467086E0,1.7008787E0,-7.8302626E-5,-2.286387E-2,2.0556219E-2,5.9318703E1,2.6495877E-1,4.5817742E-1],"split_indices":[1,0,2,1,0,1,0,0,0,0,1,0,0,0,0,0,0,0,0],"sum_hessian":[1.68E2,1.8E1,1.5E2,1.3E1,5E0,8.4E1,6.6E1,1.1E1,2E0,3.5E1,4.9E1,3.9E1,2.7E1,1E0,1E0,1.5E1,3.4E1,7E0,2.7E1],"tree_param":{"num_deleted":"0","num_feature":"4","num_nodes":"19","size_leaf_vector":"0"}},{"base_weights":[1.162739E1,5.3307114E1,6.305919E0,2.0933165E-1,1.6831741E2,1.5879263E0,1.2197314E1,2.5505406E-1,-4.3335218E-2,2.7384017E0,7.2782546E-1,1.7609877E1,4.0294633E0,-2.2186339E-4,-6.4780965E-2,4.9249277E-2,1.0172367E0,6.513569E-1,1.085444E0],"default_left":[true,true,true,true,false,true,true,false,true,false,true,false,false,false,false,false,true,false,false],"id":5,"leaf_child_counts":[0,0,0,0,0,0,0,0,0,0,0,0,0,0,0,0,0,0,0],"left_children":[1,3,5,7,-1,9,11,-1,13,-1,15,-1,-1,-1,-1,-1,17,-1,-1],"loss_changes":[3.7147617E4,1.1599381E5,4.1777607E3,1.7278838E-1,0E0,8.21165E1,2.891045E3,0E0,2.7594222E-3,0E0,9.7692795E0,0E0,0E0,0E0,0E0,0E0,1.6643524E-1,0E0,0E0],"parents":[2147483647,0,0,1,1,2,2,3,3,5,5,6,6,8,8,10,10,16,16],"right_children":[2,4,6,8,-1,10,12,-1,14,-1,16,-1,-1,-1,-1,-1,18,-1,-1],"split_conditions":[1.9697454E3,3.0241903E1,2.3747904E-2,1.6833912E3,5.0495228E1,2.3121953E3,2.1263516E2,7.651622E-2,5.973713E-1,8.215205E-1,3.0842363E3,5.2829633E0,1.208839E0,-6.655902E-5,-1.943429E-2,1.47747835E-2,5.9318703E1,1.9540708E-1,3.256332E-1],"split_indices":[1,0,2,1,0,1,0,0,0,0,1,0,0,0,0,0,0,0,0],"sum_hessian":[1.68E2,1.8E1,1.5E2,1.3E1,5E0,8.4E1,6.6E1,1.1E1,2E0,3.5E1,4.9E1,3.9E1,2.7E1,1E0,1E0,1.5E1,3.4E1,7E0,2.7E1],"tree_param":{"num_deleted":"0","num_feature":"4","num_nodes":"19","size_leaf_vector":"0"}},{"base_weights":[8.484742E0,3.9975616E1,4.466123E0,1.5060465E-1,1.26238045E2,1.1275169E0,8.63501E0,1.8491416E-1,-3.6834937E-2,1.9397008E0,5.201942E-1,1.2458984E1,2.863797E0,-1.885891E-4,-5.5063814E-2,3.5397902E-2,7.269527E-1,4.596147E-1,7.664152E-1],"default_left":[true,true,true,true,false,true,true,false,true,false,true,false,false,false,false,false,true,false,false],"id":6,"leaf_child_counts":[0,0,0,0,0,0,0,0,0,0,0,0,0,0,0,0,0,0,0],"left_children":[1,3,5,7,-1,9,11,-1,13,-1,15,-1,-1,-1,-1,-1,17,-1,-1],"loss_changes":[2.1208383E4,6.5253633E4,2.0919233E3,9.684473E-2,0E0,4.09179E1,1.4429409E3,0E0,1.9936808E-3,0E0,4.9860544E0,0E0,0E0,0E0,0E0,0E0,1.6988754E-2,0E0,0E0],"parents":[2147483647,0,0,1,1,2,2,3,3,5,5,6,6,8,8,10,10,16,16],"right_children":[2,4,6,8,-1,10,12,-1,14,-1,16,-1,-1,-1,-1,-1,18,-1,-1],"split_conditions":[1.9697454E3,3.0241903E1,2.3747904E-2,1.6833912E3,3.7871414E1,2.3121953E3,2.1263516E2,5.5474248E-2,5.973713E-1,5.8191025E-1,3.0842363E3,3.7376955E0,8.5913914E-1,-5.657673E-5,-1.6519144E-2,1.0619371E-2,3.6757031E3,1.3788441E-1,2.2992456E-1],"split_indices":[1,0,2,1,0,1,0,0,0,0,1,0,0,0,0,0,1,0,0],"sum_hessian":[1.68E2,1.8E1,1.5E2,1.3E1,5E0,8.4E1,6.6E1,1.1E1,2E0,3.5E1,4.9E1,3.9E1,2.7E1,1E0,1E0,1.5E1,3.4E1,6E0,2.8E1],"tree_param":{"num_deleted":"0","num_feature":"4","num_nodes":"19","size_leaf_vector":"0"}},{"base_weights":[6.196524E0,2.9978216E1,3.1630893E0,1.0820169E-1,9.467855E1,8.0055994E-1,6.1131177E0,1.3406272E-1,-3.1309705E-2,1.3739548E0,3.7170443E-1,8.814733E0,2.035342E0,-1.6030669E-4,-4.680425E-2,2.544228E-2,5.1937556E-1],"default_left":[true,true,true,true,false,true,true,false,true,false,true,false,false,false,false,false,false],"id":7,"leaf_child_counts":[0,0,0,0,0,0,0,0,0,0,0,0,0,0,0,0,0],"left_children":[1,3,5,7,-1,9,11,-1,13,-1,15,-1,-1,-1,-1,-1,-1],"loss_changes":[1.2096873E4,3.6709152E4,1.0475049E3,5.4708198E-2,0E0,2.0391098E1,7.201699E2,0E0,1.4404338E-3,0E0,2.5434327E0,0E0,0E0,0E0,0E0,0E0,0E0],"parents":[2147483647,0,0,1,1,2,2,3,3,5,5,6,6,8,8,10,10],"right_children":[2,4,6,8,-1,10,12,-1,14,-1,16,-1,-1,-1,-1,-1,-1],"split_conditions":[1.9697454E3,3.0241903E1,2.3747904E-2,1.6833912E3,2.8403566E1,2.3121953E3,2.1263516E2,4.021882E-2,5.973713E-1,4.1218644E-1,3.0842363E3,2.64442E0,6.106026E-1,-4.809201E-5,-1.4041276E-2,7.6326844E-3,1.5581268E-1],"split_indices":[1,0,2,1,0,1,0,0,0,0,1,0,0,0,0,0,0],"sum_hessian":[1.68E2,1.8E1,1.5E2,1.3E1,5E0,8.4E1,6.6E1,1.1E1,2E0,3.5E1,4.9E1,3.9E1,2.7E1,1E0,1E0,1.5E1,3.4E1],"tree_param":{"num_deleted":"0","num_feature":"4","num_nodes":"17","size_leaf_vector":"0"}},{"base_weights":[4.528457E0,2.248105E1,2.2395318E0,7.7607565E-2,7.100891E1,5.67164E-1,4.3277664E0,9.719547E-2,-2.6613245E-2,9.7321784E-1,2.6346198E-1,6.2364264E0,1.4465458E0,-1.3625622E-4,-3.9783612E-2,1.8286638E-2,3.6801463E-1,2.1188563E-1,3.9947954E-1],"default_left":[true,true,true,true,false,true,true,false,true,false,true,false,false,false,false,false,true,false,false],"id":8,"leaf_child_counts":[0,0,0,0,0,0,0,0,0,0,0,0,0,0,0,0,0,0,0],"left_children":[1,3,5,7,-1,9,11,-1,13,-1,15,-1,-1,-1,-1,-1,17,-1,-1],"loss_changes":[6.8942266E3,2.0651121E4,5.248822E2,3.1167232E-2,0E0,1.0225744E1,3.594298E2,0E0,1.0407141E-3,0E0,1.2749574E0,0E0,0E0,0E0,0E0,0E0,8.7296486E-2,0E0,0E0],"parents":[2147483647,0,0,1,1,2,2,3,3,5,5,6,6,8,8,10,10,16,16],"right_children":[2,4,6,8,-1,10,12,-1,14,-1,16,-1,-1,-1,-1,-1,18,-1,-1],"split_conditions":[1.9697454E3,3.0241903E1,2.3747904E-2,1.6833912E3,2.1302673E1,2.3121953E3,2.1263516E2,2.9158643E-2,5.973713E-1,2.9196537E-1,3.0842363E3,1.8709279E0,4.3396378E-1,-4.087687E-5,-1.1935084E-2,5.4859915E-3,5.9318703E1,6.3565694E-2,1.1984386E-1],"split_indices":[1,0,2,1,0,1,0,0,0,0,1,0,0,0,0,0,0,0,0],"sum_hessian":[1.68E2,1.8E1,1.5E2,1.3E1,5E0,8.4E1,6.6E1,1.1E1,2E0,3.5E1,4.9E1,3.9E1,2.7E1,1E0,1E0,1.5E1,3.4E1,7E0,2.7E1],"tree_param":{"num_deleted":"0","num_feature":"4","num_nodes":"19","size_leaf_vector":"0"}},{"base_weights":[3.3125572E0,1.6858833E1,1.5861213E0,5.5552665E-2,5.3256683E1,4.026719E-1,3.063839E0,7.046676E-2,-2.2621254E-2,6.893625E-1,1.8820122E-1,4.412274E0,1.0280807E0,-1.15811825E-4,-3.381607E-2,1.3143502E-2,2.6285043E-1,1.5626562E-1,2.8391573E-1],"default_left":[true,true,true,true,false,true,true,false,true,false,true,false,false,false,false,false,true,false,false],"id":9,"leaf_child_counts":[0,0,0,0,0,0,0,0,0,0,0,0,0,0,0,0,0,0,0],"left_children":[1,3,5,7,-1,9,11,-1,13,-1,15,-1,-1,-1,-1,-1,17,-1,-1],"loss_changes":[3.925625E3,1.1617504E4,2.6283566E2,1.7916549E-2,0E0,5.096633E0,1.793847E2,0E0,7.5191644E-4,0E0,6.499413E-1,0E0,0E0,0E0,0E0,0E0,3.421712E-2,0E0,0E0],"parents":[2147483647,0,0,1,1,2,2,3,3,5,5,6,6,8,8,10,10,16,16],"right_children":[2,4,6,8,-1,10,12,-1,14,-1,16,-1,-1,-1,-1,-1,18,-1,-1],"split_conditions":[1.9697454E3,3.0241903E1,2.3747904E-2,1.6833912E3,1.5977006E1,2.3121953E3,2.1263516E2,2.1140028E-2,5.973713E-1,2.0680876E-1,3.0842363E3,1.3236822E0,3.0842423E-1,-3.474355E-5,-1.0144821E-2,3.9430507E-3,5.9318703E1,4.6879686E-2,8.5174724E-2],"split_indices":[1,0,2,1,0,1,0,0,0,0,1,0,0,0,0,0,0,0,0],"sum_hessian":[1.68E2,1.8E1,1.5E2,1.3E1,5E0,8.4E1,6.6E1,1.1E1,2E0,3.5E1,4.9E1,3.9E1,2.7E1,1E0,1E0,1.5E1,3.4E1,7E0,2.7E1],"tree_param":{"num_deleted":"0","num_feature":"4","num_nodes":"19","size_leaf_vector":"0"}},{"base_weights":[2.425079E0,1.2642659E1,1.1233631E0,3.9669793E-2,3.9942524E1,2.8590328E-1,2.1690457E0,5.108844E-2,-1.9228062E-2,4.8829815E-1,1.344609E-1,3.1216812E0,7.306719E-1,-9.843707E-5,-2.8743654E-2,9.446926E-3,1.8776838E-1,1.7141199E-1,3.71943E-1],"default_left":[true,true,true,true,false,true,true,false,true,false,true,false,false,false,false,false,true,false,false],"id":10,"leaf_child_counts":[0,0,0,0,0,0,0,0,0,0,0,0,0,0,0,0,0,0,0],"left_children":[1,3,5,7,-1,9,11,-1,13,-1,15,-1,-1,-1,-1,-1,17,-1,-1],"loss_changes":[2.2335632E3,6.535554E3,1.3161314E2,1.0397809E-2,0E0,2.539692E0,8.952554E1,0E0,5.4325967E-4,0E0,3.314352E-1,0E0,0E0,0E0,0E0,0E0,4.167974E-2,0E0,0E0],"parents":[2147483647,0,0,1,1,2,2,3,3,5,5,6,6,8,8,10,10,16,16],"right_children":[2,4,6,8,-1,10,12,-1,14,-1,16,-1,-1,-1,-1,-1,18,-1,-1],"split_conditions":[1.9697454E3,3.0241903E1,2.3747904E-2,1.6833912E3,1.1982758E1,2.3121953E3,2.1263516E2,1.5326533E-2,5.973713E-1,1.4648946E-1,3.0842363E3,9.365044E-1,2.1920158E-1,-2.9531122E-5,-8.623097E-3,2.834078E-3,4.9560874E3,5.1423598E-2,1.11582905E-1],"split_indices":[1,0,2,1,0,1,0,0,0,0,1,0,0,0,0,0,1,0,0],"sum_hessian":[1.68E2,1.8E1,1.5E2,1.3E1,5E0,8.4E1,6.6E1,1.1E1,2E0,3.5E1,4.9E1,3.9E1,2.7E1,1E0,1E0,1.5E1,3.4E1,3.3E1,1E0],"tree_param":{"num_deleted":"0","num_feature":"4","num_nodes":"19","size_leaf_vector":"0"}},{"base_weights":[1.7771835E0,9.480876E0,7.960753E-1,2.8245589E-2,2.995687E1,2.038069E-1,1.5355788E0,3.703915E-2,-1.6343853E-2,3.4587815E-1,9.743947E-2,2.2085857E0,5.192985E-1,-8.367002E-5,-2.4432108E-2,2.9158318E-2,1.5004757E-1,6.789975E-3,7.025021E-2,3.1615162E-1,1.3218625E-1],"default_left":[true,true,true,true,false,true,true,false,true,false,true,false,false,false,false,true,true,false,false,false,false],"id":11,"leaf_child_counts":[0,0,0,0,0,0,0,0,0,0,0,0,0,0,0,0,0,0,0,0,0],"left_children":[1,3,5,7,-1,9,11,-1,13,-1,15,-1,-1,-1,-1,17,19,-1,-1,-1,-1],"loss_changes":[1.2697809E3,3.6766418E3,6.5822716E1,6.094761E-3,0E0,1.250797E0,4.467865E1,0E0,3.9250526E-4,0E0,1.75232E-1,0E0,0E0,0E0,0E0,2.0663626E-2,4.1280508E-2,0E0,0E0,0E0,0E0],"parents":[2147483647,0,0,1,1,2,2,3,3,5,5,6,6,8,8,10,10,15,15,16,16],"right_children":[2,4,6,8,-1,10,12,-1,14,-1,16,-1,-1,-1,-1,18,20,-1,-1,-1,-1],"split_conditions":[1.9697454E3,3.0241903E1,2.3747904E-2,1.6833912E3,8.9870615E0,2.3121953E3,2.1263516E2,1.1111746E-2,5.973713E-1,1.0376345E-1,5.9318703E1,6.625757E-1,1.5578955E-1,-2.5101008E-5,-7.3296325E-3,3.0842363E3,8.220413E1,2.0369925E-3,2.1075064E-2,9.484549E-2,3.9655875E-2],"split_indices":[1,0,2,1,0,1,0,0,0,0,0,0,0,0,0,1,0,0,0,0,0],"sum_hessian":[1.68E2,1.8E1,1.5E2,1.3E1,5E0,8.4E1,6.6E1,1.1E1,2E0,3.5E1,4.9E1,3.9E1,2.7E1,1E0,1E0,2.2E1,2.7E1,1.5E1,7E0,1E0,2.6E1],"tree_param":{"num_deleted":"0","num_feature":"4","num_nodes":"21","size_leaf_vector":"0"}},{"base_weights":[1.3036178E0,7.109814E0,5.6440365E-1,2.0040277E-2,2.2467651E1,1.4574026E-1,1.0871198E0,2.6853392E-2,-1.3892278E-2,2.4499781E-1,7.136E-2,1.5625752E0,3.690721E-1,-7.112324E-5,-2.0767294E-2,4.8802868E-3,9.9711865E-2,8.6836986E-2,2.6872897E-1,5.180955E-2,9.39993E-2],"default_left":[true,true,true,true,false,true,true,false,true,false,true,false,false,false,false,false,true,true,false,false,false],"id":12,"leaf_child_counts":[0,0,0,0,0,0,0,0,0,0,0,0,0,0,0,0,0,0,0,0,0],"left_children":[1,3,5,7,-1,9,11,-1,13,-1,15,-1,-1,-1,-1,-1,17,19,-1,-1,-1],"loss_changes":[7.213391E2,2.0683381E3,3.2886726E1,3.6096647E-3,0E0,6.100551E-1,2.2297073E1,0E0,2.8358493E-4,0E0,9.375459E-2,0E0,0E0,0E0,0E0,0E0,5.282703E-2,3.6597848E-3,0E0,0E0,0E0],"parents":[2147483647,0,0,1,1,2,2,3,3,5,5,6,6,8,8,10,10,16,16,17,17],"right_children":[2,4,6,8,-1,10,12,-1,14,-1,16,-1,-1,-1,-1,-1,18,20,-1,-1,-1],"split_conditions":[1.9697454E3,3.0241903E1,2.3747904E-2,1.6833912E3,6.740296E0,2.3121953E3,2.1263516E2,8.056018E-3,5.973713E-1,7.3499344E-2,3.0842363E3,4.687726E-1,1.1072164E-1,-2.1336973E-5,-6.2301885E-3,1.4640861E-3,4.9560874E3,8.16356E1,8.0618694E-2,1.5542866E-2,2.819979E-2],"split_indices":[1,0,2,1,0,1,0,0,0,0,1,0,0,0,0,0,1,0,0,0,0],"sum_hessian":[1.68E2,1.8E1,1.5E2,1.3E1,5E0,8.4E1,6.6E1,1.1E1,2E0,3.5E1,4.9E1,3.9E1,2.7E1,1E0,1E0,1.5E1,3.4E1,3.3E1,1E0,7E0,2.6E1],"tree_param":{"num_deleted":"0","num_feature":"4","num_nodes":"21","size_leaf_vector":"0"}},{"base_weights":[9.570349E-1,5.3317175E0,4.0024015E-1,1.4157065E-2,1.6850739E1,1.0436306E-1,7.696329E-1,1.9468686E-2,-1.1808435E-2,1.735398E-1,5.246855E-2,1.1055217E0,2.6230484E-1,-6.045401E-5,-1.7652199E-2,4.421609E-2,2.2841954E-1,3.507711E-3,6.20725E-2,3.820944E-2,6.684405E-2],"default_left":[true,true,true,true,false,true,true,false,true,false,true,false,false,false,false,true,false,false,true,false,false],"id":13,"leaf_child_counts":[0,0,0,0,0,0,0,0,0,0,0,0,0,0,0,0,0,0,0,0,0],"left_children":[1,3,5,7,-1,9,11,-1,13,-1,15,-1,-1,-1,-1,17,-1,-1,19,-1,-1],"loss_changes":[4.0951627E2,1.1635701E3,1.6423197E1,2.160759E-3,0E0,2.9603547E-1,1.1127205E1,0E0,2.0489018E-4,0E0,6.250161E-2,0E0,0E0,0E0,0E0,3.5400636E-2,0E0,0E0,1.3173074E-3,0E0,0E0],"parents":[2147483647,0,0,1,1,2,2,3,3,5,5,6,6,8,8,10,10,15,15,18,18],"right_children":[2,4,6,8,-1,10,12,-1,14,-1,16,-1,-1,-1,-1,18,-1,-1,20,-1,-1],"split_conditions":[1.9697454E3,3.0241903E1,2.3747904E-2,1.6833912E3,5.0552216E0,2.3121953E3,2.1263516E2,5.840606E-3,5.973713E-1,5.206194E-2,4.9560874E3,3.3165652E-1,7.869145E-2,-1.8136205E-5,-5.29566E-3,3.0842363E3,6.8525866E-2,1.0523134E-3,8.16356E1,1.1462832E-2,2.0053217E-2],"split_indices":[1,0,2,1,0,1,0,0,0,0,1,0,0,0,0,1,0,0,0,0,0],"sum_hessian":[1.68E2,1.8E1,1.5E2,1.3E1,5E0,8.4E1,6.6E1,1.1E1,2E0,3.5E1,4.9E1,3.9E1,2.7E1,1E0,1E0,4.8E1,1E0,1.5E1,3.3E1,7E0,2.6E1],"tree_param":{"num_deleted":"0","num_feature":"4","num_nodes":"21","size_leaf_vector":"0"}},{"base_weights":[7.0317394E-1,3.99829E0,2.8389984E-1,9.947534E-3,1.26380415E1,7.485628E-2,5.448671E-1,1.4114748E-2,-1.0037164E-2,1.2292486E-1,3.8749777E-2,7.821557E-1,1.8642378E-1,-5.1379204E-5,-1.5004367E-2,3.1615827E-2,1.9415665E-1,2.5211722E-3,4.437755E-2,2.8179407E-2,4.753339E-2],"default_left":[true,true,true,true,false,true,true,false,true,false,true,false,false,false,false,true,false,false,true,false,false],"id":14,"leaf_child_counts":[0,0,0,0,0,0,0,0,0,0,0,0,0,0,0,0,0,0,0,0,0],"left_children":[1,3,5,7,-1,9,11,-1,13,-1,15,-1,-1,-1,-1,17,-1,-1,19,-1,-1],"loss_changes":[2.3234796E2,6.545818E2,8.196794E0,1.3075991E-3,0E0,1.4276168E-1,5.5528393E0,0E0,1.4803334E-4,0E0,4.9294814E-2,0E0,0E0,0E0,0E0,1.8081717E-2,0E0,0E0,3.9857626E-4,0E0,0E0],"parents":[2147483647,0,0,1,1,2,2,3,3,5,5,6,6,8,8,10,10,15,15,18,18],"right_children":[2,4,6,8,-1,10,12,-1,14,-1,16,-1,-1,-1,-1,18,-1,-1,20,-1,-1],"split_conditions":[1.9697454E3,3.0241903E1,2.3747904E-2,1.6833912E3,3.7914126E0,2.3121953E3,2.1263516E2,4.2344243E-3,5.973713E-1,3.6877457E-2,4.9560874E3,2.3464672E-1,5.5927135E-2,-1.5413762E-5,-4.50131E-3,3.0842363E3,5.8246996E-2,7.563517E-4,8.16356E1,8.453823E-3,1.4260017E-2],"split_indices":[1,0,2,1,0,1,0,0,0,0,1,0,0,0,0,1,0,0,0,0,0],"sum_hessian":[1.68E2,1.8E1,1.5E2,1.3E1,5E0,8.4E1,6.6E1,1.1E1,2E0,3.5E1,4.9E1,3.9E1,2.7E1,1E0,1E0,4.8E1,1E0,1.5E1,3.3E1,7E0,2.6E1],"tree_param":{"num_deleted":"0","num_feature":"4","num_nodes":"21","size_leaf_vector":"0"}},{"base_weights":[5.1707417E-1,2.9983282E0,2.0143905E-1,6.9431025E-3,9.478505E0,5.379501E-2,3.857421E-1,9.439296E-3,-1.275371E-2,8.707253E-2,2.8759291E-2,5.5337226E-1,1.324939E-1,-4.3675303E-5,1.0233183E-2,2.261017E-2,1.650331E-1,1.8121079E-3,3.173249E-2,2.0782292E-2,3.3801716E-2],"default_left":[true,true,true,true,false,true,true,true,false,false,true,false,false,false,false,true,false,false,true,false,false],"id":15,"leaf_child_counts":[0,0,0,0,0,0,0,0,0,0,0,0,0,0,0,0,0,0,0,0,0],"left_children":[1,3,5,7,-1,9,11,13,-1,-1,15,-1,-1,-1,-1,17,-1,-1,19,-1,-1],"loss_changes":[1.3175189E2,3.682436E2,4.0881476E0,8.08725E-4,0E0,6.83116E-2,2.7709684E0,9.831623E-5,0E0,0E0,3.8166776E-2,0E0,0E0,0E0,0E0,9.239102E-3,0E0,0E0,6.790832E-5,0E0,0E0],"parents":[2147483647,0,0,1,1,2,2,3,3,5,5,6,6,7,7,10,10,15,15,18,18],"right_children":[2,4,6,8,-1,10,12,14,-1,-1,16,-1,-1,-1,-1,18,-1,-1,20,-1,-1],"split_conditions":[1.9697454E3,3.0241903E1,2.3747904E-2,6.406556E-1,2.8435516E0,2.3121953E3,2.1263516E2,3.311073E-1,-3.8261132E-3,2.612176E-2,4.9560874E3,1.6601169E-1,3.974817E-2,-1.3102592E-5,3.0699552E-3,3.0842363E3,4.950993E-2,5.4363237E-4,8.16356E1,6.2346878E-3,1.0140515E-2],"split_indices":[1,0,2,0,0,1,0,0,0,0,1,0,0,0,0,1,0,0,0,0,0],"sum_hessian":[1.68E2,1.8E1,1.5E2,1.3E1,5E0,8.4E1,6.6E1,1.2E1,1E0,3.5E1,4.9E1,3.9E1,2.7E1,1E0,1.1E1,4.8E1,1E0,1.5E1,3.3E1,7E0,2.6E1],"tree_param":{"num_deleted":"0","num_feature":"4","num_nodes":"21","size_leaf_vector":"0"}},{"base_weights":[3.8053894E-1,2.2484457E0,1.4298418E-1,4.8051924E-3,7.108866E0,3.874562E-2,2.7309304E-1,6.8426155E-3,-1.0840654E-2,6.167698E-2,2.146013E-2,3.9151448E-1,9.416621E-2,-3.7118793E-5,7.41902E-3,1.6172456E-2,1.402781E-1,1.3024434E-3,2.2694448E-2],"default_left":[true,true,true,true,false,true,true,true,false,false,true,false,false,false,false,true,false,false,false],"id":16,"leaf_child_counts":[0,0,0,0,0,0,0,0,0,0,0,0,0,0,0,0,0,0,0],"left_children":[1,3,5,7,-1,9,11,13,-1,-1,15,-1,-1,-1,-1,17,-1,-1,-1],"loss_changes":[7.466891E1,2.0716156E2,2.0373354E0,5.204594E-4,0E0,3.2368675E-2,1.3827806E0,5.1826995E-5,0E0,0E0,2.91449E-2,0E0,0E0,0E0,0E0,4.7225645E-3,0E0,0E0,0E0],"parents":[2147483647,0,0,1,1,2,2,3,3,5,5,6,6,7,7,10,10,15,15],"right_children":[2,4,6,8,-1,10,12,14,-1,-1,16,-1,-1,-1,-1,18,-1,-1,-1],"split_conditions":[1.9697454E3,3.0241903E1,2.3747904E-2,6.406556E-1,2.13266E0,2.3121953E3,2.1263516E2,3.311073E-1,-3.2521964E-3,1.8503094E-2,4.9560874E3,1.1745435E-1,2.8249865E-2,-1.11356385E-5,2.2257061E-3,3.0842363E3,4.208343E-2,3.9073304E-4,6.8083345E-3],"split_indices":[1,0,2,0,0,1,0,0,0,0,1,0,0,0,0,1,0,0,0],"sum_hessian":[1.68E2,1.8E1,1.5E2,1.3E1,5E0,8.4E1,6.6E1,1.2E1,1E0,3.5E1,4.9E1,3.9E1,2.7E1,1E0,1.1E1,4.8E1,1E0,1.5E1,3.3E1],"tree_param":{"num_deleted":"0","num_feature":"4","num_nodes":"19","size_leaf_vector":"0"}},{"base_weights":[2.8025272E-1,1.6860946E0,1.0150273E-1,3.2894793E-3,5.3316245E0,2.7919397E-2,1.9333977E-1,4.96014E-3,-9.214558E-3,2.5412807E-2,1.1923647E-1,2.769963E-1,6.692539E-2,-3.154576E-5,5.378743E-3,4.368777E-2,1.14676785E-2,1.3821475E-3,1.6315749E-2,4.2591095E-3,9.361431E-4,9.491376E-3,1.7480744E-2],"default_left":[true,true,true,true,false,true,true,true,false,true,false,false,false,false,false,false,true,true,true,false,false,false,false],"id":17,"leaf_child_counts":[0,0,0,0,0,0,0,0,0,0,0,0,0,0,0,0,0,0,0,0,0,0,0],"left_children":[1,3,5,7,-1,9,11,13,-1,15,-1,-1,-1,-1,-1,-1,17,19,21,-1,-1,-1,-1],"loss_changes":[4.2297585E1,1.16542076E2,1.0150112E0,3.3816564E-4,0E0,1.6425885E-2,6.900132E-1,2.733359E-5,0E0,2.0906124E-2,0E0,0E0,0E0,0E0,0E0,0E0,2.3733224E-3,1.7826205E-5,9.644497E-5,0E0,0E0,0E0,0E0],"parents":[2147483647,0,0,1,1,2,2,3,3,5,5,6,6,7,7,9,9,16,16,17,17,18,18],"right_children":[2,4,6,8,-1,10,12,14,-1,16,-1,-1,-1,-1,-1,-1,18,20,22,-1,-1,-1,-1],"split_conditions":[1.9697454E3,3.0241903E1,2.3747904E-2,6.406556E-1,1.5994874E0,4.9560874E3,2.1263516E2,3.311073E-1,-2.7643675E-3,2.3121953E3,3.577094E-2,8.3098896E-2,2.0077618E-2,-9.463728E-6,1.613623E-3,1.3106331E-2,3.2254032E1,4.574209E0,8.16356E1,1.2777329E-3,2.8084294E-4,2.8474128E-3,5.2442234E-3],"split_indices":[1,0,2,0,0,1,0,0,0,1,0,0,0,0,0,0,0,0,0,0,0,0,0],"sum_hessian":[1.68E2,1.8E1,1.5E2,1.3E1,5E0,8.4E1,6.6E1,1.2E1,1E0,8.3E1,1E0,3.9E1,2.7E1,1E0,1.1E1,3.5E1,4.8E1,1.6E1,3.2E1,1E0,1.5E1,6E0,2.6E1],"tree_param":{"num_deleted":"0","num_feature":"4","num_nodes":"23","size_leaf_vector":"0"}},{"base_weights":[2.0659152E-1,1.2643888E0,7.212304E-2,2.2197696E-3,3.9987183E0,2.0232508E-2,1.3687785E-1,3.5955012E-3,-7.832371E-3,1.8060252E-2,1.0135102E-1,1.9597444E-1,4.7565665E-2,-2.6807189E-5,3.899594E-3,3.0946413E-2,8.22429E-3,6.728396E-4,1.1536024E-2,7.0744157E-3,1.2430721E-2],"default_left":[true,true,true,true,false,true,true,true,false,true,false,false,false,false,false,false,true,false,true,false,false],"id":18,"leaf_child_counts":[0,0,0,0,0,0,0,0,0,0,0,0,0,0,0,0,0,0,0,0,0],"left_children":[1,3,5,7,-1,9,11,13,-1,15,-1,-1,-1,-1,-1,-1,17,-1,19,-1,-1],"loss_changes":[2.3947432E1,6.556365E1,5.046151E-1,2.2176796E-4,0E0,1.31474435E-2,3.4430754E-1,1.4424295E-5,0E0,1.03923045E-2,0E0,0E0,0E0,0E0,0E0,0E0,1.2176491E-3,0E0,4.7780573E-5,0E0,0E0],"parents":[2147483647,0,0,1,1,2,2,3,3,5,5,6,6,7,7,9,9,16,16,18,18],"right_children":[2,4,6,8,-1,10,12,14,-1,16,-1,-1,-1,-1,-1,-1,18,-1,20,-1,-1],"split_conditions":[1.9697454E3,3.0241903E1,2.3747904E-2,6.406556E-1,1.1996155E0,4.9560874E3,2.1263516E2,3.311073E-1,-2.3497113E-3,2.3121953E3,3.0405307E-2,5.8792334E-2,1.42697E-2,-8.042157E-6,1.1698783E-3,9.2839245E-3,3.0842363E3,2.0185189E-4,8.16356E1,2.122325E-3,3.7292165E-3],"split_indices":[1,0,2,0,0,1,0,0,0,1,0,0,0,0,0,0,1,0,0,0,0],"sum_hessian":[1.68E2,1.8E1,1.5E2,1.3E1,5E0,8.4E1,6.6E1,1.2E1,1E0,8.3E1,1E0,3.9E1,2.7E1,1E0,1.1E1,3.5E1,4.8E1,1.5E1,3.3E1,7E0,2.6E1],"tree_param":{"num_deleted":"0","num_feature":"4","num_nodes":"21","size_leaf_vector":"0"}},{"base_weights":[1.5240957E-1,9.481553E-1,5.127329E-2,1.4689575E-3,2.9990642E0,1.4701206E-2,9.690544E-2,2.606188E-3,-6.6575184E-3,1.2825072E-2,8.614826E-2,1.3865213E-1,3.380639E-2,-2.2783875E-5,2.8271675E-3,2.192121E-2,5.880458E-3,4.8358738E-4,8.247207E-3,5.2173138E-3,8.839501E-3],"default_left":[true,true,true,true,false,true,true,true,false,true,false,false,false,false,false,false,true,false,true,false,false],"id":19,"leaf_child_counts":[0,0,0,0,0,0,0,0,0,0,0,0,0,0,0,0,0,0,0,0,0],"left_children":[1,3,5,7,-1,9,11,13,-1,15,-1,-1,-1,-1,-1,-1,17,-1,19,-1,-1],"loss_changes":[1.3552296E1,3.6885372E1,2.5057366E-1,1.467342E-4,0E0,1.0288907E-2,1.7180252E-1,7.616756E-6,0E0,5.177303E-3,0E0,0E0,0E0,0E0,0E0,0E0,6.2189077E-4,0E0,1.4897669E-5,0E0,0E0],"parents":[2147483647,0,0,1,1,2,2,3,3,5,5,6,6,7,7,9,9,16,16,18,18],"right_children":[2,4,6,8,-1,10,12,14,-1,16,-1,-1,-1,-1,-1,-1,18,-1,20,-1,-1],"split_conditions":[1.9697454E3,3.0241903E1,2.3747904E-2,6.406556E-1,8.997193E-1,4.9560874E3,2.1263516E2,3.311073E-1,-1.9972557E-3,2.3121953E3,2.5844479E-2,4.159564E-2,1.01419175E-2,-6.835163E-6,8.481503E-4,6.5763635E-3,3.0842363E3,1.4507622E-4,8.16356E1,1.5651942E-3,2.6518505E-3],"split_indices":[1,0,2,0,0,1,0,0,0,1,0,0,0,0,0,0,1,0,0,0,0],"sum_hessian":[1.68E2,1.8E1,1.5E2,1.3E1,5E0,8.4E1,6.6E1,1.2E1,1E0,8.3E1,1E0,3.9E1,2.7E1,1E0,1.1E1,3.5E1,4.8E1,1.5E1,3.3E1,7E0,2.6E1],"tree_param":{"num_deleted":"0","num_feature":"4","num_nodes":"21","size_leaf_vector":"0"}},{"base_weights":[1.1252755E-1,7.1100146E-1,3.6477663E-2,9.456841E-4,2.249298E0,1.0723561E-2,6.860633E-2,1.8890271E-3,-5.6588873E-3,9.107747E-3,7.3225975E-2,9.8096564E-2,2.4027212E-2,-1.937151E-5,2.0496745E-3,1.5527355E-2,4.205429E-3,3.4757704E-4,5.8971993E-3,3.8477778E-3,6.286021E-3],"default_left":[true,true,true,true,false,true,true,true,false,true,false,false,false,false,false,false,true,false,true,false,false],"id":20,"leaf_child_counts":[0,0,0,0,0,0,0,0,0,0,0,0,0,0,0,0,0,0,0,0,0],"left_children":[1,3,5,7,-1,9,11,13,-1,15,-1,-1,-1,-1,-1,-1,17,-1,19,-1,-1],"loss_changes":[7.66591E0,2.0751125E1,1.24208495E-1,9.791506E-5,0E0,7.917422E-3,8.572447E-2,4.0252344E-6,0E0,2.5782613E-3,0E0,0E0,0E0,0E0,0E0,0E0,3.177537E-4,0E0,2.9059593E-6,0E0,0E0],"parents":[2147483647,0,0,1,1,2,2,3,3,5,5,6,6,7,7,9,9,16,16,18,18],"right_children":[2,4,6,8,-1,10,12,14,-1,16,-1,-1,-1,-1,-1,-1,18,-1,20,-1,-1],"split_conditions":[1.9697454E3,3.0241903E1,2.3747904E-2,6.406556E-1,6.747894E-1,4.9560874E3,2.1263516E2,3.311073E-1,-1.6976662E-3,2.3121953E3,2.1967793E-2,2.942897E-2,7.208164E-3,-5.8114533E-6,6.1490235E-4,4.6582064E-3,3.0842363E3,1.0427312E-4,8.16356E1,1.1543334E-3,1.8858063E-3],"split_indices":[1,0,2,0,0,1,0,0,0,1,0,0,0,0,0,0,1,0,0,0,0],"sum_hessian":[1.68E2,1.8E1,1.5E2,1.3E1,5E0,8.4E1,6.6E1,1.2E1,1E0,8.3E1,1E0,3.9E1,2.7E1,1E0,1.1E1,3.5E1,4.8E1,1.5E1,3.3E1,7E0,2.6E1],"tree_param":{"num_deleted":"0","num_feature":"4","num_nodes":"21","size_leaf_vector":"0"}},{"base_weights":[8.314885E-2,5.3315496E-1,2.597491E-2,5.8423943E-4,1.6869608E0,7.856895E-3,4.8572768E-2,1.3691897E-3,-4.8100576E-3,6.4684763E-3,6.224203E-2,6.940565E-2,1.7076764E-2,-1.6465783E-5,1.4860332E-3,1.099899E-2,3.0079253E-3,2.4985522E-4,4.2173723E-3],"default_left":[true,true,true,true,false,true,true,true,false,true,false,false,false,false,false,false,true,false,false],"id":21,"leaf_child_counts":[0,0,0,0,0,0,0,0,0,0,0,0,0,0,0,0,0,0,0],"left_children":[1,3,5,7,-1,9,11,13,-1,15,-1,-1,-1,-1,-1,-1,17,-1,-1],"loss_changes":[4.3342886E0,1.1674197E1,6.144204E-2,6.586546E-5,0E0,6.0156826E-3,4.2777E-2,2.1292308E-6,0E0,1.2838743E-3,0E0,0E0,0E0,0E0,0E0,0E0,1.6239751E-4,0E0,5.3219264E-7],"parents":[2147483647,0,0,1,1,2,2,3,3,5,5,6,6,7,7,9,9,16,16],"right_children":[2,4,6,8,-1,10,12,14,-1,16,-1,-1,-1,-1,-1,-1,18,-1,-1],"split_conditions":[1.9697454E3,3.0241903E1,2.3747904E-2,6.406556E-1,5.0608826E-1,4.9560874E3,2.1263516E2,3.311073E-1,-1.4430173E-3,2.3121953E3,1.867261E-2,2.0821696E-2,5.1230295E-3,-4.939735E-6,4.4580997E-4,3.2996973E-3,3.0842363E3,7.4956566E-5,1.2652117E-3],"split_indices":[1,0,2,0,0,1,0,0,0,1,0,0,0,0,0,0,1,0,0],"sum_hessian":[1.68E2,1.8E1,1.5E2,1.3E1,5E0,8.4E1,6.6E1,1.2E1,1E0,8.3E1,1E0,3.9E1,2.7E1,1E0,1.1E1,3.5E1,4.8E1,1.5E1,3.3E1],"tree_param":{"num_deleted":"0","num_feature":"4","num_nodes":"19","size_leaf_vector":"0"}},{"base_weights":[6.148413E-2,3.9978793E-1,1.8508922E-2,3.3736016E-4,1.2652079E0,5.7741236E-3,3.4388755E-2,9.923187E-4,-4.088551E-3,4.5832014E-3,5.2905798E-2,4.9105547E-2,1.2136595E-2,-1.399219E-5,1.0773441E-3,7.790936E-3,2.1329632E-3,2.3564871E-4,3.0457324E-3,1.815864E-3,3.2517822E-3],"default_left":[true,true,true,true,false,true,true,true,false,true,false,false,false,false,false,false,true,false,true,false,false],"id":22,"leaf_child_counts":[0,0,0,0,0,0,0,0,0,0,0,0,0,0,0,0,0,0,0,0,0],"left_children":[1,3,5,7,-1,9,11,13,-1,15,-1,-1,-1,-1,-1,-1,17,-1,19,-1,-1],"loss_changes":[2.4496365E0,6.567731E0,3.0337632E-2,4.4640183E-5,0E0,4.528586E-3,2.1345213E-2,1.1273787E-6,0E0,6.4359815E-4,0E0,0E0,0E0,0E0,0E0,0E0,8.4140964E-5,2.1406447E-7,2.4579058E-6,0E0,0E0],"parents":[2147483647,0,0,1,1,2,2,3,3,5,5,6,6,7,7,9,9,16,16,18,18],"right_children":[2,4,6,8,-1,10,12,14,-1,16,-1,-1,-1,-1,-1,-1,18,-1,20,-1,-1],"split_conditions":[1.9697454E3,3.0241903E1,2.3747904E-2,6.406556E-1,3.7956238E-1,4.9560874E3,2.1263516E2,3.311073E-1,-1.2265653E-3,2.3121953E3,1.587174E-2,1.4731665E-2,3.6409788E-3,-4.1976573E-6,3.2320322E-4,2.337281E-3,3.2254032E1,7.0694616E-5,8.16356E1,5.447592E-4,9.7553467E-4],"split_indices":[1,0,2,0,0,1,0,0,0,1,0,0,0,0,0,0,0,0,0,0,0],"sum_hessian":[1.68E2,1.8E1,1.5E2,1.3E1,5E0,8.4E1,6.6E1,1.2E1,1E0,8.3E1,1E0,3.9E1,2.7E1,1E0,1.1E1,3.5E1,4.8E1,1.6E1,3.2E1,6E0,2.6E1],"tree_param":{"num_deleted":"0","num_feature":"4","num_nodes":"21","size_leaf_vector":"0"}},{"base_weights":[4.5504842E-2,2.9977676E-1,1.3209009E-2,1.7134739E-4,9.4889325E-1,4.2751324E-3,2.4345882E-2,7.1918505E-4,-3.4752712E-3,3.2553119E-3,4.4970036E-2,3.47415E-2,8.625507E-3,5.519337E-3,1.5255115E-3,1.6914395E-4,2.1780187E-3],"default_left":[true,true,true,true,false,true,true,false,false,true,false,false,false,false,true,false,false],"id":23,"leaf_child_counts":[0,0,0,0,0,0,0,0,0,0,0,0,0,0,0,0,0],"left_children":[1,3,5,7,-1,9,11,-1,-1,13,-1,-1,-1,-1,15,-1,-1],"loss_changes":[1.3838553E0,3.6949346E0,1.4919732E-2,3.0467932E-5,0E0,3.3812362E-3,1.0649674E-2,5.9771764E-7,0E0,3.2055035E-4,0E0,0E0,0E0,0E0,4.2998545E-5,2.8382163E-7,5.5515557E-7],"parents":[2147483647,0,0,1,1,2,2,3,3,5,5,6,6,9,9,14,14],"right_children":[2,4,6,8,-1,10,12,-1,-1,14,-1,-1,-1,-1,16,-1,-1],"split_conditions":[1.9697454E3,3.0241903E1,2.3747904E-2,6.406556E-1,2.84668E-1,4.9560874E3,2.1263516E2,2.1575553E-4,-1.0425814E-3,2.3121953E3,1.3491011E-2,1.042245E-2,2.5876523E-3,1.6558012E-3,3.2254032E1,5.0743187E-5,6.534056E-4],"split_indices":[1,0,2,0,0,1,0,0,0,1,0,0,0,0,0,0,0],"sum_hessian":[1.68E2,1.8E1,1.5E2,1.3E1,5E0,8.4E1,6.6E1,1.2E1,1E0,8.3E1,1E0,3.9E1,2.7E1,3.5E1,4.8E1,1.6E1,3.2E1],"tree_param":{"num_deleted":"0","num_feature":"4","num_nodes":"17","size_leaf_vector":"0"}},{"base_weights":[3.3703826E-2,2.2478272E-1,9.437581E-3,6.087231E-5,7.116699E-1,3.1792037E-3,1.7236453E-2,5.2001385E-4,-2.9539838E-3,2.3069452E-3,3.822446E-2,2.4580289E-2,6.1296737E-3,3.9097467E-3,1.0822963E-3,6.572157E-5,1.5288522E-3,8.1670284E-4,1.6832352E-3],"default_left":[true,true,true,true,false,true,true,false,false,true,false,false,false,false,true,false,true,false,false],"id":24,"leaf_child_counts":[0,0,0,0,0,0,0,0,0,0,0,0,0,0,0,0,0,0,0],"left_children":[1,3,5,7,-1,9,11,-1,-1,13,-1,-1,-1,-1,15,-1,17,-1,-1],"loss_changes":[7.8149223E-1,2.0788264E0,7.315252E-3,2.0915553E-5,0E0,2.5101425E-3,5.3142756E-3,5.9632475E-7,0E0,1.6064954E-4,0E0,0E0,0E0,0E0,2.2143427E-5,0E0,2.3633838E-6,0E0,0E0],"parents":[2147483647,0,0,1,1,2,2,3,3,5,5,6,6,9,9,14,14,16,16],"right_children":[2,4,6,8,-1,10,12,-1,-1,14,-1,-1,-1,-1,16,-1,18,-1,-1],"split_conditions":[1.9697454E3,3.0241903E1,2.3747904E-2,6.406556E-1,2.1350099E-1,4.9560874E3,2.1263516E2,1.5600416E-4,-8.8619516E-4,2.3121953E3,1.1467338E-2,7.374087E-3,1.8389021E-3,1.1729241E-3,3.0842363E3,1.9716472E-5,8.16356E1,2.4501086E-4,5.0497055E-4],"split_indices":[1,0,2,0,0,1,0,0,0,1,0,0,0,0,1,0,0,0,0],"sum_hessian":[1.68E2,1.8E1,1.5E2,1.3E1,5E0,8.4E1,6.6E1,1.2E1,1E0,8.3E1,1E0,3.9E1,2.7E1,3.5E1,4.8E1,1.5E1,3.3E1,7E0,2.6E1],"tree_param":{"num_deleted":"0","num_feature":"4","num_nodes":"19","size_leaf_vector":"0"}},{"base_weights":[2.4984729E-2,1.6854635E-1,6.7552235E-3,-9.578253E-6,5.3375244E-1,2.383155E-3,1.2201053E-2,3.7597463E-4,-2.510883E-3,1.637937E-3,3.249073E-2,1.7387103E-2,4.3566567E-3,2.7693112E-3,7.7329605E-4,4.721433E-5,1.0922375E-3,6.0224533E-4,1.1969672E-3],"default_left":[true,true,true,true,false,true,true,false,false,true,false,false,false,false,true,false,true,false,false],"id":25,"leaf_child_counts":[0,0,0,0,0,0,0,0,0,0,0,0,0,0,0,0,0,0,0],"left_children":[1,3,5,7,-1,9,11,-1,-1,13,-1,-1,-1,-1,15,-1,17,-1,-1],"loss_changes":[4.4114417E-1,1.1696005E0,3.5661636E-3,1.44454225E-5,0E0,1.8539021E-3,2.649906E-3,5.666453E-7,0E0,8.003003E-5,0E0,0E0,0E0,0E0,1.1295733E-5,0E0,1.0239019E-6,0E0,0E0],"parents":[2147483647,0,0,1,1,2,2,3,3,5,5,6,6,9,9,14,14,16,16],"right_children":[2,4,6,8,-1,10,12,-1,-1,14,-1,-1,-1,-1,16,-1,18,-1,-1],"split_conditions":[1.9697454E3,3.0241903E1,2.3747904E-2,6.406556E-1,1.6012573E-1,4.9560874E3,2.1263516E2,1.127924E-4,-7.5326493E-4,2.3121953E3,9.747219E-3,5.216131E-3,1.306997E-3,8.307934E-4,3.0842363E3,1.41642995E-5,8.16356E1,1.8067361E-4,3.5909016E-4],"split_indices":[1,0,2,0,0,1,0,0,0,1,0,0,0,0,1,0,0,0,0],"sum_hessian":[1.68E2,1.8E1,1.5E2,1.3E1,5E0,8.4E1,6.6E1,1.2E1,1E0,8.3E1,1E0,3.9E1,2.7E1,3.5E1,4.8E1,1.5E1,3.3E1,7E0,2.6E1],"tree_param":{"num_deleted":"0","num_feature":"4","num_nodes":"19","size_leaf_vector":"0"}},{"base_weights":[1.8535938E-2,1.2636839E-1,4.844864E-3,-5.2437186E-5,4.002889E-1,1.7988471E-3,8.636902E-3,2.7187512E-4,-2.1342486E-3,1.1627092E-3,2.7617216E-2,1.2299061E-2,3.096785E-3,1.9608075E-3,5.5262266E-4,3.3937395E-5,7.8045623E-4],"default_left":[true,true,true,true,false,true,true,false,false,true,false,false,false,false,true,false,false],"id":26,"leaf_child_counts":[0,0,0,0,0,0,0,0,0,0,0,0,0,0,0,0,0],"left_children":[1,3,5,7,-1,9,11,-1,-1,13,-1,-1,-1,-1,15,-1,-1],"loss_changes":[2.4888961E-1,6.5797687E-1,1.7286057E-3,1.0032449E-5,0E0,1.3639329E-3,1.3212617E-3,5.30292E-7,0E0,3.981677E-5,0E0,0E0,0E0,0E0,5.7640345E-6,0E0,4.3104956E-7],"parents":[2147483647,0,0,1,1,2,2,3,3,5,5,6,6,9,9,14,14],"right_children":[2,4,6,8,-1,10,12,-1,-1,14,-1,-1,-1,-1,16,-1,-1],"split_conditions":[1.9697454E3,3.0241903E1,2.3747904E-2,6.406556E-1,1.2008668E-1,4.9560874E3,2.1263516E2,8.156254E-5,-6.402746E-4,2.3121953E3,8.285165E-3,3.6897184E-3,9.2903554E-4,5.8824226E-4,3.0842363E3,1.0181218E-5,2.3413688E-4],"split_indices":[1,0,2,0,0,1,0,0,0,1,0,0,0,0,1,0,0],"sum_hessian":[1.68E2,1.8E1,1.5E2,1.3E1,5E0,8.4E1,6.6E1,1.2E1,1E0,8.3E1,1E0,3.9E1,2.7E1,3.5E1,4.8E1,1.5E1,3.3E1],"tree_param":{"num_deleted":"0","num_feature":"4","num_nodes":"17","size_leaf_vector":"0"}},{"base_weights":[1.37623185E-2,9.474079E-2,3.4818326E-3,-7.6596225E-5,3.0019125E-1,1.3667822E-3,6.1131376E-3,1.9660592E-4,-1.8141121E-3,8.241321E-4,2.3474693E-2,8.698749E-3,2.2010803E-3,1.3896624E-3,3.9182146E-4,1.0017208E-4,6.257516E-4],"default_left":[true,true,true,true,false,true,true,false,false,true,false,false,false,false,true,false,false],"id":27,"leaf_child_counts":[0,0,0,0,0,0,0,0,0,0,0,0,0,0,0,0,0],"left_children":[1,3,5,7,-1,9,11,-1,-1,13,-1,-1,-1,-1,15,-1,-1],"loss_changes":[1.4036229E-1,3.701482E-1,8.320116E-4,7.0023675E-6,0E0,1.0003868E-3,6.585624E-4,4.9619103E-7,0E0,1.9992218E-5,0E0,0E0,0E0,0E0,3.2803714E-6,2.3664691E-7,0E0],"parents":[2147483647,0,0,1,1,2,2,3,3,5,5,6,6,9,9,14,14],"right_children":[2,4,6,8,-1,10,12,-1,-1,14,-1,-1,-1,-1,16,-1,-1],"split_conditions":[1.9697454E3,3.0241903E1,2.3747904E-2,6.406556E-1,9.005738E-2,4.9560874E3,2.1263516E2,5.898178E-5,-5.4423366E-4,2.3121953E3,7.0424085E-3,2.609625E-3,6.603241E-4,4.1689872E-4,8.16356E1,3.0051626E-5,1.877255E-4],"split_indices":[1,0,2,0,0,1,0,0,0,1,0,0,0,0,0,0,0],"sum_hessian":[1.68E2,1.8E1,1.5E2,1.3E1,5E0,8.4E1,6.6E1,1.2E1,1E0,8.3E1,1E0,3.9E1,2.7E1,3.5E1,4.8E1,2.2E1,2.6E1],"tree_param":{"num_deleted":"0","num_feature":"4","num_nodes":"17","size_leaf_vector":"0"}},{"base_weights":[1.0227464E-2,7.1024835E-2,2.509732E-3,-8.829896E-5,2.25118E-1,2.2604172E-3,1.995349E-2,2.0805995E-4,-1.2443016E-3,5.840673E-4,4.328372E-3,9.835562E-4,2.7864563E-4,6.154728E-3,1.564707E-3,-3.7923455E-6,4.0336215E-4],"default_left":[true,true,true,true,false,true,false,false,false,true,true,false,true,false,false,false,false],"id":28,"leaf_child_counts":[0,0,0,0,0,0,0,0,0,0,0,0,0,0,0,0,0],"left_children":[1,3,5,7,-1,9,-1,-1,-1,11,13,-1,15,-1,-1,-1,-1],"loss_changes":[7.911955E-2,2.0822279E-1,6.1159424E-4,5.055173E-6,0E0,5.1746424E-4,0E0,0E0,3.2118032E-7,9.974989E-6,3.285479E-4,0E0,1.7275393E-6,0E0,0E0,0E0,1.7374305E-7],"parents":[2147483647,0,0,1,1,2,2,3,3,5,5,9,9,10,10,12,12],"right_children":[2,4,6,8,-1,10,-1,-1,-1,12,14,-1,16,-1,-1,-1,-1],"split_conditions":[1.9697454E3,3.0241903E1,4.9560874E3,1.6833912E3,6.75354E-2,2.3747904E-2,5.986047E-3,6.241799E-5,-3.7329047E-4,2.3121953E3,2.1263516E2,2.9506686E-4,3.0842363E3,1.8464185E-3,4.6941213E-4,-1.1377037E-6,1.2100865E-4],"split_indices":[1,0,1,1,0,2,0,0,0,1,0,0,1,0,0,0,0],"sum_hessian":[1.68E2,1.8E1,1.5E2,1.3E1,5E0,1.49E2,1E0,1.1E1,2E0,8.3E1,6.6E1,3.5E1,4.8E1,3.9E1,2.7E1,1.5E1,3.3E1],"tree_param":{"num_deleted":"0","num_feature":"4","num_nodes":"17","size_leaf_vector":"0"}},{"base_weights":[7.6093986E-3,5.326352E-2,1.8144466E-3,-8.405106E-5,1.6886394E-1,1.6004046E-3,1.6960382E-2,1.17998854E-4,-1.35535E-3,4.1350722E-4,3.0645684E-3,6.961293E-4,1.9742761E-4,4.3545724E-3,1.1122568E-3,2.7781183E-5,3.2367025E-4],"default_left":[true,true,true,true,false,true,false,false,false,true,true,false,true,false,false,false,false],"id":29,"leaf_child_counts":[0,0,0,0,0,0,0,0,0,0,0,0,0,0,0,0,0],"left_children":[1,3,5,7,-1,9,-1,-1,-1,11,13,-1,15,-1,-1,-1,-1],"loss_changes":[4.4614576E-2,1.1718723E-1,4.623786E-4,3.7560515E-6,0E0,2.5940462E-4,0E0,1.2985925E-7,0E0,4.99235E-6,1.6389537E-4,0E0,1.0404221E-6,0E0,0E0,4.4371532E-8,0E0],"parents":[2147483647,0,0,1,1,2,2,3,3,5,5,9,9,10,10,12,12],"right_children":[2,4,6,8,-1,10,-1,-1,-1,12,14,-1,16,-1,-1,-1,-1],"split_conditions":[1.9697454E3,3.0241903E1,4.9560874E3,6.406556E-1,5.0659183E-2,2.3747904E-2,5.088115E-3,3.539966E-5,-4.0660502E-4,2.3121953E3,2.1263516E2,2.088388E-4,3.6757031E3,1.3063718E-3,3.3367705E-4,8.334356E-6,9.710108E-5],"split_indices":[1,0,1,0,0,2,0,0,0,1,0,0,1,0,0,0,0],"sum_hessian":[1.68E2,1.8E1,1.5E2,1.3E1,5E0,1.49E2,1E0,1.2E1,1E0,8.3E1,6.6E1,3.5E1,4.8E1,3.9E1,2.7E1,2.1E1,2.7E1],"tree_param":{"num_deleted":"0","num_feature":"4","num_nodes":"17","size_leaf_vector":"0"}},{"base_weights":[5.666361E-3,3.9931197E-2,1.317366E-3,-8.535491E-5,1.2664795E-1,1.1339323E-3,1.4416218E-2,8.531717E-5,-1.152046E-3,2.9352875E-4,2.1706482E-3,4.940033E-4,1.4025095E-4,3.0825615E-3,7.9039164E-4],"default_left":[true,true,true,true,false,true,false,false,false,true,true,false,false,false,false],"id":30,"leaf_child_counts":[0,0,0,0,0,0,0,0,0,0,0,0,0,0,0],"left_children":[1,3,5,7,-1,9,-1,-1,-1,11,13,-1,-1,-1,-1],"loss_changes":[2.5131369E-2,6.594282E-2,3.4647156E-4,2.647051E-6,0E0,1.300518E-4,0E0,1.2180509E-7,0E0,2.5118925E-6,8.1894745E-5,0E0,5.3398503E-7,0E0,0E0],"parents":[2147483647,0,0,1,1,2,2,3,3,5,5,9,9,10,10],"right_children":[2,4,6,8,-1,10,-1,-1,-1,12,14,-1,-1,-1,-1],"split_conditions":[1.9697454E3,3.0241903E1,4.9560874E3,6.406556E-1,3.7994385E-2,2.3747904E-2,4.3248655E-3,2.5595153E-5,-3.456138E-4,2.3121953E3,2.1263516E2,1.48201E-4,4.2075288E-5,9.247685E-4,2.371175E-4],"split_indices":[1,0,1,0,0,2,0,0,0,1,0,0,0,0,0],"sum_hessian":[1.68E2,1.8E1,1.5E2,1.3E1,5E0,1.49E2,1E0,1.2E1,1E0,8.3E1,6.6E1,3.5E1,4.8E1,3.9E1,2.7E1],"tree_param":{"num_deleted":"0","num_feature":"4","num_nodes":"15","size_leaf_vector":"0"}},{"base_weights":[4.22424E-3,2.994271E-2,9.601661E-4,-8.263439E-5,9.501139E-2,8.031837E-4,1.2253761E-2,6.1661005E-5,-9.792373E-4,2.0753627E-4,1.5379777E-3,3.493627E-4,9.9101846E-5,2.1824837E-3,5.623273E-4],"default_left":[true,true,true,true,false,true,false,false,false,true,true,false,false,false,false],"id":31,"leaf_child_counts":[0,0,0,0,0,0,0,0,0,0,0,0,0,0,0],"left_children":[1,3,5,7,-1,9,-1,-1,-1,11,13,-1,-1,-1,-1],"loss_changes":[1.415829E-2,3.7128337E-2,2.5786518E-4,1.8716399E-6,0E0,6.533254E-5,0E0,1.1518878E-7,0E0,1.2572025E-6,4.0903178E-5,0E0,5.427098E-7,0E0,0E0],"parents":[2147483647,0,0,1,1,2,2,3,3,5,5,9,9,10,10],"right_children":[2,4,6,8,-1,10,-1,-1,-1,12,14,-1,-1,-1,-1],"split_conditions":[1.9697454E3,3.0241903E1,4.9560874E3,6.406556E-1,2.8503418E-2,2.3747904E-2,3.6761286E-3,1.8498302E-5,-2.9377118E-4,2.3121953E3,2.1263516E2,1.04808816E-4,2.9730554E-5,6.5474515E-4,1.6869819E-4],"split_indices":[1,0,1,0,0,2,0,0,0,1,0,0,0,0,0],"sum_hessian":[1.68E2,1.8E1,1.5E2,1.3E1,5E0,1.49E2,1E0,1.2E1,1E0,8.3E1,6.6E1,3.5E1,4.8E1,3.9E1,2.7E1],"tree_param":{"num_deleted":"0","num_feature":"4","num_nodes":"15","size_leaf_vector":"0"}},{"base_weights":[3.1512429E-3,2.24456E-2,7.026069E-4,-7.7490295E-5,7.1258545E-2,5.6841376E-4,1.0415792E-2,7.79132E-5,-6.732742E-4,1.4688571E-4,1.0884128E-3,1.5427589E-3,4.0047508E-4],"default_left":[true,true,true,true,false,true,false,false,false,false,true,false,false],"id":32,"leaf_child_counts":[0,0,0,0,0,0,0,0,0,0,0,0,0],"left_children":[1,3,5,7,-1,9,-1,-1,-1,-1,11,-1,-1],"loss_changes":[7.96861E-3,2.0894472E-2,1.9089947E-4,1.3486737E-6,0E0,3.2719254E-5,0E0,0E0,8.877225E-8,6.3113794E-7,2.0323801E-5,0E0,0E0],"parents":[2147483647,0,0,1,1,2,2,3,3,5,5,10,10],"right_children":[2,4,6,8,-1,10,-1,-1,-1,-1,12,-1,-1],"split_conditions":[1.9697454E3,3.0241903E1,4.9560874E3,1.6833912E3,2.1377563E-2,2.3747904E-2,3.1247379E-3,2.3373961E-5,-2.0198227E-4,4.4065713E-5,2.1263516E2,4.6282768E-4,1.20142526E-4],"split_indices":[1,0,1,1,0,2,0,0,0,0,0,0,0],"sum_hessian":[1.68E2,1.8E1,1.5E2,1.3E1,5E0,1.49E2,1E0,1.1E1,2E0,8.3E1,6.6E1,3.9E1,2.7E1],"tree_param":{"num_deleted":"0","num_feature":"4","num_nodes":"13","size_leaf_vector":"0"}},{"base_weights":[2.3534377E-3,1.6831676E-2,5.16087E-4,-6.699456E-5,5.3456623E-2,4.0148178E-4,8.8534355E-3,4.036839E-5,-7.3135644E-4,1.03492115E-4,7.690885E-4,1.0890007E-3,2.8460365E-4],"default_left":[true,true,true,true,false,true,false,false,false,false,true,false,false],"id":33,"leaf_child_counts":[0,0,0,0,0,0,0,0,0,0,0,0,0],"left_children":[1,3,5,7,-1,9,-1,-1,-1,-1,11,-1,-1],"loss_changes":[4.4869836E-3,1.1762926E-2,1.4072657E-4,1.0281136E-6,0E0,1.6351854E-5,0E0,2.8843786E-8,0E0,6.448484E-7,1.0074571E-5,0E0,0E0],"parents":[2147483647,0,0,1,1,2,2,3,3,5,5,10,10],"right_children":[2,4,6,8,-1,10,-1,-1,-1,-1,12,-1,-1],"split_conditions":[1.9697454E3,3.0241903E1,4.9560874E3,6.406556E-1,1.6036987E-2,2.3747904E-2,2.6560307E-3,1.2110518E-5,-2.1940694E-4,3.1047635E-5,2.1263516E2,3.2670022E-4,8.53811E-5],"split_indices":[1,0,1,0,0,2,0,0,0,0,0,0,0],"sum_hessian":[1.68E2,1.8E1,1.5E2,1.3E1,5E0,1.49E2,1E0,1.2E1,1E0,8.3E1,6.6E1,3.9E1,2.7E1],"tree_param":{"num_deleted":"0","num_feature":"4","num_nodes":"13","size_leaf_vector":"0"}},{"base_weights":[1.7586891E-3,1.2611271E-2,3.8148553E-4,-6.174083E-5,4.0079754E-2,2.836895E-4,7.525444E-3,7.3052586E-5,5.4353743E-4,7.6913834E-4,2.0183835E-4],"default_left":[true,true,true,false,false,true,false,false,true,false,false],"id":34,"leaf_child_counts":[0,0,0,0,0,0,0,0,0,0,0],"left_children":[1,3,5,-1,-1,7,-1,-1,9,-1,-1],"loss_changes":[2.5210993E-3,6.6165337E-3,1.03361366E-4,7.305862E-7,0E0,8.170327E-6,0E0,6.5543566E-7,5.0096296E-6,0E0,0E0],"parents":[2147483647,0,0,1,1,2,2,5,5,8,8],"right_children":[2,4,6,-1,-1,8,-1,-1,10,-1,-1],"split_conditions":[1.9697454E3,3.0241903E1,4.9560874E3,-1.8522249E-5,1.2023927E-2,2.3747904E-2,2.2576333E-3,2.1915777E-5,2.1263516E2,2.3074151E-4,6.055151E-5],"split_indices":[1,0,1,0,0,2,0,0,0,0,0],"sum_hessian":[1.68E2,1.8E1,1.5E2,1.3E1,5E0,1.49E2,1E0,8.3E1,6.6E1,3.9E1,2.7E1],"tree_param":{"num_deleted":"0","num_feature":"4","num_nodes":"11","size_leaf_vector":"0"}},{"base_weights":[1.3178686E-3,9.459727E-3,2.846686E-4,-4.4575758E-5,3.0059814E-2,2.0127933E-4,6.396532E-3,5.177657E-5,3.8571144E-4,5.4597855E-4,1.4298303E-4],"default_left":[true,true,true,false,false,true,false,false,true,false,false],"id":35,"leaf_child_counts":[0,0,0,0,0,0,0,0,0,0,0],"left_children":[1,3,5,-1,-1,7,-1,-1,9,-1,-1],"loss_changes":[1.4189635E-3,3.72134E-3,7.567178E-5,7.499918E-7,0E0,4.115995E-6,0E0,6.661486E-7,2.528327E-6,0E0,0E0],"parents":[2147483647,0,0,1,1,2,2,5,5,8,8],"right_children":[2,4,6,-1,-1,8,-1,-1,10,-1,-1],"split_conditions":[1.9697454E3,3.0241903E1,4.9560874E3,-1.3372728E-5,9.017944E-3,2.3747904E-2,1.9189597E-3,1.553297E-5,2.1263516E2,1.6379356E-4,4.289491E-5],"split_indices":[1,0,1,0,0,2,0,0,0,0,0],"sum_hessian":[1.68E2,1.8E1,1.5E2,1.3E1,5E0,1.49E2,1E0,8.3E1,6.6E1,3.9E1,2.7E1],"tree_param":{"num_deleted":"0","num_feature":"4","num_nodes":"11","size_leaf_vector":"0"}},{"base_weights":[9.890043E-4,7.0917066E-3,2.1456488E-4,-3.21748E-5,2.2532145E-2,1.4350018E-4,5.4371357E-3,2.303404E-4,-4.0197858E-5,1.2546116E-4,3.897667E-4],"default_left":[true,true,true,false,false,true,false,true,false,false,false],"id":36,"leaf_child_counts":[0,0,0,0,0,0,0,0,0,0,0],"left_children":[1,3,5,-1,-1,7,-1,9,-1,-1,-1],"loss_changes":[7.972016E-4,2.0906462E-3,5.5261986E-5,7.6382037E-7,0E0,2.4021158E-6,0E0,1.6565914E-6,5.471028E-7,6.4173946E-9,0E0],"parents":[2147483647,0,0,1,1,2,2,5,5,7,7],"right_children":[2,4,6,-1,-1,8,-1,10,-1,-1,-1],"split_conditions":[1.9697454E3,3.0241903E1,4.9560874E3,-9.652441E-6,6.7596436E-3,2.4478164E3,1.6311408E-3,2.3082485E3,-1.2059358E-5,3.7638347E-5,1.16930016E-4],"split_indices":[1,0,1,0,0,1,0,1,0,0,0],"sum_hessian":[1.68E2,1.8E1,1.5E2,1.3E1,5E0,1.49E2,1E0,1.01E2,4.8E1,6.2E1,3.9E1],"tree_param":{"num_deleted":"0","num_feature":"4","num_nodes":"11","size_leaf_vector":"0"}},{"base_weights":[7.426565E-4,5.315444E-3,1.6235436E-4,-2.3208559E-5,1.6886393E-2,1.0181665E-4,4.6215057E-3,1.633962E-4,-2.844723E-5],"default_left":[true,true,true,false,false,true,false,false,false],"id":37,"leaf_child_counts":[0,0,0,0,0,0,0,0,0],"left_children":[1,3,5,-1,-1,7,-1,-1,-1],"loss_changes":[4.4759514E-4,1.1740841E-3,4.0291427E-5,7.737199E-7,0E0,1.2078867E-6,0E0,8.592692E-7,5.4748244E-7],"parents":[2147483647,0,0,1,1,2,2,5,5],"right_children":[2,4,6,-1,-1,8,-1,-1,-1],"split_conditions":[1.9697454E3,3.0241903E1,4.9560874E3,-6.962568E-6,5.065918E-3,2.4478164E3,1.3864518E-3,4.901886E-5,-8.534169E-6],"split_indices":[1,0,1,0,0,1,0,0,0],"sum_hessian":[1.68E2,1.8E1,1.5E2,1.3E1,5E0,1.49E2,1E0,1.01E2,4.8E1],"tree_param":{"num_deleted":"0","num_feature":"4","num_nodes":"9","size_leaf_vector":"0"}},{"base_weights":[5.587793E-4,3.987044E-3,1.2370766E-4,-1.6780836E-5,1.2664795E-2,7.215659E-5,3.9281845E-3],"default_left":[true,true,true,false,false,false,false],"id":38,"leaf_child_counts":[0,0,0,0,0,0,0],"left_children":[1,3,5,-1,-1,-1,-1],"loss_changes":[2.5157715E-4,6.6035223E-4,2.9331411E-5,7.807106E-7,0E0,6.7672175E-7,0E0],"parents":[2147483647,0,0,1,1,2,2],"right_children":[2,4,6,-1,-1,-1,-1],"split_conditions":[1.9697454E3,3.0241903E1,4.9560874E3,-5.034251E-6,3.7994387E-3,2.1646978E-5,1.1784554E-3],"split_indices":[1,0,1,0,0,0,0],"sum_hessian":[1.68E2,1.8E1,1.5E2,1.3E1,5E0,1.49E2,1E0],"tree_param":{"num_deleted":"0","num_feature":"4","num_nodes":"7","size_leaf_vector":"0"}},{"base_weights":[4.2113801E-4,2.994636E-3,9.453139E-5,-1.2127416E-5,9.511312E-3,5.06409E-5,3.3390522E-3],"default_left":[true,true,true,false,false,false,false],"id":39,"leaf_child_counts":[0,0,0,0,0,0,0],"left_children":[1,3,5,-1,-1,-1,-1],"loss_changes":[1.4176508E-4,3.724033E-4,2.133385E-5,7.857436E-7,0E0,6.720303E-7,0E0],"parents":[2147483647,0,0,1,1,2,2],"right_children":[2,4,6,-1,-1,-1,-1],"split_conditions":[1.9697454E3,3.0241903E1,4.9560874E3,-3.638225E-6,2.8533936E-3,1.5192271E-5,1.0017157E-3],"split_indices":[1,0,1,0,0,0,0],"sum_hessian":[1.68E2,1.8E1,1.5E2,1.3E1,5E0,1.49E2,1E0],"tree_param":{"num_deleted":"0","num_feature":"4","num_nodes":"7","size_leaf_vector":"0"}},{"base_weights":[3.1717343E-4,2.24225E-3,7.284477E-5,-8.704407E-6,7.120768E-3,3.5488607E-5,2.8381348E-3],"default_left":[true,true,true,false,false,false,false],"id":40,"leaf_child_counts":[0,0,0,0,0,0,0],"left_children":[1,3,5,-1,-1,-1,-1],"loss_changes":[7.932603E-5,2.0870708E-4,1.5497673E-5,7.895229E-7,0E0,6.737036E-7,0E0],"parents":[2147483647,0,0,1,1,2,2],"right_children":[2,4,6,-1,-1,-1,-1],"split_conditions":[1.9697454E3,3.0241903E1,4.9560874E3,-2.6113223E-6,2.1362305E-3,1.0646582E-5,8.514405E-4],"split_indices":[1,0,1,0,0,0,0],"sum_hessian":[1.68E2,1.8E1,1.5E2,1.3E1,5E0,1.49E2,1E0],"tree_param":{"num_deleted":"0","num_feature":"4","num_nodes":"7","size_leaf_vector":"0"}},{"base_weights":[2.4016977E-4,1.6818776E-3,5.7172303E-5,-6.2701956E-6,5.340576E-3,2.5389194E-5,2.4123192E-3],"default_left":[true,true,true,false,false,false,false],"id":41,"leaf_child_counts":[0,0,0,0,0,0,0],"left_children":[1,3,5,-1,-1,-1,-1],"loss_changes":[4.4490924E-5,1.1738554E-4,1.124169E-5,7.9217267E-7,0E0,6.92097E-7,0E0],"parents":[2147483647,0,0,1,1,2,2],"right_children":[2,4,6,-1,-1,-1,-1],"split_conditions":[1.9697454E3,3.0241903E1,4.9560874E3,-1.8810588E-6,1.602173E-3,7.6167585E-6,7.236958E-4],"split_indices":[1,0,1,0,0,0,0],"sum_hessian":[1.68E2,1.8E1,1.5E2,1.3E1,5E0,1.49E2,1E0],"tree_param":{"num_deleted":"0","num_feature":"4","num_nodes":"7","size_leaf_vector":"0"}},{"base_weights":[1.8235644E-4,1.2655705E-3,4.4850323E-5,-4.503344E-6,4.018148E-3,1.7810662E-5,2.0503998E-3],"default_left":[true,true,true,false,false,false,false],"id":42,"leaf_child_counts":[0,0,0,0,0,0,0],"left_children":[1,3,5,-1,-1,-1,-1],"loss_changes":[2.5115545E-5,6.6441644E-5,8.1521175E-6,7.941124E-7,0E0,6.926565E-7,0E0],"parents":[2147483647,0,0,1,1,2,2],"right_children":[2,4,6,-1,-1,-1,-1],"split_conditions":[1.9697454E3,3.0241903E1,4.9560874E3,-1.3510032E-6,1.2054445E-3,5.3431986E-6,6.1511993E-4],"split_indices":[1,0,1,0,0,0,0],"sum_hessian":[1.68E2,1.8E1,1.5E2,1.3E1,5E0,1.49E2,1E0],"tree_param":{"num_deleted":"0","num_feature":"4","num_nodes":"7","size_leaf_vector":"0"}},{"base_weights":[1.3734444E-4,9.45234E-4,3.4779903E-5,-3.2803841E-6,3.0008953E-3,1.1773905E-5,1.7428398E-3],"default_left":[true,true,true,false,false,false,false],"id":43,"leaf_child_counts":[0,0,0,0,0,0,0],"left_children":[1,3,5,-1,-1,-1,-1],"loss_changes":[1.39706035E-5,3.7056503E-5,5.913119E-6,7.9537654E-7,0E0,6.79196E-7,0E0],"parents":[2147483647,0,0,1,1,2,2],"right_children":[2,4,6,-1,-1,-1,-1],"split_conditions":[1.9697454E3,3.0241903E1,4.9560874E3,-9.841153E-7,9.002686E-4,3.5321716E-6,5.2285194E-4],"split_indices":[1,0,1,0,0,0,0],"sum_hessian":[1.68E2,1.8E1,1.5E2,1.3E1,5E0,1.49E2,1E0],"tree_param":{"num_deleted":"0","num_feature":"4","num_nodes":"7","size_leaf_vector":"0"}},{"base_weights":[1.0486626E-4,7.0496136E-4,2.8663124E-5,-2.390572E-6,2.2379558E-3,9.100437E-6,1.481533E-3],"default_left":[true,true,true,false,false,false,false],"id":44,"leaf_child_counts":[0,0,0,0,0,0,0],"left_children":[1,3,5,-1,-1,-1,-1],"loss_changes":[7.708017E-6,2.0608313E-5,4.2782453E-6,7.9629933E-7,0E0,6.9963664E-7,0E0],"parents":[2147483647,0,0,1,1,2,2],"right_children":[2,4,6,-1,-1,-1,-1],"split_conditions":[1.9697454E3,3.0241903E1,4.9560874E3,-7.1717164E-7,6.713868E-4,2.7301312E-6,4.4445993E-4],"split_indices":[1,0,1,0,0,0,0],"sum_hessian":[1.68E2,1.8E1,1.5E2,1.3E1,5E0,1.49E2,1E0],"tree_param":{"num_deleted":"0","num_feature":"4","num_nodes":"7","size_leaf_vector":"0"}},{"base_weights":[8.093482E-5,5.2877003E-4,2.4048697E-5,-1.7264059E-6,1.6784668E-3,7.4179966E-6,1.2593269E-3],"default_left":[true,true,true,false,false,false,false],"id":45,"leaf_child_counts":[0,0,0,0,0,0,0],"left_children":[1,3,5,-1,-1,-1,-1],"loss_changes":[4.2926617E-6,1.1591189E-5,3.0927333E-6,7.970131E-7,0E0,7.163355E-7,0E0],"parents":[2147483647,0,0,1,1,2,2],"right_children":[2,4,6,-1,-1,-1,-1],"split_conditions":[1.9697454E3,3.0241903E1,4.9560874E3,-5.179218E-7,5.0354004E-4,2.2253992E-6,3.777981E-4],"split_indices":[1,0,1,0,0,0,0],"sum_hessian":[1.68E2,1.8E1,1.5E2,1.3E1,5E0,1.49E2,1E0],"tree_param":{"num_deleted":"0","num_feature":"4","num_nodes":"7","size_leaf_vector":"0"}},{"base_weights":[6.293748E-5,4.0060517E-4,2.0032687E-5,-1.2783067E-6,1.2715658E-3,5.8929127E-6,1.0704994E-3],"default_left":[true,true,true,false,false,false,false],"id":46,"leaf_child_counts":[0,0,0,0,0,0,0],"left_children":[1,3,5,-1,-1,-1,-1],"loss_changes":[2.4403728E-6,6.6520943E-6,2.2365493E-6,7.9744154E-7,0E0,7.302882E-7,0E0],"parents":[2147483647,0,0,1,1,2,2],"right_children":[2,4,6,-1,-1,-1,-1],"split_conditions":[1.9697454E3,3.0241903E1,4.9560874E3,-3.8349205E-7,3.8146976E-4,1.7678739E-6,3.2114983E-4],"split_indices":[1,0,1,0,0,0,0],"sum_hessian":[1.68E2,1.8E1,1.5E2,1.3E1,5E0,1.49E2,1E0],"tree_param":{"num_deleted":"0","num_feature":"4","num_nodes":"7","size_leaf_vector":"0"}},{"base_weights":[4.9008686E-5,3.846939E-5,9.098053E-4,-5.044842E-5,1.5772713E-4,9.6638995E-4,8.2955434E-5],"default_left":[true,true,false,false,true,false,false],"id":47,"leaf_child_counts":[0,0,0,0,0,0,0],"left_children":[1,3,-1,-1,5,-1,-1],"loss_changes":[1.4982007E-6,1.7894522E-6,0E0,3.2717523E-7,4.2733195E-6,0E0,8.2098825E-7],"parents":[2147483647,0,0,1,1,4,4],"right_children":[2,4,-1,-1,6,-1,-1],"split_conditions":[4.9560874E3,2.3747904E-2,2.729416E-4,-1.5134527E-5,2.0937317E3,2.89917E-4,2.488663E-5],"split_indices":[1,2,0,0,1,0,0],"sum_hessian":[1.68E2,1.67E2,1E0,9.6E1,7.1E1,5E0,6.6E1],"tree_param":{"num_deleted":"0","num_feature":"4","num_nodes":"7","size_leaf_vector":"0"}},{"base_weights":[3.7759983E-5,2.8777247E-5,7.7342987E-4],"default_left":[true,false,false],"id":48,"leaf_child_counts":[0,0,0],"left_children":[1,-1,-1],"loss_changes":[1.0945504E-6,9.3195297E-7,0E0],"parents":[2147483647,0,0],"right_children":[2,-1,-1],"split_conditions":[4.9560874E3,8.633175E-6,2.3202896E-4],"split_indices":[1,0,0],"sum_hessian":[1.68E2,1.67E2,1E0],"tree_param":{"num_deleted":"0","num_feature":"4","num_nodes":"3","size_leaf_vector":"0"}},{"base_weights":[2.8023705E-5],"default_left":[false],"id":49,"leaf_child_counts":[0],"left_children":[-1],"loss_changes":[8.6165534E-7],"parents":[2147483647],"right_children":[-1],"split_conditions":[8.407112E-6],"split_indices":[0],"sum_hessian":[1.68E2],"tree_param":{"num_deleted":"0","num_feature":"4","num_nodes":"1","size_leaf_vector":"0"}},{"base_weights":[2.0350577E-5],"default_left":[false],"id":50,"leaf_child_counts":[0],"left_children":[-1],"loss_changes":[8.779306E-7],"parents":[2147483647],"right_children":[-1],"split_conditions":[6.1051733E-6],"split_indices":[0],"sum_hessian":[1.68E2],"tree_param":{"num_deleted":"0","num_feature":"4","num_nodes":"1","size_leaf_vector":"0"}},{"base_weights":[1.4233871E-5],"default_left":[false],"id":51,"leaf_child_counts":[0],"left_children":[-1],"loss_changes":[8.948453E-7],"parents":[2147483647],"right_children":[-1],"split_conditions":[4.2701618E-6],"split_indices":[0],"sum_hessian":[1.68E2],"tree_param":{"num_deleted":"0","num_feature":"4","num_nodes":"1","size_leaf_vector":"0"}},{"base_weights":[9.499622E-6],"default_left":[false],"id":52,"leaf_child_counts":[0],"left_children":[-1],"loss_changes":[9.105351E-7],"parents":[2147483647],"right_children":[-1],"split_conditions":[2.8498866E-6],"split_indices":[0],"sum_hessian":[1.68E2],"tree_param":{"num_deleted":"0","num_feature":"4","num_nodes":"1","size_leaf_vector":"0"}},{"base_weights":[7.750367E-6],"default_left":[false],"id":53,"leaf_child_counts":[0],"left_children":[-1],"loss_changes":[9.0864364E-7],"parents":[2147483647],"right_children":[-1],"split_conditions":[2.3251102E-6],"split_indices":[0],"sum_hessian":[1.68E2],"tree_param":{"num_deleted":"0","num_feature":"4","num_nodes":"1","size_leaf_vector":"0"}},{"base_weights":[6.183012E-6],"default_left":[false],"id":54,"leaf_child_counts":[0],"left_children":[-1],"loss_changes":[9.080758E-7],"parents":[2147483647],"right_children":[-1],"split_conditions":[1.8549036E-6],"split_indices":[0],"sum_hessian":[1.68E2],"tree_param":{"num_deleted":"0","num_feature":"4","num_nodes":"1","size_leaf_vector":"0"}},{"base_weights":[4.790591E-6],"default_left":[false],"id":55,"leaf_child_counts":[0],"left_children":[-1],"loss_changes":[9.0884464E-7],"parents":[2147483647],"right_children":[-1],"split_conditions":[1.4371774E-6],"split_indices":[0],"sum_hessian":[1.68E2],"tree_param":{"num_deleted":"0","num_feature":"4","num_nodes":"1","size_leaf_vector":"0"}},{"base_weights":[3.5660507E-6],"default_left":[false],"id":56,"leaf_child_counts":[0],"left_children":[-1],"loss_changes":[9.109598E-7],"parents":[2147483647],"right_children":[-1],"split_conditions":[1.0698153E-6],"split_indices":[0],"sum_hessian":[1.68E2],"tree_param":{"num_deleted":"0","num_feature":"4","num_nodes":"1","size_leaf_vector":"0"}},{"base_weights":[2.4945778E-6],"default_left":[false],"id":57,"leaf_child_counts":[0],"left_children":[-1],"loss_changes":[9.138917E-7],"parents":[2147483647],"right_children":[-1],"split_conditions":[7.4837334E-7],"split_indices":[0],"sum_hessian":[1.68E2],"tree_param":{"num_deleted":"0","num_feature":"4","num_nodes":"1","size_leaf_vector":"0"}},{"base_weights":[2.18809E-6],"default_left":[false],"id":58,"leaf_child_counts":[0],"left_children":[-1],"loss_changes":[9.122329E-7],"parents":[2147483647],"right_children":[-1],"split_conditions":[6.5642706E-7],"split_indices":[0],"sum_hessian":[1.68E2],"tree_param":{"num_deleted":"0","num_feature":"4","num_nodes":"1","size_leaf_vector":"0"}},{"base_weights":[1.9701274E-6],"default_left":[false],"id":59,"leaf_child_counts":[0],"left_children":[-1],"loss_changes":[9.0988135E-7],"parents":[2147483647],"right_children":[-1],"split_conditions":[5.9103826E-7],"split_indices":[0],"sum_hessian":[1.68E2],"tree_param":{"num_deleted":"0","num_feature":"4","num_nodes":"1","size_leaf_vector":"0"}},{"base_weights":[1.7775586E-6],"default_left":[false],"id":60,"leaf_child_counts":[0],"left_children":[-1],"loss_changes":[9.079739E-7],"parents":[2147483647],"right_children":[-1],"split_conditions":[5.332676E-7],"split_indices":[0],"sum_hessian":[1.68E2],"tree_param":{"num_deleted":"0","num_feature":"4","num_nodes":"1","size_leaf_vector":"0"}},{"base_weights":[1.5955704E-6],"default_left":[false],"id":61,"leaf_child_counts":[0],"left_children":[-1],"loss_changes":[9.066386E-7],"parents":[2147483647],"right_children":[-1],"split_conditions":[4.7867115E-7],"split_indices":[0],"sum_hessian":[1.68E2],"tree_param":{"num_deleted":"0","num_feature":"4","num_nodes":"1","size_leaf_vector":"0"}},{"base_weights":[1.4206362E-6],"default_left":[false],"id":62,"leaf_child_counts":[0],"left_children":[-1],"loss_changes":[9.0529784E-7],"parents":[2147483647],"right_children":[-1],"split_conditions":[4.2619087E-7],"split_indices":[0],"sum_hessian":[1.68E2],"tree_param":{"num_deleted":"0","num_feature":"4","num_nodes":"1","size_leaf_vector":"0"}},{"base_weights":[1.2526674E-6],"default_left":[false],"id":63,"leaf_child_counts":[0],"left_children":[-1],"loss_changes":[9.0394525E-7],"parents":[2147483647],"right_children":[-1],"split_conditions":[3.7580023E-7],"split_indices":[0],"sum_hessian":[1.68E2],"tree_param":{"num_deleted":"0","num_feature":"4","num_nodes":"1","size_leaf_vector":"0"}},{"base_weights":[1.0951031E-6],"default_left":[false],"id":64,"leaf_child_counts":[0],"left_children":[-1],"loss_changes":[9.031507E-7],"parents":[2147483647],"right_children":[-1],"split_conditions":[3.2853094E-7],"split_indices":[0],"sum_hessian":[1.68E2],"tree_param":{"num_deleted":"0","num_feature":"4","num_nodes":"1","size_leaf_vector":"0"}},{"base_weights":[9.508528E-7],"default_left":[false],"id":65,"leaf_child_counts":[0],"left_children":[-1],"loss_changes":[9.022883E-7],"parents":[2147483647],"right_children":[-1],"split_conditions":[2.8525585E-7],"split_indices":[0],"sum_hessian":[1.68E2],"tree_param":{"num_deleted":"0","num_feature":"4","num_nodes":"1","size_leaf_vector":"0"}},{"base_weights":[8.169187E-7],"default_left":[false],"id":66,"leaf_child_counts":[0],"left_children":[-1],"loss_changes":[9.0197693E-7],"parents":[2147483647],"right_children":[-1],"split_conditions":[2.4507563E-7],"split_indices":[0],"sum_hessian":[1.68E2],"tree_param":{"num_deleted":"0","num_feature":"4","num_nodes":"1","size_leaf_vector":"0"}},{"base_weights":[6.8995024E-7],"default_left":[false],"id":67,"leaf_child_counts":[0],"left_children":[-1],"loss_changes":[9.016529E-7],"parents":[2147483647],"right_children":[-1],"split_conditions":[2.0698508E-7],"split_indices":[0],"sum_hessian":[1.68E2],"tree_param":{"num_deleted":"0","num_feature":"4","num_nodes":"1","size_leaf_vector":"0"}},{"base_weights":[6.4868544E-7],"default_left":[false],"id":68,"leaf_child_counts":[0],"left_children":[-1],"loss_changes":[9.006083E-7],"parents":[2147483647],"right_children":[-1],"split_conditions":[1.9460565E-7],"split_indices":[0],"sum_hessian":[1.68E2],"tree_param":{"num_deleted":"0","num_feature":"4","num_nodes":"1","size_leaf_vector":"0"}},{"base_weights":[6.0539276E-7],"default_left":[false],"id":69,"leaf_child_counts":[0],"left_children":[-1],"loss_changes":[8.995889E-7],"parents":[2147483647],"right_children":[-1],"split_conditions":[1.8161784E-7],"split_indices":[0],"sum_hessian":[1.68E2],"tree_param":{"num_deleted":"0","num_feature":"4","num_nodes":"1","size_leaf_vector":"0"}},{"base_weights":[5.623645E-7],"default_left":[false],"id":70,"leaf_child_counts":[0],"left_children":[-1],"loss_changes":[8.9858844E-7],"parents":[2147483647],"right_children":[-1],"split_conditions":[1.6870936E-7],"split_indices":[0],"sum_hessian":[1.68E2],"tree_param":{"num_deleted":"0","num_feature":"4","num_nodes":"1","size_leaf_vector":"0"}},{"base_weights":[5.292998E-7],"default_left":[false],"id":71,"leaf_child_counts":[0],"left_children":[-1],"loss_changes":[8.981134E-7],"parents":[2147483647],"right_children":[-1],"split_conditions":[1.5878996E-7],"split_indices":[0],"sum_hessian":[1.68E2],"tree_param":{"num_deleted":"0","num_feature":"4","num_nodes":"1","size_leaf_vector":"0"}},{"base_weights":[4.964115E-7],"default_left":[false],"id":72,"leaf_child_counts":[0],"left_children":[-1],"loss_changes":[8.9765064E-7],"parents":[2147483647],"right_children":[-1],"split_conditions":[1.4892345E-7],"split_indices":[0],"sum_hessian":[1.68E2],"tree_param":{"num_deleted":"0","num_feature":"4","num_nodes":"1","size_leaf_vector":"0"}},{"base_weights":[4.6572742E-7],"default_left":[false],"id":73,"leaf_child_counts":[0],"left_children":[-1],"loss_changes":[8.9717577E-7],"parents":[2147483647],"right_children":[-1],"split_conditions":[1.3971824E-7],"split_indices":[0],"sum_hessian":[1.68E2],"tree_param":{"num_deleted":"0","num_feature":"4","num_nodes":"1","size_leaf_vector":"0"}},{"base_weights":[4.3936382E-7],"default_left":[false],"id":74,"leaf_child_counts":[0],"left_children":[-1],"loss_changes":[8.9667026E-7],"parents":[2147483647],"right_children":[-1],"split_conditions":[1.3180914E-7],"split_indices":[0],"sum_hessian":[1.68E2],"tree_param":{"num_deleted":"0","num_feature":"4","num_nodes":"1","size_leaf_vector":"0"}},{"base_weights":[4.089443E-7],"default_left":[false],"id":75,"leaf_child_counts":[0],"left_children":[-1],"loss_changes":[8.96214E-7],"parents":[2147483647],"right_children":[-1],"split_conditions":[1.2268329E-7],"split_indices":[0],"sum_hessian":[1.68E2],"tree_param":{"num_deleted":"0","num_feature":"4","num_nodes":"1","size_leaf_vector":"0"}},{"base_weights":[3.8284523E-7],"default_left":[false],"id":76,"leaf_child_counts":[0],"left_children":[-1],"loss_changes":[8.9572694E-7],"parents":[2147483647],"right_children":[-1],"split_conditions":[1.1485357E-7],"split_indices":[0],"sum_hessian":[1.68E2],"tree_param":{"num_deleted":"0","num_feature":"4","num_nodes":"1","size_leaf_vector":"0"}},{"base_weights":[3.6097842E-7],"default_left":[false],"id":77,"leaf_child_counts":[0],"left_children":[-1],"loss_changes":[8.9520336E-7],"parents":[2147483647],"right_children":[-1],"split_conditions":[1.0829353E-7],"split_indices":[0],"sum_hessian":[1.68E2],"tree_param":{"num_deleted":"0","num_feature":"4","num_nodes":"1","size_leaf_vector":"0"}},{"base_weights":[3.4343208E-7],"default_left":[false],"id":78,"leaf_child_counts":[0],"left_children":[-1],"loss_changes":[8.946491E-7],"parents":[2147483647],"right_children":[-1],"split_conditions":[1.0302963E-7],"split_indices":[0],"sum_hessian":[1.68E2],"tree_param":{"num_deleted":"0","num_feature":"4","num_nodes":"1","size_leaf_vector":"0"}},{"base_weights":[3.2182982E-7],"default_left":[false],"id":79,"leaf_child_counts":[0],"left_children":[-1],"loss_changes":[8.94144E-7],"parents":[2147483647],"right_children":[-1],"split_conditions":[9.654895E-8],"split_indices":[0],"sum_hessian":[1.68E2],"tree_param":{"num_deleted":"0","num_feature":"4","num_nodes":"1","size_leaf_vector":"0"}},{"base_weights":[3.04548E-7],"default_left":[false],"id":80,"leaf_child_counts":[0],"left_children":[-1],"loss_changes":[8.936084E-7],"parents":[2147483647],"right_children":[-1],"split_conditions":[9.1364406E-8],"split_indices":[0],"sum_hessian":[1.68E2],"tree_param":{"num_deleted":"0","num_feature":"4","num_nodes":"1","size_leaf_vector":"0"}},{"base_weights":[2.830339E-7],"default_left":[false],"id":81,"leaf_child_counts":[0],"left_children":[-1],"loss_changes":[8.9310976E-7],"parents":[2147483647],"right_children":[-1],"split_conditions":[8.491017E-8],"split_indices":[0],"sum_hessian":[1.68E2],"tree_param":{"num_deleted":"0","num_feature":"4","num_nodes":"1","size_leaf_vector":"0"}},{"base_weights":[2.6998435E-7],"default_left":[false],"id":82,"leaf_child_counts":[0],"left_children":[-1],"loss_changes":[8.925377E-7],"parents":[2147483647],"right_children":[-1],"split_conditions":[8.099531E-8],"split_indices":[0],"sum_hessian":[1.68E2],"tree_param":{"num_deleted":"0","num_feature":"4","num_nodes":"1","size_leaf_vector":"0"}},{"base_weights":[2.5702298E-7],"default_left":[false],"id":83,"leaf_child_counts":[0],"left_children":[-1],"loss_changes":[8.9197187E-7],"parents":[2147483647],"right_children":[-1],"split_conditions":[7.71069E-8],"split_indices":[0],"sum_hessian":[1.68E2],"tree_param":{"num_deleted":"0","num_feature":"4","num_nodes":"1","size_leaf_vector":"0"}},{"base_weights":[2.419455E-7],"default_left":[false],"id":84,"leaf_child_counts":[0],"left_children":[-1],"loss_changes":[8.914246E-7],"parents":[2147483647],"right_children":[-1],"split_conditions":[7.2583646E-8],"split_indices":[0],"sum_hessian":[1.68E2],"tree_param":{"num_deleted":"0","num_feature":"4","num_nodes":"1","size_leaf_vector":"0"}},{"base_weights":[2.2704432E-7],"default_left":[false],"id":85,"leaf_child_counts":[0],"left_children":[-1],"loss_changes":[8.916414E-7],"parents":[2147483647],"right_children":[-1],"split_conditions":[6.81133E-8],"split_indices":[0],"sum_hessian":[1.68E2],"tree_param":{"num_deleted":"0","num_feature":"4","num_nodes":"1","size_leaf_vector":"0"}},{"base_weights":[2.142593E-7],"default_left":[false],"id":86,"leaf_child_counts":[0],"left_children":[-1],"loss_changes":[8.919096E-7],"parents":[2147483647],"right_children":[-1],"split_conditions":[6.427779E-8],"split_indices":[0],"sum_hessian":[1.68E2],"tree_param":{"num_deleted":"0","num_feature":"4","num_nodes":"1","size_leaf_vector":"0"}},{"base_weights":[2.0156246E-7],"default_left":[false],"id":87,"leaf_child_counts":[0],"left_children":[-1],"loss_changes":[8.9217605E-7],"parents":[2147483647],"right_children":[-1],"split_conditions":[6.046874E-8],"split_indices":[0],"sum_hessian":[1.68E2],"tree_param":{"num_deleted":"0","num_feature":"4","num_nodes":"1","size_leaf_vector":"0"}},{"base_weights":[1.8674946E-7],"default_left":[false],"id":88,"leaf_child_counts":[0],"left_children":[-1],"loss_changes":[8.92487E-7],"parents":[2147483647],"right_children":[-1],"split_conditions":[5.602484E-8],"split_indices":[0],"sum_hessian":[1.68E2],"tree_param":{"num_deleted":"0","num_feature":"4","num_nodes":"1","size_leaf_vector":"0"}},{"base_weights":[1.7969566E-7],"default_left":[false],"id":89,"leaf_child_counts":[0],"left_children":[-1],"loss_changes":[8.9263506E-7],"parents":[2147483647],"right_children":[-1],"split_conditions":[5.39087E-8],"split_indices":[0],"sum_hessian":[1.68E2],"tree_param":{"num_deleted":"0","num_feature":"4","num_nodes":"1","size_leaf_vector":"0"}},{"base_weights":[1.74758E-7],"default_left":[false],"id":90,"leaf_child_counts":[0],"left_children":[-1],"loss_changes":[8.9273874E-7],"parents":[2147483647],"right_children":[-1],"split_conditions":[5.2427403E-8],"split_indices":[0],"sum_hessian":[1.68E2],"tree_param":{"num_deleted":"0","num_feature":"4","num_nodes":"1","size_leaf_vector":"0"}},{"base_weights":[1.6982034E-7],"default_left":[false],"id":91,"leaf_child_counts":[0],"left_children":[-1],"loss_changes":[8.928424E-7],"parents":[2147483647],"right_children":[-1],"split_conditions":[5.0946102E-8],"split_indices":[0],"sum_hessian":[1.68E2],"tree_param":{"num_deleted":"0","num_feature":"4","num_nodes":"1","size_leaf_vector":"0"}},{"base_weights":[1.628547E-7],"default_left":[false],"id":92,"leaf_child_counts":[0],"left_children":[-1],"loss_changes":[8.929887E-7],"parents":[2147483647],"right_children":[-1],"split_conditions":[4.8856414E-8],"split_indices":[0],"sum_hessian":[1.68E2],"tree_param":{"num_deleted":"0","num_feature":"4","num_nodes":"1","size_leaf_vector":"0"}},{"base_weights":[1.5588907E-7],"default_left":[false],"id":93,"leaf_child_counts":[0],"left_children":[-1],"loss_changes":[8.9313494E-7],"parents":[2147483647],"right_children":[-1],"split_conditions":[4.6766722E-8],"split_indices":[0],"sum_hessian":[1.68E2],"tree_param":{"num_deleted":"0","num_feature":"4","num_nodes":"1","size_leaf_vector":"0"}},{"base_weights":[1.5103959E-7],"default_left":[false],"id":94,"leaf_child_counts":[0],"left_children":[-1],"loss_changes":[8.932368E-7],"parents":[2147483647],"right_children":[-1],"split_conditions":[4.531188E-8],"split_indices":[0],"sum_hessian":[1.68E2],"tree_param":{"num_deleted":"0","num_feature":"4","num_nodes":"1","size_leaf_vector":"0"}},{"base_weights":[1.4619009E-7],"default_left":[false],"id":95,"leaf_child_counts":[0],"left_children":[-1],"loss_changes":[8.933386E-7],"parents":[2147483647],"right_children":[-1],"split_conditions":[4.385703E-8],"split_indices":[0],"sum_hessian":[1.68E2],"tree_param":{"num_deleted":"0","num_feature":"4","num_nodes":"1","size_leaf_vector":"0"}},{"base_weights":[1.3940081E-7],"default_left":[false],"id":96,"leaf_child_counts":[0],"left_children":[-1],"loss_changes":[8.9348123E-7],"parents":[2147483647],"right_children":[-1],"split_conditions":[4.1820243E-8],"split_indices":[0],"sum_hessian":[1.68E2],"tree_param":{"num_deleted":"0","num_feature":"4","num_nodes":"1","size_leaf_vector":"0"}},{"base_weights":[1.3261152E-7],"default_left":[false],"id":97,"leaf_child_counts":[0],"left_children":[-1],"loss_changes":[8.9362385E-7],"parents":[2147483647],"right_children":[-1],"split_conditions":[3.978346E-8],"split_indices":[0],"sum_hessian":[1.68E2],"tree_param":{"num_deleted":"0","num_feature":"4","num_nodes":"1","size_leaf_vector":"0"}},{"base_weights":[1.2793838E-7],"default_left":[false],"id":98,"leaf_child_counts":[0],"left_children":[-1],"loss_changes":[8.9372196E-7],"parents":[2147483647],"right_children":[-1],"split_conditions":[3.8381515E-8],"split_indices":[0],"sum_hessian":[1.68E2],"tree_param":{"num_deleted":"0","num_feature":"4","num_nodes":"1","size_leaf_vector":"0"}},{"base_weights":[1.2326522E-7],"default_left":[false],"id":99,"leaf_child_counts":[0],"left_children":[-1],"loss_changes":[8.938202E-7],"parents":[2147483647],"right_children":[-1],"split_conditions":[3.6979568E-8],"split_indices":[0],"sum_hessian":[1.68E2],"tree_param":{"num_deleted":"0","num_feature":"4","num_nodes":"1","size_leaf_vector":"0"}}]},"name":"gbtree"},"learner_model_param":{"base_score":"5E-1","num_class":"0","num_feature":"4"},"objective":{"name":"reg:squarederror","reg_loss_param":{"scale_pos_weight":"1"}}},"version":[1,2,1]}