{"learner":{"attributes":{"scikit_learn":"{\"n_estimators\": 100, \"objective\": \"reg:squarederror\", \"max_depth\": null, \"learning_rate\": null, \"verbosity\": null, \"booster\": null, \"tree_method\": null, \"gamma\": null, \"min_child_weight\": null, \"max_delta_step\": null, \"subsample\": null, \"colsample_bytree\": null, \"colsample_bylevel\": null, \"colsample_bynode\": null, \"reg_alpha\": null, \"reg_lambda\": null, \"scale_pos_weight\": null, \"base_score\": null, \"missing\": NaN, \"num_parallel_tree\": null, \"kwargs\": {}, \"random_state\": 42, \"n_jobs\": null, \"monotone_constraints\": null, \"interaction_constraints\": null, \"importance_type\": \"gain\", \"gpu_id\": null, \"validate_parameters\": null, \"n_features_in_\": 4, \"type\": \"XGBRegressor\"}"},"gradient_booster":{"model":{"gbtree_model_param":{"num_trees":"100","size_leaf_vector":"0"},"tree_info":[0,0,0,0,0,0,0,0,0,0,0,0,0,0,0,0,0,0,0,0,0,0,0,0,0,0,0,0,0,0,0,0,0,0,0,0,0,0,0,0,0,0,0,0,0,0,0,0,0,0,0,0,0,0,0,0,0,0,0,0,0,0,0,0,0,0,0,0,0,0,0,0,0,0,0,0,0,0,0,0,0,0,0,0,0,0,0,0,0,0,0,0,0,0,0,0,0,0,0,0],"trees":[{"base_weights":[5.0631954E1,1.0275177E2,4.5765796E0,1.6224492E2,5.248509E1,9.684667E0,3.1002545E0,4.4335377E1,2.012965E2,2.65085E1,7.690235E1,1.5016154E0,4.3824E0,2.11625E0,1.1637895E0,5.018833E0,3.164077E0],"default_left":[true,true,true,true,true,false,true,false,false,false,false,true,true,false,false,false,false],"id":0,"leaf_child_counts":[0,0,0,0,0,0,0,0,0,0,0,0,0,0,0,0,0],"left_children":[1,3,5,7,9,-1,11,-1,-1,-1,-1,13,15,-1,-1,-1,-1],"loss_changes":[3.0678062E5,1.7091594E5,4.9031763E2,1.15398375E5,1.952686E4,0E0,1.061521E2,0E0,0E0,0E0,0E0,2.9357605E0,7.3814697E0,0E0,0E0,0E0,0E0],"parents":[2147483647,0,0,1,1,2,2,3,3,4,4,6,6,11,11,12,12],"right_children":[2,4,6,8,10,-1,12,-1,-1,-1,-1,14,16,-1,-1,-1,-1],"split_conditions":[3.2385297E2,5.2589453E2,1.6692645E-3,8.267719E1,1.1164594E3,2.9054E0,3.1410683E1,1.3300613E1,6.038895E1,7.95255E0,2.3070705E1,2.4808357E1,6.521964E1,6.3487506E-1,3.4913686E-1,1.50565E0,9.4922316E-1],"split_indices":[1,0,2,0,0,0,0,0,0,0,0,0,0,0,0,0,0],"sum_hessian":[1.27E2,5.9E1,6.8E1,2.6E1,3.3E1,1.4E1,5.4E1,7E0,1.9E1,1.7E1,1.6E1,2.5E1,2.9E1,7E0,1.8E1,1.7E1,1.2E1],"tree_param":{"num_deleted":"0","num_feature":"4","num_nodes":"17","size_leaf_vector":"0"}},{"base_weights":[3.631E1,7.367145E1,3.295552E0,1.1630069E2,3.7652008E1,6.97296E0,2.2327034E0,3.269734E1,1.43927E2,1.8997759E1,5.5188747E1,1.0889773E0,3.1495092E0,1.5607343E0,8.3302826E-1,3.5968306E0,2.287871E0],"default_left":[true,true,true,true,true,false,true,false,false,false,false,true,true,false,false,false,false],"id":1,"leaf_child_counts":[0,0,0,0,0,0,0,0,0,0,0,0,0,0,0,0,0],"left_children":[1,3,5,7,9,-1,11,-1,-1,-1,-1,13,15,-1,-1,-1,-1],"loss_changes":[1.5764108E5,8.774991E4,2.5411987E2,5.7654594E4,1.0074117E4,0E0,5.424185E1,0E0,0E0,0E0,0E0,1.8392563E0,3.3338013E0,0E0,0E0,0E0,0E0],"parents":[2147483647,0,0,1,1,2,2,3,3,4,4,6,6,11,11,12,12],"right_children":[2,4,6,8,10,-1,12,-1,-1,-1,-1,14,16,-1,-1,-1,-1],"split_conditions":[3.2385297E2,5.2589453E2,1.6692645E-3,8.267719E1,1.1164594E3,2.0918882E0,3.1410683E1,9.809202E0,4.31781E1,5.699328E0,1.6556625E1,2.4808357E1,6.521964E1,4.682203E-1,2.4990849E-1,1.0790492E0,6.863613E-1],"split_indices":[1,0,2,0,0,0,0,0,0,0,0,0,0,0,0,0,0],"sum_hessian":[1.27E2,5.9E1,6.8E1,2.6E1,3.3E1,1.4E1,5.4E1,7E0,1.9E1,1.7E1,1.6E1,2.5E1,2.9E1,7E0,1.8E1,1.7E1,1.2E1],"tree_param":{"num_deleted":"0","num_feature":"4","num_nodes":"17","size_leaf_vector":"0"}},{"base_weights":[2.6040585E1,5.282407E1,2.3731968E0,8.337298E1,2.7010992E1,5.020531E0,1.6080476E0,2.4114286E1,1.0290781E2,1.3615059E1,3.960604E1,7.8990453E-1,2.2635036E0,1.1510416E0,5.962729E-1,2.5777285E0,1.6543068E0],"default_left":[true,true,true,true,true,false,true,false,false,false,false,true,true,false,false,false,false],"id":2,"leaf_child_counts":[0,0,0,0,0,0,0,0,0,0,0,0,0,0,0,0,0],"left_children":[1,3,5,7,9,-1,11,-1,-1,-1,-1,13,15,-1,-1,-1,-1],"loss_changes":[8.101321E4,4.5061688E4,1.3169351E2,2.8773875E4,5.197324E3,0E0,2.7706161E1,0E0,0E0,0E0,0E0,1.1317825E0,1.4783936E0,0E0,0E0,0E0,0E0],"parents":[2147483647,0,0,1,1,2,2,3,3,4,4,6,6,11,11,12,12],"right_children":[2,4,6,8,10,-1,12,-1,-1,-1,-1,14,16,-1,-1,-1,-1],"split_conditions":[3.2385297E2,5.2589453E2,1.6692645E-3,8.267719E1,1.1164594E3,1.5061594E0,3.1410683E1,7.2342863E0,3.0872343E1,4.084518E0,1.1881813E1,2.4808357E1,6.521964E1,3.453125E-1,1.7888187E-1,7.733186E-1,4.9629205E-1],"split_indices":[1,0,2,0,0,0,0,0,0,0,0,0,0,0,0,0,0],"sum_hessian":[1.27E2,5.9E1,6.8E1,2.6E1,3.3E1,1.4E1,5.4E1,7E0,1.9E1,1.7E1,1.6E1,2.5E1,2.9E1,7E0,1.8E1,1.7E1,1.2E1],"tree_param":{"num_deleted":"0","num_feature":"4","num_nodes":"17","size_leaf_vector":"0"}},{"base_weights":[1.8676634E1,3.7878063E1,1.7090634E0,5.9772438E1,1.9377293E1,3.6147823E0,1.158248E0,1.7784286E1,7.357908E1,9.757459E0,2.8423159E1,5.730945E-1,1.6267728E0,8.488932E-1,4.2680585E-1,1.8473722E0,1.196191E0],"default_left":[true,true,true,true,true,false,true,false,false,false,false,true,true,false,false,false,false],"id":3,"leaf_child_counts":[0,0,0,0,0,0,0,0,0,0,0,0,0,0,0,0,0],"left_children":[1,3,5,7,9,-1,11,-1,-1,-1,-1,13,15,-1,-1,-1,-1],"loss_changes":[4.1637867E4,2.3145547E4,6.824243E1,1.4343758E4,2.681333E3,0E0,1.4146446E1,0E0,0E0,0E0,0E0,6.866894E-1,6.397705E-1,0E0,0E0,0E0,0E0],"parents":[2147483647,0,0,1,1,2,2,3,3,4,4,6,6,11,11,12,12],"right_children":[2,4,6,8,10,-1,12,-1,-1,-1,-1,14,16,-1,-1,-1,-1],"split_conditions":[3.2385297E2,5.2589453E2,1.6692645E-3,8.267719E1,1.1164594E3,1.0844347E0,3.1410683E1,5.335286E0,2.2073725E1,2.9272377E0,8.526948E0,2.4808357E1,6.521964E1,2.5466797E-1,1.2804176E-1,5.542117E-1,3.588573E-1],"split_indices":[1,0,2,0,0,0,0,0,0,0,0,0,0,0,0,0,0],"sum_hessian":[1.27E2,5.9E1,6.8E1,2.6E1,3.3E1,1.4E1,5.4E1,7E0,1.9E1,1.7E1,1.6E1,2.5E1,2.9E1,7E0,1.8E1,1.7E1,1.2E1],"tree_param":{"num_deleted":"0","num_feature":"4","num_nodes":"17","size_leaf_vector":"0"}},{"base_weights":[1.3395857E1,2.7162361E1,1.2308402E0,4.285585E1,1.3900992E1,2.6026435E0,8.343331E-1,1.3115913E1,5.260903E1,6.9928446E0,2.0397797E1,4.1588578E-1,1.1691765E0,6.260588E-1,3.0550316E-1,1.3239499E0,8.64938E-1],"default_left":[true,true,true,true,true,false,true,false,false,false,false,true,true,false,false,false,false],"id":4,"leaf_child_counts":[0,0,0,0,0,0,0,0,0,0,0,0,0,0,0,0,0],"left_children":[1,3,5,7,9,-1,11,-1,-1,-1,-1,13,15,-1,-1,-1,-1],"loss_changes":[2.1402693E4,1.1891293E4,3.5359673E1,7.141578E3,1.3833115E3,0E0,7.220043E0,0E0,0E0,0E0,0E0,4.1192293E-1,2.6750946E-1,0E0,0E0,0E0,0E0],"parents":[2147483647,0,0,1,1,2,2,3,3,4,4,6,6,11,11,12,12],"right_children":[2,4,6,8,10,-1,12,-1,-1,-1,-1,14,16,-1,-1,-1,-1],"split_conditions":[3.2385297E2,5.2589453E2,1.6692645E-3,8.267719E1,1.1164594E3,7.807931E-1,3.1410683E1,3.9347742E0,1.578271E1,2.0978534E0,6.1193395E0,2.4808357E1,6.521964E1,1.8781765E-1,9.165095E-2,3.97185E-1,2.5948143E-1],"split_indices":[1,0,2,0,0,0,0,0,0,0,0,0,0,0,0,0,0],"sum_hessian":[1.27E2,5.9E1,6.8E1,2.6E1,3.3E1,1.4E1,5.4E1,7E0,1.9E1,1.7E1,1.6E1,2.5E1,2.9E1,7E0,1.8E1,1.7E1,1.2E1],"tree_param":{"num_deleted":"0","num_feature":"4","num_nodes":"17","size_leaf_vector":"0"}},{"base_weights":[9.608752E0,1.9479229E1,8.8647115E-1,3.0729368E1,9.972376E0,1.8739032E0,6.010539E-1,9.672985E0,3.7615456E1,5.011539E0,1.4638415E1,3.0186886E-1,8.403124E-1,4.6171844E-1,2.1867593E-1,9.4883084E-1,6.254167E-1],"default_left":[true,true,true,true,true,false,true,false,false,false,false,true,true,false,false,false,false],"id":5,"leaf_child_counts":[0,0,0,0,0,0,0,0,0,0,0,0,0,0,0,0,0],"left_children":[1,3,5,7,9,-1,11,-1,-1,-1,-1,13,15,-1,-1,-1,-1],"loss_changes":[1.1002646E4,6.1107617E3,1.8319965E1,3.551039E3,7.136526E2,0E0,3.6833782E0,0E0,0E0,0E0,0E0,2.4479055E-1,1.0618973E-1,0E0,0E0,0E0,0E0],"parents":[2147483647,0,0,1,1,2,2,3,3,4,4,6,6,11,11,12,12],"right_children":[2,4,6,8,10,-1,12,-1,-1,-1,-1,14,16,-1,-1,-1,-1],"split_conditions":[3.2385297E2,5.2589453E2,1.6692645E-3,8.267719E1,1.1164594E3,5.62171E-1,3.1410683E1,2.9018955E0,1.1284637E1,1.5034617E0,4.391525E0,2.4808357E1,6.521964E1,1.3851553E-1,6.560278E-2,2.8464925E-1,1.8762502E-1],"split_indices":[1,0,2,0,0,0,0,0,0,0,0,0,0,0,0,0,0],"sum_hessian":[1.27E2,5.9E1,6.8E1,2.6E1,3.3E1,1.4E1,5.4E1,7E0,1.9E1,1.7E1,1.6E1,2.5E1,2.9E1,7E0,1.8E1,1.7E1,1.2E1],"tree_param":{"num_deleted":"0","num_feature":"4","num_nodes":"17","size_leaf_vector":"0"}},{"base_weights":[6.892689E0,1.3970152E1,6.3848E-1,2.2035986E1,7.1540446E0,1.3492103E0,4.3303576E-1,7.1338286E0,2.6895048E1,3.5916028E0,1.0505216E1,2.1915892E-1,6.0396117E-1,3.405174E-1,1.5652592E-1,6.7999536E-1,4.5222446E-1],"default_left":[true,true,true,true,true,false,true,false,false,false,false,true,true,false,false,false,false],"id":6,"leaf_child_counts":[0,0,0,0,0,0,0,0,0,0,0,0,0,0,0,0,0],"left_children":[1,3,5,7,9,-1,11,-1,-1,-1,-1,13,15,-1,-1,-1,-1],"loss_changes":[5.656863E3,3.1410088E3,9.4908085E0,1.7632197E3,3.6817322E2,0E0,1.8782711E0,0E0,0E0,0E0,0E0,1.443274E-1,3.8604736E-2,0E0,0E0,0E0,0E0],"parents":[2147483647,0,0,1,1,2,2,3,3,4,4,6,6,11,11,12,12],"right_children":[2,4,6,8,10,-1,12,-1,-1,-1,-1,14,16,-1,-1,-1,-1],"split_conditions":[3.2385297E2,5.2589453E2,1.6692645E-3,8.267719E1,1.1164594E3,4.047631E-1,3.1410683E1,2.1401486E0,8.068515E0,1.0774809E0,3.1515648E0,2.4808357E1,6.521964E1,1.0215522E-1,4.695778E-2,2.0399861E-1,1.3566734E-1],"split_indices":[1,0,2,0,0,0,0,0,0,0,0,0,0,0,0,0,0],"sum_hessian":[1.27E2,5.9E1,6.8E1,2.6E1,3.3E1,1.4E1,5.4E1,7E0,1.9E1,1.7E1,1.6E1,2.5E1,2.9E1,7E0,1.8E1,1.7E1,1.2E1],"tree_param":{"num_deleted":"0","num_feature":"4","num_nodes":"17","size_leaf_vector":"0"}},{"base_weights":[4.9446583E0,1.0019735E1,4.5988587E-1,1.5803289E1,5.1322145E0,9.714312E-1,3.1201196E-1,5.2611976E0,1.9229961E1,2.5739825E0,7.539036E0,1.5914638E-1,4.3409505E-1,2.511316E-1,1.1203965E-1,4.8733008E-1,3.2699308E-1],"default_left":[true,true,true,true,true,false,true,false,false,false,false,true,true,false,false,false,false],"id":7,"leaf_child_counts":[0,0,0,0,0,0,0,0,0,0,0,0,0,0,0,0,0],"left_children":[1,3,5,7,9,-1,11,-1,-1,-1,-1,13,15,-1,-1,-1,-1],"loss_changes":[2.9087449E3,1.6149282E3,4.916353E0,8.741836E2,1.8993976E2,0E0,9.5734215E-1,0E0,0E0,0E0,0E0,8.452451E-2,1.16939545E-2,0E0,0E0,0E0,0E0],"parents":[2147483647,0,0,1,1,2,2,3,3,4,4,6,6,11,11,12,12],"right_children":[2,4,6,8,10,-1,12,-1,-1,-1,-1,14,16,-1,-1,-1,-1],"split_conditions":[3.2385297E2,5.2589453E2,1.6692645E-3,8.267719E1,1.1164594E3,2.9142937E-1,3.1410683E1,1.5783594E0,5.7689886E0,7.721948E-1,2.261711E0,2.4808357E1,6.521964E1,7.533948E-2,3.3611897E-2,1.4619903E-1,9.809793E-2],"split_indices":[1,0,2,0,0,0,0,0,0,0,0,0,0,0,0,0,0],"sum_hessian":[1.27E2,5.9E1,6.8E1,2.6E1,3.3E1,1.4E1,5.4E1,7E0,1.9E1,1.7E1,1.6E1,2.5E1,2.9E1,7E0,1.8E1,1.7E1,1.2E1],"tree_param":{"num_deleted":"0","num_feature":"4","num_nodes":"17","size_leaf_vector":"0"}},{"base_weights":[3.547402E0,7.186838E0,3.3126315E-1,1.1334433E1,3.681783E0,6.9943035E-1,2.2483097E-1,3.880136E0,1.374943E1,1.8446883E0,5.4103665E0,1.1559289E-1,3.120096E-1,1.8520948E-1,8.01968E-2,3.4925303E-1,2.3644105E-1],"default_left":[true,true,true,true,true,false,true,false,false,false,false,true,true,false,false,false,false],"id":8,"leaf_child_counts":[0,0,0,0,0,0,0,0,0,0,0,0,0,0,0,0,0],"left_children":[1,3,5,7,9,-1,11,-1,-1,-1,-1,13,15,-1,-1,-1,-1],"loss_changes":[1.4958506E3,8.30522E2,2.5465002E0,4.3270703E2,9.798898E1,0E0,4.8771143E-1,0E0,0E0,0E0,0E0,4.921484E-2,1.8553734E-3,0E0,0E0,0E0,0E0],"parents":[2147483647,0,0,1,1,2,2,3,3,4,4,6,6,11,11,12,12],"right_children":[2,4,6,8,10,-1,12,-1,-1,-1,-1,14,16,-1,-1,-1,-1],"split_conditions":[3.2385297E2,5.2589453E2,1.6692645E-3,8.267719E1,1.1164594E3,2.098291E-1,3.1410683E1,1.1640408E0,4.1248293E0,5.5340654E-1,1.62311E0,2.4808357E1,6.521964E1,5.5562846E-2,2.405904E-2,1.0477591E-1,7.0932314E-2],"split_indices":[1,0,2,0,0,0,0,0,0,0,0,0,0,0,0,0,0],"sum_hessian":[1.27E2,5.9E1,6.8E1,2.6E1,3.3E1,1.4E1,5.4E1,7E0,1.9E1,1.7E1,1.6E1,2.5E1,2.9E1,7E0,1.8E1,1.7E1,1.2E1],"tree_param":{"num_deleted":"0","num_feature":"4","num_nodes":"17","size_leaf_vector":"0"}},{"base_weights":[2.5451386E0,5.1552095E0,2.3862559E-1,8.129985E0,2.6412647E0,5.0358963E-1,1.6202402E-1,2.8616014E0,9.830839E0,1.3220273E0,3.8827357E0,8.3977416E-2,2.2426361E-1,1.3659209E-1,5.740401E-2],"default_left":[true,true,true,true,true,false,true,false,false,false,false,true,false,false,false],"id":9,"leaf_child_counts":[0,0,0,0,0,0,0,0,0,0,0,0,0,0,0],"left_children":[1,3,5,7,9,-1,11,-1,-1,-1,-1,13,-1,-1,-1],"loss_changes":[7.693507E2,4.272318E2,1.3188758E0,2.1380835E2,5.0551956E1,0E0,2.4833429E-1,0E0,0E0,0E0,0E0,2.8510988E-2,0E0,0E0,0E0],"parents":[2147483647,0,0,1,1,2,2,3,3,4,4,6,6,11,11],"right_children":[2,4,6,8,10,-1,12,-1,-1,-1,-1,14,-1,-1,-1],"split_conditions":[3.2385297E2,5.2589453E2,1.6692645E-3,8.267719E1,1.1164594E3,1.510769E-1,3.1410683E1,8.5848045E-1,2.949252E0,3.966082E-1,1.1648208E0,2.4808357E1,6.7279086E-2,4.0977627E-2,1.7221205E-2],"split_indices":[1,0,2,0,0,0,0,0,0,0,0,0,0,0,0],"sum_hessian":[1.27E2,5.9E1,6.8E1,2.6E1,3.3E1,1.4E1,5.4E1,7E0,1.9E1,1.7E1,1.6E1,2.5E1,2.9E1,7E0,1.8E1],"tree_param":{"num_deleted":"0","num_feature":"4","num_nodes":"15","size_leaf_vector":"0"}},{"base_weights":[1.8257048E0,3.6981342E0,1.7104591E-1,5.8320174E0,1.8948109E0,3.6258417E-1,1.15698285E-1,2.1104293E0,7.029052E0,9.474528E-1,2.7864366E0,1.8675682E-1,7.899428E-2,6.102258E-2,1.0886121E-1,1.0073659E-1,4.1089177E-2],"default_left":[true,true,true,true,true,false,true,false,false,false,false,false,true,true,false,false,false],"id":10,"leaf_child_counts":[0,0,0,0,0,0,0,0,0,0,0,0,0,0,0,0,0],"left_children":[1,3,5,7,9,-1,11,-1,-1,-1,-1,-1,13,15,-1,-1,-1],"loss_changes":[3.9594116E2,2.1983423E2,6.8953156E-1,1.0544714E2,2.6079414E1,0E0,1.286946E-1,0E0,0E0,0E0,0E0,0E0,1.3753876E-2,1.6443335E-2,0E0,0E0,0E0],"parents":[2147483647,0,0,1,1,2,2,3,3,4,4,6,6,12,12,13,13],"right_children":[2,4,6,8,10,-1,12,-1,-1,-1,-1,-1,14,16,-1,-1,-1],"split_conditions":[3.2385297E2,5.2589453E2,1.6692645E-3,8.267719E1,1.1164594E3,1.0877526E-1,1.0385256E3,6.331288E-1,2.1087155E0,2.8423584E-1,8.35931E-1,5.6027047E-2,6.0256798E1,2.4808357E1,3.2658365E-2,3.0220978E-2,1.2326754E-2],"split_indices":[1,0,2,0,0,0,1,0,0,0,0,0,0,0,0,0,0],"sum_hessian":[1.27E2,5.9E1,6.8E1,2.6E1,3.3E1,1.4E1,5.4E1,7E0,1.9E1,1.7E1,1.6E1,1.7E1,3.7E1,2.5E1,1.2E1,7E0,1.8E1],"tree_param":{"num_deleted":"0","num_feature":"4","num_nodes":"17","size_leaf_vector":"0"}},{"base_weights":[1.3100401E0,2.65306E0,1.23210594E-1,4.1839595E0,1.3593147E0,2.610607E-1,8.337492E-2,1.5564404E0,5.025769E0,6.790086E-1,1.9996791E0,1.3384253E-1,5.7275128E-2,4.4352278E-2,7.871505E-2,7.4293226E-2,2.9411234E-2],"default_left":[true,true,true,true,true,false,true,false,false,false,false,false,true,true,false,false,false],"id":11,"leaf_child_counts":[0,0,0,0,0,0,0,0,0,0,0,0,0,0,0,0,0],"left_children":[1,3,5,7,9,-1,11,-1,-1,-1,-1,-1,13,15,-1,-1,-1],"loss_changes":[2.036969E2,1.13148315E2,3.5713744E-1,5.1898193E1,1.345409E1,0E0,6.477979E-2,0E0,0E0,0E0,0E0,0E0,7.037267E-3,9.446017E-3,0E0,0E0,0E0],"parents":[2147483647,0,0,1,1,2,2,3,3,4,4,6,6,12,12,13,13],"right_children":[2,4,6,8,10,-1,12,-1,-1,-1,-1,-1,14,16,-1,-1,-1],"split_conditions":[3.2385297E2,5.2589453E2,1.6692645E-3,8.267719E1,1.1164594E3,7.8318216E-2,1.0385256E3,4.6693212E-1,1.5077308E0,2.0370258E-1,5.9990376E-1,4.015276E-2,6.0256798E1,2.4808357E1,2.3614516E-2,2.2287969E-2,8.823371E-3],"split_indices":[1,0,2,0,0,0,1,0,0,0,0,0,0,0,0,0,0],"sum_hessian":[1.27E2,5.9E1,6.8E1,2.6E1,3.3E1,1.4E1,5.4E1,7E0,1.9E1,1.7E1,1.6E1,1.7E1,3.7E1,2.5E1,1.2E1,7E0,1.8E1],"tree_param":{"num_deleted":"0","num_feature":"4","num_nodes":"17","size_leaf_vector":"0"}},{"base_weights":[9.400853E-1,1.9034442E0,8.875749E-2,3.001904E0,9.751541E-1,1.8796335E-1,6.008757E-2,1.1478772E0,3.5934196E0,4.8662248E-1,1.4350609E0,9.592067E-2,4.1532744E-2,3.2243136E-2,5.6917135E-2,5.4791152E-2,2.1052228E-2],"default_left":[true,true,true,true,true,false,true,false,false,false,false,false,true,true,false,false,false],"id":12,"leaf_child_counts":[0,0,0,0,0,0,0,0,0,0,0,0,0,0,0,0,0],"left_children":[1,3,5,7,9,-1,11,-1,-1,-1,-1,-1,13,15,-1,-1,-1],"loss_changes":[1.0480824E2,5.825403E1,1.849572E-1,2.5485718E1,6.94075E0,0E0,3.2584384E-2,0E0,0E0,0E0,0E0,0E0,3.5955757E-3,5.407177E-3,0E0,0E0,0E0],"parents":[2147483647,0,0,1,1,2,2,3,3,4,4,6,6,12,12,13,13],"right_children":[2,4,6,8,10,-1,12,-1,-1,-1,-1,-1,14,16,-1,-1,-1],"split_conditions":[3.2385297E2,5.2589453E2,1.6692645E-3,8.267719E1,1.1164594E3,5.6389008E-2,1.0385256E3,3.4436318E-1,1.0780259E0,1.4598675E-1,4.3051827E-1,2.87762E-2,6.0256798E1,2.4808357E1,1.7075142E-2,1.6437346E-2,6.3156686E-3],"split_indices":[1,0,2,0,0,0,1,0,0,0,0,0,0,0,0,0,0],"sum_hessian":[1.27E2,5.9E1,6.8E1,2.6E1,3.3E1,1.4E1,5.4E1,7E0,1.9E1,1.7E1,1.6E1,1.7E1,3.7E1,2.5E1,1.2E1,7E0,1.8E1],"tree_param":{"num_deleted":"0","num_feature":"4","num_nodes":"17","size_leaf_vector":"0"}},{"base_weights":[6.7465127E-1,1.365723E0,6.394179E-2,2.1540082E0,6.9956356E-1,1.3533376E-1,4.330867E-2,8.465576E-1,2.5692878E0,3.487463E-1,1.0298663E0,6.874318E-2,3.0121047E-2,2.3445299E-2,4.115554E-2,4.0408522E-2,1.5068926E-2],"default_left":[true,true,true,true,true,false,true,false,false,false,false,false,true,true,false,false,false],"id":13,"leaf_child_counts":[0,0,0,0,0,0,0,0,0,0,0,0,0,0,0,0,0],"left_children":[1,3,5,7,9,-1,11,-1,-1,-1,-1,-1,13,15,-1,-1,-1],"loss_changes":[5.393431E1,3.000055E1,9.5778555E-2,1.24848175E1,3.5806198E0,0E0,1.6377524E-2,0E0,0E0,0E0,0E0,0E0,1.8343069E-3,3.0854344E-3,0E0,0E0,0E0],"parents":[2147483647,0,0,1,1,2,2,3,3,4,4,6,6,12,12,13,13],"right_children":[2,4,6,8,10,-1,12,-1,-1,-1,-1,-1,14,16,-1,-1,-1],"split_conditions":[3.2385297E2,5.2589453E2,1.6692645E-3,8.267719E1,1.1164594E3,4.060013E-2,1.0385256E3,2.539673E-1,7.7078635E-1,1.0462389E-1,3.089599E-1,2.0622954E-2,6.0256798E1,2.4808357E1,1.2346663E-2,1.21225575E-2,4.520678E-3],"split_indices":[1,0,2,0,0,0,1,0,0,0,0,0,0,0,0,0,0],"sum_hessian":[1.27E2,5.9E1,6.8E1,2.6E1,3.3E1,1.4E1,5.4E1,7E0,1.9E1,1.7E1,1.6E1,1.7E1,3.7E1,2.5E1,1.2E1,7E0,1.8E1],"tree_param":{"num_deleted":"0","num_feature":"4","num_nodes":"17","size_leaf_vector":"0"}},{"base_weights":[4.8419833E-1,9.7997963E-1,4.606678E-2,1.5457622E0,5.018588E-1,9.744059E-2,3.1218162E-2,6.2433624E-1,1.8370445E0,2.4993494E-1,7.3908055E-1,4.5008E-2,1.9090287E-2,2.980122E-2,4.9266126E-2,1.0786201E-2,2.9758545E-2],"default_left":[true,true,true,true,true,false,true,false,false,false,false,true,true,false,false,false,false],"id":14,"leaf_child_counts":[0,0,0,0,0,0,0,0,0,0,0,0,0,0,0,0,0],"left_children":[1,3,5,7,9,-1,11,-1,-1,-1,-1,13,15,-1,-1,-1,-1],"loss_changes":[2.7758684E1,1.5454994E1,4.959336E-2,6.0997314E0,1.8471794E0,0E0,8.339062E-3,0E0,0E0,0E0,0E0,1.5062094E-4,2.425313E-3,0E0,0E0,0E0,0E0],"parents":[2147483647,0,0,1,1,2,2,3,3,4,4,6,6,11,11,12,12],"right_children":[2,4,6,8,10,-1,12,-1,-1,-1,-1,14,16,-1,-1,-1,-1],"split_conditions":[3.2385297E2,5.2589453E2,1.6692645E-3,8.267719E1,1.1164594E3,2.923218E-2,1.4850055E3,1.8730088E-1,5.5111337E-1,7.498048E-2,2.2172417E-1,2.9771206E1,6.0256798E1,8.940366E-3,1.4779839E-2,3.2358605E-3,8.927564E-3],"split_indices":[1,0,2,0,0,0,1,0,0,0,0,0,0,0,0,0,0],"sum_hessian":[1.27E2,5.9E1,6.8E1,2.6E1,3.3E1,1.4E1,5.4E1,7E0,1.9E1,1.7E1,1.6E1,2.4E1,3E1,7E0,1.7E1,1.8E1,1.2E1],"tree_param":{"num_deleted":"0","num_feature":"4","num_nodes":"17","size_leaf_vector":"0"}},{"base_weights":[3.4753376E-1,7.0323634E-1,3.3190433E-2,1.1093795E0,3.600275E-1,7.015737E-2,2.2505077E-2,4.604473E-1,1.3134835E0,1.791207E-1,5.303978E-1,3.245424E-2,1.3755587E-2,7.72069E-3,2.1517698E-2],"default_left":[true,true,true,true,true,false,true,false,false,false,false,false,true,false,false],"id":15,"leaf_child_counts":[0,0,0,0,0,0,0,0,0,0,0,0,0,0,0],"left_children":[1,3,5,7,9,-1,11,-1,-1,-1,-1,-1,13,-1,-1],"loss_changes":[1.428869E1,7.9641113E0,2.5676437E-2,2.9713516E0,9.5291376E-1,0E0,4.3413285E-3,0E0,0E0,0E0,0E0,0E0,1.2860182E-3,0E0,0E0],"parents":[2147483647,0,0,1,1,2,2,3,3,4,4,6,6,12,12],"right_children":[2,4,6,8,10,-1,12,-1,-1,-1,-1,-1,14,-1,-1],"split_conditions":[3.2385297E2,5.2589453E2,1.6692645E-3,8.267719E1,1.1164594E3,2.1047212E-2,1.4850055E3,1.381342E-1,3.9404505E-1,5.3736214E-2,1.5911934E-1,9.7362725E-3,6.0256798E1,2.3162072E-3,6.4553097E-3],"split_indices":[1,0,2,0,0,0,1,0,0,0,0,0,0,0,0],"sum_hessian":[1.27E2,5.9E1,6.8E1,2.6E1,3.3E1,1.4E1,5.4E1,7E0,1.9E1,1.7E1,1.6E1,2.4E1,3E1,1.8E1,1.2E1],"tree_param":{"num_deleted":"0","num_feature":"4","num_nodes":"15","size_leaf_vector":"0"}},{"base_weights":[2.4940373E-1,5.046838E-1,2.3806509E-2,7.9627776E-1,2.5828025E-1,5.051295E-2,1.6090088E-2,3.39581E-1,9.391426E-1,1.2837029E-1,3.8063902E-1,8.179743E-3,2.2409383E-2,1.3459057E-2,5.5263606E-3,2.6112027E-2,1.5558848E-2],"default_left":[true,true,true,true,true,false,true,false,false,false,false,true,true,false,false,false,false],"id":16,"leaf_child_counts":[0,0,0,0,0,0,0,0,0,0,0,0,0,0,0,0,0],"left_children":[1,3,5,7,9,-1,11,-1,-1,-1,-1,13,15,-1,-1,-1,-1],"loss_changes":[7.3595657E0,4.105324E0,1.3406631E-2,1.4427242E0,4.9158835E-1,0E0,2.5660265E-3,0E0,0E0,0E0,0E0,2.8982933E-4,3.546793E-4,0E0,0E0,0E0,0E0],"parents":[2147483647,0,0,1,1,2,2,3,3,4,4,6,6,11,11,12,12],"right_children":[2,4,6,8,10,-1,12,-1,-1,-1,-1,14,16,-1,-1,-1,-1],"split_conditions":[3.2385297E2,5.2589453E2,1.6692645E-3,8.267719E1,1.1164594E3,1.5153886E-2,3.1410683E1,1.0187431E-1,2.8174278E-1,3.8511086E-2,1.1419171E-1,2.4808357E1,6.521964E1,4.0377174E-3,1.6579082E-3,7.833608E-3,4.6676546E-3],"split_indices":[1,0,2,0,0,0,0,0,0,0,0,0,0,0,0,0,0],"sum_hessian":[1.27E2,5.9E1,6.8E1,2.6E1,3.3E1,1.4E1,5.4E1,7E0,1.9E1,1.7E1,1.6E1,2.5E1,2.9E1,7E0,1.8E1,1.7E1,1.2E1],"tree_param":{"num_deleted":"0","num_feature":"4","num_nodes":"17","size_leaf_vector":"0"}},{"base_weights":[1.7903408E-1,3.6221927E-1,1.714791E-2,5.716054E-1,1.8528855E-1,3.6369324E-2,1.1593925E-2,2.5044012E-1,6.7149127E-1,9.1998525E-2,2.731669E-1,5.944871E-3,1.6103307E-2,9.92614E-3,3.955659E-3,1.8713739E-2,1.1250148E-2],"default_left":[true,true,true,true,true,false,true,false,false,false,false,true,true,false,false,false,false],"id":17,"leaf_child_counts":[0,0,0,0,0,0,0,0,0,0,0,0,0,0,0,0,0],"left_children":[1,3,5,7,9,-1,11,-1,-1,-1,-1,13,15,-1,-1,-1,-1],"loss_changes":[3.7896476E0,2.116899E0,6.944461E-3,6.979885E-1,2.536068E-1,0E0,1.305324E-3,0E0,0E0,0E0,0E0,1.6664487E-4,1.6953284E-4,0E0,0E0,0E0,0E0],"parents":[2147483647,0,0,1,1,2,2,3,3,4,4,6,6,11,11,12,12],"right_children":[2,4,6,8,10,-1,12,-1,-1,-1,-1,14,16,-1,-1,-1,-1],"split_conditions":[3.2385297E2,5.2589453E2,1.6692645E-3,8.267719E1,1.1164594E3,1.0910798E-2,3.1410683E1,7.513204E-2,2.0144738E-1,2.7599558E-2,8.195007E-2,2.4808357E1,6.521964E1,2.9778422E-3,1.1866977E-3,5.614122E-3,3.3750443E-3],"split_indices":[1,0,2,0,0,0,0,0,0,0,0,0,0,0,0,0,0],"sum_hessian":[1.27E2,5.9E1,6.8E1,2.6E1,3.3E1,1.4E1,5.4E1,7E0,1.9E1,1.7E1,1.6E1,2.5E1,2.9E1,7E0,1.8E1,1.7E1,1.2E1],"tree_param":{"num_deleted":"0","num_feature":"4","num_nodes":"17","size_leaf_vector":"0"}},{"base_weights":[1.2852897E-1,2.599901E-1,1.235221E-2,4.1036817E-1,1.3292542E-1,2.6185734E-2,8.354844E-3,1.8470001E-1,4.8011702E-1,6.593248E-2,1.9603999E-1,4.321561E-3,1.157186E-2,7.3205233E-3,2.8313901E-3,1.3411363E-2,8.134713E-3],"default_left":[true,true,true,true,true,false,true,false,false,false,false,true,true,false,false,false,false],"id":18,"leaf_child_counts":[0,0,0,0,0,0,0,0,0,0,0,0,0,0,0,0,0],"left_children":[1,3,5,7,9,-1,11,-1,-1,-1,-1,13,15,-1,-1,-1,-1],"loss_changes":[1.9516973E0,1.0919161E0,3.5967603E-3,3.3630514E-1,1.308344E-1,0E0,6.6362415E-4,0E0,0E0,0E0,0E0,9.546589E-5,8.0581754E-5,0E0,0E0,0E0,0E0],"parents":[2147483647,0,0,1,1,2,2,3,3,4,4,6,6,11,11,12,12],"right_children":[2,4,6,8,10,-1,12,-1,-1,-1,-1,14,16,-1,-1,-1,-1],"split_conditions":[3.2385297E2,5.2589453E2,1.6692645E-3,8.267719E1,1.1164594E3,7.855721E-3,3.1410683E1,5.5410005E-2,1.4403512E-1,1.9779745E-2,5.8812E-2,2.4808357E1,6.521964E1,2.1961571E-3,8.4941706E-4,4.023409E-3,2.4404142E-3],"split_indices":[1,0,2,0,0,0,0,0,0,0,0,0,0,0,0,0,0],"sum_hessian":[1.27E2,5.9E1,6.8E1,2.6E1,3.3E1,1.4E1,5.4E1,7E0,1.9E1,1.7E1,1.6E1,2.5E1,2.9E1,7E0,1.8E1,1.7E1,1.2E1],"tree_param":{"num_deleted":"0","num_feature":"4","num_nodes":"17","size_leaf_vector":"0"}},{"base_weights":[9.227906E-2,1.8662901E-1,8.898256E-3,2.9465047E-1,9.535818E-2,1.8854015E-2,6.0212635E-3,1.3621855E-1,3.4329072E-1,4.7252126E-2,1.406847E-1,3.1422882E-3,8.315667E-3,5.398959E-3,2.0267274E-3,9.611342E-3,5.881988E-3],"default_left":[true,true,true,true,true,false,true,false,false,false,false,true,true,false,false,false,false],"id":19,"leaf_child_counts":[0,0,0,0,0,0,0,0,0,0,0,0,0,0,0,0,0],"left_children":[1,3,5,7,9,-1,11,-1,-1,-1,-1,13,15,-1,-1,-1,-1],"loss_changes":[1.0053121E0,5.634551E-1,1.8628174E-3,1.61304E-1,6.748864E-2,0E0,3.3717393E-4,0E0,0E0,0E0,0E0,5.451156E-5,3.806362E-5,0E0,0E0,0E0,0E0],"parents":[2147483647,0,0,1,1,2,2,3,3,4,4,6,6,11,11,12,12],"right_children":[2,4,6,8,10,-1,12,-1,-1,-1,-1,14,16,-1,-1,-1,-1],"split_conditions":[3.2385297E2,5.2589453E2,1.6692645E-3,8.267719E1,1.1164594E3,5.6562047E-3,3.1410683E1,4.0865567E-2,1.0298722E-1,1.4175639E-2,4.220541E-2,2.4808357E1,6.521964E1,1.6196878E-3,6.0801825E-4,2.8834026E-3,1.7645964E-3],"split_indices":[1,0,2,0,0,0,0,0,0,0,0,0,0,0,0,0,0],"sum_hessian":[1.27E2,5.9E1,6.8E1,2.6E1,3.3E1,1.4E1,5.4E1,7E0,1.9E1,1.7E1,1.6E1,2.5E1,2.9E1,7E0,1.8E1,1.7E1,1.2E1],"tree_param":{"num_deleted":"0","num_feature":"4","num_nodes":"17","size_leaf_vector":"0"}},{"base_weights":[6.62584E-2,1.3397926E-1,6.410428E-3,2.1158713E-1,6.840891E-2,1.35748545E-2,4.33994E-3,1.00461006E-1,2.4545822E-1,3.3864234E-2,1.0096157E-1,2.2853476E-3,5.975922E-3,3.9818287E-3,1.4507582E-3,6.8881246E-3,4.253186E-3],"default_left":[true,true,true,true,true,false,true,false,false,false,false,true,true,false,false,false,false],"id":20,"leaf_child_counts":[0,0,0,0,0,0,0,0,0,0,0,0,0,0,0,0,0],"left_children":[1,3,5,7,9,-1,11,-1,-1,-1,-1,13,15,-1,-1,-1,-1],"loss_changes":[5.1791954E-1,2.9085207E-1,9.64622E-4,7.6967955E-2,3.4814745E-2,0E0,1.7121306E-4,0E0,0E0,0E0,0E0,3.1035815E-5,1.7848099E-5,0E0,0E0,0E0,0E0],"parents":[2147483647,0,0,1,1,2,2,3,3,4,4,6,6,11,11,12,12],"right_children":[2,4,6,8,10,-1,12,-1,-1,-1,-1,14,16,-1,-1,-1,-1],"split_conditions":[3.2385297E2,5.2589453E2,1.6692645E-3,8.267719E1,1.1164594E3,4.0724566E-3,3.1410683E1,3.0138303E-2,7.363747E-2,1.0159271E-2,3.0288473E-2,2.4808357E1,6.521964E1,1.1945487E-3,4.3522747E-4,2.0664374E-3,1.2759558E-3],"split_indices":[1,0,2,0,0,0,0,0,0,0,0,0,0,0,0,0,0],"sum_hessian":[1.27E2,5.9E1,6.8E1,2.6E1,3.3E1,1.4E1,5.4E1,7E0,1.9E1,1.7E1,1.6E1,2.5E1,2.9E1,7E0,1.8E1,1.7E1,1.2E1],"tree_param":{"num_deleted":"0","num_feature":"4","num_nodes":"17","size_leaf_vector":"0"}},{"base_weights":[4.7577996E-2,9.6188575E-2,4.618387E-3,1.5195282E-1,4.9076136E-2,9.774145E-3,3.1283011E-3,7.408762E-2,1.7550126E-1,2.4270058E-2,7.2454564E-2,1.6624423E-3,4.294435E-3,2.9366612E-3,1.0384321E-3,4.9363244E-3,3.0753245E-3],"default_left":[true,true,true,true,true,false,true,false,false,false,false,true,true,false,false,false,false],"id":21,"leaf_child_counts":[0,0,0,0,0,0,0,0,0,0,0,0,0,0,0,0,0],"left_children":[1,3,5,7,9,-1,11,-1,-1,-1,-1,13,15,-1,-1,-1,-1],"loss_changes":[2.668571E-1,1.5017414E-1,4.9951766E-4,3.6504805E-2,1.7959043E-2,0E0,8.6877146E-5,0E0,0E0,0E0,0E0,1.7623737E-5,8.295174E-6,0E0,0E0,0E0,0E0],"parents":[2147483647,0,0,1,1,2,2,3,3,4,4,6,6,11,11,12,12],"right_children":[2,4,6,8,10,-1,12,-1,-1,-1,-1,14,16,-1,-1,-1,-1],"split_conditions":[3.2385297E2,5.2589453E2,1.6692645E-3,8.267719E1,1.1164594E3,2.9322435E-3,3.1410683E1,2.2226287E-2,5.265038E-2,7.2810175E-3,2.173637E-2,2.4808357E1,6.521964E1,8.809984E-4,3.1152964E-4,1.4808974E-3,9.2259736E-4],"split_indices":[1,0,2,0,0,0,0,0,0,0,0,0,0,0,0,0,0],"sum_hessian":[1.27E2,5.9E1,6.8E1,2.6E1,3.3E1,1.4E1,5.4E1,7E0,1.9E1,1.7E1,1.6E1,2.5E1,2.9E1,7E0,1.8E1,1.7E1,1.2E1],"tree_param":{"num_deleted":"0","num_feature":"4","num_nodes":"17","size_leaf_vector":"0"}},{"base_weights":[3.4168556E-2,6.906643E-2,3.3273818E-3,1.0914598E-1,3.5207186E-2,7.037099E-3,2.255143E-3,5.4641247E-2,1.2549058E-1,1.7394172E-2,5.1997017E-2,1.2096121E-3,3.086098E-3,2.1658242E-3,7.4333267E-4,3.537549E-3,2.22362E-3],"default_left":[true,true,true,true,true,false,true,false,false,false,false,true,true,false,false,false,false],"id":22,"leaf_child_counts":[0,0,0,0,0,0,0,0,0,0,0,0,0,0,0,0,0],"left_children":[1,3,5,7,9,-1,11,-1,-1,-1,-1,13,15,-1,-1,-1,-1],"loss_changes":[1.3753548E-1,7.758108E-2,2.585919E-4,1.7196208E-2,9.264186E-3,0E0,4.4050452E-5,0E0,0E0,0E0,0E0,9.9824865E-6,3.8148137E-6,0E0,0E0,0E0,0E0],"parents":[2147483647,0,0,1,1,2,2,3,3,4,4,6,6,11,11,12,12],"right_children":[2,4,6,8,10,-1,12,-1,-1,-1,-1,14,16,-1,-1,-1,-1],"split_conditions":[3.2385297E2,5.2589453E2,1.6692645E-3,8.267719E1,1.1164594E3,2.1111297E-3,3.1410683E1,1.6392374E-2,3.7647173E-2,5.2182516E-3,1.55991055E-2,2.4808357E1,6.521964E1,6.4974726E-4,2.229998E-4,1.0612648E-3,6.67086E-4],"split_indices":[1,0,2,0,0,0,0,0,0,0,0,0,0,0,0,0,0],"sum_hessian":[1.27E2,5.9E1,6.8E1,2.6E1,3.3E1,1.4E1,5.4E1,7E0,1.9E1,1.7E1,1.6E1,2.5E1,2.9E1,7E0,1.8E1,1.7E1,1.2E1],"tree_param":{"num_deleted":"0","num_feature":"4","num_nodes":"17","size_leaf_vector":"0"}},{"base_weights":[2.4539802E-2,4.9594626E-2,2.3973489E-3,7.840672E-2,2.5255764E-2,5.0664265E-3,1.6258304E-3,4.0299416E-2,8.972931E-2,1.2465583E-2,3.7312675E-2,8.8028266E-4,2.2177775E-3,1.5973449E-3,5.3203106E-4,2.5350782E-3,1.6078398E-3],"default_left":[true,true,true,true,true,false,true,false,false,false,false,true,true,false,false,false,false],"id":23,"leaf_child_counts":[0,0,0,0,0,0,0,0,0,0,0,0,0,0,0,0,0],"left_children":[1,3,5,7,9,-1,11,-1,-1,-1,-1,13,15,-1,-1,-1,-1],"loss_changes":[7.089234E-2,4.0095E-2,1.3385055E-4,8.033738E-3,4.778018E-3,0E0,2.2320586E-5,0E0,0E0,0E0,0E0,5.6428344E-6,1.730019E-6,0E0,0E0,0E0,0E0],"parents":[2147483647,0,0,1,1,2,2,3,3,4,4,6,6,11,11,12,12],"right_children":[2,4,6,8,10,-1,12,-1,-1,-1,-1,14,16,-1,-1,-1,-1],"split_conditions":[3.2385297E2,5.2589453E2,1.6692645E-3,8.267719E1,1.1164594E3,1.519928E-3,3.1410683E1,1.2089825E-2,2.6918793E-2,3.739675E-3,1.1193803E-2,2.4808357E1,6.521964E1,4.7920347E-4,1.5960932E-4,7.605235E-4,4.8235196E-4],"split_indices":[1,0,2,0,0,0,0,0,0,0,0,0,0,0,0,0,0],"sum_hessian":[1.27E2,5.9E1,6.8E1,2.6E1,3.3E1,1.4E1,5.4E1,7E0,1.9E1,1.7E1,1.6E1,2.5E1,2.9E1,7E0,1.8E1,1.7E1,1.2E1],"tree_param":{"num_deleted":"0","num_feature":"4","num_nodes":"17","size_leaf_vector":"0"}},{"base_weights":[1.7626263E-2,3.5616208E-2,1.7273823E-3,5.633107E-2,1.8118635E-2,3.6476136E-3,1.172276E-3,2.9720783E-2,6.415863E-2,8.933067E-3,2.6778726E-2,1.6850281E-3,7.209509E-4,3.8081093E-4,1.1626207E-3],"default_left":[true,true,true,true,true,false,true,false,false,false,false,false,true,false,false],"id":24,"leaf_child_counts":[0,0,0,0,0,0,0,0,0,0,0,0,0,0,0],"left_children":[1,3,5,7,9,-1,11,-1,-1,-1,-1,-1,13,-1,-1],"loss_changes":[3.654904E-2,2.0726942E-2,6.927333E-5,3.7170872E-3,2.465411E-3,0E0,1.15131625E-5,0E0,0E0,0E0,0E0,0E0,4.2143747E-6,0E0,0E0],"parents":[2147483647,0,0,1,1,2,2,3,3,4,4,6,6,12,12],"right_children":[2,4,6,8,10,-1,12,-1,-1,-1,-1,-1,14,-1,-1],"split_conditions":[3.2385297E2,5.2589453E2,1.6692645E-3,8.267719E1,1.1164594E3,1.0942841E-3,1.4850055E3,8.9162355E-3,1.9247591E-2,2.6799203E-3,8.033618E-3,5.0550845E-4,6.0256798E1,1.1424328E-4,3.4878624E-4],"split_indices":[1,0,2,0,0,0,1,0,0,0,0,0,0,0,0],"sum_hessian":[1.27E2,5.9E1,6.8E1,2.6E1,3.3E1,1.4E1,5.4E1,7E0,1.9E1,1.7E1,1.6E1,2.4E1,3E1,1.8E1,1.2E1],"tree_param":{"num_deleted":"0","num_feature":"4","num_nodes":"15","size_leaf_vector":"0"}},{"base_weights":[1.2659227E-2,2.5581297E-2,1.2391771E-3,4.0479306E-2,1.2998132E-2,2.6266733E-3,8.382386E-4,2.191925E-2,4.5879364E-2,6.402122E-3,1.9217547E-2,4.2560927E-4,1.1679094E-3,7.3575974E-4,2.726191E-4],"default_left":[true,true,true,true,true,false,true,false,false,false,false,true,false,false,false],"id":25,"leaf_child_counts":[0,0,0,0,0,0,0,0,0,0,0,0,0,0,0],"left_children":[1,3,5,7,9,-1,11,-1,-1,-1,-1,13,-1,-1,-1],"loss_changes":[1.8857349E-2,1.0721691E-2,3.618298E-5,1.7004423E-3,1.2717606E-3,0E0,6.9846756E-6,0E0,0E0,0E0,0E0,1.0331173E-6,5.575639E-7,0E0,0E0],"parents":[2147483647,0,0,1,1,2,2,3,3,4,4,6,6,11,11],"right_children":[2,4,6,8,10,-1,12,-1,-1,-1,-1,14,-1,-1,-1],"split_conditions":[3.2385297E2,5.2589453E2,1.6692645E-3,8.267719E1,1.1164594E3,7.8800204E-4,3.1410683E1,6.5757753E-3,1.376381E-2,1.9206366E-3,5.7652644E-3,2.4808357E1,3.503728E-4,2.2072793E-4,8.1785736E-5],"split_indices":[1,0,2,0,0,0,0,0,0,0,0,0,0,0,0],"sum_hessian":[1.27E2,5.9E1,6.8E1,2.6E1,3.3E1,1.4E1,5.4E1,7E0,1.9E1,1.7E1,1.6E1,2.5E1,2.9E1,7E0,1.8E1],"tree_param":{"num_deleted":"0","num_feature":"4","num_nodes":"15","size_leaf_vector":"0"}},{"base_weights":[9.09136E-3,1.8373331E-2,8.883217E-4,2.9088903E-2,9.323513E-3,1.4538467E-3,3.8871326E-4,1.616478E-2,3.280411E-2,4.588127E-3,1.3789008E-2,1.0084047E-3,1.8914541E-3],"default_left":[true,true,true,true,true,true,false,false,false,false,false,false,false],"id":26,"leaf_child_counts":[0,0,0,0,0,0,0,0,0,0,0,0,0],"left_children":[1,3,5,7,9,11,-1,-1,-1,-1,-1,-1,-1],"loss_changes":[9.729643E-3,5.547229E-3,1.89302E-5,7.661544E-4,6.5569323E-4,4.330366E-6,2.2620225E-7,0E0,0E0,0E0,0E0,0E0,0E0],"parents":[2147483647,0,0,1,1,2,2,3,3,4,4,5,5],"right_children":[2,4,6,8,10,12,-1,-1,-1,-1,-1,-1,-1],"split_conditions":[3.2385297E2,5.2589453E2,1.248988E3,8.267719E1,1.1164594E3,4.6789406E1,1.16613985E-4,4.849434E-3,9.8412335E-3,1.3764382E-3,4.1367025E-3,3.025214E-4,5.674363E-4],"split_indices":[1,0,1,0,0,0,0,0,0,0,0,0,0],"sum_hessian":[1.27E2,5.9E1,6.8E1,2.6E1,3.3E1,3.1E1,3.7E1,7E0,1.9E1,1.7E1,1.6E1,1.7E1,1.4E1],"tree_param":{"num_deleted":"0","num_feature":"4","num_nodes":"13","size_leaf_vector":"0"}},{"base_weights":[6.5296544E-3,1.3198312E-2,6.361889E-4,2.0906378E-2,6.689016E-3,1.3618469E-3,4.2671507E-4,1.1923313E-2,2.3454284E-2,3.2875272E-3,9.89712E-3,6.61459E-4,2.2364047E-4],"default_left":[true,true,true,true,true,false,true,false,false,false,false,false,false],"id":27,"leaf_child_counts":[0,0,0,0,0,0,0,0,0,0,0,0,0],"left_children":[1,3,5,7,9,-1,11,-1,-1,-1,-1,-1,-1],"loss_changes":[5.0221956E-3,2.8706016E-3,9.907317E-6,3.3832435E-4,3.384822E-4,0E0,2.4739493E-6,0E0,0E0,0E0,0E0,2.0732841E-8,7.659197E-7],"parents":[2147483647,0,0,1,1,2,2,3,3,4,4,6,6],"right_children":[2,4,6,8,10,-1,12,-1,-1,-1,-1,-1,-1],"split_conditions":[3.2385297E2,5.2589453E2,1.6692645E-3,8.267719E1,1.1164594E3,4.085541E-4,1.4850055E3,3.5769942E-3,7.0362855E-3,9.862583E-4,2.9691362E-3,1.984377E-4,6.709214E-5],"split_indices":[1,0,2,0,0,0,1,0,0,0,0,0,0],"sum_hessian":[1.27E2,5.9E1,6.8E1,2.6E1,3.3E1,1.4E1,5.4E1,7E0,1.9E1,1.7E1,1.6E1,2.4E1,3E1],"tree_param":{"num_deleted":"0","num_feature":"4","num_nodes":"13","size_leaf_vector":"0"}},{"base_weights":[4.6903165E-3,9.482511E-3,4.5521537E-4,1.5028636E-2,4.799338E-3,7.610321E-4,1.8570611E-4,8.7924E-3,1.6771698E-2,2.3562114E-3,7.103864E-3,5.355411E-4,9.808858E-4],"default_left":[true,true,true,true,true,true,false,false,false,false,false,false,false],"id":28,"leaf_child_counts":[0,0,0,0,0,0,0,0,0,0,0,0,0],"left_children":[1,3,5,7,9,11,-1,-1,-1,-1,-1,-1,-1],"loss_changes":[2.5934982E-3,1.48628E-3,5.5456812E-6,1.4603045E-4,1.7469027E-4,1.0610966E-6,5.0844267E-7,0E0,0E0,0E0,0E0,0E0,0E0],"parents":[2147483647,0,0,1,1,2,2,3,3,4,4,5,5],"right_children":[2,4,6,8,10,12,-1,-1,-1,-1,-1,-1,-1],"split_conditions":[3.2385297E2,5.2589453E2,1.248988E3,8.267719E1,1.1164594E3,4.6789406E1,5.5711836E-5,2.6377202E-3,5.03151E-3,7.068635E-4,2.1311594E-3,1.6066234E-4,2.9426574E-4],"split_indices":[1,0,1,0,0,0,0,0,0,0,0,0,0],"sum_hessian":[1.27E2,5.9E1,6.8E1,2.6E1,3.3E1,3.1E1,3.7E1,7E0,1.9E1,1.7E1,1.6E1,1.7E1,1.4E1],"tree_param":{"num_deleted":"0","num_feature":"4","num_nodes":"13","size_leaf_vector":"0"}},{"base_weights":[3.368917E-3,6.812191E-3,3.2594067E-4,1.0801528E-2,3.4438302E-3,4.4020322E-5,4.851222E-4,6.4849854E-3,1.1988068E-2,1.6878976E-3,5.1004747E-3],"default_left":[true,true,true,true,true,false,false,false,false,false,false],"id":29,"leaf_child_counts":[0,0,0,0,0,0,0,0,0,0,0],"left_children":[1,3,5,7,9,-1,-1,-1,-1,-1,-1],"loss_changes":[1.3389381E-3,7.690529E-4,3.0751244E-6,6.0544815E-5,9.029542E-5,3.4945376E-7,9.757578E-7,0E0,0E0,0E0,0E0],"parents":[2147483647,0,0,1,1,2,2,3,3,4,4],"right_children":[2,4,6,8,10,-1,-1,-1,-1,-1,-1],"split_conditions":[3.2385297E2,5.2589453E2,3.1410683E1,8.267719E1,1.1164594E3,1.3206097E-5,1.4553667E-4,1.9454957E-3,3.5964206E-3,5.063693E-4,1.5301425E-3],"split_indices":[1,0,0,0,0,0,0,0,0,0,0],"sum_hessian":[1.27E2,5.9E1,6.8E1,2.6E1,3.3E1,2.5E1,4.3E1,7E0,1.9E1,1.7E1,1.6E1],"tree_param":{"num_deleted":"0","num_feature":"4","num_nodes":"11","size_leaf_vector":"0"}},{"base_weights":[2.4178056E-3,4.892985E-3,2.30435E-4,7.7636153E-3,2.4694556E-3,5.6966144E-4,1.3372899E-4,4.784584E-3,8.567047E-3,1.2105306E-3,3.6571727E-3],"default_left":[true,true,true,true,true,false,false,false,false,false,false],"id":30,"leaf_child_counts":[0,0,0,0,0,0,0,0,0,0,0],"left_children":[1,3,5,7,9,-1,-1,-1,-1,-1,-1],"loss_changes":[6.918817E-4,3.9825158E-4,2.1873811E-6,2.3633358E-5,4.6411267E-5,0E0,5.5124247E-7,0E0,0E0,0E0,0E0],"parents":[2147483647,0,0,1,1,2,2,3,3,4,4],"right_children":[2,4,6,8,10,-1,-1,-1,-1,-1,-1],"split_conditions":[3.2385297E2,5.2589453E2,1.6692645E-3,8.267719E1,1.1164594E3,1.7089843E-4,4.01187E-5,1.4353753E-3,2.5701143E-3,3.631592E-4,1.0971519E-3],"split_indices":[1,0,2,0,0,0,0,0,0,0,0],"sum_hessian":[1.27E2,5.9E1,6.8E1,2.6E1,3.3E1,1.4E1,5.4E1,7E0,1.9E1,1.7E1,1.6E1],"tree_param":{"num_deleted":"0","num_feature":"4","num_nodes":"11","size_leaf_vector":"0"}},{"base_weights":[1.7378042E-3,3.5182317E-3,1.6442071E-4,5.587825E-3,1.7712537E-3,2.8930567E-4,2.0034852E-6,3.5295486E-3,6.1317445E-3,8.682675E-4,2.6231653E-3],"default_left":[true,true,true,true,true,false,false,false,false,false,false],"id":31,"leaf_child_counts":[0,0,0,0,0,0,0,0,0,0,0],"left_children":[1,3,5,7,9,-1,-1,-1,-1,-1,-1],"loss_changes":[3.5798733E-4,2.0703458E-4,1.3989795E-6,8.5852225E-6,2.3877386E-5,3.1321724E-7,3.3128896E-7,0E0,0E0,0E0,0E0],"parents":[2147483647,0,0,1,1,2,2,3,3,4,4],"right_children":[2,4,6,8,10,-1,-1,-1,-1,-1,-1],"split_conditions":[3.2385297E2,5.2589453E2,1.4850055E3,8.267719E1,1.1164594E3,8.6791704E-5,6.010456E-7,1.0588646E-3,1.8395234E-3,2.6048027E-4,7.869496E-4],"split_indices":[1,0,1,0,0,0,0,0,0,0,0],"sum_hessian":[1.27E2,5.9E1,6.8E1,2.6E1,3.3E1,3.8E1,3E1,7E0,1.9E1,1.7E1,1.6E1],"tree_param":{"num_deleted":"0","num_feature":"4","num_nodes":"11","size_leaf_vector":"0"}},{"base_weights":[1.2467792E-3,2.525997E-3,1.1634654E-4,4.0130615E-3,1.2707991E-3,2.5997162E-3,4.3777465E-3,6.214778E-4,1.8835629E-3],"default_left":[true,true,false,true,true,false,false,false,false],"id":32,"leaf_child_counts":[0,0,0,0,0,0,0,0,0],"left_children":[1,3,-1,5,7,-1,-1,-1,-1],"loss_changes":[1.8480305E-4,1.0689383E-4,8.662721E-7,2.535613E-6,1.2357348E-5,0E0,0E0,0E0,0E0],"parents":[2147483647,0,0,1,1,3,3,4,4],"right_children":[2,4,-1,6,8,-1,-1,-1,-1],"split_conditions":[3.2385297E2,5.2589453E2,3.4903966E-5,8.267719E1,1.1164594E3,7.799149E-4,1.313324E-3,1.8644334E-4,5.650689E-4],"split_indices":[1,0,0,0,0,0,0,0,0],"sum_hessian":[1.27E2,5.9E1,6.8E1,2.6E1,3.3E1,7E0,1.9E1,1.7E1,1.6E1],"tree_param":{"num_deleted":"0","num_feature":"4","num_nodes":"9","size_leaf_vector":"0"}},{"base_weights":[8.954713E-4,1.8161456E-3,8.190715E-5,2.8878672E-3,9.1165653E-4,4.4494204E-4,1.352198E-3],"default_left":[true,true,false,false,true,false,false],"id":33,"leaf_child_counts":[0,0,0,0,0,0,0],"left_children":[1,3,-1,-1,5,-1,-1],"loss_changes":[9.572679E-5,5.552887E-5,8.813313E-7,3.563473E-7,6.3889893E-6,0E0,0E0],"parents":[2147483647,0,0,1,1,4,4],"right_children":[2,4,-1,-1,6,-1,-1],"split_conditions":[3.2385297E2,5.2589453E2,2.4572146E-5,8.663602E-4,1.1164594E3,1.3348262E-4,4.056594E-4],"split_indices":[1,0,0,0,0,0,0],"sum_hessian":[1.27E2,5.9E1,6.8E1,2.6E1,3.3E1,1.7E1,1.6E1],"tree_param":{"num_deleted":"0","num_feature":"4","num_nodes":"7","size_leaf_vector":"0"}},{"base_weights":[6.3769054E-4,1.2941678E-3,5.759882E-5,2.0516007E-3,6.5461325E-4,1.1620522E-3,2.3048401E-3,3.1884512E-4,9.7162585E-4],"default_left":[true,true,false,true,true,false,false,false,false],"id":34,"leaf_child_counts":[0,0,0,0,0,0,0,0,0],"left_children":[1,3,-1,5,7,-1,-1,-1,-1],"loss_changes":[4.867004E-5,2.772217E-5,8.9142725E-7,3.4039113E-6,3.3092547E-6,0E0,0E0,0E0,0E0],"parents":[2147483647,0,0,1,1,3,3,4,4],"right_children":[2,4,-1,6,8,-1,-1,-1,-1],"split_conditions":[3.2385297E2,5.2589453E2,1.7279646E-5,8.267719E1,1.1164594E3,3.4861566E-4,6.9145206E-4,9.5653544E-5,2.9148776E-4],"split_indices":[1,0,0,0,0,0,0,0,0],"sum_hessian":[1.27E2,5.9E1,6.8E1,2.6E1,3.3E1,7E0,1.9E1,1.7E1,1.6E1],"tree_param":{"num_deleted":"0","num_feature":"4","num_nodes":"9","size_leaf_vector":"0"}},{"base_weights":[4.5880023E-4,9.320259E-4,4.0650368E-5,1.4786897E-3,4.7049802E-4,8.5926056E-4,1.6525269E-3,2.2877587E-4,6.987628E-4],"default_left":[true,true,false,true,true,false,false,false,false],"id":35,"leaf_child_counts":[0,0,0,0,0,0,0,0,0],"left_children":[1,3,-1,5,7,-1,-1,-1,-1],"loss_changes":[2.5290654E-5,1.4442314E-5,8.9873635E-7,1.4874022E-6,1.7161456E-6,0E0,0E0,0E0,0E0],"parents":[2147483647,0,0,1,1,3,3,4,4],"right_children":[2,4,-1,6,8,-1,-1,-1,-1],"split_conditions":[3.2385297E2,5.2589453E2,1.2195111E-5,8.267719E1,1.1164594E3,2.5777819E-4,4.957581E-4,6.863276E-5,2.0962884E-4],"split_indices":[1,0,0,0,0,0,0,0,0],"sum_hessian":[1.27E2,5.9E1,6.8E1,2.6E1,3.3E1,7E0,1.9E1,1.7E1,1.6E1],"tree_param":{"num_deleted":"0","num_feature":"4","num_nodes":"9","size_leaf_vector":"0"}},{"base_weights":[3.3074897E-4,6.7275367E-4,2.8560127E-5,1.0678327E-3,3.3922755E-4],"default_left":[true,true,false,false,false],"id":36,"leaf_child_counts":[0,0,0,0,0],"left_children":[1,3,-1,-1,-1],"loss_changes":[1.3209586E-5,7.543913E-6,9.024347E-7,6.693226E-7,9.0460435E-7],"parents":[2147483647,0,0,1,1],"right_children":[2,4,-1,-1,-1],"split_conditions":[3.2385297E2,5.2589453E2,8.5680385E-6,3.2034982E-4,1.0176827E-4],"split_indices":[1,0,0,0,0],"sum_hessian":[1.27E2,5.9E1,6.8E1,2.6E1,3.3E1],"tree_param":{"num_deleted":"0","num_feature":"4","num_nodes":"5","size_leaf_vector":"0"}},{"base_weights":[2.3527723E-4,4.788081E-4,2.010145E-5,7.59266E-4,2.4200889E-4,3.5190582E-4,8.8424684E-4],"default_left":[true,true,false,true,false,false,false],"id":37,"leaf_child_counts":[0,0,0,0,0,0,0],"left_children":[1,3,-1,5,-1,-1,-1],"loss_changes":[6.697823E-6,3.800984E-6,9.05558E-7,1.0634576E-6,9.722087E-7,0E0,0E0],"parents":[2147483647,0,0,1,1,3,3],"right_children":[2,4,-1,6,-1,-1,-1],"split_conditions":[3.2385297E2,5.2589453E2,6.030435E-6,8.267719E1,7.260267E-5,1.0557175E-4,2.6527405E-4],"split_indices":[1,0,0,0,0,0,0],"sum_hessian":[1.27E2,5.9E1,6.8E1,2.6E1,3.3E1,7E0,1.9E1],"tree_param":{"num_deleted":"0","num_feature":"4","num_nodes":"7","size_leaf_vector":"0"}},{"base_weights":[1.6858336E-4,-6.703166E-5,2.844306E-4,4.4655218E-4,1.3374764E-4,2.523769E-4,6.378174E-4,1.2564659E-5,3.3973245E-4],"default_left":[true,false,true,true,true,false,false,false,false],"id":38,"leaf_child_counts":[0,0,0,0,0,0,0,0,0],"left_children":[1,-1,3,5,7,-1,-1,-1,-1],"loss_changes":[3.5128705E-6,4.4108998E-7,2.0411649E-6,1.3617282E-6,1.1439768E-6,0E0,0E0,6.193387E-9,0E0],"parents":[2147483647,0,0,2,2,3,3,4,4],"right_children":[2,-1,4,6,8,-1,-1,-1,-1],"split_conditions":[4.6789406E1,-2.0109499E-5,9.185567E1,8.267719E1,1.1164594E3,7.571307E-5,1.9134521E-4,3.7693978E-6,1.0191974E-4],"split_indices":[0,0,0,0,0,0,0,0,0],"sum_hessian":[1.27E2,4.2E1,8.5E1,4E1,4.5E1,2.1E1,1.9E1,2.9E1,1.6E1],"tree_param":{"num_deleted":"0","num_feature":"4","num_nodes":"9","size_leaf_vector":"0"}},{"base_weights":[1.2005214E-4,1.9700186E-4,-6.738148E-5],"default_left":[true,false,false],"id":39,"leaf_child_counts":[0,0,0],"left_children":[1,-1,-1],"loss_changes":[1.8594139E-6,4.484466E-7,1.5750976E-7],"parents":[2147483647,0,0],"right_children":[2,-1,-1],"split_conditions":[1.248988E3,5.9100563E-5,-2.0214444E-5],"split_indices":[1,0,0],"sum_hessian":[1.27E2,9E1,3.7E1],"tree_param":{"num_deleted":"0","num_feature":"4","num_nodes":"3","size_leaf_vector":"0"}},{"base_weights":[8.385908E-5,-5.9014143E-5,1.5432059E-4],"default_left":[true,false,false],"id":40,"leaf_child_counts":[0,0,0],"left_children":[1,-1,-1],"loss_changes":[1.2976911E-6,2.3803231E-7,8.297277E-7],"parents":[2147483647,0,0],"right_children":[2,-1,-1],"split_conditions":[4.6789406E1,-1.7704244E-5,4.629618E-5],"split_indices":[0,0,0],"sum_hessian":[1.27E2,4.2E1,8.5E1],"tree_param":{"num_deleted":"0","num_feature":"4","num_nodes":"3","size_leaf_vector":"0"}},{"base_weights":[5.9113838E-5],"default_left":[false],"id":41,"leaf_child_counts":[0],"left_children":[-1],"loss_changes":[9.289381E-7],"parents":[2147483647],"right_children":[-1],"split_conditions":[1.7734152E-5],"split_indices":[0],"sum_hessian":[1.27E2],"tree_param":{"num_deleted":"0","num_feature":"4","num_nodes":"1","size_leaf_vector":"0"}},{"base_weights":[4.2240135E-5],"default_left":[false],"id":42,"leaf_child_counts":[0],"left_children":[-1],"loss_changes":[9.313718E-7],"parents":[2147483647],"right_children":[-1],"split_conditions":[1.26720415E-5],"split_indices":[0],"sum_hessian":[1.27E2],"tree_param":{"num_deleted":"0","num_feature":"4","num_nodes":"1","size_leaf_vector":"0"}},{"base_weights":[2.8886832E-5],"default_left":[false],"id":43,"leaf_child_counts":[0],"left_children":[-1],"loss_changes":[9.316027E-7],"parents":[2147483647],"right_children":[-1],"split_conditions":[8.66605E-6],"split_indices":[0],"sum_hessian":[1.27E2],"tree_param":{"num_deleted":"0","num_feature":"4","num_nodes":"1","size_leaf_vector":"0"}},{"base_weights":[1.9407831E-5],"default_left":[false],"id":44,"leaf_child_counts":[0],"left_children":[-1],"loss_changes":[9.103504E-7],"parents":[2147483647],"right_children":[-1],"split_conditions":[5.8223495E-6],"split_indices":[0],"sum_hessian":[1.27E2],"tree_param":{"num_deleted":"0","num_feature":"4","num_nodes":"1","size_leaf_vector":"0"}},{"base_weights":[1.4220364E-5],"default_left":[false],"id":45,"leaf_child_counts":[0],"left_children":[-1],"loss_changes":[9.335546E-7],"parents":[2147483647],"right_children":[-1],"split_conditions":[4.2661095E-6],"split_indices":[0],"sum_hessian":[1.27E2],"tree_param":{"num_deleted":"0","num_feature":"4","num_nodes":"1","size_leaf_vector":"0"}},{"base_weights":[1.0387041E-5],"default_left":[false],"id":46,"leaf_child_counts":[0],"left_children":[-1],"loss_changes":[9.597044E-7],"parents":[2147483647],"right_children":[-1],"split_conditions":[3.1161123E-6],"split_indices":[0],"sum_hessian":[1.27E2],"tree_param":{"num_deleted":"0","num_feature":"4","num_nodes":"1","size_leaf_vector":"0"}},{"base_weights":[7.956289E-6],"default_left":[false],"id":47,"leaf_child_counts":[0],"left_children":[-1],"loss_changes":[9.626235E-7],"parents":[2147483647],"right_children":[-1],"split_conditions":[2.3868868E-6],"split_indices":[0],"sum_hessian":[1.27E2],"tree_param":{"num_deleted":"0","num_feature":"4","num_nodes":"1","size_leaf_vector":"0"}},{"base_weights":[6.1197206E-6],"default_left":[false],"id":48,"leaf_child_counts":[0],"left_children":[-1],"loss_changes":[9.59614E-7],"parents":[2147483647],"right_children":[-1],"split_conditions":[1.8359162E-6],"split_indices":[0],"sum_hessian":[1.27E2],"tree_param":{"num_deleted":"0","num_feature":"4","num_nodes":"1","size_leaf_vector":"0"}},{"base_weights":[4.8698857E-6],"default_left":[false],"id":49,"leaf_child_counts":[0],"left_children":[-1],"loss_changes":[9.640717E-7],"parents":[2147483647],"right_children":[-1],"split_conditions":[1.4609658E-6],"split_indices":[0],"sum_hessian":[1.27E2],"tree_param":{"num_deleted":"0","num_feature":"4","num_nodes":"1","size_leaf_vector":"0"}},{"base_weights":[3.8007274E-6],"default_left":[false],"id":50,"leaf_child_counts":[0],"left_children":[-1],"loss_changes":[9.675708E-7],"parents":[2147483647],"right_children":[-1],"split_conditions":[1.1402183E-6],"split_indices":[0],"sum_hessian":[1.27E2],"tree_param":{"num_deleted":"0","num_feature":"4","num_nodes":"1","size_leaf_vector":"0"}},{"base_weights":[2.9718503E-6],"default_left":[false],"id":51,"leaf_child_counts":[0],"left_children":[-1],"loss_changes":[9.739024E-7],"parents":[2147483647],"right_children":[-1],"split_conditions":[8.9155515E-7],"split_indices":[0],"sum_hessian":[1.27E2],"tree_param":{"num_deleted":"0","num_feature":"4","num_nodes":"1","size_leaf_vector":"0"}},{"base_weights":[2.4819747E-6],"default_left":[false],"id":52,"leaf_child_counts":[0],"left_children":[-1],"loss_changes":[9.73426E-7],"parents":[2147483647],"right_children":[-1],"split_conditions":[7.4459246E-7],"split_indices":[0],"sum_hessian":[1.27E2],"tree_param":{"num_deleted":"0","num_feature":"4","num_nodes":"1","size_leaf_vector":"0"}},{"base_weights":[2.044253E-6],"default_left":[false],"id":53,"leaf_child_counts":[0],"left_children":[-1],"loss_changes":[9.719014E-7],"parents":[2147483647],"right_children":[-1],"split_conditions":[6.132759E-7],"split_indices":[0],"sum_hessian":[1.27E2],"tree_param":{"num_deleted":"0","num_feature":"4","num_nodes":"1","size_leaf_vector":"0"}},{"base_weights":[1.6903505E-6],"default_left":[false],"id":54,"leaf_child_counts":[0],"left_children":[-1],"loss_changes":[9.716886E-7],"parents":[2147483647],"right_children":[-1],"split_conditions":[5.0710514E-7],"split_indices":[0],"sum_hessian":[1.27E2],"tree_param":{"num_deleted":"0","num_feature":"4","num_nodes":"1","size_leaf_vector":"0"}},{"base_weights":[1.3811514E-6],"default_left":[false],"id":55,"leaf_child_counts":[0],"left_children":[-1],"loss_changes":[9.702454E-7],"parents":[2147483647],"right_children":[-1],"split_conditions":[4.1434544E-7],"split_indices":[0],"sum_hessian":[1.27E2],"tree_param":{"num_deleted":"0","num_feature":"4","num_nodes":"1","size_leaf_vector":"0"}},{"base_weights":[1.2004748E-6],"default_left":[false],"id":56,"leaf_child_counts":[0],"left_children":[-1],"loss_changes":[9.712115E-7],"parents":[2147483647],"right_children":[-1],"split_conditions":[3.6014245E-7],"split_indices":[0],"sum_hessian":[1.27E2],"tree_param":{"num_deleted":"0","num_feature":"4","num_nodes":"1","size_leaf_vector":"0"}},{"base_weights":[1.0123476E-6],"default_left":[false],"id":57,"leaf_child_counts":[0],"left_children":[-1],"loss_changes":[9.719948E-7],"parents":[2147483647],"right_children":[-1],"split_conditions":[3.037043E-7],"split_indices":[0],"sum_hessian":[1.27E2],"tree_param":{"num_deleted":"0","num_feature":"4","num_nodes":"1","size_leaf_vector":"0"}},{"base_weights":[8.670613E-7],"default_left":[false],"id":58,"leaf_child_counts":[0],"left_children":[-1],"loss_changes":[9.722506E-7],"parents":[2147483647],"right_children":[-1],"split_conditions":[2.601184E-7],"split_indices":[0],"sum_hessian":[1.27E2],"tree_param":{"num_deleted":"0","num_feature":"4","num_nodes":"1","size_leaf_vector":"0"}},{"base_weights":[7.310882E-7],"default_left":[false],"id":59,"leaf_child_counts":[0],"left_children":[-1],"loss_changes":[9.719863E-7],"parents":[2147483647],"right_children":[-1],"split_conditions":[2.1932648E-7],"split_indices":[0],"sum_hessian":[1.27E2],"tree_param":{"num_deleted":"0","num_feature":"4","num_nodes":"1","size_leaf_vector":"0"}},{"base_weights":[6.6217035E-7],"default_left":[false],"id":60,"leaf_child_counts":[0],"left_children":[-1],"loss_changes":[9.73371E-7],"parents":[2147483647],"right_children":[-1],"split_conditions":[1.9865111E-7],"split_indices":[0],"sum_hessian":[1.27E2],"tree_param":{"num_deleted":"0","num_feature":"4","num_nodes":"1","size_leaf_vector":"0"}},{"base_weights":[5.932525E-7],"default_left":[false],"id":61,"leaf_child_counts":[0],"left_children":[-1],"loss_changes":[9.747569E-7],"parents":[2147483647],"right_children":[-1],"split_conditions":[1.7797575E-7],"split_indices":[0],"sum_hessian":[1.27E2],"tree_param":{"num_deleted":"0","num_feature":"4","num_nodes":"1","size_leaf_vector":"0"}},{"base_weights":[5.410984E-7],"default_left":[false],"id":62,"leaf_child_counts":[0],"left_children":[-1],"loss_changes":[9.758061E-7],"parents":[2147483647],"right_children":[-1],"split_conditions":[1.6232953E-7],"split_indices":[0],"sum_hessian":[1.27E2],"tree_param":{"num_deleted":"0","num_feature":"4","num_nodes":"1","size_leaf_vector":"0"}},{"base_weights":[4.8894435E-7],"default_left":[false],"id":63,"leaf_child_counts":[0],"left_children":[-1],"loss_changes":[9.76856E-7],"parents":[2147483647],"right_children":[-1],"split_conditions":[1.466833E-7],"split_indices":[0],"sum_hessian":[1.27E2],"tree_param":{"num_deleted":"0","num_feature":"4","num_nodes":"1","size_leaf_vector":"0"}},{"base_weights":[4.367903E-7],"default_left":[false],"id":64,"leaf_child_counts":[0],"left_children":[-1],"loss_changes":[9.779064E-7],"parents":[2147483647],"right_children":[-1],"split_conditions":[1.310371E-7],"split_indices":[0],"sum_hessian":[1.27E2],"tree_param":{"num_deleted":"0","num_feature":"4","num_nodes":"1","size_leaf_vector":"0"}},{"base_weights":[3.8463622E-7],"default_left":[false],"id":65,"leaf_child_counts":[0],"left_children":[-1],"loss_changes":[9.789574E-7],"parents":[2147483647],"right_children":[-1],"split_conditions":[1.1539087E-7],"split_indices":[0],"sum_hessian":[1.27E2],"tree_param":{"num_deleted":"0","num_feature":"4","num_nodes":"1","size_leaf_vector":"0"}},{"base_weights":[3.6787242E-7],"default_left":[false],"id":66,"leaf_child_counts":[0],"left_children":[-1],"loss_changes":[9.792955E-7],"parents":[2147483647],"right_children":[-1],"split_conditions":[1.1036173E-7],"split_indices":[0],"sum_hessian":[1.27E2],"tree_param":{"num_deleted":"0","num_feature":"4","num_nodes":"1","size_leaf_vector":"0"}},{"base_weights":[3.511086E-7],"default_left":[false],"id":67,"leaf_child_counts":[0],"left_children":[-1],"loss_changes":[9.796333E-7],"parents":[2147483647],"right_children":[-1],"split_conditions":[1.0533259E-7],"split_indices":[0],"sum_hessian":[1.27E2],"tree_param":{"num_deleted":"0","num_feature":"4","num_nodes":"1","size_leaf_vector":"0"}},{"base_weights":[3.343448E-7],"default_left":[false],"id":68,"leaf_child_counts":[0],"left_children":[-1],"loss_changes":[9.799714E-7],"parents":[2147483647],"right_children":[-1],"split_conditions":[1.00303446E-7],"split_indices":[0],"sum_hessian":[1.27E2],"tree_param":{"num_deleted":"0","num_feature":"4","num_nodes":"1","size_leaf_vector":"0"}},{"base_weights":[3.17581E-7],"default_left":[false],"id":69,"leaf_child_counts":[0],"left_children":[-1],"loss_changes":[9.803094E-7],"parents":[2147483647],"right_children":[-1],"split_conditions":[9.52743E-8],"split_indices":[0],"sum_hessian":[1.27E2],"tree_param":{"num_deleted":"0","num_feature":"4","num_nodes":"1","size_leaf_vector":"0"}},{"base_weights":[3.008172E-7],"default_left":[false],"id":70,"leaf_child_counts":[0],"left_children":[-1],"loss_changes":[9.806477E-7],"parents":[2147483647],"right_children":[-1],"split_conditions":[9.024516E-8],"split_indices":[0],"sum_hessian":[1.27E2],"tree_param":{"num_deleted":"0","num_feature":"4","num_nodes":"1","size_leaf_vector":"0"}},{"base_weights":[2.8405339E-7],"default_left":[false],"id":71,"leaf_child_counts":[0],"left_children":[-1],"loss_changes":[9.809859E-7],"parents":[2147483647],"right_children":[-1],"split_conditions":[8.5216016E-8],"split_indices":[0],"sum_hessian":[1.27E2],"tree_param":{"num_deleted":"0","num_feature":"4","num_nodes":"1","size_leaf_vector":"0"}},{"base_weights":[2.6728958E-7],"default_left":[false],"id":72,"leaf_child_counts":[0],"left_children":[-1],"loss_changes":[9.813243E-7],"parents":[2147483647],"right_children":[-1],"split_conditions":[8.018688E-8],"split_indices":[0],"sum_hessian":[1.27E2],"tree_param":{"num_deleted":"0","num_feature":"4","num_nodes":"1","size_leaf_vector":"0"}},{"base_weights":[2.5052577E-7],"default_left":[false],"id":73,"leaf_child_counts":[0],"left_children":[-1],"loss_changes":[9.816625E-7],"parents":[2147483647],"right_children":[-1],"split_conditions":[7.5157736E-8],"split_indices":[0],"sum_hessian":[1.27E2],"tree_param":{"num_deleted":"0","num_feature":"4","num_nodes":"1","size_leaf_vector":"0"}},{"base_weights":[2.3376197E-7],"default_left":[false],"id":74,"leaf_child_counts":[0],"left_children":[-1],"loss_changes":[9.820009E-7],"parents":[2147483647],"right_children":[-1],"split_conditions":[7.012859E-8],"split_indices":[0],"sum_hessian":[1.27E2],"tree_param":{"num_deleted":"0","num_feature":"4","num_nodes":"1","size_leaf_vector":"0"}},{"base_weights":[2.1699816E-7],"default_left":[false],"id":75,"leaf_child_counts":[0],"left_children":[-1],"loss_changes":[9.823394E-7],"parents":[2147483647],"right_children":[-1],"split_conditions":[6.509945E-8],"split_indices":[0],"sum_hessian":[1.27E2],"tree_param":{"num_deleted":"0","num_feature":"4","num_nodes":"1","size_leaf_vector":"0"}},{"base_weights":[2.0023435E-7],"default_left":[false],"id":76,"leaf_child_counts":[0],"left_children":[-1],"loss_changes":[9.82678E-7],"parents":[2147483647],"right_children":[-1],"split_conditions":[6.0070306E-8],"split_indices":[0],"sum_hessian":[1.27E2],"tree_param":{"num_deleted":"0","num_feature":"4","num_nodes":"1","size_leaf_vector":"0"}},{"base_weights":[1.8347055E-7],"default_left":[false],"id":77,"leaf_child_counts":[0],"left_children":[-1],"loss_changes":[9.830164E-7],"parents":[2147483647],"right_children":[-1],"split_conditions":[5.5041166E-8],"split_indices":[0],"sum_hessian":[1.27E2],"tree_param":{"num_deleted":"0","num_feature":"4","num_nodes":"1","size_leaf_vector":"0"}},{"base_weights":[1.8347055E-7],"default_left":[false],"id":78,"leaf_child_counts":[0],"left_children":[-1],"loss_changes":[9.830164E-7],"parents":[2147483647],"right_children":[-1],"split_conditions":[5.5041166E-8],"split_indices":[0],"sum_hessian":[1.27E2],"tree_param":{"num_deleted":"0","num_feature":"4","num_nodes":"1","size_leaf_vector":"0"}},{"base_weights":[1.8347055E-7],"default_left":[false],"id":79,"leaf_child_counts":[0],"left_children":[-1],"loss_changes":[9.830164E-7],"parents":[2147483647],"right_children":[-1],"split_conditions":[5.5041166E-8],"split_indices":[0],"sum_hessian":[1.27E2],"tree_param":{"num_deleted":"0","num_feature":"4","num_nodes":"1","size_leaf_vector":"0"}},{"base_weights":[1.8347055E-7],"default_left":[false],"id":80,"leaf_child_counts":[0],"left_children":[-1],"loss_changes":[9.830164E-7],"parents":[2147483647],"right_children":[-1],"split_conditions":[5.5041166E-8],"split_indices":[0],"sum_hessian":[1.27E2],"tree_param":{"num_deleted":"0","num_feature":"4","num_nodes":"1","size_leaf_vector":"0"}},{"base_weights":[1.8347055E-7],"default_left":[false],"id":81,"leaf_child_counts":[0],"left_children":[-1],"loss_changes":[9.830164E-7],"parents":[2147483647],"right_children":[-1],"split_conditions":[5.5041166E-8],"split_indices":[0],"sum_hessian":[1.27E2],"tree_param":{"num_deleted":"0","num_feature":"4","num_nodes":"1","size_leaf_vector":"0"}},{"base_weights":[1.8347055E-7],"default_left":[false],"id":82,"leaf_child_counts":[0],"left_children":[-1],"loss_changes":[9.830164E-7],"parents":[2147483647],"right_children":[-1],"split_conditions":[5.5041166E-8],"split_indices":[0],"sum_hessian":[1.27E2],"tree_param":{"num_deleted":"0","num_feature":"4","num_nodes":"1","size_leaf_vector":"0"}},{"base_weights":[1.8347055E-7],"default_left":[false],"id":83,"leaf_child_counts":[0],"left_children":[-1],"loss_changes":[9.830164E-7],"parents":[2147483647],"right_children":[-1],"split_conditions":[5.5041166E-8],"split_indices":[0],"sum_hessian":[1.27E2],"tree_param":{"num_deleted":"0","num_feature":"4","num_nodes":"1","size_leaf_vector":"0"}},{"base_weights":[1.8347055E-7],"default_left":[false],"id":84,"leaf_child_counts":[0],"left_children":[-1],"loss_changes":[9.830164E-7],"parents":[2147483647],"right_children":[-1],"split_conditions":[5.5041166E-8],"split_indices":[0],"sum_hessian":[1.27E2],"tree_param":{"num_deleted":"0","num_feature":"4","num_nodes":"1","size_leaf_vector":"0"}},{"base_weights":[1.8347055E-7],"default_left":[false],"id":85,"leaf_child_counts":[0],"left_children":[-1],"loss_changes":[9.830164E-7],"parents":[2147483647],"right_children":[-1],"split_conditions":[5.5041166E-8],"split_indices":[0],"sum_hessian":[1.27E2],"tree_param":{"num_deleted":"0","num_feature":"4","num_nodes":"1","size_leaf_vector":"0"}},{"base_weights":[1.8347055E-7],"default_left":[false],"id":86,"leaf_child_counts":[0],"left_children":[-1],"loss_changes":[9.830164E-7],"parents":[2147483647],"right_children":[-1],"split_conditions":[5.5041166E-8],"split_indices":[0],"sum_hessian":[1.27E2],"tree_param":{"num_deleted":"0","num_feature":"4","num_nodes":"1","size_leaf_vector":"0"}},{"base_weights":[1.8347055E-7],"default_left":[false],"id":87,"leaf_child_counts":[0],"left_children":[-1],"loss_changes":[9.830164E-7],"parents":[2147483647],"right_children":[-1],"split_conditions":[5.5041166E-8],"split_indices":[0],"sum_hessian":[1.27E2],"tree_param":{"num_deleted":"0","num_feature":"4","num_nodes":"1","size_leaf_vector":"0"}},{"base_weights":[1.8347055E-7],"default_left":[false],"id":88,"leaf_child_counts":[0],"left_children":[-1],"loss_changes":[9.830164E-7],"parents":[2147483647],"right_children":[-1],"split_conditions":[5.5041166E-8],"split_indices":[0],"sum_hessian":[1.27E2],"tree_param":{"num_deleted":"0","num_feature":"4","num_nodes":"1","size_leaf_vector":"0"}},{"base_weights":[1.8347055E-7],"default_left":[false],"id":89,"leaf_child_counts":[0],"left_children":[-1],"loss_changes":[9.830164E-7],"parents":[2147483647],"right_children":[-1],"split_conditions":[5.5041166E-8],"split_indices":[0],"sum_hessian":[1.27E2],"tree_param":{"num_deleted":"0","num_feature":"4","num_nodes":"1","size_leaf_vector":"0"}},{"base_weights":[1.8347055E-7],"default_left":[false],"id":90,"leaf_child_counts":[0],"left_children":[-1],"loss_changes":[9.830164E-7],"parents":[2147483647],"right_children":[-1],"split_conditions":[5.5041166E-8],"split_indices":[0],"sum_hessian":[1.27E2],"tree_param":{"num_deleted":"0","num_feature":"4","num_nodes":"1","size_leaf_vector":"0"}},{"base_weights":[1.8347055E-7],"default_left":[false],"id":91,"leaf_child_counts":[0],"left_children":[-1],"loss_changes":[9.830164E-7],"parents":[2147483647],"right_children":[-1],"split_conditions":[5.5041166E-8],"split_indices":[0],"sum_hessian":[1.27E2],"tree_param":{"num_deleted":"0","num_feature":"4","num_nodes":"1","size_leaf_vector":"0"}},{"base_weights":[1.8347055E-7],"default_left":[false],"id":92,"leaf_child_counts":[0],"left_children":[-1],"loss_changes":[9.830164E-7],"parents":[2147483647],"right_children":[-1],"split_conditions":[5.5041166E-8],"split_indices":[0],"sum_hessian":[1.27E2],"tree_param":{"num_deleted":"0","num_feature":"4","num_nodes":"1","size_leaf_vector":"0"}},{"base_weights":[1.8347055E-7],"default_left":[false],"id":93,"leaf_child_counts":[0],"left_children":[-1],"loss_changes":[9.830164E-7],"parents":[2147483647],"right_children":[-1],"split_conditions":[5.5041166E-8],"split_indices":[0],"sum_hessian":[1.27E2],"tree_param":{"num_deleted":"0","num_feature":"4","num_nodes":"1","size_leaf_vector":"0"}},{"base_weights":[1.8347055E-7],"default_left":[false],"id":94,"leaf_child_counts":[0],"left_children":[-1],"loss_changes":[9.830164E-7],"parents":[2147483647],"right_children":[-1],"split_conditions":[5.5041166E-8],"split_indices":[0],"sum_hessian":[1.27E2],"tree_param":{"num_deleted":"0","num_feature":"4","num_nodes":"1","size_leaf_vector":"0"}},{"base_weights":[1.8347055E-7],"default_left":[false],"id":95,"leaf_child_counts":[0],"left_children":[-1],"loss_changes":[9.830164E-7],"parents":[2147483647],"right_children":[-1],"split_conditions":[5.5041166E-8],"split_indices":[0],"sum_hessian":[1.27E2],"tree_param":{"num_deleted":"0","num_feature":"4","num_nodes":"1","size_leaf_vector":"0"}},{"base_weights":[1.8347055E-7],"default_left":[false],"id":96,"leaf_child_counts":[0],"left_children":[-1],"loss_changes":[9.830164E-7],"parents":[2147483647],"right_children":[-1],"split_conditions":[5.5041166E-8],"split_indices":[0],"sum_hessian":[1.27E2],"tree_param":{"num_deleted":"0","num_feature":"4","num_nodes":"1","size_leaf_vector":"0"}},{"base_weights":[1.8347055E-7],"default_left":[false],"id":97,"leaf_child_counts":[0],"left_children":[-1],"loss_changes":[9.830164E-7],"parents":[2147483647],"right_children":[-1],"split_conditions":[5.5041166E-8],"split_indices":[0],"sum_hessian":[1.27E2],"tree_param":{"num_deleted":"0","num_feature":"4","num_nodes":"1","size_leaf_vector":"0"}},{"base_weights":[1.8347055E-7],"default_left":[false],"id":98,"leaf_child_counts":[0],"left_children":[-1],"loss_changes":[9.830164E-7],"parents":[2147483647],"right_children":[-1],"split_conditions":[5.5041166E-8],"split_indices":[0],"sum_hessian":[1.27E2],"tree_param":{"num_deleted":"0","num_feature":"4","num_nodes":"1","size_leaf_vector":"0"}},{"base_weights":[1.8347055E-7],"default_left":[false],"id":99,"leaf_child_counts":[0],"left_children":[-1],"loss_changes":[9.830164E-7],"parents":[2147483647],"right_children":[-1],"split_conditions":[5.5041166E-8],"split_indices":[0],"sum_hessian":[1.27E2],"tree_param":{"num_deleted":"0","num_feature":"4","num_nodes":"1","size_leaf_vector":"0"}}]},"name":"gbtree"},"learner_model_param":{"base_score":"5E-1","num_class":"0","num_feature":"4"},"objective":{"name":"reg:squarederror","reg_loss_param":{"scale_pos_weight":"1"}}},"version":[1,2,0]}