{"learner":{"attributes":{"best_iteration":"72","best_msg":"[72]\tvalidation_0-logloss:-167.67525\tvalidation_0-rmse:0.00063\tvalidation_1-logloss:-183.79222\tvalidation_1-rmse:0.61492","best_score":"0.614918","scikit_learn":"{\"n_estimators\": 2000, \"objective\": \"reg:squarederror\", \"max_depth\": null, \"learning_rate\": null, \"verbosity\": null, \"booster\": null, \"tree_method\": null, \"gamma\": null, \"min_child_weight\": null, \"max_delta_step\": null, \"subsample\": null, \"colsample_bytree\": null, \"colsample_bylevel\": null, \"colsample_bynode\": null, \"reg_alpha\": null, \"reg_lambda\": null, \"scale_pos_weight\": null, \"base_score\": null, \"missing\": NaN, \"num_parallel_tree\": null, \"kwargs\": {}, \"random_state\": 42, \"n_jobs\": null, \"monotone_constraints\": null, \"interaction_constraints\": null, \"importance_type\": \"gain\", \"gpu_id\": null, \"validate_parameters\": null, \"n_features_in_\": 8, \"evals_result_\": {\"validation_0\": {\"logloss\": [-167.675247, -167.675247, -167.675247, -167.675247, -167.675247, -167.675247, -167.675247, -167.675247, -167.675247, -167.675247, -167.675247, -167.675247, -167.675247, -167.675247, -167.675247, -167.675247, -167.675247, -167.675247, -167.675247, -167.675247, -167.675247, -167.675247, -167.675247, -167.675247, -167.675247, -167.675247, -167.675247, -167.675247, -167.675247, -167.675247, -167.675247, -167.675247, -167.675247, -167.675247, -167.675247, -167.675247, -167.675247, -167.675247, -167.675247, -167.675247, -167.675247, -167.675247, -167.675247, -167.675247, -167.675247, -167.675247, -167.675247, -167.675247, -167.675247, -167.675247, -167.675247, -167.675247, -167.675247, -167.675247, -167.675247, -167.675247, -167.675247, -167.675247, -167.675247, -167.675247, -167.675247, -167.675247, -167.675247, -167.675247, -167.675247, -167.675247, -167.675247, -167.675247, -167.675247, -167.675247, -167.675247, -167.675247, -167.675247, -167.675247, -167.675247, -167.675247, -167.675247, -167.675247, -167.675247, -167.675247, -167.675247, -167.675247, -167.675247, -167.675247, -167.675247, -167.675247, -167.675247, -167.675247, -167.675247, -167.675247, -167.675247, -167.675247, -167.675247, -167.675247, -167.675247, -167.675247, -167.675247, -167.675247, -167.675247, -167.675247, -167.675247, -167.675247, -167.675247, -167.675247, -167.675247, -167.675247, -167.675247, -167.675247, -167.675247, -167.675247, -167.675247, -167.675247, -167.675247, -167.675247, -167.675247, -167.675247, -167.675247, -167.675247, -167.675247, -167.675247, -167.675247, -167.675247], \"rmse\": [4.708777, 3.748349, 3.048851, 2.51473, 2.086642, 1.742452, 1.463603, 1.236305, 1.047132, 0.886986, 0.751712, 0.63738, 0.540702, 0.458893, 0.389709, 0.331042, 0.281183, 0.238877, 0.202967, 0.172472, 0.146568, 0.124565, 0.105876, 0.089992, 0.076492, 0.065017, 0.055265, 0.046975, 0.039929, 0.03394, 0.028849, 0.024523, 0.020846, 0.01772, 0.015064, 0.012807, 0.010887, 0.009258, 0.007874, 0.006734, 0.005726, 0.004872, 0.00415, 0.003528, 0.003008, 0.002585, 0.002231, 0.001907, 0.001658, 0.001432, 0.001251, 0.001102, 0.00098, 0.000885, 0.000801, 0.000735, 0.000684, 0.000678, 0.000639, 0.000637, 0.000635, 0.000635, 0.000634, 0.000634, 0.000634, 0.000634, 0.000634, 0.000634, 0.000634, 0.000634, 0.000634, 0.000634, 0.000634, 0.000634, 0.000634, 0.000634, 0.000634, 0.000634, 0.000634, 0.000634, 0.000634, 0.000634, 0.000634, 0.000634, 0.000634, 0.000634, 0.000634, 0.000634, 0.000634, 0.000634, 0.000634, 0.000634, 0.000634, 0.000634, 0.000634, 0.000634, 0.000634, 0.000634, 0.000634, 0.000634, 0.000634, 0.000634, 0.000634, 0.000634, 0.000634, 0.000634, 0.000634, 0.000634, 0.000634, 0.000634, 0.000634, 0.000634, 0.000634, 0.000634, 0.000634, 0.000634, 0.000634, 0.000634, 0.000634, 0.000634, 0.000634, 0.000634]}, \"validation_1\": {\"logloss\": [-183.792221, -183.792221, -183.792221, -183.792221, -183.792221, -183.792221, -183.792221, -183.792221, -183.792221, -183.792221, -183.792221, -183.792221, -183.792221, -183.792221, -183.792221, -183.792221, -183.792221, -183.792221, -183.792221, -183.792221, -183.792221, -183.792221, -183.792221, -183.792221, -183.792221, -183.792221, -183.792221, -183.792221, -183.792221, -183.792221, -183.792221, -183.792221, -183.792221, -183.792221, -183.792221, -183.792221, -183.792221, -183.792221, -183.792221, -183.792221, -183.792221, -183.792221, -183.792221, -183.792221, -183.792221, -183.792221, -183.792221, -183.792221, -183.792221, -183.792221, -183.792221, -183.792221, -183.792221, -183.792221, -183.792221, -183.792221, -183.792221, -183.792221, -183.792221, -183.792221, -183.792221, -183.792221, -183.792221, -183.792221, -183.792221, -183.792221, -183.792221, -183.792221, -183.792221, -183.792221, -183.792221, -183.792221, -183.792221, -183.792221, -183.792221, -183.792221, -183.792221, -183.792221, -183.792221, -183.792221, -183.792221, -183.792221, -183.792221, -183.792221, -183.792221, -183.792221, -183.792221, -183.792221, -183.792221, -183.792221, -183.792221, -183.792221, -183.792221, -183.792221, -183.792221, -183.792221, -183.792221, -183.792221, -183.792221, -183.792221, -183.792221, -183.792221, -183.792221, -183.792221, -183.792221, -183.792221, -183.792221, -183.792221, -183.792221, -183.792221, -183.792221, -183.792221, -183.792221, -183.792221, -183.792221, -183.792221, -183.792221, -183.792221, -183.792221, -183.792221, -183.792221, -183.792221], \"rmse\": [4.714619, 3.436388, 2.498655, 2.02725, 1.736286, 1.523318, 1.367679, 1.220726, 1.102739, 0.982245, 0.885862, 0.808766, 0.747098, 0.697771, 0.658316, 0.643862, 0.632584, 0.63058, 0.629117, 0.623432, 0.621294, 0.619627, 0.618327, 0.61767, 0.617169, 0.616746, 0.616429, 0.616251, 0.616066, 0.616175, 0.616271, 0.616391, 0.616373, 0.616097, 0.616133, 0.616141, 0.616049, 0.616026, 0.61601, 0.615855, 0.615588, 0.615375, 0.615204, 0.61523, 0.615134, 0.615047, 0.614984, 0.615027, 0.614984, 0.615054, 0.615037, 0.615024, 0.615015, 0.615026, 0.615025, 0.615025, 0.615025, 0.61499, 0.614999, 0.614977, 0.614961, 0.614949, 0.61494, 0.614934, 0.61493, 0.614926, 0.614924, 0.614922, 0.61492, 0.61492, 0.614919, 0.614919, 0.614918, 0.614918, 0.614918, 0.614918, 0.614918, 0.614918, 0.614918, 0.614918, 0.614918, 0.614918, 0.614918, 0.614918, 0.614918, 0.614918, 0.614918, 0.614918, 0.614918, 0.614918, 0.614918, 0.614918, 0.614918, 0.614918, 0.614918, 0.614918, 0.614918, 0.614918, 0.614918, 0.614918, 0.614918, 0.614918, 0.614918, 0.614918, 0.614918, 0.614918, 0.614918, 0.614918, 0.614918, 0.614918, 0.614918, 0.614918, 0.614918, 0.614918, 0.614918, 0.614918, 0.614918, 0.614918, 0.614918, 0.614918, 0.614918, 0.614918]}}, \"best_score\": 0.614918, \"best_iteration\": 72, \"best_ntree_limit\": 73, \"type\": \"XGBRegressor\"}"},"gradient_booster":{"model":{"gbtree_model_param":{"num_trees":"123","size_leaf_vector":"0"},"tree_info":[0,0,0,0,0,0,0,0,0,0,0,0,0,0,0,0,0,0,0,0,0,0,0,0,0,0,0,0,0,0,0,0,0,0,0,0,0,0,0,0,0,0,0,0,0,0,0,0,0,0,0,0,0,0,0,0,0,0,0,0,0,0,0,0,0,0,0,0,0,0,0,0,0,0,0,0,0,0,0,0,0,0,0,0,0,0,0,0,0,0,0,0,0,0,0,0,0,0,0,0,0,0,0,0,0,0,0,0,0,0,0,0,0,0,0,0,0,0,0,0,0,0,0],"trees":[{"base_weights":[4.6627173E0,2.7186198E0,6.477728E0],"default_left":[true,false,false],"id":0,"leaf_child_counts":[0,0,0],"left_children":[1,-1,-1],"loss_changes":[2.8260773E1,0E0,0E0],"parents":[2147483647,0,0],"right_children":[2,-1,-1],"split_conditions":[7.1463574E2,8.15586E-1,1.9433185E0],"split_indices":[4,0,0],"sum_hessian":[1.2E1,7E0,5E0],"tree_param":{"num_deleted":"0","num_feature":"8","num_nodes":"3","size_leaf_vector":"0"}},{"base_weights":[3.4761257E0,2.2254403E0,5.7338076E0,2.531326E0,6.6793126E-1],"default_left":[true,true,false,false,false],"id":1,"leaf_child_counts":[0,0,0,0,0],"left_children":[1,3,-1,-1,-1],"loss_changes":[2.3947205E1,3.0734482E0,0E0,0E0,0E0],"parents":[2147483647,0,0,1,1],"right_children":[2,4,-1,-1,-1],"split_conditions":[1.6361875E3,6.2E1,1.7201424E0,7.5939786E-1,2.0037939E-1],"split_indices":[5,0,0,0,0],"sum_hessian":[1.2E1,9E0,3E0,7E0,2E0],"tree_param":{"num_deleted":"0","num_feature":"8","num_nodes":"5","size_leaf_vector":"0"}},{"base_weights":[2.6394355E0,1.6537858E0,4.443701E0,1.8668529E0,5.34345E-1],"default_left":[true,true,false,false,false],"id":2,"leaf_child_counts":[0,0,0,0,0],"left_children":[1,3,-1,-1,-1],"loss_changes":[1.5769936E1,1.3876152E0,0E0,0E0,0E0],"parents":[2147483647,0,0,1,1],"right_children":[2,4,-1,-1,-1],"split_conditions":[1.6361875E3,6.2E1,1.3331103E0,5.600559E-1,1.603035E-1],"split_indices":[5,0,0,0,0],"sum_hessian":[1.2E1,9E0,3E0,7E0,2E0],"tree_param":{"num_deleted":"0","num_feature":"8","num_nodes":"5","size_leaf_vector":"0"}},{"base_weights":[2.005564E0,4.491973E0,1.4240322E0,1.5805959E0,4.2747602E-1],"default_left":[true,false,true,false,false],"id":3,"leaf_child_counts":[0,0,0,0,0],"left_children":[1,-1,3,-1,-1],"loss_changes":[1.2400322E1,0E0,1.1966267E0,0E0,0E0],"parents":[2147483647,0,0,2,2],"right_children":[2,-1,4,-1,-1],"split_conditions":[4.5257803E2,1.3475919E0,6.5E1,4.7417876E-1,1.282428E-1],"split_indices":[3,0,0,0,0],"sum_hessian":[1.2E1,1E0,1.1E1,9E0,2E0],"tree_param":{"num_deleted":"0","num_feature":"8","num_nodes":"5","size_leaf_vector":"0"}},{"base_weights":[1.5538958E0,3.8181767E0,1.0470244E0,5.3145343E-1,1.3393674E0],"default_left":[true,false,true,false,false],"id":4,"leaf_child_counts":[0,0,0,0,0],"left_children":[1,-1,3,-1,-1],"loss_changes":[1.0922369E1,0E0,1.0968714E0,0E0,0E0],"parents":[2147483647,0,0,2,2],"right_children":[2,-1,4,-1,-1],"split_conditions":[4.5257803E2,1.1454531E0,6.948003E2,1.5943603E-1,4.0181023E-1],"split_indices":[3,0,4,0,0],"sum_hessian":[1.2E1,1E0,1.1E1,5E0,6E0],"tree_param":{"num_deleted":"0","num_feature":"8","num_nodes":"5","size_leaf_vector":"0"}},{"base_weights":[1.2190117E0,3.2454503E0,7.7968764E-1,3.9859012E-1,9.949587E-1],"default_left":[true,false,true,false,false],"id":5,"leaf_child_counts":[0,0,0,0,0],"left_children":[1,-1,3,-1,-1],"loss_changes":[9.042984E0,0E0,5.878906E-1,0E0,0E0],"parents":[2147483647,0,0,2,2],"right_children":[2,-1,4,-1,-1],"split_conditions":[4.5257803E2,9.7363514E-1,6.948003E2,1.1957704E-1,2.9848763E-1],"split_indices":[3,0,4,0,0],"sum_hessian":[1.2E1,1E0,1.1E1,5E0,6E0],"tree_param":{"num_deleted":"0","num_feature":"8","num_nodes":"5","size_leaf_vector":"0"}},{"base_weights":[9.60362E-1,2.7586327E0,5.8062005E-1,2.9894266E-1,7.391121E-1],"default_left":[true,false,true,false,false],"id":6,"leaf_child_counts":[0,0,0,0,0],"left_children":[1,-1,3,-1,-1],"loss_changes":[7.275708E0,0E0,3.1477118E-1,0E0,0E0],"parents":[2147483647,0,0,2,2],"right_children":[2,-1,4,-1,-1],"split_conditions":[4.5257803E2,8.275898E-1,6.948003E2,8.96828E-2,2.2173363E-1],"split_indices":[3,0,4,0,0],"sum_hessian":[1.2E1,1E0,1.1E1,5E0,6E0],"tree_param":{"num_deleted":"0","num_feature":"8","num_nodes":"5","size_leaf_vector":"0"}},{"base_weights":[7.598693E-1,2.3448377E0,4.323854E-1,4.9000746E-1,9.618354E-2],"default_left":[true,false,true,false,false],"id":7,"leaf_child_counts":[0,0,0,0,0],"left_children":[1,-1,3,-1,-1],"loss_changes":[5.733796E0,0E0,1.8534088E-1,0E0,0E0],"parents":[2147483647,0,0,2,2],"right_children":[2,-1,4,-1,-1],"split_conditions":[4.5257803E2,7.0345134E-1,6.5E1,1.4700225E-1,2.8855063E-2],"split_indices":[3,0,0,0,0],"sum_hessian":[1.2E1,1E0,1.1E1,9E0,2E0],"tree_param":{"num_deleted":"0","num_feature":"8","num_nodes":"5","size_leaf_vector":"0"}},{"base_weights":[5.995476E-1,1.6815828E0,2.499428E-1,1.9931121E0,5.2926207E-1,3.9345345E-1,1.1172908E-1,1.4481944E-1,5.0706446E-2,-1.400733E-2,7.694682E-2],"default_left":[true,true,true,false,false,false,true,false,true,false,false],"id":8,"leaf_child_counts":[0,0,0,0,0,0,0,0,0,0,0],"left_children":[1,3,5,-1,-1,-1,7,-1,9,-1,-1],"loss_changes":[4.4974017E0,2.2066116E-2,1.7422634E-1,0E0,0E0,0E0,6.7915395E-3,0E0,7.870274E-3,0E0,0E0],"parents":[2147483647,0,0,1,1,2,2,6,6,8,8],"right_children":[2,4,6,-1,-1,-1,8,-1,10,-1,-1],"split_conditions":[4.5943066E2,4.8E1,5.026901E-1,5.9793365E-1,1.5877862E-1,1.1803604E-1,5.15E1,4.3445833E-2,6.2E1,-4.202199E-3,2.3084046E-2],"split_indices":[3,0,7,0,0,0,0,0,0,0,0],"sum_hessian":[1.2E1,2E0,1E1,1E0,1E0,4E0,6E0,3E0,3E0,1E0,2E0],"tree_param":{"num_deleted":"0","num_feature":"8","num_nodes":"11","size_leaf_vector":"0"}},{"base_weights":[4.91766E-1,1.4293453E0,1.9135657E-1,1.6941452E0,4.4987273E-1,2.990245E-1,8.711427E-2,3.3924508E-1,6.9071054E-2,1.1223501E-1,4.0214956E-2,4.0185818E-1,7.5702906E-2,-1.1906147E-2,6.155737E-2],"default_left":[true,true,true,false,false,true,true,true,false,false,true,false,false,false,false],"id":9,"leaf_child_counts":[0,0,0,0,0,0,0,0,0,0,0,0,0,0,0],"left_children":[1,3,5,-1,-1,7,9,11,-1,-1,13,-1,-1,-1,-1],"loss_changes":[3.388035E0,1.5942574E-2,9.7409785E-2,0E0,0E0,2.2812307E-2,3.7334934E-3,3.558293E-2,0E0,0E0,5.1824716E-3,0E0,0E0,0E0,0E0],"parents":[2147483647,0,0,1,1,2,2,5,5,6,6,7,7,10,10],"right_children":[2,4,6,-1,-1,8,10,12,-1,-1,14,-1,-1,-1,-1],"split_conditions":[4.5943066E2,4.8E1,5.026901E-1,5.0824356E-1,1.3496183E-1,4.95E1,5.15E1,7.994109E2,2.0721316E-2,3.3670504E-2,6.2E1,1.2055746E-1,2.2710873E-2,-3.5718442E-3,1.8467212E-2],"split_indices":[3,0,7,0,0,0,0,4,0,0,0,0,0,0,0],"sum_hessian":[1.2E1,2E0,1E1,1E0,1E0,4E0,6E0,3E0,1E0,3E0,3E0,2E0,1E0,1E0,2E0],"tree_param":{"num_deleted":"0","num_feature":"8","num_nodes":"15","size_leaf_vector":"0"}},{"base_weights":[4.1006404E-1,1.2149435E0,1.5327291E-1,1.4400234E0,3.8239193E-1,2.4211517E-1,6.7918025E-2,2.7328873E-1,5.8710456E-2,8.698219E-2,3.187436E-2,3.2148662E-1,6.4347506E-2,-1.0120153E-2,4.9245913E-2],"default_left":[true,true,true,false,false,true,true,true,false,false,true,false,false,false,false],"id":10,"leaf_child_counts":[0,0,0,0,0,0,0,0,0,0,0,0,0,0,0],"left_children":[1,3,5,-1,-1,7,9,11,-1,-1,13,-1,-1,-1,-1],"loss_changes":[2.5006993E0,1.1518478E-2,6.697035E-2,0E0,0E0,1.254198E-2,2.0374954E-3,1.9595265E-2,0E0,0E0,3.4164162E-3,0E0,0E0,0E0,0E0],"parents":[2147483647,0,0,1,1,2,2,5,5,6,6,7,7,10,10],"right_children":[2,4,6,-1,-1,8,10,12,-1,-1,14,-1,-1,-1,-1],"split_conditions":[4.5943066E2,4.8E1,5.026901E-1,4.3200704E-1,1.1471758E-1,4.95E1,5.15E1,7.994109E2,1.7613137E-2,2.6094658E-2,6.2E1,9.644599E-2,1.9304253E-2,-3.0360462E-3,1.4773774E-2],"split_indices":[3,0,7,0,0,0,0,4,0,0,0,0,0,0,0],"sum_hessian":[1.2E1,2E0,1E1,1E0,1E0,4E0,6E0,3E0,1E0,3E0,3E0,2E0,1E0,1E0,2E0],"tree_param":{"num_deleted":"0","num_feature":"8","num_nodes":"15","size_leaf_vector":"0"}},{"base_weights":[3.4226948E-1,1.0327021E0,1.2285428E-1,1.22402E0,3.250332E-1,1.9615325E-1,5.294725E-2,2.2023964E-1,4.990387E-2,6.7411244E-2,2.5246441E-2,2.5718927E-1,5.4695368E-2,-8.602142E-3,3.9396685E-2],"default_left":[true,true,true,false,false,true,true,true,false,false,true,false,false,false,false],"id":11,"leaf_child_counts":[0,0,0,0,0,0,0,0,0,0,0,0,0,0,0],"left_children":[1,3,5,-1,-1,7,9,11,-1,-1,13,-1,-1,-1,-1],"loss_changes":[1.8425168E0,8.3220005E-3,4.597947E-2,0E0,0E0,6.6222847E-3,1.1027567E-3,1.0400146E-2,0E0,0E0,2.2547583E-3,0E0,0E0,0E0,0E0],"parents":[2147483647,0,0,1,1,2,2,5,5,6,6,7,7,10,10],"right_children":[2,4,6,-1,-1,8,10,12,-1,-1,14,-1,-1,-1,-1],"split_conditions":[4.5943066E2,4.8E1,5.026901E-1,3.67206E-1,9.750996E-2,4.95E1,5.15E1,7.994109E2,1.4971161E-2,2.0223374E-2,6.2E1,7.715678E-2,1.6408611E-2,-2.5806427E-3,1.1819006E-2],"split_indices":[3,0,7,0,0,0,0,4,0,0,0,0,0,0,0],"sum_hessian":[1.2E1,2E0,1E1,1E0,1E0,4E0,6E0,3E0,1E0,3E0,3E0,2E0,1E0,1E0,2E0],"tree_param":{"num_deleted":"0","num_feature":"8","num_nodes":"15","size_leaf_vector":"0"}},{"base_weights":[2.8595135E-1,8.7779695E-1,9.854334E-2,1.0404172E0,2.7627826E-1,1.590147E-1,4.127189E-2,1.7755926E-1,4.241824E-2,5.224377E-2,1.998204E-2,2.0575158E-1,4.6491146E-2,-7.311821E-3,3.1517267E-2],"default_left":[true,true,true,false,false,true,true,true,false,false,true,false,false,false,false],"id":12,"leaf_child_counts":[0,0,0,0,0,0,0,0,0,0,0,0,0,0,0],"left_children":[1,3,5,-1,-1,7,9,11,-1,-1,13,-1,-1,-1,-1],"loss_changes":[1.3554149E0,6.012678E-3,3.153327E-2,0E0,0E0,3.279388E-3,5.9119053E-4,5.21484E-3,0E0,0E0,1.489812E-3,0E0,0E0,0E0,0E0],"parents":[2147483647,0,0,1,1,2,2,5,5,6,6,7,7,10,10],"right_children":[2,4,6,-1,-1,8,10,12,-1,-1,14,-1,-1,-1,-1],"split_conditions":[4.5943066E2,4.8E1,5.026901E-1,3.1212518E-1,8.288348E-2,4.95E1,5.15E1,7.994109E2,1.2725473E-2,1.567313E-2,6.2E1,6.172548E-2,1.3947344E-2,-2.1935464E-3,9.455181E-3],"split_indices":[3,0,7,0,0,0,0,4,0,0,0,0,0,0,0],"sum_hessian":[1.2E1,2E0,1E1,1E0,1E0,4E0,6E0,3E0,1E0,3E0,3E0,2E0,1E0,1E0,2E0],"tree_param":{"num_deleted":"0","num_feature":"8","num_nodes":"15","size_leaf_vector":"0"}},{"base_weights":[2.3911525E-1,7.461274E-1,7.910145E-2,8.843546E-1,2.3483658E-1,1.2898985E-1,3.2166686E-2,1.4320958E-1,3.6055446E-2,5.759716E-3,3.5607893E-2,1.6460116E-1,3.9517403E-2,1.0432959E-2,3.855629E-2,4.7029894E-2,1.723059E-2,-6.2150955E-3,3.206098E-2],"default_left":[true,true,true,false,false,true,true,true,false,false,true,false,false,false,true,false,true,false,false],"id":13,"leaf_child_counts":[0,0,0,0,0,0,0,0,0,0,0,0,0,0,0,0,0,0,0],"left_children":[1,3,5,-1,-1,7,9,11,-1,-1,13,-1,-1,-1,15,-1,17,-1,-1],"loss_changes":[9.956565E-1,4.3441057E-3,2.1607317E-2,0E0,0E0,1.4440268E-3,4.310119E-4,2.3679584E-3,0E0,0E0,4.3097883E-5,0E0,0E0,0E0,9.31751E-5,0E0,1.2423883E-3,0E0,0E0],"parents":[2147483647,0,0,1,1,2,2,5,5,6,6,7,7,10,10,14,14,16,16],"right_children":[2,4,6,-1,-1,8,10,12,-1,-1,14,-1,-1,-1,16,-1,18,-1,-1],"split_conditions":[4.5943066E2,4.8E1,5.026901E-1,2.6530638E-1,7.045098E-2,4.95E1,1.1616875E3,7.994109E2,1.0816634E-2,1.7279149E-3,4.6873935E2,4.938035E-2,1.1855221E-2,3.1298876E-3,5.15E1,1.4108969E-2,8.05E1,-1.8645287E-3,9.618294E-3],"split_indices":[3,0,7,0,0,0,5,4,0,0,3,0,0,0,0,0,0,0,0],"sum_hessian":[1.2E1,2E0,1E1,1E0,1E0,4E0,6E0,3E0,1E0,1E0,5E0,2E0,1E0,1E0,4E0,2E0,2E0,1E0,1E0],"tree_param":{"num_deleted":"0","num_feature":"8","num_nodes":"19","size_leaf_vector":"0"}},{"base_weights":[2.0080608E-1,6.342084E-1,6.435037E-2,7.5170135E-1,1.9961119E-1,1.0470338E-1,2.6333878E-2,1.15555644E-1,3.0647159E-2,4.8958063E-3,2.909092E-2,1.3168097E-1,3.358984E-2],"default_left":[true,true,true,false,false,true,true,true,false,false,false,false,false],"id":14,"leaf_child_counts":[0,0,0,0,0,0,0,0,0,0,0,0,0],"left_children":[1,3,5,-1,-1,7,9,11,-1,-1,-1,-1,-1],"loss_changes":[7.2801137E-1,3.138423E-3,1.4117632E-2,0E0,0E0,4.7693402E-4,2.7131662E-4,8.63757E-4,0E0,0E0,0E0,0E0,0E0],"parents":[2147483647,0,0,1,1,2,2,5,5,6,6,7,7],"right_children":[2,4,6,-1,-1,8,10,12,-1,-1,-1,-1,-1],"split_conditions":[4.5943066E2,4.8E1,5.026901E-1,2.2551042E-1,5.988336E-2,4.95E1,1.1616875E3,7.994109E2,9.194148E-3,1.4687419E-3,8.727277E-3,3.950429E-2,1.0076952E-2],"split_indices":[3,0,7,0,0,0,5,4,0,0,0,0,0],"sum_hessian":[1.2E1,2E0,1E1,1E0,1E0,4E0,6E0,3E0,1E0,1E0,5E0,2E0,1E0],"tree_param":{"num_deleted":"0","num_feature":"8","num_nodes":"13","size_leaf_vector":"0"}},{"base_weights":[1.6782315E-1,5.39077E-1,5.131546E-2,6.3894606E-1,1.6966939E-1,8.504753E-2,1.9890342E-2,1.1613107E-1,4.824388E-2,2.6106477E-2,8.7016225E-3,4.504323E-3,3.1805754E-2,-9.646416E-3,1.8033108E-2,4.161477E-3,2.2888184E-2],"default_left":[true,true,true,false,false,true,true,false,false,true,true,false,false,false,true,false,false],"id":15,"leaf_child_counts":[0,0,0,0,0,0,0,0,0,0,0,0,0,0,0,0,0],"left_children":[1,3,5,-1,-1,7,9,-1,-1,11,13,-1,-1,-1,15,-1,-1],"loss_changes":[5.3463805E-1,2.267599E-3,9.968754E-3,0E0,0E0,1.1732429E-4,2.5968533E-4,0E0,0E0,3.4920336E-4,8.588126E-4,0E0,0E0,0E0,1.0679482E-4,0E0,0E0],"parents":[2147483647,0,0,1,1,2,2,5,5,6,6,9,9,10,10,14,14],"right_children":[2,4,6,-1,-1,8,10,-1,-1,12,14,-1,-1,-1,16,-1,-1],"split_conditions":[4.5943066E2,4.8E1,5.026901E-1,1.9168383E-1,5.090082E-2,3.2E1,5.15E1,3.483932E-2,1.4473164E-2,4.6873935E2,6.2E1,1.3512969E-3,9.541727E-3,-2.8939247E-3,9.05E1,1.2484431E-3,6.8664555E-3],"split_indices":[3,0,7,0,0,0,0,0,0,3,0,0,0,0,0,0,0],"sum_hessian":[1.2E1,2E0,1E1,1E0,1E0,4E0,6E0,1E0,3E0,3E0,3E0,1E0,2E0,1E0,2E0,1E0,1E0],"tree_param":{"num_deleted":"0","num_feature":"8","num_nodes":"17","size_leaf_vector":"0"}},{"base_weights":[1.4116941E-1,4.582154E-1,4.186875E-2,5.431042E-1,1.4421892E-1,2.631333E-2,9.871149E-2,3.3363957E-2,7.3964E-3,3.8286448E-3,3.76484E-2,-8.199453E-3,1.5328169E-2,3.5372972E-3,1.9454956E-2],"default_left":[true,true,true,false,false,true,false,true,true,false,false,false,true,false,false],"id":16,"leaf_child_counts":[0,0,0,0,0,0,0,0,0,0,0,0,0,0,0],"left_children":[1,3,5,-1,-1,7,-1,9,11,-1,-1,-1,13,-1,-1],"loss_changes":[3.9009252E-1,1.6384125E-3,7.128913E-3,0E0,0E0,1.086989E-3,0E0,7.4165454E-4,6.2049343E-4,0E0,0E0,0E0,7.715728E-5,0E0,0E0],"parents":[2147483647,0,0,1,1,2,2,5,5,7,7,8,8,12,12],"right_children":[2,4,6,-1,-1,8,-1,10,12,-1,-1,-1,14,-1,-1],"split_conditions":[4.5943066E2,4.8E1,6.354609E2,1.6293126E-1,4.3265678E-2,5.15E1,2.9613448E-2,4.626861E2,6.2E1,1.1485935E-3,1.12945195E-2,-2.4598362E-3,9.05E1,1.0611892E-3,5.836487E-3],"split_indices":[3,0,1,0,0,0,0,3,0,0,0,0,0,0,0],"sum_hessian":[1.2E1,2E0,1E1,1E0,1E0,9E0,1E0,6E0,3E0,1E0,5E0,1E0,2E0,1E0,1E0],"tree_param":{"num_deleted":"0","num_feature":"8","num_nodes":"15","size_leaf_vector":"0"}},{"base_weights":[1.1825638E-1,3.8948298E-1,3.3534918E-2,4.6163845E-1,1.2258601E-1,2.010746E-2,8.390474E-2,1.0677406E-2,3.158319E-2,1.4780124E-2,-6.969452E-3,3.0066967E-3,1.653347E-2,3.2542944E-3,1.903969E-2],"default_left":[true,true,true,false,false,true,false,true,false,true,false,false,true,false,false],"id":17,"leaf_child_counts":[0,0,0,0,0,0,0,0,0,0,0,0,0,0,0],"left_children":[1,3,5,-1,-1,7,-1,9,-1,11,-1,-1,13,-1,-1],"loss_changes":[2.8566203E-1,1.1838078E-3,5.7526156E-3,0E0,0E0,7.449412E-4,0E0,6.0980994E-4,0E0,7.41462E-5,0E0,0E0,1.0444189E-4,0E0,0E0],"parents":[2147483647,0,0,1,1,2,2,5,5,7,7,9,9,12,12],"right_children":[2,4,6,-1,-1,8,-1,10,-1,12,-1,-1,14,-1,-1],"split_conditions":[4.5943066E2,4.8E1,6.354609E2,1.3849154E-1,3.6775805E-2,7.1463574E2,2.5171423E-2,1.2593948E2,9.474957E-3,1.1616875E3,-2.0908357E-3,9.02009E-4,3.65E1,9.7628834E-4,5.7119075E-3],"split_indices":[3,0,1,0,0,4,0,1,0,5,0,0,0,0,0],"sum_hessian":[1.2E1,2E0,1E1,1E0,1E0,9E0,1E0,6E0,3E0,5E0,1E0,1E0,4E0,1E0,3E0],"tree_param":{"num_deleted":"0","num_feature":"8","num_nodes":"15","size_leaf_vector":"0"}},{"base_weights":[9.934981E-2,3.3106056E-1,2.7124166E-2,3.9239264E-1,1.0419822E-1,1.5572762E-2,7.13191E-2,8.259876E-3,2.4477124E-2,1.1611183E-2,-5.9239864E-3,2.555728E-3,1.2911129E-2,2.7661324E-3,1.4755845E-2],"default_left":[true,true,true,false,false,true,false,true,false,true,false,false,true,false,false],"id":18,"leaf_child_counts":[0,0,0,0,0,0,0,0,0,0,0,0,0,0,0],"left_children":[1,3,5,-1,-1,7,-1,9,-1,11,-1,-1,13,-1,-1],"loss_changes":[2.0858121E-1,8.5520744E-4,4.505014E-3,0E0,0E0,4.4898782E-4,0E0,4.0152593E-4,0E0,3.7632242E-5,0E0,0E0,5.275657E-5,0E0,0E0],"parents":[2147483647,0,0,1,1,2,2,5,5,7,7,9,9,12,12],"right_children":[2,4,6,-1,-1,8,-1,10,-1,12,-1,-1,14,-1,-1],"split_conditions":[4.5943066E2,4.8E1,6.354609E2,1.17717795E-1,3.1259466E-2,7.1463574E2,2.1395732E-2,1.2593948E2,7.3431376E-3,1.1616875E3,-1.777196E-3,7.667184E-4,3.65E1,8.2983973E-4,4.4267536E-3],"split_indices":[3,0,1,0,0,4,0,1,0,5,0,0,0,0,0],"sum_hessian":[1.2E1,2E0,1E1,1E0,1E0,9E0,1E0,6E0,3E0,5E0,1E0,1E0,4E0,1E0,3E0],"tree_param":{"num_deleted":"0","num_feature":"8","num_nodes":"15","size_leaf_vector":"0"}},{"base_weights":[8.354192E-2,2.814015E-1,2.1985509E-2,3.3353376E-1,8.856845E-2,1.2059808E-2,6.062126E-2,1.652968E-2,4.2840005E-3,2.1723509E-3,1.8966675E-2,7.872701E-3,-5.0354004E-3,2.3511648E-3,8.929491E-3],"default_left":[true,true,true,false,false,true,false,true,true,false,false,true,false,false,false],"id":19,"leaf_child_counts":[0,0,0,0,0,0,0,0,0,0,0,0,0,0,0],"left_children":[1,3,5,-1,-1,7,-1,9,11,-1,-1,13,-1,-1,-1],"loss_changes":[1.5214707E-1,6.1790645E-4,3.487276E-3,0E0,0E0,2.7675543E-4,0E0,1.6873027E-4,2.0686488E-4,0E0,0E0,2.3457105E-6,0E0,0E0,0E0],"parents":[2147483647,0,0,1,1,2,2,5,5,7,7,8,8,11,11],"right_children":[2,4,6,-1,-1,8,-1,10,12,-1,-1,14,-1,-1,-1],"split_conditions":[4.5943066E2,4.8E1,6.354609E2,1.00060135E-1,2.6570536E-2,6.226732E-1,1.818638E-2,1.1616875E3,5.15E1,6.517053E-4,5.690003E-3,4.6873935E2,-1.5106202E-3,7.053495E-4,2.6788474E-3],"split_indices":[3,0,1,0,0,7,0,5,0,0,0,3,0,0,0],"sum_hessian":[1.2E1,2E0,1E1,1E0,1E0,9E0,1E0,5E0,4E0,1E0,4E0,3E0,1E0,1E0,2E0],"tree_param":{"num_deleted":"0","num_feature":"8","num_nodes":"15","size_leaf_vector":"0"}},{"base_weights":[7.0251025E-2,2.3919122E-1,1.7789971E-2,2.8350353E-1,7.528329E-2,9.263372E-3,5.1527977E-2,4.9551725E-3,1.7664114E-2,6.8859374E-3,-4.2800903E-3,2.644221E-3,8.05378E-3,1.8465519E-3,9.143949E-3],"default_left":[true,true,true,false,false,true,false,true,false,true,false,false,true,false,false],"id":20,"leaf_child_counts":[0,0,0,0,0,0,0,0,0,0,0,0,0,0,0],"left_children":[1,3,5,-1,-1,7,-1,9,-1,11,-1,-1,13,-1,-1],"loss_changes":[1.1096094E-1,4.4634938E-4,2.687052E-3,0E0,0E0,2.7439196E-4,0E0,1.7212138E-4,0E0,1.3379613E-5,0E0,0E0,1.6949867E-5,0E0,0E0],"parents":[2147483647,0,0,1,1,2,2,5,5,7,7,9,9,12,12],"right_children":[2,4,6,-1,-1,8,-1,10,-1,12,-1,-1,14,-1,-1],"split_conditions":[4.5943066E2,4.8E1,6.354609E2,8.505106E-2,2.2584988E-2,1.5808125E3,1.5458394E-2,1.2593948E2,5.2992343E-3,-3.2596954E1,-1.2840271E-3,7.9326634E-4,1.1616875E3,5.5396557E-4,2.7431846E-3],"split_indices":[3,0,1,0,0,5,0,1,0,1,0,0,5,0,0],"sum_hessian":[1.2E1,2E0,1E1,1E0,1E0,9E0,1E0,7E0,2E0,6E0,1E0,2E0,4E0,1E0,3E0],"tree_param":{"num_deleted":"0","num_feature":"8","num_nodes":"15","size_leaf_vector":"0"}},{"base_weights":[5.9268072E-2,2.0331271E-1,1.4595162E-2,2.4097824E-1,6.399083E-2,7.2949408E-3,4.3798685E-2,3.819406E-3,1.4131387E-2,5.4044724E-3,-3.638029E-3,2.1154087E-3,6.297016E-3,1.5695095E-3,7.0865154E-3],"default_left":[true,true,true,false,false,true,false,true,false,true,false,false,true,false,false],"id":21,"leaf_child_counts":[0,0,0,0,0,0,0,0,0,0,0,0,0,0,0],"left_children":[1,3,5,-1,-1,7,-1,9,-1,11,-1,-1,13,-1,-1],"loss_changes":[8.068623E-2,3.2250583E-4,2.0256052E-3,0E0,0E0,1.8362963E-4,0E0,1.1422587E-4,0E0,7.228664E-6,0E0,0E0,7.5394637E-6,0E0,0E0],"parents":[2147483647,0,0,1,1,2,2,5,5,7,7,9,9,12,12],"right_children":[2,4,6,-1,-1,8,-1,10,-1,12,-1,-1,14,-1,-1],"split_conditions":[4.5943066E2,4.8E1,6.354609E2,7.2293475E-2,1.919725E-2,1.5808125E3,1.3139606E-2,1.2593948E2,4.239416E-3,-3.2596954E1,-1.0914088E-3,6.3462264E-4,1.1616875E3,4.7085286E-4,2.1259547E-3],"split_indices":[3,0,1,0,0,5,0,1,0,1,0,0,5,0,0],"sum_hessian":[1.2E1,2E0,1E1,1E0,1E0,9E0,1E0,7E0,2E0,6E0,1E0,2E0,4E0,1E0,3E0],"tree_param":{"num_deleted":"0","num_feature":"8","num_nodes":"15","size_leaf_vector":"0"}},{"base_weights":[5.0026838E-2,1.728158E-1,1.1991045E-2,2.048316E-1,5.43921E-2,5.7443855E-3,3.7228823E-2,2.9411018E-3,1.1305015E-2,4.2447704E-3,-3.092289E-3,1.6922951E-3,4.9273013E-3,1.3340712E-3,5.492091E-3],"default_left":[true,true,true,false,false,true,false,true,false,true,false,false,true,false,false],"id":22,"leaf_child_counts":[0,0,0,0,0,0,0,0,0,0,0,0,0,0,0],"left_children":[1,3,5,-1,-1,7,-1,9,-1,11,-1,-1,13,-1,-1],"loss_changes":[5.8642637E-2,2.3306906E-4,1.5203133E-3,0E0,0E0,1.2263103E-4,0E0,7.60504E-5,0E0,3.8565486E-6,0E0,0E0,2.820263E-6,0E0,0E0],"parents":[2147483647,0,0,1,1,2,2,5,5,7,7,9,9,12,12],"right_children":[2,4,6,-1,-1,8,-1,10,-1,12,-1,-1,14,-1,-1],"split_conditions":[4.5943066E2,4.8E1,6.354609E2,6.1449483E-2,1.631763E-2,1.5808125E3,1.1168648E-2,1.2593948E2,3.3915045E-3,-3.2596954E1,-9.2768675E-4,5.0768856E-4,1.1616875E3,4.0022135E-4,1.6476274E-3],"split_indices":[3,0,1,0,0,5,0,1,0,1,0,0,5,0,0],"sum_hessian":[1.2E1,2E0,1E1,1E0,1E0,9E0,1E0,7E0,2E0,6E0,1E0,2E0,4E0,1E0,3E0],"tree_param":{"num_deleted":"0","num_feature":"8","num_nodes":"15","size_leaf_vector":"0"}},{"base_weights":[4.2246122E-2,1.468935E-1,9.865371E-3,1.7410707E-1,4.6233177E-2,4.5229914E-3,3.1644583E-2,1.1283398E-2,2.518124E-3,3.3364296E-3,-2.3063023E-4,2.1045208E-3,5.363941E-3,2.282381E-3,-2.6283264E-3],"default_left":[true,true,true,false,false,true,false,false,true,true,true,false,false,false,false],"id":23,"leaf_child_counts":[0,0,0,0,0,0,0,0,0,0,0,0,0,0,0],"left_children":[1,3,5,-1,-1,7,-1,-1,9,11,13,-1,-1,-1,-1],"loss_changes":[4.260213E-2,1.6845763E-4,1.1367528E-3,0E0,0E0,1.07124186E-4,0E0,0E0,2.1013366E-5,6.1954415E-6,2.4075156E-5,0E0,0E0,0E0,0E0],"parents":[2147483647,0,0,1,1,2,2,5,5,8,8,9,9,10,10],"right_children":[2,4,6,-1,-1,8,-1,-1,10,12,14,-1,-1,-1,-1],"split_conditions":[4.5943066E2,4.8E1,6.354609E2,5.2232124E-2,1.3869953E-2,-3.2523438E2,9.493375E-3,3.3850195E-3,1.2593948E2,9.05E1,3.65E1,6.3135626E-4,1.6091825E-3,6.8471435E-4,-7.88498E-4],"split_indices":[3,0,1,0,0,1,0,0,1,0,0,0,0,0,0],"sum_hessian":[1.2E1,2E0,1E1,1E0,1E0,9E0,1E0,1E0,8E0,6E0,2E0,5E0,1E0,1E0,1E0],"tree_param":{"num_deleted":"0","num_feature":"8","num_nodes":"15","size_leaf_vector":"0"}},{"base_weights":[3.5812102E-2,1.2485949E-1,8.270806E-3,1.4799118E-1,3.9298058E-2,3.7183047E-3,2.6897907E-2,9.590864E-3,2.0001465E-3,6.484191E-4,3.527701E-3,1.6716957E-3,-2.233982E-3,8.1825256E-4,4.1580996E-3],"default_left":[true,true,true,false,false,true,false,false,true,true,true,false,false,false,false],"id":24,"leaf_child_counts":[0,0,0,0,0,0,0,0,0,0,0,0,0,0,0],"left_children":[1,3,5,-1,-1,7,-1,-1,9,11,13,-1,-1,-1,-1],"loss_changes":[3.084956E-2,1.21776015E-4,8.327842E-4,0E0,0E0,8.1716746E-5,0E0,0E0,1.6296104E-5,2.14315E-5,3.4297555E-6,0E0,0E0,0E0,0E0],"parents":[2147483647,0,0,1,1,2,2,5,5,8,8,9,9,10,10],"right_children":[2,4,6,-1,-1,8,-1,-1,10,12,14,-1,-1,-1,-1],"split_conditions":[4.5943066E2,4.8E1,6.354609E2,4.4397354E-2,1.1789418E-2,-3.2523438E2,8.069373E-3,2.8772594E-3,4.9051276E2,5.15E1,1.1616875E3,5.0150877E-4,-6.701946E-4,2.454758E-4,1.24743E-3],"split_indices":[3,0,1,0,0,1,0,0,3,0,5,0,0,0,0],"sum_hessian":[1.2E1,2E0,1E1,1E0,1E0,9E0,1E0,1E0,8E0,5E0,3E0,4E0,1E0,1E0,2E0],"tree_param":{"num_deleted":"0","num_feature":"8","num_nodes":"15","size_leaf_vector":"0"}},{"base_weights":[3.0334417E-2,1.061306E-1,6.905057E-3,1.257925E-1,3.3403397E-2,3.022933E-3,2.286315E-2,8.1522465E-3,1.5472041E-3,7.5668097E-4,3.9356947E-3,1.410087E-3,-8.02358E-4,-1.899004E-3,6.95467E-4],"default_left":[true,true,true,false,false,true,false,false,true,true,false,false,true,false,false],"id":25,"leaf_child_counts":[0,0,0,0,0,0,0,0,0,0,0,0,0,0,0],"left_children":[1,3,5,-1,-1,7,-1,-1,9,11,-1,-1,13,-1,-1],"loss_changes":[2.2353292E-2,8.7969005E-5,6.123505E-4,0E0,0E0,6.308156E-5,0E0,0E0,1.401535E-5,9.280877E-6,0E0,2.4857218E-7,6.248446E-6,0E0,0E0],"parents":[2147483647,0,0,1,1,2,2,5,5,8,8,9,9,12,12],"right_children":[2,4,6,-1,-1,8,-1,-1,10,12,-1,-1,14,-1,-1],"split_conditions":[4.5943066E2,4.8E1,6.354609E2,3.7737753E-2,1.002102E-2,-3.2523438E2,6.8589454E-3,2.445674E-3,9.05E1,5.15E1,1.1807084E-3,4.2302613E-4,6.2E1,-5.697012E-4,2.0864011E-4],"split_indices":[3,0,1,0,0,1,0,0,0,0,0,0,0,0,0],"sum_hessian":[1.2E1,2E0,1E1,1E0,1E0,9E0,1E0,1E0,8E0,7E0,1E0,5E0,2E0,1E0,1E0],"tree_param":{"num_deleted":"0","num_feature":"8","num_nodes":"15","size_leaf_vector":"0"}},{"base_weights":[2.5719203E-2,9.0210915E-2,5.7924446E-3,1.0692358E-1,2.8392792E-2,2.4849414E-3,1.9433737E-2,6.9293976E-3,1.22118E-3,5.374849E-4,3.3453703E-3,1.0576248E-3,-6.819566E-4,-1.6140938E-3,5.9115887E-4],"default_left":[true,true,true,false,false,true,false,false,true,true,false,false,true,false,false],"id":26,"leaf_child_counts":[0,0,0,0,0,0,0,0,0,0,0,0,0,0,0],"left_children":[1,3,5,-1,-1,7,-1,-1,9,11,-1,-1,13,-1,-1],"loss_changes":[1.6183898E-2,6.357953E-5,4.480131E-4,0E0,0E0,4.770528E-5,0E0,0E0,1.1272601E-5,5.795496E-6,0E0,8.6724367E-7,4.5143406E-6,0E0,0E0],"parents":[2147483647,0,0,1,1,2,2,5,5,8,8,9,9,12,12],"right_children":[2,4,6,-1,-1,8,-1,-1,10,12,-1,-1,14,-1,-1],"split_conditions":[4.5943066E2,4.8E1,6.354609E2,3.2077074E-2,8.517838E-3,-3.2523438E2,5.830121E-3,2.0788193E-3,9.05E1,5.15E1,1.0036111E-3,3.1728746E-4,6.2E1,-4.8422816E-4,1.7734767E-4],"split_indices":[3,0,1,0,0,1,0,0,0,0,0,0,0,0,0],"sum_hessian":[1.2E1,2E0,1E1,1E0,1E0,9E0,1E0,1E0,8E0,7E0,1E0,5E0,2E0,1E0,1E0],"tree_param":{"num_deleted":"0","num_feature":"8","num_nodes":"15","size_leaf_vector":"0"}},{"base_weights":[2.1812512E-2,7.667923E-2,4.8659067E-3,9.088516E-2,2.4133682E-2,2.0487786E-3,1.6518593E-2,5.8898926E-3,9.6755556E-4,3.7759542E-4,2.8436184E-3,7.9325837E-4,-5.7959557E-4,1.0522207E-4,1.110971E-3,-1.3718605E-3,5.0246716E-4],"default_left":[true,true,true,false,false,true,false,false,true,true,false,true,true,false,false,false,false],"id":27,"leaf_child_counts":[0,0,0,0,0,0,0,0,0,0,0,0,0,0,0,0,0],"left_children":[1,3,5,-1,-1,7,-1,-1,9,11,-1,13,15,-1,-1,-1,-1],"loss_changes":[1.1714348E-2,4.5981258E-5,3.272553E-4,0E0,0E0,3.5832207E-5,0E0,0E0,8.887483E-6,3.6427195E-6,0E0,1.1946884E-6,3.2611558E-6,0E0,0E0,0E0,0E0],"parents":[2147483647,0,0,1,1,2,2,5,5,8,8,9,9,11,11,12,12],"right_children":[2,4,6,-1,-1,8,-1,-1,10,12,-1,14,16,-1,-1,-1,-1],"split_conditions":[4.5943066E2,4.8E1,6.354609E2,2.726555E-2,7.240105E-3,-3.2523438E2,4.955578E-3,1.7669678E-3,9.05E1,5.15E1,8.5308554E-4,-3.2596954E1,6.2E1,3.1566622E-5,3.332913E-4,-4.1155817E-4,1.5074015E-4],"split_indices":[3,0,1,0,0,1,0,0,0,0,0,1,0,0,0,0,0],"sum_hessian":[1.2E1,2E0,1E1,1E0,1E0,9E0,1E0,1E0,8E0,7E0,1E0,5E0,2E0,2E0,3E0,1E0,1E0],"tree_param":{"num_deleted":"0","num_feature":"8","num_nodes":"17","size_leaf_vector":"0"}},{"base_weights":[1.8513752E-2,6.5177284E-2,4.1042673E-3,7.725239E-2,2.0513535E-2,1.7065525E-3,1.4040709E-2,5.0063133E-3,7.836554E-4,2.773404E-4,2.4170876E-3,6.1611336E-4,-4.9265224E-4,-1.1661053E-3,4.2712688E-4],"default_left":[true,true,true,false,false,true,false,false,true,true,false,false,true,false,false],"id":28,"leaf_child_counts":[0,0,0,0,0,0,0,0,0,0,0,0,0,0,0],"left_children":[1,3,5,-1,-1,7,-1,-1,9,11,-1,-1,13,-1,-1],"loss_changes":[8.473661E-3,3.3238903E-5,2.3811107E-4,0E0,0E0,2.6530173E-5,0E0,0E0,6.772924E-6,2.390351E-6,0E0,7.6634706E-7,2.356359E-6,0E0,0E0],"parents":[2147483647,0,0,1,1,2,2,5,5,8,8,9,9,12,12],"right_children":[2,4,6,-1,-1,8,-1,-1,10,12,-1,-1,14,-1,-1],"split_conditions":[4.5943066E2,4.8E1,6.354609E2,2.3175716E-2,6.154061E-3,-3.2523438E2,4.2122127E-3,1.5018941E-3,9.05E1,5.15E1,7.251263E-4,1.8483402E-4,6.2E1,-3.498316E-4,1.2813807E-4],"split_indices":[3,0,1,0,0,1,0,0,0,0,0,0,0,0,0],"sum_hessian":[1.2E1,2E0,1E1,1E0,1E0,9E0,1E0,1E0,8E0,7E0,1E0,5E0,2E0,1E0,1E0],"tree_param":{"num_deleted":"0","num_feature":"8","num_nodes":"15","size_leaf_vector":"0"}},{"base_weights":[1.5708208E-2,5.540053E-2,3.4550102E-3,6.566429E-2,1.7436504E-2,1.4136076E-3,1.1934519E-2,4.255295E-3,6.2505406E-4,1.8954277E-4,2.054572E-3,1.060009E-3,-8.623941E-5,2.2975604E-4,-9.91106E-4],"default_left":[true,true,true,false,false,true,false,false,true,true,false,false,true,false,false],"id":29,"leaf_child_counts":[0,0,0,0,0,0,0,0,0,0,0,0,0,0,0],"left_children":[1,3,5,-1,-1,7,-1,-1,9,11,-1,-1,13,-1,-1],"loss_changes":[6.131243E-3,2.400484E-5,1.7354028E-4,0E0,0E0,1.9748437E-5,0E0,0E0,5.213712E-6,2.011887E-6,0E0,0E0,2.2292486E-6,0E0,0E0],"parents":[2147483647,0,0,1,1,2,2,5,5,8,8,9,9,12,12],"right_children":[2,4,6,-1,-1,8,-1,-1,10,12,-1,-1,14,-1,-1],"split_conditions":[4.5943066E2,4.8E1,6.354609E2,1.9699289E-2,5.2309516E-3,-3.2523438E2,3.5803558E-3,1.2765885E-3,9.05E1,2.15E1,6.1637163E-4,3.180027E-4,9.241281E1,6.892681E-5,-2.9733183E-4],"split_indices":[3,0,1,0,0,1,0,0,0,0,0,0,1,0,0],"sum_hessian":[1.2E1,2E0,1E1,1E0,1E0,9E0,1E0,1E0,8E0,7E0,1E0,1E0,6E0,5E0,1E0],"tree_param":{"num_deleted":"0","num_feature":"8","num_nodes":"15","size_leaf_vector":"0"}},{"base_weights":[1.33413905E-2,4.709053E-2,2.9242255E-3,5.5814743E-2,1.4821053E-2,1.1878014E-3,1.0144234E-2,3.6170483E-3,5.159908E-4,1.4388561E-4,1.7464161E-3,9.009838E-4,-9.2983246E-5,1.7229716E-4,-8.4233284E-4],"default_left":[true,true,true,false,false,true,false,false,true,true,false,false,true,false,false],"id":30,"leaf_child_counts":[0,0,0,0,0,0,0,0,0,0,0,0,0,0,0],"left_children":[1,3,5,-1,-1,7,-1,-1,9,11,-1,-1,13,-1,-1],"loss_changes":[4.4327113E-3,1.7344486E-5,1.2585762E-4,0E0,0E0,1.4453575E-5,0E0,0E0,3.8693443E-6,1.5184403E-6,0E0,0E0,1.5366459E-6,0E0,0E0],"parents":[2147483647,0,0,1,1,2,2,5,5,8,8,9,9,12,12],"right_children":[2,4,6,-1,-1,8,-1,-1,10,12,-1,-1,14,-1,-1],"split_conditions":[4.5943066E2,4.8E1,6.354609E2,1.6744424E-2,4.446316E-3,-3.2523438E2,3.0432702E-3,1.0851145E-3,9.05E1,2.15E1,5.239248E-4,2.7029516E-4,9.241281E1,5.1689152E-5,-2.5269986E-4],"split_indices":[3,0,1,0,0,1,0,0,0,0,0,0,1,0,0],"sum_hessian":[1.2E1,2E0,1E1,1E0,1E0,9E0,1E0,1E0,8E0,7E0,1E0,1E0,6E0,5E0,1E0],"tree_param":{"num_deleted":"0","num_feature":"8","num_nodes":"15","size_leaf_vector":"0"}},{"base_weights":[1.1332237E-2,4.002698E-2,2.4761937E-3,4.7442436E-2,1.2598038E-2,9.992837E-4,8.622646E-3,3.0744076E-3,4.2711364E-4,-7.661184E-5,1.0759234E-3,7.658005E-4,-3.982544E-4],"default_left":[true,true,true,false,false,true,false,false,true,true,false,false,false],"id":31,"leaf_child_counts":[0,0,0,0,0,0,0,0,0,0,0,0,0],"left_children":[1,3,5,-1,-1,7,-1,-1,9,11,-1,-1,-1],"loss_changes":[3.20447E-3,1.2512784E-5,9.123885E-5,0E0,0E0,1.05601175E-5,0E0,0E0,3.0238266E-6,1.9307172E-6,3.7089376E-7,0E0,3.1040867E-7],"parents":[2147483647,0,0,1,1,2,2,5,5,8,8,9,9],"right_children":[2,4,6,-1,-1,8,-1,-1,10,12,-1,-1,-1],"split_conditions":[4.5943066E2,4.8E1,6.354609E2,1.4232731E-2,3.7794115E-3,-3.2523438E2,2.586794E-3,9.2232233E-4,4.9051276E2,2.15E1,3.2277705E-4,2.2974015E-4,-1.19476324E-4],"split_indices":[3,0,1,0,0,1,0,0,3,0,0,0,0],"sum_hessian":[1.2E1,2E0,1E1,1E0,1E0,9E0,1E0,1E0,8E0,5E0,3E0,1E0,4E0],"tree_param":{"num_deleted":"0","num_feature":"8","num_nodes":"13","size_leaf_vector":"0"}},{"base_weights":[9.621382E-3,3.402297E-2,2.0917328E-3,4.032612E-2,1.0708332E-2,8.350611E-4,7.3292255E-3,2.613306E-3,3.4711097E-4,5.9723854E-5,1.3231039E-3],"default_left":[true,true,true,false,false,true,false,false,true,false,false],"id":32,"leaf_child_counts":[0,0,0,0,0,0,0,0,0,0,0],"left_children":[1,3,5,-1,-1,7,-1,-1,9,-1,-1],"loss_changes":[2.3173927E-3,9.041745E-6,6.627955E-5,0E0,0E0,7.7698405E-6,0E0,0E0,2.4453693E-6,9.1575174E-7,0E0],"parents":[2147483647,0,0,1,1,2,2,5,5,8,8],"right_children":[2,4,6,-1,-1,8,-1,-1,10,-1,-1],"split_conditions":[4.5943066E2,4.8E1,6.354609E2,1.20978365E-2,3.2124997E-3,-3.2523438E2,2.1987678E-3,7.839918E-4,9.05E1,1.7917157E-5,3.969312E-4],"split_indices":[3,0,1,0,0,1,0,0,0,0,0],"sum_hessian":[1.2E1,2E0,1E1,1E0,1E0,9E0,1E0,1E0,8E0,7E0,1E0],"tree_param":{"num_deleted":"0","num_feature":"8","num_nodes":"11","size_leaf_vector":"0"}},{"base_weights":[8.173943E-3,2.891922E-2,1.7730539E-3,3.4276962E-2,9.101868E-3,7.043838E-4,6.2298775E-3,1.6468763E-4,1.9087791E-3,-1.3310568E-4,1.1246204E-3],"default_left":[true,true,true,false,false,true,false,true,false,false,false],"id":33,"leaf_child_counts":[0,0,0,0,0,0,0,0,0,0,0],"left_children":[1,3,5,-1,-1,7,-1,9,-1,-1,-1],"loss_changes":[1.6749715E-3,6.5444037E-6,4.8003385E-5,0E0,0E0,6.185724E-6,0E0,2.4365859E-6,0E0,7.8741493E-7,0E0],"parents":[2147483647,0,0,1,1,2,2,5,5,7,7],"right_children":[2,4,6,-1,-1,8,-1,10,-1,-1,-1],"split_conditions":[4.5943066E2,4.8E1,6.354609E2,1.0283089E-2,2.7305605E-3,1.5808125E3,1.8689634E-3,9.05E1,5.7263375E-4,-3.9931707E-5,3.3738615E-4],"split_indices":[3,0,1,0,0,5,0,0,0,0,0],"sum_hessian":[1.2E1,2E0,1E1,1E0,1E0,9E0,1E0,7E0,2E0,6E0,1E0],"tree_param":{"num_deleted":"0","num_feature":"8","num_nodes":"11","size_leaf_vector":"0"}},{"base_weights":[6.9334507E-3,2.4581274E-2,1.4900945E-3,2.9135227E-2,7.736683E-3,5.8004854E-4,5.2952766E-3,1.9350052E-3,2.1449725E-4,-1.19050346E-4,6.611943E-4],"default_left":[true,true,true,false,false,true,false,false,true,false,false],"id":34,"leaf_child_counts":[0,0,0,0,0,0,0,0,0,0,0],"left_children":[1,3,5,-1,-1,7,-1,-1,9,-1,-1],"loss_changes":[1.2121956E-3,4.7184294E-6,3.5020275E-5,0E0,0E0,4.538009E-6,0E0,0E0,1.419668E-6,8.137863E-7,2.5797488E-7],"parents":[2147483647,0,0,1,1,2,2,5,5,8,8],"right_children":[2,4,6,-1,-1,8,-1,-1,10,-1,-1],"split_conditions":[4.5943066E2,4.8E1,6.354609E2,8.7405685E-3,2.3210049E-3,-3.2523438E2,1.5885831E-3,5.8050157E-4,4.9051276E2,-3.5715104E-5,1.983583E-4],"split_indices":[3,0,1,0,0,1,0,0,3,0,0],"sum_hessian":[1.2E1,2E0,1E1,1E0,1E0,9E0,1E0,1E0,8E0,5E0,3E0],"tree_param":{"num_deleted":"0","num_feature":"8","num_nodes":"11","size_leaf_vector":"0"}},{"base_weights":[5.8836755E-3,2.089405E-2,1.255057E-3,2.4765015E-2,6.5760612E-3,4.803896E-4,4.500866E-3,1.6448498E-3,1.6824405E-4,-2.4914742E-5,8.5675716E-4],"default_left":[true,true,true,false,false,true,false,false,true,false,false],"id":35,"leaf_child_counts":[0,0,0,0,0,0,0,0,0,0,0],"left_children":[1,3,5,-1,-1,7,-1,-1,9,-1,-1],"loss_changes":[8.7698165E-4,3.4170225E-6,2.5496478E-5,0E0,0E0,3.3580743E-6,0E0,0E0,1.218277E-6,5.8457715E-7,0E0],"parents":[2147483647,0,0,1,1,2,2,5,5,8,8],"right_children":[2,4,6,-1,-1,8,-1,-1,10,-1,-1],"split_conditions":[4.5943066E2,4.8E1,6.354609E2,7.4295048E-3,1.9728185E-3,-3.2523438E2,1.3502599E-3,4.93455E-4,9.05E1,-7.4744225E-6,2.5702716E-4],"split_indices":[3,0,1,0,0,1,0,0,0,0,0],"sum_hessian":[1.2E1,2E0,1E1,1E0,1E0,9E0,1E0,1E0,8E0,7E0,1E0],"tree_param":{"num_deleted":"0","num_feature":"8","num_nodes":"11","size_leaf_vector":"0"}},{"base_weights":[5.002847E-3,1.7759958E-2,1.0688305E-3,2.1050453E-2,5.589485E-3,4.1058063E-4,3.8256645E-3,6.940961E-5,1.1835098E-3,2.57458E-4,-6.234646E-4],"default_left":[true,true,true,false,false,true,false,true,false,false,false],"id":36,"leaf_child_counts":[0,0,0,0,0,0,0,0,0,0,0],"left_children":[1,3,5,-1,-1,7,-1,9,-1,-1,-1],"loss_changes":[6.334446E-4,2.4794717E-6,1.8390796E-5,0E0,0E0,2.5548636E-6,0E0,1.202867E-6,0E0,6.1662126E-7,0E0],"parents":[2147483647,0,0,1,1,2,2,5,5,7,7],"right_children":[2,4,6,-1,-1,8,-1,10,-1,-1,-1],"split_conditions":[4.5943066E2,4.8E1,6.354609E2,6.3151363E-3,1.6768456E-3,1.5808125E3,1.1476994E-3,1.2593948E2,3.5505297E-4,7.7237404E-5,-1.8703939E-4],"split_indices":[3,0,1,0,0,5,0,1,0,0,0],"sum_hessian":[1.2E1,2E0,1E1,1E0,1E0,9E0,1E0,7E0,2E0,6E0,1E0],"tree_param":{"num_deleted":"0","num_feature":"8","num_nodes":"11","size_leaf_vector":"0"}},{"base_weights":[4.2238785E-3,1.5096028E-2,8.7475777E-4,1.7892838E-2,4.7512054E-3,3.1187534E-4,3.251791E-3,1.2204647E-3,7.531378E-5],"default_left":[true,true,true,false,false,true,false,false,false],"id":37,"leaf_child_counts":[0,0,0,0,0,0,0,0,0],"left_children":[1,3,5,-1,-1,7,-1,-1,-1],"loss_changes":[4.601525E-4,1.7849379E-6,1.370374E-5,0E0,0E0,2.0574553E-6,0E0,0E0,9.616178E-7],"parents":[2147483647,0,0,1,1,2,2,5,5],"right_children":[2,4,6,-1,-1,8,-1,-1,-1],"split_conditions":[4.5943066E2,4.8E1,6.354609E2,5.3678514E-3,1.4253617E-3,-3.2523438E2,9.7553735E-4,3.6613943E-4,2.2594135E-5],"split_indices":[3,0,1,0,0,1,0,0,0],"sum_hessian":[1.2E1,2E0,1E1,1E0,1E0,9E0,1E0,1E0,8E0],"tree_param":{"num_deleted":"0","num_feature":"8","num_nodes":"9","size_leaf_vector":"0"}},{"base_weights":[3.584165E-3,1.283137E-2,7.363666E-4,1.5208721E-2,4.038334E-3,2.5720597E-4,2.7639866E-3,1.0373592E-3,5.5260127E-5],"default_left":[true,true,true,false,false,true,false,false,false],"id":38,"leaf_child_counts":[0,0,0,0,0,0,0,0,0],"left_children":[1,3,5,-1,-1,7,-1,-1,-1],"loss_changes":[3.3289567E-4,1.2944802E-6,9.976198E-6,0E0,0E0,1.5181623E-6,0E0,0E0,9.849921E-7],"parents":[2147483647,0,0,1,1,2,2,5,5],"right_children":[2,4,6,-1,-1,8,-1,-1,-1],"split_conditions":[4.5943066E2,4.8E1,6.354609E2,4.5626163E-3,1.2115003E-3,-3.2523438E2,8.29196E-4,3.1120778E-4,1.6578038E-5],"split_indices":[3,0,1,0,0,1,0,0,0],"sum_hessian":[1.2E1,2E0,1E1,1E0,1E0,9E0,1E0,1E0,8E0],"tree_param":{"num_deleted":"0","num_feature":"8","num_nodes":"9","size_leaf_vector":"0"}},{"base_weights":[3.0420376E-3,1.0906856E-2,6.2053854E-4,2.1271706E-4,2.3493767E-3,5.147457E-4,-1.9226075E-4],"default_left":[true,false,true,true,false,false,false],"id":39,"leaf_child_counts":[0,0,0,0,0,0,0],"left_children":[1,-1,3,5,-1,-1,-1],"loss_changes":[2.4081231E-4,9.3126437E-7,7.255878E-6,1.3221144E-6,0E0,8.13381E-7,4.2394765E-7],"parents":[2147483647,0,0,2,2,3,3],"right_children":[2,-1,4,6,-1,-1,-1],"split_conditions":[4.5943066E2,3.2720568E-3,6.354609E2,6.226732E-1,7.0481305E-4,1.5442372E-4,-5.7678226E-5],"split_indices":[3,0,1,7,0,0,0],"sum_hessian":[1.2E1,2E0,1E1,9E0,1E0,5E0,4E0],"tree_param":{"num_deleted":"0","num_feature":"8","num_nodes":"7","size_leaf_vector":"0"}},{"base_weights":[2.4427634E-3,1.1291504E-2,7.644097E-4,3.970623E-4,1.7340978E-3,-2.5961135E-6,1.996994E-3],"default_left":[true,false,true,true,false,false,false],"id":40,"leaf_child_counts":[0,0,0,0,0,0,0],"left_children":[1,-1,3,5,-1,-1,-1],"loss_changes":[1.8443578E-4,0E0,3.5860035E-6,6.3994466E-6,0E0,8.8519056E-7,0E0],"parents":[2147483647,0,0,2,2,3,3],"right_children":[2,-1,4,6,-1,-1,-1],"split_conditions":[4.5257803E2,3.3874514E-3,1.6361875E3,6.354609E2,5.202294E-4,-7.788341E-7,5.990982E-4],"split_indices":[3,0,5,1,0,0,0],"sum_hessian":[1.2E1,1E0,1.1E1,9E0,2E0,8E0,1E0],"tree_param":{"num_deleted":"0","num_feature":"8","num_nodes":"7","size_leaf_vector":"0"}},{"base_weights":[2.0565437E-3,9.597778E-3,6.2829256E-4,3.7676637E-4,1.6975403E-3,-1.8808577E-6,1.3871193E-3],"default_left":[true,false,true,true,false,false,false],"id":41,"leaf_child_counts":[0,0,0,0,0,0,0],"left_children":[1,-1,3,5,-1,-1,-1],"loss_changes":[1.3398987E-4,0E0,2.5877493E-6,4.21085E-6,0E0,8.843424E-7,0E0],"parents":[2147483647,0,0,2,2,3,3],"right_children":[2,-1,4,6,-1,-1,-1],"split_conditions":[4.5257803E2,2.8793337E-3,6.354609E2,1.6361875E3,5.092621E-4,-5.6425733E-7,4.161358E-4],"split_indices":[3,0,1,5,0,0,0],"sum_hessian":[1.2E1,1E0,1.1E1,1E1,1E0,8E0,2E0],"tree_param":{"num_deleted":"0","num_feature":"8","num_nodes":"7","size_leaf_vector":"0"}},{"base_weights":[1.7321843E-3,8.158207E-3,5.168319E-4,3.0146947E-4,1.4429092E-3,-1.4570024E-6,1.109759E-3],"default_left":[true,false,true,true,false,false,false],"id":42,"leaf_child_counts":[0,0,0,0,0,0,0],"left_children":[1,-1,3,5,-1,-1,-1],"loss_changes":[9.731205E-5,0E0,1.958314E-6,2.694992E-6,0E0,8.8391835E-7,6.098185E-8],"parents":[2147483647,0,0,2,2,3,3],"right_children":[2,-1,4,6,-1,-1,-1],"split_conditions":[4.5257803E2,2.4474622E-3,6.354609E2,1.6361875E3,4.328728E-4,-4.3710074E-7,3.329277E-4],"split_indices":[3,0,1,5,0,0,0],"sum_hessian":[1.2E1,1E0,1.1E1,1E1,1E0,8E0,2E0],"tree_param":{"num_deleted":"0","num_feature":"8","num_nodes":"7","size_leaf_vector":"0"}},{"base_weights":[1.459727E-3,6.934643E-3,4.2559704E-4,2.4130127E-4,1.2264252E-3,-8.764863E-5,8.3887577E-4,-7.7843666E-5,1.1703968E-3],"default_left":[true,false,true,true,false,false,true,false,false],"id":43,"leaf_child_counts":[0,0,0,0,0,0,0,0,0],"left_children":[1,-1,3,5,-1,-1,7,-1,-1],"loss_changes":[7.0651695E-5,0E0,1.4751326E-6,2.235819E-6,0E0,4.951782E-7,1.3067552E-6,0E0,0E0],"parents":[2147483647,0,0,2,2,3,3,6,6],"right_children":[2,-1,4,6,-1,-1,8,-1,-1],"split_conditions":[4.5257803E2,2.080393E-3,6.354609E2,5.5E1,3.6792757E-4,-2.629459E-5,6.2136694E2,-2.3353101E-5,3.5111906E-4],"split_indices":[3,0,1,0,0,0,4,0,0],"sum_hessian":[1.2E1,1E0,1.1E1,1E1,1E0,7E0,3E0,1E0,2E0],"tree_param":{"num_deleted":"0","num_feature":"8","num_nodes":"9","size_leaf_vector":"0"}},{"base_weights":[1.2333209E-3,5.894661E-3,3.5365424E-4,1.9628351E-4,1.042366E-3,-7.8201294E-5,6.9618225E-4],"default_left":[true,false,true,true,false,false,false],"id":44,"leaf_child_counts":[0,0,0,0,0,0,0],"left_children":[1,-1,3,5,-1,-1,-1],"loss_changes":[5.122086E-5,0E0,1.0959976E-6,1.563803E-6,0E0,6.055799E-7,2.2753807E-7],"parents":[2147483647,0,0,2,2,3,3],"right_children":[2,-1,4,6,-1,-1,-1],"split_conditions":[4.5257803E2,1.7683983E-3,6.354609E2,1.5808125E3,3.1270983E-4,-2.3460389E-5,2.0885469E-4],"split_indices":[3,0,1,5,0,0,0],"sum_hessian":[1.2E1,1E0,1.1E1,1E1,1E0,7E0,3E0],"tree_param":{"num_deleted":"0","num_feature":"8","num_nodes":"7","size_leaf_vector":"0"}},{"base_weights":[1.0376343E-3,5.010605E-3,2.8900304E-4],"default_left":[true,false,false],"id":45,"leaf_child_counts":[0,0,0],"left_children":[1,-1,-1],"loss_changes":[3.721769E-5,0E0,9.217415E-7],"parents":[2147483647,0,0],"right_children":[2,-1,-1],"split_conditions":[4.5257803E2,1.5031815E-3,8.6700915E-5],"split_indices":[3,0,0],"sum_hessian":[1.2E1,1E0,1.1E1],"tree_param":{"num_deleted":"0","num_feature":"8","num_nodes":"3","size_leaf_vector":"0"}},{"base_weights":[8.4858673E-4,4.2591095E-3,2.0945072E-4],"default_left":[true,false,false],"id":46,"leaf_child_counts":[0,0,0],"left_children":[1,-1,-1],"loss_changes":[2.7445169E-5,0E0,9.557832E-7],"parents":[2147483647,0,0],"right_children":[2,-1,-1],"split_conditions":[4.5257803E2,1.2777329E-3,6.283522E-5],"split_indices":[3,0,0],"sum_hessian":[1.2E1,1E0,1.1E1],"tree_param":{"num_deleted":"0","num_feature":"8","num_nodes":"3","size_leaf_vector":"0"}},{"base_weights":[6.970259E-4,3.6201477E-3,1.5175343E-4,1.8076464E-5,8.111E-4,8.072853E-4,-1.4157295E-4],"default_left":[true,false,true,true,false,false,false],"id":47,"leaf_child_counts":[0,0,0,0,0,0,0],"left_children":[1,-1,3,5,-1,-1,-1],"loss_changes":[2.0171303E-5,0E0,1.0430115E-6,1.5002538E-6,0E0,0E0,5.5315047E-7],"parents":[2147483647,0,0,2,2,3,3],"right_children":[2,-1,4,6,-1,-1,-1],"split_conditions":[4.5257803E2,1.0860444E-3,6.354609E2,4.5943066E2,2.4333001E-4,2.421856E-4,-4.2471886E-5],"split_indices":[3,0,1,3,0,0,0],"sum_hessian":[1.2E1,1E0,1.1E1,1E1,1E0,1E0,9E0],"tree_param":{"num_deleted":"0","num_feature":"8","num_nodes":"7","size_leaf_vector":"0"}},{"base_weights":[6.0550985E-4,3.0770302E-3,1.4313062E-4],"default_left":[true,false,false],"id":48,"leaf_child_counts":[0,0,0],"left_children":[1,-1,-1],"loss_changes":[1.44157175E-5,0E0,7.365537E-7],"parents":[2147483647,0,0],"right_children":[2,-1,-1],"split_conditions":[4.5257803E2,9.2310907E-4,4.2939188E-5],"split_indices":[3,0,0],"sum_hessian":[1.2E1,1E0,1.1E1],"tree_param":{"num_deleted":"0","num_feature":"8","num_nodes":"3","size_leaf_vector":"0"}},{"base_weights":[4.981848E-4,2.1867752E-3,-7.6293945E-6,4.464984E-4,-2.3373961E-4],"default_left":[true,false,true,false,false],"id":49,"leaf_child_counts":[0,0,0,0,0],"left_children":[1,-1,3,-1,-1],"loss_changes":[1.11201525E-5,2.1889991E-7,1.2338767E-6,6.3035804E-7,2.889472E-7],"parents":[2147483647,0,0,2,2],"right_children":[2,-1,4,-1,-1],"split_conditions":[4.5943066E2,6.560326E-4,1.35175E3,1.3394952E-4,-7.012189E-5],"split_indices":[3,0,5,0,0],"sum_hessian":[1.2E1,2E0,1E1,3E0,7E0],"tree_param":{"num_deleted":"0","num_feature":"8","num_nodes":"5","size_leaf_vector":"0"}},{"base_weights":[4.0406449E-4,2.2873878E-3,5.6505203E-5],"default_left":[true,false,false],"id":50,"leaf_child_counts":[0,0,0],"left_children":[1,-1,-1],"loss_changes":[8.380115E-6,0E0,7.0918156E-7],"parents":[2147483647,0,0],"right_children":[2,-1,-1],"split_conditions":[4.5257803E2,6.862164E-4,1.6951562E-5],"split_indices":[3,0,0],"sum_hessian":[1.2E1,1E0,1.1E1],"tree_param":{"num_deleted":"0","num_feature":"8","num_nodes":"3","size_leaf_vector":"0"}},{"base_weights":[3.3681208E-4,1.9440651E-3,4.086892E-5],"default_left":[true,false,false],"id":51,"leaf_child_counts":[0,0,0],"left_children":[1,-1,-1],"loss_changes":[6.1040705E-6,0E0,7.2584845E-7],"parents":[2147483647,0,0],"right_children":[2,-1,-1],"split_conditions":[4.5257803E2,5.832196E-4,1.2260676E-5],"split_indices":[3,0,0],"sum_hessian":[1.2E1,1E0,1.1E1],"tree_param":{"num_deleted":"0","num_feature":"8","num_nodes":"3","size_leaf_vector":"0"}},{"base_weights":[2.8151734E-4,1.6522408E-3,2.960364E-5],"default_left":[true,false,false],"id":52,"leaf_child_counts":[0,0,0],"left_children":[1,-1,-1],"loss_changes":[4.4400394E-6,0E0,7.376368E-7],"parents":[2147483647,0,0],"right_children":[2,-1,-1],"split_conditions":[4.5257803E2,4.956722E-4,8.881092E-6],"split_indices":[3,0,0],"sum_hessian":[1.2E1,1E0,1.1E1],"tree_param":{"num_deleted":"0","num_feature":"8","num_nodes":"3","size_leaf_vector":"0"}},{"base_weights":[2.3583266E-4,1.147906E-3,-3.435395E-5],"default_left":[true,false,false],"id":53,"leaf_child_counts":[0,0,0],"left_children":[1,-1,-1],"loss_changes":[3.2430253E-6,1.9267645E-7,9.0144783E-7],"parents":[2147483647,0,0],"right_children":[2,-1,-1],"split_conditions":[4.5943066E2,3.443718E-4,-1.0306186E-5],"split_indices":[3,0,0],"sum_hessian":[1.2E1,2E0,1E1],"tree_param":{"num_deleted":"0","num_feature":"8","num_nodes":"3","size_leaf_vector":"0"}},{"base_weights":[1.908449E-4,1.2321472E-3,1.3907751E-6],"default_left":[true,false,false],"id":54,"leaf_child_counts":[0,0,0],"left_children":[1,-1,-1],"loss_changes":[2.5629136E-6,0E0,8.108383E-7],"parents":[2147483647,0,0],"right_children":[2,-1,-1],"split_conditions":[4.5257803E2,3.6964417E-4,4.1723254E-7],"split_indices":[3,0,0],"sum_hessian":[1.2E1,1E0,1.1E1],"tree_param":{"num_deleted":"0","num_feature":"8","num_nodes":"3","size_leaf_vector":"0"}},{"base_weights":[1.6201459E-4,1.0471344E-3,9.934107E-7],"default_left":[true,false,false],"id":55,"leaf_child_counts":[0,0,0],"left_children":[1,-1,-1],"loss_changes":[1.8517592E-6,0E0,8.1119464E-7],"parents":[2147483647,0,0],"right_children":[2,-1,-1],"split_conditions":[4.5257803E2,3.1414034E-4,2.9802322E-7],"split_indices":[3,0,0],"sum_hessian":[1.2E1,1E0,1.1E1],"tree_param":{"num_deleted":"0","num_feature":"8","num_nodes":"3","size_leaf_vector":"0"}},{"base_weights":[1.376042E-4,8.90255E-4,6.9538754E-7],"default_left":[true,false,false],"id":56,"leaf_child_counts":[0,0,0],"left_children":[1,-1,-1],"loss_changes":[1.3389597E-6,0E0,8.112967E-7],"parents":[2147483647,0,0],"right_children":[2,-1,-1],"split_conditions":[4.5257803E2,2.670765E-4,2.0861627E-7],"split_indices":[3,0,0],"sum_hessian":[1.2E1,1E0,1.1E1],"tree_param":{"num_deleted":"0","num_feature":"8","num_nodes":"3","size_leaf_vector":"0"}},{"base_weights":[1.1697182E-4],"default_left":[false],"id":57,"leaf_child_counts":[0],"left_children":[-1],"loss_changes":[9.674457E-7],"parents":[2147483647],"right_children":[-1],"split_conditions":[3.5091547E-5],"split_indices":[0],"sum_hessian":[1.2E1],"tree_param":{"num_deleted":"0","num_feature":"8","num_nodes":"1","size_leaf_vector":"0"}},{"base_weights":[8.4491876E-5,7.390976E-4,-3.1650066E-5],"default_left":[true,false,false],"id":58,"leaf_child_counts":[0,0,0],"left_children":[1,-1,-1],"loss_changes":[1.0117458E-6,0E0,8.445534E-7],"parents":[2147483647,0,0],"right_children":[2,-1,-1],"split_conditions":[4.5257803E2,2.217293E-4,-9.49502E-6],"split_indices":[3,0,0],"sum_hessian":[1.2E1,1E0,1.1E1],"tree_param":{"num_deleted":"0","num_feature":"8","num_nodes":"3","size_leaf_vector":"0"}},{"base_weights":[7.546865E-5],"default_left":[false],"id":59,"leaf_child_counts":[0],"left_children":[-1],"loss_changes":[7.4953164E-7],"parents":[2147483647],"right_children":[-1],"split_conditions":[2.2640595E-5],"split_indices":[0],"sum_hessian":[1.2E1],"tree_param":{"num_deleted":"0","num_feature":"8","num_nodes":"1","size_leaf_vector":"0"}},{"base_weights":[5.4616194E-5],"default_left":[false],"id":60,"leaf_child_counts":[0],"left_children":[-1],"loss_changes":[7.552501E-7],"parents":[2147483647],"right_children":[-1],"split_conditions":[1.6384858E-5],"split_indices":[0],"sum_hessian":[1.2E1],"tree_param":{"num_deleted":"0","num_feature":"8","num_nodes":"1","size_leaf_vector":"0"}},{"base_weights":[3.9559145E-5],"default_left":[false],"id":61,"leaf_child_counts":[0],"left_children":[-1],"loss_changes":[7.612042E-7],"parents":[2147483647],"right_children":[-1],"split_conditions":[1.1867744E-5],"split_indices":[0],"sum_hessian":[1.2E1],"tree_param":{"num_deleted":"0","num_feature":"8","num_nodes":"1","size_leaf_vector":"0"}},{"base_weights":[2.8628569E-5],"default_left":[false],"id":62,"leaf_child_counts":[0],"left_children":[-1],"loss_changes":[7.737553E-7],"parents":[2147483647],"right_children":[-1],"split_conditions":[8.588571E-6],"split_indices":[0],"sum_hessian":[1.2E1],"tree_param":{"num_deleted":"0","num_feature":"8","num_nodes":"1","size_leaf_vector":"0"}},{"base_weights":[2.0705736E-5],"default_left":[false],"id":63,"leaf_child_counts":[0],"left_children":[-1],"loss_changes":[7.823819E-7],"parents":[2147483647],"right_children":[-1],"split_conditions":[6.211721E-6],"split_indices":[0],"sum_hessian":[1.2E1],"tree_param":{"num_deleted":"0","num_feature":"8","num_nodes":"1","size_leaf_vector":"0"}},{"base_weights":[1.4910331E-5],"default_left":[false],"id":64,"leaf_child_counts":[0],"left_children":[-1],"loss_changes":[7.88107E-7],"parents":[2147483647],"right_children":[-1],"split_conditions":[4.4730996E-6],"split_indices":[0],"sum_hessian":[1.2E1],"tree_param":{"num_deleted":"0","num_feature":"8","num_nodes":"1","size_leaf_vector":"0"}},{"base_weights":[1.0783856E-5],"default_left":[false],"id":65,"leaf_child_counts":[0],"left_children":[-1],"loss_changes":[7.9213675E-7],"parents":[2147483647],"right_children":[-1],"split_conditions":[3.235157E-6],"split_indices":[0],"sum_hessian":[1.2E1],"tree_param":{"num_deleted":"0","num_feature":"8","num_nodes":"1","size_leaf_vector":"0"}},{"base_weights":[7.776113E-6],"default_left":[false],"id":66,"leaf_child_counts":[0],"left_children":[-1],"loss_changes":[7.958976E-7],"parents":[2147483647],"right_children":[-1],"split_conditions":[2.3328341E-6],"split_indices":[0],"sum_hessian":[1.2E1],"tree_param":{"num_deleted":"0","num_feature":"8","num_nodes":"1","size_leaf_vector":"0"}},{"base_weights":[5.6486865E-6],"default_left":[false],"id":67,"leaf_child_counts":[0],"left_children":[-1],"loss_changes":[7.987116E-7],"parents":[2147483647],"right_children":[-1],"split_conditions":[1.694606E-6],"split_indices":[0],"sum_hessian":[1.2E1],"tree_param":{"num_deleted":"0","num_feature":"8","num_nodes":"1","size_leaf_vector":"0"}},{"base_weights":[3.9797565E-6],"default_left":[false],"id":68,"leaf_child_counts":[0],"left_children":[-1],"loss_changes":[8.0035477E-7],"parents":[2147483647],"right_children":[-1],"split_conditions":[1.193927E-6],"split_indices":[0],"sum_hessian":[1.2E1],"tree_param":{"num_deleted":"0","num_feature":"8","num_nodes":"1","size_leaf_vector":"0"}},{"base_weights":[2.8243433E-6],"default_left":[false],"id":69,"leaf_child_counts":[0],"left_children":[-1],"loss_changes":[8.01992E-7],"parents":[2147483647],"right_children":[-1],"split_conditions":[8.47303E-7],"split_indices":[0],"sum_hessian":[1.2E1],"tree_param":{"num_deleted":"0","num_feature":"8","num_nodes":"1","size_leaf_vector":"0"}},{"base_weights":[1.9440283E-6],"default_left":[false],"id":70,"leaf_child_counts":[0],"left_children":[-1],"loss_changes":[8.02928E-7],"parents":[2147483647],"right_children":[-1],"split_conditions":[5.8320853E-7],"split_indices":[0],"sum_hessian":[1.2E1],"tree_param":{"num_deleted":"0","num_feature":"8","num_nodes":"1","size_leaf_vector":"0"}},{"base_weights":[1.4305115E-6],"default_left":[false],"id":71,"leaf_child_counts":[0],"left_children":[-1],"loss_changes":[8.029296E-7],"parents":[2147483647],"right_children":[-1],"split_conditions":[4.2915346E-7],"split_indices":[0],"sum_hessian":[1.2E1],"tree_param":{"num_deleted":"0","num_feature":"8","num_nodes":"1","size_leaf_vector":"0"}},{"base_weights":[1.0637136E-6],"default_left":[false],"id":72,"leaf_child_counts":[0],"left_children":[-1],"loss_changes":[8.038631E-7],"parents":[2147483647],"right_children":[-1],"split_conditions":[3.191141E-7],"split_indices":[0],"sum_hessian":[1.2E1],"tree_param":{"num_deleted":"0","num_feature":"8","num_nodes":"1","size_leaf_vector":"0"}},{"base_weights":[7.886153E-7],"default_left":[false],"id":73,"leaf_child_counts":[0],"left_children":[-1],"loss_changes":[8.0456346E-7],"parents":[2147483647],"right_children":[-1],"split_conditions":[2.365846E-7],"split_indices":[0],"sum_hessian":[1.2E1],"tree_param":{"num_deleted":"0","num_feature":"8","num_nodes":"1","size_leaf_vector":"0"}},{"base_weights":[6.9691583E-7],"default_left":[false],"id":74,"leaf_child_counts":[0],"left_children":[-1],"loss_changes":[8.047969E-7],"parents":[2147483647],"right_children":[-1],"split_conditions":[2.0907476E-7],"split_indices":[0],"sum_hessian":[1.2E1],"tree_param":{"num_deleted":"0","num_feature":"8","num_nodes":"1","size_leaf_vector":"0"}},{"base_weights":[6.0521637E-7],"default_left":[false],"id":75,"leaf_child_counts":[0],"left_children":[-1],"loss_changes":[8.050304E-7],"parents":[2147483647],"right_children":[-1],"split_conditions":[1.8156491E-7],"split_indices":[0],"sum_hessian":[1.2E1],"tree_param":{"num_deleted":"0","num_feature":"8","num_nodes":"1","size_leaf_vector":"0"}},{"base_weights":[5.1351697E-7],"default_left":[false],"id":76,"leaf_child_counts":[0],"left_children":[-1],"loss_changes":[8.0526394E-7],"parents":[2147483647],"right_children":[-1],"split_conditions":[1.540551E-7],"split_indices":[0],"sum_hessian":[1.2E1],"tree_param":{"num_deleted":"0","num_feature":"8","num_nodes":"1","size_leaf_vector":"0"}},{"base_weights":[4.2181748E-7],"default_left":[false],"id":77,"leaf_child_counts":[0],"left_children":[-1],"loss_changes":[8.0549745E-7],"parents":[2147483647],"right_children":[-1],"split_conditions":[1.2654525E-7],"split_indices":[0],"sum_hessian":[1.2E1],"tree_param":{"num_deleted":"0","num_feature":"8","num_nodes":"1","size_leaf_vector":"0"}},{"base_weights":[3.3011804E-7],"default_left":[false],"id":78,"leaf_child_counts":[0],"left_children":[-1],"loss_changes":[8.05731E-7],"parents":[2147483647],"right_children":[-1],"split_conditions":[9.903542E-8],"split_indices":[0],"sum_hessian":[1.2E1],"tree_param":{"num_deleted":"0","num_feature":"8","num_nodes":"1","size_leaf_vector":"0"}},{"base_weights":[3.3011804E-7],"default_left":[false],"id":79,"leaf_child_counts":[0],"left_children":[-1],"loss_changes":[8.05731E-7],"parents":[2147483647],"right_children":[-1],"split_conditions":[9.903542E-8],"split_indices":[0],"sum_hessian":[1.2E1],"tree_param":{"num_deleted":"0","num_feature":"8","num_nodes":"1","size_leaf_vector":"0"}},{"base_weights":[3.3011804E-7],"default_left":[false],"id":80,"leaf_child_counts":[0],"left_children":[-1],"loss_changes":[8.05731E-7],"parents":[2147483647],"right_children":[-1],"split_conditions":[9.903542E-8],"split_indices":[0],"sum_hessian":[1.2E1],"tree_param":{"num_deleted":"0","num_feature":"8","num_nodes":"1","size_leaf_vector":"0"}},{"base_weights":[3.3011804E-7],"default_left":[false],"id":81,"leaf_child_counts":[0],"left_children":[-1],"loss_changes":[8.05731E-7],"parents":[2147483647],"right_children":[-1],"split_conditions":[9.903542E-8],"split_indices":[0],"sum_hessian":[1.2E1],"tree_param":{"num_deleted":"0","num_feature":"8","num_nodes":"1","size_leaf_vector":"0"}},{"base_weights":[3.3011804E-7],"default_left":[false],"id":82,"leaf_child_counts":[0],"left_children":[-1],"loss_changes":[8.05731E-7],"parents":[2147483647],"right_children":[-1],"split_conditions":[9.903542E-8],"split_indices":[0],"sum_hessian":[1.2E1],"tree_param":{"num_deleted":"0","num_feature":"8","num_nodes":"1","size_leaf_vector":"0"}},{"base_weights":[3.3011804E-7],"default_left":[false],"id":83,"leaf_child_counts":[0],"left_children":[-1],"loss_changes":[8.05731E-7],"parents":[2147483647],"right_children":[-1],"split_conditions":[9.903542E-8],"split_indices":[0],"sum_hessian":[1.2E1],"tree_param":{"num_deleted":"0","num_feature":"8","num_nodes":"1","size_leaf_vector":"0"}},{"base_weights":[3.3011804E-7],"default_left":[false],"id":84,"leaf_child_counts":[0],"left_children":[-1],"loss_changes":[8.05731E-7],"parents":[2147483647],"right_children":[-1],"split_conditions":[9.903542E-8],"split_indices":[0],"sum_hessian":[1.2E1],"tree_param":{"num_deleted":"0","num_feature":"8","num_nodes":"1","size_leaf_vector":"0"}},{"base_weights":[3.3011804E-7],"default_left":[false],"id":85,"leaf_child_counts":[0],"left_children":[-1],"loss_changes":[8.05731E-7],"parents":[2147483647],"right_children":[-1],"split_conditions":[9.903542E-8],"split_indices":[0],"sum_hessian":[1.2E1],"tree_param":{"num_deleted":"0","num_feature":"8","num_nodes":"1","size_leaf_vector":"0"}},{"base_weights":[3.3011804E-7],"default_left":[false],"id":86,"leaf_child_counts":[0],"left_children":[-1],"loss_changes":[8.05731E-7],"parents":[2147483647],"right_children":[-1],"split_conditions":[9.903542E-8],"split_indices":[0],"sum_hessian":[1.2E1],"tree_param":{"num_deleted":"0","num_feature":"8","num_nodes":"1","size_leaf_vector":"0"}},{"base_weights":[3.3011804E-7],"default_left":[false],"id":87,"leaf_child_counts":[0],"left_children":[-1],"loss_changes":[8.05731E-7],"parents":[2147483647],"right_children":[-1],"split_conditions":[9.903542E-8],"split_indices":[0],"sum_hessian":[1.2E1],"tree_param":{"num_deleted":"0","num_feature":"8","num_nodes":"1","size_leaf_vector":"0"}},{"base_weights":[3.3011804E-7],"default_left":[false],"id":88,"leaf_child_counts":[0],"left_children":[-1],"loss_changes":[8.05731E-7],"parents":[2147483647],"right_children":[-1],"split_conditions":[9.903542E-8],"split_indices":[0],"sum_hessian":[1.2E1],"tree_param":{"num_deleted":"0","num_feature":"8","num_nodes":"1","size_leaf_vector":"0"}},{"base_weights":[3.3011804E-7],"default_left":[false],"id":89,"leaf_child_counts":[0],"left_children":[-1],"loss_changes":[8.05731E-7],"parents":[2147483647],"right_children":[-1],"split_conditions":[9.903542E-8],"split_indices":[0],"sum_hessian":[1.2E1],"tree_param":{"num_deleted":"0","num_feature":"8","num_nodes":"1","size_leaf_vector":"0"}},{"base_weights":[3.3011804E-7],"default_left":[false],"id":90,"leaf_child_counts":[0],"left_children":[-1],"loss_changes":[8.05731E-7],"parents":[2147483647],"right_children":[-1],"split_conditions":[9.903542E-8],"split_indices":[0],"sum_hessian":[1.2E1],"tree_param":{"num_deleted":"0","num_feature":"8","num_nodes":"1","size_leaf_vector":"0"}},{"base_weights":[3.3011804E-7],"default_left":[false],"id":91,"leaf_child_counts":[0],"left_children":[-1],"loss_changes":[8.05731E-7],"parents":[2147483647],"right_children":[-1],"split_conditions":[9.903542E-8],"split_indices":[0],"sum_hessian":[1.2E1],"tree_param":{"num_deleted":"0","num_feature":"8","num_nodes":"1","size_leaf_vector":"0"}},{"base_weights":[3.3011804E-7],"default_left":[false],"id":92,"leaf_child_counts":[0],"left_children":[-1],"loss_changes":[8.05731E-7],"parents":[2147483647],"right_children":[-1],"split_conditions":[9.903542E-8],"split_indices":[0],"sum_hessian":[1.2E1],"tree_param":{"num_deleted":"0","num_feature":"8","num_nodes":"1","size_leaf_vector":"0"}},{"base_weights":[3.3011804E-7],"default_left":[false],"id":93,"leaf_child_counts":[0],"left_children":[-1],"loss_changes":[8.05731E-7],"parents":[2147483647],"right_children":[-1],"split_conditions":[9.903542E-8],"split_indices":[0],"sum_hessian":[1.2E1],"tree_param":{"num_deleted":"0","num_feature":"8","num_nodes":"1","size_leaf_vector":"0"}},{"base_weights":[3.3011804E-7],"default_left":[false],"id":94,"leaf_child_counts":[0],"left_children":[-1],"loss_changes":[8.05731E-7],"parents":[2147483647],"right_children":[-1],"split_conditions":[9.903542E-8],"split_indices":[0],"sum_hessian":[1.2E1],"tree_param":{"num_deleted":"0","num_feature":"8","num_nodes":"1","size_leaf_vector":"0"}},{"base_weights":[3.3011804E-7],"default_left":[false],"id":95,"leaf_child_counts":[0],"left_children":[-1],"loss_changes":[8.05731E-7],"parents":[2147483647],"right_children":[-1],"split_conditions":[9.903542E-8],"split_indices":[0],"sum_hessian":[1.2E1],"tree_param":{"num_deleted":"0","num_feature":"8","num_nodes":"1","size_leaf_vector":"0"}},{"base_weights":[3.3011804E-7],"default_left":[false],"id":96,"leaf_child_counts":[0],"left_children":[-1],"loss_changes":[8.05731E-7],"parents":[2147483647],"right_children":[-1],"split_conditions":[9.903542E-8],"split_indices":[0],"sum_hessian":[1.2E1],"tree_param":{"num_deleted":"0","num_feature":"8","num_nodes":"1","size_leaf_vector":"0"}},{"base_weights":[3.3011804E-7],"default_left":[false],"id":97,"leaf_child_counts":[0],"left_children":[-1],"loss_changes":[8.05731E-7],"parents":[2147483647],"right_children":[-1],"split_conditions":[9.903542E-8],"split_indices":[0],"sum_hessian":[1.2E1],"tree_param":{"num_deleted":"0","num_feature":"8","num_nodes":"1","size_leaf_vector":"0"}},{"base_weights":[3.3011804E-7],"default_left":[false],"id":98,"leaf_child_counts":[0],"left_children":[-1],"loss_changes":[8.05731E-7],"parents":[2147483647],"right_children":[-1],"split_conditions":[9.903542E-8],"split_indices":[0],"sum_hessian":[1.2E1],"tree_param":{"num_deleted":"0","num_feature":"8","num_nodes":"1","size_leaf_vector":"0"}},{"base_weights":[3.3011804E-7],"default_left":[false],"id":99,"leaf_child_counts":[0],"left_children":[-1],"loss_changes":[8.05731E-7],"parents":[2147483647],"right_children":[-1],"split_conditions":[9.903542E-8],"split_indices":[0],"sum_hessian":[1.2E1],"tree_param":{"num_deleted":"0","num_feature":"8","num_nodes":"1","size_leaf_vector":"0"}},{"base_weights":[3.3011804E-7],"default_left":[false],"id":100,"leaf_child_counts":[0],"left_children":[-1],"loss_changes":[8.05731E-7],"parents":[2147483647],"right_children":[-1],"split_conditions":[9.903542E-8],"split_indices":[0],"sum_hessian":[1.2E1],"tree_param":{"num_deleted":"0","num_feature":"8","num_nodes":"1","size_leaf_vector":"0"}},{"base_weights":[3.3011804E-7],"default_left":[false],"id":101,"leaf_child_counts":[0],"left_children":[-1],"loss_changes":[8.05731E-7],"parents":[2147483647],"right_children":[-1],"split_conditions":[9.903542E-8],"split_indices":[0],"sum_hessian":[1.2E1],"tree_param":{"num_deleted":"0","num_feature":"8","num_nodes":"1","size_leaf_vector":"0"}},{"base_weights":[3.3011804E-7],"default_left":[false],"id":102,"leaf_child_counts":[0],"left_children":[-1],"loss_changes":[8.05731E-7],"parents":[2147483647],"right_children":[-1],"split_conditions":[9.903542E-8],"split_indices":[0],"sum_hessian":[1.2E1],"tree_param":{"num_deleted":"0","num_feature":"8","num_nodes":"1","size_leaf_vector":"0"}},{"base_weights":[3.3011804E-7],"default_left":[false],"id":103,"leaf_child_counts":[0],"left_children":[-1],"loss_changes":[8.05731E-7],"parents":[2147483647],"right_children":[-1],"split_conditions":[9.903542E-8],"split_indices":[0],"sum_hessian":[1.2E1],"tree_param":{"num_deleted":"0","num_feature":"8","num_nodes":"1","size_leaf_vector":"0"}},{"base_weights":[3.3011804E-7],"default_left":[false],"id":104,"leaf_child_counts":[0],"left_children":[-1],"loss_changes":[8.05731E-7],"parents":[2147483647],"right_children":[-1],"split_conditions":[9.903542E-8],"split_indices":[0],"sum_hessian":[1.2E1],"tree_param":{"num_deleted":"0","num_feature":"8","num_nodes":"1","size_leaf_vector":"0"}},{"base_weights":[3.3011804E-7],"default_left":[false],"id":105,"leaf_child_counts":[0],"left_children":[-1],"loss_changes":[8.05731E-7],"parents":[2147483647],"right_children":[-1],"split_conditions":[9.903542E-8],"split_indices":[0],"sum_hessian":[1.2E1],"tree_param":{"num_deleted":"0","num_feature":"8","num_nodes":"1","size_leaf_vector":"0"}},{"base_weights":[3.3011804E-7],"default_left":[false],"id":106,"leaf_child_counts":[0],"left_children":[-1],"loss_changes":[8.05731E-7],"parents":[2147483647],"right_children":[-1],"split_conditions":[9.903542E-8],"split_indices":[0],"sum_hessian":[1.2E1],"tree_param":{"num_deleted":"0","num_feature":"8","num_nodes":"1","size_leaf_vector":"0"}},{"base_weights":[3.3011804E-7],"default_left":[false],"id":107,"leaf_child_counts":[0],"left_children":[-1],"loss_changes":[8.05731E-7],"parents":[2147483647],"right_children":[-1],"split_conditions":[9.903542E-8],"split_indices":[0],"sum_hessian":[1.2E1],"tree_param":{"num_deleted":"0","num_feature":"8","num_nodes":"1","size_leaf_vector":"0"}},{"base_weights":[3.3011804E-7],"default_left":[false],"id":108,"leaf_child_counts":[0],"left_children":[-1],"loss_changes":[8.05731E-7],"parents":[2147483647],"right_children":[-1],"split_conditions":[9.903542E-8],"split_indices":[0],"sum_hessian":[1.2E1],"tree_param":{"num_deleted":"0","num_feature":"8","num_nodes":"1","size_leaf_vector":"0"}},{"base_weights":[3.3011804E-7],"default_left":[false],"id":109,"leaf_child_counts":[0],"left_children":[-1],"loss_changes":[8.05731E-7],"parents":[2147483647],"right_children":[-1],"split_conditions":[9.903542E-8],"split_indices":[0],"sum_hessian":[1.2E1],"tree_param":{"num_deleted":"0","num_feature":"8","num_nodes":"1","size_leaf_vector":"0"}},{"base_weights":[3.3011804E-7],"default_left":[false],"id":110,"leaf_child_counts":[0],"left_children":[-1],"loss_changes":[8.05731E-7],"parents":[2147483647],"right_children":[-1],"split_conditions":[9.903542E-8],"split_indices":[0],"sum_hessian":[1.2E1],"tree_param":{"num_deleted":"0","num_feature":"8","num_nodes":"1","size_leaf_vector":"0"}},{"base_weights":[3.3011804E-7],"default_left":[false],"id":111,"leaf_child_counts":[0],"left_children":[-1],"loss_changes":[8.05731E-7],"parents":[2147483647],"right_children":[-1],"split_conditions":[9.903542E-8],"split_indices":[0],"sum_hessian":[1.2E1],"tree_param":{"num_deleted":"0","num_feature":"8","num_nodes":"1","size_leaf_vector":"0"}},{"base_weights":[3.3011804E-7],"default_left":[false],"id":112,"leaf_child_counts":[0],"left_children":[-1],"loss_changes":[8.05731E-7],"parents":[2147483647],"right_children":[-1],"split_conditions":[9.903542E-8],"split_indices":[0],"sum_hessian":[1.2E1],"tree_param":{"num_deleted":"0","num_feature":"8","num_nodes":"1","size_leaf_vector":"0"}},{"base_weights":[3.3011804E-7],"default_left":[false],"id":113,"leaf_child_counts":[0],"left_children":[-1],"loss_changes":[8.05731E-7],"parents":[2147483647],"right_children":[-1],"split_conditions":[9.903542E-8],"split_indices":[0],"sum_hessian":[1.2E1],"tree_param":{"num_deleted":"0","num_feature":"8","num_nodes":"1","size_leaf_vector":"0"}},{"base_weights":[3.3011804E-7],"default_left":[false],"id":114,"leaf_child_counts":[0],"left_children":[-1],"loss_changes":[8.05731E-7],"parents":[2147483647],"right_children":[-1],"split_conditions":[9.903542E-8],"split_indices":[0],"sum_hessian":[1.2E1],"tree_param":{"num_deleted":"0","num_feature":"8","num_nodes":"1","size_leaf_vector":"0"}},{"base_weights":[3.3011804E-7],"default_left":[false],"id":115,"leaf_child_counts":[0],"left_children":[-1],"loss_changes":[8.05731E-7],"parents":[2147483647],"right_children":[-1],"split_conditions":[9.903542E-8],"split_indices":[0],"sum_hessian":[1.2E1],"tree_param":{"num_deleted":"0","num_feature":"8","num_nodes":"1","size_leaf_vector":"0"}},{"base_weights":[3.3011804E-7],"default_left":[false],"id":116,"leaf_child_counts":[0],"left_children":[-1],"loss_changes":[8.05731E-7],"parents":[2147483647],"right_children":[-1],"split_conditions":[9.903542E-8],"split_indices":[0],"sum_hessian":[1.2E1],"tree_param":{"num_deleted":"0","num_feature":"8","num_nodes":"1","size_leaf_vector":"0"}},{"base_weights":[3.3011804E-7],"default_left":[false],"id":117,"leaf_child_counts":[0],"left_children":[-1],"loss_changes":[8.05731E-7],"parents":[2147483647],"right_children":[-1],"split_conditions":[9.903542E-8],"split_indices":[0],"sum_hessian":[1.2E1],"tree_param":{"num_deleted":"0","num_feature":"8","num_nodes":"1","size_leaf_vector":"0"}},{"base_weights":[3.3011804E-7],"default_left":[false],"id":118,"leaf_child_counts":[0],"left_children":[-1],"loss_changes":[8.05731E-7],"parents":[2147483647],"right_children":[-1],"split_conditions":[9.903542E-8],"split_indices":[0],"sum_hessian":[1.2E1],"tree_param":{"num_deleted":"0","num_feature":"8","num_nodes":"1","size_leaf_vector":"0"}},{"base_weights":[3.3011804E-7],"default_left":[false],"id":119,"leaf_child_counts":[0],"left_children":[-1],"loss_changes":[8.05731E-7],"parents":[2147483647],"right_children":[-1],"split_conditions":[9.903542E-8],"split_indices":[0],"sum_hessian":[1.2E1],"tree_param":{"num_deleted":"0","num_feature":"8","num_nodes":"1","size_leaf_vector":"0"}},{"base_weights":[3.3011804E-7],"default_left":[false],"id":120,"leaf_child_counts":[0],"left_children":[-1],"loss_changes":[8.05731E-7],"parents":[2147483647],"right_children":[-1],"split_conditions":[9.903542E-8],"split_indices":[0],"sum_hessian":[1.2E1],"tree_param":{"num_deleted":"0","num_feature":"8","num_nodes":"1","size_leaf_vector":"0"}},{"base_weights":[3.3011804E-7],"default_left":[false],"id":121,"leaf_child_counts":[0],"left_children":[-1],"loss_changes":[8.05731E-7],"parents":[2147483647],"right_children":[-1],"split_conditions":[9.903542E-8],"split_indices":[0],"sum_hessian":[1.2E1],"tree_param":{"num_deleted":"0","num_feature":"8","num_nodes":"1","size_leaf_vector":"0"}},{"base_weights":[3.3011804E-7],"default_left":[false],"id":122,"leaf_child_counts":[0],"left_children":[-1],"loss_changes":[8.05731E-7],"parents":[2147483647],"right_children":[-1],"split_conditions":[9.903542E-8],"split_indices":[0],"sum_hessian":[1.2E1],"tree_param":{"num_deleted":"0","num_feature":"8","num_nodes":"1","size_leaf_vector":"0"}}]},"name":"gbtree"},"learner_model_param":{"base_score":"5E-1","num_class":"0","num_feature":"8"},"objective":{"name":"reg:squarederror","reg_loss_param":{"scale_pos_weight":"1"}}},"version":[1,2,1]}