{"learner":{"attributes":{"scikit_learn":"{\"n_estimators\": 100, \"objective\": \"reg:squarederror\", \"max_depth\": null, \"learning_rate\": null, \"verbosity\": null, \"booster\": null, \"tree_method\": null, \"gamma\": null, \"min_child_weight\": null, \"max_delta_step\": null, \"subsample\": null, \"colsample_bytree\": null, \"colsample_bylevel\": null, \"colsample_bynode\": null, \"reg_alpha\": null, \"reg_lambda\": null, \"scale_pos_weight\": null, \"base_score\": null, \"missing\": NaN, \"num_parallel_tree\": null, \"kwargs\": {}, \"random_state\": 42, \"n_jobs\": null, \"monotone_constraints\": null, \"interaction_constraints\": null, \"importance_type\": \"gain\", \"gpu_id\": null, \"validate_parameters\": null, \"n_features_in_\": 4, \"type\": \"XGBRegressor\"}"},"gradient_booster":{"model":{"gbtree_model_param":{"num_trees":"100","size_leaf_vector":"0"},"tree_info":[0,0,0,0,0,0,0,0,0,0,0,0,0,0,0,0,0,0,0,0,0,0,0,0,0,0,0,0,0,0,0,0,0,0,0,0,0,0,0,0,0,0,0,0,0,0,0,0,0,0,0,0,0,0,0,0,0,0,0,0,0,0,0,0,0,0,0,0,0,0,0,0,0,0,0,0,0,0,0,0,0,0,0,0,0,0,0,0,0,0,0,0,0,0,0,0,0,0,0,0],"trees":[{"base_weights":[5.015688E1,2.2047071E1,1.30184E2,1.3984845E1,6.0158737E1,2.062E1,1.36E2,7.001148E0,7.255227E1,1.1001628E2,1.11802225E1,1.18057304E2,1.5472949E2,2.3079596E0,1.969661E1,5.678387E1,1.0228571E2,1.7679167E1,3.5822728E0,4.6647267E0,2.115862E-1,2.8147923E1,3.8901665E0,2.2024999E0,4.761818E0,3.6266534E0,6.825E1,-1.1457778E-1,7.32E-1,3.4251614E1,2.193757E1,1.9211666E1,7.992258E-1],"default_left":[true,true,true,true,true,false,true,true,true,false,true,false,false,true,true,false,false,false,true,true,true,true,true,false,false,false,false,false,false,false,false,false,false],"id":0,"leaf_child_counts":[0,0,0,0,0,0,0,0,0,0,0,0,0,0,0,0,0,0,0,0,0,0,0,0,0,0,0,0,0,0,0,0,0],"left_children":[1,3,5,7,9,-1,11,13,15,-1,17,-1,-1,19,21,-1,-1,-1,23,25,27,29,31,-1,-1,-1,-1,-1,-1,-1,-1,-1,-1],"loss_changes":[1.5133246E6,1.5279112E5,1.0870975E5,1.6882517E5,2.1121947E5,0E0,3.75185E4,2.2059535E4,1.4821156E4,0E0,2.158708E3,0E0,0E0,1.3428735E3,1.324902E4,0E0,0E0,0E0,2.53172E1,8.201269E3,2.4696205E1,1.7124961E3,1.6895281E3,0E0,0E0,0E0,0E0,0E0,0E0,0E0,0E0,0E0,0E0],"parents":[2147483647,0,0,1,1,2,2,3,3,4,4,6,6,7,7,8,8,10,10,13,13,14,14,18,18,19,19,20,20,21,21,22,22],"right_children":[2,4,6,8,10,-1,12,14,16,-1,18,-1,-1,20,22,-1,-1,-1,24,26,28,30,32,-1,-1,-1,-1,-1,-1,-1,-1,-1,-1],"split_conditions":[3.2484182E-3,1.1141536E3,5.324929E2,1.422675E3,1.1240576E3,6.1860003E0,1.243795E3,8.8812085E2,2.5321758E3,3.3004887E1,1.3471151E1,3.5417194E1,4.641885E1,5.494E0,1.0125497E3,1.7035162E1,3.0685715E1,5.30375E0,5.447451E1,4.8613453E0,8.828464E1,6.29935E0,3.914566E0,6.6075E-1,1.4285455E0,1.0879961E0,2.0475E1,-3.4373336E-2,2.196E-1,1.0275484E1,6.5812716E0,5.7635E0,2.3976775E-1],"split_indices":[2,1,0,0,1,0,0,1,0,0,0,0,0,0,1,0,0,0,0,0,0,0,0,0,0,0,0,0,0,0,0,0,0],"sum_hessian":[6.73E2,4.99E2,1.74E2,4.13E2,8.6E1,9E0,1.65E2,3.7E2,4.3E1,4.2E1,4.4E1,8.8E1,7.7E1,2.71E2,9.9E1,3E1,1.3E1,2.3E1,2.1E1,1.27E2,1.44E2,6.4E1,3.5E1,1.1E1,1E1,1.26E2,1E0,8.9E1,5.5E1,3E1,3.4E1,5E0,3E1],"tree_param":{"num_deleted":"0","num_feature":"4","num_nodes":"33","size_leaf_vector":"0"}},{"base_weights":[3.5437336E1,1.5698404E1,9.163178E1,5.773457E0,3.1323458E1,1.5052599E1,9.5692986E1,1.8888314E0,4.029823E1,3.8114536E1,7.9904456E0,8.3038055E1,1.0890575E2,3.7710156E0,1.4938776E-1,2.1969313E1,7.777895E1,1.2596406E1,2.6025589E0,2.9206066E0,5.80125E1,-2.4699251E-1,4.5693594E-1,1.4101054E1,7.379184E1,1.0972619E1,1.7972187E1,1.5968126E0,3.4631405E0,6.128334E-1,7.368683E0,1.99136E-1,-3.23616E-1,-6.585481E-2,2.08088E0,2.0592745E1,2.889874E0],"default_left":[true,true,true,true,true,false,true,true,false,true,true,false,false,true,true,true,false,true,true,true,false,true,true,true,false,false,false,false,false,false,false,false,false,false,false,false,false],"id":1,"leaf_child_counts":[0,0,0,0,0,0,0,0,0,0,0,0,0,0,0,0,0,0,0,0,0,0,0,0,0,0,0,0,0,0,0,0,0,0,0,0,0],"left_children":[1,3,5,7,9,-1,11,13,-1,15,17,-1,-1,19,21,23,-1,25,27,29,-1,31,33,35,-1,-1,-1,-1,-1,-1,-1,-1,-1,-1,-1,-1,-1],"loss_changes":[7.461746E5,7.735807E4,5.298525E4,4.109744E4,3.0435984E4,0E0,1.8712875E4,9.063217E2,0E0,9.434986E4,1.0839551E3,0E0,0E0,5.9655186E3,1.7789234E1,4.2996785E4,0E0,1.2296875E1,1.3511597E1,1.3504844E3,0E0,2.2522151E0,6.975363E1,6.854541E3,0E0,0E0,0E0,0E0,0E0,0E0,0E0,0E0,0E0,0E0,0E0,0E0,0E0],"parents":[2147483647,0,0,1,1,2,2,3,3,4,4,6,6,7,7,9,9,10,10,13,13,14,14,15,15,17,17,18,18,19,19,21,21,22,22,23,23],"right_children":[2,4,6,8,10,-1,12,14,-1,16,18,-1,-1,20,22,24,-1,26,28,30,-1,32,34,36,-1,-1,-1,-1,-1,-1,-1,-1,-1,-1,-1,-1,-1],"split_conditions":[3.2484182E-3,8.972249E2,5.324929E2,1.0497155E3,1.1240576E3,4.51578E0,1.243795E3,5.494E0,1.2089469E1,1.1141536E3,1.3471151E1,2.4911417E1,3.2671726E1,4.8613453E0,7.74228E2,2.0559832E3,2.3333687E1,6.1161375E0,5.447451E1,7.400001E2,1.7403751E1,8.745995E0,8.0780655E1,1.0125497E3,2.2137552E1,3.291786E0,5.3916564E0,4.790438E-1,1.0389422E0,1.8385002E-1,2.210605E0,5.9740804E-2,-9.7084805E-2,-1.9756444E-2,6.24264E-1,6.1778235E0,8.6696225E-1],"split_indices":[2,1,0,0,1,0,0,0,0,1,0,0,0,0,1,0,0,0,0,1,0,0,0,1,0,0,0,0,0,0,0,0,0,0,0,0,0],"sum_hessian":[6.73E2,4.99E2,1.74E2,3.06E2,1.93E2,9E0,1.65E2,2.76E2,3E1,1.49E2,4.4E1,8.8E1,7.7E1,1.32E2,1.44E2,1.07E2,4.2E1,2.3E1,2.1E1,1.31E2,1E0,6.3E1,8.1E1,9.4E1,1.3E1,2E1,3E0,1.1E1,1E1,8.7E1,4.4E1,9E0,5.4E1,6.2E1,1.9E1,5.9E1,3.5E1],"tree_param":{"num_deleted":"0","num_feature":"4","num_nodes":"37","size_leaf_vector":"0"}},{"base_weights":[2.5039474E1,1.1179227E1,6.449709E1,4.147136E0,2.2249704E1,1.0988398E1,6.733197E1,1.3957031E0,2.8598745E1,3.0671522E1,1.2579085E1,5.840654E1,7.665289E1,2.7885695E0,1.0848292E-1,1.3027655E1,5.4987904E1,5.2149158E0,5.323554E1,2.0625644E0,4.9310623E1,-1.7347825E-1,3.272272E-1,2.0992273E1,5.633668E0,9.1479766E-1,1.1502127E1,4.310725E-1,5.2072024E0,4.4795938E-2,-2.8111902E-1,-1.09940216E-1,1.388296E0,9.9206364E-1,7.608624E0,1.3928446E1,-2.622999E-1],"default_left":[true,true,true,true,true,false,true,true,false,true,true,false,false,true,true,true,false,true,false,true,false,true,true,false,true,true,false,false,false,false,false,false,false,false,false,false,false],"id":2,"leaf_child_counts":[0,0,0,0,0,0,0,0,0,0,0,0,0,0,0,0,0,0,0,0,0,0,0,0,0,0,0,0,0,0,0,0,0,0,0,0,0],"left_children":[1,3,5,7,9,-1,11,13,-1,15,17,-1,-1,19,21,23,-1,25,-1,27,-1,29,31,-1,33,35,-1,-1,-1,-1,-1,-1,-1,-1,-1,-1,-1],"loss_changes":[3.6788444E5,3.8832035E4,2.5806E4,2.0614111E4,1.5414344E4,0E0,9.333E3,4.9633783E2,0E0,4.347425E4,2.7267277E4,0E0,0E0,4.3904023E3,8.999989E0,3.474044E3,0E0,2.125302E3,0E0,6.7497485E2,0E0,1.5162858E0,3.8189537E1,0E0,2.9496143E2,7.389335E2,0E0,0E0,0E0,0E0,0E0,0E0,0E0,0E0,0E0,0E0,0E0],"parents":[2147483647,0,0,1,1,2,2,3,3,4,4,6,6,7,7,9,9,10,10,13,13,14,14,15,15,17,17,19,19,21,21,22,22,24,24,25,25],"right_children":[2,4,6,8,10,-1,12,14,-1,16,18,-1,-1,20,22,24,-1,26,-1,28,-1,30,32,-1,34,36,-1,-1,-1,-1,-1,-1,-1,-1,-1,-1,-1],"split_conditions":[3.2484182E-3,8.972249E2,5.324929E2,1.0497155E3,7.577773E0,3.2965195E0,1.243795E3,5.494E0,8.579624E0,5.9921E0,2.0559832E3,1.7521963E1,2.2995869E1,4.8613453E0,7.74228E2,2.8122218E0,1.6496372E1,5.7529266E2,1.5970662E1,7.400001E2,1.4793187E1,5.940559E2,6.957102E1,6.2976823E0,1.0483599E3,9.179689E0,3.450638E0,1.2932175E-1,1.5621608E0,1.3438782E-2,-8.433571E-2,-3.2982066E-2,4.1648883E-1,2.976191E-1,2.2825873E0,4.178534E0,-7.868997E-2],"split_indices":[2,1,0,0,0,0,0,0,0,0,0,0,0,0,1,0,0,0,0,1,0,1,0,0,1,0,0,0,0,0,0,0,0,0,0,0,0],"sum_hessian":[6.73E2,4.99E2,1.74E2,3.06E2,1.93E2,9E0,1.65E2,2.76E2,3E1,1.02E2,9.1E1,8.8E1,7.7E1,1.32E2,1.44E2,6E1,4.2E1,7.8E1,1.3E1,1.31E2,1E0,6.3E1,8.1E1,2.8E1,3.2E1,4.7E1,3.1E1,8.7E1,4.4E1,2.1E1,4.2E1,5.8E1,2.3E1,1E1,2.2E1,3E0,4.4E1],"tree_param":{"num_deleted":"0","num_feature":"4","num_nodes":"37","size_leaf_vector":"0"}},{"base_weights":[1.7702833E1,7.2078285E0,4.344591E1,2.419394E0,2.2738235E1,2.0295883E1,4.7532E1,9.0570676E-1,7.154372E0,3.7487995E1,1.242607E1,4.1291428E1,5.2153E1,1.0376322E0,-8.456554E0,1.1240763E1,-1.20739125E-1,1.3203892E1,3.8875168E1,5.288535E0,3.7292793E1,5.3951847E1,3.8405636E1,2.0759435E0,7.809395E-2,1.4600971E1,8.15932E0,-1.1078024E0,8.7342644E-1,2.1826706E0,6.538829E0,1.4566092E0,4.1914032E1,-1.5508074E-1,2.398659E-1,1.9479669E0,6.0028994E-1,1.2304823E0,2.5901837E0],"default_left":[true,true,true,true,true,false,true,true,true,true,true,false,true,true,false,true,true,false,false,true,false,false,false,true,true,false,false,false,true,true,false,false,false,false,false,false,false,false,false],"id":3,"leaf_child_counts":[0,0,0,0,0,0,0,0,0,0,0,0,0,0,0,0,0,0,0,0,0,0,0,0,0,0,0,0,0,0,0,0,0,0,0,0,0,0,0],"left_children":[1,3,5,7,9,-1,11,13,15,17,19,-1,21,23,-1,25,27,-1,-1,29,-1,-1,-1,31,33,-1,-1,-1,35,37,-1,-1,-1,-1,-1,-1,-1,-1,-1],"loss_changes":[1.8178395E5,3.564083E4,1.7480938E4,2.631078E3,1.6721688E4,0E0,2.60475E3,3.5460843E2,2.647234E3,1.0362656E3,1.18719E4,0E0,1.7832812E2,2.7581277E2,0E0,4.7106055E2,3.3350628E1,0E0,0E0,1.9542297E2,0E0,0E0,0E0,3.2204692E3,5.506761E0,0E0,0E0,0E0,3.8200903E0,3.4093246E0,0E0,0E0,0E0,0E0,0E0,0E0,0E0,0E0,0E0],"parents":[2147483647,0,0,1,1,2,2,3,3,4,4,6,6,7,7,8,8,9,9,10,10,12,12,13,13,15,15,16,16,19,19,23,23,24,24,28,28,29,29],"right_children":[2,4,6,8,10,-1,12,14,16,18,20,-1,22,24,-1,26,28,-1,-1,30,-1,-1,-1,32,34,-1,-1,-1,36,38,-1,-1,-1,-1,-1,-1,-1,-1,-1],"split_conditions":[9.589969E2,1.0832725E3,8.347492E2,9.591833E2,1.1240576E3,6.088765E0,1.243795E3,9.021963E2,1.0125497E3,4.0666146E0,5.324929E2,1.2387429E1,2.586095E3,5.494E0,-2.5369663E0,4.7421176E2,1.0342476E3,3.9611676E0,1.1662551E1,1.2247898E3,1.1187839E1,1.6185555E1,1.1521691E1,4.8613453E0,5.5518814E1,4.3802915E0,2.447796E0,-3.3234072E-1,3.914566E0,5.447451E1,1.9616487E0,4.3698278E-1,1.257421E1,-4.6524223E-2,7.195977E-2,5.843901E-1,1.8008699E-1,3.691447E-1,7.7705514E-1],"split_indices":[0,1,1,1,1,0,0,1,1,0,0,0,0,0,0,0,1,0,0,1,0,0,0,0,0,0,0,0,0,0,0,0,0,0,0,0,0,0,0],"sum_hessian":[6.73E2,4.79E2,1.94E2,3.67E2,1.12E2,3E1,1.64E2,2.79E2,8.8E1,4.5E1,6.7E1,7.4E1,9E1,2.76E2,3E0,5.6E1,3.2E1,3E0,4.2E1,5.3E1,1.4E1,7.7E1,1.3E1,1.32E2,1.44E2,2.5E1,3.1E1,1.6E1,1.6E1,1.6E1,3.7E1,1.31E2,1E0,5.9E1,8.5E1,2E0,1.4E1,6E0,1E1],"tree_param":{"num_deleted":"0","num_feature":"4","num_nodes":"39","size_leaf_vector":"0"}},{"base_weights":[1.2531246E1,5.1448116E0,3.0648975E1,1.7418364E0,1.6181538E1,1.440353E1,3.35154E1,6.7149353E-1,5.0896363E0,2.6581244E1,8.908481E0,2.9069166E1,3.6811573E1,7.7340615E-1,-6.5538297E0,7.9883256E0,-7.142235E-2,1.0233015E1,2.7483839E1,3.7595274E0,2.6850813E1,6.3698405E-1,6.828973E0,1.0389153E1,5.788018E0,-7.9501116E-1,6.563677E-1,1.5952928E0,4.628803E0,-9.3201816E-1,1.0480773E0,1.5583738E0,4.322087E-1,9.140727E-1,1.8837699E0,3.9080698E0,6.2560472E0],"default_left":[true,true,true,true,true,false,true,true,true,true,true,false,false,true,false,true,true,false,false,true,false,true,false,false,false,false,true,true,true,false,false,false,false,false,false,false,false],"id":4,"leaf_child_counts":[0,0,0,0,0,0,0,0,0,0,0,0,0,0,0,0,0,0,0,0,0,0,0,0,0,0,0,0,0,0,0,0,0,0,0,0,0],"left_children":[1,3,5,7,9,-1,11,13,15,17,19,-1,-1,21,-1,23,25,-1,-1,27,-1,29,-1,-1,-1,-1,31,33,35,-1,-1,-1,-1,-1,-1,-1,-1],"loss_changes":[9.004064E4,1.7999516E4,8.5976875E3,1.3152344E3,8.310254E3,0E0,1.3480938E3,2.1124725E2,1.3320378E3,3.975293E2,6.1811807E3,0E0,0E0,2.2448334E2,0E0,2.4097314E2,1.7900303E1,0E0,0E0,9.4206726E1,0E0,1.7641852E2,0E0,0E0,0E0,0E0,2.7637348E0,1.6188774E0,2.0117676E1,0E0,0E0,0E0,0E0,0E0,0E0,0E0,0E0],"parents":[2147483647,0,0,1,1,2,2,3,3,4,4,6,6,7,7,8,8,9,9,10,10,13,13,15,15,16,16,19,19,21,21,26,26,27,27,28,28],"right_children":[2,4,6,8,10,-1,12,14,16,18,20,-1,-1,22,-1,24,26,-1,-1,28,-1,30,-1,-1,-1,-1,32,34,36,-1,-1,-1,-1,-1,-1,-1,-1],"split_conditions":[9.589969E2,1.0832725E3,8.347492E2,9.591833E2,1.1240576E3,4.321059E0,1.243795E3,9.021963E2,1.0125497E3,4.0666146E0,5.324929E2,8.72075E0,1.1043472E1,8.8812085E2,-1.966149E0,4.7421176E2,1.0342476E3,3.0699046E0,8.245152E0,1.2247898E3,8.055244E0,1.7130244E0,2.048692E0,3.116746E0,1.7364055E0,-2.3850335E-1,3.914566E0,5.447451E1,9.0792816E1,-2.7960545E-1,3.144232E-1,4.6751216E-1,1.2966262E-1,2.742218E-1,5.65131E-1,1.172421E0,1.8768142E0],"split_indices":[0,1,1,1,1,0,0,1,1,0,0,0,0,1,0,0,1,0,0,1,0,0,0,0,0,0,0,0,0,0,0,0,0,0,0,0,0],"sum_hessian":[6.73E2,4.79E2,1.94E2,3.67E2,1.12E2,3E1,1.64E2,2.79E2,8.8E1,4.5E1,6.7E1,7.4E1,9E1,2.76E2,3E0,5.6E1,3.2E1,3E0,4.2E1,5.3E1,1.4E1,2.71E2,5E0,2.5E1,3.1E1,1.6E1,1.6E1,1.6E1,3.7E1,5.6E1,2.15E2,2E0,1.4E1,6E0,1E1,2.8E1,9E0],"tree_param":{"num_deleted":"0","num_feature":"4","num_nodes":"37","size_leaf_vector":"0"}},{"base_weights":[8.850023E0,3.9655921E0,2.2754969E1,2.4701598E0,1.0750672E1,4.5669146E0,2.3713556E1,1.2337668E0,1.275476E1,1.8852846E1,2.229546E0,2.050383E1,2.7071917E1,4.7046462E-1,3.6213045E0,1.0221859E1,1.745227E1,7.930587E0,1.9430431E1,3.7513375E0,4.6806675E-1,1.4238491E0,-3.8947186E-1,5.67697E0,-3.9126795E-2,2.678863E0,8.443994E0,-1.5876443E0,1.1660784E0,8.972159E-1,3.5469715E1,-2.5741357E-1,-5.0792174E0,7.392281E0,4.1058745E0,6.5993154E-1,-4.70014E-1,6.7902535E-1,1.3700143E0],"default_left":[true,true,true,true,true,false,true,true,true,true,true,false,false,true,true,false,false,false,false,true,true,true,true,true,true,false,false,false,true,false,false,false,false,false,false,false,false,false,false],"id":5,"leaf_child_counts":[0,0,0,0,0,0,0,0,0,0,0,0,0,0,0,0,0,0,0,0,0,0,0,0,0,0,0,0,0,0,0,0,0,0,0,0,0,0,0],"left_children":[1,3,5,7,9,-1,11,13,15,17,19,-1,-1,21,23,-1,-1,-1,-1,25,27,29,31,33,35,-1,-1,-1,37,-1,-1,-1,-1,-1,-1,-1,-1,-1,-1],"loss_changes":[4.5686324E4,5.046759E3,2.9428047E3,5.21046E3,6.171535E3,0E0,1.2343047E3,6.689442E2,3.4513184E2,1.3609766E2,1.1887132E2,0E0,0E0,2.3011256E2,6.6991345E2,0E0,0E0,0E0,0E0,9.816577E1,3.341935E1,2.352824E3,9.035188E1,1.23258545E2,1.0250282E1,0E0,0E0,0E0,7.5829506E-1,0E0,0E0,0E0,0E0,0E0,0E0,0E0,0E0,0E0,0E0],"parents":[2147483647,0,0,1,1,2,2,3,3,4,4,6,6,7,7,8,8,9,9,10,10,13,13,14,14,19,19,20,20,21,21,22,22,23,23,24,24,28,28],"right_children":[2,4,6,8,10,-1,12,14,16,18,20,-1,-1,22,24,-1,-1,-1,-1,26,28,30,32,34,36,-1,-1,-1,38,-1,-1,-1,-1,-1,-1,-1,-1,-1,-1],"split_conditions":[3.2484182E-3,1.0832725E3,5.324929E2,1.422675E3,1.1240576E3,1.3700744E0,1.243795E3,9.591833E2,2.5321758E3,4.0666146E0,1.3471151E1,6.1511493E0,8.121575E0,5.494E0,1.0125497E3,3.066558E0,5.2356815E0,2.3791761E0,5.8291297E0,6.1161375E0,3.5391247E1,4.8613453E0,8.949391E2,4.7421176E2,9.705026E0,8.0365896E-1,2.533198E0,-4.7629333E-1,5.447451E1,2.6916477E-1,1.0640915E1,-7.7224076E-2,-1.5237653E0,2.2176845E0,1.2317624E0,1.9797947E-1,-1.410042E-1,2.0370762E-1,4.110043E-1],"split_indices":[2,1,0,0,1,0,0,1,0,0,0,0,0,0,1,0,0,0,0,0,0,0,1,0,0,0,0,0,0,0,0,0,0,0,0,0,0,0,0],"sum_hessian":[6.73E2,4.99E2,1.74E2,4.1E2,8.9E1,9E0,1.65E2,3.67E2,4.3E1,4.5E1,4.4E1,8.8E1,7.7E1,2.79E2,8.8E1,3E1,1.3E1,3E0,4.2E1,2.3E1,2.1E1,1.32E2,1.47E2,5.6E1,3.2E1,2E1,3E0,5E0,1.6E1,1.31E2,1E0,1.44E2,3E0,2.5E1,3.1E1,1.2E1,2E1,6E0,1E1],"tree_param":{"num_deleted":"0","num_feature":"4","num_nodes":"39","size_leaf_vector":"0"}},{"base_weights":[6.2668915E0,2.841517E0,1.6017864E1,1.780493E0,7.655287E0,1.1633522E1,1.8204185E1,8.9846146E-1,9.117019E0,1.3375432E1,1.6379102E0,3.333847E0,1.3005892E1,3.2309258E-1,2.5026047E0,7.2542214E0,1.2590569E1,6.146204E0,1.3736861E1,2.7649717E0,3.339384E-1,-1.8674562E0,5.8212054E-1,5.3594103E0,1.1434468E0,1.9134731E0,6.5440955E0,-1.1907331E0,8.524143E-1,1.6824211E0,-1.8072207E-1,-4.6090075E-1,2.912605E0,5.0441873E-1,9.9637383E-1],"default_left":[true,true,true,true,true,true,false,true,true,true,true,false,false,true,true,false,false,false,false,true,true,false,true,false,true,false,false,false,true,false,false,false,false,false,false],"id":6,"leaf_child_counts":[0,0,0,0,0,0,0,0,0,0,0,0,0,0,0,0,0,0,0,0,0,0,0,0,0,0,0,0,0,0,0,0,0,0,0],"left_children":[1,3,5,7,9,11,-1,13,15,17,19,-1,-1,21,23,-1,-1,-1,-1,25,27,-1,29,-1,31,-1,-1,-1,33,-1,-1,-1,-1,-1,-1],"loss_changes":[2.2466576E4,2.5401326E3,1.4656992E3,2.6514092E3,3.075916E3,6.5144434E2,0E0,3.388459E2,1.9336792E2,3.576172E1,6.52112E1,0E0,0E0,1.5542352E2,3.7050818E2,0E0,0E0,0E0,0E0,6.47081E1,1.8406116E1,0E0,2.0510696E2,0E0,1.915115E2,0E0,0E0,0E0,3.4906387E-1,0E0,0E0,0E0,0E0,0E0,0E0],"parents":[2147483647,0,0,1,1,2,2,3,3,4,4,5,5,7,7,8,8,9,9,10,10,13,13,14,14,19,19,20,20,22,22,24,24,28,28],"right_children":[2,4,6,8,10,12,-1,14,16,18,20,-1,-1,22,24,-1,-1,-1,-1,26,28,-1,30,-1,32,-1,-1,-1,34,-1,-1,-1,-1,-1,-1],"split_conditions":[3.2484182E-3,1.0832725E3,1.0526608E3,1.422675E3,1.1240576E3,5.324929E2,5.461256E0,8.8812085E2,2.5321758E3,4.0666146E0,1.3471151E1,1.0001541E0,3.9017677E0,5.127094E2,2.8122218E0,2.1762664E0,3.7771707E0,1.8438612E0,4.1210585E0,6.1161375E0,3.5391247E1,-5.602369E-1,5.494E0,1.6078231E0,5.7529266E2,5.7404196E-1,1.9632287E0,-3.5721993E-1,5.447451E1,5.0472635E-1,-5.4216623E-2,-1.3827023E-1,8.7378156E-1,1.5132563E-1,2.9891217E-1],"split_indices":[2,1,0,0,1,0,0,1,0,0,0,0,0,1,0,0,0,0,0,0,0,0,0,0,0,0,0,0,0,0,0,0,0,0,0],"sum_hessian":[6.73E2,4.99E2,1.74E2,4.1E2,8.9E1,6E1,1.14E2,3.67E2,4.3E1,4.5E1,4.4E1,9E0,5.1E1,2.71E2,9.6E1,3E1,1.3E1,3E0,4.2E1,2.3E1,2.1E1,2.8E1,2.43E2,3E1,6.6E1,2E1,3E0,5E0,1.6E1,9.9E1,1.44E2,3.5E1,3.1E1,6E0,1E1],"tree_param":{"num_deleted":"0","num_feature":"4","num_nodes":"35","size_leaf_vector":"0"}},{"base_weights":[4.4270988E0,2.0226266E0,1.1271721E1,1.2662652E0,5.4542046E0,9.253267E0,1.3663217E1,6.349927E-1,6.5172195E0,9.492476E0,1.2049879E0,2.433708E0,9.915541E0,-3.183129E-1,1.1695464E0,5.1481576E0,9.083198E0,4.7633085E0,9.711644E0,2.0411994E0,2.3798497E-1,-1.1933795E0,2.063495E-1,2.9896896E1,9.2008144E-1,1.3667662E0,5.0716743E0,-8.930498E-1,6.231746E-1,-7.4246603E-1,-2.5594E0,2.1086767E1,-2.992792E-1,2.5046253E0,1.905979E-1,3.7471098E-1,7.246356E-1],"default_left":[true,true,true,true,true,true,false,true,true,true,true,false,false,true,true,false,false,false,false,true,true,true,true,false,true,false,false,false,true,false,false,false,false,false,false,false,false],"id":7,"leaf_child_counts":[0,0,0,0,0,0,0,0,0,0,0,0,0,0,0,0,0,0,0,0,0,0,0,0,0,0,0,0,0,0,0,0,0,0,0,0,0],"left_children":[1,3,5,7,9,11,-1,13,15,17,19,-1,-1,21,23,-1,-1,-1,-1,25,27,29,31,-1,33,-1,-1,-1,35,-1,-1,-1,-1,-1,-1,-1,-1],"loss_changes":[1.1069692E4,1.2908505E3,7.183164E2,1.3582374E3,1.532916E3,4.1847754E2,0E0,1.879025E2,1.0780945E2,1.418457E0,3.5902084E1,0E0,0E0,6.1308495E1,1.6637781E3,0E0,0E0,0E0,0E0,4.2120674E1,1.01411085E1,2.889759E1,8.9316095E2,0E0,2.711588E2,0E0,0E0,0E0,1.570301E-1,0E0,0E0,0E0,0E0,0E0,0E0,0E0,0E0],"parents":[2147483647,0,0,1,1,2,2,3,3,4,4,5,5,7,7,8,8,9,9,10,10,13,13,14,14,19,19,20,20,21,21,22,22,24,24,28,28],"right_children":[2,4,6,8,10,12,-1,14,16,18,20,-1,-1,22,24,-1,-1,-1,-1,26,28,30,32,-1,34,-1,-1,-1,36,-1,-1,-1,-1,-1,-1,-1,-1],"split_conditions":[3.2484182E-3,1.0832725E3,1.243795E3,1.422675E3,1.1240576E3,5.324929E2,4.098965E0,7.073363E2,2.5321758E3,4.0666146E0,1.3471151E1,7.3011243E-1,2.9746623E0,1.7383882E0,7.1859424E2,1.5444473E0,2.7249594E0,1.4289926E0,2.9134934E0,6.1161375E0,3.5391247E1,1.2506814E0,2.4646325E0,8.9690695E0,2.368661E0,4.100299E-1,1.5215024E0,-2.6791495E-1,5.447451E1,-2.2273982E-1,-7.6782006E-1,6.3260303E0,-8.9783765E-2,7.5138766E-1,5.7179373E-2,1.12413295E-1,2.1739069E-1],"split_indices":[2,1,0,0,1,0,0,1,0,0,0,0,0,0,1,0,0,0,0,0,0,0,0,0,0,0,0,0,0,0,0,0,0,0,0,0,0],"sum_hessian":[6.73E2,4.99E2,1.74E2,4.1E2,8.9E1,9.7E1,7.7E1,3.67E2,4.3E1,4.5E1,4.4E1,9E0,8.8E1,1.32E2,2.35E2,3E1,1.3E1,3E0,4.2E1,2.3E1,2.1E1,4.9E1,8.3E1,1E0,2.34E2,2E1,3E0,5E0,1.6E1,3.8E1,1.1E1,1E0,8.2E1,7.3E1,1.61E2,6E0,1E1],"tree_param":{"num_deleted":"0","num_feature":"4","num_nodes":"37","size_leaf_vector":"0"}},{"base_weights":[3.1485715E0,1.4670961E0,7.9347954E0,4.8311955E-1,2.9529948E0,6.8457875E0,1.0673508E1,1.2000986E-1,3.65353E0,4.042936E0,1.5604501E0,1.7766072E0,7.2142415E0,-9.1430193E-1,3.9239764E-1,2.0880241E0,6.7599196E0,6.2026024E-1,6.5528774E0,6.261697E0,7.8365664E0,-1.5256906E-1,-1.3219259E0,2.1139324E0,2.4739986E-2,3.2391658E0,8.387256E-1,-3.8230744E-1,2.010738E0,-4.4471443E-1,1.2002275E0,-1.0247875E0,-1.8555651E0,1.2022144E0,1.7923752E1,-2.0907125E0,3.0398378E-1,3.3364776E-1,1.0438184E0,-4.663289E0,-7.474343E-2],"default_left":[true,true,true,true,true,true,false,true,false,true,true,false,true,true,true,true,false,true,false,false,false,true,true,true,true,false,true,true,false,false,false,false,false,false,false,false,false,false,false,false,false],"id":8,"leaf_child_counts":[0,0,0,0,0,0,0,0,0,0,0,0,0,0,0,0,0,0,0,0,0,0,0,0,0,0,0,0,0,0,0,0,0,0,0,0,0,0,0,0,0],"left_children":[1,3,5,7,9,11,-1,13,-1,15,17,-1,19,21,23,25,-1,27,-1,-1,-1,29,31,33,35,-1,37,39,-1,-1,-1,-1,-1,-1,-1,-1,-1,-1,-1,-1,-1],"loss_changes":[5.4126553E3,7.2961804E2,4.4886523E2,3.4722598E2,2.957317E2,2.2625684E2,0E0,7.699039E1,0E0,5.7545764E2,4.136864E2,0E0,2.147168E1,1.749685E1,1.3666177E2,9.219913E1,0E0,1.0671635E2,0E0,0E0,0E0,8.833237E0,3.965332E0,5.261876E2,1.0637568E2,0E0,3.0701294E0,5.8901867E1,0E0,0E0,0E0,0E0,0E0,0E0,0E0,0E0,0E0,0E0,0E0,0E0,0E0],"parents":[2147483647,0,0,1,1,2,2,3,3,4,4,5,5,7,7,9,9,10,10,12,12,13,13,14,14,15,15,17,17,21,21,22,22,23,23,24,24,26,26,27,27],"right_children":[2,4,6,8,10,12,-1,14,-1,16,18,-1,20,22,24,26,-1,28,-1,-1,-1,30,32,34,36,-1,38,40,-1,-1,-1,-1,-1,-1,-1,-1,-1,-1,-1,-1,-1],"split_conditions":[3.2484182E-3,8.8812085E2,1.6802432E3,1.0497155E3,9.179689E0,5.324929E2,3.2020524E0,1.7130244E0,1.096059E0,5.9921E0,2.0559832E3,5.329822E-1,1.0526608E3,8.836537E-1,2.3940248E0,2.8122218E0,2.027976E0,5.7529266E2,1.9658633E0,1.8785092E0,2.35097E0,8.538693E-1,1.2506814E0,2.0023503E0,3.5657842E0,9.717498E-1,1.0483599E3,1.2960898E1,6.032214E-1,-1.3341433E-1,3.6006826E-1,-3.074363E-1,-5.5666953E-1,3.606643E-1,5.3771257E0,-6.272138E-1,9.119514E-2,1.0009433E-1,3.1314552E-1,-1.3989868E0,-2.2423029E-2],"split_indices":[2,1,0,0,0,0,0,0,0,0,0,0,0,0,0,0,0,0,0,0,0,0,0,0,0,0,1,0,0,0,0,0,0,0,0,0,0,0,0,0,0],"sum_hessian":[6.73E2,4.99E2,1.74E2,3.01E2,1.98E2,1.27E2,4.7E1,2.71E2,3E1,1.1E2,8.8E1,9E0,1.18E2,5.6E1,2.15E2,6.5E1,4.5E1,7.5E1,1.3E1,5.1E1,6.7E1,2E1,3.6E1,3.7E1,1.78E2,3.3E1,3.2E1,4.4E1,3.1E1,1.7E1,3E0,2.5E1,1.1E1,3.6E1,1E0,2E1,1.58E2,1E1,2.2E1,2E0,4.2E1],"tree_param":{"num_deleted":"0","num_feature":"4","num_nodes":"41","size_leaf_vector":"0"}},{"base_weights":[2.2309813E0,1.0474093E0,5.599868E0,3.5692677E-1,2.0900137E0,4.8292594E0,7.5381603E0,1.00787476E-1,2.592829E0,2.8608027E0,1.1052097E0,1.2969234E0,5.085512E0,-6.511947E-1,2.9876062E-1,1.4826022E0,4.776029E0,4.2341632E-1,4.7274303E0,4.4193125E0,5.520172E0,-9.6005306E-2,-9.4870234E-1,1.3301648E0,-2.1544534E-1,2.2484431E0,5.454126E-1,4.8850946E0,2.4095654E0,-8.702228E-1,1.0012262E0,5.4202347E0,3.9079137E0,-3.1871203E-1,9.301762E-1,-7.291758E-1,-1.3452847E0,6.343428E-1,2.5366764E1,-2.8094518E-1,3.3020622E-1,2.2959979E0,9.600093E-1,2.4265294E-1,6.7802894E-1,-3.730631E0,-4.4061157E-1,3.3732983E-1,1.4263666E0],"default_left":[true,true,true,true,true,true,false,true,false,true,true,false,true,true,true,true,true,true,false,true,false,true,true,true,true,true,true,false,false,true,true,false,false,false,false,false,false,false,false,false,false,false,false,false,false,false,false,false,false],"id":9,"leaf_child_counts":[0,0,0,0,0,0,0,0,0,0,0,0,0,0,0,0,0,0,0,0,0,0,0,0,0,0,0,0,0,0,0,0,0,0,0,0,0,0,0,0,0,0,0,0,0,0,0,0,0],"left_children":[1,3,5,7,9,11,-1,13,-1,15,17,-1,19,21,23,25,27,29,-1,31,-1,33,35,37,39,41,43,-1,-1,45,47,-1,-1,-1,-1,-1,-1,-1,-1,-1,-1,-1,-1,-1,-1,-1,-1,-1,-1],"loss_changes":[2.6815884E3,3.592041E2,2.249878E2,1.726948E2,1.4789435E2,1.0926636E2,0E0,4.068781E1,0E0,2.8591083E2,2.1779329E2,0E0,1.0063477E1,9.323786E0,1.1484308E2,4.614441E1,1.015625E-1,5.7679577E1,0E0,5.435547E0,0E0,5.095746E0,2.240284E0,1.1881228E3,5.2750826E0,1.5716553E-3,1.0801525E0,0E0,0E0,2.7848967E1,1.447805E1,0E0,0E0,0E0,0E0,0E0,0E0,0E0,0E0,0E0,0E0,0E0,0E0,0E0,0E0,0E0,0E0,0E0,0E0],"parents":[2147483647,0,0,1,1,2,2,3,3,4,4,5,5,7,7,9,9,10,10,12,12,13,13,14,14,15,15,16,16,17,17,19,19,21,21,22,22,23,23,24,24,25,25,26,26,29,29,30,30],"right_children":[2,4,6,8,10,12,-1,14,-1,16,18,-1,20,22,24,26,28,30,-1,32,-1,34,36,38,40,42,44,-1,-1,46,48,-1,-1,-1,-1,-1,-1,-1,-1,-1,-1,-1,-1,-1,-1,-1,-1,-1,-1],"split_conditions":[3.2484182E-3,8.8812085E2,1.6802432E3,1.0497155E3,9.179689E0,5.324929E2,2.2614481E0,1.7130244E0,7.778487E-1,5.9921E0,2.0559832E3,3.8907704E-1,1.0526608E3,8.836537E-1,5.494E0,3.914566E0,7.577773E0,2.0005913E1,1.4182291E0,9.3707605E2,1.6560518E0,8.538693E-1,1.2506814E0,4.8613453E0,1.25579735E2,2.8122218E0,4.3381424E0,1.4655285E0,7.2286963E-1,1.2960898E1,5.7529266E2,1.6260705E0,1.1723741E0,-9.561361E-2,2.7905288E-1,-2.1875276E-1,-4.0358543E-1,1.9030285E-1,7.6100297E0,-8.428356E-2,9.906187E-2,6.887994E-1,2.880028E-1,7.279588E-2,2.0340869E-1,-1.1191894E0,-1.3218348E-1,1.0119896E-1,4.2791E-1],"split_indices":[2,1,0,0,0,0,0,0,0,0,0,0,0,0,0,0,0,0,0,0,0,0,0,0,0,0,0,0,0,0,0,0,0,0,0,0,0,0,0,0,0,0,0,0,0,0,0,0,0],"sum_hessian":[6.73E2,4.99E2,1.74E2,3.01E2,1.98E2,1.27E2,4.7E1,2.71E2,3E1,1.1E2,8.8E1,9E0,1.18E2,5.6E1,2.15E2,6.5E1,4.5E1,7.5E1,1.3E1,5.1E1,6.7E1,2E1,3.6E1,7.1E1,1.44E2,3.5E1,3E1,4.2E1,3E0,2.3E1,5.2E1,1.4E1,3.7E1,1.7E1,3E0,2.5E1,1.1E1,7E1,1E0,1.29E2,1.5E1,3.3E1,2E0,1E1,2E1,2E0,2.1E1,2.1E1,3.1E1],"tree_param":{"num_deleted":"0","num_feature":"4","num_nodes":"49","size_leaf_vector":"0"}},{"base_weights":[1.5904655E0,7.577692E-1,3.9605095E0,2.768491E-1,1.4837999E0,3.418323E0,5.3238297E0,9.7669676E-2,1.8400735E0,2.0335643E0,7.8146684E-1,9.467548E-1,3.5972924E0,-7.773685E-1,2.0126984E-1,1.0568058E0,3.3907924E0,2.86888E-1,3.410504E0,3.1473377E0,3.8884742E0,-5.4111755E-1,-1.0265145E0,7.0962757E-1,-1.507098E-1,1.6010427E0,3.906983E-1,-2.636181E0,4.431262E-1,3.9025712E0,2.7663946E0,2.8120467E-1,2.1561749E1,-5.1625445E-2,-4.385337E-1,2.118929E0,1.3773992E0,1.7647487E-1,4.8430592E-1,-2.984505E0,-7.9560494E-1,-1.574888E-1,8.90187E-1],"default_left":[true,true,true,true,true,true,false,true,false,true,true,false,true,true,true,true,false,true,false,true,false,false,false,true,true,true,true,true,true,false,false,false,false,false,false,false,false,false,false,false,false,false,false],"id":10,"leaf_child_counts":[0,0,0,0,0,0,0,0,0,0,0,0,0,0,0,0,0,0,0,0,0,0,0,0,0,0,0,0,0,0,0,0,0,0,0,0,0,0,0,0,0,0,0],"left_children":[1,3,5,7,9,11,-1,13,-1,15,17,-1,19,21,23,25,-1,27,-1,29,-1,-1,-1,31,33,35,37,39,41,-1,-1,-1,-1,-1,-1,-1,-1,-1,-1,-1,-1,-1,-1],"loss_changes":[1.3271561E3,1.741706E2,1.1115674E2,8.440977E1,7.524826E1,5.3213135E1,0E0,2.4814373E1,0E0,1.4356757E2,1.14745255E2,0E0,3.3529053E0,1.1515045E0,4.376625E1,2.330082E1,0E0,3.5876987E1,0E0,4.1643677E0,0E0,0E0,0E0,8.872894E2,4.1125927E0,1.2509766E0,5.3617287E-1,1.8997765E-1,1.9741528E1,0E0,0E0,0E0,0E0,0E0,0E0,0E0,0E0,0E0,0E0,0E0,0E0,0E0,0E0],"parents":[2147483647,0,0,1,1,2,2,3,3,4,4,5,5,7,7,9,9,10,10,12,12,13,13,14,14,15,15,17,17,19,19,23,23,24,24,25,25,26,26,27,27,28,28],"right_children":[2,4,6,8,10,12,-1,14,-1,16,18,-1,20,22,24,26,-1,28,-1,30,-1,-1,-1,32,34,36,38,40,42,-1,-1,-1,-1,-1,-1,-1,-1,-1,-1,-1,-1,-1,-1],"split_conditions":[3.2484182E-3,8.8812085E2,1.6802432E3,1.0497155E3,9.179689E0,5.324929E2,1.597149E0,5.127094E2,5.5202204E-1,5.9921E0,2.0559832E3,2.8402644E-1,1.0526608E3,1.8993559E0,5.494E0,3.914566E0,1.0172378E0,9.631621E2,1.0231513E0,9.3707605E2,1.1665423E0,-1.6233528E-1,-3.0795437E-1,4.8613453E0,8.257826E2,1.4579873E0,4.3381424E0,1.0738028E2,5.447451E1,1.1707714E0,8.2991844E-1,8.4361404E-2,6.468525E0,-1.5487635E-2,-1.3156012E-1,6.356787E-1,4.1321978E-1,5.2942462E-2,1.4529178E-1,-8.953515E-1,-2.386815E-1,-4.724664E-2,2.670561E-1],"split_indices":[2,1,0,0,0,0,0,1,0,0,0,0,0,0,0,0,0,1,0,0,0,0,0,0,1,0,0,0,0,0,0,0,0,0,0,0,0,0,0,0,0,0,0],"sum_hessian":[6.73E2,4.99E2,1.74E2,3.01E2,1.98E2,1.27E2,4.7E1,2.71E2,3E1,1.1E2,8.8E1,9E0,1.18E2,2.8E1,2.43E2,6.5E1,4.5E1,7.5E1,1.3E1,5.1E1,6.7E1,1.6E1,1.2E1,9.9E1,1.44E2,3.5E1,3E1,3E0,7.2E1,1.4E1,3.7E1,9.8E1,1E0,1.08E2,3.6E1,8E0,2.7E1,1E1,2E1,2E0,1E0,3.1E1,4.1E1],"tree_param":{"num_deleted":"0","num_feature":"4","num_nodes":"43","size_leaf_vector":"0"}},{"base_weights":[1.1339626E0,5.481606E-1,2.8012028E0,2.1527651E-1,1.0505869E0,2.419788E0,3.7599509E0,9.019068E-2,1.3058593E0,1.4438958E0,5.4825145E-1,6.9113046E-1,2.5447187E0,-4.771694E-1,2.3949315E-1,7.5865996E-1,2.3956711E0,1.887926E-1,2.4604385E0,2.2416122E0,2.7390838E0,-1.261436E-1,-8.1174105E-1,1.3633112E0,-4.20694E-4,1.1498661E0,2.7988315E-1,2.4600682E0,1.1044841E0,-2.1288352E0,3.131997E-1,2.8098536E0,1.9583166E0,1.0306242E0,-2.0426475E-1,-1.2317111E0,-6.48631E-1,5.840571E-1,1.50978565E1,-1.4916222E0,2.0721763E-1,1.9693923E0,1.0156852E0,1.2834531E-1,3.4593233E-1,-2.9433994E-2,7.5311893E-1],"default_left":[true,true,true,true,true,true,false,true,false,true,true,false,true,true,true,true,true,true,false,true,false,true,true,true,true,true,true,false,false,false,true,false,false,false,false,false,false,false,false,false,false,false,false,false,false,false,false],"id":11,"leaf_child_counts":[0,0,0,0,0,0,0,0,0,0,0,0,0,0,0,0,0,0,0,0,0,0,0,0,0,0,0,0,0,0,0,0,0,0,0,0,0,0,0,0,0,0,0,0,0,0,0],"left_children":[1,3,5,7,9,11,-1,13,-1,15,17,-1,19,21,23,25,27,29,-1,31,-1,33,35,37,39,41,43,-1,-1,-1,45,-1,-1,-1,-1,-1,-1,-1,-1,-1,-1,-1,-1,-1,-1,-1,-1],"loss_changes":[6.5674176E2,8.339871E1,5.4895874E1,4.1079994E1,3.8525406E1,2.5884521E1,0E0,2.3154926E1,0E0,7.057562E1,6.070986E1,0E0,8.7072754E-1,6.5918703E0,5.823838E1,1.2040001E1,1.1077576E0,2.257978E1,0E0,2.8683777E0,0E0,2.8311925E0,1.1876144E0,3.9788464E2,5.5732967E1,1.9584465E0,2.6587868E-1,0E0,0E0,0E0,1.1025541E1,0E0,0E0,0E0,0E0,0E0,0E0,0E0,0E0,0E0,0E0,0E0,0E0,0E0,0E0,0E0,0E0],"parents":[2147483647,0,0,1,1,2,2,3,3,4,4,5,5,7,7,9,9,10,10,12,12,13,13,14,14,15,15,16,16,17,17,19,19,21,21,22,22,23,23,24,24,25,25,26,26,30,30],"right_children":[2,4,6,8,10,12,-1,14,-1,16,18,-1,20,22,24,26,28,30,-1,32,-1,34,36,38,40,42,44,-1,-1,-1,46,-1,-1,-1,-1,-1,-1,-1,-1,-1,-1,-1,-1,-1,-1,-1,-1],"split_conditions":[3.2484182E-3,8.8812085E2,1.6802432E3,1.0497155E3,9.179689E0,5.324929E2,1.1279854E0,1.7130244E0,3.9175782E-1,5.9921E0,2.0559832E3,2.0733915E-1,1.0526608E3,9.333043E-1,2.3940248E0,3.914566E0,7.577773E0,9.631621E2,7.381316E-1,9.3707605E2,8.217252E-1,5.1670206E-1,1.0140662E0,2.0023503E0,4.093284E0,8.2716775E-1,4.3381424E0,7.380205E-1,3.3134523E-1,-6.386506E-1,5.019447E2,8.429561E-1,5.8749497E-1,3.0918726E-1,-6.1279427E-2,-3.6951336E-1,-1.945893E-1,1.7521714E-1,4.529357E0,-4.4748667E-1,6.2165294E-2,5.908177E-1,3.0470556E-1,3.8503595E-2,1.037797E-1,-8.830198E-3,2.2593568E-1],"split_indices":[2,1,0,0,0,0,0,0,0,0,0,0,0,0,0,0,0,1,0,0,0,0,0,0,0,0,0,0,0,0,0,0,0,0,0,0,0,0,0,0,0,0,0,0,0,0,0],"sum_hessian":[6.73E2,4.99E2,1.74E2,3.01E2,1.98E2,1.27E2,4.7E1,2.71E2,3E1,1.1E2,8.8E1,9E0,1.18E2,5.6E1,2.15E2,6.5E1,4.5E1,7.5E1,1.3E1,5.1E1,6.7E1,2.8E1,2.8E1,3.7E1,1.78E2,3.5E1,3E1,4.2E1,3E0,3E0,7.2E1,1.4E1,3.7E1,1E0,2.7E1,6E0,2.2E1,3.6E1,1E0,2.1E1,1.57E2,3E0,3.2E1,1E1,2E1,4.1E1,3.1E1],"tree_param":{"num_deleted":"0","num_feature":"4","num_nodes":"47","size_leaf_vector":"0"}},{"base_weights":[8.0921257E-1,3.973496E-1,1.9813398E0,2.6252237E-1,1.0086455E0,1.7130656E0,2.6554601E0,1.4760144E-1,1.2177129E0,1.7585028E0,2.1971044E-1,5.0452596E-1,1.800228E0,4.1391203E-1,-8.06418E-2,9.267386E-1,1.7750334E0,3.2130688E-1,-4.9421763E-1,1.9927971E0,1.6264954E0,1.9983576E-1,1.8296402E1,-2.3372939E-1,4.058156E-1,2.5482088E-1,8.559756E-1,1.386283E0,1.8684815E0,-2.382487E-1,4.4947836E-1,-1.840673E-1,-4.7865015E-1,2.137943E0,2.428306E-1],"default_left":[true,true,true,true,true,true,false,true,true,false,true,false,true,true,true,false,false,true,false,false,true,true,false,true,true,false,false,false,false,false,false,false,false,false,false],"id":12,"leaf_child_counts":[0,0,0,0,0,0,0,0,0,0,0,0,0,0,0,0,0,0,0,0,0,0,0,0,0,0,0,0,0,0,0,0,0,0,0],"left_children":[1,3,5,7,9,11,-1,13,15,-1,17,-1,19,21,23,-1,-1,25,-1,-1,27,29,-1,31,33,-1,-1,-1,-1,-1,-1,-1,-1,-1,-1],"loss_changes":[3.2459015E2,4.0944878E1,2.709961E1,4.4936302E1,5.285662E1,1.2575165E1,0E0,2.2401741E1,5.4903107E0,0E0,3.4227607E0,0E0,7.399597E-1,6.471406E2,1.4914499E1,0E0,0E0,1.2037988E0,0E0,0E0,1.3624573E0,1.8589697E1,0E0,1.7607155E0,1.3031761E1,0E0,0E0,0E0,0E0,0E0,0E0,0E0,0E0,0E0,0E0],"parents":[2147483647,0,0,1,1,2,2,3,3,4,4,5,5,7,7,8,8,10,10,12,12,13,13,14,14,17,17,20,20,21,21,23,23,24,24],"right_children":[2,4,6,8,10,12,-1,14,16,-1,18,-1,20,22,24,-1,-1,26,-1,-1,28,30,-1,32,34,-1,-1,-1,-1,-1,-1,-1,-1,-1,-1],"split_conditions":[3.2484182E-3,1.0832725E3,1.6802432E3,1.422675E3,1.1240576E3,5.324929E2,7.966381E-1,5.494E0,2.5321758E3,5.275509E-1,1.4913184E3,1.513578E-1,1.4633756E3,4.8613453E0,1.25579735E2,2.780216E-1,5.3251004E-1,1.3343E3,-1.482653E-1,5.978392E-1,1.1626458E3,1.6950974E0,5.4889207E0,9.954578E1,1.6740585E2,7.6446265E-2,2.567927E-1,4.1588494E-1,5.605445E-1,-7.147461E-2,1.3484351E-1,-5.522019E-2,-1.4359505E-1,6.4138293E-1,7.2849184E-2],"split_indices":[2,1,0,0,1,0,0,0,0,0,1,0,1,0,0,0,0,1,0,0,0,0,0,0,0,0,0,0,0,0,0,0,0,0,0],"sum_hessian":[6.73E2,4.99E2,1.74E2,4.1E2,8.9E1,1.27E2,4.7E1,3.67E2,4.3E1,4.5E1,4.4E1,9E0,1.18E2,1.69E2,1.98E2,3E1,1.3E1,3.9E1,5E0,5.1E1,6.7E1,1.68E2,1E0,1.51E2,4.7E1,3.6E1,3E0,3.7E1,3E1,6.1E1,1.07E2,1.27E2,2.4E1,3E0,4.4E1],"tree_param":{"num_deleted":"0","num_feature":"4","num_nodes":"35","size_leaf_vector":"0"}},{"base_weights":[5.814537E-1,2.9332635E-1,1.401352E0,1.2279556E-1,5.506478E-1,1.2126265E0,1.8754257E0,2.3680465E-1,-2.1342327E-1,7.5339603E-1,2.9159495E-1,3.6830407E-1,1.2733878E0,-2.693452E-1,4.0512073E-1,-3.148697E0,-9.316667E-2,4.2946216E-1,1.2017925E0,-1.5140878E-1,7.2811884E-1,1.4064547E0,1.1529044E0,-1.2277013E-1,-8.087708E-1,8.492091E-1,9.332562E-2,-2.3159331E-1,3.9273557E-1,7.178712E-1,1.1929944E-1,-1.9250234E0,-2.414709E-2,4.6367168E-1,1.2805609E0,9.8134154E-1,1.3260168E0,1.7246477E-2,-7.0031023E-1,4.1073558E-1,1.5551941E1,-2.824741E-1,6.5016603E-1,-8.366951E-2,-3.1728667E-1,1.0515181E0,5.7476765E-1,-2.924308E-2,1.8515459E-1,-1.870517E-1,1.398551E-1],"default_left":[true,true,true,true,true,true,false,true,true,true,true,false,true,true,true,false,true,true,false,true,true,false,true,true,false,true,true,true,false,true,true,false,true,false,false,false,false,false,false,false,false,false,false,false,false,false,false,false,false,false,false],"id":13,"leaf_child_counts":[0,0,0,0,0,0,0,0,0,0,0,0,0,0,0,0,0,0,0,0,0,0,0,0,0,0,0,0,0,0,0,0,0,0,0,0,0,0,0,0,0,0,0,0,0,0,0,0,0,0,0],"left_children":[1,3,5,7,9,11,-1,13,15,17,19,-1,21,23,25,-1,27,29,-1,31,33,-1,35,37,-1,39,41,43,-1,45,47,-1,49,-1,-1,-1,-1,-1,-1,-1,-1,-1,-1,-1,-1,-1,-1,-1,-1,-1,-1],"loss_changes":[1.5881145E2,2.1872997E1,1.3383026E1,1.1626804E1,1.0232292E1,6.097687E0,0E0,1.936277E1,2.6886568E1,1.5606712E1,1.7321217E1,0E0,2.8634644E-1,4.407489E0,2.3459726E1,0E0,5.1355906E0,5.818304E0,0E0,1.011061E1,5.9803677E0,0E0,7.1829987E-1,3.7318776E0,0E0,4.4488538E2,2.1318964E1,7.213421E-1,0E0,1.0189877E0,3.2823005E-1,0E0,1.1749787E0,0E0,0E0,0E0,0E0,0E0,0E0,0E0,0E0,0E0,0E0,0E0,0E0,0E0,0E0,0E0,0E0,0E0,0E0],"parents":[2147483647,0,0,1,1,2,2,3,3,4,4,5,5,7,7,8,8,9,9,10,10,12,12,13,13,14,14,16,16,17,17,19,19,20,20,22,22,23,23,25,25,26,26,27,27,29,29,30,30,32,32],"right_children":[2,4,6,8,10,12,-1,14,16,18,20,-1,22,24,26,-1,28,30,-1,32,34,-1,36,38,-1,40,42,44,-1,46,48,-1,50,-1,-1,-1,-1,-1,-1,-1,-1,-1,-1,-1,-1,-1,-1,-1,-1,-1,-1],"split_conditions":[3.2484182E-3,8.8812085E2,1.6802432E3,7.8454724E2,9.179689E0,5.324929E2,5.6262773E-1,1.7130244E0,8.944759E0,5.9921E0,5.7529266E2,1.1049122E-1,1.4633756E3,1.2506814E0,5.494E0,-9.446091E-1,7.788684E1,2.8122218E0,3.6053777E-1,1.2960898E1,2.0559832E3,4.2193642E-1,1.1626458E3,6.8307495E2,-2.4263124E-1,4.8613453E0,7.695707E2,8.257826E2,1.1782067E-1,1.4579873E0,1.0483599E3,-5.775071E-1,2.0005913E1,1.391015E-1,3.8416827E-1,2.9440248E-1,3.9780506E-1,5.1739435E-3,-2.1009308E-1,1.23220675E-1,4.6655827E0,-8.474223E-2,1.9504982E-1,-2.5100855E-2,-9.5186E-2,3.1545544E-1,1.724303E-1,-8.772925E-3,5.5546377E-2,-5.611551E-2,4.1956533E-2],"split_indices":[2,1,0,1,0,0,0,0,0,0,0,0,1,0,0,0,0,0,0,0,0,0,0,1,0,0,1,1,0,0,1,0,0,0,0,0,0,0,0,0,0,0,0,0,0,0,0,0,0,0,0],"sum_hessian":[6.73E2,4.99E2,1.74E2,3.01E2,1.98E2,1.27E2,4.7E1,2.25E2,7.6E1,1.1E2,8.8E1,9E0,1.18E2,5.6E1,1.69E2,2E0,7.4E1,6.5E1,4.5E1,4.4E1,4.4E1,5.1E1,6.7E1,4.5E1,1.1E1,6.9E1,1E2,5.8E1,1.6E1,3.3E1,3.2E1,2E0,4.2E1,3.1E1,1.3E1,3.7E1,3E1,3.7E1,8E0,6.8E1,1E0,6E1,4E1,2.2E1,3.6E1,8E0,2.5E1,1E1,2.2E1,2.1E1,2.1E1],"tree_param":{"num_deleted":"0","num_feature":"4","num_nodes":"51","size_leaf_vector":"0"}},{"base_weights":[4.160958E-1,2.1399124E-1,9.9115974E-1,-4.1160408E-1,2.5197485E-1,8.5840434E-1,1.3245249E0,-2.6825595E-1,-5.673975E-1,4.5986068E-1,7.174271E-2,2.6886234E-1,9.007322E-1,-3.1825775E-1,-1.8844792E-1,2.0440713E-1,1.1997628E0,-1.0985049E-1,5.0660986E-1,9.926328E-1,8.1720924E-1,3.3566794E0,2.123496E-2,1.3219151E1,7.408803E-1,-1.5400187E0,-8.5129395E-2,4.0422744E-1,9.238311E-1,6.946859E-1,9.410376E-1,6.002281E-1,1.2704145E1,-3.375363E-1,1.9870992E-1,1.6900326E-1,8.490953E-1,-2.8064013E-1,2.2756E-3,3.2891756E-1,4.689271E-1],"default_left":[true,true,true,true,true,true,false,true,false,true,true,false,true,false,false,true,true,true,true,false,true,true,true,false,true,false,true,true,false,false,false,false,false,false,false,false,false,false,false,false,false],"id":14,"leaf_child_counts":[0,0,0,0,0,0,0,0,0,0,0,0,0,0,0,0,0,0,0,0,0,0,0,0,0,0,0,0,0,0,0,0,0,0,0,0,0,0,0,0,0],"left_children":[1,3,5,7,9,11,-1,13,-1,15,17,-1,19,-1,-1,21,23,25,27,-1,29,31,33,-1,35,-1,37,39,-1,-1,-1,-1,-1,-1,-1,-1,-1,-1,-1,-1,-1],"loss_changes":[7.812223E1,1.1984903E1,6.6078186E0,4.9544048E-1,1.7651766E1,2.95195E0,0E0,7.864237E-3,0E0,4.1148087E1,2.0113754E1,0E0,1.0223389E-1,0E0,0E0,9.4623726E1,2.9907346E2,6.232858E0,2.8302708E0,0E0,3.779602E-1,2.2426715E2,1.0000047E1,0E0,3.2602139E0,0E0,3.0424123E0,1.4785862E-1,0E0,0E0,0E0,0E0,0E0,0E0,0E0,0E0,0E0,0E0,0E0,0E0,0E0],"parents":[2147483647,0,0,1,1,2,2,3,3,4,4,5,5,7,7,9,9,10,10,12,12,15,15,16,16,17,17,18,18,20,20,21,21,22,22,24,24,26,26,27,27],"right_children":[2,4,6,8,10,12,-1,14,-1,16,18,-1,20,-1,-1,22,24,26,28,-1,30,32,34,-1,36,-1,38,40,-1,-1,-1,-1,-1,-1,-1,-1,-1,-1,-1,-1,-1],"split_conditions":[3.2484182E-3,5.127094E2,1.6802432E3,1.8993559E0,9.179689E0,5.324929E2,3.973575E-1,7.08606E-1,-1.7021924E-1,4.9581213E0,5.7529266E2,8.0658704E-2,1.4633756E3,-9.547733E-2,-5.653438E-2,5.9823474E2,5.494E0,1.1273668E1,2.5321758E3,2.9778984E-1,1.1626458E3,1.7383882E0,7.400001E2,3.9657452E0,6.527978E0,-4.6200562E-1,7.74228E2,1.422675E3,2.7714935E-1,2.0840578E-1,2.823113E-1,1.8006843E-1,3.8112438E0,-1.0126089E-1,5.961298E-2,5.070098E-2,2.547286E-1,-8.419204E-2,6.8268005E-4,9.867527E-2,1.4067814E-1],"split_indices":[2,1,0,0,0,0,0,0,0,0,0,0,1,0,0,1,0,0,0,0,0,0,1,0,0,0,1,0,0,0,0,0,0,0,0,0,0,0,0,0,0],"sum_hessian":[6.73E2,4.99E2,1.74E2,2.8E1,4.71E2,1.27E2,4.7E1,1.6E1,1.2E1,2.18E2,2.53E2,9E0,1.18E2,8E0,8E0,1.63E2,5.5E1,1.79E2,7.4E1,5.1E1,6.7E1,8E0,1.55E2,1E0,5.4E1,2E0,1.77E2,6.1E1,1.3E1,3.7E1,3E1,7E0,1E0,5.1E1,1.04E2,9E0,4.5E1,5.4E1,1.23E2,3.1E1,3E1],"tree_param":{"num_deleted":"0","num_feature":"4","num_nodes":"41","size_leaf_vector":"0"}},{"base_weights":[3.0482197E-1,1.655329E-1,7.010489E-1,2.8356132E-1,5.010552E-2,6.076719E-1,9.3544894E-1,9.7592905E-2,9.161038E-1,-7.992598E-2,3.6151305E-1,1.9627018E-1,6.37137E-1,5.176017E-1,-4.6004497E-2,1.1236279E1,5.2416825E-1,-1.232015E0,-6.0059723E-2,2.8681985E-1,6.6647476E-1,7.93366E-1,6.0875064E-1,-1.4267911E-1,2.1784952E0,-5.322367E-1,1.3966495E-1,1.233724E-1,5.999028E-1,-1.952165E-1,2.7289221E-2,2.3332638E-1,3.3278668E-1,4.9176568E-1,6.6517234E-1,-3.15563E-1,6.186345E-1,1.0798524E1,6.8476045E-1,-1.647048E-1,-1.1338094E0,5.0228566E-1,-4.1058842E-2,6.229722E-1,2.0193148E-1,-7.8255504E-2,-2.5845584E-1,-1.918962E-1,1.9037534E-1],"default_left":[true,true,true,true,true,true,false,true,true,true,true,false,true,true,true,false,true,false,true,true,false,false,true,true,true,true,true,false,true,true,true,false,false,false,false,false,false,false,false,false,false,false,false,false,false,false,false,false,false],"id":15,"leaf_child_counts":[0,0,0,0,0,0,0,0,0,0,0,0,0,0,0,0,0,0,0,0,0,0,0,0,0,0,0,0,0,0,0,0,0,0,0,0,0,0,0,0,0,0,0,0,0,0,0,0,0],"left_children":[1,3,5,7,9,11,-1,13,15,17,19,-1,21,23,25,-1,27,-1,29,31,-1,-1,33,35,37,39,41,-1,43,45,47,-1,-1,-1,-1,-1,-1,-1,-1,-1,-1,-1,-1,-1,-1,-1,-1,-1,-1],"loss_changes":[3.7082066E1,6.7976494E0,3.261879E0,2.8965925E1,1.0314062E1,1.4265633E0,0E0,1.160375E1,2.2062152E2,4.0457907E0,1.5172329E0,0E0,4.4776917E-2,5.4046978E1,1.3074433E1,0E0,1.5954647E0,0E0,2.1067603E0,7.480574E-2,0E0,0E0,3.659439E-1,4.9334965E0,1.7287012E2,8.657145E0,6.9017124E0,0E0,2.9652596E-1,4.975319E-1,3.9328575E0,0E0,0E0,0E0,0E0,0E0,0E0,0E0,0E0,0E0,0E0,0E0,0E0,0E0,0E0,0E0,0E0,0E0,0E0],"parents":[2147483647,0,0,1,1,2,2,3,3,4,4,5,5,7,7,8,8,9,9,10,10,12,12,13,13,14,14,16,16,18,18,19,19,22,22,23,23,24,24,25,25,26,26,28,28,29,29,30,30],"right_children":[2,4,6,8,10,12,-1,14,16,18,20,-1,22,24,26,-1,28,-1,30,32,-1,-1,34,36,38,40,42,-1,44,46,48,-1,-1,-1,-1,-1,-1,-1,-1,-1,-1,-1,-1,-1,-1,-1,-1,-1,-1],"split_conditions":[3.2484182E-3,9.179689E0,1.6802432E3,4.9581213E0,5.7529266E2,5.324929E2,2.806347E-1,6.0577185E2,5.494E0,1.1273668E1,2.5321758E3,5.8881056E-2,9.3707605E2,5.876924E2,7.400001E2,3.3708837E0,6.527978E0,-3.6960453E-1,2.0005913E1,1.422675E3,1.9994244E-1,2.3800981E-1,1.0526608E3,5.660313E2,3.1823127E0,6.8307495E2,1.9590596E0,3.701172E-2,7.577773E0,1.6284313E1,7.3293005E2,6.9997914E-2,9.983601E-2,1.475297E-1,1.9955172E-1,-9.46689E-2,1.8559036E-1,3.2395573E0,2.0542814E-1,-4.9411442E-2,-3.4014285E-1,1.506857E-1,-1.2317653E-2,1.8689166E-1,6.0579445E-2,-2.3476653E-2,-7.7536754E-2,-5.7568863E-2,5.7112604E-2],"split_indices":[2,0,0,0,0,0,0,1,0,0,0,0,0,1,1,0,0,0,0,0,0,0,0,1,0,1,0,0,0,0,1,0,0,0,0,0,0,0,0,0,0,0,0,0,0,0,0,0,0],"sum_hessian":[6.73E2,4.99E2,1.74E2,2.46E2,2.53E2,1.27E2,4.7E1,1.91E2,5.5E1,1.79E2,7.4E1,9E0,1.18E2,4.8E1,1.43E2,1E0,5.4E1,2E0,1.77E2,6.1E1,1.3E1,1.4E1,1.04E2,3.5E1,1.3E1,3.9E1,1.04E2,9E0,4.5E1,6.9E1,1.08E2,3.1E1,3E1,3.7E1,6.7E1,2.9E1,6E0,1E0,1.2E1,2.5E1,1.4E1,3.4E1,7E1,4.2E1,3E0,2.5E1,4.4E1,4.6E1,6.2E1],"tree_param":{"num_deleted":"0","num_feature":"4","num_nodes":"49","size_leaf_vector":"0"}},{"base_weights":[2.2489344E-1,1.2955092E-1,4.9601555E-1,2.2659092E-1,3.4675203E-2,4.3040028E-1,6.60656E-1,8.542309E-2,7.065486E-1,-5.8565274E-2,2.5799E-1,1.432766E-1,4.5091152E-1,4.3448254E-1,-3.3947296E-2,9.550838E0,3.720917E-1,-9.85612E-1,-4.261187E-2,2.0351404E-1,4.8081288E-1,5.712265E-1,4.2942926E-1,-9.734976E-2,1.7710168E0,-3.8230455E-1,9.9083535E-2,9.006183E-2,4.2531362E-1,-1.8713422E-2,-3.2122847E-1,1.6551602E-1,2.3617283E-1,3.4811842E-1,4.6855253E-1,-2.2404972E-1,4.5955715E-1,9.178745E0,4.9513423E-1,-2.003906E-1,-1.0849115E0,7.0809686E-1,3.461252E-2,4.404288E-1,1.56497E-1,-5.5288907E-2,1.467272E0],"default_left":[true,true,true,true,true,true,false,true,true,true,true,false,true,true,true,false,true,false,true,true,false,false,true,true,true,true,true,false,true,true,false,false,false,false,false,false,false,false,false,false,false,false,false,false,false,false,false],"id":16,"leaf_child_counts":[0,0,0,0,0,0,0,0,0,0,0,0,0,0,0,0,0,0,0,0,0,0,0,0,0,0,0,0,0,0,0,0,0,0,0,0,0,0,0,0,0,0,0,0,0,0,0],"left_children":[1,3,5,7,9,11,-1,13,15,17,19,-1,21,23,25,-1,27,-1,29,31,-1,-1,33,35,37,39,41,-1,43,45,-1,-1,-1,-1,-1,-1,-1,-1,-1,-1,-1,-1,-1,-1,-1,-1,-1],"loss_changes":[1.735828E1,4.5955114E0,1.6061668E0,1.6675028E1,5.303892E0,6.8922234E-1,0E0,8.014882E0,1.6209608E2,2.62012E0,8.125348E-1,0E0,6.226921E-2,3.50022E1,6.7111645E0,0E0,7.8725433E-1,0E0,1.1792026E0,3.7849665E-2,0E0,0E0,1.7090797E-1,2.6431265E0,1.2777478E2,4.895154E0,4.0981803E0,0E0,1.1798191E-1,9.048979E0,0E0,0E0,0E0,0E0,0E0,0E0,0E0,0E0,0E0,0E0,0E0,0E0,0E0,0E0,0E0,0E0,0E0],"parents":[2147483647,0,0,1,1,2,2,3,3,4,4,5,5,7,7,8,8,9,9,10,10,12,12,13,13,14,14,16,16,18,18,19,19,22,22,23,23,24,24,25,25,26,26,28,28,29,29],"right_children":[2,4,6,8,10,12,-1,14,16,18,20,-1,22,24,26,-1,28,-1,30,32,-1,-1,34,36,38,40,42,-1,44,46,-1,-1,-1,-1,-1,-1,-1,-1,-1,-1,-1,-1,-1,-1,-1,-1,-1],"split_conditions":[3.2484182E-3,9.179689E0,1.6802432E3,4.9581213E0,5.7529266E2,5.324929E2,1.981968E-1,6.0577185E2,5.494E0,1.1273668E1,2.5321758E3,4.298298E-2,9.3707605E2,5.876924E2,7.400001E2,2.8652515E0,6.527978E0,-2.956836E-1,1.6740585E2,1.422675E3,1.4424387E-1,1.7136794E-1,1.0526608E3,5.660313E2,3.1823127E0,2.2766948E0,1.4579873E0,2.7018549E-2,7.577773E0,1.25579735E2,-9.6368544E-2,4.9654808E-2,7.085185E-2,1.0443553E-1,1.4056577E-1,-6.721492E-2,1.3786715E-1,2.7536237E0,1.4854027E-1,-6.0117185E-2,-3.2547346E-1,2.1242906E-1,1.0383757E-2,1.3212864E-1,4.6949103E-2,-1.6586673E-2,4.4018164E-1],"split_indices":[2,0,0,0,0,0,0,1,0,0,0,0,0,1,1,0,0,0,0,0,0,0,0,1,0,0,0,0,0,0,0,0,0,0,0,0,0,0,0,0,0,0,0,0,0,0,0],"sum_hessian":[6.73E2,4.99E2,1.74E2,2.46E2,2.53E2,1.27E2,4.7E1,1.91E2,5.5E1,1.79E2,7.4E1,9E0,1.18E2,4.8E1,1.43E2,1E0,5.4E1,2E0,1.77E2,6.1E1,1.3E1,1.4E1,1.04E2,3.5E1,1.3E1,3.9E1,1.04E2,9E0,4.5E1,1.64E2,1.3E1,3.1E1,3E1,3.7E1,6.7E1,2.9E1,6E0,1E0,1.2E1,3.2E1,7E0,9E0,9.5E1,4.2E1,3E0,1.61E2,3E0],"tree_param":{"num_deleted":"0","num_feature":"4","num_nodes":"47","size_leaf_vector":"0"}},{"base_weights":[1.67567E-1,1.03041455E-1,3.5096818E-1,1.8242544E-1,2.5439547E-2,3.0486858E-1,4.6658865E-1,7.443183E-2,5.494316E-1,-1.512168E-1,9.4804674E-2,1.045927E-1,3.1913656E-1,2.058575E-1,-1.7959078E-1,8.118214E0,2.6421353E-1,-7.884896E-1,-1.2174488E-1,-9.894862E-2,1.6058278E-1,4.112798E-1,3.0293384E-1,8.365108E-2,7.8019333E0,-2.55741E0,-6.53244E-2,6.574514E-2,3.0161506E-1,-9.648555E-2,-2.8222635E-1,4.4502664E-2,-1.3892202E-1,6.9778436E-3,2.2841887E-1,2.4642804E-1,3.3005568E-1,-1.0478234E-1,1.970834E-1,-5.3045803E-1,1.282161E-1,3.1137565E-1,1.2128496E-1,-3.9733082E-2,-1.3375795E-1,-1.4708552E-2,9.629677E-2,-1.0743272E-1,-1.8879205E-1,1.0477323E-1,-8.2616985E-2,4.34029E-1,1.7130543E-1],"default_left":[true,true,true,true,true,true,false,true,true,true,true,false,true,true,true,false,true,false,true,true,true,false,true,true,false,false,true,false,true,true,false,true,true,true,true,false,false,false,false,false,false,false,false,false,false,false,false,false,false,false,false,false,false],"id":17,"leaf_child_counts":[0,0,0,0,0,0,0,0,0,0,0,0,0,0,0,0,0,0,0,0,0,0,0,0,0,0,0,0,0,0,0,0,0,0,0,0,0,0,0,0,0,0,0,0,0,0,0,0,0,0,0,0,0],"left_children":[1,3,5,7,9,11,-1,13,15,17,19,-1,21,23,25,-1,27,-1,29,31,33,-1,35,37,-1,-1,39,-1,41,43,-1,45,47,49,51,-1,-1,-1,-1,-1,-1,-1,-1,-1,-1,-1,-1,-1,-1,-1,-1,-1,-1],"loss_changes":[7.939995E0,3.0755334E0,7.905121E-1,9.748781E0,3.1267989E0,3.3238506E-1,0E0,6.446908E0,1.1874526E2,1.2562851E0,2.348174E0,0E0,5.3071976E-2,1.1724009E2,1.7765453E1,0E0,3.8843632E-1,0E0,2.5652504E-1,2.7569145E-1,1.4259405E0,0E0,7.9582214E-2,2.7138305E0,0E0,0E0,5.8294334E0,0E0,4.320097E-2,1.2583405E-1,0E0,3.5151098E-2,3.7821352E-2,3.8542038E-1,1.0412436E0,0E0,0E0,0E0,0E0,0E0,0E0,0E0,0E0,0E0,0E0,0E0,0E0,0E0,0E0,0E0,0E0,0E0,0E0],"parents":[2147483647,0,0,1,1,2,2,3,3,4,4,5,5,7,7,8,8,9,9,10,10,12,12,13,13,14,14,16,16,18,18,19,19,20,20,22,22,23,23,26,26,28,28,29,29,31,31,32,32,33,33,34,34],"right_children":[2,4,6,8,10,12,-1,14,16,18,20,-1,22,24,26,-1,28,-1,30,32,34,-1,36,38,-1,-1,40,-1,42,44,-1,46,48,50,52,-1,-1,-1,-1,-1,-1,-1,-1,-1,-1,-1,-1,-1,-1,-1,-1,-1,-1],"split_conditions":[3.2484182E-3,9.179689E0,1.6802432E3,4.9581213E0,2.0005913E1,5.324929E2,1.399766E-1,2.3940248E0,5.494E0,1.1273668E1,7.3078705E2,3.137781E-2,9.3707605E2,2.0023503E0,2.830943E0,2.4354641E0,6.527978E0,-2.3654689E-1,1.85243E1,9.873393E1,8.0780655E1,1.2338395E-1,1.0526608E3,6.3966974E2,2.34058E0,-7.6722306E-1,3.4826112E0,1.9723542E-2,7.577773E0,1.6284313E1,-8.4667906E-2,8.554549E1,1.5873703E2,6.2042114E1,1.6917578E2,7.3928416E-2,9.901671E-2,-3.1434704E-2,5.912502E-2,-1.5913741E-1,3.8464833E-2,9.34127E-2,3.638549E-2,-1.1919925E-2,-4.0127385E-2,-4.412566E-3,2.8889032E-2,-3.222982E-2,-5.663762E-2,3.143197E-2,-2.4785096E-2,1.3020872E-1,5.139163E-2],"split_indices":[2,0,0,0,0,0,0,0,0,0,1,0,0,0,0,0,0,0,0,0,0,0,0,1,0,0,0,0,0,0,0,0,0,0,0,0,0,0,0,0,0,0,0,0,0,0,0,0,0,0,0,0,0],"sum_hessian":[6.73E2,4.99E2,1.74E2,2.46E2,2.53E2,1.27E2,4.7E1,1.91E2,5.5E1,7.1E1,1.82E2,9E0,1.18E2,1.26E2,6.5E1,1E0,5.4E1,2E0,6.9E1,4.6E1,1.36E2,1.4E1,1.04E2,1.25E2,1E0,2E0,6.3E1,9E0,4.5E1,6.1E1,8E0,1E1,3.6E1,4.2E1,9.4E1,3.7E1,6.7E1,4.7E1,7.8E1,1.8E1,4.5E1,4.2E1,3E0,2.5E1,3.6E1,5E0,5E0,2.4E1,1.2E1,2E1,2.2E1,1.9E1,7.5E1],"tree_param":{"num_deleted":"0","num_feature":"4","num_nodes":"53","size_leaf_vector":"0"}},{"base_weights":[1.23652086E-1,7.976082E-2,2.4834913E-1,1.9786991E-1,3.6419183E-2,2.159695E-1,3.2952085E-1,9.559101E-2,6.900482E0,-8.189925E-1,5.2905228E-2,7.635269E-2,2.2588713E-1,2.0479283E-1,-4.4845037E-2,7.3646224E-1,4.318341E-2,2.9612273E-1,2.1370217E-1,-1.230446E-2,6.1441094E-1,4.5264788E-2,-9.9647224E-2,1.711782E-4,1.6180481E-1,1.744447E-1,2.324975E-1,-7.400252E-2,9.78966E-1,6.6316433E0,1.08455926E-1,2.7583404E-2,6.970435E-2,-5.0556913E-2,-1.1595634E-1,-1.12558424E-1,9.411132E-2,2.229978E-1,4.007867E-2],"default_left":[true,true,true,true,true,true,false,true,false,false,true,false,true,true,true,false,true,false,true,true,true,true,true,true,true,false,false,false,false,false,false,false,false,false,false,false,false,false,false],"id":18,"leaf_child_counts":[0,0,0,0,0,0,0,0,0,0,0,0,0,0,0,0,0,0,0,0,0,0,0,0,0,0,0,0,0,0,0,0,0,0,0,0,0,0,0],"left_children":[1,3,5,7,9,11,-1,13,-1,-1,15,-1,17,19,21,-1,23,-1,25,27,29,31,33,35,37,-1,-1,-1,-1,-1,-1,-1,-1,-1,-1,-1,-1,-1,-1],"loss_changes":[3.6690683E0,2.5523145E0,3.8878822E-1,9.120218E1,5.2188935E0,1.5999031E-1,0E0,2.0488548E0,0E0,0E0,2.367193E0,0E0,3.856039E-2,6.677084E0,2.9586524E-1,0E0,1.8214474E0,0E0,3.6916733E-2,3.130419E0,7.843643E1,8.016195E-3,2.3760527E-2,2.7957196E0,6.986971E-1,0E0,0E0,0E0,0E0,0E0,0E0,0E0,0E0,0E0,0E0,0E0,0E0,0E0,0E0],"parents":[2147483647,0,0,1,1,2,2,3,3,4,4,5,5,7,7,10,10,12,12,13,13,14,14,16,16,18,18,19,19,20,20,21,21,22,22,23,23,24,24],"right_children":[2,4,6,8,10,12,-1,14,-1,-1,16,-1,18,20,22,-1,24,-1,26,28,30,32,34,36,38,-1,-1,-1,-1,-1,-1,-1,-1,-1,-1,-1,-1,-1,-1],"split_conditions":[3.2484182E-3,7.1859424E2,1.6802432E3,7.073363E2,7.2646136E2,5.324929E2,9.885626E-2,4.969566E0,2.0701447E0,-2.4569775E-1,8.244705E-1,2.2905808E-2,9.3707605E2,1.7383882E0,9.873393E1,2.2093868E-1,8.0780655E1,8.883682E-2,1.0526608E3,6.3966974E2,2.4646325E0,6.539816E2,1.13452995E2,9.5025726E2,9.1296924E2,5.2333415E-2,6.974925E-2,-2.2200756E-2,2.9368982E-1,1.989493E0,3.253678E-2,8.275022E-3,2.0911304E-2,-1.5167074E-2,-3.4786906E-2,-3.376753E-2,2.8233398E-2,6.6899344E-2,1.2023602E-2],"split_indices":[2,1,0,1,1,0,0,0,0,0,0,0,0,0,0,0,0,0,0,1,0,1,0,1,1,0,0,0,0,0,0,0,0,0,0,0,0,0,0],"sum_hessian":[6.73E2,4.99E2,1.74E2,1.33E2,3.66E2,1.27E2,4.7E1,1.32E2,1E0,6E0,3.6E2,9E0,1.18E2,7.4E1,5.8E1,4E0,3.56E2,1.4E1,1.04E2,4.9E1,2.5E1,2.2E1,3.6E1,2.62E2,9.4E1,3.7E1,6.7E1,4.7E1,2E0,1E0,2.4E1,1.4E1,8E0,1E1,2.6E1,1.19E2,1.43E2,6.2E1,3.2E1],"tree_param":{"num_deleted":"0","num_feature":"4","num_nodes":"39","size_leaf_vector":"0"}},{"base_weights":[9.3565464E-2,6.461541E-2,1.7574523E-1,1.7091858E-1,2.5625657E-2,1.5300713E-1,2.3271878E-1,8.400203E-2,5.86541E0,-6.0839444E-1,3.784869E-2,5.5737875E-2,1.5989524E-1,9.821021E-2,-8.9573854E-1,5.597107E-1,3.0433679E-2,2.1320851E-1,1.5075625E-1,2.5812206E-1,6.94516E-4,9.848149E-5,1.1409392E-1,1.2349179E-1,1.6377528E-1,3.331246E-2,5.636896E0,-7.6929584E-2,1.0417402E-1,-7.907224E-2,6.6073395E-2,2.4677636E-1,7.767626E-2],"default_left":[true,true,true,true,true,true,false,true,false,false,true,false,true,true,false,false,true,false,true,true,true,true,true,false,false,false,false,false,false,false,false,false,false],"id":19,"leaf_child_counts":[0,0,0,0,0,0,0,0,0,0,0,0,0,0,0,0,0,0,0,0,0,0,0,0,0,0,0,0,0,0,0,0,0],"left_children":[1,3,5,7,9,11,-1,13,-1,-1,15,-1,17,19,-1,-1,21,-1,23,25,27,29,31,-1,-1,-1,-1,-1,-1,-1,-1,-1,-1],"loss_changes":[1.5921631E0,2.0679877E0,1.9109964E-1,6.5829994E1,2.867148E0,7.684803E-2,0E0,1.939374E0,0E0,0E0,1.3798959E0,0E0,2.5837898E-2,2.0582173E0,0E0,0E0,9.060012E-1,0E0,1.7045498E-2,6.027222E1,6.747118E-1,1.3789475E0,4.3986988E-1,0E0,0E0,0E0,0E0,0E0,0E0,0E0,0E0,0E0,0E0],"parents":[2147483647,0,0,1,1,2,2,3,3,4,4,5,5,7,7,10,10,12,12,13,13,16,16,18,18,19,19,20,20,21,21,22,22],"right_children":[2,4,6,8,10,12,-1,14,-1,-1,16,-1,18,20,-1,-1,22,-1,24,26,28,30,32,-1,-1,-1,-1,-1,-1,-1,-1,-1,-1],"split_conditions":[3.2484182E-3,7.1859424E2,1.6802432E3,7.073363E2,7.2646136E2,5.324929E2,6.9815636E-2,6.956908E2,1.759623E0,-1.8251833E-1,8.244705E-1,1.6721364E-2,9.3707605E2,2.4646325E0,-2.6872158E-1,1.6791321E-1,8.0780655E1,6.396256E-2,1.0526608E3,1.7383882E0,6.0411633E2,9.5025726E2,1.6917578E2,3.704754E-2,4.9132586E-2,9.993738E-3,1.6910689E0,-2.3078876E-2,3.1252205E-2,-2.3721673E-2,1.982202E-2,7.403291E-2,2.330288E-2],"split_indices":[2,1,0,1,1,0,0,1,0,0,0,0,0,0,0,0,0,0,0,0,1,1,0,0,0,0,0,0,0,0,0,0,0],"sum_hessian":[6.73E2,4.99E2,1.74E2,1.33E2,3.66E2,1.27E2,4.7E1,1.32E2,1E0,6E0,3.6E2,9E0,1.18E2,1.31E2,1E0,4E0,3.56E2,1.4E1,1.04E2,4.9E1,8.2E1,2.62E2,9.4E1,3.7E1,6.7E1,4.8E1,1E0,4.7E1,3.5E1,1.19E2,1.43E2,1.9E1,7.5E1],"tree_param":{"num_deleted":"0","num_feature":"4","num_nodes":"33","size_leaf_vector":"0"}},{"base_weights":[7.0712365E-2,1.435246E-1,5.254683E-2,6.963232E-2,4.9855995E0,-3.2671526E-1,6.25035E-2,8.169586E-2,-7.6137775E-1,-3.753718E-1,1.5291E-1,1.2120825E-2,1.1721937E-1,2.1470663E-1,5.846065E-4,-2.4516895E-1,-4.5195013E-1,1.3637167E-1,-3.0762335E-2,9.3378E-1,1.0368552E-1,2.3522649E-2,4.791361E0,-5.4331522E-2,7.378987E-2,3.369011E-1,1.0182867E-1,-2.0076017E0,-1.5403724E-3,7.903357E-2,1.7877053E-1,-6.204983E-2,2.0655007E0,-1.2267506E-1,-2.8142704E-2,2.6363125E-1,-3.2115452E-2,5.814619E-1,2.451208E-1,-6.406202E-2,7.3771074E-2,1.8098226E-2,1.08407736E-1],"default_left":[true,true,true,true,false,true,true,true,false,true,false,true,true,true,true,false,false,true,true,false,true,true,false,true,true,true,false,false,true,true,false,false,false,false,false,false,false,false,false,false,false,false,false],"id":20,"leaf_child_counts":[0,0,0,0,0,0,0,0,0,0,0,0,0,0,0,0,0,0,0,0,0,0,0,0,0,0,0,0,0,0,0,0,0,0,0,0,0,0,0,0,0,0,0],"left_children":[1,3,5,7,-1,9,11,13,-1,15,-1,17,19,21,23,-1,-1,25,27,-1,29,31,-1,33,35,37,-1,-1,39,41,-1,-1,-1,-1,-1,-1,-1,-1,-1,-1,-1,-1,-1],"loss_changes":[8.839402E-1,4.759697E1,2.0633388E0,1.3955166E0,0E0,3.8411486E-1,1.4541337E0,1.423979E0,0E0,1.8815279E-2,0E0,1.4747975E0,2.6991358E0,4.363644E1,3.3768156E-1,0E0,0E0,4.5750284E-1,1.1896935E1,0E0,4.4861913E-1,8.690284E0,0E0,8.245975E-2,7.3225427E-1,8.193028E-2,0E0,0E0,9.652795E-1,3.381238E-1,0E0,0E0,0E0,0E0,0E0,0E0,0E0,0E0,0E0,0E0,0E0,0E0,0E0],"parents":[2147483647,0,0,1,1,2,2,3,3,5,5,6,6,7,7,9,9,11,11,12,12,13,13,14,14,17,17,18,18,20,20,21,21,23,23,24,24,25,25,28,28,29,29],"right_children":[2,4,6,8,-1,10,12,14,-1,16,-1,18,20,22,24,-1,-1,26,28,-1,30,32,-1,34,36,38,-1,-1,40,42,-1,-1,-1,-1,-1,-1,-1,-1,-1,-1,-1,-1,-1],"split_conditions":[7.1859424E2,7.073363E2,7.400001E2,6.956908E2,1.4956799E0,3.5657842E0,1.11672516E2,2.4646325E0,-2.2841333E-1,2.1256795E0,4.5873E-2,2.368661E0,1.4829684E2,1.7383882E0,6.0411633E2,-7.3550686E-2,-1.3558504E-1,1.4579873E0,3.221823E0,2.8013402E-1,1.952787E3,6.3966974E2,1.4374083E0,4.2518854E0,8.11334E0,5.964234E-1,3.0548602E-2,-6.0228056E-1,1.0483599E3,1.1293792E3,5.363116E-2,-1.861495E-2,6.1965024E-1,-3.680252E-2,-8.442812E-3,7.908938E-2,-9.634636E-3,1.7443858E-1,7.353624E-2,-1.9218607E-2,2.2131324E-2,5.429468E-3,3.252232E-2],"split_indices":[1,1,1,1,0,0,0,0,0,0,0,0,0,0,1,0,0,0,0,0,0,1,0,0,0,0,0,0,1,1,0,0,0,0,0,0,0,0,0,0,0,0,0],"sum_hessian":[6.73E2,1.33E2,5.4E2,1.32E2,1E0,1.3E1,5.27E2,1.31E2,1E0,1.2E1,1E0,2.75E2,2.52E2,4.9E1,8.2E1,6E0,6E0,7E1,2.05E2,3E0,2.49E2,4.8E1,1E0,4.7E1,3.5E1,9E0,6.1E1,2E0,2.03E2,1.89E2,6E1,4.7E1,1E0,1.2E1,3.5E1,1.2E1,2.3E1,1E0,8E0,1.11E2,9.2E1,6.2E1,1.27E2],"tree_param":{"num_deleted":"0","num_feature":"4","num_nodes":"43","size_leaf_vector":"0"}},{"base_weights":[5.42721E-2,1.2531744E-1,3.65746E-2,6.253393E-2,4.2377625E0,-2.4036229E-1,4.384835E-2,1.3324927E-1,-5.7518505E-2,-2.7884763E-1,1.2997353E-1,7.3219016E-3,8.3522074E-2,4.2342344E-1,1.0122537E-2,3.3419934E-1,-1.1853001E-1,-1.821255E-1,-3.3573437E-1,9.938303E-2,-2.4443446E-2,7.2367936E-1,7.294547E-2,1.0167803E-1,4.0726566E0,-3.897467E-2,1.9062588E-1,-1.9532603E-1,1.7556758E0,-3.3607417E-1,-4.4661906E-2,3.463707E-1,7.946778E-2,-1.6060812E0,-1.0642462E-3,-6.9825E-2,7.918517E-2,-1.7942498E-2,3.9474824E-1,-8.87035E-2,-1.9934407E-2,-6.471711E-1,2.4477195E-2,-8.812097E-2,-2.2882253E-2,4.9424267E-1,1.8584204E-1,1.457386E-1,7.177274E-2,-4.501499E-2,5.1877126E-2,1.1418343E-2,-4.411292E-1,6.28751E-2,1.2601514E-1],"default_left":[true,true,true,true,false,true,true,true,true,true,false,true,true,true,true,true,true,false,false,true,true,false,true,true,false,true,false,true,false,false,true,true,true,false,true,true,true,false,false,false,false,false,false,false,false,false,false,false,false,false,false,false,false,false,false],"id":21,"leaf_child_counts":[0,0,0,0,0,0,0,0,0,0,0,0,0,0,0,0,0,0,0,0,0,0,0,0,0,0,0,0,0,0,0,0,0,0,0,0,0,0,0,0,0,0,0,0,0,0,0,0,0,0,0,0,0,0,0],"left_children":[1,3,5,7,-1,9,11,13,15,17,-1,19,21,23,25,27,29,-1,-1,31,33,-1,35,37,-1,39,-1,41,-1,-1,43,45,47,-1,49,51,53,-1,-1,-1,-1,-1,-1,-1,-1,-1,-1,-1,-1,-1,-1,-1,-1,-1,-1],"loss_changes":[8.428539E-1,3.4332962E1,1.100314E0,1.1367741E0,0E0,2.3577768E-1,7.645345E-1,2.9968824E0,1.2345777E0,1.038301E-2,0E0,8.095509E-1,1.6601955E0,2.8939003E1,5.3916216E-1,5.6118836E0,6.9205165E-1,0E0,0E0,3.2171088E-1,7.615641E0,0E0,2.2824049E-1,8.484558E-1,0E0,4.368055E-2,0E0,6.117429E-1,0E0,0E0,3.016539E-2,2.6837349E-2,2.3707032E-2,0E0,4.77005E-1,3.3686292E-1,1.7538893E-1,0E0,0E0,0E0,0E0,0E0,0E0,0E0,0E0,0E0,0E0,0E0,0E0,0E0,0E0,0E0,0E0,0E0,0E0],"parents":[2147483647,0,0,1,1,2,2,3,3,5,5,6,6,7,7,8,8,9,9,11,11,12,12,13,13,14,14,15,15,16,16,19,19,20,20,22,22,23,23,25,25,27,27,30,30,31,31,32,32,34,34,35,35,36,36],"right_children":[2,4,6,8,-1,10,12,14,16,18,-1,20,22,24,26,28,30,-1,-1,32,34,-1,36,38,-1,40,-1,42,-1,-1,44,46,48,-1,50,52,54,-1,-1,-1,-1,-1,-1,-1,-1,-1,-1,-1,-1,-1,-1,-1,-1,-1,-1],"split_conditions":[7.1859424E2,7.073363E2,7.400001E2,6.0577185E2,1.2713288E0,3.5657842E0,1.11672516E2,2.4646325E0,1.1442847E0,2.1256795E0,3.8992062E-2,2.368661E0,1.4829684E2,1.7383882E0,6.0411633E2,9.481385E-1,6.061986E2,-5.4637652E-2,-1.00720316E-1,8.2716775E-1,3.221823E0,2.1710382E-1,5.533718E2,5.660313E2,1.221797E0,4.2518854E0,5.7187766E-2,7.0203954E-1,5.2670276E-1,-1.00822255E-1,6.5598273E0,5.964234E-1,1.4579873E0,-4.818244E-1,1.0483599E3,1.8322406E2,1.952787E3,-5.3827493E-3,1.18424475E-1,-2.661105E-2,-5.980322E-3,-1.9415133E-1,7.3431586E-3,-2.6436292E-2,-6.8646763E-3,1.4827281E-1,5.5752613E-2,4.3721583E-2,2.1531822E-2,-1.3504497E-2,1.5563139E-2,3.425503E-3,-1.3233876E-1,1.886253E-2,3.7804544E-2],"split_indices":[1,1,1,1,0,0,0,0,0,0,0,0,0,0,1,0,1,0,0,0,0,0,0,1,0,0,0,0,0,0,0,0,0,0,1,0,0,0,0,0,0,0,0,0,0,0,0,0,0,0,0,0,0,0,0],"sum_hessian":[6.73E2,1.33E2,5.4E2,1.32E2,1E0,1.3E1,5.27E2,8.3E1,4.9E1,1.2E1,1E0,2.75E2,2.52E2,2.4E1,5.9E1,6E0,4.3E1,6E0,6E0,7E1,2.05E2,3E0,2.49E2,2.3E1,1E0,4.7E1,1.2E1,5E0,1E0,1E1,3.3E1,4E0,6.6E1,2E0,2.03E2,1E1,2.39E2,1.7E1,6E0,1.2E1,3.5E1,1E0,4E0,1E1,2.3E1,1E0,3E0,5E0,6.1E1,1.11E2,9.2E1,9E0,1E0,1.79E2,6E1],"tree_param":{"num_deleted":"0","num_feature":"4","num_nodes":"55","size_leaf_vector":"0"}},{"base_weights":[4.192893E-2,1.0889038E-1,2.526578E-2,5.5542238E-2,3.6020966E0,-1.7656545E-1,3.0569512E-2,6.4297795E-2,-5.5009544E-1,-2.0714395E-1,1.1047745E-1,4.3626237E-3,5.9038017E-2,1.68577E-1,7.043158E-4,-1.3529322E-1,-2.4940269E-1,7.336124E-2,-1.9439632E-2,5.608514E-1,5.0772853E-2,3.0721122E-2,3.4617577E0,3.961175E-2,-4.8737675E-2,4.201064E-1,6.240622E-2,-1.284865E0,-7.351426E-4,-6.0596943E-2,5.5665746E-2,-3.0819036E-2,1.4923244E0,-6.413947E-2,7.701615E-2,-3.5844624E-2,-6.978296E-2,1.3688152E-1,5.058874E-2,6.6916402E-3,-2.4693425E-1,8.335304E-3,-3.749597E-1,4.411907E-2,8.882535E-2],"default_left":[true,true,true,true,false,true,true,true,false,true,false,true,true,true,true,false,false,true,true,false,true,true,false,true,true,false,true,false,true,true,true,false,false,false,false,false,false,false,false,false,false,false,false,false,false],"id":22,"leaf_child_counts":[0,0,0,0,0,0,0,0,0,0,0,0,0,0,0,0,0,0,0,0,0,0,0,0,0,0,0,0,0,0,0,0,0,0,0,0,0,0,0,0,0,0,0,0,0],"left_children":[1,3,5,7,-1,9,11,13,-1,15,-1,17,19,21,23,-1,-1,25,27,-1,29,31,-1,33,35,-1,37,-1,39,41,43,-1,-1,-1,-1,-1,-1,-1,-1,-1,-1,-1,-1,-1,-1],"loss_changes":[7.4929035E-1,2.4771643E1,5.845159E-1,7.406281E-1,0E0,1.4576748E-1,3.936679E-1,8.752363E-1,0E0,5.7296753E-3,0E0,4.5470718E-1,1.0208595E0,2.2592869E1,1.6159445E-1,0E0,0E0,2.4348345E-1,4.8748965E0,0E0,1.3960332E-1,4.453409E0,0E0,1.8733515E-1,7.5381547E-3,0E0,5.468306E-2,0E0,3.7465975E-1,2.4149245E-1,8.797306E-2,0E0,0E0,0E0,0E0,0E0,0E0,0E0,0E0,0E0,0E0,0E0,0E0,0E0,0E0],"parents":[2147483647,0,0,1,1,2,2,3,3,5,5,6,6,7,7,9,9,11,11,12,12,13,13,14,14,17,17,18,18,20,20,21,21,23,23,24,24,26,26,28,28,29,29,30,30],"right_children":[2,4,6,8,-1,10,12,14,-1,16,-1,18,20,22,24,-1,-1,26,28,-1,30,32,-1,34,36,-1,38,-1,40,42,44,-1,-1,-1,-1,-1,-1,-1,-1,-1,-1,-1,-1,-1,-1],"split_conditions":[7.1859424E2,7.073363E2,7.400001E2,6.956908E2,1.080629E0,3.5657842E0,1.11672516E2,2.4646325E0,-1.6502863E-1,2.1256795E0,3.3143237E-2,2.368661E0,1.4829684E2,1.7383882E0,9.873393E1,-4.0587965E-2,-7.482081E-2,5.964234E-1,3.221823E0,1.6825542E-1,5.533718E2,6.3966974E2,1.0385274E0,3.619231E0,1.5873703E2,1.2603194E-1,1.4579873E0,-3.854595E-1,1.4913184E3,1.8322406E2,1.952787E3,-9.245711E-3,4.476973E-1,-1.9241842E-2,2.3104846E-2,-1.0753388E-2,-2.0934887E-2,4.1064456E-2,1.5176622E-2,2.0074921E-3,-7.408028E-2,2.5005913E-3,-1.1248792E-1,1.3235722E-2,2.6647607E-2],"split_indices":[1,1,1,1,0,0,0,0,0,0,0,0,0,0,0,0,0,0,0,0,0,1,0,0,0,0,0,0,1,0,0,0,0,0,0,0,0,0,0,0,0,0,0,0,0],"sum_hessian":[6.73E2,1.33E2,5.4E2,1.32E2,1E0,1.3E1,5.27E2,1.31E2,1E0,1.2E1,1E0,2.75E2,2.52E2,4.9E1,8.2E1,6E0,6E0,7E1,2.05E2,3E0,2.49E2,4.8E1,1E0,4.6E1,3.6E1,1E0,6.9E1,2E0,2.03E2,1E1,2.39E2,4.7E1,1E0,1.2E1,3.4E1,2.4E1,1.2E1,8E0,6.1E1,1.98E2,5E0,9E0,1E0,1.79E2,6E1],"tree_param":{"num_deleted":"0","num_feature":"4","num_nodes":"45","size_leaf_vector":"0"}},{"base_weights":[3.247449E-2,9.38707E-2,1.7207272E-2,4.853465E-2,3.0617828E0,-1.0944687E-2,4.5504034E-2,1.0138196E-1,-4.1219525E-2,-3.946905E-2,2.7181339E-2,8.8177204E-2,2.067759E-2,3.1675482E-1,9.953561E-3,2.4739791E-1,-8.619913E-2,3.6106996E-2,-1.0637457E-1,4.6023473E-2,-2.2175109E-2,1.3233955E-1,4.5716245E-2,-5.219539E-2,4.6135455E-2,8.474516E-2,2.9424934E0,-1.9112833E-2,1.1650997E-1,-1.3419433E-1,1.2684757E0,-2.3601235E-1,-3.519487E-2,3.5709047E-1,2.681831E-2,-1.027892E0,-7.0931025E-2,-5.7369354E-3,7.436073E-2,-3.187158E-1,-2.9483438E-3,3.986295E-2,1.354937E-1,7.5778486E-3,4.8736572E-2,-3.0939704E-2,-1.8520074E-1,3.95387E-2,9.319509E-2,-4.126721E-3,3.0116642E-1,-7.2626686E-3,-5.0458454E-2,-4.6758112E-1,2.599926E-2,-5.6835134E-2,-1.5119128E-2,-1.0050348E-1,3.9720315E-2,-2.0340958E-1,-2.1173365E-2,4.346599E-1,4.5215398E-2,-5.3755306E-2,-5.436337E-3,2.956404E-2,6.5291375E-2],"default_left":[true,true,true,true,false,true,true,true,true,true,true,true,true,true,true,true,true,true,true,true,true,true,true,true,true,true,false,true,false,true,false,false,true,false,true,false,true,false,true,false,false,false,false,false,false,true,false,true,false,false,false,false,false,false,false,false,false,false,false,false,false,false,false,false,false,false,false],"id":23,"leaf_child_counts":[0,0,0,0,0,0,0,0,0,0,0,0,0,0,0,0,0,0,0,0,0,0,0,0,0,0,0,0,0,0,0,0,0,0,0,0,0,0,0,0,0,0,0,0,0,0,0,0,0,0,0,0,0,0,0,0,0,0,0,0,0,0,0,0,0,0,0],"left_children":[1,3,5,7,-1,9,11,13,15,17,19,21,23,25,27,29,31,33,35,37,39,41,43,45,47,49,-1,51,-1,53,-1,-1,55,-1,57,-1,59,-1,61,-1,-1,-1,-1,-1,-1,63,-1,65,-1,-1,-1,-1,-1,-1,-1,-1,-1,-1,-1,-1,-1,-1,-1,-1,-1,-1,-1],"loss_changes":[6.3015836E-1,1.7881557E1,4.3146366E-1,6.3503337E-1,0E0,2.968784E-1,2.84221E-1,1.6509078E0,6.704203E-1,7.926477E-1,1.0982834E-1,1.7959231E-1,3.215008E-1,1.49805565E1,1.8805946E-1,2.8976696E0,3.2790256E-1,2.1105549E-1,2.6380234E0,1.251002E-1,1.8721043E-1,8.599639E-3,5.620584E-3,1.2149033E-1,3.60516E-2,4.6285322E-1,0E0,1.7463174E-2,0E0,3.3259532E-1,0E0,0E0,1.391181E-2,0E0,1.2390956E-1,0E0,5.296308E-1,0E0,5.579039E-1,0E0,0E0,0E0,0E0,0E0,0E0,2.2982758E-2,0E0,2.7353391E-2,0E0,0E0,0E0,0E0,0E0,0E0,0E0,0E0,0E0,0E0,0E0,0E0,0E0,0E0,0E0,0E0,0E0,0E0,0E0],"parents":[2147483647,0,0,1,1,2,2,3,3,5,5,6,6,7,7,8,8,9,9,10,10,11,11,12,12,13,13,14,14,15,15,16,16,17,17,18,18,19,19,20,20,21,21,22,22,23,23,24,24,25,25,27,27,29,29,32,32,34,34,36,36,38,38,45,45,47,47],"right_children":[2,4,6,8,-1,10,12,14,16,18,20,22,24,26,28,30,32,34,36,38,40,42,44,46,48,50,-1,52,-1,54,-1,-1,56,-1,58,-1,60,-1,62,-1,-1,-1,-1,-1,-1,64,-1,66,-1,-1,-1,-1,-1,-1,-1,-1,-1,-1,-1,-1,-1,-1,-1,-1,-1,-1,-1],"split_conditions":[7.1859424E2,7.073363E2,1.0483599E3,6.0577185E2,9.185349E-1,4.2717163E1,1.1240576E3,2.4646325E0,1.1442847E0,2.368661E0,9.1296924E2,1.41125345E1,1.09876076E2,1.7383882E0,6.0411633E2,9.481385E-1,6.061986E2,7.414005E-1,3.0211234E0,7.725696E2,5.7529266E2,1.0793763E3,1.0137388E3,1.4913184E3,1.19604826E-1,5.660313E2,8.8274807E-1,1.5873703E2,3.495299E-2,7.0203954E-1,3.8054273E-1,-7.080371E-2,6.539816E2,1.07127145E-1,9.7214484E-1,-3.083676E-1,1.3526341E1,-1.7210807E-3,7.778574E2,-9.5614746E-2,-8.845032E-4,1.1958885E-2,4.064811E-2,2.2733547E-3,1.4620972E-2,6.1161375E0,-5.5560224E-2,1.243795E3,2.7958527E-2,-1.2380164E-3,9.034993E-2,-2.1788008E-3,-1.5137536E-2,-1.4027435E-1,7.799778E-3,-1.705054E-2,-4.5357384E-3,-3.0151045E-2,1.1916095E-2,-6.1022878E-2,-6.3520097E-3,1.3039798E-1,1.356462E-2,-1.6126592E-2,-1.6309012E-3,8.869212E-3,1.9587412E-2],"split_indices":[1,1,1,1,0,0,1,0,0,0,1,0,0,0,1,0,1,0,0,1,0,1,0,1,2,1,0,0,0,0,0,0,1,0,0,0,0,0,1,0,0,0,0,0,0,0,0,0,0,0,0,0,0,0,0,0,0,0,0,0,0,0,0,0,0,0,0],"sum_hessian":[6.73E2,1.33E2,5.4E2,1.32E2,1E0,2.71E2,2.69E2,8.3E1,4.9E1,1.55E2,1.16E2,9.8E1,1.71E2,2.4E1,5.9E1,6E0,4.3E1,7.3E1,8.2E1,8.4E1,3.2E1,4.7E1,5.1E1,4.4E1,1.27E2,2.3E1,1E0,4.7E1,1.2E1,5E0,1E0,1E1,3.3E1,1E0,7.2E1,2E0,8E1,3E1,5.4E1,1E0,3.1E1,2E0,4.5E1,4E0,4.7E1,3.9E1,5E0,1.13E2,1.4E1,1.7E1,6E0,3.5E1,1.2E1,1E0,4E0,1.5E1,1.8E1,6E0,6.6E1,2.1E1,5.9E1,3E0,5.1E1,2E1,1.9E1,8.3E1,3E1],"tree_param":{"num_deleted":"0","num_feature":"4","num_nodes":"67","size_leaf_vector":"0"}},{"base_weights":[2.5513722E-2,8.1110306E-2,1.1695874E-2,4.2584576E-2,2.6025162E0,-8.547836E-3,3.204622E-2,4.892906E-2,-3.9744395E-1,3.0352688E-1,-1.0819429E-2,6.2426988E-2,1.43733E-2,1.2880343E-1,2.224659E-4,-4.1105255E-2,1.4254237E-2,9.373256E-2,3.2329023E-2,-3.215646E-2,3.536686E-2,2.934556E-2,2.5011196E0,2.9848063E-2,-2.3104547E-2,1.85227E-2,-1.256491E-1,6.0282797E-3,9.314537E-2,3.1890232E-2,9.5728084E-2,5.7591917E-3,3.442319E-2,-5.2487087E-2,-8.243203E-3,6.709747E-2,3.0497087E-2,-1.49682565E-2,1.0782044E0,-4.4366557E-2,6.7245744E-2,-4.4936985E-3,-2.8013054E-2,-7.465976E-2,2.7981723E-2,-8.2231355E-1,-8.043189E-2,2.1010952E-2,-1.1666101E-2,-2.8696736E-2,-1.3890064E-1,2.1326406E-2,-1.8180406E-2,1.58585E-2,3.822899E-2],"default_left":[true,true,true,true,false,true,true,true,false,false,true,true,true,true,true,true,true,true,true,true,true,true,false,true,true,true,true,true,false,false,false,false,false,true,true,false,true,false,false,false,false,false,false,false,false,false,false,false,false,false,false,false,false,false,false],"id":24,"leaf_child_counts":[0,0,0,0,0,0,0,0,0,0,0,0,0,0,0,0,0,0,0,0,0,0,0,0,0,0,0,0,0,0,0,0,0,0,0,0,0,0,0,0,0,0,0,0,0,0,0,0,0,0,0,0,0,0,0],"left_children":[1,3,5,7,-1,9,11,13,-1,-1,15,17,19,21,23,25,27,29,31,33,35,37,-1,39,41,43,45,47,-1,-1,-1,-1,-1,49,51,-1,53,-1,-1,-1,-1,-1,-1,-1,-1,-1,-1,-1,-1,-1,-1,-1,-1,-1,-1],"loss_changes":[5.1683503E-1,1.2905799E1,2.2314781E-1,3.9075014E-1,0E0,1.961066E-1,1.440703E-1,5.1350534E-1,0E0,0E0,2.06377E-1,9.025085E-2,1.6915122E-1,1.172388E1,5.804899E-2,6.22392E-1,9.61328E-2,2.870798E-3,2.6951209E-3,2.5820598E-2,1.6341716E-2,2.2936068E0,0E0,1.0567528E-1,4.167637E-3,6.6432394E-2,1.5404215E0,3.6299955E-2,0E0,0E0,0E0,0E0,0E0,5.5632465E-2,8.027541E-3,0E0,1.1278078E-2,0E0,0E0,0E0,0E0,0E0,0E0,0E0,0E0,0E0,0E0,0E0,0E0,0E0,0E0,0E0,0E0,0E0,0E0],"parents":[2147483647,0,0,1,1,2,2,3,3,5,5,6,6,7,7,10,10,11,11,12,12,13,13,14,14,15,15,16,16,17,17,18,18,19,19,20,20,21,21,23,23,24,24,25,25,26,26,27,27,33,33,34,34,36,36],"right_children":[2,4,6,8,-1,10,12,14,-1,-1,16,18,20,22,24,26,28,30,32,34,36,38,-1,40,42,44,46,48,-1,-1,-1,-1,-1,50,52,-1,54,-1,-1,-1,-1,-1,-1,-1,-1,-1,-1,-1,-1,-1,-1,-1,-1,-1,-1],"split_conditions":[7.1859424E2,7.073363E2,1.0483599E3,6.956908E2,7.8075486E-1,7.414005E-1,1.1240576E3,2.4646325E0,-1.1923319E-1,9.105807E-2,1.7797947E1,1.41125345E1,5.324929E2,1.7383882E0,2.812509E1,2.368661E0,2.5321758E3,1.0793763E3,1.0137388E3,3.5391247E1,9.3707605E2,6.3966974E2,7.5033593E-1,3.619231E0,9.873393E1,9.7214484E-1,3.0211234E0,1.6917578E2,2.7943613E-2,9.56707E-3,2.8718427E-2,1.7277576E-3,1.0326957E-2,1.3471151E1,5.447451E1,2.0129241E-2,1.0526608E3,-4.490477E-3,3.2346132E-1,-1.3309968E-2,2.0173725E-2,-1.3481096E-3,-8.403917E-3,-2.2397928E-2,8.394517E-3,-2.4669407E-1,-2.412957E-2,6.3032857E-3,-3.4998306E-3,-8.609021E-3,-4.1670192E-2,6.397922E-3,-5.454122E-3,4.75755E-3,1.1468697E-2],"split_indices":[1,1,1,1,0,0,1,0,0,0,0,0,0,0,0,0,0,1,0,0,0,1,0,0,0,0,0,0,0,0,0,0,0,0,0,0,0,0,0,0,0,0,0,0,0,0,0,0,0,0,0,0,0,0,0],"sum_hessian":[6.73E2,1.33E2,5.4E2,1.32E2,1E0,2.71E2,2.69E2,1.31E2,1E0,1E0,2.7E2,9.8E1,1.71E2,4.9E1,8.2E1,1.22E2,1.48E2,4.7E1,5.1E1,5.3E1,1.18E2,4.8E1,1E0,3.6E1,4.6E1,7.2E1,5E1,1.35E2,1.3E1,2E0,4.5E1,4E0,4.7E1,2.8E1,2.5E1,1.4E1,1.04E2,4.7E1,1E0,1.2E1,2.4E1,1E1,3.6E1,6E0,6.6E1,2E0,4.8E1,7.3E1,6.2E1,2.3E1,5E0,6E0,1.9E1,3.7E1,6.7E1],"tree_param":{"num_deleted":"0","num_feature":"4","num_nodes":"55","size_leaf_vector":"0"}},{"base_weights":[2.023631E-2,6.967224E-2,7.954144E-3,3.6930904E-2,2.2121353E0,2.57998E-1,7.0133256E-3,9.397569E-2,-7.089214E-3,-8.511576E-3,2.2569751E-2,2.1029593E-2,2.1259518E0,1.8200727E-1,-2.5897589E-2,-3.8832124E-2,8.075267E-3,4.420641E-2,9.984873E-3,9.39439E-2,-2.7486367E-2,-9.3149394E-2,9.164736E-1,-1.0668066E-1,8.549255E-3,1.2773654E-2,-1.941817E-1,2.9479503E-3,6.719507E-2,6.641158E-2,2.2859212E-2,-2.8776582E-2,2.353394E-2,3.3394236E-2,2.2757253E-1,-2.7229938E-1,-1.2277179E-2,-3.3782735E-1,2.335167E-2,-3.6099985E-2,-1.675631E-1,6.562381E-2,-1.1201232E-2,-5.5461578E-2,1.9712057E-2,-6.578508E-1,-1.22127645E-1,2.0590859E-2,-2.9569862E-3,2.551206E-2,6.76352E-2,4.3770312E-3,2.4308205E-2,-1.674732E-2,-1.0417557E-1,2.0067114E-2,4.8312888E-2],"default_left":[true,true,true,true,false,false,true,true,true,true,true,true,false,true,true,true,true,true,true,true,true,true,false,true,true,true,true,true,false,true,true,true,true,false,false,false,false,false,false,false,false,false,false,false,false,false,false,false,false,false,false,false,false,false,false,false,false],"id":25,"leaf_child_counts":[0,0,0,0,0,0,0,0,0,0,0,0,0,0,0,0,0,0,0,0,0,0,0,0,0,0,0,0,0,0,0,0,0,0,0,0,0,0,0,0,0,0,0,0,0,0,0,0,0,0,0,0,0,0,0,0,0],"left_children":[1,3,5,7,-1,-1,9,11,13,15,17,19,-1,21,23,25,27,29,31,33,35,37,-1,39,41,43,45,47,-1,49,51,53,55,-1,-1,-1,-1,-1,-1,-1,-1,-1,-1,-1,-1,-1,-1,-1,-1,-1,-1,-1,-1,-1,-1,-1,-1],"loss_changes":[4.0868533E-1,9.318017E0,1.2545857E-1,3.3464494E-1,0E0,0E0,1.3060856E-1,8.552326E0,2.7501494E-1,1.3660549E-1,7.307817E-2,2.0422012E-1,0E0,1.5000222E0,1.9570258E-1,7.721062E-1,5.3152077E-2,4.540968E-2,9.1008455E-2,1.7849725E-1,1.2697618E-1,1.7892028E-1,0E0,8.419056E-2,5.7097588E-2,3.5654638E-2,7.2148E-1,1.7042268E-2,0E0,6.7667663E-4,1.2861919E-3,3.9070074E-2,1.0026246E-2,0E0,0E0,0E0,0E0,0E0,0E0,0E0,0E0,0E0,0E0,0E0,0E0,0E0,0E0,0E0,0E0,0E0,0E0,0E0,0E0,0E0,0E0,0E0,0E0],"parents":[2147483647,0,0,1,1,2,2,3,3,6,6,7,7,8,8,9,9,10,10,11,11,13,13,14,14,15,15,16,16,17,17,18,18,19,19,20,20,21,21,23,23,24,24,25,25,26,26,27,27,29,29,30,30,31,31,32,32],"right_children":[2,4,6,8,-1,-1,10,12,14,16,18,20,-1,22,24,26,28,30,32,34,36,38,-1,40,42,44,46,48,-1,50,52,54,56,-1,-1,-1,-1,-1,-1,-1,-1,-1,-1,-1,-1,-1,-1,-1,-1,-1,-1,-1,-1,-1,-1,-1,-1],"split_conditions":[7.1859424E2,7.073363E2,5.964234E-1,5.966439E2,6.636406E-1,7.73994E-2,1.0483599E3,5.881743E2,1.1442847E0,1.3526341E1,1.1240576E3,1.1731116E0,6.3778555E-1,9.481385E-1,2.8041945E0,2.368661E0,2.5321758E3,1.41125345E1,1.09876076E2,5.299645E2,2.1753063E0,7.0203954E-1,2.749421E-1,1.2506814E0,8.11334E0,9.7214484E-1,3.0211234E0,7.948584E2,2.0158522E-2,1.0793763E3,1.0137388E3,1.4913184E3,1.19604826E-1,1.0018271E-2,6.827176E-2,-8.168982E-2,-3.683154E-3,-1.01348214E-1,7.005501E-3,-1.0829996E-2,-5.026893E-2,1.9687144E-2,-3.3603697E-3,-1.6638475E-2,5.9136176E-3,-1.9735526E-1,-3.6638293E-2,6.1772577E-3,-8.8709587E-4,7.653618E-3,2.0290561E-2,1.3131094E-3,7.2924616E-3,-5.024196E-3,-3.125267E-2,6.020135E-3,1.4493867E-2],"split_indices":[1,1,0,1,0,0,1,1,0,0,1,0,0,0,0,0,0,0,0,1,0,0,0,0,0,0,0,1,0,1,0,1,2,0,0,0,0,0,0,0,0,0,0,0,0,0,0,0,0,0,0,0,0,0,0,0,0],"sum_hessian":[6.73E2,1.33E2,5.4E2,1.32E2,1E0,1E0,5.39E2,5.7E1,7.5E1,2.7E2,2.69E2,5.6E1,1E0,6E0,6.9E1,9.5E1,1.75E2,9.8E1,1.71E2,2.2E1,3.4E1,5E0,1E0,2E1,4.9E1,7.2E1,2.3E1,1.62E2,1.3E1,4.7E1,5.1E1,4.4E1,1.27E2,1.6E1,6E0,1E0,3.3E1,1E0,4E0,1E1,1E1,1.2E1,3.7E1,6E0,6.6E1,2E0,2.1E1,4E1,1.22E2,2E0,4.5E1,4E0,4.7E1,3.9E1,5E0,1.13E2,1.4E1],"tree_param":{"num_deleted":"0","num_feature":"4","num_nodes":"57","size_leaf_vector":"0"}},{"base_weights":[1.6107198E-2,5.944351E-2,5.3434772E-3,3.1615E-2,1.8803177E0,2.1929836E-1,4.5411563E-3,8.2061276E-2,2.3699059E-4,-6.300373E-3,1.6864553E-2,1.1420165E-2,1.8070583E0,1.912494E-2,-1.2611556E-2,-2.2172099E-2,9.074358E-3,3.27501E-1,1.1826912E-2,9.1835216E-2,-9.51006E-2,-2.8680611E-2,4.650436E-2,-7.9292925E-3,-2.5328051E-2,-1.1971816E-2,-4.9079457E-1,2.2180878E-2,-2.778936E-2,-5.1044118E-2,1.4659222E-2,3.9472003E-2,7.7900267E-1,-2.6254492E-2,-1.5028447E-1,-7.093974E-4,-2.5586361E-2,-3.5349783E-2,6.0035307E-3,1.3565709E-3,4.4981435E-2,-1.8088082E-2,-7.813171E-2,-2.405548E-3,-2.687149E-1,1.2508905E-2,4.847799E-2],"default_left":[true,true,true,true,false,false,true,true,true,true,true,true,false,true,true,true,true,false,true,true,true,false,false,true,false,true,false,true,true,true,true,false,false,false,false,false,false,false,false,false,false,false,false,false,false,false,false],"id":26,"leaf_child_counts":[0,0,0,0,0,0,0,0,0,0,0,0,0,0,0,0,0,0,0,0,0,0,0,0,0,0,0,0,0,0,0,0,0,0,0,0,0,0,0,0,0,0,0,0,0,0,0],"left_children":[1,3,5,7,-1,-1,9,11,13,15,17,19,-1,21,23,25,27,-1,29,31,33,-1,-1,35,-1,37,-1,39,41,43,45,-1,-1,-1,-1,-1,-1,-1,-1,-1,-1,-1,-1,-1,-1,-1,-1],"loss_changes":[3.1407642E-1,6.730631E0,9.1872446E-2,2.1050674E-1,0E0,0E0,7.225267E-2,6.194004E0,2.0383859E-2,7.0479974E-2,3.9204007E-1,4.370272E-1,0E0,4.5835976E-2,2.776266E-3,6.728959E-1,7.1640186E-2,0E0,4.5265827E-2,1.0127379E0,7.963663E-2,0E0,0E0,4.8261723E-3,0E0,5.9044015E-2,0E0,5.169281E-2,1.763377E-2,1.15812734E-1,1.684665E-2,0E0,0E0,0E0,0E0,0E0,0E0,0E0,0E0,0E0,0E0,0E0,0E0,0E0,0E0,0E0,0E0],"parents":[2147483647,0,0,1,1,2,2,3,3,6,6,7,7,8,8,9,9,10,10,11,11,13,13,14,14,15,15,16,16,18,18,19,19,20,20,23,23,25,25,27,27,28,28,29,29,30,30],"right_children":[2,4,6,8,-1,-1,10,12,14,16,18,20,-1,22,24,26,28,-1,30,32,34,-1,-1,36,-1,38,-1,40,42,44,46,-1,-1,-1,-1,-1,-1,-1,-1,-1,-1,-1,-1,-1,-1,-1,-1],"split_conditions":[7.1859424E2,7.073363E2,5.964234E-1,2.4646325E0,5.640953E-1,6.578951E-2,1.11672516E2,1.7383882E0,8.745995E0,9.5025726E2,1.4829684E2,1.1442847E0,5.4211754E-1,3.619231E0,1.5873703E2,9.021963E2,1.17318E3,9.825031E-2,5.533718E2,9.779229E-1,1.2506814E0,-8.604184E-3,1.3951308E-2,6.8816394E2,-7.5984155E-3,7.980603E2,-1.4723837E-1,1.0832725E3,1.4913184E3,1.8322406E2,2.586095E3,1.1841602E-2,2.3370081E-1,-7.876348E-3,-4.508534E-2,-2.1281924E-4,-7.6759085E-3,-1.0604935E-2,1.8010592E-3,4.069713E-4,1.3494431E-2,-5.4264246E-3,-2.3439515E-2,-7.216644E-4,-8.061448E-2,3.7526714E-3,1.4543397E-2],"split_indices":[1,1,0,0,0,0,0,0,0,1,0,0,0,0,0,1,1,0,0,0,0,0,0,1,0,1,0,1,1,0,0,0,0,0,0,0,0,0,0,0,0,0,0,0,0,0,0],"sum_hessian":[6.73E2,1.33E2,5.4E2,1.32E2,1E0,1E0,5.39E2,5E1,8.2E1,2.87E2,2.52E2,4.9E1,1E0,3.3E1,4.9E1,1.41E2,1.46E2,3E0,2.49E2,2.8E1,2.1E1,1.2E1,2.1E1,3.7E1,1.2E1,1.39E2,2E0,1.08E2,3.8E1,1E1,2.39E2,2.7E1,1E0,1E1,1.1E1,2.7E1,1E1,6E1,7.9E1,5.7E1,5.1E1,3.3E1,5E0,9E0,1E0,2.26E2,1.3E1],"tree_param":{"num_deleted":"0","num_feature":"4","num_nodes":"47","size_leaf_vector":"0"}},{"base_weights":[1.3082721E-2,5.122723E-2,3.6105465E-3,2.7578311E-2,1.5982666E0,1.8640375E-1,2.9268484E-3,3.2227755E-2,-2.9307404E-1,-6.2665124E-3,1.2143418E-2,8.500869E-2,4.372252E-5,1.4633257E-2,-1.3901772E-2,1.4249543E-2,-2.4610663E-2,2.4049714E-2,1.5359993E0,1.3544726E-2,-9.137834E-3,-3.211001E-2,1.9298475E-2,-5.1921076E-1,-6.1361445E-3,-8.509526E-3,1.6749483E-2,-5.8598876E-2,-1.7566681E-3,-3.0389295E-3,6.621523E-1,-2.0738302E-2,3.318721E-2,-2.8385712E-2,-6.368388E-3,2.8654065E-2,3.4433512E-3,-7.575817E-2,1.7210275E-3,3.3979733E-2,-2.02441E-2,3.5260532E-2,1.2081431E-2],"default_left":[true,true,true,true,false,false,true,true,false,true,true,true,true,true,true,true,true,true,false,true,true,false,true,false,true,true,true,false,false,false,false,false,false,false,false,false,false,false,false,false,false,false,false],"id":27,"leaf_child_counts":[0,0,0,0,0,0,0,0,0,0,0,0,0,0,0,0,0,0,0,0,0,0,0,0,0,0,0,0,0,0,0,0,0,0,0,0,0,0,0,0,0,0,0],"left_children":[1,3,5,7,-1,-1,9,11,-1,13,15,17,19,21,23,25,27,29,-1,31,33,-1,35,-1,37,39,41,-1,-1,-1,-1,-1,-1,-1,-1,-1,-1,-1,-1,-1,-1,-1,-1],"loss_changes":[2.4333897E-1,4.8584204E0,6.7066096E-2,2.0772877E-1,0E0,0E0,4.5830972E-2,2.2422513E-1,0E0,4.34483E-2,2.125103E-2,4.385605E0,1.04124695E-2,1.6538603E-2,7.776983E-1,1.4707986E-2,1.1548557E-2,8.4899354E-1,0E0,2.3583977E-2,2.4845274E-3,0E0,9.839715E-3,0E0,1.07895724E-1,1.3651315E-2,1.9534834E-2,0E0,0E0,0E0,0E0,0E0,0E0,0E0,0E0,0E0,0E0,0E0,0E0,0E0,0E0,0E0,0E0],"parents":[2147483647,0,0,1,1,2,2,3,3,6,6,7,7,9,9,10,10,11,11,12,12,13,13,14,14,15,15,16,16,17,17,19,19,20,20,22,22,24,24,25,25,26,26],"right_children":[2,4,6,8,-1,-1,10,12,-1,14,16,18,20,22,24,26,28,30,-1,32,34,-1,36,-1,38,40,42,-1,-1,-1,-1,-1,-1,-1,-1,-1,-1,-1,-1,-1,-1,-1,-1],"split_conditions":[7.1859424E2,7.073363E2,5.964234E-1,6.956908E2,4.7948E-1,5.5921126E-2,1.0483599E3,2.4646325E0,-8.7922215E-2,2.368661E0,1.5324125E3,1.7383882E0,8.745995E0,9.7214484E-1,3.0211234E0,5.9921E0,9.0792816E1,6.3966974E2,4.607998E-1,3.619231E0,6.3989296E1,-9.633003E-3,9.4343896E2,-1.5576324E-1,1.1290533E1,4.1068873E0,1.4236572E1,-1.7579664E-2,-5.2700046E-4,-9.116789E-4,1.986457E-1,-6.221491E-3,9.956163E-3,-8.515714E-3,-1.9105164E-3,8.59622E-3,1.0330054E-3,-2.272745E-2,5.163083E-4,1.019392E-2,-6.07323E-3,1.057816E-2,3.6244295E-3],"split_indices":[1,1,0,1,0,0,1,0,0,0,1,0,0,0,0,0,0,1,0,0,0,0,1,0,0,0,0,0,0,0,0,0,0,0,0,0,0,0,0,0,0,0,0],"sum_hessian":[6.73E2,1.33E2,5.4E2,1.32E2,1E0,1E0,5.39E2,1.31E2,1E0,2.7E2,2.69E2,4.9E1,8.2E1,7.2E1,1.98E2,2.55E2,1.4E1,4.8E1,1E0,3.3E1,4.9E1,6E0,6.6E1,2E0,1.96E2,2.5E1,2.3E2,5E0,9E0,4.7E1,1E0,1.2E1,2.1E1,5E0,4.4E1,4.1E1,2.5E1,1.9E1,1.77E2,5E0,2E1,4.5E1,1.85E2],"tree_param":{"num_deleted":"0","num_feature":"4","num_nodes":"43","size_leaf_vector":"0"}},{"base_weights":[1.0524125E-2,4.364563E-2,2.3008245E-3,2.3544798E-2,1.3585281E0,1.5844297E-1,1.7182594E-3,2.7497606E-2,-2.4911293E-1,-6.1707147E-3,8.489824E-3,7.267676E-2,-5.005031E-5,-2.1771537E-2,4.908579E-3,2.610853E-2,5.495922E-3,2.08702E-2,1.3055992E0,7.7711376E-3,-9.98372E-3,-1.1095957E-2,-3.7748405E-1,1.2547695E-2,-1.6567634E-2,2.1244783E-3,2.534259E-1,-4.274186E-2,7.6839207E-3,-2.1462338E-3,5.628295E-1,-1.4995403E-2,1.600525E-2,-6.1695953E-3,-1.6550599E-2,-6.0448963E-3,-1.3333572E-1,3.6851228E-3,2.2191571E-2,-1.1248301E-2,-4.3949246E-2,1.9540275E-2,-4.241918E-4,-1.2828826E-3,-2.2866583E-1,-1.0794486E-2,1.03750955E-2],"default_left":[true,true,true,true,false,false,true,true,false,true,true,true,true,true,true,true,true,true,false,true,true,true,false,true,true,true,false,true,true,false,false,false,false,false,false,false,false,false,false,false,false,false,false,false,false,false,false],"id":28,"leaf_child_counts":[0,0,0,0,0,0,0,0,0,0,0,0,0,0,0,0,0,0,0,0,0,0,0,0,0,0,0,0,0,0,0,0,0,0,0,0,0,0,0,0,0,0,0,0,0,0,0],"left_children":[1,3,5,7,-1,-1,9,11,-1,13,15,17,19,21,23,25,27,29,-1,31,33,35,-1,37,39,41,-1,43,45,-1,-1,-1,-1,-1,-1,-1,-1,-1,-1,-1,-1,-1,-1,-1,-1,-1,-1],"loss_changes":[1.8347569E-1,3.5096648E0,4.8938714E-2,1.5019259E-1,0E0,0E0,2.8899563E-2,1.642882E-1,0E0,4.3318383E-2,1.5206374E-2,3.1664257E0,6.5261126E-3,3.9074492E-1,2.4324603E-2,2.2844522E-1,2.6714478E-2,6.124325E-1,0E0,9.05073E-3,8.246247E-4,6.2172934E-2,0E0,9.2344005E-3,5.1860707E-3,1.7393865E-3,0E0,8.449705E-2,1.2046862E-2,0E0,0E0,0E0,0E0,0E0,0E0,0E0,0E0,0E0,0E0,0E0,0E0,0E0,0E0,0E0,0E0,0E0,0E0],"parents":[2147483647,0,0,1,1,2,2,3,3,6,6,7,7,9,9,10,10,11,11,12,12,13,13,14,14,15,15,16,16,17,17,19,19,20,20,21,21,23,23,24,24,25,25,27,27,28,28],"right_children":[2,4,6,8,-1,-1,10,12,-1,14,16,18,20,22,24,26,28,30,-1,32,34,36,-1,38,40,42,-1,44,46,-1,-1,-1,-1,-1,-1,-1,-1,-1,-1,-1,-1,-1,-1,-1,-1,-1,-1],"split_conditions":[7.1859424E2,7.073363E2,5.964234E-1,6.956908E2,4.0755847E-1,4.7532894E-2,6.2042114E1,2.4646325E0,-7.473388E-2,9.5025726E2,1.4829684E2,1.7383882E0,9.873393E1,9.021963E2,1.17318E3,1.11672516E2,5.533718E2,6.3966974E2,3.916798E-1,3.619231E0,1.5873703E2,1.85243E1,-1.1324522E-1,1.0832725E3,1.4913184E3,7.948584E2,7.602777E-2,1.8322406E2,8.347492E2,-6.4387015E-4,1.6884886E-1,-4.498621E-3,4.801575E-3,-1.8508787E-3,-4.9651796E-3,-1.813469E-3,-4.0000718E-2,1.1055369E-3,6.6574714E-3,-3.3744904E-3,-1.3184775E-2,5.862083E-3,-1.2725755E-4,-3.848648E-4,-6.859975E-2,-3.238346E-3,3.1125287E-3],"split_indices":[1,1,0,1,0,0,0,0,0,1,0,0,0,1,1,0,0,1,0,0,0,0,0,1,1,1,0,0,1,0,0,0,0,0,0,0,0,0,0,0,0,0,0,0,0,0,0],"sum_hessian":[6.73E2,1.33E2,5.4E2,1.32E2,1E0,1E0,5.39E2,1.31E2,1E0,2.49E2,2.9E2,4.9E1,8.2E1,1.03E2,1.46E2,4.1E1,2.49E2,4.8E1,1E0,4.6E1,3.6E1,1.01E2,2E0,1.08E2,3.8E1,3.8E1,3E0,1E1,2.39E2,4.7E1,1E0,1.2E1,3.4E1,2.4E1,1.2E1,9.8E1,3E0,5.7E1,5.1E1,3.3E1,5E0,4E0,3.4E1,9E0,1E0,3E1,2.09E2],"tree_param":{"num_deleted":"0","num_feature":"4","num_nodes":"47","size_leaf_vector":"0"}},{"base_weights":[8.527631E-3,3.716529E-2,1.4186223E-3,2.0080112E-2,1.154747E0,1.3467646E-1,9.2244765E-4,2.3440506E-2,-2.11746E-1,-5.0753586E-2,1.5981215E-3,8.4603466E-2,6.9071404E-3,1.7237401E-1,9.5431297E-4,5.2299522E-2,4.78405E-1,-6.7492895E-2,2.6310636E-2,-5.075455E-3,5.9862006E-3,-3.9429218E-4,1.1819965E-1,-1.7679984E-2,-1.0753032E-1,1.1097584E0,-1.1353428E-4,1.1818814E-2,-1.2687889E-2,2.022271E-2,3.5705224E-3],"default_left":[true,true,true,true,false,false,true,true,false,false,true,true,true,false,true,true,false,true,true,true,true,false,false,false,false,false,false,false,false,false,false],"id":29,"leaf_child_counts":[0,0,0,0,0,0,0,0,0,0,0,0,0,0,0,0,0,0,0,0,0,0,0,0,0,0,0,0,0,0,0],"left_children":[1,3,5,7,-1,-1,9,11,-1,-1,13,15,17,-1,19,21,-1,23,25,27,29,-1,-1,-1,-1,-1,-1,-1,-1,-1,-1],"loss_changes":[1.3716382E-1,2.5354197E0,3.564623E-2,1.0857406E-1,0E0,0E0,1.8935828E-2,1.3289794E-1,0E0,0E0,5.8547176E-2,3.3117723E-1,1.5335596E-1,0E0,1.6202196E-2,9.380488E-2,0E0,4.1975237E-2,2.4049795E0,3.1401336E-2,9.935524E-3,0E0,0E0,0E0,0E0,0E0,0E0,0E0,0E0,0E0,0E0],"parents":[2147483647,0,0,1,1,2,2,3,3,6,6,7,7,10,10,11,11,12,12,14,14,15,15,17,17,18,18,19,19,20,20],"right_children":[2,4,6,8,-1,-1,10,12,-1,-1,14,16,18,-1,20,22,-1,24,26,28,30,-1,-1,-1,-1,-1,-1,-1,-1,-1,-1],"split_conditions":[7.1859424E2,7.073363E2,5.964234E-1,6.956908E2,3.464241E-1,4.0402938E-2,7.2646136E2,1.1442847E0,-6.352381E-2,-1.5226076E-2,7.343334E2,9.779229E-1,1.7383882E0,5.1712204E-2,6.2042114E1,8.538693E-1,1.435215E-1,1.2506814E0,2.4646325E0,2.368661E0,1.4829684E2,-1.1828766E-4,3.5459895E-2,-5.303995E-3,-3.2259095E-2,3.3292753E-1,-3.4060286E-5,3.5456445E-3,-3.8063668E-3,6.0668136E-3,1.0711568E-3],"split_indices":[1,1,0,1,0,0,1,0,0,0,1,0,0,0,0,0,0,0,0,0,0,0,0,0,0,0,0,0,0,0,0],"sum_hessian":[6.73E2,1.33E2,5.4E2,1.32E2,1E0,1E0,5.39E2,1.31E2,1E0,6E0,5.33E2,2.7E1,1.04E2,1E0,5.32E2,2.6E1,1E0,2.1E1,8.3E1,2.42E2,2.9E2,1.5E1,1.1E1,1E1,1.1E1,1E0,8.2E1,7.5E1,1.67E2,4.1E1,2.49E2],"tree_param":{"num_deleted":"0","num_feature":"4","num_nodes":"31","size_leaf_vector":"0"}},{"base_weights":[7.217766E-3,3.1665657E-2,1.1489392E-3,1.7143792E-2,9.8153687E-1,1.1447477E-1,7.270863E-4,2.00007E-2,-1.799841E-1,-6.3522737E-3,6.5842355E-3,5.293452E-2,-7.992283E-5,-1.2157317E-4,-2.5561575E-2,7.612348E-3,-1.3183228E-2,1.5513001E-2,9.432945E-1,8.246043E-3,-5.7399813E-3,-7.3868786E-3,2.0920074E-2,-3.22038E-1,-4.3077637E-3,1.3759336E-2,5.109782E-3,-2.9789964E-2,-1.9008636E-3,-1.1073262E-3,4.0664434E-1,-1.0811432E-2,1.9132458E-2,-2.1702323E-2,-2.1828134E-3,5.572796E-3,-3.207236E-2,1.0562317E-2,3.617337E-2,-2.0219362E-3,-6.0303807E-3,1.8610557E-3,2.277192E-2,2.7206491E-3,1.8200781E-2],"default_left":[true,true,true,true,false,false,true,true,false,true,true,true,true,true,true,true,true,true,false,true,true,true,true,false,true,true,true,false,false,false,false,false,false,false,false,false,false,false,false,false,false,false,false,false,false],"id":30,"leaf_child_counts":[0,0,0,0,0,0,0,0,0,0,0,0,0,0,0,0,0,0,0,0,0,0,0,0,0,0,0,0,0,0,0,0,0,0,0,0,0,0,0,0,0,0,0,0,0],"left_children":[1,3,5,7,-1,-1,9,11,-1,13,15,17,19,21,23,25,27,29,-1,31,33,35,37,-1,39,41,43,-1,-1,-1,-1,-1,-1,-1,-1,-1,-1,-1,-1,-1,-1,-1,-1,-1,-1],"loss_changes":[9.9965006E-2,1.8315556E0,2.5780268E-2,7.850227E-2,0E0,0E0,2.2432854E-2,8.730002E-2,0E0,2.9320307E-2,6.116015E-3,1.6512979E0,3.9587445E-3,2.8589096E-2,3.7668797E-1,4.267767E-3,2.7538224E-3,3.189861E-1,0E0,7.2607473E-3,2.7916643E-3,4.464703E-2,7.2014425E-3,0E0,2.1225051E-4,8.643593E-3,6.268261E-3,0E0,0E0,0E0,0E0,0E0,0E0,0E0,0E0,0E0,0E0,0E0,0E0,0E0,0E0,0E0,0E0,0E0,0E0],"parents":[2147483647,0,0,1,1,2,2,3,3,6,6,7,7,9,9,10,10,11,11,12,12,13,13,14,14,15,15,16,16,17,17,19,19,20,20,21,21,22,22,24,24,25,25,26,26],"right_children":[2,4,6,8,-1,-1,10,12,-1,14,16,18,20,22,24,26,28,30,-1,32,34,36,38,-1,40,42,44,-1,-1,-1,-1,-1,-1,-1,-1,-1,-1,-1,-1,-1,-1,-1,-1,-1,-1],"split_conditions":[7.1859424E2,7.073363E2,5.964234E-1,6.956908E2,2.9446107E-1,3.4342434E-2,1.0125497E3,2.4646325E0,-5.399523E-2,9.040432E2,1.5324125E3,1.7383882E0,8.745995E0,8.55619E2,9.591833E2,1.1483021E1,9.0792816E1,6.3966974E2,2.8298837E-1,3.619231E0,8.554549E1,7.842041E2,8.8812085E2,-9.66114E-2,4.7421176E2,5.9921E0,1.4939594E3,-8.936989E-3,-5.702591E-4,-3.3219787E-4,1.2199331E-1,-3.2434298E-3,5.7397373E-3,-6.5106973E-3,-6.5484404E-4,1.6718388E-3,-9.621709E-3,3.1686954E-3,1.0852011E-2,-6.0658087E-4,-1.8091142E-3,5.5831677E-4,6.831576E-3,8.1619475E-4,5.4602344E-3],"split_indices":[1,1,0,1,0,0,1,0,0,1,1,0,0,1,1,0,0,1,0,0,0,1,1,0,0,0,1,0,0,0,0,0,0,0,0,0,0,0,0,0,0,0,0,0,0],"sum_hessian":[6.73E2,1.33E2,5.4E2,1.32E2,1E0,1E0,5.39E2,1.31E2,1E0,2.44E2,2.95E2,4.9E1,8.2E1,1.85E2,5.9E1,2.81E2,1.4E1,4.8E1,1E0,3.3E1,4.9E1,1.38E2,4.7E1,3E0,5.6E1,8E1,2.01E2,5E0,9E0,4.7E1,1E0,1.2E1,2.1E1,8E0,4.1E1,9.1E1,4.7E1,2.9E1,1.8E1,2.5E1,3.1E1,3.5E1,4.5E1,1.71E2,3E1],"tree_param":{"num_deleted":"0","num_feature":"4","num_nodes":"45","size_leaf_vector":"0"}},{"base_weights":[5.9224805E-3,2.6945375E-2,7.0438394E-4,1.4602034E-2,8.343048E-1,9.730339E-2,3.453054E-4,-6.093253E-2,2.0575773E-2,-1.15264105E-2,2.5266595E-3,-3.3705816E-2,-1.5298647E-1,1.01354286E-1,4.993429E-3,6.859917E-3,-1.6550803E-1,1.4568198E-1,1.8932445E-3,7.0304774E-2,3.4564757E-1,-4.8635326E-2,1.8979609E-2,-2.6770933E-2,1.0125004E-2,-4.0520772E-1,-3.9135583E-2,-2.0450424E-2,3.79937E-3,9.700213E-2,2.9863026E-2,-3.2680977E-2,-1.9183834E-1,8.017998E-1,-1.1219659E-4,3.167449E-2,6.8335454E-3,-9.978121E-3,-1.01734325E-1,1.9060105E-1,2.0027047E-3],"default_left":[true,true,true,true,false,false,true,true,true,true,true,false,false,true,true,true,true,false,true,true,false,true,true,false,true,false,false,true,true,false,false,false,false,false,false,false,false,false,false,false,false],"id":31,"leaf_child_counts":[0,0,0,0,0,0,0,0,0,0,0,0,0,0,0,0,0,0,0,0,0,0,0,0,0,0,0,0,0,0,0,0,0,0,0,0,0,0,0,0,0],"left_children":[1,3,5,7,-1,-1,9,11,13,15,17,-1,-1,19,21,23,25,-1,27,29,-1,31,33,-1,35,-1,-1,37,39,-1,-1,-1,-1,-1,-1,-1,-1,-1,-1,-1,-1],"loss_changes":[7.391848E-2,1.3231962E0,1.8731868E-2,6.1266493E-2,0E0,0E0,1.4013189E-2,1.9906726E-2,1.55575E-1,2.389525E-1,4.116346E-2,0E0,0E0,1.2740311E-1,7.9679534E-2,8.616435E-3,2.567649E-1,0E0,1.9498665E-2,1.7617293E-2,0E0,4.399418E-2,1.255508E0,0E0,4.7485963E-3,0E0,0E0,2.9629152E-2,1.4091434E-1,0E0,0E0,0E0,0E0,0E0,0E0,0E0,0E0,0E0,0E0,0E0,0E0],"parents":[2147483647,0,0,1,1,2,2,3,3,6,6,7,7,8,8,9,9,10,10,13,13,14,14,15,15,16,16,18,18,19,19,21,21,22,22,24,24,27,27,28,28],"right_children":[2,4,6,8,-1,-1,10,12,14,16,18,-1,-1,20,22,24,26,-1,28,30,-1,32,34,-1,36,-1,-1,38,40,-1,-1,-1,-1,-1,-1,-1,-1,-1,-1,-1,-1],"split_conditions":[7.1859424E2,7.073363E2,5.964234E-1,6.0978436E-1,2.5029147E-1,2.9191019E-2,3.4826112E0,5.432688E-1,1.1442847E0,2.368661E0,7.494437E2,-1.0111745E-2,-4.589594E-2,9.779229E-1,1.7383882E0,7.400001E2,3.0211234E0,4.3704595E-2,7.74228E2,8.836537E-1,1.03694275E-1,1.36027E0,2.4646325E0,-8.03128E-3,1.4579873E0,-1.21562324E-1,-1.1740675E-2,7.72085E2,7.778574E2,2.910064E-2,8.958908E-3,-9.8042935E-3,-5.7551503E-2,2.4053994E-1,-3.365898E-5,9.502348E-3,2.0500638E-3,-2.9934365E-3,-3.05203E-2,5.718032E-2,6.0081144E-4],"split_indices":[1,1,0,0,0,0,0,0,0,0,1,0,0,0,0,1,0,0,1,0,0,0,0,0,0,0,0,1,1,0,0,0,0,0,0,0,0,0,0,0,0],"sum_hessian":[6.73E2,1.33E2,5.4E2,1.32E2,1E0,1E0,5.39E2,9E0,1.23E2,8.3E1,4.56E2,8E0,1E0,1.9E1,1.04E2,7.5E1,8E0,1E0,4.55E2,1.8E1,1E0,2.1E1,8.3E1,6E0,6.9E1,2E0,6E0,3.5E1,4.2E2,1E1,8E0,2E1,1E0,1E0,8.2E1,8E0,6.1E1,3.2E1,3E0,3E0,4.17E2],"tree_param":{"num_deleted":"0","num_feature":"4","num_nodes":"41","size_leaf_vector":"0"}},{"base_weights":[4.8531587E-3,2.2661703E-2,4.331993E-4,1.2168034E-2,7.0915985E-1,8.270788E-2,1.2767604E-4,1.4230496E-2,-1.300385E-1,-4.4738916E-3,3.9359746E-3,3.76995E-2,-7.890865E-5,7.966676E-4,-2.073806E-2,2.9254733E-3,2.2671001E-2,1.0651326E-2,6.8153E-1,4.9538957E-3,-6.4697973E-3,-1.3767445E-2,7.0164665E-3,-2.5003E-1,-4.28357E-3,8.252225E-3,-1.3072445E-3,-1.3684533E-3,2.9380035E-1,1.3547682E-3,2.9322138E-2,-1.4531949E-2,-2.9455954E-3,8.438055E-3,-1.3066708E-1,1.2382972E-1,5.165367E-3,-3.408432E-3,-4.860759E-3,1.29957935E-2,4.0848833E-3,-4.6018492E-3,1.2338454E-2],"default_left":[true,true,true,true,false,false,true,true,false,true,true,true,true,true,true,true,false,true,false,true,true,true,true,false,true,true,true,false,false,false,false,false,false,false,false,false,false,false,false,false,false,false,false],"id":32,"leaf_child_counts":[0,0,0,0,0,0,0,0,0,0,0,0,0,0,0,0,0,0,0,0,0,0,0,0,0,0,0,0,0,0,0,0,0,0,0,0,0,0,0,0,0,0,0],"left_children":[1,3,5,7,-1,-1,9,11,-1,13,15,17,19,21,23,25,-1,27,-1,29,31,33,35,-1,37,39,41,-1,-1,-1,-1,-1,-1,-1,-1,-1,-1,-1,-1,-1,-1,-1,-1],"loss_changes":[5.304277E-2,9.566914E-1,1.3588465E-2,4.085883E-2,0E0,0E0,9.480646E-3,4.4332195E-2,0E0,2.1018231E-2,5.537479E-3,8.6346275E-1,2.7016704E-3,1.6945567E-2,2.253019E-1,6.368939E-3,0E0,1.671681E-1,0E0,4.082382E-3,1.0084626E-3,1.464682E-1,2.7686896E-2,0E0,1.2224307E-5,2.417923E-3,7.1600145E-3,0E0,0E0,0E0,0E0,0E0,0E0,0E0,0E0,0E0,0E0,0E0,0E0,0E0,0E0,0E0,0E0],"parents":[2147483647,0,0,1,1,2,2,3,3,6,6,7,7,9,9,10,10,11,11,12,12,13,13,14,14,15,15,17,17,19,19,20,20,21,21,22,22,24,24,25,25,26,26],"right_children":[2,4,6,8,-1,-1,10,12,-1,14,16,18,20,22,24,26,-1,28,-1,30,32,34,36,-1,38,40,42,-1,-1,-1,-1,-1,-1,-1,-1,-1,-1,-1,-1,-1,-1,-1,-1],"split_conditions":[7.1859424E2,7.073363E2,5.964234E-1,6.956908E2,2.1274796E-1,2.4812365E-2,1.0125497E3,2.4646325E0,-3.9011553E-2,9.040432E2,1.19604826E-1,1.7383882E0,9.873393E1,3.5657842E0,9.591833E2,1.1240576E3,6.8013007E-3,6.3966974E2,2.0445901E-1,8.554549E1,1.13452995E2,2.368661E0,7.8865786E0,-7.5009E-2,4.7421176E2,1.1358982E1,1.243795E3,-4.1053598E-4,8.814011E-2,4.0643048E-4,8.796642E-3,-4.359585E-3,-8.836787E-4,2.5314167E-3,-3.9200123E-2,3.714892E-2,1.5496102E-3,-1.0225297E-3,-1.4582276E-3,3.8987382E-3,1.225465E-3,-1.3805549E-3,3.7015362E-3],"split_indices":[1,1,0,1,0,0,1,0,0,1,2,0,0,0,1,1,0,1,0,0,0,0,0,0,0,0,0,0,0,0,0,0,0,0,0,0,0,0,0,0,0,0,0],"sum_hessian":[6.73E2,1.33E2,5.4E2,1.32E2,1E0,1E0,5.39E2,1.31E2,1E0,2.44E2,2.95E2,4.9E1,8.2E1,1.85E2,5.9E1,2.81E2,1.4E1,4.8E1,1E0,4.6E1,3.6E1,5.5E1,1.3E2,3E0,5.6E1,1.24E2,1.57E2,4.7E1,1E0,4.1E1,5E0,1E1,2.6E1,4.7E1,8E0,1E0,1.29E2,2.5E1,3.1E1,5.7E1,6.7E1,1.27E2,3E1],"tree_param":{"num_deleted":"0","num_feature":"4","num_nodes":"43","size_leaf_vector":"0"}},{"base_weights":[4.0406366E-3,2.0125918E-2,-2.1416746E-4,1.0450993E-2,1.608636E-1,7.030153E-2,-4.783649E-4,-4.4023935E-2,1.4759851E-2,3.027574E-2,6.027832E-1,-4.5078387E-3,2.8880974E-3,-2.4352657E-2,-1.1053272E-1,7.399817E-2,3.3357916E-3,4.527918E-3,1.05255246E-1,-2.1580106E-2,-8.453371E-5,1.5670013E-2,7.291832E-4,5.16054E-2,2.4973035E-1,-3.6714494E-2,1.37854405E-2,-3.8522251E-3,-2.9803285E-1,4.4482954E-2,-1.2569174E-3,1.8442755E-3,1.4655346E-1,-2.051258E-2,1.6997257E-3,6.972456E-2,-1.3073158E-2,-2.295258E-2,-1.6285732E-1,5.792999E-1,-7.5046196E-6,3.0026315E-3,-8.00063E-2,5.437881E-3,-1.0530239E-2,4.4765486E-3,-1.8255219E-3,-6.855011E-4,-1.0939169E-1,6.536828E-4,1.8539157E-2],"default_left":[true,true,true,true,true,false,true,true,true,true,false,true,true,false,false,true,true,false,false,true,true,true,true,true,false,true,true,true,false,false,true,true,false,true,true,false,false,false,false,false,false,false,false,false,false,false,false,false,false,false,false],"id":33,"leaf_child_counts":[0,0,0,0,0,0,0,0,0,0,0,0,0,0,0,0,0,0,0,0,0,0,0,0,0,0,0,0,0,0,0,0,0,0,0,0,0,0,0,0,0,0,0,0,0,0,0,0,0,0,0],"left_children":[1,3,5,7,9,-1,11,13,15,17,-1,19,21,-1,-1,23,25,-1,-1,27,29,31,33,35,-1,37,39,41,-1,-1,43,45,-1,47,49,-1,-1,-1,-1,-1,-1,-1,-1,-1,-1,-1,-1,-1,-1,-1,-1],"loss_changes":[4.613268E-2,1.9030814E-1,9.982085E-3,3.1868167E-2,5.011343E-1,0E0,7.243203E-3,1.0391364E-2,8.366916E-2,1.4967885E-2,0E0,1.8348526E-2,8.018736E-3,0E0,0E0,6.581516E-2,4.444982E-2,0E0,0E0,2.4389799E-1,1.0192448E-2,7.573124E-2,5.188875E-3,2.3178022E-2,0E0,3.4453265E-2,6.552136E-1,2.5297442E-2,0E0,0E0,1.1853036E-2,3.849085E-4,0E0,1.9309357E-2,4.2154253E-3,0E0,0E0,0E0,0E0,0E0,0E0,0E0,0E0,0E0,0E0,0E0,0E0,0E0,0E0,0E0,0E0],"parents":[2147483647,0,0,1,1,2,2,3,3,4,4,6,6,7,7,8,8,9,9,11,11,12,12,15,15,16,16,19,19,20,20,21,21,22,22,23,23,25,25,26,26,27,27,30,30,31,31,33,33,34,34],"right_children":[2,4,6,8,10,-1,12,14,16,18,-1,20,22,-1,-1,24,26,-1,-1,28,30,32,34,36,-1,38,40,42,-1,-1,44,46,-1,48,50,-1,-1,-1,-1,-1,-1,-1,-1,-1,-1,-1,-1,-1,-1,-1,-1],"split_conditions":[7.343334E2,7.073363E2,5.964234E-1,6.0978436E-1,4.617718E0,2.1090461E-2,6.2042114E1,5.432688E-1,1.1442847E0,3.5657842E0,1.8083496E-1,8.042984E2,1.4829684E2,-7.305797E-3,-3.315982E-2,9.779229E-1,1.7383882E0,1.3583754E-3,3.1576574E-2,7.805747E2,8.257826E2,1.11672516E2,5.533718E2,5.99023E2,7.4919105E-2,1.36027E0,2.4646325E0,1.5340303E1,-8.940986E-2,1.3344887E-2,9.179689E0,8.0780655E1,4.396604E-2,1.8322406E2,2.586095E3,2.0917369E-2,-3.921948E-3,-6.8857744E-3,-4.88572E-2,1.7378998E-1,-2.251386E-6,9.0078946E-4,-2.400189E-2,1.6313645E-3,-3.1590718E-3,1.3429646E-3,-5.476566E-4,-2.0565033E-4,-3.281751E-2,1.9610485E-4,5.561747E-3],"split_indices":[1,1,0,0,0,0,0,0,0,0,0,1,0,0,0,0,0,0,0,1,1,0,0,1,0,0,0,0,0,0,0,0,0,0,0,0,0,0,0,0,0,0,0,0,0,0,0,0,0,0,0],"sum_hessian":[6.73E2,1.4E2,5.33E2,1.32E2,8E0,1E0,5.32E2,9E0,1.23E2,7E0,1E0,2.42E2,2.9E2,8E0,1E0,1.9E1,1.04E2,6E0,1E0,4.9E1,1.93E2,4.1E1,2.49E2,1.8E1,1E0,2.1E1,8.3E1,4.7E1,2E0,4E0,1.89E2,3.8E1,3E0,1E1,2.39E2,1.4E1,4E0,2E1,1E0,1E0,8.2E1,4.4E1,3E0,1.1E2,7.9E1,2.2E1,1.6E1,9E0,1E0,2.26E2,1.3E1],"tree_param":{"num_deleted":"0","num_feature":"4","num_nodes":"51","size_leaf_vector":"0"}},{"base_weights":[3.3043267E-3,1.6806358E-2,-2.6700422E-4,8.590098E-3,1.3635705E-1,5.975628E-2,-4.9173133E-4,1.0078702E-2,-9.395281E-2,2.5309868E-2,5.1236725E-1,-4.4541783E-3,2.6959516E-3,-1.0703898E-2,1.859405E-2,3.3635837E-3,8.946693E-2,-1.4663452E-2,4.2587265E-4,1.9712157E-3,1.6141256E-2,-3.699858E-3,-1.3842872E-1,7.8425996E-2,2.3909437E-3,1.8655438E-3,-2.530541E-1,-1.496319E-2,4.784773E-3,5.558774E-3,-1.1336615E-3,-1.27048E-2,7.011455E-3,3.072158E-2,4.9240494E-1,6.2477272E-2,-2.7934692E-3,-2.282885E-2,4.4177114E-3,-8.807736E-3,-6.2004887E-2,1.13579094E-1,1.2366922E-3,6.9106463E-3,3.0771892E-3,-6.0883355E-3,5.0763525E-3],"default_left":[true,true,true,true,true,false,true,true,false,true,false,true,true,true,true,false,false,true,true,true,false,true,false,true,true,true,false,true,true,true,true,false,false,false,false,false,false,false,false,false,false,false,false,false,false,false,false],"id":34,"leaf_child_counts":[0,0,0,0,0,0,0,0,0,0,0,0,0,0,0,0,0,0,0,0,0,0,0,0,0,0,0,0,0,0,0,0,0,0,0,0,0,0,0,0,0,0,0,0,0,0,0],"left_children":[1,3,5,7,9,-1,11,13,-1,15,-1,17,19,21,23,-1,-1,25,27,29,-1,31,-1,33,35,37,-1,39,41,43,45,-1,-1,-1,-1,-1,-1,-1,-1,-1,-1,-1,-1,-1,-1,-1,-1],"loss_changes":[3.2504916E-2,1.3732728E-1,7.2324355E-3,2.124881E-2,3.6282587E-1,0E0,6.7443443E-3,2.3559209E-2,0E0,1.0963142E-2,0E0,1.1863828E-2,2.852493E-3,3.4376837E-2,9.094204E-2,0E0,0E0,3.0387968E-1,1.0938457E-2,3.1474791E-3,0E0,3.7543597E-3,0E0,3.7984502E-1,2.3537954E-2,4.70162E-3,0E0,9.8781455E-3,4.8882946E-2,4.182118E-4,4.7077327E-3,0E0,0E0,0E0,0E0,0E0,0E0,0E0,0E0,0E0,0E0,0E0,0E0,0E0,0E0,0E0,0E0],"parents":[2147483647,0,0,1,1,2,2,3,3,4,4,6,6,7,7,9,9,11,11,12,12,13,13,14,14,17,17,18,18,19,19,21,21,23,23,24,24,25,25,27,27,28,28,29,29,30,30],"right_children":[2,4,6,8,10,-1,12,14,-1,16,-1,18,20,22,24,-1,-1,26,28,30,-1,32,-1,34,36,38,-1,40,42,44,46,-1,-1,-1,-1,-1,-1,-1,-1,-1,-1,-1,-1,-1,-1,-1,-1],"split_conditions":[7.343334E2,7.073363E2,5.964234E-1,6.956908E2,4.617718E0,1.7926885E-2,1.0125497E3,5.660313E2,-2.8185844E-2,3.5657842E0,1.5371019E-1,1.1290533E1,1.19604826E-1,5.4877625E2,5.966439E2,1.0090752E-3,2.684008E-2,2.368661E0,7.74228E2,1.17318E3,4.8423773E-3,4.781369E2,-4.1528616E-2,5.881743E2,1.1442847E0,9.7214484E-1,-7.591624E-2,7.72085E2,7.778574E2,1.0291241E3,1.0526608E3,-3.8114402E-3,2.1034365E-3,9.216474E-3,1.4772148E-1,1.8743182E-2,-8.380408E-4,-6.8486556E-3,1.3253135E-3,-2.642321E-3,-1.8601466E-2,3.407373E-2,3.7100769E-4,2.073194E-3,9.231568E-4,-1.8265008E-3,1.5229058E-3],"split_indices":[1,1,0,1,0,0,1,1,0,0,0,0,2,1,1,0,0,0,1,1,0,1,0,1,0,0,0,1,1,0,0,0,0,0,0,0,0,0,0,0,0,0,0,0,0,0,0],"sum_hessian":[6.73E2,1.4E2,5.33E2,1.32E2,8E0,1E0,5.32E2,1.31E2,1E0,7E0,1E0,2.37E2,2.95E2,3.8E1,9.3E1,6E0,1E0,7.6E1,1.61E2,2.81E2,1.4E1,3.7E1,1E0,1.9E1,7.4E1,7.2E1,4E0,3.5E1,1.26E2,1.3E2,1.51E2,2E1,1.7E1,1.8E1,1E0,5E0,6.9E1,6E0,6.6E1,3.2E1,3E0,3E0,1.23E2,8.3E1,4.7E1,8.4E1,6.7E1],"tree_param":{"num_deleted":"0","num_feature":"4","num_nodes":"47","size_leaf_vector":"0"}},{"base_weights":[2.6712355E-3,1.3785519E-2,-2.6843706E-4,6.790649E-3,1.1562242E-1,5.0792694E-2,-4.5953243E-4,8.052092E-3,-7.985989E-2,2.1198042E-2,4.3550873E-1,-3.404618E-3,1.910028E-3,2.9707503E-2,2.2006293E-3,2.4986353E-3,7.604694E-2,2.1843135E-4,-1.4156638E-2,1.38679E-3,1.1619568E-2,1.5778208E-2,2.0289922E-1,-2.5584398E-2,9.451462E-3,-3.9112126E-3,1.1570401E-2,-1.4612404E-1,-4.6474054E-3,3.9106207E-3,-7.974772E-4,-1.1059605E-2,5.0247107E-2,-1.5596569E-2,-1.1766441E-1,4.1854477E-1,-5.200807E-4,-1.15166865E-2,2.5866367E-3,8.11562E-3,1.6416349E-2,-5.268097E-3,-3.9978623E-3,5.521306E-3,2.5953457E-3,-2.7929896E-3,7.0815547E-3],"default_left":[true,true,true,true,true,false,true,true,false,true,false,true,true,true,true,false,false,true,true,true,false,true,false,true,true,true,true,false,true,true,true,false,false,false,false,false,false,false,false,false,false,false,false,false,false,false,false],"id":35,"leaf_child_counts":[0,0,0,0,0,0,0,0,0,0,0,0,0,0,0,0,0,0,0,0,0,0,0,0,0,0,0,0,0,0,0,0,0,0,0,0,0,0,0,0,0,0,0,0,0,0,0],"left_children":[1,3,5,7,9,-1,11,13,-1,15,-1,17,19,21,23,-1,-1,25,27,29,-1,31,-1,33,35,37,39,-1,41,43,45,-1,-1,-1,-1,-1,-1,-1,-1,-1,-1,-1,-1,-1,-1,-1,-1],"loss_changes":[2.2024866E-2,9.96542E-2,5.2338704E-3,1.5180564E-2,2.6261365E-1,0E0,3.7260745E-3,1.6661115E-2,0E0,8.015122E-3,0E0,9.274405E-3,1.4876846E-3,6.434689E-2,2.1395594E-2,0E0,0E0,8.436701E-3,7.461542E-2,1.5577058E-3,0E0,2.5532601E-2,0E0,1.839779E-2,3.4287816E-1,6.5531265E-3,6.7037204E-4,0E0,1.9193394E-6,2.6319292E-4,2.4096302E-3,0E0,0E0,0E0,0E0,0E0,0E0,0E0,0E0,0E0,0E0,0E0,0E0,0E0,0E0,0E0,0E0],"parents":[2147483647,0,0,1,1,2,2,3,3,4,4,6,6,7,7,9,9,11,11,12,12,13,13,14,14,17,17,18,18,19,19,21,21,23,23,24,24,25,25,26,26,28,28,29,29,30,30],"right_children":[2,4,6,8,10,-1,12,14,-1,16,-1,18,20,22,24,-1,-1,26,28,30,-1,32,-1,34,36,38,40,-1,42,44,46,-1,-1,-1,-1,-1,-1,-1,-1,-1,-1,-1,-1,-1,-1,-1,-1],"split_conditions":[7.343334E2,7.073363E2,5.964234E-1,6.956908E2,4.617718E0,1.5237809E-2,