{"learner":{"attributes":{"scikit_learn":"{\"n_estimators\": 100, \"objective\": \"reg:squarederror\", \"max_depth\": null, \"learning_rate\": null, \"verbosity\": null, \"booster\": null, \"tree_method\": null, \"gamma\": null, \"min_child_weight\": null, \"max_delta_step\": null, \"subsample\": null, \"colsample_bytree\": null, \"colsample_bylevel\": null, \"colsample_bynode\": null, \"reg_alpha\": null, \"reg_lambda\": null, \"scale_pos_weight\": null, \"base_score\": null, \"missing\": NaN, \"num_parallel_tree\": null, \"kwargs\": {}, \"random_state\": 42, \"n_jobs\": null, \"monotone_constraints\": null, \"interaction_constraints\": null, \"importance_type\": \"gain\", \"gpu_id\": null, \"validate_parameters\": null, \"n_features_in_\": 4, \"type\": \"XGBRegressor\"}"},"gradient_booster":{"model":{"gbtree_model_param":{"num_trees":"100","size_leaf_vector":"0"},"tree_info":[0,0,0,0,0,0,0,0,0,0,0,0,0,0,0,0,0,0,0,0,0,0,0,0,0,0,0,0,0,0,0,0,0,0,0,0,0,0,0,0,0,0,0,0,0,0,0,0,0,0,0,0,0,0,0,0,0,0,0,0,0,0,0,0,0,0,0,0,0,0,0,0,0,0,0,0,0,0,0,0,0,0,0,0,0,0,0,0,0,0,0,0,0,0,0,0,0,0,0,0],"trees":[{"base_weights":[3.351798E0,1.2316028E0,8.08375E0,5.7715383E0,2.4388525E-1,2.555E0,6.481E0,-3.7039286E-1,7.425882E-1,-3.838889E-1,-3.000006E-3],"default_left":[true,true,false,true,true,false,false,true,false,false,false],"id":0,"leaf_child_counts":[0,0,0,0,0,0,0,0,0,0,0],"left_children":[1,3,-1,5,7,-1,-1,9,-1,-1,-1],"loss_changes":[1.033441E3,3.2593713E2,0E0,1.3107147E1,1.8961931E1,0E0,0E0,1.3768196E-1,0E0,0E0,0E0],"parents":[2147483647,0,0,1,1,3,3,4,4,7,7],"right_children":[2,4,-1,6,8,-1,-1,10,-1,-1,-1],"split_conditions":[4.0015378E2,3.3720577E0,2.4251251E0,5.743377E-1,8.142014E1,7.6650006E-1,1.9443E0,4.6096058E1,2.2277647E-1,-1.1516667E-1,-9.0000185E-4],"split_indices":[0,0,0,0,0,0,0,0,0,0,0],"sum_hessian":[1.03E2,7.2E1,3.1E1,1.2E1,6E1,3E0,9E0,2.7E1,3.3E1,2.6E1,1E0],"tree_param":{"num_deleted":"0","num_feature":"4","num_nodes":"11","size_leaf_vector":"0"}},{"base_weights":[2.3966687E0,9.007179E-1,5.73441E0,4.2486E0,1.7246902E-1,1.980125E0,4.73113E0,-2.6342025E-1,5.26364E-1,-2.7298766E-1,-2.550006E-3],"default_left":[true,true,false,true,true,false,false,true,false,false,false],"id":1,"leaf_child_counts":[0,0,0,0,0,0,0,0,0,0,0],"left_children":[1,3,-1,5,7,-1,-1,9,-1,-1,-1],"loss_changes":[5.141169E2,1.7724792E2,0E0,4.861664E0,9.548456E0,0E0,0E0,6.918776E-2,0E0,0E0,0E0],"parents":[2147483647,0,0,1,1,3,3,4,4,7,7],"right_children":[2,4,-1,6,8,-1,-1,10,-1,-1,-1],"split_conditions":[4.0015378E2,3.3720577E0,1.720323E0,5.743377E-1,8.142014E1,5.9403753E-1,1.4193391E0,4.6096058E1,1.5790921E-1,-8.1896305E-2,-7.650018E-4],"split_indices":[0,0,0,0,0,0,0,0,0,0,0],"sum_hessian":[1.03E2,7.2E1,3.1E1,1.2E1,6E1,3E0,9E0,2.7E1,3.3E1,2.6E1,1E0],"tree_param":{"num_deleted":"0","num_feature":"4","num_nodes":"11","size_leaf_vector":"0"}},{"base_weights":[1.7142924E0,6.591138E-1,4.067847E0,3.1288948E0,1.2196188E-1,1.5345969E0,3.4537246E0,-1.8734635E-1,3.7309918E-1,-1.9412455E-1,-2.167508E-3,-2.2624956E-1,-1.5334123E-1],"default_left":[true,true,false,true,true,false,false,true,false,true,false,false,false],"id":2,"leaf_child_counts":[0,0,0,0,0,0,0,0,0,0,0,0,0],"left_children":[1,3,-1,5,7,-1,-1,9,-1,11,-1,-1,-1],"loss_changes":[2.5559451E2,9.646368E1,0E0,1.4323044E0,4.8083076E0,0E0,0E0,3.4724236E-2,0E0,6.810427E-4,0E0,0E0,0E0],"parents":[2147483647,0,0,1,1,3,3,4,4,7,7,9,9],"right_children":[2,4,-1,6,8,-1,-1,10,-1,12,-1,-1,-1],"split_conditions":[4.0015378E2,3.3720577E0,1.2203541E0,5.743377E-1,8.142014E1,4.603791E-1,1.0361174E0,4.6096058E1,1.1192976E-1,8.342422E0,-6.5025245E-4,-6.787487E-2,-4.6002373E-2],"split_indices":[0,0,0,0,0,0,0,0,0,0,0,0,0],"sum_hessian":[1.03E2,7.2E1,3.1E1,1.2E1,6E1,3E0,9E0,2.7E1,3.3E1,2.6E1,1E0,1.2E1,1.4E1],"tree_param":{"num_deleted":"0","num_feature":"4","num_nodes":"13","size_leaf_vector":"0"}},{"base_weights":[1.2261033E0,4.81844E-1,2.885629E0,2.3053415E0,8.5330725E-2,1.1893125E0,2.5212188E0,-1.352327E-1,2.6446146E-1,-1.4010485E-1,-1.8423796E-3,-1.6359583E-1,-1.1040567E-1],"default_left":[true,true,false,true,true,false,false,true,false,true,false,false,false],"id":3,"leaf_child_counts":[0,0,0,0,0,0,0,0,0,0,0,0,0],"left_children":[1,3,-1,5,7,-1,-1,9,-1,11,-1,-1,-1],"loss_changes":[1.2706178E2,5.2585266E1,0E0,1.335144E-1,2.4458547E0,0E0,0E0,1.7939031E-2,0E0,7.749796E-4,0E0,0E0,0E0],"parents":[2147483647,0,0,1,1,3,3,4,4,7,7,9,9],"right_children":[2,4,-1,6,8,-1,-1,10,-1,12,-1,-1,-1],"split_conditions":[4.0015378E2,3.3720577E0,8.6568874E-1,5.743377E-1,8.142014E1,3.5679376E-1,7.5636566E-1,4.6096058E1,7.933844E-2,8.342422E0,-5.527139E-4,-4.907875E-2,-3.31217E-2],"split_indices":[0,0,0,0,0,0,0,0,0,0,0,0,0],"sum_hessian":[1.03E2,7.2E1,3.1E1,1.2E1,6E1,3E0,9E0,2.7E1,3.3E1,2.6E1,1E0,1.2E1,1.4E1],"tree_param":{"num_deleted":"0","num_feature":"4","num_nodes":"13","size_leaf_vector":"0"}},{"base_weights":[8.772668E-1,3.5249278E-1,2.046993E0,1.6993665E0,5.967554E-2,-9.761836E-2,1.8745653E-1,-1.0111785E-1,-1.5660226E-3,-1.1829238E-1,-7.949208E-2],"default_left":[true,true,false,false,true,true,false,true,false,false,false],"id":4,"leaf_child_counts":[0,0,0,0,0,0,0,0,0,0,0],"left_children":[1,3,-1,-1,5,7,-1,9,-1,-1,-1],"loss_changes":[6.3118004E1,2.86889E1,0E0,0E0,1.2443485E0,9.253442E-3,0E0,6.248057E-4,0E0,0E0,0E0],"parents":[2147483647,0,0,1,1,4,4,5,5,7,7],"right_children":[2,4,-1,-1,6,8,-1,10,-1,-1,-1],"split_conditions":[4.0015378E2,3.3720577E0,6.1409795E-1,5.0981E-1,8.142014E1,4.6096058E1,5.6236964E-2,8.342422E0,-4.698068E-4,-3.5487715E-2,-2.3847625E-2],"split_indices":[0,0,0,0,0,0,0,0,0,0,0],"sum_hessian":[1.03E2,7.2E1,3.1E1,1.2E1,6E1,2.7E1,3.3E1,2.6E1,1E0,1.2E1,1.4E1],"tree_param":{"num_deleted":"0","num_feature":"4","num_nodes":"11","size_leaf_vector":"0"}},{"base_weights":[6.248592E-1,2.5367972E-1,1.4520855E0,1.2287726E0,4.171436E-2,5.393596E-1,1.3816606E0,-7.0468746E-2,1.3287355E-1,-7.29801E-2,-1.3311207E-3,-8.553448E-2,-5.723429E-2],"default_left":[true,true,false,true,true,false,false,true,false,true,false,false,false],"id":5,"leaf_child_counts":[0,0,0,0,0,0,0,0,0,0,0,0,0],"left_children":[1,3,-1,5,7,-1,-1,9,-1,11,-1,-1,-1],"loss_changes":[3.1564777E1,1.5036817E1,0E0,6.250267E-1,6.331812E-1,0E0,0E0,4.7644675E-3,0E0,4.4181943E-4,0E0,0E0,0E0],"parents":[2147483647,0,0,1,1,3,3,4,4,7,7,9,9],"right_children":[2,4,-1,6,8,-1,-1,10,-1,12,-1,-1,-1],"split_conditions":[4.0015378E2,3.3720577E0,4.3562567E-1,5.743377E-1,8.142014E1,1.618079E-1,4.1449818E-1,4.6096058E1,3.9862067E-2,8.342422E0,-3.9933625E-4,-2.5660345E-2,-1.7170288E-2],"split_indices":[0,0,0,0,0,0,0,0,0,0,0,0,0],"sum_hessian":[1.03E2,7.2E1,3.1E1,1.2E1,6E1,3E0,9E0,2.7E1,3.3E1,2.6E1,1E0,1.2E1,1.4E1],"tree_param":{"num_deleted":"0","num_feature":"4","num_nodes":"13","size_leaf_vector":"0"}},{"base_weights":[4.4709918E-1,1.8542428E-1,1.0300732E0,9.04472E-1,2.9144863E-2,4.1800362E-1,1.0086122E0,-5.0872047E-2,9.4183944E-2,-5.2672386E-2,-1.1314452E-3,-6.1848015E-2,-4.120868E-2],"default_left":[true,true,false,true,true,false,false,true,false,true,false,false,false],"id":6,"leaf_child_counts":[0,0,0,0,0,0,0,0,0,0,0,0,0],"left_children":[1,3,-1,5,7,-1,-1,9,-1,11,-1,-1,-1],"loss_changes":[1.567417E1,8.176821E0,0E0,2.3698807E-1,3.2224914E-1,0E0,0E0,2.4478063E-3,0E0,2.913624E-4,0E0,0E0,0E0],"parents":[2147483647,0,0,1,1,3,3,4,4,7,7,9,9],"right_children":[2,4,-1,6,8,-1,-1,10,-1,12,-1,-1,-1],"split_conditions":[4.0015378E2,3.3720577E0,3.0902195E-1,5.743377E-1,8.142014E1,1.254011E-1,3.0258366E-1,4.6096058E1,2.8255185E-2,8.342422E0,-3.3943355E-4,-1.8554404E-2,-1.2362605E-2],"split_indices":[0,0,0,0,0,0,0,0,0,0,0,0,0],"sum_hessian":[1.03E2,7.2E1,3.1E1,1.2E1,6E1,3E0,9E0,2.7E1,3.3E1,2.6E1,1E0,1.2E1,1.4E1],"tree_param":{"num_deleted":"0","num_feature":"4","num_nodes":"13","size_leaf_vector":"0"}},{"base_weights":[3.2002717E-1,1.3561866E-1,7.3070824E-1,6.660522E-1,2.035218E-2,3.2395285E-1,7.3628676E-1,-3.672674E-2,6.675975E-2,-3.801575E-2,-9.6173584E-4,-4.4720873E-2,-2.9670255E-2],"default_left":[true,true,false,true,true,false,false,true,false,true,false,false,false],"id":7,"leaf_child_counts":[0,0,0,0,0,0,0,0,0,0,0,0,0],"left_children":[1,3,-1,5,7,-1,-1,9,-1,11,-1,-1,-1],"loss_changes":[7.7771425E0,4.449753E0,0E0,7.383108E-2,1.640344E-1,0E0,0E0,1.2542829E-3,0E0,1.8397346E-4,0E0,0E0,0E0],"parents":[2147483647,0,0,1,1,3,3,4,4,7,7,9,9],"right_children":[2,4,-1,6,8,-1,-1,10,-1,12,-1,-1,-1],"split_conditions":[4.0015378E2,3.3720577E0,2.1921249E-1,5.743377E-1,8.142014E1,9.718586E-2,2.2088604E-1,4.6096058E1,2.0027926E-2,8.342422E0,-2.8852077E-4,-1.3416262E-2,-8.901077E-3],"split_indices":[0,0,0,0,0,0,0,0,0,0,0,0,0],"sum_hessian":[1.03E2,7.2E1,3.1E1,1.2E1,6E1,3E0,9E0,2.7E1,3.3E1,2.6E1,1E0,1.2E1,1.4E1],"tree_param":{"num_deleted":"0","num_feature":"4","num_nodes":"13","size_leaf_vector":"0"}},{"base_weights":[2.291604E-1,9.92549E-2,5.183461E-1,4.9070352E-1,1.4204291E-2,2.5106347E-1,5.374892E-1,-2.6516069E-2,4.7320932E-2,-2.7437592E-2,-8.174777E-4,-3.2336634E-2,-2.1362586E-2],"default_left":[true,true,false,true,true,false,false,true,false,true,false,false,false],"id":8,"leaf_child_counts":[0,0,0,0,0,0,0,0,0,0,0,0,0],"left_children":[1,3,-1,5,7,-1,-1,9,-1,11,-1,-1,-1],"loss_changes":[3.8555002E0,2.4234145E0,0E0,1.0808468E-2,8.3514586E-2,0E0,0E0,6.406624E-4,0E0,1.12770125E-4,0E0,0E0,0E0],"parents":[2147483647,0,0,1,1,3,3,4,4,7,7,9,9],"right_children":[2,4,-1,6,8,-1,-1,10,-1,12,-1,-1,-1],"split_conditions":[4.0015378E2,3.3720577E0,1.5550382E-1,5.743377E-1,8.142014E1,7.5319044E-2,1.6124676E-1,4.6096058E1,1.419628E-2,8.342422E0,-2.452433E-4,-9.70099E-3,-6.408776E-3],"split_indices":[0,0,0,0,0,0,0,0,0,0,0,0,0],"sum_hessian":[1.03E2,7.2E1,3.1E1,1.2E1,6E1,3E0,9E0,2.7E1,3.3E1,2.6E1,1E0,1.2E1,1.4E1],"tree_param":{"num_deleted":"0","num_feature":"4","num_nodes":"13","size_leaf_vector":"0"}},{"base_weights":[1.6416131E-1,7.268949E-2,3.6770135E-1,3.616898E-1,9.907622E-3,-1.9145355E-2,3.35422E-2,-1.980297E-2,-6.9485605E-4,-2.338187E-2,-1.5381059E-2],"default_left":[true,true,false,false,true,true,false,true,false,false,false],"id":9,"leaf_child_counts":[0,0,0,0,0,0,0,0,0,0,0],"left_children":[1,3,-1,-1,5,7,-1,9,-1,-1,-1],"loss_changes":[1.9095626E0,1.3209269E0,0E0,0E0,4.2528126E-2,3.2597315E-4,0E0,6.7653134E-5,0E0,0E0,0E0],"parents":[2147483647,0,0,1,1,4,4,5,5,7,7],"right_children":[2,4,-1,-1,6,8,-1,10,-1,-1,-1],"split_conditions":[4.0015378E2,3.3720577E0,1.1031041E-1,1.0850695E-1,8.142014E1,4.6096058E1,1.0062661E-2,8.342422E0,-2.0845683E-4,-7.0145614E-3,-4.614318E-3],"split_indices":[0,0,0,0,0,0,0,0,0,0,0],"sum_hessian":[1.03E2,7.2E1,3.1E1,1.2E1,6E1,2.7E1,3.3E1,2.6E1,1E0,1.2E1,1.4E1],"tree_param":{"num_deleted":"0","num_feature":"4","num_nodes":"11","size_leaf_vector":"0"}},{"base_weights":[1.1699979E-1,5.2344687E-2,2.60838E-1,2.6152942E-1,6.9062253E-3,1.1319399E-1,2.9471064E-1,-1.3824507E-2,2.377547E-2,-1.4292776E-2,-5.906224E-4,-1.6906895E-2,-1.1074355E-2],"default_left":[true,true,false,true,true,false,false,true,false,true,false,false,false],"id":10,"leaf_child_counts":[0,0,0,0,0,0,0,0,0,0,0,0,0],"left_children":[1,3,-1,5,7,-1,-1,9,-1,11,-1,-1,-1],"loss_changes":[9.5353353E-1,6.920612E-1,0E0,3.062588E-2,2.16611E-2,0E0,0E0,1.6507506E-4,0E0,3.992673E-5,0E0,0E0,0E0],"parents":[2147483647,0,0,1,1,3,3,4,4,7,7,9,9],"right_children":[2,4,-1,6,8,-1,-1,10,-1,12,-1,-1,-1],"split_conditions":[4.0015378E2,3.3720577E0,7.825141E-2,5.743377E-1,8.142014E1,3.3958197E-2,8.8413194E-2,4.6096058E1,7.132641E-3,8.342422E0,-1.7718674E-4,-5.0720684E-3,-3.3223066E-3],"split_indices":[0,0,0,0,0,0,0,0,0,0,0,0,0],"sum_hessian":[1.03E2,7.2E1,3.1E1,1.2E1,6E1,3E0,9E0,2.7E1,3.3E1,2.6E1,1E0,1.2E1,1.4E1],"tree_param":{"num_deleted":"0","num_feature":"4","num_nodes":"13","size_leaf_vector":"0"}},{"base_weights":[8.381494E-2,3.8297873E-2,1.8503153E-1,1.9248374E-1,4.810758E-3,8.772534E-2,2.1513872E-1,-9.983283E-3,1.6852593E-2,-1.0315846E-2,-5.02035E-4,-1.2224982E-2,-7.973539E-3],"default_left":[true,true,false,true,true,false,false,true,false,true,false,false,false],"id":11,"leaf_child_counts":[0,0,0,0,0,0,0,0,0,0,0,0,0],"left_children":[1,3,-1,5,7,-1,-1,9,-1,11,-1,-1,-1],"loss_changes":[4.7205025E-1,3.759905E-1,0E0,1.1979789E-2,1.1035235E-2,0E0,0E0,8.310843E-5,0E0,2.3261644E-5,0E0,0E0,0E0],"parents":[2147483647,0,0,1,1,3,3,4,4,7,7,9,9],"right_children":[2,4,-1,6,8,-1,-1,10,-1,12,-1,-1,-1],"split_conditions":[4.0015378E2,3.3720577E0,5.5509463E-2,5.743377E-1,8.142014E1,2.6317604E-2,6.4541616E-2,4.6096058E1,5.055778E-3,8.342422E0,-1.5061052E-4,-3.6674945E-3,-2.3920618E-3],"split_indices":[0,0,0,0,0,0,0,0,0,0,0,0,0],"sum_hessian":[1.03E2,7.2E1,3.1E1,1.2E1,6E1,3E0,9E0,2.7E1,3.3E1,2.6E1,1E0,1.2E1,1.4E1],"tree_param":{"num_deleted":"0","num_feature":"4","num_nodes":"13","size_leaf_vector":"0"}},{"base_weights":[6.0066704E-2,2.8037325E-2,1.3125664E-1,1.4172766E-1,3.3486101E-3,6.7987144E-2,1.5705109E-1,-7.210085E-3,1.1945518E-2,-7.445516E-3,-4.2672455E-4,-8.8396E-3,-5.740942E-3],"default_left":[true,true,false,true,true,false,false,true,false,true,false,false,false],"id":12,"leaf_child_counts":[0,0,0,0,0,0,0,0,0,0,0,0,0],"left_children":[1,3,-1,5,7,-1,-1,9,-1,11,-1,-1,-1],"loss_changes":[2.3345754E-1,2.0442675E-1,0E0,4.0120184E-3,5.623228E-3,0E0,0E0,4.15392E-5,0E0,1.3412908E-5,0E0,0E0,0E0],"parents":[2147483647,0,0,1,1,3,3,4,4,7,7,9,9],"right_children":[2,4,-1,6,8,-1,-1,10,-1,12,-1,-1,-1],"split_conditions":[4.0015378E2,3.3720577E0,3.9376993E-2,5.743377E-1,8.142014E1,2.0396143E-2,4.711533E-2,4.6096058E1,3.5836555E-3,8.342422E0,-1.2801737E-4,-2.65188E-3,-1.7222826E-3],"split_indices":[0,0,0,0,0,0,0,0,0,0,0,0,0],"sum_hessian":[1.03E2,7.2E1,3.1E1,1.2E1,6E1,3E0,9E0,2.7E1,3.3E1,2.6E1,1E0,1.2E1,1.4E1],"tree_param":{"num_deleted":"0","num_feature":"4","num_nodes":"13","size_leaf_vector":"0"}},{"base_weights":[4.306555E-2,2.0538338E-2,9.3109965E-2,1.0440253E-1,2.3289481E-3,5.268997E-2,1.1464729E-1,-5.2078553E-3,8.467229E-3,-5.3738714E-3,-3.6270916E-4,-6.3917134E-3,-4.133484E-3],"default_left":[true,true,false,true,true,false,false,true,false,true,false,false,false],"id":13,"leaf_child_counts":[0,0,0,0,0,0,0,0,0,0,0,0,0],"left_children":[1,3,-1,5,7,-1,-1,9,-1,11,-1,-1,-1],"loss_changes":[1.15333244E-1,1.1123629E-1,0E0,8.4641576E-4,2.86614E-3,0E0,0E0,2.0573265E-5,0E0,7.667986E-6,0E0,0E0,0E0],"parents":[2147483647,0,0,1,1,3,3,4,4,7,7,9,9],"right_children":[2,4,-1,6,8,-1,-1,10,-1,12,-1,-1,-1],"split_conditions":[4.0015378E2,3.3720577E0,2.793299E-2,5.743377E-1,8.142014E1,1.5806992E-2,3.439419E-2,4.6096058E1,2.5401688E-3,8.342422E0,-1.08812754E-4,-1.9175141E-3,-1.2400452E-3],"split_indices":[0,0,0,0,0,0,0,0,0,0,0,0,0],"sum_hessian":[1.03E2,7.2E1,3.1E1,1.2E1,6E1,3E0,9E0,2.7E1,3.3E1,2.6E1,1E0,1.2E1,1.4E1],"tree_param":{"num_deleted":"0","num_feature":"4","num_nodes":"13","size_leaf_vector":"0"}},{"base_weights":[3.0890169E-2,1.5054595E-2,6.6049755E-2,7.694336E-2,1.6183889E-3,-3.7621565E-3,6.0018264E-3,-3.8786582E-3,-3.0830503E-4,-4.621703E-3,-2.9761086E-3],"default_left":[true,true,false,false,true,true,false,true,false,false,false],"id":14,"leaf_child_counts":[0,0,0,0,0,0,0,0,0,0,0],"left_children":[1,3,-1,-1,5,7,-1,9,-1,-1,-1],"loss_changes":[5.6909956E-2,6.0578637E-2,0E0,0E0,1.4612823E-3,1.0070828E-5,0E0,4.3524487E-6,0E0,0E0,0E0],"parents":[2147483647,0,0,1,1,4,4,5,5,7,7],"right_children":[2,4,-1,-1,6,8,-1,10,-1,-1,-1],"split_conditions":[4.0015378E2,3.3720577E0,1.9814927E-2,2.3083009E-2,8.142014E1,4.6096058E1,1.8005479E-3,8.342422E0,-9.2491515E-5,-1.386511E-3,-8.928326E-4],"split_indices":[0,0,0,0,0,0,0,0,0,0,0],"sum_hessian":[1.03E2,7.2E1,3.1E1,1.2E1,6E1,2.7E1,3.3E1,2.6E1,1E0,1.2E1,1.4E1],"tree_param":{"num_deleted":"0","num_feature":"4","num_nodes":"11","size_leaf_vector":"0"}},{"base_weights":[2.2030223E-2,1.08465785E-2,4.6854466E-2,5.5635836E-2,1.1235134E-3,2.3522556E-2,6.291757E-2,-2.7182165E-3,4.2542466E-3,-3.3418464E-3,-2.0416286E-3,-2.142797E-3,-2.6205182E-4],"default_left":[true,true,false,true,true,false,false,true,false,false,true,false,false],"id":15,"leaf_child_counts":[0,0,0,0,0,0,0,0,0,0,0,0,0],"left_children":[1,3,-1,5,7,-1,-1,9,-1,-1,11,-1,-1],"loss_changes":[2.836484E-2,3.172818E-2,0E0,1.559943E-3,7.4523716E-4,0E0,0E0,4.9915398E-6,0E0,0E0,2.3190587E-6,0E0,0E0],"parents":[2147483647,0,0,1,1,3,3,4,4,7,7,10,10],"right_children":[2,4,-1,6,8,-1,-1,10,-1,-1,12,-1,-1],"split_conditions":[4.0015378E2,3.3720577E0,1.4056341E-2,5.743377E-1,8.142014E1,7.056767E-3,1.8875271E-2,8.342422E0,1.276274E-3,-1.002554E-3,4.6096058E1,-6.428391E-4,-7.861555E-5],"split_indices":[0,0,0,0,0,0,0,0,0,0,0,0,0],"sum_hessian":[1.03E2,7.2E1,3.1E1,1.2E1,6E1,3E0,9E0,2.7E1,3.3E1,1.2E1,1.5E1,1.4E1,1E0],"tree_param":{"num_deleted":"0","num_feature":"4","num_nodes":"13","size_leaf_vector":"0"}},{"base_weights":[1.580142E-2,7.941743E-3,3.3237517E-2,4.093997E-2,7.791412E-4,1.8230021E-2,4.5929957E-2,-1.9643242E-3,3.0155499E-3,-2.416411E-3,-1.4742333E-3,-1.5428165E-3,-2.2274256E-4],"default_left":[true,true,false,true,true,false,false,true,false,false,true,false,false],"id":16,"leaf_child_counts":[0,0,0,0,0,0,0,0,0,0,0,0,0],"left_children":[1,3,-1,5,7,-1,-1,9,-1,-1,11,-1,-1],"loss_changes":[1.3988415E-2,1.7221885E-2,0E0,6.3588656E-4,3.801896E-4,0E0,0E0,2.6414273E-6,0E0,0E0,1.0296499E-6,0E0,0E0],"parents":[2147483647,0,0,1,1,3,3,4,4,7,7,10,10],"right_children":[2,4,-1,6,8,-1,-1,10,-1,-1,12,-1,-1],"split_conditions":[4.0015378E2,3.3720577E0,9.971255E-3,5.743377E-1,8.142014E1,5.4690065E-3,1.3778987E-2,8.342422E0,9.04665E-4,-7.2492333E-4,4.6096058E1,-4.6284497E-4,-6.682277E-5],"split_indices":[0,0,0,0,0,0,0,0,0,0,0,0,0],"sum_hessian":[1.03E2,7.2E1,3.1E1,1.2E1,6E1,3E0,9E0,2.7E1,3.3E1,1.2E1,1.5E1,1.4E1,1E0],"tree_param":{"num_deleted":"0","num_feature":"4","num_nodes":"13","size_leaf_vector":"0"}},{"base_weights":[1.133845E-2,5.818061E-3,2.3577511E-2,3.0138455E-2,5.3964806E-4,1.4128208E-2,3.3528708E-2,-1.4198351E-3,2.1374682E-3,-1.7472525E-3,-1.0650689E-3],"default_left":[true,true,false,true,true,false,false,true,false,false,false],"id":17,"leaf_child_counts":[0,0,0,0,0,0,0,0,0,0,0],"left_children":[1,3,-1,5,7,-1,-1,9,-1,-1,-1],"loss_changes":[6.88952E-3,9.35497E-3,0E0,2.3192354E-4,1.9401986E-4,0E0,0E0,1.3914432E-6,0E0,0E0,4.308622E-7],"parents":[2147483647,0,0,1,1,3,3,4,4,7,7],"right_children":[2,4,-1,6,8,-1,-1,10,-1,-1,-1],"split_conditions":[4.0015378E2,3.3720577E0,7.073254E-3,5.743377E-1,8.142014E1,4.2384625E-3,1.0058613E-2,8.342422E0,6.412405E-4,-5.2417576E-4,-3.1952068E-4],"split_indices":[0,0,0,0,0,0,0,0,0,0,0],"sum_hessian":[1.03E2,7.2E1,3.1E1,1.2E1,6E1,3E0,9E0,2.7E1,3.3E1,1.2E1,1.5E1],"tree_param":{"num_deleted":"0","num_feature":"4","num_nodes":"11","size_leaf_vector":"0"}},{"base_weights":[8.140437E-3,4.2657615E-3,1.6725153E-2,2.2196861E-2,3.74449E-4,1.0949433E-2,2.4476146E-2,-1.0240143E-3,1.5151115E-3],"default_left":[true,true,false,true,true,false,false,false,false],"id":18,"leaf_child_counts":[0,0,0,0,0,0,0,0,0],"left_children":[1,3,-1,5,7,-1,-1,-1,-1],"loss_changes":[3.3880053E-3,5.0853007E-3,0E0,6.5269414E-5,9.885715E-5,0E0,0E0,9.636788E-7,0E0],"parents":[2147483647,0,0,1,1,3,3,4,4],"right_children":[2,4,-1,6,8,-1,-1,-1,-1],"split_conditions":[4.0015378E2,3.3720577E0,5.017546E-3,5.743377E-1,8.142014E1,3.28483E-3,7.3428443E-3,-3.0720432E-4,4.5453347E-4],"split_indices":[0,0,0,0,0,0,0,0,0],"sum_hessian":[1.03E2,7.2E1,3.1E1,1.2E1,6E1,3E0,9E0,2.7E1,3.3E1],"tree_param":{"num_deleted":"0","num_feature":"4","num_nodes":"9","size_leaf_vector":"0"}},{"base_weights":[5.850229E-3,3.1336248E-3,1.1864662E-2,1.6355313E-2,2.6451718E-4,8.485734E-3,1.7867614E-2,-7.639239E-4,1.0503284E-3],"default_left":[true,true,false,true,true,false,false,false,false],"id":19,"leaf_child_counts":[0,0,0,0,0,0,0,0,0],"left_children":[1,3,-1,5,7,-1,-1,-1,-1],"loss_changes":[1.6620592E-3,2.7648883E-3,0E0,3.0952506E-6,5.0100163E-5,0E0,0E0,8.7235094E-7,6.3182597E-7],"parents":[2147483647,0,0,1,1,3,3,4,4],"right_children":[2,4,-1,6,8,-1,-1,-1,-1],"split_conditions":[4.0015378E2,3.3720577E0,3.5593987E-3,5.743377E-1,4.6096058E1,2.5457204E-3,5.3602844E-3,-2.2917718E-4,3.1509853E-4],"split_indices":[0,0,0,0,0,0,0,0,0],"sum_hessian":[1.03E2,7.2E1,3.1E1,1.2E1,6E1,3E0,9E0,2.6E1,3.4E1],"tree_param":{"num_deleted":"0","num_feature":"4","num_nodes":"9","size_leaf_vector":"0"}},{"base_weights":[4.206339E-3,1.2056956E-2,3.0512917E-3,1.8659228E-4,8.416772E-3,-5.262272E-4,7.6813204E-4,-7.6827663E-4,-2.966728E-4],"default_left":[true,false,true,true,false,true,false,false,false],"id":20,"leaf_child_counts":[0,0,0,0,0,0,0,0,0],"left_children":[1,-1,3,5,-1,7,-1,-1,-1],"loss_changes":[9.0626546E-4,0E0,1.4125144E-3,2.5690717E-5,0E0,1.3278514E-6,0E0,0E0,5.3991016E-8],"parents":[2147483647,0,0,2,2,3,3,5,5],"right_children":[2,-1,4,6,-1,8,-1,-1,-1],"split_conditions":[3.3720577E0,3.617087E-3,4.0015378E2,8.142014E1,2.5250316E-3,8.342422E0,2.3043962E-4,-2.30483E-4,-8.900184E-5],"split_indices":[0,0,0,0,0,0,0,0,0],"sum_hessian":[1.03E2,1.2E1,9.1E1,6E1,3.1E1,2.7E1,3.3E1,1.2E1,1.5E1],"tree_param":{"num_deleted":"0","num_feature":"4","num_nodes":"9","size_leaf_vector":"0"}},{"base_weights":[3.0025342E-3,9.787941E-3,2.2566752E-3,3.645728E-4,5.970359E-3,3.863573E-3,1.2915356E-4,-3.7976872E-4,5.444674E-4],"default_left":[true,false,true,true,false,false,true,false,false],"id":21,"leaf_child_counts":[0,0,0,0,0,0,0,0,0],"left_children":[1,-1,3,5,-1,-1,7,-1,-1],"loss_changes":[5.0425134E-4,0E0,6.6535705E-4,5.2219857E-5,0E0,0E0,1.3099882E-5,7.010872E-7,0E0],"parents":[2147483647,0,0,2,2,3,3,6,6],"right_children":[2,-1,4,6,-1,-1,8,-1,-1],"split_conditions":[7.6152185E2,2.9363825E-3,4.0015378E2,3.1057868E0,1.7911077E-3,1.1590719E-3,8.142014E1,-1.1393062E-4,1.6334023E-4],"split_indices":[1,0,0,0,0,0,0,0,0],"sum_hessian":[1.03E2,9E0,9.4E1,6.3E1,3.1E1,3E0,6E1,2.7E1,3.3E1],"tree_param":{"num_deleted":"0","num_feature":"4","num_nodes":"9","size_leaf_vector":"0"}},{"base_weights":[2.1588956E-3,7.145214E-3,1.6112948E-3,2.7410203E-4,4.2353272E-3,2.9943585E-3,9.123108E-5,-2.849338E-4,3.788088E-4],"default_left":[true,false,true,true,false,false,true,false,false],"id":22,"leaf_child_counts":[0,0,0,0,0,0,0,0,0],"left_children":[1,-1,3,5,-1,-1,7,-1,-1],"loss_changes":[2.7246022E-4,0E0,3.3217858E-4,3.1564E-5,0E0,0E0,6.706711E-6,6.6997336E-7,5.1525603E-8],"parents":[2147483647,0,0,2,2,3,3,6,6],"right_children":[2,-1,4,6,-1,-1,8,-1,-1],"split_conditions":[7.6152185E2,2.1435642E-3,4.0015378E2,3.1057868E0,1.2705983E-3,8.983076E-4,4.6096058E1,-8.548015E-5,1.1364264E-4],"split_indices":[1,0,0,0,0,0,0,0,0],"sum_hessian":[1.03E2,9E0,9.4E1,6.3E1,3.1E1,3E0,6E1,2.6E1,3.4E1],"tree_param":{"num_deleted":"0","num_feature":"4","num_nodes":"9","size_leaf_vector":"0"}},{"base_weights":[1.5530827E-3,4.726465E-3,1.0877886E-3,2.3205876E-3,5.216169E-3,6.434758E-5,3.0047297E-3,-1.945922E-4,2.7569954E-4],"default_left":[true,true,true,false,false,true,false,false,false],"id":23,"leaf_child_counts":[0,0,0,0,0,0,0,0,0],"left_children":[1,3,5,-1,-1,7,-1,-1,-1],"loss_changes":[1.4842043E-4,3.2116077E-6,1.8029926E-4,0E0,0E0,3.392022E-6,0E0,7.574338E-7,0E0],"parents":[2147483647,0,0,1,1,2,2,5,5],"right_children":[2,4,6,-1,-1,8,-1,-1,-1],"split_conditions":[3.3720577E0,5.743377E-1,4.0015378E2,6.961763E-4,1.5648508E-3,8.142014E1,9.01419E-4,-5.837766E-5,8.270986E-5],"split_indices":[0,0,0,0,0,0,0,0,0],"sum_hessian":[1.03E2,1.2E1,9.1E1,3E0,9E0,6E1,3.1E1,2.7E1,3.3E1],"tree_param":{"num_deleted":"0","num_feature":"4","num_nodes":"9","size_leaf_vector":"0"}},{"base_weights":[1.1178344E-3,3.4823602E-3,7.715663E-4,4.5420235E-5,2.1316707E-3,-3.175631E-4,1.4079499E-4],"default_left":[true,false,true,true,false,false,false],"id":24,"leaf_child_counts":[0,0,0,0,0,0,0],"left_children":[1,-1,3,5,-1,-1,-1],"loss_changes":[8.246415E-5,2.7375063E-7,9.0765556E-5,2.1564972E-6,0E0,0E0,3.3065908E-7],"parents":[2147483647,0,0,2,2,3,3],"right_children":[2,-1,4,6,-1,-1,-1],"split_conditions":[3.3720577E0,1.0447081E-3,4.0015378E2,8.342422E0,6.3950126E-4,-9.526894E-5,4.22385E-5],"split_indices":[0,0,0,0,0,0,0],"sum_hessian":[1.03E2,1.2E1,9.1E1,6E1,3.1E1,1.2E1,4.8E1],"tree_param":{"num_deleted":"0","num_feature":"4","num_nodes":"7","size_leaf_vector":"0"}},{"base_weights":[7.980586E-4,2.8674125E-3,5.7183125E-4,9.293566E-5,1.5117526E-3,1.0148883E-3,3.0956217E-5,-1.259669E-4,1.5112672E-4],"default_left":[true,false,true,true,false,false,true,false,false],"id":25,"leaf_child_counts":[0,0,0,0,0,0,0,0,0],"left_children":[1,-1,3,5,-1,-1,7,-1,-1],"loss_changes":[4.7047353E-5,0E0,4.26213E-5,3.625678E-6,0E0,0E0,1.1693464E-6,2.6854468E-7,1.2347698E-8],"parents":[2147483647,0,0,2,2,3,3,6,6],"right_children":[2,-1,4,6,-1,-1,8,-1,-1],"split_conditions":[7.6152185E2,8.602238E-4,4.0015378E2,3.1057868E0,4.535258E-4,3.044665E-4,4.6096058E1,-3.779007E-5,4.5338016E-5],"split_indices":[1,0,0,0,0,0,0,0,0],"sum_hessian":[1.03E2,9E0,9.4E1,6.3E1,3.1E1,3E0,6E1,2.6E1,3.4E1],"tree_param":{"num_deleted":"0","num_feature":"4","num_nodes":"9","size_leaf_vector":"0"}},{"base_weights":[5.741603E-4,2.0932197E-3,4.0821554E-4,6.9950154E-5,1.0719895E-3,7.865429E-4,2.1813743E-5],"default_left":[true,false,true,true,false,false,false],"id":26,"leaf_child_counts":[0,0,0,0,0,0,0],"left_children":[1,-1,3,5,-1,-1,-1],"loss_changes":[2.5361835E-5,0E0,2.1255531E-5,2.1904716E-6,0E0,0E0,7.6839643E-7],"parents":[2147483647,0,0,2,2,3,3],"right_children":[2,-1,4,6,-1,-1,-1],"split_conditions":[7.6152185E2,6.279659E-4,4.0015378E2,3.1057868E0,3.2159686E-4,2.3596287E-4,6.544123E-6],"split_indices":[1,0,0,0,0,0,0],"sum_hessian":[1.03E2,9E0,9.4E1,6.3E1,3.1E1,3E0,6E1],"tree_param":{"num_deleted":"0","num_feature":"4","num_nodes":"7","size_leaf_vector":"0"}},{"base_weights":[4.1342498E-4,1.5280247E-3,2.9174684E-4,5.273937E-5,7.606447E-4,6.095171E-4,1.5364776E-5],"default_left":[true,false,true,true,false,false,false],"id":27,"leaf_child_counts":[0,0,0,0,0,0,0],"left_children":[1,-1,3,5,-1,-1,-1],"loss_changes":[1.36589315E-5,0E0,1.0606542E-5,1.3224328E-6,0E0,0E0,7.66476E-7],"parents":[2147483647,0,0,2,2,3,3],"right_children":[2,-1,4,6,-1,-1,-1],"split_conditions":[7.6152185E2,4.5840742E-4,4.0015378E2,3.1057868E0,2.2819341E-4,1.8285513E-4,4.609433E-6],"split_indices":[1,0,0,0,0,0,0],"sum_hessian":[1.03E2,9E0,9.4E1,6.3E1,3.1E1,3E0,6E1],"tree_param":{"num_deleted":"0","num_feature":"4","num_nodes":"7","size_leaf_vector":"0"}},{"base_weights":[2.9787968E-4,1.0035038E-3,1.949341E-4,1.0804594E-5,5.3983927E-4],"default_left":[true,false,true,false,false],"id":28,"leaf_child_counts":[0,0,0,0,0],"left_children":[1,-1,3,-1,-1],"loss_changes":[7.3590345E-6,2.470797E-7,5.8368314E-6,7.649379E-7,0E0],"parents":[2147483647,0,0,2,2],"right_children":[2,-1,4,-1,-1],"split_conditions":[3.3720577E0,3.0105116E-4,4.0015378E2,3.2413784E-6,1.6195179E-4],"split_indices":[0,0,0,0,0],"sum_hessian":[1.03E2,1.2E1,9.1E1,6E1,3.1E1],"tree_param":{"num_deleted":"0","num_feature":"4","num_nodes":"5","size_leaf_vector":"0"}},{"base_weights":[2.1296964E-4,8.4481237E-4,1.4421808E-4,2.2683205E-5,3.8278103E-4],"default_left":[true,false,true,false,false],"id":29,"leaf_child_counts":[0,0,0,0,0],"left_children":[1,-1,3,-1,-1],"loss_changes":[4.395941E-6,0E0,2.7457204E-6,3.9125862E-7,0E0],"parents":[2147483647,0,0,2,2],"right_children":[2,-1,4,-1,-1],"split_conditions":[7.6152185E2,2.5344372E-4,4.0015378E2,6.8049617E-6,1.14834314E-4],"split_indices":[1,0,0,0,0],"sum_hessian":[1.03E2,9E0,9.4E1,6.3E1,3.1E1],"tree_param":{"num_deleted":"0","num_feature":"4","num_nodes":"5","size_leaf_vector":"0"}},{"base_weights":[1.5277808E-4,6.165028E-4,1.0235676E-4,1.5977625E-5,2.719164E-4],"default_left":[true,false,true,false,false],"id":30,"leaf_child_counts":[0,0,0,0,0],"left_children":[1,-1,3,-1,-1],"loss_changes":[2.3685839E-6,0E0,1.3870648E-6,3.9148028E-7,0E0],"parents":[2147483647,0,0,2,2],"right_children":[2,-1,4,-1,-1],"split_conditions":[7.6152185E2,1.8495084E-4,4.0015378E2,4.7932876E-6,8.157492E-5],"split_indices":[1,0,0,0,0],"sum_hessian":[1.03E2,9E0,9.4E1,6.3E1,3.1E1],"tree_param":{"num_deleted":"0","num_feature":"4","num_nodes":"5","size_leaf_vector":"0"}},{"base_weights":[1.09424545E-4,4.193049E-4,6.4447704E-5,-1.11696376E-4,1.3933366E-4],"default_left":[true,false,true,false,false],"id":31,"leaf_child_counts":[0,0,0,0,0],"left_children":[1,-1,3,-1,-1],"loss_changes":[1.4224706E-6,0E0,1.2291089E-6,2.776825E-7,1.7043556E-7],"parents":[2147483647,0,0,2,2],"right_children":[2,-1,4,-1,-1],"split_conditions":[3.3720577E0,1.2579148E-4,8.142014E1,-3.3508913E-5,4.18001E-5],"split_indices":[0,0,0,0,0],"sum_hessian":[1.03E2,1.2E1,9.1E1,2.7E1,6.4E1],"tree_param":{"num_deleted":"0","num_feature":"4","num_nodes":"5","size_leaf_vector":"0"}},{"base_weights":[7.781764E-5],"default_left":[false],"id":32,"leaf_child_counts":[0],"left_children":[-1],"loss_changes":[7.519945E-7],"parents":[2147483647],"right_children":[-1],"split_conditions":[2.3345294E-5],"split_indices":[0],"sum_hessian":[1.03E2],"tree_param":{"num_deleted":"0","num_feature":"4","num_nodes":"1","size_leaf_vector":"0"}},{"base_weights":[5.482411E-5],"default_left":[false],"id":33,"leaf_child_counts":[0],"left_children":[-1],"loss_changes":[7.631314E-7],"parents":[2147483647],"right_children":[-1],"split_conditions":[1.6447235E-5],"split_indices":[0],"sum_hessian":[1.03E2],"tree_param":{"num_deleted":"0","num_feature":"4","num_nodes":"1","size_leaf_vector":"0"}},{"base_weights":[3.8623504E-5],"default_left":[false],"id":34,"leaf_child_counts":[0],"left_children":[-1],"loss_changes":[7.715643E-7],"parents":[2147483647],"right_children":[-1],"split_conditions":[1.1587052E-5],"split_indices":[0],"sum_hessian":[1.03E2],"tree_param":{"num_deleted":"0","num_feature":"4","num_nodes":"1","size_leaf_vector":"0"}},{"base_weights":[2.721029E-5],"default_left":[false],"id":35,"leaf_child_counts":[0],"left_children":[-1],"loss_changes":[7.769602E-7],"parents":[2147483647],"right_children":[-1],"split_conditions":[8.163087E-6],"split_indices":[0],"sum_hessian":[1.03E2],"tree_param":{"num_deleted":"0","num_feature":"4","num_nodes":"1","size_leaf_vector":"0"}},{"base_weights":[1.9024788E-5],"default_left":[false],"id":36,"leaf_child_counts":[0],"left_children":[-1],"loss_changes":[7.81586E-7],"parents":[2147483647],"right_children":[-1],"split_conditions":[5.7074367E-6],"split_indices":[0],"sum_hessian":[1.03E2],"tree_param":{"num_deleted":"0","num_feature":"4","num_nodes":"1","size_leaf_vector":"0"}},{"base_weights":[1.3361488E-5],"default_left":[false],"id":37,"leaf_child_counts":[0],"left_children":[-1],"loss_changes":[7.840001E-7],"parents":[2147483647],"right_children":[-1],"split_conditions":[4.0084465E-6],"split_indices":[0],"sum_hessian":[1.03E2],"tree_param":{"num_deleted":"0","num_feature":"4","num_nodes":"1","size_leaf_vector":"0"}},{"base_weights":[9.443629E-6],"default_left":[false],"id":38,"leaf_child_counts":[0],"left_children":[-1],"loss_changes":[7.8616574E-7],"parents":[2147483647],"right_children":[-1],"split_conditions":[2.8330887E-6],"split_indices":[0],"sum_hessian":[1.03E2],"tree_param":{"num_deleted":"0","num_feature":"4","num_nodes":"1","size_leaf_vector":"0"}},{"base_weights":[6.617459E-6],"default_left":[false],"id":39,"leaf_child_counts":[0],"left_children":[-1],"loss_changes":[7.872924E-7],"parents":[2147483647],"right_children":[-1],"split_conditions":[1.9852378E-6],"split_indices":[0],"sum_hessian":[1.03E2],"tree_param":{"num_deleted":"0","num_feature":"4","num_nodes":"1","size_leaf_vector":"0"}},{"base_weights":[4.6740392E-6],"default_left":[false],"id":40,"leaf_child_counts":[0],"left_children":[-1],"loss_changes":[7.8843755E-7],"parents":[2147483647],"right_children":[-1],"split_conditions":[1.4022119E-6],"split_indices":[0],"sum_hessian":[1.03E2],"tree_param":{"num_deleted":"0","num_feature":"4","num_nodes":"1","size_leaf_vector":"0"}},{"base_weights":[3.4074405E-6],"default_left":[false],"id":41,"leaf_child_counts":[0],"left_children":[-1],"loss_changes":[7.8799667E-7],"parents":[2147483647],"right_children":[-1],"split_conditions":[1.0222323E-6],"split_indices":[0],"sum_hessian":[1.03E2],"tree_param":{"num_deleted":"0","num_feature":"4","num_nodes":"1","size_leaf_vector":"0"}},{"base_weights":[2.409994E-6],"default_left":[false],"id":42,"leaf_child_counts":[0],"left_children":[-1],"loss_changes":[7.887387E-7],"parents":[2147483647],"right_children":[-1],"split_conditions":[7.2299827E-7],"split_indices":[0],"sum_hessian":[1.03E2],"tree_param":{"num_deleted":"0","num_feature":"4","num_nodes":"1","size_leaf_vector":"0"}},{"base_weights":[1.6001018E-6],"default_left":[false],"id":43,"leaf_child_counts":[0],"left_children":[-1],"loss_changes":[7.8858375E-7],"parents":[2147483647],"right_children":[-1],"split_conditions":[4.8003056E-7],"split_indices":[0],"sum_hessian":[1.03E2],"tree_param":{"num_deleted":"0","num_feature":"4","num_nodes":"1","size_leaf_vector":"0"}},{"base_weights":[9.853213E-7],"default_left":[false],"id":44,"leaf_child_counts":[0],"left_children":[-1],"loss_changes":[7.8974034E-7],"parents":[2147483647],"right_children":[-1],"split_conditions":[2.955964E-7],"split_indices":[0],"sum_hessian":[1.03E2],"tree_param":{"num_deleted":"0","num_feature":"4","num_nodes":"1","size_leaf_vector":"0"}},{"base_weights":[7.9142717E-7],"default_left":[false],"id":45,"leaf_child_counts":[0],"left_children":[-1],"loss_changes":[7.8841924E-7],"parents":[2147483647],"right_children":[-1],"split_conditions":[2.3742815E-7],"split_indices":[0],"sum_hessian":[1.03E2],"tree_param":{"num_deleted":"0","num_feature":"4","num_nodes":"1","size_leaf_vector":"0"}},{"base_weights":[6.4012306E-7],"default_left":[false],"id":46,"leaf_child_counts":[0],"left_children":[-1],"loss_changes":[7.8906834E-7],"parents":[2147483647],"right_children":[-1],"split_conditions":[1.9203692E-7],"split_indices":[0],"sum_hessian":[1.03E2],"tree_param":{"num_deleted":"0","num_feature":"4","num_nodes":"1","size_leaf_vector":"0"}},{"base_weights":[5.144662E-7],"default_left":[false],"id":47,"leaf_child_counts":[0],"left_children":[-1],"loss_changes":[7.895438E-7],"parents":[2147483647],"right_children":[-1],"split_conditions":[1.5433986E-7],"split_indices":[0],"sum_hessian":[1.03E2],"tree_param":{"num_deleted":"0","num_feature":"4","num_nodes":"1","size_leaf_vector":"0"}},{"base_weights":[4.2724423E-7],"default_left":[false],"id":48,"leaf_child_counts":[0],"left_children":[-1],"loss_changes":[7.8975864E-7],"parents":[2147483647],"right_children":[-1],"split_conditions":[1.2817327E-7],"split_indices":[0],"sum_hessian":[1.03E2],"tree_param":{"num_deleted":"0","num_feature":"4","num_nodes":"1","size_leaf_vector":"0"}},{"base_weights":[3.4507292E-7],"default_left":[false],"id":49,"leaf_child_counts":[0],"left_children":[-1],"loss_changes":[7.8993924E-7],"parents":[2147483647],"right_children":[-1],"split_conditions":[1.0352188E-7],"split_indices":[0],"sum_hessian":[1.03E2],"tree_param":{"num_deleted":"0","num_feature":"4","num_nodes":"1","size_leaf_vector":"0"}},{"base_weights":[2.838922E-7],"default_left":[false],"id":50,"leaf_child_counts":[0],"left_children":[-1],"loss_changes":[7.903543E-7],"parents":[2147483647],"right_children":[-1],"split_conditions":[8.516766E-8],"split_indices":[0],"sum_hessian":[1.03E2],"tree_param":{"num_deleted":"0","num_feature":"4","num_nodes":"1","size_leaf_vector":"0"}},{"base_weights":[2.2683078E-7],"default_left":[false],"id":51,"leaf_child_counts":[0],"left_children":[-1],"loss_changes":[7.907414E-7],"parents":[2147483647],"right_children":[-1],"split_conditions":[6.804924E-8],"split_indices":[0],"sum_hessian":[1.03E2],"tree_param":{"num_deleted":"0","num_feature":"4","num_nodes":"1","size_leaf_vector":"0"}},{"base_weights":[1.6729777E-7],"default_left":[false],"id":52,"leaf_child_counts":[0],"left_children":[-1],"loss_changes":[7.9114545E-7],"parents":[2147483647],"right_children":[-1],"split_conditions":[5.0189332E-8],"split_indices":[0],"sum_hessian":[1.03E2],"tree_param":{"num_deleted":"0","num_feature":"4","num_nodes":"1","size_leaf_vector":"0"}},{"base_weights":[1.5501148E-7],"default_left":[false],"id":53,"leaf_child_counts":[0],"left_children":[-1],"loss_changes":[7.9122884E-7],"parents":[2147483647],"right_children":[-1],"split_conditions":[4.6503445E-8],"split_indices":[0],"sum_hessian":[1.03E2],"tree_param":{"num_deleted":"0","num_feature":"4","num_nodes":"1","size_leaf_vector":"0"}},{"base_weights":[1.4311921E-7],"default_left":[false],"id":54,"leaf_child_counts":[0],"left_children":[-1],"loss_changes":[7.9130956E-7],"parents":[2147483647],"right_children":[-1],"split_conditions":[4.2935763E-8],"split_indices":[0],"sum_hessian":[1.03E2],"tree_param":{"num_deleted":"0","num_feature":"4","num_nodes":"1","size_leaf_vector":"0"}},{"base_weights":[1.3180005E-7],"default_left":[false],"id":55,"leaf_child_counts":[0],"left_children":[-1],"loss_changes":[7.9138636E-7],"parents":[2147483647],"right_children":[-1],"split_conditions":[3.9540016E-8],"split_indices":[0],"sum_hessian":[1.03E2],"tree_param":{"num_deleted":"0","num_feature":"4","num_nodes":"1","size_leaf_vector":"0"}},{"base_weights":[1.2087493E-7],"default_left":[false],"id":56,"leaf_child_counts":[0],"left_children":[-1],"loss_changes":[7.9146054E-7],"parents":[2147483647],"right_children":[-1],"split_conditions":[3.626248E-8],"split_indices":[0],"sum_hessian":[1.03E2],"tree_param":{"num_deleted":"0","num_feature":"4","num_nodes":"1","size_leaf_vector":"0"}},{"base_weights":[1.119199E-7],"default_left":[false],"id":57,"leaf_child_counts":[0],"left_children":[-1],"loss_changes":[7.9152136E-7],"parents":[2147483647],"right_children":[-1],"split_conditions":[3.3575972E-8],"split_indices":[0],"sum_hessian":[1.03E2],"tree_param":{"num_deleted":"0","num_feature":"4","num_nodes":"1","size_leaf_vector":"0"}},{"base_weights":[1.040753E-7],"default_left":[false],"id":58,"leaf_child_counts":[0],"left_children":[-1],"loss_changes":[7.9157456E-7],"parents":[2147483647],"right_children":[-1],"split_conditions":[3.122259E-8],"split_indices":[0],"sum_hessian":[1.03E2],"tree_param":{"num_deleted":"0","num_feature":"4","num_nodes":"1","size_leaf_vector":"0"}},{"base_weights":[9.605159E-8],"default_left":[false],"id":59,"leaf_child_counts":[0],"left_children":[-1],"loss_changes":[7.916291E-7],"parents":[2147483647],"right_children":[-1],"split_conditions":[2.881548E-8],"split_indices":[0],"sum_hessian":[1.03E2],"tree_param":{"num_deleted":"0","num_feature":"4","num_nodes":"1","size_leaf_vector":"0"}},{"base_weights":[8.860101E-8],"default_left":[false],"id":60,"leaf_child_counts":[0],"left_children":[-1],"loss_changes":[7.9167967E-7],"parents":[2147483647],"right_children":[-1],"split_conditions":[2.6580304E-8],"split_indices":[0],"sum_hessian":[1.03E2],"tree_param":{"num_deleted":"0","num_feature":"4","num_nodes":"1","size_leaf_vector":"0"}},{"base_weights":[8.097133E-8],"default_left":[false],"id":61,"leaf_child_counts":[0],"left_children":[-1],"loss_changes":[7.9173145E-7],"parents":[2147483647],"right_children":[-1],"split_conditions":[2.4291401E-8],"split_indices":[0],"sum_hessian":[1.03E2],"tree_param":{"num_deleted":"0","num_feature":"4","num_nodes":"1","size_leaf_vector":"0"}},{"base_weights":[7.405806E-8],"default_left":[false],"id":62,"leaf_child_counts":[0],"left_children":[-1],"loss_changes":[7.917784E-7],"parents":[2147483647],"right_children":[-1],"split_conditions":[2.2217417E-8],"split_indices":[0],"sum_hessian":[1.03E2],"tree_param":{"num_deleted":"0","num_feature":"4","num_nodes":"1","size_leaf_vector":"0"}},{"base_weights":[6.89716E-8],"default_left":[false],"id":63,"leaf_child_counts":[0],"left_children":[-1],"loss_changes":[7.918129E-7],"parents":[2147483647],"right_children":[-1],"split_conditions":[2.069148E-8],"split_indices":[0],"sum_hessian":[1.03E2],"tree_param":{"num_deleted":"0","num_feature":"4","num_nodes":"1","size_leaf_vector":"0"}},{"base_weights":[6.402843E-8],"default_left":[false],"id":64,"leaf_child_counts":[0],"left_children":[-1],"loss_changes":[7.9184645E-7],"parents":[2147483647],"right_children":[-1],"split_conditions":[1.9208528E-8],"split_indices":[0],"sum_hessian":[1.03E2],"tree_param":{"num_deleted":"0","num_feature":"4","num_nodes":"1","size_leaf_vector":"0"}},{"base_weights":[5.962256E-8],"default_left":[false],"id":65,"leaf_child_counts":[0],"left_children":[-1],"loss_changes":[7.918764E-7],"parents":[2147483647],"right_children":[-1],"split_conditions":[1.7886768E-8],"split_indices":[0],"sum_hessian":[1.03E2],"tree_param":{"num_deleted":"0","num_feature":"4","num_nodes":"1","size_leaf_vector":"0"}},{"base_weights":[5.5359962E-8],"default_left":[false],"id":66,"leaf_child_counts":[0],"left_children":[-1],"loss_changes":[7.9190534E-7],"parents":[2147483647],"right_children":[-1],"split_conditions":[1.660799E-8],"split_indices":[0],"sum_hessian":[1.03E2],"tree_param":{"num_deleted":"0","num_feature":"4","num_nodes":"1","size_leaf_vector":"0"}},{"base_weights":[5.1204832E-8],"default_left":[false],"id":67,"leaf_child_counts":[0],"left_children":[-1],"loss_changes":[7.919336E-7],"parents":[2147483647],"right_children":[-1],"split_conditions":[1.536145E-8],"split_indices":[0],"sum_hessian":[1.03E2],"tree_param":{"num_deleted":"0","num_feature":"4","num_nodes":"1","size_leaf_vector":"0"}},{"base_weights":[4.70497E-8],"default_left":[false],"id":68,"leaf_child_counts":[0],"left_children":[-1],"loss_changes":[7.919618E-7],"parents":[2147483647],"right_children":[-1],"split_conditions":[1.411491E-8],"split_indices":[0],"sum_hessian":[1.03E2],"tree_param":{"num_deleted":"0","num_feature":"4","num_nodes":"1","size_leaf_vector":"0"}},{"base_weights":[4.346769E-8],"default_left":[false],"id":69,"leaf_child_counts":[0],"left_children":[-1],"loss_changes":[7.919861E-7],"parents":[2147483647],"right_children":[-1],"split_conditions":[1.30403075E-8],"split_indices":[0],"sum_hessian":[1.03E2],"tree_param":{"num_deleted":"0","num_feature":"4","num_nodes":"1","size_leaf_vector":"0"}},{"base_weights":[3.988568E-8],"default_left":[false],"id":70,"leaf_child_counts":[0],"left_children":[-1],"loss_changes":[7.9201044E-7],"parents":[2147483647],"right_children":[-1],"split_conditions":[1.1965705E-8],"split_indices":[0],"sum_hessian":[1.03E2],"tree_param":{"num_deleted":"0","num_feature":"4","num_nodes":"1","size_leaf_vector":"0"}},{"base_weights":[3.641113E-8],"default_left":[false],"id":71,"leaf_child_counts":[0],"left_children":[-1],"loss_changes":[7.9203403E-7],"parents":[2147483647],"right_children":[-1],"split_conditions":[1.092334E-8],"split_indices":[0],"sum_hessian":[1.03E2],"tree_param":{"num_deleted":"0","num_feature":"4","num_nodes":"1","size_leaf_vector":"0"}},{"base_weights":[3.307986E-8],"default_left":[false],"id":72,"leaf_child_counts":[0],"left_children":[-1],"loss_changes":[7.9205665E-7],"parents":[2147483647],"right_children":[-1],"split_conditions":[9.9239585E-9],"split_indices":[0],"sum_hessian":[1.03E2],"tree_param":{"num_deleted":"0","num_feature":"4","num_nodes":"1","size_leaf_vector":"0"}},{"base_weights":[2.9891872E-8],"default_left":[false],"id":73,"leaf_child_counts":[0],"left_children":[-1],"loss_changes":[7.9207825E-7],"parents":[2147483647],"right_children":[-1],"split_conditions":[8.967562E-9],"split_indices":[0],"sum_hessian":[1.03E2],"tree_param":{"num_deleted":"0","num_feature":"4","num_nodes":"1","size_leaf_vector":"0"}},{"base_weights":[2.7097904E-8],"default_left":[false],"id":74,"leaf_child_counts":[0],"left_children":[-1],"loss_changes":[7.920973E-7],"parents":[2147483647],"right_children":[-1],"split_conditions":[8.129372E-9],"split_indices":[0],"sum_hessian":[1.03E2],"tree_param":{"num_deleted":"0","num_feature":"4","num_nodes":"1","size_leaf_vector":"0"}},{"base_weights":[2.4160657E-8],"default_left":[false],"id":75,"leaf_child_counts":[0],"left_children":[-1],"loss_changes":[7.9211725E-7],"parents":[2147483647],"right_children":[-1],"split_conditions":[7.2481976E-9],"split_indices":[0],"sum_hessian":[1.03E2],"tree_param":{"num_deleted":"0","num_feature":"4","num_nodes":"1","size_leaf_vector":"0"}},{"base_weights":[2.3372614E-8],"default_left":[false],"id":76,"leaf_child_counts":[0],"left_children":[-1],"loss_changes":[7.921226E-7],"parents":[2147483647],"right_children":[-1],"split_conditions":[7.0117845E-9],"split_indices":[0],"sum_hessian":[1.03E2],"tree_param":{"num_deleted":"0","num_feature":"4","num_nodes":"1","size_leaf_vector":"0"}},{"base_weights":[2.2441291E-8],"default_left":[false],"id":77,"leaf_child_counts":[0],"left_children":[-1],"loss_changes":[7.921289E-7],"parents":[2147483647],"right_children":[-1],"split_conditions":[6.7323875E-9],"split_indices":[0],"sum_hessian":[1.03E2],"tree_param":{"num_deleted":"0","num_feature":"4","num_nodes":"1","size_leaf_vector":"0"}},{"base_weights":[2.1509969E-8],"default_left":[false],"id":78,"leaf_child_counts":[0],"left_children":[-1],"loss_changes":[7.921352E-7],"parents":[2147483647],"right_children":[-1],"split_conditions":[6.452991E-9],"split_indices":[0],"sum_hessian":[1.03E2],"tree_param":{"num_deleted":"0","num_feature":"4","num_nodes":"1","size_leaf_vector":"0"}},{"base_weights":[2.0721927E-8],"default_left":[false],"id":79,"leaf_child_counts":[0],"left_children":[-1],"loss_changes":[7.9214055E-7],"parents":[2147483647],"right_children":[-1],"split_conditions":[6.2165784E-9],"split_indices":[0],"sum_hessian":[1.03E2],"tree_param":{"num_deleted":"0","num_feature":"4","num_nodes":"1","size_leaf_vector":"0"}},{"base_weights":[1.9933886E-8],"default_left":[false],"id":80,"leaf_child_counts":[0],"left_children":[-1],"loss_changes":[7.921459E-7],"parents":[2147483647],"right_children":[-1],"split_conditions":[5.980166E-9],"split_indices":[0],"sum_hessian":[1.03E2],"tree_param":{"num_deleted":"0","num_feature":"4","num_nodes":"1","size_leaf_vector":"0"}},{"base_weights":[1.9002563E-8],"default_left":[false],"id":81,"leaf_child_counts":[0],"left_children":[-1],"loss_changes":[7.921522E-7],"parents":[2147483647],"right_children":[-1],"split_conditions":[5.700769E-9],"split_indices":[0],"sum_hessian":[1.03E2],"tree_param":{"num_deleted":"0","num_feature":"4","num_nodes":"1","size_leaf_vector":"0"}},{"base_weights":[1.807124E-8],"default_left":[false],"id":82,"leaf_child_counts":[0],"left_children":[-1],"loss_changes":[7.921586E-7],"parents":[2147483647],"right_children":[-1],"split_conditions":[5.4213722E-9],"split_indices":[0],"sum_hessian":[1.03E2],"tree_param":{"num_deleted":"0","num_feature":"4","num_nodes":"1","size_leaf_vector":"0"}},{"base_weights":[1.767722E-8],"default_left":[false],"id":83,"leaf_child_counts":[0],"left_children":[-1],"loss_changes":[7.9216125E-7],"parents":[2147483647],"right_children":[-1],"split_conditions":[5.303166E-9],"split_indices":[0],"sum_hessian":[1.03E2],"tree_param":{"num_deleted":"0","num_feature":"4","num_nodes":"1","size_leaf_vector":"0"}},{"base_weights":[1.7283197E-8],"default_left":[false],"id":84,"leaf_child_counts":[0],"left_children":[-1],"loss_changes":[7.921639E-7],"parents":[2147483647],"right_children":[-1],"split_conditions":[5.184959E-9],"split_indices":[0],"sum_hessian":[1.03E2],"tree_param":{"num_deleted":"0","num_feature":"4","num_nodes":"1","size_leaf_vector":"0"}},{"base_weights":[1.6889176E-8],"default_left":[false],"id":85,"leaf_child_counts":[0],"left_children":[-1],"loss_changes":[7.921666E-7],"parents":[2147483647],"right_children":[-1],"split_conditions":[5.0667532E-9],"split_indices":[0],"sum_hessian":[1.03E2],"tree_param":{"num_deleted":"0","num_feature":"4","num_nodes":"1","size_leaf_vector":"0"}},{"base_weights":[1.6495155E-8],"default_left":[false],"id":86,"leaf_child_counts":[0],"left_children":[-1],"loss_changes":[7.921693E-7],"parents":[2147483647],"right_children":[-1],"split_conditions":[4.948547E-9],"split_indices":[0],"sum_hessian":[1.03E2],"tree_param":{"num_deleted":"0","num_feature":"4","num_nodes":"1","size_leaf_vector":"0"}},{"base_weights":[1.5957854E-8],"default_left":[false],"id":87,"leaf_child_counts":[0],"left_children":[-1],"loss_changes":[7.9217295E-7],"parents":[2147483647],"right_children":[-1],"split_conditions":[4.7873563E-9],"split_indices":[0],"sum_hessian":[1.03E2],"tree_param":{"num_deleted":"0","num_feature":"4","num_nodes":"1","size_leaf_vector":"0"}},{"base_weights":[1.5563833E-8],"default_left":[false],"id":88,"leaf_child_counts":[0],"left_children":[-1],"loss_changes":[7.921756E-7],"parents":[2147483647],"right_children":[-1],"split_conditions":[4.66915E-9],"split_indices":[0],"sum_hessian":[1.03E2],"tree_param":{"num_deleted":"0","num_feature":"4","num_nodes":"1","size_leaf_vector":"0"}},{"base_weights":[1.5169812E-8],"default_left":[false],"id":89,"leaf_child_counts":[0],"left_children":[-1],"loss_changes":[7.921783E-7],"parents":[2147483647],"right_children":[-1],"split_conditions":[4.5509436E-9],"split_indices":[0],"sum_hessian":[1.03E2],"tree_param":{"num_deleted":"0","num_feature":"4","num_nodes":"1","size_leaf_vector":"0"}},{"base_weights":[1.463251E-8],"default_left":[false],"id":90,"leaf_child_counts":[0],"left_children":[-1],"loss_changes":[7.9218194E-7],"parents":[2147483647],"right_children":[-1],"split_conditions":[4.3897534E-9],"split_indices":[0],"sum_hessian":[1.03E2],"tree_param":{"num_deleted":"0","num_feature":"4","num_nodes":"1","size_leaf_vector":"0"}},{"base_weights":[1.42384895E-8],"default_left":[false],"id":91,"leaf_child_counts":[0],"left_children":[-1],"loss_changes":[7.921846E-7],"parents":[2147483647],"right_children":[-1],"split_conditions":[4.271547E-9],"split_indices":[0],"sum_hessian":[1.03E2],"tree_param":{"num_deleted":"0","num_feature":"4","num_nodes":"1","size_leaf_vector":"0"}},{"base_weights":[1.3844469E-8],"default_left":[false],"id":92,"leaf_child_counts":[0],"left_children":[-1],"loss_changes":[7.921873E-7],"parents":[2147483647],"right_children":[-1],"split_conditions":[4.153341E-9],"split_indices":[0],"sum_hessian":[1.03E2],"tree_param":{"num_deleted":"0","num_feature":"4","num_nodes":"1","size_leaf_vector":"0"}},{"base_weights":[1.3450447E-8],"default_left":[false],"id":93,"leaf_child_counts":[0],"left_children":[-1],"loss_changes":[7.9219E-7],"parents":[2147483647],"right_children":[-1],"split_conditions":[4.0351344E-9],"split_indices":[0],"sum_hessian":[1.03E2],"tree_param":{"num_deleted":"0","num_feature":"4","num_nodes":"1","size_leaf_vector":"0"}},{"base_weights":[1.3056426E-8],"default_left":[false],"id":94,"leaf_child_counts":[0],"left_children":[-1],"loss_changes":[7.921926E-7],"parents":[2147483647],"right_children":[-1],"split_conditions":[3.916928E-9],"split_indices":[0],"sum_hessian":[1.03E2],"tree_param":{"num_deleted":"0","num_feature":"4","num_nodes":"1","size_leaf_vector":"0"}},{"base_weights":[1.2519124E-8],"default_left":[false],"id":95,"leaf_child_counts":[0],"left_children":[-1],"loss_changes":[7.921963E-7],"parents":[2147483647],"right_children":[-1],"split_conditions":[3.7557375E-9],"split_indices":[0],"sum_hessian":[1.03E2],"tree_param":{"num_deleted":"0","num_feature":"4","num_nodes":"1","size_leaf_vector":"0"}},{"base_weights":[1.2125104E-8],"default_left":[false],"id":96,"leaf_child_counts":[0],"left_children":[-1],"loss_changes":[7.92199E-7],"parents":[2147483647],"right_children":[-1],"split_conditions":[3.6375312E-9],"split_indices":[0],"sum_hessian":[1.03E2],"tree_param":{"num_deleted":"0","num_feature":"4","num_nodes":"1","size_leaf_vector":"0"}},{"base_weights":[1.1731083E-8],"default_left":[false],"id":97,"leaf_child_counts":[0],"left_children":[-1],"loss_changes":[7.9220166E-7],"parents":[2147483647],"right_children":[-1],"split_conditions":[3.519325E-9],"split_indices":[0],"sum_hessian":[1.03E2],"tree_param":{"num_deleted":"0","num_feature":"4","num_nodes":"1","size_leaf_vector":"0"}},{"base_weights":[1.1193781E-8],"default_left":[false],"id":98,"leaf_child_counts":[0],"left_children":[-1],"loss_changes":[7.922053E-7],"parents":[2147483647],"right_children":[-1],"split_conditions":[3.3581344E-9],"split_indices":[0],"sum_hessian":[1.03E2],"tree_param":{"num_deleted":"0","num_feature":"4","num_nodes":"1","size_leaf_vector":"0"}},{"base_weights":[1.079976E-8],"default_left":[false],"id":99,"leaf_child_counts":[0],"left_children":[-1],"loss_changes":[7.9220797E-7],"parents":[2147483647],"right_children":[-1],"split_conditions":[3.239928E-9],"split_indices":[0],"sum_hessian":[1.03E2],"tree_param":{"num_deleted":"0","num_feature":"4","num_nodes":"1","size_leaf_vector":"0"}}]},"name":"gbtree"},"learner_model_param":{"base_score":"5E-1","num_class":"0","num_feature":"4"},"objective":{"name":"reg:squarederror","reg_loss_param":{"scale_pos_weight":"1"}}},"version":[1,2,0]}