{"learner":{"attributes":{"scikit_learn":"{\"n_estimators\": 100, \"objective\": \"reg:squarederror\", \"max_depth\": null, \"learning_rate\": null, \"verbosity\": null, \"booster\": null, \"tree_method\": null, \"gamma\": null, \"min_child_weight\": null, \"max_delta_step\": null, \"subsample\": null, \"colsample_bytree\": null, \"colsample_bylevel\": null, \"colsample_bynode\": null, \"reg_alpha\": null, \"reg_lambda\": null, \"scale_pos_weight\": null, \"base_score\": null, \"missing\": NaN, \"num_parallel_tree\": null, \"kwargs\": {}, \"random_state\": 42, \"n_jobs\": null, \"monotone_constraints\": null, \"interaction_constraints\": null, \"importance_type\": \"gain\", \"gpu_id\": null, \"validate_parameters\": null, \"n_features_in_\": 4, \"type\": \"XGBRegressor\"}"},"gradient_booster":{"model":{"gbtree_model_param":{"num_trees":"100","size_leaf_vector":"0"},"tree_info":[0,0,0,0,0,0,0,0,0,0,0,0,0,0,0,0,0,0,0,0,0,0,0,0,0,0,0,0,0,0,0,0,0,0,0,0,0,0,0,0,0,0,0,0,0,0,0,0,0,0,0,0,0,0,0,0,0,0,0,0,0,0,0,0,0,0,0,0,0,0,0,0,0,0,0,0,0,0,0,0,0,0,0,0,0,0,0,0,0,0,0,0,0,0,0,0,0,0,0,0],"trees":[{"base_weights":[2.3363993E0,5.126411E0,-1.02160715E-1,-4.6425807E-1,9.144E0,-2.068305E-1,-4.509091E-2,1.2680227E1,5.221667E0,4.442858E-2,-3.368205E-1,-6.748193E-2,2.2892853E-2,7.28E-2,3.3470597E-2,2.7999997E-2,-3.572973E-1,-8.4125E-2,-4.341667E-2,2.4666665E-1,-3.8076937E-3,-4.3678948E-1,-2.59E-1],"default_left":[true,true,true,false,true,true,true,false,false,true,true,true,true,false,false,false,true,false,false,false,false,false,false],"id":0,"leaf_child_counts":[0,0,0,0,0,0,0,0,0,0,0,0,0,0,0,0,0,0,0,0,0,0,0],"left_children":[1,3,5,-1,7,9,11,-1,-1,13,15,17,19,-1,-1,-1,21,-1,-1,-1,-1,-1,-1],"loss_changes":[2.130054E3,3.2835527E3,9.942193E-1,0E0,1.1127603E3,1.9419734E0,1.6898969E-1,0E0,0E0,4.0921047E-3,3.013482E-1,2.9590696E-2,1.6823594E-1,0E0,0E0,0E0,1.7598486E-1,0E0,0E0,0E0,0E0,0E0,0E0],"parents":[2147483647,0,0,1,1,2,2,4,4,5,5,6,6,9,9,10,10,11,11,12,12,16,16],"right_children":[2,4,6,-1,8,10,12,-1,-1,14,16,18,20,-1,-1,-1,22,-1,-1,-1,-1,-1,-1],"split_conditions":[8.982523E2,3.1600344E0,4.7745583E1,-1.3927743E-1,6.07871E2,9.7174585E2,9.675177E1,3.8040683E0,1.5665001E0,1.3758857E0,6.728492E-1,8.4036316E1,1.0893742E2,2.1840002E-2,1.0041179E-2,8.4E-3,2.6596777E1,-2.52375E-2,-1.3025002E-2,7.4E-2,-1.1423081E-3,-1.3103685E-1,-7.7700004E-2],"split_indices":[1,0,0,0,0,1,0,0,0,0,0,0,0,0,0,0,0,0,0,0,0,0,0],"sum_hessian":[3.12E2,1.45E2,1.67E2,6.1E1,8.4E1,5.8E1,1.09E2,4.3E1,4.1E1,2E1,3.8E1,8.2E1,2.7E1,4E0,1.6E1,2E0,3.6E1,4.7E1,3.5E1,2E0,2.5E1,1.8E1,1.8E1],"tree_param":{"num_deleted":"0","num_feature":"4","num_nodes":"23","size_leaf_vector":"0"}},{"base_weights":[1.6517652E0,3.6243184E0,-7.230928E-2,-3.2722706E-1,6.463983E0,-1.4763653E-1,-3.1249128E-2,-3.364954E-1,-2.0633364E-1,8.962615E0,3.692464E0,3.261816E-2,-2.4091119E-1,-4.7698338E-2,1.8627072E-2,5.5328023E-2,2.4020074E-2,2.2399982E-2,-2.5574964E-1,-5.941328E-2,-3.0753462E-2,1.9733332E-1,-2.7093063E-3,-3.126493E-1,-1.8538946E-1],"default_left":[true,true,true,true,true,true,true,false,false,false,false,true,true,true,true,false,false,false,true,false,false,false,false,false,false],"id":1,"leaf_child_counts":[0,0,0,0,0,0,0,0,0,0,0,0,0,0,0,0,0,0,0,0,0,0,0,0,0],"left_children":[1,3,5,7,9,11,13,-1,-1,-1,-1,15,17,19,21,-1,-1,-1,23,-1,-1,-1,-1,-1,-1],"loss_changes":[1.0647214E3,1.6403905E3,5.150018E-1,4.005432E-5,5.555315E2,9.998368E-1,9.113513E-2,0E0,0E0,0E0,0E0,2.771506E-3,1.581068E-1,1.4649019E-2,1.0729706E-1,0E0,0E0,0E0,9.016657E-2,0E0,0E0,0E0,0E0,0E0,0E0],"parents":[2147483647,0,0,1,1,2,2,3,3,4,4,5,5,6,6,11,11,12,12,13,13,14,14,18,18],"right_children":[2,4,6,8,10,12,14,-1,-1,-1,-1,16,18,20,22,-1,-1,-1,24,-1,-1,-1,-1,-1,-1],"split_conditions":[8.982523E2,3.1600344E0,4.7745583E1,2.8271443E-1,6.07871E2,9.7174585E2,9.675177E1,-1.00948624E-1,-6.1900094E-2,2.6887846E0,1.1077393E0,1.3758857E0,6.728492E-1,8.4036316E1,1.0893742E2,1.6598407E-2,7.2060223E-3,6.719995E-3,2.6596777E1,-1.7823985E-2,-9.226039E-3,5.92E-2,-8.127919E-4,-9.37948E-2,-5.561684E-2],"split_indices":[1,0,0,0,0,1,0,0,0,0,0,0,0,0,0,0,0,0,0,0,0,0,0,0,0],"sum_hessian":[3.12E2,1.45E2,1.67E2,6.1E1,8.4E1,5.8E1,1.09E2,5.5E1,6E0,4.3E1,4.1E1,2E1,3.8E1,8.2E1,2.7E1,4E0,1.6E1,2E0,3.6E1,4.7E1,3.5E1,2E0,2.5E1,1.8E1,1.8E1],"tree_param":{"num_deleted":"0","num_feature":"4","num_nodes":"25","size_leaf_vector":"0"}},{"base_weights":[1.1675651E0,2.5619109E0,-5.113762E-2,-2.316855E-1,4.569453E0,-1.053606E-1,-2.1589495E-2,6.334939E0,2.6110992E0,2.396626E-2,-1.7229658E-1,-3.371473E-2,1.5124214E-2,4.20493E-2,1.7237939E-2,1.7919978E-2,-1.8306288E-1,-4.196062E-2,-2.1783687E-2,1.5786666E-1,-1.9277689E-3,-2.2379108E-1,-1.326998E-1],"default_left":[true,true,true,false,true,true,true,false,false,true,true,true,true,false,false,false,true,false,false,false,false,false,false],"id":2,"leaf_child_counts":[0,0,0,0,0,0,0,0,0,0,0,0,0,0,0,0,0,0,0,0,0,0,0],"left_children":[1,3,5,-1,7,9,11,-1,-1,13,15,17,19,-1,-1,-1,21,-1,-1,-1,-1,-1,-1],"loss_changes":[5.3200977E2,8.198648E2,2.6689276E-1,0E0,2.7734192E2,5.1487005E-1,4.947776E-2,0E0,0E0,1.8301951E-3,8.314967E-2,7.2516575E-3,6.84575E-2,0E0,0E0,0E0,4.6197295E-2,0E0,0E0,0E0,0E0,0E0,0E0],"parents":[2147483647,0,0,1,1,2,2,4,4,5,5,6,6,9,9,10,10,11,11,12,12,16,16],"right_children":[2,4,6,-1,8,10,12,-1,-1,14,16,18,20,-1,-1,-1,22,-1,-1,-1,-1,-1,-1],"split_conditions":[8.982523E2,3.1600344E0,4.7745583E1,-6.9505654E-2,6.07871E2,9.7174585E2,9.675177E1,1.9004818E0,7.833298E-1,1.3758857E0,6.728492E-1,8.4036316E1,1.0893742E2,1.261479E-2,5.171382E-3,5.3759934E-3,2.6596777E1,-1.2588186E-2,-6.5351063E-3,4.736E-2,-5.783307E-4,-6.713732E-2,-3.9809942E-2],"split_indices":[1,0,0,0,0,1,0,0,0,0,0,0,0,0,0,0,0,0,0,0,0,0,0],"sum_hessian":[3.12E2,1.45E2,1.67E2,6.1E1,8.4E1,5.8E1,1.09E2,4.3E1,4.1E1,2E1,3.8E1,8.2E1,2.7E1,4E0,1.6E1,2E0,3.6E1,4.7E1,3.5E1,2E0,2.5E1,1.8E1,1.8E1],"tree_param":{"num_deleted":"0","num_feature":"4","num_nodes":"23","size_leaf_vector":"0"}},{"base_weights":[8.254686E-1,1.8112438E0,-3.6130417E-2,-1.633009E-1,3.230191E0,-7.51725E-2,-1.4861207E-2,-1.6908492E-1,-9.370012E-2,4.4776497E0,1.8464204E0,1.7623363E-2,-1.23211995E-1,-2.3830716E-2,1.2257734E-2,-4.8778653E-3,-1.2825345E-1,3.195747E-2,1.2370781E-2,1.433599E-2,-1.3103448E-1,-2.9634701E-2,-1.5430104E-2,1.2629332E-1,-1.3716691E-3,-1.6909564E-1,-1.00514844E-1],"default_left":[true,true,true,true,true,true,true,false,true,false,false,true,true,true,true,false,false,false,false,false,true,false,false,false,false,false,false],"id":3,"leaf_child_counts":[0,0,0,0,0,0,0,0,0,0,0,0,0,0,0,0,0,0,0,0,0,0,0,0,0,0,0],"left_children":[1,3,5,7,9,11,13,-1,15,-1,-1,17,19,21,23,-1,-1,-1,-1,-1,25,-1,-1,-1,-1,-1,-1],"loss_changes":[2.6590976E2,4.0958664E2,1.3838907E-1,9.116173E-3,1.3845905E2,2.6518553E-1,2.70489E-2,0E0,2.0858128E-2,0E0,0E0,1.1857739E-3,4.3841243E-2,3.5895705E-3,4.369187E-2,0E0,0E0,0E0,0E0,0E0,2.5983036E-2,0E0,0E0,0E0,0E0,0E0,0E0],"parents":[2147483647,0,0,1,1,2,2,3,3,4,4,5,5,6,6,8,8,11,11,12,12,13,13,14,14,20,20],"right_children":[2,4,6,8,10,12,14,-1,16,-1,-1,18,20,22,24,-1,-1,-1,-1,-1,26,-1,-1,-1,-1,-1,-1],"split_conditions":[8.982523E2,3.1600344E0,4.7745583E1,2.8271443E-1,6.07871E2,9.7174585E2,9.675177E1,-5.072548E-2,8.2819885E-1,1.343295E0,5.5392617E-1,1.3758857E0,6.728492E-1,8.4036316E1,1.0893742E2,-1.4633597E-3,-3.8476035E-2,9.587241E-3,3.7112345E-3,4.3007974E-3,6.6570053E0,-8.890411E-3,-4.6290313E-3,3.7887998E-2,-4.1150075E-4,-5.0728694E-2,-3.0154454E-2],"split_indices":[1,0,0,0,0,1,0,0,0,0,0,0,0,0,0,0,0,0,0,0,0,0,0,0,0,0,0],"sum_hessian":[3.12E2,1.45E2,1.67E2,6.1E1,8.4E1,5.8E1,1.09E2,5.5E1,6E0,4.3E1,4.1E1,2E1,3.8E1,8.2E1,2.7E1,2E0,4E0,4E0,1.6E1,2E0,3.6E1,4.7E1,3.5E1,2E0,2.5E1,1.4E1,2.2E1],"tree_param":{"num_deleted":"0","num_feature":"4","num_nodes":"27","size_leaf_vector":"0"}},{"base_weights":[5.834741E-1,1.2802442E0,-2.5525369E-2,-1.1577297E-1,2.2834537E0,-5.3693347E-2,-1.0185042E-2,-1.1926525E-1,-7.129571E-2,3.1648839E0,1.3056829E0,1.2969626E-2,-8.8212036E-2,-1.6844375E-2,9.9188695E-3,-3.9022963E-3,-9.7472616E-2,2.428769E-2,8.877865E-3,1.1468808E-2,-9.391016E-2,-2.0929499E-2,-1.0929643E-2,1.0103466E-1,-9.7598595E-4,-1.1645995E-1,-6.641773E-2],"default_left":[true,true,true,true,true,true,true,false,true,false,false,true,true,true,true,false,false,false,false,false,true,false,false,false,false,false,false],"id":4,"leaf_child_counts":[0,0,0,0,0,0,0,0,0,0,0,0,0,0,0,0,0,0,0,0,0,0,0,0,0,0,0],"left_children":[1,3,5,7,9,11,13,-1,15,-1,-1,17,19,21,23,-1,-1,-1,-1,-1,25,-1,-1,-1,-1,-1,-1],"loss_changes":[1.3284879E2,2.0473706E2,7.2046936E-2,1.1271834E-3,6.912381E1,1.369101E-1,1.48937255E-2,0E0,1.1968687E-2,0E0,0E0,7.5690425E-4,2.3228794E-2,1.7767269E-3,2.7894022E-2,0E0,0E0,0E0,0E0,0E0,1.52030885E-2,0E0,0E0,0E0,0E0,0E0,0E0],"parents":[2147483647,0,0,1,1,2,2,3,3,4,4,5,5,6,6,8,8,11,11,12,12,13,13,14,14,20,20],"right_children":[2,4,6,8,10,12,14,-1,16,-1,-1,18,20,22,24,-1,-1,-1,-1,-1,26,-1,-1,-1,-1,-1,-1],"split_conditions":[8.982523E2,3.1600344E0,4.7745583E1,2.8271443E-1,6.07871E2,9.7174585E2,9.675177E1,-3.5779577E-2,8.2819885E-1,9.494652E-1,3.917049E-1,1.3758857E0,6.728492E-1,8.4036316E1,1.0893742E2,-1.1706889E-3,-2.9241785E-2,7.286307E-3,2.6633595E-3,3.4406425E-3,2.6596777E1,-6.2788497E-3,-3.2788932E-3,3.03104E-2,-2.927958E-4,-3.4937985E-2,-1.992532E-2],"split_indices":[1,0,0,0,0,1,0,0,0,0,0,0,0,0,0,0,0,0,0,0,0,0,0,0,0,0,0],"sum_hessian":[3.12E2,1.45E2,1.67E2,6.1E1,8.4E1,5.8E1,1.09E2,5.5E1,6E0,4.3E1,4.1E1,2E1,3.8E1,8.2E1,2.7E1,2E0,4E0,4E0,1.6E1,2E0,3.6E1,4.7E1,3.5E1,2E0,2.5E1,1.8E1,1.8E1],"tree_param":{"num_deleted":"0","num_feature":"4","num_nodes":"27","size_leaf_vector":"0"}},{"base_weights":[4.1243815E-1,9.049037E-1,-1.799284E-2,-8.210869E-2,1.6141963E0,-3.8288273E-2,-6.943535E-3,2.2369978E0,9.2330414E-1,9.55252E-3,-6.306695E-2,-1.1906224E-2,8.015277E-3,1.845864E-2,6.3711596E-3,9.175062E-3,-6.72199E-2,-1.4781465E-2,-7.741842E-3,8.0827735E-2,-6.9444E-4,-8.914006E-2,-5.000154E-2,-1.3001543E-2,-2.1049844E-2],"default_left":[true,true,true,false,true,true,true,false,false,true,true,true,true,false,false,false,true,true,false,false,false,false,false,false,false],"id":5,"leaf_child_counts":[0,0,0,0,0,0,0,0,0,0,0,0,0,0,0,0,0,0,0,0,0,0,0,0,0],"left_children":[1,3,5,-1,7,9,11,-1,-1,13,15,17,19,-1,-1,-1,21,23,-1,-1,-1,-1,-1,-1,-1],"loss_changes":[6.636366E1,1.0234431E2,3.7408218E-2,0E0,3.4509094E1,7.05429E-2,8.261384E-3,0E0,0E0,4.7740212E-4,1.2317434E-2,8.7937247E-4,1.7813055E-2,0E0,0E0,0E0,9.507731E-3,2.618665E-4,0E0,0E0,0E0,0E0,0E0,0E0,0E0],"parents":[2147483647,0,0,1,1,2,2,4,4,5,5,6,6,9,9,10,10,11,11,12,12,16,16,17,17],"right_children":[2,4,6,-1,8,10,12,-1,-1,14,16,18,20,-1,-1,-1,22,24,-1,-1,-1,-1,-1,-1,-1],"split_conditions":[8.982523E2,3.1600344E0,4.7745583E1,-2.4632609E-2,6.07871E2,9.7174585E2,9.675177E1,6.7109936E-1,2.7699125E-1,1.3758857E0,6.728492E-1,8.4036316E1,1.0893742E2,5.5375923E-3,1.911348E-3,2.7525187E-3,6.6570053E0,6.1835823E1,-2.3225527E-3,2.4248322E-2,-2.08332E-4,-2.6742019E-2,-1.50004625E-2,-3.900463E-3,-6.3149533E-3],"split_indices":[1,0,0,0,0,1,0,0,0,0,0,0,0,0,0,0,0,0,0,0,0,0,0,0,0],"sum_hessian":[3.12E2,1.45E2,1.67E2,6.1E1,8.4E1,5.8E1,1.09E2,4.3E1,4.1E1,2E1,3.8E1,8.2E1,2.7E1,4E0,1.6E1,2E0,3.6E1,4.7E1,3.5E1,2E0,2.5E1,1.4E1,2.2E1,3.9E1,8E0],"tree_param":{"num_deleted":"0","num_feature":"4","num_nodes":"25","size_leaf_vector":"0"}},{"base_weights":[2.91593E-1,6.397575E-1,-1.2714266E-2,-5.787338E-2,1.1410911E0,-2.7336383E-2,-4.75591E-3,-5.9931852E-2,-3.3137973E-2,1.5811505E0,6.529078E-1,7.0414813E-3,-4.5146607E-2,-8.485412E-3,6.469254E-3,1.3299902E-2,-5.4373104E-2,1.4028585E-2,4.572246E-3,7.340034E-3,-4.8182104E-2,-1.055984E-2,-5.483803E-3,6.4662196E-2,-4.94134E-4,-6.418084E-2,-3.565327E-2,-9.1985855E-3,-1.5436543E-2],"default_left":[true,true,true,true,true,true,true,false,true,false,false,true,true,true,true,false,false,false,false,false,true,true,false,false,false,false,false,false,false],"id":6,"leaf_child_counts":[0,0,0,0,0,0,0,0,0,0,0,0,0,0,0,0,0,0,0,0,0,0,0,0,0,0,0,0,0],"left_children":[1,3,5,7,9,11,13,-1,15,-1,-1,17,19,21,23,-1,-1,-1,-1,-1,25,27,-1,-1,-1,-1,-1,-1,-1],"loss_changes":[3.3170174E1,5.1128925E1,1.9419815E-2,1.1708438E-3,1.722818E1,3.6442272E-2,4.6599647E-3,0E0,7.625957E-3,0E0,0E0,2.9816665E-4,6.5672547E-3,4.5890128E-4,1.1378114E-2,0E0,0E0,0E0,0E0,0E0,5.128227E-3,1.7665047E-4,0E0,0E0,0E0,0E0,0E0,0E0,0E0],"parents":[2147483647,0,0,1,1,2,2,3,3,4,4,5,5,6,6,8,8,11,11,12,12,13,13,14,14,20,20,21,21],"right_children":[2,4,6,8,10,12,14,-1,16,-1,-1,18,20,22,24,-1,-1,-1,-1,-1,26,28,-1,-1,-1,-1,-1,-1,-1],"split_conditions":[8.982523E2,3.1600344E0,4.7745583E1,2.8271443E-1,6.07871E2,9.7174585E2,9.675177E1,-1.7979557E-2,8.2819885E-1,4.7434518E-1,1.9587235E-1,1.3758857E0,6.728492E-1,8.4036316E1,1.0893742E2,3.989971E-3,-1.6311932E-2,4.2085755E-3,1.3716739E-3,2.2020102E-3,6.6570053E0,6.1835823E1,-1.6451409E-3,1.939866E-2,-1.482402E-4,-1.9254254E-2,-1.0695982E-2,-2.7595758E-3,-4.6309633E-3],"split_indices":[1,0,0,0,0,1,0,0,0,0,0,0,0,0,0,0,0,0,0,0,0,0,0,0,0,0,0,0,0],"sum_hessian":[3.12E2,1.45E2,1.67E2,6.1E1,8.4E1,5.8E1,1.09E2,5.5E1,6E0,4.3E1,4.1E1,2E1,3.8E1,8.2E1,2.7E1,2E0,4E0,4E0,1.6E1,2E0,3.6E1,4.7E1,3.5E1,2E0,2.5E1,1.4E1,2.2E1,3.9E1,8E0],"tree_param":{"num_deleted":"0","num_feature":"4","num_nodes":"29","size_leaf_vector":"0"}},{"base_weights":[2.0612136E-1,4.5221326E-1,-8.971136E-3,-4.1000098E-2,8.0664873E-1,-1.9511195E-2,-3.2362756E-3,-4.227336E-2,-2.4956862E-2,1.1175859E0,4.6169913E-1,5.194762E-3,-3.2314114E-2,-6.0486505E-3,5.2159876E-3,1.06399255E-2,-4.132356E-2,1.0661733E-2,3.281255E-3,5.872011E-3,-3.4536935E-2,-7.545859E-3,-3.8843537E-3,5.172974E-2,-3.5159863E-4,-4.4059034E-2,-2.31971E-2,-6.5079993E-3,-1.132014E-2],"default_left":[true,true,true,true,true,true,true,false,true,false,false,true,true,true,true,false,false,false,false,false,true,true,false,false,false,false,false,false,false],"id":7,"leaf_child_counts":[0,0,0,0,0,0,0,0,0,0,0,0,0,0,0,0,0,0,0,0,0,0,0,0,0,0,0,0,0],"left_children":[1,3,5,7,9,11,13,-1,15,-1,-1,17,19,21,23,-1,-1,-1,-1,-1,25,27,-1,-1,-1,-1,-1,-1,-1],"loss_changes":[1.6571938E1,2.5555668E1,1.0091746E-2,2.1147728E-4,8.60091E0,1.883006E-2,2.6463522E-3,0E0,4.517893E-3,0E0,0E0,1.8469896E-4,3.51315E-3,2.3964257E-4,7.2693285E-3,0E0,0E0,0E0,0E0,0E0,2.973184E-3,1.1435314E-4,0E0,0E0,0E0,0E0,0E0,0E0,0E0],"parents":[2147483647,0,0,1,1,2,2,3,3,4,4,5,5,6,6,8,8,11,11,12,12,13,13,14,14,20,20,21,21],"right_children":[2,4,6,8,10,12,14,-1,16,-1,-1,18,20,22,24,-1,-1,-1,-1,-1,26,28,-1,-1,-1,-1,-1,-1,-1],"split_conditions":[8.982523E2,3.1600344E0,4.7745583E1,2.8271443E-1,6.07871E2,9.7174585E2,9.675177E1,-1.2682009E-2,8.2819885E-1,3.3527577E-1,1.3850975E-1,1.3758857E0,6.728492E-1,8.4036316E1,1.0893742E2,3.1919777E-3,-1.2397069E-2,3.19852E-3,9.843765E-4,1.7616034E-3,2.6596777E1,6.1835823E1,-1.1653062E-3,1.5518922E-2,-1.05479594E-4,-1.3217711E-2,-6.95913E-3,-1.9523998E-3,-3.3960422E-3],"split_indices":[1,0,0,0,0,1,0,0,0,0,0,0,0,0,0,0,0,0,0,0,0,0,0,0,0,0,0,0,0],"sum_hessian":[3.12E2,1.45E2,1.67E2,6.1E1,8.4E1,5.8E1,1.09E2,5.5E1,6E0,4.3E1,4.1E1,2E1,3.8E1,8.2E1,2.7E1,2E0,4E0,4E0,1.6E1,2E0,3.6E1,4.7E1,3.5E1,2E0,2.5E1,1.8E1,1.8E1,3.9E1,8E0],"tree_param":{"num_deleted":"0","num_feature":"4","num_nodes":"29","size_leaf_vector":"0"}},{"base_weights":[1.4571169E-1,3.196445E-1,-6.3115377E-3,-2.9053086E-2,5.702281E-1,-1.3899064E-2,-2.1844872E-3,7.899301E-1,3.264872E-1,3.8355235E-3,-2.309207E-2,-4.3125325E-3,4.2016646E-3,8.102929E-3,2.3547849E-3,4.697601E-3,-2.4721177E-2,-5.3935205E-3,-2.7514223E-3,4.1383803E-2,-2.5018476E-4,-3.3873677E-2,-1.767732E-2,-4.6044E-3,-8.301443E-3],"default_left":[true,true,true,false,true,true,true,false,false,true,true,true,true,false,false,false,true,true,false,false,false,false,false,false,false],"id":8,"leaf_child_counts":[0,0,0,0,0,0,0,0,0,0,0,0,0,0,0,0,0,0,0,0,0,0,0,0,0],"left_children":[1,3,5,-1,7,9,11,-1,-1,13,15,17,19,-1,-1,-1,21,23,-1,-1,-1,-1,-1,-1,-1],"loss_changes":[8.278309E0,1.2773741E1,5.2304068E-3,0E0,4.2938786E0,9.707587E-3,1.513022E-3,0E0,0E0,1.1361652E-4,1.8817522E-3,1.252261E-4,4.6451734E-3,0E0,0E0,0E0,1.7865524E-3,7.192255E-5,0E0,0E0,0E0,0E0,0E0,0E0,0E0],"parents":[2147483647,0,0,1,1,2,2,4,4,5,5,6,6,9,9,10,10,11,11,12,12,16,16,17,17],"right_children":[2,4,6,-1,8,10,12,-1,-1,14,16,18,20,-1,-1,-1,22,24,-1,-1,-1,-1,-1,-1,-1],"split_conditions":[8.982523E2,3.1600344E0,4.7745583E1,-8.715927E-3,6.07871E2,9.7174585E2,9.675177E1,2.3697904E-1,9.794617E-2,1.3758857E0,6.728492E-1,8.4036316E1,1.0893742E2,2.4308788E-3,7.064355E-4,1.4092803E-3,6.6570053E0,6.1835823E1,-8.254267E-4,1.2415142E-2,-7.505543E-5,-1.0162104E-2,-5.303196E-3,-1.3813201E-3,-2.4904332E-3],"split_indices":[1,0,0,0,0,1,0,0,0,0,0,0,0,0,0,0,0,0,0,0,0,0,0,0,0],"sum_hessian":[3.12E2,1.45E2,1.67E2,6.1E1,8.4E1,5.8E1,1.09E2,4.3E1,4.1E1,2E1,3.8E1,8.2E1,2.7E1,4E0,1.6E1,2E0,3.6E1,4.7E1,3.5E1,2E0,2.5E1,1.4E1,2.2E1,3.9E1,8E0],"tree_param":{"num_deleted":"0","num_feature":"4","num_nodes":"25","size_leaf_vector":"0"}},{"base_weights":[1.03029855E-1,2.2598532E-1,-4.437579E-3,-2.0477738E-2,4.0309975E-1,-9.9144075E-3,-1.4596655E-3,-2.1257529E-2,-1.1314021E-2,5.583365E-1,2.3087311E-1,2.8342674E-3,-1.6524862E-2,-3.0753678E-3,3.3818686E-3,1.4322559E-2,-2.4433166E-2,6.158245E-3,1.6899056E-3,3.7580729E-3,-1.7722808E-2,-3.8561362E-3,-1.9489162E-3,3.3107024E-2,-1.7802876E-4,-2.4389047E-2,-1.2604702E-2,-3.2576248E-3,-6.087727E-3],"default_left":[true,true,true,true,true,true,true,false,true,false,false,true,true,true,true,false,false,false,false,false,true,true,false,false,false,false,false,false,false],"id":9,"leaf_child_counts":[0,0,0,0,0,0,0,0,0,0,0,0,0,0,0,0,0,0,0,0,0,0,0,0,0,0,0,0,0],"left_children":[1,3,5,7,9,11,13,-1,15,-1,-1,17,19,21,23,-1,-1,-1,-1,-1,25,27,-1,-1,-1,-1,-1,-1,-1],"loss_changes":[4.1368937E0,6.38147E0,2.7255279E-3,2.02531E-4,2.1436472E0,5.019034E-3,8.7087305E-4,0E0,2.7042553E-3,0E0,0E0,6.947364E-5,1.0142196E-3,6.548304E-5,2.968812E-3,0E0,0E0,0E0,0E0,0E0,9.549679E-4,4.427886E-5,0E0,0E0,0E0,0E0,0E0,0E0,0E0],"parents":[2147483647,0,0,1,1,2,2,3,3,4,4,5,5,6,6,8,8,11,11,12,12,13,13,14,14,20,20,21,21],"right_children":[2,4,6,8,10,12,14,-1,16,-1,-1,18,20,22,24,-1,-1,-1,-1,-1,26,28,-1,-1,-1,-1,-1,-1,-1],"split_conditions":[8.982523E2,3.1600344E0,4.7745583E1,2.8271443E-1,6.07871E2,9.7174585E2,9.675177E1,-6.377259E-3,8.2819885E-1,1.6750096E-1,6.926194E-2,1.3758857E0,6.728492E-1,8.4036316E1,1.0893742E2,4.296768E-3,-7.32995E-3,1.8474736E-3,5.0697173E-4,1.1274219E-3,6.6570053E0,6.1835823E1,-5.846749E-4,9.932107E-3,-5.340863E-5,-7.3167146E-3,-3.7814109E-3,-9.772875E-4,-1.8263181E-3],"split_indices":[1,0,0,0,0,1,0,0,0,0,0,0,0,0,0,0,0,0,0,0,0,0,0,0,0,0,0,0,0],"sum_hessian":[3.12E2,1.45E2,1.67E2,6.1E1,8.4E1,5.8E1,1.09E2,5.5E1,6E0,4.3E1,4.1E1,2E1,3.8E1,8.2E1,2.7E1,2E0,4E0,4E0,1.6E1,2E0,3.6E1,4.7E1,3.5E1,2E0,2.5E1,1.4E1,2.2E1,3.9E1,8E0],"tree_param":{"num_deleted":"0","num_feature":"4","num_nodes":"29","size_leaf_vector":"0"}},{"base_weights":[7.2843716E-2,1.5974705E-1,-3.1130137E-3,-1.4486199E-2,2.8495544E-1,-7.0691793E-3,-9.6277025E-4,-1.910237E-2,-1.2606519E-2,3.9464286E-1,1.6326019E-1,2.0960895E-3,-1.1823063E-2,-2.1935902E-3,2.7201164E-3,-1.1620008E-2,-1.8569207E-2,4.680288E-3,1.2127319E-3,3.0064583E-3,-1.2705915E-2,-2.757712E-3,-1.3804949E-3,2.6485622E-2,-1.2667707E-4,-1.3025232E-2,1.14580495E-2,-1.6745316E-2,-7.997781E-3,-2.304779E-3,-4.464335E-3,-2.313724E-2,-1.349832E-2],"default_left":[true,true,true,true,true,true,true,false,true,false,false,true,true,true,true,true,false,false,false,false,true,true,false,false,false,false,false,true,false,false,false,false,false],"id":10,"leaf_child_counts":[0,0,0,0,0,0,0,0,0,0,0,0,0,0,0,0,0,0,0,0,0,0,0,0,0,0,0,0,0,0,0,0,0],"left_children":[1,3,5,7,9,11,13,-1,15,-1,-1,17,19,21,23,25,-1,-1,-1,-1,27,29,-1,-1,-1,-1,-1,31,-1,-1,-1,-1,-1],"loss_changes":[2.066577E0,3.1891856E0,1.4223227E-3,2.9715523E-4,1.070188E0,2.5954489E-3,5.045936E-4,0E0,6.0691964E-5,0E0,0E0,4.226226E-5,5.487981E-4,3.4263794E-5,1.8977087E-3,1.5437263E-3,0E0,0E0,0E0,0E0,5.697422E-4,2.6814E-5,0E0,0E0,0E0,0E0,0E0,8.202251E-5,0E0,0E0,0E0,0E0,0E0],"parents":[2147483647,0,0,1,1,2,2,3,3,4,4,5,5,6,6,8,8,11,11,12,12,13,13,14,14,15,15,20,20,21,21,27,27],"right_children":[2,4,6,8,10,12,14,-1,16,-1,-1,18,20,22,24,26,-1,-1,-1,-1,28,30,-1,-1,-1,-1,-1,32,-1,-1,-1,-1,-1],"split_conditions":[8.982523E2,3.1600344E0,4.7745583E1,1.6899312E-1,6.07871E2,9.7174585E2,9.675177E1,-5.7307114E-3,8.2819885E-1,1.1839286E-1,4.897806E-2,1.3758857E0,6.728492E-1,8.4036316E1,1.0893742E2,2.8271443E-1,-5.5707623E-3,1.4040865E-3,3.638196E-4,9.0193754E-4,2.6596777E1,6.1835823E1,-4.141485E-4,7.945687E-3,-3.8003123E-5,-3.9075697E-3,3.437415E-3,5.1208467E0,-2.3993345E-3,-6.9143367E-4,-1.3393005E-3,-6.9411723E-3,-4.0494963E-3],"split_indices":[1,0,0,0,0,1,0,0,0,0,0,0,0,0,0,0,0,0,0,0,0,0,0,0,0,0,0,0,0,0,0,0,0],"sum_hessian":[3.12E2,1.45E2,1.67E2,6.1E1,8.4E1,5.8E1,1.09E2,1.5E1,4.6E1,4.3E1,4.1E1,2E1,3.8E1,8.2E1,2.7E1,4.2E1,4E0,4E0,1.6E1,2E0,3.6E1,4.7E1,3.5E1,2E0,2.5E1,4E1,2E0,1.8E1,1.8E1,3.9E1,8E0,4E0,1.4E1],"tree_param":{"num_deleted":"0","num_feature":"4","num_nodes":"33","size_leaf_vector":"0"}},{"base_weights":[5.147094E-2,1.1288871E-1,-2.2104005E-3,-1.0330205E-2,2.0143792E-1,-5.130125E-3,-6.24272E-4,-1.372983E-2,-8.9530945E-3,2.7894065E-1,1.1544845E-1,1.5514394E-3,-8.596349E-3,-1.5649601E-3,2.186492E-3,-8.14494E-3,-1.4112597E-2,3.5570026E-3,8.703067E-4,2.4051666E-3,-9.2560295E-3,-1.9726995E-3,-9.778365E-4,2.1188477E-2,-9.0140566E-5,-9.21297E-3,9.166439E-3,-1.9047782E-2,-7.831823E-3,-1.6306214E-3,-3.273858E-3,-9.8445155E-3,-5.724722E-3],"default_left":[true,true,true,true,true,true,true,false,true,false,false,true,true,true,true,true,false,false,false,false,true,true,false,false,false,false,false,false,true,false,false,false,false],"id":11,"leaf_child_counts":[0,0,0,0,0,0,0,0,0,0,0,0,0,0,0,0,0,0,0,0,0,0,0,0,0,0,0,0,0,0,0,0,0],"left_children":[1,3,5,7,9,11,13,-1,15,-1,-1,17,19,21,23,25,-1,-1,-1,-1,27,29,-1,-1,-1,-1,-1,-1,31,-1,-1,-1,-1],"loss_changes":[1.0322068E0,1.5950778E0,7.748152E-4,1.6733864E-4,5.342722E-1,1.3797645E-3,2.9426758E-4,0E0,8.102809E-5,0E0,0E0,2.5591464E-5,3.0530454E-4,1.7940678E-5,1.213205E-3,8.794798E-4,0E0,0E0,0E0,0E0,3.668042E-4,1.6026272E-5,0E0,0E0,0E0,0E0,0E0,0E0,8.7834895E-5,0E0,0E0,0E0,0E0],"parents":[2147483647,0,0,1,1,2,2,3,3,4,4,5,5,6,6,8,8,11,11,12,12,13,13,14,14,15,15,20,20,21,21,28,28],"right_children":[2,4,6,8,10,12,14,-1,16,-1,-1,18,20,22,24,26,-1,-1,-1,-1,28,30,-1,-1,-1,-1,-1,-1,32,-1,-1,-1,-1],"split_conditions":[8.982523E2,3.1600344E0,4.7745583E1,1.6899312E-1,6.07871E2,9.7174585E2,9.675177E1,-4.118949E-3,8.2819885E-1,8.3682194E-2,3.4634538E-2,1.3758857E0,6.728492E-1,8.4036316E1,1.0893742E2,2.8271443E-1,-4.2337794E-3,1.0671008E-3,2.61092E-4,7.2155E-4,3.0229537E0,6.1835823E1,-2.9335098E-4,6.3565434E-3,-2.7042171E-5,-2.7638911E-3,2.7499318E-3,-5.7143345E-3,2.6596777E1,-4.8918644E-4,-9.821574E-4,-2.9533547E-3,-1.7174167E-3],"split_indices":[1,0,0,0,0,1,0,0,0,0,0,0,0,0,0,0,0,0,0,0,0,0,0,0,0,0,0,0,0,0,0,0,0],"sum_hessian":[3.12E2,1.45E2,1.67E2,6.1E1,8.4E1,5.8E1,1.09E2,1.5E1,4.6E1,4.3E1,4.1E1,2E1,3.8E1,8.2E1,2.7E1,4.2E1,4E0,4E0,1.6E1,2E0,3.6E1,4.7E1,3.5E1,2E0,2.5E1,4E1,2E0,3E0,3.3E1,3.9E1,8E0,1.5E1,1.8E1],"tree_param":{"num_deleted":"0","num_feature":"4","num_nodes":"33","size_leaf_vector":"0"}},{"base_weights":[3.6368903E-2,7.977521E-2,-1.5697274E-3,-7.36609E-3,1.4239857E-1,-3.7323593E-3,-3.9550013E-4,-9.868315E-3,-6.357543E-3,1.9716047E-1,8.1638515E-2,1.1492727E-3,-6.2652286E-3,-1.1167408E-3,1.7565882E-3,-5.7017826E-3,-1.0725575E-2,2.703321E-3,6.245953E-4,-1.0508116E-2,-4.8313183E-3,-1.4115503E-3,-6.926407E-4,1.6950786E-2,-6.41495E-5,-6.51649E-3,7.3331497E-3,-1.4762031E-2,-5.9208213E-3,1.9241174E-3,-5.3635594E-3,-1.1536755E-3,-2.400822E-3,-7.0624542E-3,-4.097696E-3],"default_left":[true,true,true,true,true,true,true,false,true,false,false,true,true,true,true,true,false,false,false,true,true,true,false,false,false,false,false,false,false,false,true,false,false,false,false],"id":12,"leaf_child_counts":[0,0,0,0,0,0,0,0,0,0,0,0,0,0,0,0,0,0,0,0,0,0,0,0,0,0,0,0,0,0,0,0,0,0,0],"left_children":[1,3,5,7,9,11,13,-1,15,-1,-1,17,19,21,23,25,-1,-1,-1,27,29,31,-1,-1,-1,-1,-1,-1,-1,-1,33,-1,-1,-1,-1],"loss_changes":[5.15566E-1,7.977827E-1,4.2514663E-4,9.372551E-5,2.6672757E-1,7.36708E-4,1.7270075E-4,0E0,7.347111E-5,0E0,0E0,1.5434369E-5,1.8650491E-4,9.399693E-6,7.756976E-4,5.0443166E-4,0E0,0E0,0E0,8.8222325E-5,1.21781195E-4,9.475429E-6,0E0,0E0,0E0,0E0,0E0,0E0,0E0,0E0,3.342668E-5,0E0,0E0,0E0,0E0],"parents":[2147483647,0,0,1,1,2,2,3,3,4,4,5,5,6,6,8,8,11,11,12,12,13,13,14,14,15,15,19,19,20,20,21,21,30,30],"right_children":[2,4,6,8,10,12,14,-1,16,-1,-1,18,20,22,24,26,-1,-1,-1,28,30,32,-1,-1,-1,-1,-1,-1,-1,-1,34,-1,-1,-1,-1],"split_conditions":[8.982523E2,3.1600344E0,4.7745583E1,1.6899312E-1,6.07871E2,9.7174585E2,9.675177E1,-2.9604947E-3,8.2819885E-1,5.9148144E-2,2.4491556E-2,1.3758857E0,1.2529644E3,8.4036316E1,1.0893742E2,2.8271443E-1,-3.2176725E-3,8.1099634E-4,1.8737861E-4,3.0229537E0,3.2157254E0,6.1835823E1,-2.0779223E-4,5.085236E-3,-1.924485E-5,-1.9549471E-3,2.199945E-3,-4.4286093E-3,-1.7762465E-3,5.7723525E-4,2.60726E1,-3.4610266E-4,-7.2024664E-4,-2.1187363E-3,-1.2293088E-3],"split_indices":[1,0,0,0,0,1,0,0,0,0,0,0,1,0,0,0,0,0,0,0,0,0,0,0,0,0,0,0,0,0,0,0,0,0,0],"sum_hessian":[3.12E2,1.45E2,1.67E2,6.1E1,8.4E1,5.8E1,1.09E2,1.5E1,4.6E1,4.3E1,4.1E1,2E1,3.8E1,8.2E1,2.7E1,4.2E1,4E0,4E0,1.6E1,8E0,3E1,4.7E1,3.5E1,2E0,2.5E1,4E1,2E0,3E0,5E0,2E0,2.8E1,3.9E1,8E0,1E1,1.8E1],"tree_param":{"num_deleted":"0","num_feature":"4","num_nodes":"35","size_leaf_vector":"0"}},{"base_weights":[2.5693132E-2,5.6374904E-2,-1.1237261E-3,-5.251959E-3,1.0066303E-1,-2.7478598E-3,-2.4238418E-4,-7.0928503E-3,-4.513529E-3,1.393569E-1,5.772986E-2,8.5202145E-4,-4.6157995E-3,-7.970793E-4,1.4105471E-3,-3.9855507E-3,-8.151435E-3,2.0545362E-3,4.4822166E-4,-8.045109E-3,-3.471297E-3,-1.0103099E-3,-4.906307E-4,1.3560633E-2,-4.5637673E-5,-4.6092253E-3,5.866518E-3,-1.1440573E-2,-4.4406145E-3,1.5393099E-3,-3.8699356E-3,-8.1623346E-4,-1.7606153E-3,-5.13633E-3,-2.9330791E-3],"default_left":[true,true,true,true,true,true,true,false,true,false,false,true,true,true,true,true,false,false,false,true,true,true,false,false,false,false,false,false,false,false,true,false,false,false,false],"id":13,"leaf_child_counts":[0,0,0,0,0,0,0,0,0,0,0,0,0,0,0,0,0,0,0,0,0,0,0,0,0,0,0,0,0,0,0,0,0,0,0],"left_children":[1,3,5,7,9,11,13,-1,15,-1,-1,17,19,21,23,25,-1,-1,-1,27,29,31,-1,-1,-1,-1,-1,-1,-1,-1,33,-1,-1,-1,-1],"loss_changes":[2.575962E-1,3.9901212E-1,2.3981207E-4,5.226722E-5,1.3316125E-1,4.006701E-4,1.01980324E-4,0E0,5.7786587E-5,0E0,0E0,9.276192E-6,1.2514228E-4,4.927886E-6,4.960164E-4,2.9125297E-4,0E0,0E0,0E0,5.9347192E-5,6.787715E-5,5.5525234E-6,0E0,0E0,0E0,0E0,0E0,0E0,0E0,0E0,1.9341183E-5,0E0,0E0,0E0,0E0],"parents":[2147483647,0,0,1,1,2,2,3,3,4,4,5,5,6,6,8,8,11,11,12,12,13,13,14,14,15,15,19,19,20,20,21,21,30,30],"right_children":[2,4,6,8,10,12,14,-1,16,-1,-1,18,20,22,24,26,-1,-1,-1,28,30,32,-1,-1,-1,-1,-1,-1,-1,-1,34,-1,-1,-1,-1],"split_conditions":[8.982523E2,3.1600344E0,4.7745583E1,1.6899312E-1,6.07871E2,9.7174585E2,9.675177E1,-2.127855E-3,8.2819885E-1,4.180707E-2,1.7318958E-2,1.3758857E0,1.2529644E3,8.4036316E1,1.0893742E2,2.8271443E-1,-2.4454307E-3,6.163609E-4,1.344665E-4,3.0229537E0,3.2157254E0,6.1835823E1,-1.4718922E-4,4.06819E-3,-1.3691302E-5,-1.3827677E-3,1.7599554E-3,-3.4321721E-3,-1.3321844E-3,4.6179298E-4,2.60726E1,-2.4487005E-4,-5.281846E-4,-1.5408992E-3,-8.7992375E-4],"split_indices":[1,0,0,0,0,1,0,0,0,0,0,0,1,0,0,0,0,0,0,0,0,0,0,0,0,0,0,0,0,0,0,0,0,0,0],"sum_hessian":[3.12E2,1.45E2,1.67E2,6.1E1,8.4E1,5.8E1,1.09E2,1.5E1,4.6E1,4.3E1,4.1E1,2E1,3.8E1,8.2E1,2.7E1,4.2E1,4E0,4E0,1.6E1,8E0,3E1,4.7E1,3.5E1,2E0,2.5E1,4E1,2E0,3E0,5E0,2E0,2.8E1,3.9E1,8E0,1E1,1.8E1],"tree_param":{"num_deleted":"0","num_feature":"4","num_nodes":"35","size_leaf_vector":"0"}},{"base_weights":[1.8151632E-2,3.9838698E-2,-8.035075E-4,-3.7440502E-3,7.115978E-2,-2.0247328E-3,-1.41182E-4,-5.0979853E-3,-3.2034754E-3,9.849989E-2,4.0823482E-2,6.3216547E-4,-3.403454E-3,-5.6904735E-4,1.1321753E-3,-2.7811136E-3,-6.1950916E-3,1.561439E-3,3.2166348E-4,-6.1609484E-3,-2.4931026E-3,-7.233334E-4,-3.475257E-4,1.0848503E-2,-3.248453E-5,-3.2601831E-3,4.69321E-3,-8.866444E-3,-3.3304596E-3,1.231432E-3,-2.79243E-3,-5.77499E-4,-1.2911161E-3,-3.7355127E-3,-2.0994649E-3],"default_left":[true,true,true,true,true,true,true,false,true,false,false,true,true,true,true,true,false,false,false,true,true,true,false,false,false,false,false,false,false,false,true,false,false,false,false],"id":14,"leaf_child_counts":[0,0,0,0,0,0,0,0,0,0,0,0,0,0,0,0,0,0,0,0,0,0,0,0,0,0,0,0,0,0,0,0,0,0,0],"left_children":[1,3,5,7,9,11,13,-1,15,-1,-1,17,19,21,23,25,-1,-1,-1,27,29,31,-1,-1,-1,-1,-1,-1,-1,-1,33,-1,-1,-1,-1],"loss_changes":[1.287005E-1,1.9956501E-1,1.3560073E-4,2.9046787E-5,6.6477686E-2,2.1827577E-4,6.057506E-5,0E0,4.2157335E-5,0E0,0E0,5.557109E-6,8.254137E-5,2.5853733E-6,3.1720646E-4,1.6927175E-4,0E0,0E0,0E0,3.939157E-5,3.7999227E-5,3.22889E-6,0E0,0E0,0E0,0E0,0E0,0E0,0E0,0E0,1.11096015E-5,0E0,0E0,0E0,0E0],"parents":[2147483647,0,0,1,1,2,2,3,3,4,4,5,5,6,6,8,8,11,11,12,12,13,13,14,14,15,15,19,19,20,20,21,21,30,30],"right_children":[2,4,6,8,10,12,14,-1,16,-1,-1,18,20,22,24,26,-1,-1,-1,28,30,32,-1,-1,-1,-1,-1,-1,-1,-1,34,-1,-1,-1,-1],"split_conditions":[8.982523E2,3.1600344E0,4.7745583E1,1.6899312E-1,6.07871E2,9.7174585E2,9.675177E1,-1.5293957E-3,8.2819885E-1,2.9549967E-2,1.22470455E-2,1.3758857E0,1.2529644E3,8.4036316E1,1.0893742E2,2.8271443E-1,-1.8585275E-3,4.684317E-4,9.649905E-5,3.0229537E0,3.2157254E0,6.1835823E1,-1.0425771E-4,3.254551E-3,-9.745359E-6,-9.78055E-4,1.4079631E-3,-2.6599334E-3,-9.991379E-4,3.6942962E-4,2.60726E1,-1.732497E-4,-3.8733485E-4,-1.1206538E-3,-6.298395E-4],"split_indices":[1,0,0,0,0,1,0,0,0,0,0,0,1,0,0,0,0,0,0,0,0,0,0,0,0,0,0,0,0,0,0,0,0,0,0],"sum_hessian":[3.12E2,1.45E2,1.67E2,6.1E1,8.4E1,5.8E1,1.09E2,1.5E1,4.6E1,4.3E1,4.1E1,2E1,3.8E1,8.2E1,2.7E1,4.2E1,4E0,4E0,1.6E1,8E0,3E1,4.7E1,3.5E1,2E0,2.5E1,4E1,2E0,3E0,5E0,2E0,2.8E1,3.9E1,8E0,1E1,1.8E1],"tree_param":{"num_deleted":"0","num_feature":"4","num_nodes":"35","size_leaf_vector":"0"}},{"base_weights":[1.2824217E-2,2.8153205E-2,-5.7373906E-4,-2.6685456E-3,5.030374E-2,-1.4931615E-3,-7.537847E-5,-2.4466976E-3,-4.7082715E-3,6.962187E-2,2.8867994E-2,4.6941923E-4,-2.5116496E-3,-4.063507E-4,9.084099E-4,-2.735217E-3,3.7545662E-3,1.1866927E-3,2.3084354E-4,-4.719227E-3,-1.789719E-3,-5.180184E-4,-2.4617297E-4,8.678813E-3,-2.3113993E-5,-3.664177E-3,-2.3059836E-3,-6.431085E-3,-2.063524E-3,9.851456E-4,-2.0150593E-3,-4.0858908E-4,-9.4681315E-4,-2.716737E-3,-1.5027692E-3],"default_left":[true,true,true,true,true,true,true,true,false,false,false,true,true,true,true,true,false,false,false,true,true,true,false,false,false,false,false,false,false,false,true,false,false,false,false],"id":15,"leaf_child_counts":[0,0,0,0,0,0,0,0,0,0,0,0,0,0,0,0,0,0,0,0,0,0,0,0,0,0,0,0,0,0,0,0,0,0,0],"left_children":[1,3,5,7,9,11,13,15,-1,-1,-1,17,19,21,23,25,-1,-1,-1,27,29,31,-1,-1,-1,-1,-1,-1,-1,-1,33,-1,-1,-1,-1],"loss_changes":[6.4299196E-2,9.98111E-2,7.68657E-5,1.6535836E-5,3.3188507E-2,1.1911207E-4,3.6185862E-5,1.1404234E-4,0E0,0E0,0E0,3.3196638E-6,5.3708907E-5,1.3570725E-6,2.0287349E-4,1.3879966E-5,0E0,0E0,0E0,2.7644972E-5,2.1369095E-5,1.8654328E-6,0E0,0E0,0E0,0E0,0E0,0E0,0E0,0E0,6.3417974E-6,0E0,0E0,0E0,0E0],"parents":[2147483647,0,0,1,1,2,2,3,3,4,4,5,5,6,6,7,7,11,11,12,12,13,13,14,14,15,15,19,19,20,20,21,21,30,30],"right_children":[2,4,6,8,10,12,14,16,-1,-1,-1,18,20,22,24,26,-1,-1,-1,28,30,32,-1,-1,-1,-1,-1,-1,-1,-1,34,-1,-1,-1,-1],"split_conditions":[8.982523E2,3.1600344E0,4.7745583E1,8.2819885E-1,6.07871E2,9.7174585E2,9.675177E1,2.8271443E-1,-1.4124815E-3,2.088656E-2,8.660398E-3,1.3758857E0,1.2529644E3,8.4036316E1,1.0893742E2,1.6899312E-1,1.1263699E-3,3.5600783E-4,6.925307E-5,5.6450233E0,3.2157254E0,6.1835823E1,-7.3851894E-5,2.603644E-3,-6.934198E-6,-1.0992531E-3,-6.917951E-4,-1.9293256E-3,-6.190572E-4,2.955437E-4,2.60726E1,-1.2257673E-4,-2.8404396E-4,-8.1502117E-4,-4.5083076E-4],"split_indices":[1,0,0,0,0,1,0,0,0,0,0,0,1,0,0,0,0,0,0,0,0,0,0,0,0,0,0,0,0,0,0,0,0,0,0],"sum_hessian":[3.12E2,1.45E2,1.67E2,6.1E1,8.4E1,5.8E1,1.09E2,5.7E1,4E0,4.3E1,4.1E1,2E1,3.8E1,8.2E1,2.7E1,5.5E1,2E0,4E0,1.6E1,8E0,3E1,4.7E1,3.5E1,2E0,2.5E1,1.5E1,4E1,4E0,4E0,2E0,2.8E1,3.9E1,8E0,1E1,1.8E1],"tree_param":{"num_deleted":"0","num_feature":"4","num_nodes":"35","size_leaf_vector":"0"}},{"base_weights":[9.061622E-3,1.9895457E-2,-4.07434E-4,-1.9014839E-3,3.556034E-2,-1.0976476E-3,-3.3524633E-5,-1.7241477E-3,-3.5782866E-3,4.9210135E-2,2.0413876E-2,3.488305E-4,-1.8483755E-3,-2.9023478E-4,7.286348E-4,-1.9466346E-3,3.0036569E-3,9.018779E-4,1.6565007E-4,-3.586614E-3,-1.2841007E-3,6.943047E-3,-1.6437127E-5,-2.6336273E-3,-1.6310611E-3,-5.4244995E-3,-1.7635878E-3,7.8813237E-4,-1.4541902E-3,-1.9758074E-3,-1.075665E-3],"default_left":[true,true,true,true,true,true,true,true,false,false,false,true,true,false,true,true,false,false,false,true,true,false,false,false,false,false,false,false,true,false,false],"id":16,"leaf_child_counts":[0,0,0,0,0,0,0,0,0,0,0,0,0,0,0,0,0,0,0,0,0,0,0,0,0,0,0,0,0,0,0],"left_children":[1,3,5,7,9,11,13,15,-1,-1,-1,17,19,-1,21,23,-1,-1,-1,25,27,-1,-1,-1,-1,-1,-1,-1,29,-1,-1],"loss_changes":[3.2117583E-2,4.991881E-2,4.3320186E-5,1.22666825E-5,1.6568847E-2,6.471355E-5,2.1733422E-5,6.685575E-5,0E0,0E0,0E0,1.97806E-6,3.3647346E-5,7.127692E-7,1.2975928E-4,7.84501E-6,0E0,0E0,0E0,2.0588042E-5,1.207252E-5,0E0,0E0,0E0,0E0,0E0,0E0,0E0,3.6006095E-6,0E0,0E0],"parents":[2147483647,0,0,1,1,2,2,3,3,4,4,5,5,6,6,7,7,11,11,12,12,14,14,15,15,19,19,20,20,28,28],"right_children":[2,4,6,8,10,12,14,16,-1,-1,-1,18,20,-1,22,24,-1,-1,-1,26,28,-1,-1,-1,-1,-1,-1,-1,30,-1,-1],"split_conditions":[8.982523E2,3.1600344E0,4.7745583E1,8.2819885E-1,6.07871E2,9.7174585E2,9.675177E1,2.8271443E-1,-1.073486E-3,1.4763041E-2,6.124163E-3,1.3758857E0,1.2529644E3,-8.707044E-5,1.0893742E2,1.6899312E-1,9.010971E-4,2.7056338E-4,4.9695023E-5,3.0229537E0,3.2157254E0,2.082914E-3,-4.9311384E-6,-7.900882E-4,-4.8931834E-4,-1.6273499E-3,-5.290764E-4,2.3643972E-4,2.60726E1,-5.9274223E-4,-3.2269952E-4],"split_indices":[1,0,0,0,0,1,0,0,0,0,0,0,1,0,0,0,0,0,0,0,0,0,0,0,0,0,0,0,0,0,0],"sum_hessian":[3.12E2,1.45E2,1.67E2,6.1E1,8.4E1,5.8E1,1.09E2,5.7E1,4E0,4.3E1,4.1E1,2E1,3.8E1,8.2E1,2.7E1,5.5E1,2E0,4E0,1.6E1,8E0,3E1,2E0,2.5E1,1.5E1,4E1,3E0,5E0,2E0,2.8E1,1E1,1.8E1],"tree_param":{"num_deleted":"0","num_feature":"4","num_nodes":"31","size_leaf_vector":"0"}},{"base_weights":[6.403599E-3,1.4060031E-2,-2.883215E-4,-1.3544546E-3,2.5138125E-2,-4.5955201E-4,5.842437E-4,-1.2134259E-3,-2.7194968E-3,3.478278E-2,1.4435677E-2,-8.109848E-4,-2.0420157E-4,5.5544176E-3,-1.1708874E-5,-1.3854904E-3,2.4029214E-3,2.5942922E-4,-1.3665671E-3,-1.8929194E-3,-1.1536769E-3,6.854415E-4,1.1887094E-4,-2.750234E-3,-9.2077453E-4,-4.2039873E-3,-1.3226928E-3,6.3049793E-4,-1.0495002E-3],"default_left":[true,true,true,true,true,true,true,true,false,false,false,true,false,false,false,true,false,true,true,false,false,false,false,true,true,false,false,false,false],"id":17,"leaf_child_counts":[0,0,0,0,0,0,0,0,0,0,0,0,0,0,0,0,0,0,0,0,0,0,0,0,0,0,0,0,0],"left_children":[1,3,5,7,9,11,13,15,-1,-1,-1,17,-1,-1,-1,19,-1,21,23,-1,-1,-1,-1,25,27,-1,-1,-1,-1],"loss_changes":[1.6040996E-2,2.4965465E-2,2.5369334E-5,8.635725E-6,8.271702E-3,1.2487528E-5,8.30007E-5,3.9419443E-5,0E0,0E0,0E0,3.5442015E-5,7.4991476E-7,0E0,0E0,4.4034023E-6,0E0,1.1759914E-6,2.1523956E-5,0E0,0E0,0E0,0E0,1.31170455E-5,6.8520512E-6,0E0,0E0,0E0,0E0],"parents":[2147483647,0,0,1,1,2,2,3,3,4,4,5,5,6,6,7,7,11,11,15,15,17,17,18,18,23,23,24,24],"right_children":[2,4,6,8,10,12,14,16,-1,-1,-1,18,-1,-1,-1,20,-1,22,24,-1,-1,-1,-1,26,28,-1,-1,-1,-1],"split_conditions":[8.982523E2,3.1600344E0,9.675177E1,8.2819885E-1,6.07871E2,4.7745583E1,1.0893742E2,2.8271443E-1,-8.158491E-4,1.0434834E-2,4.330703E-3,9.7174585E2,-6.126047E-5,1.6663254E-3,-3.5126623E-6,1.6899312E-1,7.2087644E-4,1.3758857E0,1.2529644E3,-5.6787586E-4,-3.4610307E-4,2.0563246E-4,3.5661284E-5,3.0229537E0,3.2157254E0,-1.2611962E-3,-3.9680788E-4,1.8914939E-4,-3.1485007E-4],"split_indices":[1,0,0,0,0,0,0,0,0,0,0,1,0,0,0,0,0,0,1,0,0,0,0,0,0,0,0,0,0],"sum_hessian":[3.12E2,1.45E2,1.67E2,6.1E1,8.4E1,1.4E2,2.7E1,5.7E1,4E0,4.3E1,4.1E1,5.8E1,8.2E1,2E0,2.5E1,5.5E1,2E0,2E1,3.8E1,1.5E1,4E1,4E0,1.6E1,8E0,3E1,3E0,5E0,2E0,2.8E1],"tree_param":{"num_deleted":"0","num_feature":"4","num_nodes":"29","size_leaf_vector":"0"}},{"base_weights":[4.5266324E-3,9.936178E-3,-2.0146463E-4,-9.6439134E-4,1.7770285E-2,-4.327846E-4,1.9093827E-4,-8.527269E-4,-2.0668202E-3,2.4584835E-2,1.020813E-2,1.9309776E-4,-5.80584E-4,4.4435463E-3,-2.133651E-5,-9.861639E-4,1.9223392E-3,-2.1093849E-3,-3.9674048E-4,-1.3605359E-3,-8.1601477E-4,-3.2580893E-3,-9.920178E-4,-1.01522324E-4,-7.211303E-4,5.0441426E-4,-1.444295E-4,-1.1507234E-3,-5.194023E-4],"default_left":[true,true,true,true,true,true,true,true,false,false,false,false,true,false,false,true,false,true,true,false,false,false,false,true,true,false,false,false,false],"id":18,"leaf_child_counts":[0,0,0,0,0,0,0,0,0,0,0,0,0,0,0,0,0,0,0,0,0,0,0,0,0,0,0,0,0],"left_children":[1,3,5,7,9,11,13,15,-1,-1,-1,-1,17,-1,-1,19,-1,21,23,-1,-1,-1,-1,25,27,-1,-1,-1,-1],"loss_changes":[8.007557E-3,1.2484987E-2,1.5332102E-5,5.869897E-6,4.129313E-3,9.917641E-6,5.696626E-5,2.3372933E-5,0E0,0E0,0E0,6.9757544E-7,2.3334289E-5,0E0,6.734453E-9,2.4569272E-6,0E0,8.3196355E-6,7.3965184E-6,0E0,0E0,0E0,0E0,1.1648116E-6,2.6087655E-6,0E0,0E0,0E0,0E0],"parents":[2147483647,0,0,1,1,2,2,3,3,4,4,5,5,6,6,7,7,12,12,15,15,17,17,18,18,23,23,24,24],"right_children":[2,4,6,8,10,12,14,16,-1,-1,-1,-1,18,-1,-1,20,-1,22,24,-1,-1,-1,-1,26,28,-1,-1,-1,-1],"split_conditions":[8.982523E2,3.1600344E0,8.4036316E1,8.2819885E-1,6.07871E2,9.7174585E2,1.1165376E-2,2.8271443E-1,-6.2004605E-4,7.375451E-3,3.0624392E-3,5.792933E-5,1.217344E3,1.3330639E-3,-6.400953E-6,1.6899312E-1,5.767018E-4,3.0229537E0,1.3328424E3,-4.0816076E-4,-2.4480445E-4,-9.774269E-4,-2.9760535E-4,2.488871E1,2.60726E1,1.5132429E-4,-4.332885E-5,-3.4521703E-4,-1.558207E-4],"split_indices":[1,0,0,0,0,1,2,0,0,0,0,0,1,0,0,0,0,0,1,0,0,0,0,0,0,0,0,0,0],"sum_hessian":[3.12E2,1.45E2,1.67E2,6.1E1,8.4E1,1.05E2,6.2E1,5.7E1,4E0,4.3E1,4.1E1,2E1,8.5E1,2E0,6E1,5.5E1,2E0,8E0,7.7E1,1.5E1,4E1,3E0,5E0,4.1E1,3.6E1,2E0,3.9E1,1E1,2.6E1],"tree_param":{"num_deleted":"0","num_feature":"4","num_nodes":"29","size_leaf_vector":"0"}},{"base_weights":[3.1988523E-3,7.022029E-3,-1.4271103E-4,-6.863054E-4,1.2561967E-2,-2.452741E-4,3.7886415E-4,-5.982244E-4,-1.5707843E-3,1.7376749E-2,7.218815E-3,5.1192724E-4,-2.8271956E-4,3.5548408E-3,-2.1663996E-6,-7.0197537E-4,1.5378693E-3,-2.5250192E-3,-2.1262927E-4,-9.778853E-4,-5.7718187E-4,-3.8606903E-4,-1.0558568E-4,3.0789306E-5,-5.8314326E-4],"default_left":[true,true,true,true,true,true,true,true,false,false,false,false,true,false,false,true,false,false,true,false,false,true,false,false,false],"id":19,"leaf_child_counts":[0,0,0,0,0,0,0,0,0,0,0,0,0,0,0,0,0,0,0,0,0,0,0,0,0],"left_children":[1,3,5,7,9,11,13,15,-1,-1,-1,-1,17,-1,-1,19,-1,-1,21,-1,-1,23,-1,-1,-1],"loss_changes":[3.9996984E-3,6.2433598E-3,9.079978E-6,3.89048E-6,2.0612795E-3,4.142609E-6,3.389174E-5,1.3933617E-5,0E0,0E0,0E0,0E0,2.068017E-5,0E0,0E0,1.36376E-6,0E0,0E0,2.4098986E-6,0E0,0E0,4.1255557E-6,3.964186E-7,0E0,0E0],"parents":[2147483647,0,0,1,1,2,2,3,3,4,4,5,5,6,6,7,7,12,12,15,15,18,18,21,21],"right_children":[2,4,6,8,10,12,14,16,-1,-1,-1,-1,18,-1,-1,20,-1,-1,22,-1,-1,24,-1,-1,-1],"split_conditions":[8.982523E2,3.1600344E0,9.675177E1,8.2819885E-1,6.07871E2,7.432547E-1,1.0893742E2,2.8271443E-1,-4.7123528E-4,5.213025E-3,2.1656447E-3,1.5357818E-4,2.1246905E0,1.0664522E-3,-6.499199E-7,1.6899312E-1,4.6136082E-4,-7.575058E-4,4.7745583E1,-2.9336562E-4,-1.7315456E-4,3.2106018E0,-3.1675703E-5,9.236792E-6,-1.7494298E-4],"split_indices":[1,0,0,0,0,0,0,0,0,0,0,0,0,0,0,0,0,0,0,0,0,0,0,0,0],"sum_hessian":[3.12E2,1.45E2,1.67E2,6.1E1,8.4E1,1.4E2,2.7E1,5.7E1,4E0,4.3E1,4.1E1,6E0,1.34E2,2E0,2.5E1,5.5E1,2E0,3E0,1.31E2,1.5E1,4E1,4.9E1,8.2E1,1.6E1,3.3E1],"tree_param":{"num_deleted":"0","num_feature":"4","num_nodes":"25","size_leaf_vector":"0"}},{"base_weights":[2.262105E-3,4.9627186E-3,-9.8321456E-5,-4.88097E-4,8.880222E-3,-2.3828061E-4,1.3872603E-4,-4.1884533E-4,-1.1937969E-3,1.2282437E-2,5.1045646E-3,1.0162734E-4,-3.185107E-4,2.8438766E-3,3.411633E-6,-4.99713E-4,1.2302995E-3,-1.2685482E-3,-2.0480751E-4,-1.8338492E-3,-4.4953747E-4,-4.6388734E-5,-3.7909887E-4,-5.799254E-4,-1.5831974E-4],"default_left":[true,true,true,true,true,true,true,true,false,false,false,false,true,false,false,false,false,true,true,false,false,false,true,false,false],"id":20,"leaf_child_counts":[0,0,0,0,0,0,0,0,0,0,0,0,0,0,0,0,0,0,0,0,0,0,0,0,0],"left_children":[1,3,5,7,9,11,13,15,-1,-1,-1,-1,17,-1,-1,-1,-1,19,21,-1,-1,-1,23,-1,-1],"loss_changes":[1.9957377E-3,3.1219588E-3,5.6067856E-6,2.5299778E-6,1.029179E-3,2.9230791E-6,2.3051183E-5,8.349821E-6,0E0,0E0,0E0,4.098863E-7,9.030107E-6,0E0,1.060406E-9,7.535391E-7,0E0,3.342504E-6,2.136074E-6,0E0,0E0,3.8494824E-7,1.5487044E-6,0E0,0E0],"parents":[2147483647,0,0,1,1,2,2,3,3,4,4,5,5,6,6,7,7,12,12,17,17,18,18,22,22],"right_children":[2,4,6,8,10,12,14,16,-1,-1,-1,-1,18,-1,-1,-1,-1,20,22,-1,-1,-1,24,-1,-1],"split_conditions":[8.982523E2,3.1600344E0,8.4036316E1,8.2819885E-1,6.07871E2,9.7174585E2,1.1165376E-2,2.8271443E-1,-3.5813908E-4,3.6847312E-3,1.5313694E-3,3.0488203E-5,1.217344E3,8.53163E-4,1.02349E-6,-1.499139E-4,3.6908986E-4,5.6450233E0,1.3328424E3,-5.501548E-4,-1.3486124E-4,-1.391662E-5,1.6014368E3,-1.7397763E-4,-4.7495927E-5],"split_indices":[1,0,0,0,0,1,2,0,0,0,0,0,1,0,0,0,0,0,1,0,0,0,1,0,0],"sum_hessian":[3.12E2,1.45E2,1.67E2,6.1E1,8.4E1,1.05E2,6.2E1,5.7E1,4E0,4.3E1,4.1E1,2E1,8.5E1,2E0,6E1,5.5E1,2E0,8E0,7.7E1,4E0,4E0,4.1E1,3.6E1,1.8E1,1.8E1],"tree_param":{"num_deleted":"0","num_feature":"4","num_nodes":"25","size_leaf_vector":"0"}},{"base_weights":[1.5995132E-3,3.5085343E-3,-6.903793E-5,-3.439094E-4,6.2772753E-3,-1.7519767E-4,1.10675894E-4,-2.8941323E-4,-9.072833E-4,8.681189E-3,3.6094303E-3,3.6679846E-4,-2.1138543E-4,2.2750895E-3,2.4149651E-6,-3.5247664E-4,9.842416E-4,-1.5442737E-3,-1.5424173E-4],"default_left":[true,true,true,true,true,true,true,true,false,false,false,false,true,false,false,false,false,false,false],"id":21,"leaf_child_counts":[0,0,0,0,0,0,0,0,0,0,0,0,0,0,0,0,0,0,0],"left_children":[1,3,5,7,9,11,13,15,-1,-1,-1,-1,17,-1,-1,-1,-1,-1,-1],"loss_changes":[9.972409E-4,1.5594558E-3,3.2245568E-6,1.6409267E-6,5.137939E-4,2.1565797E-6,1.4756756E-5,5.005542E-6,0E0,0E0,0E0,0E0,7.3784254E-6,0E0,1.0633672E-9,9.159212E-7,0E0,0E0,8.138054E-7],"parents":[2147483647,0,0,1,1,2,2,3,3,4,4,5,5,6,6,7,7,12,12],"right_children":[2,4,6,8,10,12,14,16,-1,-1,-1,-1,18,-1,-1,-1,-1,-1,-1],"split_conditions":[8.982523E2,3.1600344E0,8.4036316E1,8.2819885E-1,6.07871E2,7.432547E-1,1.1165376E-2,2.8271443E-1,-2.72185E-4,2.604357E-3,1.0828291E-3,1.1003954E-4,2.1246905E0,6.8252685E-4,7.2448955E-7,-1.05743E-4,2.952725E-4,-4.6328214E-4,-4.6272522E-5],"split_indices":[1,0,0,0,0,0,2,0,0,0,0,0,0,0,0,0,0,0,0],"sum_hessian":[3.12E2,1.45E2,1.67E2,6.1E1,8.4E1,1.05E2,6.2E1,5.7E1,4E0,4.3E1,4.1E1,6E0,9.9E1,2E0,6E1,5.5E1,2E0,3E0,9.6E1],"tree_param":{"num_deleted":"0","num_feature":"4","num_nodes":"19","size_leaf_vector":"0"}},{"base_weights":[1.132059E-3,2.4806089E-3,-4.6633526E-5,-2.420699E-4,4.437379E-3,-2.3840672E-4,1.5158148E-5,-1.9932166E-4,-6.895356E-4,6.1358972E-3,2.5523277E-3,8.6845386E-5,-5.523061E-4,-3.4027835E-5,1.9203765E-4,-2.486223E-4,7.873972E-4,2.3702781E-4,-6.478691E-4,1.8200675E-3,-3.1980185E-6,-4.6317623E-4,-1.5882995E-4,-1.1968124E-3,-4.7014141E-4],"default_left":[true,true,true,true,true,true,true,true,false,false,false,false,true,false,true,true,false,false,true,false,false,false,false,false,false],"id":22,"leaf_child_counts":[0,0,0,0,0,0,0,0,0,0,0,0,0,0,0,0,0,0,0,0,0,0,0,0,0],"left_children":[1,3,5,7,9,11,13,15,-1,-1,-1,-1,17,-1,19,21,-1,-1,23,-1,-1,-1,-1,-1,-1],"loss_changes":[4.976373E-4,7.7891216E-4,1.9944116E-6,1.0485198E-6,2.564916E-4,4.2339193E-6,1.1201337E-6,3.0172243E-6,0E0,0E0,0E0,1.5101091E-7,1.7376151E-6,8.305958E-8,8.905607E-6,1.0052902E-6,0E0,0E0,1.291015E-6,0E0,0E0,0E0,0E0,0E0,0E0],"parents":[2147483647,0,0,1,1,2,2,3,3,4,4,5,5,6,6,7,7,12,12,14,14,15,15,18,18],"right_children":[2,4,6,8,10,12,14,16,-1,-1,-1,-1,18,-1,20,22,-1,-1,24,-1,-1,-1,-1,-1,-1],"split_conditions":[8.982523E2,3.1600344E0,2.6596777E1,8.2819885E-1,6.07871E2,9.7174585E2,9.675177E1,2.8271443E-1,-2.0686068E-4,1.8407692E-3,7.656983E-4,2.6053616E-5,6.728492E-1,-1.020835E-5,1.0893742E2,1.6899312E-1,2.3621917E-4,7.110835E-5,3.0229537E0,5.460203E-4,-9.594056E-7,-1.3895288E-4,-4.7648988E-5,-3.590437E-4,-1.4104243E-4],"split_indices":[1,0,0,0,0,1,0,0,0,0,0,0,0,0,0,0,0,0,0,0,0,0,0,0,0],"sum_hessian":[3.12E2,1.45E2,1.67E2,6.1E1,8.4E1,4E1,1.27E2,5.7E1,4E0,4.3E1,4.1E1,2E1,2E1,1E2,2.7E1,5.5E1,2E0,2E0,1.8E1,2E0,2.5E1,1.5E1,4E1,3E0,1.5E1],"tree_param":{"num_deleted":"0","num_feature":"4","num_nodes":"25","size_leaf_vector":"0"}},{"base_weights":[8.007019E-4,1.7532253E-3,-3.185231E-5,-1.7198542E-4,3.1368705E-3,-9.62767E-5,7.704988E-5,4.3371376E-3,1.8047605E-3,1.4560422E-3,7.96748E-6],"default_left":[true,true,true,false,true,false,true,false,false,false,false],"id":23,"leaf_child_counts":[0,0,0,0,0,0,0,0,0,0,0],"left_children":[1,3,5,-1,7,-1,9,-1,-1,-1,-1],"loss_changes":[2.4827343E-4,3.8945556E-4,1.186099E-6,6.545414E-7,1.2807793E-4,8.1969586E-7,5.990037E-6,0E0,0E0,0E0,4.5234296E-9],"parents":[2147483647,0,0,1,1,2,2,4,4,6,6],"right_children":[2,4,6,-1,8,-1,10,-1,-1,-1,-1],"split_conditions":[8.982523E2,3.1600344E0,8.4036316E1,-5.1595627E-5,6.07871E2,-2.888301E-5,1.1165376E-2,1.3011413E-3,5.4142816E-4,4.3681267E-4,2.3902442E-6],"split_indices":[1,0,0,0,0,0,2,0,0,0,0],"sum_hessian":[3.12E2,1.45E2,1.67E2,6.1E1,8.4E1,1.05E2,6.2E1,4.3E1,4.1E1,2E0,6E1],"tree_param":{"num_deleted":"0","num_feature":"4","num_nodes":"11","size_leaf_vector":"0"}},{"base_weights":[5.675986E-4,1.2396795E-3,-1.9850337E-5,-1.2122209E-4,2.2177529E-3,3.0658895E-3,1.276425E-3],"default_left":[true,true,false,false,true,false,false],"id":24,"leaf_child_counts":[0,0,0,0,0,0,0],"left_children":[1,3,-1,-1,5,-1,-1],"loss_changes":[1.2360114E-4,1.9460381E-4,8.974191E-7,7.030549E-7,6.394848E-5,0E0,0E0],"parents":[2147483647,0,0,1,1,4,4],"right_children":[2,4,-1,-1,6,-1,-1],"split_conditions":[8.982523E2,3.1600344E0,-5.955101E-6,-3.636663E-5,6.07871E2,9.197669E-4,3.829275E-4],"split_indices":[1,0,0,0,0,0,0],"sum_hessian":[3.12E2,1.45E2,1.67E2,6.1E1,8.4E1,4.3E1,4.1E1],"tree_param":{"num_deleted":"0","num_feature":"4","num_nodes":"7","size_leaf_vector":"0"}},{"base_weights":[4.0141173E-4,8.765852E-4,-1.3925995E-5,-8.5442116E-5,1.5679864E-3,2.1674416E-3,9.0265274E-4],"default_left":[true,true,false,false,true,false,false],"id":25,"leaf_child_counts":[0,0,0,0,0,0,0],"left_children":[1,3,-1,-1,5,-1,-1],"loss_changes":[6.178509E-5,9.724542E-5,8.9868973E-7,7.3469374E-7,3.1944757E-5,0E0,0E0],"parents":[2147483647,0,0,1,1,4,4],"right_children":[2,4,-1,-1,6,-1,-1],"split_conditions":[8.982523E2,3.1600344E0,-4.1777985E-6,-2.5632637E-5,6.07871E2,6.5023254E-4,2.7079583E-4],"split_indices":[1,0,0,0,0,0,0],"sum_hessian":[3.12E2,1.45E2,1.67E2,6.1E1,8.4E1,4.3E1,4.1E1],"tree_param":{"num_deleted":"0","num_feature":"4","num_nodes":"7","size_leaf_vector":"0"}},{"base_weights":[2.8380277E-4,6.1147497E-4,-1.7627932E-5,-3.7660073E-5,1.1083154E-3,-4.9102044E-4,3.4680343E-7,1.5318177E-3,6.382579E-4,2.156496E-4,-8.9826784E-4],"default_left":[true,true,true,false,true,true,false,false,false,false,false],"id":26,"leaf_child_counts":[0,0,0,0,0,0,0,0,0,0,0],"left_children":[1,3,5,-1,7,9,-1,-1,-1,-1,-1],"loss_changes":[3.0925934E-5,4.8419217E-5,1.3956634E-6,8.4624907E-7,1.594329E-5,1.9204483E-6,6.2409055E-7,0E0,0E0,0E0,3.5148173E-7],"parents":[2147483647,0,0,1,1,2,2,4,4,5,5],"right_children":[2,4,6,-1,8,10,-1,-1,-1,-1,-1],"split_conditions":[9.180467E2,3.1600344E0,2.1246905E0,-1.1298022E-5,6.07871E2,6.728492E-1,1.04041035E-7,4.5954532E-4,1.9147737E-4,6.469488E-5,-2.6948037E-4],"split_indices":[1,0,0,0,0,0,0,0,0,0,0],"sum_hessian":[3.12E2,1.49E2,1.63E2,6.5E1,8.4E1,5E0,1.58E2,4.3E1,4.1E1,2E0,3E0],"tree_param":{"num_deleted":"0","num_feature":"4","num_nodes":"11","size_leaf_vector":"0"}},{"base_weights":[2.000115E-4,4.3220434E-4,-1.3579586E-5,-2.6531432E-5,7.833144E-4,-1.6909614E-4,3.1480507E-5,1.0825937E-3,4.5113335E-4,4.902482E-5,-3.3761805E-4],"default_left":[true,true,true,false,true,true,false,false,false,false,false],"id":27,"leaf_child_counts":[0,0,0,0,0,0,0,0,0,0,0],"left_children":[1,3,5,-1,7,9,-1,-1,-1,-1,-1],"loss_changes":[1.552889E-5,2.4180796E-5,1.154568E-6,8.5521856E-7,7.961869E-6,1.3766036E-6,3.4952896E-7,0E0,0E0,0E0,7.4167247E-7],"parents":[2147483647,0,0,1,1,2,2,4,4,5,5],"right_children":[2,4,6,-1,8,10,-1,-1,-1,-1,-1],"split_conditions":[9.180467E2,3.1600344E0,2.6596777E1,-7.95943E-6,6.07871E2,9.7174585E2,9.444153E-6,3.247781E-4,1.3534001E-4,1.4707447E-5,-1.0128542E-4],"split_indices":[1,0,0,0,0,1,0,0,0,0,0],"sum_hessian":[3.12E2,1.49E2,1.63E2,6.5E1,8.4E1,3.6E1,1.27E2,4.3E1,4.1E1,1.6E1,2E1],"tree_param":{"num_deleted":"0","num_feature":"4","num_nodes":"11","size_leaf_vector":"0"}},{"base_weights":[1.4113548E-4,3.0541382E-4,-9.979706E-6,-1.8691419E-5,5.534789E-4,7.647818E-4,3.1893593E-4],"default_left":[true,true,false,false,true,false,false],"id":28,"leaf_child_counts":[0,0,0,0,0,0,0],"left_children":[1,3,-1,-1,5,-1,-1],"loss_changes":[7.773258E-6,1.2070224E-5,5.853774E-7,8.6141523E-7,3.9686493E-6,0E0,0E0],"parents":[2147483647,0,0,1,1,4,4],"right_children":[2,4,-1,-1,6,-1,-1],"split_conditions":[9.180467E2,3.1600344E0,-2.993912E-6,-5.607426E-6,6.07871E2,2.2943455E-4,9.5680785E-5],"split_indices":[1,0,0,0,0,0,0],"sum_hessian":[3.12E2,1.49E2,1.63E2,6.5E1,8.4E1,4.3E1,4.1E1],"tree_param":{"num_deleted":"0","num_feature":"4","num_nodes":"7","size_leaf_vector":"0"}},{"base_weights":[9.97252E-5,2.1576295E-4,-7.0149713E-6,-1.3169705E-5,3.9098403E-4,5.401698E-4,2.2538503E-4],"default_left":[true,true,false,false,true,false,false],"id":29,"leaf_child_counts":[0,0,0,0,0,0,0],"left_children":[1,3,-1,-1,5,-1,-1],"loss_changes":[3.8782973E-6,6.022223E-6,5.8588927E-7,8.6569787E-7,1.97818E-6,0E0,0E0],"parents":[2147483647,0,0,1,1,4,4],"right_children":[2,4,-1,-1,6,-1,-1],"split_conditions":[9.180467E2,3.1600344E0,-2.1044914E-6,-3.950912E-6,6.07871E2,1.6205096E-4,6.761551E-5],"split_indices":[1,0,0,0,0,0,0],"sum_hessian":[3.12E2,1.49E2,1.63E2,6.5E1,8.4E1,4.3E1,4.1E1],"tree_param":{"num_deleted":"0","num_feature":"4","num_nodes":"7","size_leaf_vector":"0"}},{"base_weights":[7.0498754E-5,1.5248466E-4,-4.9182236E-6,-3.750235E-5,2.628719E-4,4.124065E-4,1.20042634E-4,-4.101269E-4,1.7506014E-4],"default_left":[true,true,false,false,true,false,true,false,false],"id":30,"leaf_child_counts":[0,0,0,0,0,0,0,0,0],"left_children":[1,3,-1,-1,5,-1,7,-1,-1],"loss_changes":[1.936069E-6,3.1556795E-6,5.863793E-7,5.863882E-7,1.9794957E-6,1.642129E-7,1.5302271E-6,0E0,2.7539954E-8],"parents":[2147483647,0,0,1,1,4,4,6,6],"right_children":[2,4,-1,-1,6,-1,8,-1,-1],"split_conditions":[9.180467E2,2.8271443E-1,-1.4754671E-6,-1.1250705E-5,8.6718506E2,1.2372195E-4,8.8296484E2,-1.2303807E-4,5.2518044E-5],"split_indices":[1,0,0,0,1,0,1,0,0],"sum_hessian":[3.12E2,1.49E2,1.63E2,5.5E1,9.4E1,4.5E1,4.9E1,4E0,4.5E1],"tree_param":{"num_deleted":"0","num_feature":"4","num_nodes":"9","size_leaf_vector":"0"}},{"base_weights":[4.946079E-5],"default_left":[false],"id":31,"leaf_child_counts":[0],"left_children":[-1],"loss_changes":[9.537674E-7],"parents":[2147483647],"right_children":[-1],"split_conditions":[1.4838237E-5],"split_indices":[0],"sum_hessian":[3.12E2],"tree_param":{"num_deleted":"0","num_feature":"4","num_nodes":"1","size_leaf_vector":"0"}},{"base_weights":[3.4616434E-5],"default_left":[false],"id":32,"leaf_child_counts":[0],"left_children":[-1],"loss_changes":[9.521835E-7],"parents":[2147483647],"right_children":[-1],"split_conditions":[1.0384931E-5],"split_indices":[0],"sum_hessian":[3.12E2],"tree_param":{"num_deleted":"0","num_feature":"4","num_nodes":"1","size_leaf_vector":"0"}},{"base_weights":[2.4242157E-5],"default_left":[false],"id":33,"leaf_child_counts":[0],"left_children":[-1],"loss_changes":[9.5169844E-7],"parents":[2147483647],"right_children":[-1],"split_conditions":[7.2726475E-6],"split_indices":[0],"sum_hessian":[3.12E2],"tree_param":{"num_deleted":"0","num_feature":"4","num_nodes":"1","size_leaf_vector":"0"}},{"base_weights":[1.6961578E-5],"default_left":[false],"id":34,"leaf_child_counts":[0],"left_children":[-1],"loss_changes":[9.5091474E-7],"parents":[2147483647],"right_children":[-1],"split_conditions":[5.0884737E-6],"split_indices":[0],"sum_hessian":[3.12E2],"tree_param":{"num_deleted":"0","num_feature":"4","num_nodes":"1","size_leaf_vector":"0"}},{"base_weights":[1.19109645E-5],"default_left":[false],"id":35,"leaf_child_counts":[0],"left_children":[-1],"loss_changes":[9.519297E-7],"parents":[2147483647],"right_children":[-1],"split_conditions":[3.5732894E-6],"split_indices":[0],"sum_hessian":[3.12E2],"tree_param":{"num_deleted":"0","num_feature":"4","num_nodes":"1","size_leaf_vector":"0"}},{"base_weights":[8.343832E-6],"default_left":[false],"id":36,"leaf_child_counts":[0],"left_children":[-1],"loss_changes":[9.519438E-7],"parents":[2147483647],"right_children":[-1],"split_conditions":[2.5031495E-6],"split_indices":[0],"sum_hessian":[3.12E2],"tree_param":{"num_deleted":"0","num_feature":"4","num_nodes":"1","size_leaf_vector":"0"}},{"base_weights":[5.8160617E-6],"default_left":[false],"id":37,"leaf_child_counts":[0],"left_children":[-1],"loss_changes":[9.508639E-7],"parents":[2147483647],"right_children":[-1],"split_conditions":[1.7448186E-6],"split_indices":[0],"sum_hessian":[3.12E2],"tree_param":{"num_deleted":"0","num_feature":"4","num_nodes":"1","size_leaf_vector":"0"}},{"base_weights":[4.030136E-6],"default_left":[false],"id":38,"leaf_child_counts":[0],"left_children":[-1],"loss_changes":[9.494423E-7],"parents":[2147483647],"right_children":[-1],"split_conditions":[1.2090409E-6],"split_indices":[0],"sum_hessian":[3.12E2],"tree_param":{"num_deleted":"0","num_feature":"4","num_nodes":"1","size_leaf_vector":"0"}},{"base_weights":[2.826683E-6],"default_left":[false],"id":39,"leaf_child_counts":[0],"left_children":[-1],"loss_changes":[9.4973893E-7],"parents":[2147483647],"right_children":[-1],"split_conditions":[8.480049E-7],"split_indices":[0],"sum_hessian":[3.12E2],"tree_param":{"num_deleted":"0","num_feature":"4","num_nodes":"1","size_leaf_vector":"0"}},{"base_weights":[1.961535E-6],"default_left":[false],"id":40,"leaf_child_counts":[0],"left_children":[-1],"loss_changes":[9.486739E-7],"parents":[2147483647],"right_children":[-1],"split_conditions":[5.884605E-7],"split_indices":[0],"sum_hessian":[3.12E2],"tree_param":{"num_deleted":"0","num_feature":"4","num_nodes":"1","size_leaf_vector":"0"}},{"base_weights":[1.3352815E-6],"default_left":[false],"id":41,"leaf_child_counts":[0],"left_children":[-1],"loss_changes":[9.474285E-7],"parents":[2147483647],"right_children":[-1],"split_conditions":[4.0058447E-7],"split_indices":[0],"sum_hessian":[3.12E2],"tree_param":{"num_deleted":"0","num_feature":"4","num_nodes":"1","size_leaf_vector":"0"}},{"base_weights":[9.82349E-7],"default_left":[false],"id":42,"leaf_child_counts":[0],"left_children":[-1],"loss_changes":[9.4888924E-7],"parents":[2147483647],"right_children":[-1],"split_conditions":[2.947047E-7],"split_indices":[0],"sum_hessian":[3.12E2],"tree_param":{"num_deleted":"0","num_feature":"4","num_nodes":"1","size_leaf_vector":"0"}},{"base_weights":[7.053325E-7],"default_left":[false],"id":43,"leaf_child_counts":[0],"left_children":[-1],"loss_changes":[9.4958983E-7],"parents":[2147483647],"right_children":[-1],"split_conditions":[2.1159977E-7],"split_indices":[0],"sum_hessian":[3.12E2],"tree_param":{"num_deleted":"0","num_feature":"4","num_nodes":"1","size_leaf_vector":"0"}},{"base_weights":[5.502212E-7],"default_left":[false],"id":44,"leaf_child_counts":[0],"left_children":[-1],"loss_changes":[9.516438E-7],"parents":[2147483647],"right_children":[-1],"split_conditions":[1.6506637E-7],"split_indices":[0],"sum_hessian":[3.12E2],"tree_param":{"num_deleted":"0","num_feature":"4","num_nodes":"1","size_leaf_vector":"0"}},{"base_weights":[4.2418023E-7],"default_left":[false],"id":45,"leaf_child_counts":[0],"left_children":[-1],"loss_changes":[9.534177E-7],"parents":[2147483647],"right_children":[-1],"split_conditions":[1.2725407E-7],"split_indices":[0],"sum_hessian":[3.12E2],"tree_param":{"num_deleted":"0","num_feature":"4","num_nodes":"1","size_leaf_vector":"0"}},{"base_weights":[3.347435E-7],"default_left":[false],"id":46,"leaf_child_counts":[0],"left_children":[-1],"loss_changes":[9.545523E-7],"parents":[2147483647],"right_children":[-1],"split_conditions":[1.0042306E-7],"split_indices":[0],"sum_hessian":[3.12E2],"tree_param":{"num_deleted":"0","num_feature":"4","num_nodes":"1","size_leaf_vector":"0"}},{"base_weights":[2.6348692E-7],"default_left":[false],"id":47,"leaf_child_counts":[0],"left_children":[-1],"loss_changes":[9.554467E-7],"parents":[2147483647],"right_children":[-1],"split_conditions":[7.904608E-8],"split_indices":[0],"sum_hessian":[3.12E2],"tree_param":{"num_deleted":"0","num_feature":"4","num_nodes":"1","size_leaf_vector":"0"}},{"base_weights":[2.0424528E-7],"default_left":[false],"id":48,"leaf_child_counts":[0],"left_children":[-1],"loss_changes":[9.562918E-7],"parents":[2147483647],"right_children":[-1],"split_conditions":[6.127359E-8],"split_indices":[0],"sum_hessian":[3.12E2],"tree_param":{"num_deleted":"0","num_feature":"4","num_nodes":"1","size_leaf_vector":"0"}},{"base_weights":[1.6060703E-7],"default_left":[false],"id":49,"leaf_child_counts":[0],"left_children":[-1],"loss_changes":[9.56855E-7],"parents":[2147483647],"right_children":[-1],"split_conditions":[4.8182113E-8],"split_indices":[0],"sum_hessian":[3.12E2],"tree_param":{"num_deleted":"0","num_feature":"4","num_nodes":"1","size_leaf_vector":"0"}},{"base_weights":[1.2074761E-7],"default_left":[false],"id":50,"leaf_child_counts":[0],"left_children":[-1],"loss_changes":[9.574718E-7],"parents":[2147483647],"right_children":[-1],"split_conditions":[3.6224286E-8],"split_indices":[0],"sum_hessian":[3.12E2],"tree_param":{"num_deleted":"0","num_feature":"4","num_nodes":"1","size_leaf_vector":"0"}},{"base_weights":[9.518236E-8],"default_left":[false],"id":51,"leaf_child_counts":[0],"left_children":[-1],"loss_changes":[9.577847E-7],"parents":[2147483647],"right_children":[-1],"split_conditions":[2.8554709E-8],"split_indices":[0],"sum_hessian":[3.12E2],"tree_param":{"num_deleted":"0","num_feature":"4","num_nodes":"1","size_leaf_vector":"0"}},{"base_weights":[7.621075E-8],"default_left":[false],"id":52,"leaf_child_counts":[0],"left_children":[-1],"loss_changes":[9.580295E-7],"parents":[2147483647],"right_children":[-1],"split_conditions":[2.2863228E-8],"split_indices":[0],"sum_hessian":[3.12E2],"tree_param":{"num_deleted":"0","num_feature":"4","num_nodes":"1","size_leaf_vector":"0"}},{"base_weights":[5.847099E-8],"default_left":[false],"id":53,"leaf_child_counts":[0],"left_children":[-1],"loss_changes":[9.583083E-7],"parents":[2147483647],"right_children":[-1],"split_conditions":[1.7541298E-8],"split_indices":[0],"sum_hessian":[3.12E2],"tree_param":{"num_deleted":"0","num_feature":"4","num_nodes":"1","size_leaf_vector":"0"}},{"base_weights":[4.3248477E-8],"default_left":[false],"id":54,"leaf_child_counts":[0],"left_children":[-1],"loss_changes":[9.585849E-7],"parents":[2147483647],"right_children":[-1],"split_conditions":[1.2974543E-8],"split_indices":[0],"sum_hessian":[3.12E2],"tree_param":{"num_deleted":"0","num_feature":"4","num_nodes":"1","size_leaf_vector":"0"}},{"base_weights":[3.889834E-8],"default_left":[false],"id":55,"leaf_child_counts":[0],"left_children":[-1],"loss_changes":[9.585503E-7],"parents":[2147483647],"right_children":[-1],"split_conditions":[1.1669502E-8],"split_indices":[0],"sum_hessian":[3.12E2],"tree_param":{"num_deleted":"0","num_feature":"4","num_nodes":"1","size_leaf_vector":"0"}},{"base_weights":[3.5095685E-8],"default_left":[false],"id":56,"leaf_child_counts":[0],"left_children":[-1],"loss_changes":[9.585174E-7],"parents":[2147483647],"right_children":[-1],"split_conditions":[1.0528706E-8],"split_indices":[0],"sum_hessian":[3.12E2],"tree_param":{"num_deleted":"0","num_feature":"4","num_nodes":"1","size_leaf_vector":"0"}},{"base_weights":[3.159058E-8],"default_left":[false],"id":57,"leaf_child_counts":[0],"left_children":[-1],"loss_changes":[9.584871E-7],"parents":[2147483647],"right_children":[-1],"split_conditions":[9.477175E-9],"split_indices":[0],"sum_hessian":[3.12E2],"tree_param":{"num_deleted":"0","num_feature":"4","num_nodes":"1","size_leaf_vector":"0"}},{"base_weights":[2.8442532E-8],"default_left":[false],"id":58,"leaf_child_counts":[0],"left_children":[-1],"loss_changes":[9.584649E-7],"parents":[2147483647],"right_children":[-1],"split_conditions":[8.53276E-9],"split_indices":[0],"sum_hessian":[3.12E2],"tree_param":{"num_deleted":"0","num_feature":"4","num_nodes":"1","size_leaf_vector":"0"}},{"base_weights":[2.5348042E-8],"default_left":[false],"id":59,"leaf_child_counts":[0],"left_children":[-1],"loss_changes":[9.584437E-7],"parents":[2147483647],"right_children":[-1],"split_conditions":[7.604413E-9],"split_indices":[0],"sum_hessian":[3.12E2],"tree_param":{"num_deleted":"0","num_feature":"4","num_nodes":"1","size_leaf_vector":"0"}},{"base_weights":[2.2420178E-8],"default_left":[false],"id":60,"leaf_child_counts":[0],"left_children":[-1],"loss_changes":[9.584368E-7],"parents":[2147483647],"right_children":[-1],"split_conditions":[6.7260535E-9],"split_indices":[0],"sum_hessian":[3.12E2],"tree_param":{"num_deleted":"0","num_feature":"4","num_nodes":"1","size_leaf_vector":"0"}},{"base_weights":[2.0640845E-8],"default_left":[false],"id":61,"leaf_child_counts":[0],"left_children":[-1],"loss_changes":[9.584015E-7],"parents":[2147483647],"right_children":[-1],"split_conditions":[6.192254E-9],"split_indices":[0],"sum_hessian":[3.12E2],"tree_param":{"num_deleted":"0","num_feature":"4","num_nodes":"1","size_leaf_vector":"0"}},{"base_weights":[1.9165013E-8],"default_left":[false],"id":62,"leaf_child_counts":[0],"left_children":[-1],"loss_changes":[9.583727E-7],"parents":[2147483647],"right_children":[-1],"split_conditions":[5.749504E-9],"split_indices":[0],"sum_hessian":[3.12E2],"tree_param":{"num_deleted":"0","num_feature":"4","num_nodes":"1","size_leaf_vector":"0"}},{"base_weights":[1.7742737E-8],"default_left":[false],"id":63,"leaf_child_counts":[0],"left_children":[-1],"loss_changes":[9.583451E-7],"parents":[2147483647],"right_children":[-1],"split_conditions":[5.3228213E-9],"split_indices":[0],"sum_hessian":[3.12E2],"tree_param":{"num_deleted":"0","num_feature":"4","num_nodes":"1","size_leaf_vector":"0"}},{"base_weights":[1.6320461E-8],"default_left":[false],"id":64,"leaf_child_counts":[0],"left_children":[-1],"loss_changes":[9.583175E-7],"parents":[2147483647],"right_children":[-1],"split_conditions":[4.8961386E-9],"split_indices":[0],"sum_hessian":[3.12E2],"tree_param":{"num_deleted":"0","num_feature":"4","num_nodes":"1","size_leaf_vector":"0"}},{"base_weights":[1.4951745E-8],"default_left":[false],"id":65,"leaf_child_counts":[0],"left_children":[-1],"loss_changes":[9.582913E-7],"parents":[2147483647],"right_children":[-1],"split_conditions":[4.4855235E-9],"split_indices":[0],"sum_hessian":[3.12E2],"tree_param":{"num_deleted":"0","num_feature":"4","num_nodes":"1","size_leaf_vector":"0"}},{"base_weights":[1.3886526E-8],"default_left":[false],"id":66,"leaf_child_counts":[0],"left_children":[-1],"loss_changes":[9.582715E-7],"parents":[2147483647],"right_children":[-1],"split_conditions":[4.165958E-9],"split_indices":[0],"sum_hessian":[3.12E2],"tree_param":{"num_deleted":"0","num_feature":"4","num_nodes":"1","size_leaf_vector":"0"}},{"base_weights":[1.2874865E-8],"default_left":[false],"id":67,"leaf_child_counts":[0],"left_children":[-1],"loss_changes":[9.582532E-7],"parents":[2147483647],"right_children":[-1],"split_conditions":[3.8624597E-9],"split_indices":[0],"sum_hessian":[3.12E2],"tree_param":{"num_deleted":"0","num_feature":"4","num_nodes":"1","size_leaf_vector":"0"}},{"base_weights":[1.1863205E-8],"default_left":[false],"id":68,"leaf_child_counts":[0],"left_children":[-1],"loss_changes":[9.582348E-7],"parents":[2147483647],"right_children":[-1],"split_conditions":[3.5589616E-9],"split_indices":[0],"sum_hessian":[3.12E2],"tree_param":{"num_deleted":"0","num_feature":"4","num_nodes":"1","size_leaf_vector":"0"}},{"base_weights":[1.10419744E-8],"default_left":[false],"id":69,"leaf_child_counts":[0],"left_children":[-1],"loss_changes":[9.582166E-7],"parents":[2147483647],"right_children":[-1],"split_conditions":[3.3125924E-9],"split_indices":[0],"sum_hessian":[3.12E2],"tree_param":{"num_deleted":"0","num_feature":"4","num_nodes":"1","size_leaf_vector":"0"}},{"base_weights":[1.0220744E-8],"default_left":[false],"id":70,"leaf_child_counts":[0],"left_children":[-1],"loss_changes":[9.581984E-7],"parents":[2147483647],"right_children":[-1],"split_conditions":[3.0662235E-9],"split_indices":[0],"sum_hessian":[3.12E2],"tree_param":{"num_deleted":"0","num_feature":"4","num_nodes":"1","size_leaf_vector":"0"}},{"base_weights":[9.453073E-9],"default_left":[false],"id":71,"leaf_child_counts":[0],"left_children":[-1],"loss_changes":[9.581815E-7],"parents":[2147483647],"right_children":[-1],"split_conditions":[2.835922E-9],"split_indices":[0],"sum_hessian":[3.12E2],"tree_param":{"num_deleted":"0","num_feature":"4","num_nodes":"1","size_leaf_vector":"0"}},{"base_weights":[8.685401E-9],"default_left":[false],"id":72,"leaf_child_counts":[0],"left_children":[-1],"loss_changes":[9.581647E-7],"parents":[2147483647],"right_children":[-1],"split_conditions":[2.6056204E-9],"split_indices":[0],"sum_hessian":[3.12E2],"tree_param":{"num_deleted":"0","num_feature":"4","num_nodes":"1","size_leaf_vector":"0"}},{"base_weights":[8.221228E-9],"default_left":[false],"id":73,"leaf_child_counts":[0],"left_children":[-1],"loss_changes":[9.581543E-7],"parents":[2147483647],"right_children":[-1],"split_conditions":[2.4663684E-9],"split_indices":[0],"sum_hessian":[3.12E2],"tree_param":{"num_deleted":"0","num_feature":"4","num_nodes":"1","size_leaf_vector":"0"}},{"base_weights":[7.7570546E-9],"default_left":[false],"id":74,"leaf_child_counts":[0],"left_children":[-1],"loss_changes":[9.581439E-7],"parents":[2147483647],"right_children":[-1],"split_conditions":[2.3271165E-9],"split_indices":[0],"sum_hessian":[3.12E2],"tree_param":{"num_deleted":"0","num_feature":"4","num_nodes":"1","size_leaf_vector":"0"}},{"base_weights":[7.346439E-9],"default_left":[false],"id":75,"leaf_child_counts":[0],"left_children":[-1],"loss_changes":[9.581348E-7],"parents":[2147483647],"right_children":[-1],"split_conditions":[2.2039317E-9],"split_indices":[0],"sum_hessian":[3.12E2],"tree_param":{"num_deleted":"0","num_feature":"4","num_nodes":"1","size_leaf_vector":"0"}},{"base_weights":[6.935824E-9],"default_left":[false],"id":76,"leaf_child_counts":[0],"left_children":[-1],"loss_changes":[9.581257E-7],"parents":[2147483647],"right_children":[-1],"split_conditions":[2.0807474E-9],"split_indices":[0],"sum_hessian":[3.12E2],"tree_param":{"num_deleted":"0","num_feature":"4","num_nodes":"1","size_leaf_vector":"0"}},{"base_weights":[6.525209E-9],"default_left":[false],"id":77,"leaf_child_counts":[0],"left_children":[-1],"loss_changes":[9.581166E-7],"parents":[2147483647],"right_children":[-1],"split_conditions":[1.9575628E-9],"split_indices":[0],"sum_hessian":[3.12E2],"tree_param":{"num_deleted":"0","num_feature":"4","num_nodes":"1","size_leaf_vector":"0"}},{"base_weights":[6.1145937E-9],"default_left":[false],"id":78,"leaf_child_counts":[0],"left_children":[-1],"loss_changes":[9.581075E-7],"parents":[2147483647],"right_children":[-1],"split_conditions":[1.8343782E-9],"split_indices":[0],"sum_hessian":[3.12E2],"tree_param":{"num_deleted":"0","num_feature":"4","num_nodes":"1","size_leaf_vector":"0"}},{"base_weights":[5.7039786E-9],"default_left":[false],"id":79,"leaf_child_counts":[0],"left_children":[-1],"loss_changes":[9.580984E-7],"parents":[2147483647],"right_children":[-1],"split_conditions":[1.7111936E-9],"split_indices":[0],"sum_hessian":[3.12E2],"tree_param":{"num_deleted":"0","num_feature":"4","num_nodes":"1","size_leaf_vector":"0"}},{"base_weights":[5.293364E-9],"default_left":[false],"id":80,"leaf_child_counts":[0],"left_children":[-1],"loss_changes":[9.580895E-7],"parents":[2147483647],"right_children":[-1],"split_conditions":[1.5880093E-9],"split_indices":[0],"sum_hessian":[3.12E2],"tree_param":{"num_deleted":"0","num_feature":"4","num_nodes":"1","size_leaf_vector":"0"}},{"base_weights":[4.882749E-9],"default_left":[false],"id":81,"leaf_child_counts":[0],"left_children":[-1],"loss_changes":[9.580804E-7],"parents":[2147483647],"right_children":[-1],"split_conditions":[1.4648247E-9],"split_indices":[0],"sum_hessian":[3.12E2],"tree_param":{"num_deleted":"0","num_feature":"4","num_nodes":"1","size_leaf_vector":"0"}},{"base_weights":[4.4721338E-9],"default_left":[false],"id":82,"leaf_child_counts":[0],"left_children":[-1],"loss_changes":[9.580713E-7],"parents":[2147483647],"right_children":[-1],"split_conditions":[1.3416401E-9],"split_indices":[0],"sum_hessian":[3.12E2],"tree_param":{"num_deleted":"0","num_feature":"4","num_nodes":"1","size_leaf_vector":"0"}},{"base_weights":[4.115077E-9],"default_left":[false],"id":83,"leaf_child_counts":[0],"left_children":[-1],"loss_changes":[9.580635E-7],"parents":[2147483647],"right_children":[-1],"split_conditions":[1.2345232E-9],"split_indices":[0],"sum_hessian":[3.12E2],"tree_param":{"num_deleted":"0","num_feature":"4","num_nodes":"1","size_leaf_vector":"0"}},{"base_weights":[3.7580206E-9],"default_left":[false],"id":84,"leaf_child_counts":[0],"left_children":[-1],"loss_changes":[9.580557E-7],"parents":[2147483647],"right_children":[-1],"split_conditions":[1.1274062E-9],"split_indices":[0],"sum_hessian":[3.12E2],"tree_param":{"num_deleted":"0","num_feature":"4","num_nodes":"1","size_leaf_vector":"0"}},{"base_weights":[3.400964E-9],"default_left":[false],"id":85,"leaf_child_counts":[0],"left_children":[-1],"loss_changes":[9.58048E-7],"parents":[2147483647],"right_children":[-1],"split_conditions":[1.0202892E-9],"split_indices":[0],"sum_hessian":[3.12E2],"tree_param":{"num_deleted":"0","num_feature":"4","num_nodes":"1","size_leaf_vector":"0"}},{"base_weights":[3.0439073E-9],"default_left":[false],"id":86,"leaf_child_counts":[0],"left_children":[-1],"loss_changes":[9.580401E-7],"parents":[2147483647],"right_children":[-1],"split_conditions":[9.1317226E-10],"split_indices":[0],"sum_hessian":[3.12E2],"tree_param":{"num_deleted":"0","num_feature":"4","num_nodes":"1","size_leaf_vector":"0"}},{"base_weights":[2.9903489E-9],"default_left":[false],"id":87,"leaf_child_counts":[0],"left_children":[-1],"loss_changes":[9.580389E-7],"parents":[2147483647],"right_children":[-1],"split_conditions":[8.9710467E-10],"split_indices":[0],"sum_hessian":[3.12E2],"tree_param":{"num_deleted":"0","num_feature":"4","num_nodes":"1","size_leaf_vector":"0"}},{"base_weights":[2.9367904E-9],"default_left":[false],"id":88,"leaf_child_counts":[0],"left_children":[-1],"loss_changes":[9.580375E-7],"parents":[2147483647],"right_children":[-1],"split_conditions":[8.8103713E-10],"split_indices":[0],"sum_hessian":[3.12E2],"tree_param":{"num_deleted":"0","num_feature":"4","num_nodes":"1","size_leaf_vector":"0"}},{"base_weights":[2.8832319E-9],"default_left":[false],"id":89,"leaf_child_counts":[0],"left_children":[-1],"loss_changes":[9.580363E-7],"parents":[2147483647],"right_children":[-1],"split_conditions":[8.649696E-10],"split_indices":[0],"sum_hessian":[3.12E2],"tree_param":{"num_deleted":"0","num_feature":"4","num_nodes":"1","size_leaf_vector":"0"}},{"base_weights":[2.8296734E-9],"default_left":[false],"id":90,"leaf_child_counts":[0],"left_children":[-1],"loss_changes":[9.580349E-7],"parents":[2147483647],"right_children":[-1],"split_conditions":[8.4890206E-10],"split_indices":[0],"sum_hessian":[3.12E2],"tree_param":{"num_deleted":"0","num_feature":"4","num_nodes":"1","size_leaf_vector":"0"}},{"base_weights":[2.776115E-9],"default_left":[false],"id":91,"leaf_child_counts":[0],"left_children":[-1],"loss_changes":[9.580335E-7],"parents":[2147483647],"right_children":[-1],"split_conditions":[8.328345E-10],"split_indices":[0],"sum_hessian":[3.12E2],"tree_param":{"num_deleted":"0","num_feature":"4","num_nodes":"1","size_leaf_vector":"0"}},{"base_weights":[2.7225564E-9],"default_left":[false],"id":92,"leaf_child_counts":[0],"left_children":[-1],"loss_changes":[9.580323E-7],"parents":[2147483647],"right_children":[-1],"split_conditions":[8.1676693E-10],"split_indices":[0],"sum_hessian":[3.12E2],"tree_param":{"num_deleted":"0","num_feature":"4","num_nodes":"1","size_leaf_vector":"0"}},{"base_weights":[2.668998E-9],"default_left":[false],"id":93,"leaf_child_counts":[0],"left_children":[-1],"loss_changes":[9.580309E-7],"parents":[2147483647],"right_children":[-1],"split_conditions":[8.006994E-10],"split_indices":[0],"sum_hessian":[3.12E2],"tree_param":{"num_deleted":"0","num_feature":"4","num_nodes":"1","size_leaf_vector":"0"}},{"base_weights":[2.6154394E-9],"default_left":[false],"id":94,"leaf_child_counts":[0],"left_children":[-1],"loss_changes":[9.580297E-7],"parents":[2147483647],"right_children":[-1],"split_conditions":[7.8463186E-10],"split_indices":[0],"sum_hessian":[3.12E2],"tree_param":{"num_deleted":"0","num_feature":"4","num_nodes":"1","size_leaf_vector":"0"}},{"base_weights":[2.561881E-9],"default_left":[false],"id":95,"leaf_child_counts":[0],"left_children":[-1],"loss_changes":[9.580283E-7],"parents":[2147483647],"right_children":[-1],"split_conditions":[7.685643E-10],"split_indices":[0],"sum_hessian":[3.12E2],"tree_param":{"num_deleted":"0","num_feature":"4","num_nodes":"1","size_leaf_vector":"0"}},{"base_weights":[2.5083224E-9],"default_left":[false],"id":96,"leaf_child_counts":[0],"left_children":[-1],"loss_changes":[9.580269E-7],"parents":[2147483647],"right_children":[-1],"split_conditions":[7.524968E-10],"split_indices":[0],"sum_hessian":[3.12E2],"tree_param":{"num_deleted":"0","num_feature":"4","num_nodes":"1","size_leaf_vector":"0"}},{"base_weights":[2.454764E-9],"default_left":[false],"id":97,"leaf_child_counts":[0],"left_children":[-1],"loss_changes":[9.580257E-7],"parents":[2147483647],"right_children":[-1],"split_conditions":[7.364292E-10],"split_indices":[0],"sum_hessian":[3.12E2],"tree_param":{"num_deleted":"0","num_feature":"4","num_nodes":"1","size_leaf_vector":"0"}},{"base_weights":[2.4012055E-9],"default_left":[false],"id":98,"leaf_child_counts":[0],"left_children":[-1],"loss_changes":[9.580243E-7],"parents":[2147483647],"right_children":[-1],"split_conditions":[7.2036166E-10],"split_indices":[0],"sum_hessian":[3.12E2],"tree_param":{"num_deleted":"0","num_feature":"4","num_nodes":"1","size_leaf_vector":"0"}},{"base_weights":[2.347647E-9],"default_left":[false],"id":99,"leaf_child_counts":[0],"left_children":[-1],"loss_changes":[9.580231E-7],"parents":[2147483647],"right_children":[-1],"split_conditions":[7.042941E-10],"split_indices":[0],"sum_hessian":[3.12E2],"tree_param":{"num_deleted":"0","num_feature":"4","num_nodes":"1","size_leaf_vector":"0"}}]},"name":"gbtree"},"learner_model_param":{"base_score":"5E-1","num_class":"0","num_feature":"4"},"objective":{"name":"reg:squarederror","reg_loss_param":{"scale_pos_weight":"1"}}},"version":[1,2,0]}