{"learner":{"attributes":{"scikit_learn":"{\"n_estimators\": 100, \"objective\": \"reg:squarederror\", \"max_depth\": null, \"learning_rate\": null, \"verbosity\": null, \"booster\": null, \"tree_method\": null, \"gamma\": null, \"min_child_weight\": null, \"max_delta_step\": null, \"subsample\": null, \"colsample_bytree\": null, \"colsample_bylevel\": null, \"colsample_bynode\": null, \"reg_alpha\": null, \"reg_lambda\": null, \"scale_pos_weight\": null, \"base_score\": null, \"missing\": NaN, \"num_parallel_tree\": null, \"kwargs\": {}, \"random_state\": 42, \"n_jobs\": null, \"monotone_constraints\": null, \"interaction_constraints\": null, \"importance_type\": \"gain\", \"gpu_id\": null, \"validate_parameters\": null, \"n_features_in_\": 1, \"type\": \"XGBRegressor\"}"},"gradient_booster":{"model":{"gbtree_model_param":{"num_trees":"100","size_leaf_vector":"0"},"tree_info":[0,0,0,0,0,0,0,0,0,0,0,0,0,0,0,0,0,0,0,0,0,0,0,0,0,0,0,0,0,0,0,0,0,0,0,0,0,0,0,0,0,0,0,0,0,0,0,0,0,0,0,0,0,0,0,0,0,0,0,0,0,0,0,0,0,0,0,0,0,0,0,0,0,0,0,0,0,0,0,0,0,0,0,0,0,0,0,0,0,0,0,0,0,0,0,0,0,0,0,0],"trees":[{"base_weights":[1.6010504E1,2.9064873E1,3.0808024E0,1.1755241E1,8.707222E1,7.037838E0,-2.4122222E-1,4.033125E0,1.6205896E1,-2.9983872E-1,-1.04E-1,5.156316E0,-1.9583333E-1,2.11995E1,-3.955E-1,-3.5005882E-1,-2.2293334E-1,1.7208408E1,2.86E1,1.89745E1,-3.0166668E-1],"default_left":[true,true,true,true,false,false,true,true,true,true,false,false,false,true,false,false,false,true,false,false,false],"id":0,"leaf_child_counts":[0,0,0,0,0,0,0,0,0,0,0,0,0,0,0,0,0,0,0,0,0],"left_children":[1,3,5,7,-1,-1,9,11,13,15,-1,-1,-1,17,-1,-1,-1,19,-1,-1,-1],"loss_changes":[2.6747926E4,7.829923E4,1.0664725E3,2.0654863E3,0E0,0E0,3.307736E-1,1.15008026E2,3.2415146E3,4.1688204E-2,0E0,0E0,0E0,3.9392188E2,0E0,0E0,0E0,6.8606006E2,0E0,0E0,0E0],"parents":[2147483647,0,0,1,1,2,2,3,3,6,6,7,7,8,8,9,9,13,13,17,17],"right_children":[2,4,6,8,-1,-1,10,12,14,16,-1,-1,-1,18,-1,-1,-1,20,-1,-1,-1],"split_conditions":[4.8161462E2,4.784931E2,4.8713745E2,4.174525E2,2.6121668E1,2.1113515E0,5.2171466E2,4.072751E2,4.7286588E2,5.006853E2,-3.1200001E-2,1.5468948E0,-5.875E-2,4.707071E2,-1.18650004E-1,-1.05017655E-1,-6.688E-2,4.4707526E2,8.580001E0,5.6923504E0,-9.0500005E-2],"split_indices":[0,0,0,0,0,0,0,0,0,0,0,0,0,0,0,0,0,0,0,0,0],"sum_hessian":[1.58E2,7.8E1,8E1,6.1E1,1.7E1,3.6E1,4.4E1,2.3E1,3.8E1,3E1,1.4E1,1.8E1,5E0,2.9E1,9E0,1.6E1,1.4E1,2.1E1,8E0,1.9E1,2E0],"tree_param":{"num_deleted":"0","num_feature":"1","num_nodes":"21","size_leaf_vector":"0"}},{"base_weights":[1.1481448E1,2.0872917E1,2.1801202E0,8.479497E0,6.240176E1,4.98355E0,-1.7336884E-1,2.8851936E0,1.1704722E1,-2.1543218E-1,-7.488001E-2,3.6908364E0,-1.46875E-1,1.5312378E1,-2.8871498E-1,-2.5121868E-1,-1.6051202E-1,1.2300515E1,2.0973331E1,1.3566767E1,-2.4133334E-1],"default_left":[true,true,true,true,false,false,true,true,true,true,false,false,false,true,false,false,false,true,false,false,false],"id":1,"leaf_child_counts":[0,0,0,0,0,0,0,0,0,0,0,0,0,0,0,0,0,0,0,0,0],"left_children":[1,3,5,7,-1,-1,9,11,13,15,-1,-1,-1,17,-1,-1,-1,19,-1,-1,-1],"loss_changes":[1.3843645E4,4.013093E4,5.3528906E2,1.0848887E3,0E0,0E0,1.702931E-1,5.916844E1,1.6918804E3,2.0603776E-2,0E0,0E0,0E0,2.5351758E2,0E0,0E0,0E0,3.5265918E2,0E0,0E0,0E0],"parents":[2147483647,0,0,1,1,2,2,3,3,6,6,7,7,8,8,9,9,13,13,17,17],"right_children":[2,4,6,8,-1,-1,10,12,14,16,-1,-1,-1,18,-1,-1,-1,20,-1,-1,-1],"split_conditions":[4.8161462E2,4.784931E2,4.8713745E2,4.174525E2,1.872053E1,1.4950651E0,5.2171466E2,4.072751E2,4.7286588E2,5.006853E2,-2.2464003E-2,1.1072509E0,-4.40625E-2,4.707071E2,-8.66145E-2,-7.53656E-2,-4.8153605E-2,4.4707526E2,6.292E0,4.07003E0,-7.24E-2],"split_indices":[0,0,0,0,0,0,0,0,0,0,0,0,0,0,0,0,0,0,0,0,0],"sum_hessian":[1.58E2,7.8E1,8E1,6.1E1,1.7E1,3.6E1,4.4E1,2.3E1,3.8E1,3E1,1.4E1,1.8E1,5E0,2.9E1,9E0,1.6E1,1.4E1,2.1E1,8E0,1.9E1,2E0],"tree_param":{"num_deleted":"0","num_feature":"1","num_nodes":"21","size_leaf_vector":"0"}},{"base_weights":[8.234094E0,1.4990621E1,1.5427395E0,6.117361E0,4.472126E1,3.5288918E0,-1.2460226E-1,2.063935E0,8.454922E0,-1.5478702E-1,-5.39136E-2,2.641862E0,-1.10156246E-1,1.1061652E1,-2.1076193E-1,-1.8028633E-1,-1.15568645E-1,8.792071E0,1.5380443E1,9.700238E0,-1.9306667E-1],"default_left":[true,true,true,true,false,false,true,true,true,true,false,false,false,true,false,false,false,true,false,false,false],"id":2,"leaf_child_counts":[0,0,0,0,0,0,0,0,0,0,0,0,0,0,0,0,0,0,0,0,0],"left_children":[1,3,5,7,-1,-1,9,11,13,15,-1,-1,-1,17,-1,-1,-1,19,-1,-1,-1],"loss_changes":[7.1653125E3,2.056723E4,2.686789E2,5.7000757E2,0E0,0E0,8.767223E-2,3.044619E1,8.8330615E2,1.016587E-2,0E0,0E0,0E0,1.5882935E2,0E0,0E0,0E0,1.8139294E2,0E0,0E0,0E0],"parents":[2147483647,0,0,1,1,2,2,3,3,6,6,7,7,8,8,9,9,13,13,17,17],"right_children":[2,4,6,8,-1,-1,10,12,14,16,-1,-1,-1,18,-1,-1,-1,20,-1,-1,-1],"split_conditions":[4.8161462E2,4.784931E2,4.8713745E2,4.174525E2,1.3416379E1,1.0586675E0,5.2171466E2,4.072751E2,4.7286588E2,5.006853E2,-1.6174082E-2,7.925586E-1,-3.3046875E-2,4.707071E2,-6.3228585E-2,-5.4085903E-2,-3.4670595E-2,4.4707526E2,4.614133E0,2.9100716E0,-5.7920005E-2],"split_indices":[0,0,0,0,0,0,0,0,0,0,0,0,0,0,0,0,0,0,0,0,0],"sum_hessian":[1.58E2,7.8E1,8E1,6.1E1,1.7E1,3.6E1,4.4E1,2.3E1,3.8E1,3E1,1.4E1,1.8E1,5E0,2.9E1,9E0,1.6E1,1.4E1,2.1E1,8E0,1.9E1,2E0],"tree_param":{"num_deleted":"0","num_feature":"1","num_nodes":"21","size_leaf_vector":"0"}},{"base_weights":[5.9055805E0,1.0766585E1,1.0916921E0,4.413807E0,3.2050236E1,2.4988368E0,-8.955336E-2,1.4764007E0,6.108267E0,-1.1121402E-1,-3.8817797E-2,1.8910168E0,-8.2617186E-2,7.9920325E0,-1.5385622E-1,-1.2938195E-1,-8.3209425E-2,6.284093E0,1.1278992E1,6.9356704E0,-1.5445332E-1],"default_left":[true,true,true,true,false,false,true,true,true,true,false,false,false,true,false,false,false,true,false,false,false],"id":3,"leaf_child_counts":[0,0,0,0,0,0,0,0,0,0,0,0,0,0,0,0,0,0,0,0,0],"left_children":[1,3,5,7,-1,-1,9,11,13,15,-1,-1,-1,17,-1,-1,-1,19,-1,-1,-1],"loss_changes":[3.7089E3,1.0540151E4,1.3486063E2,2.9957544E2,0E0,0E0,4.5136362E-2,1.5669689E1,4.612881E2,5.0065517E-3,0E0,0E0,0E0,9.753955E1,0E0,0E0,0E0,9.3365906E1,0E0,0E0,0E0],"parents":[2147483647,0,0,1,1,2,2,3,3,6,6,7,7,8,8,9,9,13,13,17,17],"right_children":[2,4,6,8,-1,-1,10,12,14,16,-1,-1,-1,18,-1,-1,-1,20,-1,-1,-1],"split_conditions":[4.8161462E2,4.784931E2,4.8713745E2,4.174525E2,9.615071E0,7.496511E-1,5.2171466E2,4.072751E2,4.7286588E2,5.006853E2,-1.1645339E-2,5.673051E-1,-2.4785157E-2,4.707071E2,-4.615687E-2,-3.881459E-2,-2.496283E-2,4.4707526E2,3.3836977E0,2.080701E0,-4.6336E-2],"split_indices":[0,0,0,0,0,0,0,0,0,0,0,0,0,0,0,0,0,0,0,0,0],"sum_hessian":[1.58E2,7.8E1,8E1,6.1E1,1.7E1,3.6E1,4.4E1,2.3E1,3.8E1,3E1,1.4E1,1.8E1,5E0,2.9E1,9E0,1.6E1,1.4E1,2.1E1,8E0,1.9E1,2E0],"tree_param":{"num_deleted":"0","num_feature":"1","num_nodes":"21","size_leaf_vector":"0"}},{"base_weights":[4.2358165E0,7.733185E0,7.725083E-1,3.185059E0,2.2969332E1,1.7694467E0,-6.436341E-2,1.0560855E0,4.4135284E0,-7.990714E-2,-2.7948806E-2,1.35357E0,-6.1962888E-2,5.7750254E0,-1.12315044E-1,-1.3581082E-1,-7.136858E-2,4.491337E0,8.271261E0,4.959005E0,-1.23562664E-1],"default_left":[true,true,true,true,false,false,true,true,true,true,false,false,false,true,false,false,false,true,false,false,false],"id":4,"leaf_child_counts":[0,0,0,0,0,0,0,0,0,0,0,0,0,0,0,0,0,0,0,0,0],"left_children":[1,3,5,7,-1,-1,9,11,13,15,-1,-1,-1,17,-1,-1,-1,19,-1,-1,-1],"loss_changes":[1.9199082E3,5.401218E3,6.769296E1,1.5749237E2,0E0,0E0,2.3237526E-2,8.06632E0,2.4096356E2,5.10481E-3,0E0,0E0,0E0,5.8982666E1,0E0,0E0,0E0,4.8094055E1,0E0,0E0,0E0],"parents":[2147483647,0,0,1,1,2,2,3,3,6,6,7,7,8,8,9,9,13,13,17,17],"right_children":[2,4,6,8,-1,-1,10,12,14,16,-1,-1,-1,18,-1,-1,-1,20,-1,-1,-1],"split_conditions":[4.8161462E2,4.784931E2,4.8713745E2,4.174525E2,6.8908E0,5.30834E-1,5.2171466E2,4.072751E2,4.7286588E2,4.9210248E2,-8.384642E-3,4.06071E-1,-1.8588867E-2,4.707071E2,-3.3694513E-2,-4.0743247E-2,-2.1410575E-2,4.4707526E2,2.4813786E0,1.4877015E0,-3.70688E-2],"split_indices":[0,0,0,0,0,0,0,0,0,0,0,0,0,0,0,0,0,0,0,0,0],"sum_hessian":[1.58E2,7.8E1,8E1,6.1E1,1.7E1,3.6E1,4.4E1,2.3E1,3.8E1,3E1,1.4E1,1.8E1,5E0,2.9E1,9E0,2E0,2.8E1,2.1E1,8E0,1.9E1,2E0],"tree_param":{"num_deleted":"0","num_feature":"1","num_nodes":"21","size_leaf_vector":"0"}},{"base_weights":[3.0382593E0,5.554705E0,5.464384E-1,2.298667E0,1.6461353E1,1.2529594E0,-4.6621908E-2,7.554048E-1,3.1894267E0,-7.042502E-2,-3.1060707E-2,9.6887094E-1,-4.6472162E-2,4.1735845E0,-8.1989974E-2,-1.0864866E-1,-5.808529E-2,-3.992756E-2,-2.0123137E-2,3.2098737E0,6.065591E0,3.5456884E0,-9.885013E-2],"default_left":[true,true,true,true,false,false,true,true,true,true,true,false,false,true,false,false,false,false,false,true,false,false,false],"id":5,"leaf_child_counts":[0,0,0,0,0,0,0,0,0,0,0,0,0,0,0,0,0,0,0,0,0,0,0],"left_children":[1,3,5,7,-1,-1,9,11,13,15,17,-1,-1,19,-1,-1,-1,-1,-1,21,-1,-1,-1],"loss_changes":[9.939794E2,2.7676453E3,3.399819E1,8.282059E1,0E0,0E0,1.4480777E-2,4.1531935E0,1.2590622E2,1.7074868E-3,2.0090044E-3,0E0,0E0,3.523065E1,0E0,0E0,0E0,0E0,0E0,2.479509E1,0E0,0E0,0E0],"parents":[2147483647,0,0,1,1,2,2,3,3,6,6,7,7,8,8,9,9,10,10,13,13,19,19],"right_children":[2,4,6,8,-1,-1,10,12,14,16,18,-1,-1,20,-1,-1,-1,-1,-1,22,-1,-1,-1],"split_conditions":[4.8161462E2,4.784931E2,4.8713745E2,4.174525E2,4.938406E0,3.7588784E-1,5.006853E2,4.072751E2,4.7286588E2,4.9210248E2,5.2171466E2,2.906613E-1,-1.3941649E-2,4.707071E2,-2.4596993E-2,-3.25946E-2,-1.7425587E-2,-1.1978269E-2,-6.0369414E-3,4.4707526E2,1.8196774E0,1.0637065E0,-2.9655041E-2],"split_indices":[0,0,0,0,0,0,0,0,0,0,0,0,0,0,0,0,0,0,0,0,0,0,0],"sum_hessian":[1.58E2,7.8E1,8E1,6.1E1,1.7E1,3.6E1,4.4E1,2.3E1,3.8E1,1.6E1,2.8E1,1.8E1,5E0,2.9E1,9E0,2E0,1.4E1,1.4E1,1.4E1,2.1E1,8E0,1.9E1,2E0],"tree_param":{"num_deleted":"0","num_feature":"1","num_nodes":"23","size_leaf_vector":"0"}},{"base_weights":[2.17931E0,3.990119E0,3.863075E-1,1.6591609E0,1.1797301E1,8.8723063E-1,-3.4147233E-2,5.403133E-1,2.30514E0,-5.223988E-2,-2.236371E-2,6.935076E-1,-3.4854125E-2,3.0166328E0,-5.9852682E-2,-8.691893E-2,-4.1821413E-2,-2.8747844E-2,-1.44886635E-2,2.293913E0,4.4481E0,-8.20439E-2,-3.86216E-2,2.5351663E0,-7.9080105E-2],"default_left":[true,true,true,true,false,false,true,true,true,true,true,false,false,true,true,false,false,false,false,true,false,false,false,false,false],"id":6,"leaf_child_counts":[0,0,0,0,0,0,0,0,0,0,0,0,0,0,0,0,0,0,0,0,0,0,0,0,0],"left_children":[1,3,5,7,-1,-1,9,11,13,15,17,-1,-1,19,21,-1,-1,-1,-1,23,-1,-1,-1,-1,-1],"loss_changes":[5.146973E2,1.4180853E3,1.7090153E1,4.3565125E1,0E0,0E0,8.425504E-3,2.1388683E0,6.5804886E1,2.507072E-3,1.0414673E-3,0E0,0E0,2.0832947E1,1.5427694E-3,0E0,0E0,0E0,0E0,1.2795326E1,0E0,0E0,0E0,0E0,0E0],"parents":[2147483647,0,0,1,1,2,2,3,3,6,6,7,7,8,8,9,9,10,10,13,13,14,14,19,19],"right_children":[2,4,6,8,-1,-1,10,12,14,16,18,-1,-1,20,22,-1,-1,-1,-1,24,-1,-1,-1,-1,-1],"split_conditions":[4.8161462E2,4.784931E2,4.8713745E2,4.174525E2,3.5391905E0,2.661692E-1,5.006853E2,4.072751E2,4.7286588E2,4.9210248E2,5.2171466E2,2.0805229E-1,-1.0456238E-2,4.707071E2,4.7549237E2,-2.607568E-2,-1.2546425E-2,-8.624353E-3,-4.3465993E-3,4.4707526E2,1.3344301E0,-2.4613172E-2,-1.1586481E-2,7.605499E-1,-2.3724033E-2],"split_indices":[0,0,0,0,0,0,0,0,0,0,0,0,0,0,0,0,0,0,0,0,0,0,0,0,0],"sum_hessian":[1.58E2,7.8E1,8E1,6.1E1,1.7E1,3.6E1,4.4E1,2.3E1,3.8E1,1.6E1,2.8E1,1.8E1,5E0,2.9E1,9E0,2E0,1.4E1,1.4E1,1.4E1,2.1E1,8E0,3E0,6E0,1.9E1,2E0],"tree_param":{"num_deleted":"0","num_feature":"1","num_nodes":"25","size_leaf_vector":"0"}},{"base_weights":[1.5631673E0,2.8661442E0,2.730644E-1,1.1974233E0,8.454731E0,6.282553E-1,-2.5049577E-2,3.8645256E-1,1.665779E0,-6.953514E-2,-2.1363385E-2,4.9640554E-1,-2.6140595E-2,2.180685E0,-4.551684E-2,-2.628097E-2,-1.0431828E-2,1.6392316E0,3.2619395E0,-6.358402E-2,-2.8690333E-2,1.8126444E0,-6.326408E-2],"default_left":[true,true,true,true,false,false,true,true,true,false,true,false,false,true,true,false,false,true,false,false,false,false,false],"id":7,"leaf_child_counts":[0,0,0,0,0,0,0,0,0,0,0,0,0,0,0,0,0,0,0,0,0,0,0],"left_children":[1,3,5,7,-1,-1,9,11,13,-1,15,-1,-1,17,19,-1,-1,21,-1,-1,-1,-1,-1],"loss_changes":[2.6649225E2,7.266136E2,8.592615E0,2.2905273E1,0E0,0E0,5.8937017E-3,1.1017563E0,3.446437E1,0E0,2.0373855E-3,0E0,0E0,1.2216385E1,1.2158304E-3,0E0,0E0,6.6098366E0,0E0,0E0,0E0,0E0,0E0],"parents":[2147483647,0,0,1,1,2,2,3,3,6,6,7,7,8,8,10,10,13,13,14,14,17,17],"right_children":[2,4,6,8,-1,-1,10,12,14,-1,16,-1,-1,18,20,-1,-1,22,-1,-1,-1,-1,-1],"split_conditions":[4.8161462E2,4.784931E2,4.8713745E2,4.174525E2,2.5364194E0,1.884766E-1,4.9210248E2,4.072751E2,4.7286588E2,-2.0860543E-2,5.2171466E2,1.4892167E-1,-7.842178E-3,4.707071E2,4.7549237E2,-7.884291E-3,-3.1295486E-3,4.4707526E2,9.785819E-1,-1.9075207E-2,-8.6071E-3,5.437933E-1,-1.8979225E-2],"split_indices":[0,0,0,0,0,0,0,0,0,0,0,0,0,0,0,0,0,0,0,0,0,0,0],"sum_hessian":[1.58E2,7.8E1,8E1,6.1E1,1.7E1,3.6E1,4.4E1,2.3E1,3.8E1,2E0,4.2E1,1.8E1,5E0,2.9E1,9E0,2.8E1,1.4E1,2.1E1,8E0,3E0,6E0,1.9E1,2E0],"tree_param":{"num_deleted":"0","num_feature":"1","num_nodes":"23","size_leaf_vector":"0"}},{"base_weights":[1.1213226E0,2.0588727E0,1.9307846E-1,8.642738E-1,6.0592203E0,4.4487274E-1,-1.8243024E-2,2.7639523E-1,1.2038842E0,-5.5628117E-2,-1.5210505E-2,3.5532203E-1,-1.9605443E-2,1.5765929E0,-3.4630023E-2,-2.2752745E-2,-1.0784846E-2,1.1713178E0,2.3920884E0,-4.927762E-2,-2.1312822E-2,-1.3339779E-2,-7.5109224E-3,1.2960413E0,-5.061127E-2],"default_left":[true,true,true,true,false,false,true,true,true,false,true,false,false,true,true,false,true,true,false,false,false,false,false,false,false],"id":8,"leaf_child_counts":[0,0,0,0,0,0,0,0,0,0,0,0,0,0,0,0,0,0,0,0,0,0,0,0,0],"left_children":[1,3,5,7,-1,-1,9,11,13,-1,15,-1,-1,17,19,-1,21,23,-1,-1,-1,-1,-1,-1,-1],"loss_changes":[1.3797626E2,3.7228918E2,4.3180885E0,1.204554E1,0E0,0E0,4.255563E-3,5.6766343E-1,1.8057194E1,0E0,1.1899285E-3,0E0,0E0,7.113098E0,9.0040546E-4,0E0,1.4238106E-4,3.4184628E0,0E0,0E0,0E0,0E0,0E0,0E0,0E0],"parents":[2147483647,0,0,1,1,2,2,3,3,6,6,7,7,8,8,10,10,13,13,14,14,16,16,17,17],"right_children":[2,4,6,8,-1,-1,10,12,14,-1,16,-1,-1,18,20,-1,22,24,-1,-1,-1,-1,-1,-1,-1],"split_conditions":[4.8161462E2,4.784931E2,4.8713745E2,4.174525E2,1.8177662E0,1.3346183E-1,4.9210248E2,4.072751E2,4.7286588E2,-1.6688436E-2,5.006853E2,1.0659661E-1,-5.881633E-3,4.707071E2,4.7549237E2,-6.825824E-3,5.2171466E2,4.4707526E2,7.176266E-1,-1.47832865E-2,-6.3938466E-3,-4.001934E-3,-2.2532768E-3,3.888124E-1,-1.5183381E-2],"split_indices":[0,0,0,0,0,0,0,0,0,0,0,0,0,0,0,0,0,0,0,0,0,0,0,0,0],"sum_hessian":[1.58E2,7.8E1,8E1,6.1E1,1.7E1,3.6E1,4.4E1,2.3E1,3.8E1,2E0,4.2E1,1.8E1,5E0,2.9E1,9E0,1.4E1,2.8E1,2.1E1,8E0,3E0,6E0,1.4E1,1.4E1,1.9E1,2E0],"tree_param":{"num_deleted":"0","num_feature":"1","num_nodes":"25","size_leaf_vector":"0"}},{"base_weights":[8.0437404E-1,1.479041E0,1.36435E-1,6.238752E-1,4.342443E0,3.1501785E-1,-1.3431662E-2,1.9767323E-1,8.701565E-1,-4.4502493E-2,-1.0951565E-2,2.5433588E-1,-1.4704078E-2,1.1399897E0,-2.6358726E-2,-1.638198E-2,-7.7650896E-3,8.369049E-1,1.7541983E0,-3.8190152E-2,-1.5832378E-2,-9.604631E-3,-5.407876E-3,9.2666876E-1,-4.048901E-2],"default_left":[true,true,true,true,false,false,true,true,true,false,true,false,false,true,true,false,true,true,false,false,false,false,false,false,false],"id":9,"leaf_child_counts":[0,0,0,0,0,0,0,0,0,0,0,0,0,0,0,0,0,0,0,0,0,0,0,0,0],"left_children":[1,3,5,7,-1,-1,9,11,13,-1,15,-1,-1,17,19,-1,21,23,-1,-1,-1,-1,-1,-1,-1],"loss_changes":[7.144939E1,1.9073683E2,2.1720839E0,6.335861E0,0E0,0E0,2.9802686E-3,2.925524E-1,9.4645195E0,0E0,6.168592E-4,0E0,0E0,4.116623E0,6.407765E-4,0E0,7.3808944E-5,1.7702007E0,0E0,0E0,0E0,0E0,0E0,0E0,0E0],"parents":[2147483647,0,0,1,1,2,2,3,3,6,6,7,7,8,8,10,10,13,13,14,14,16,16,17,17],"right_children":[2,4,6,8,-1,-1,10,12,14,-1,16,-1,-1,18,20,-1,22,24,-1,-1,-1,-1,-1,-1,-1],"split_conditions":[4.8161462E2,4.784931E2,4.8713745E2,4.174525E2,1.302733E0,9.450536E-2,4.9210248E2,4.072751E2,4.7286588E2,-1.3350748E-2,5.006853E2,7.630077E-2,-4.411224E-3,4.707071E2,4.7549237E2,-4.9145943E-3,5.2171466E2,4.4707526E2,5.2625954E-1,-1.14570465E-2,-4.7497135E-3,-2.8813893E-3,-1.6223629E-3,2.7800065E-1,-1.2146704E-2],"split_indices":[0,0,0,0,0,0,0,0,0,0,0,0,0,0,0,0,0,0,0,0,0,0,0,0,0],"sum_hessian":[1.58E2,7.8E1,8E1,6.1E1,1.7E1,3.6E1,4.4E1,2.3E1,3.8E1,2E0,4.2E1,1.8E1,5E0,2.9E1,9E0,1.4E1,2.8E1,2.1E1,8E0,3E0,6E0,1.4E1,1.4E1,1.9E1,2E0],"tree_param":{"num_deleted":"0","num_feature":"1","num_nodes":"25","size_leaf_vector":"0"}},{"base_weights":[5.770382E-1,1.0625503E0,9.639015E-2,4.5038694E-1,3.1120825E0,2.2306673E-1,-9.90815E-3,1.4136676E-1,6.290048E-1,-3.5601992E-2,-7.885134E-3,1.8205109E-1,-1.1028062E-2,8.2439685E-1,-2.0071782E-2,-1.1795023E-2,-5.5908766E-3,5.9791833E-1,1.2864113E0,-2.9597368E-2,-1.1761193E-2,-6.915345E-3,-3.8936834E-3,6.6256887E-1,-3.239121E-2],"default_left":[true,true,true,true,false,false,true,true,true,false,true,false,false,true,true,false,true,true,false,false,false,false,false,false,false],"id":10,"leaf_child_counts":[0,0,0,0,0,0,0,0,0,0,0,0,0,0,0,0,0,0,0,0,0,0,0,0,0],"left_children":[1,3,5,7,-1,-1,9,11,13,-1,15,-1,-1,17,19,-1,21,23,-1,-1,-1,-1,-1,-1,-1],"loss_changes":[3.70019E1,9.771559E1,1.0929161E0,3.3332644E0,0E0,0E0,2.058331E-3,1.5080959E-1,4.962698E0,0E0,3.19778E-4,0E0,0E0,2.3699207E0,4.4353167E-4,0E0,3.826234E-5,9.179578E-1,0E0,0E0,0E0,0E0,0E0,0E0,0E0],"parents":[2147483647,0,0,1,1,2,2,3,3,6,6,7,7,8,8,10,10,13,13,14,14,16,16,17,17],"right_children":[2,4,6,8,-1,-1,10,12,14,-1,16,-1,-1,18,20,-1,22,24,-1,-1,-1,-1,-1,-1,-1],"split_conditions":[4.8161462E2,4.784931E2,4.8713745E2,4.174525E2,9.336248E-1,6.692002E-2,4.9210248E2,4.072751E2,4.7286588E2,-1.0680598E-2,5.006853E2,5.461533E-2,-3.3084187E-3,4.707071E2,4.7549237E2,-3.5385073E-3,5.2171466E2,4.4707526E2,3.8592342E-1,-8.879211E-3,-3.5283582E-3,-2.0746035E-3,-1.168105E-3,1.9877067E-1,-9.717363E-3],"split_indices":[0,0,0,0,0,0,0,0,0,0,0,0,0,0,0,0,0,0,0,0,0,0,0,0,0],"sum_hessian":[1.58E2,7.8E1,8E1,6.1E1,1.7E1,3.6E1,4.4E1,2.3E1,3.8E1,2E0,4.2E1,1.8E1,5E0,2.9E1,9E0,1.4E1,2.8E1,2.1E1,8E0,3E0,6E0,1.4E1,1.4E1,1.9E1,2E0],"tree_param":{"num_deleted":"0","num_feature":"1","num_nodes":"25","size_leaf_vector":"0"}},{"base_weights":[4.1397062E-1,7.63374E-1,6.808381E-2,3.2517207E-1,2.2303264E0,1.579556E-1,-7.3237484E-3,1.01094395E-1,4.5472828E-1,-2.8481593E-2,-5.6772996E-3,1.303101E-1,-8.271049E-3,5.9624374E-1,-1.5291004E-2,-8.4924195E-3,-4.0254346E-3,4.2713636E-1,9.433681E-1,-2.2937957E-2,-8.736888E-3,-4.979052E-3,-2.8034549E-3,4.7373694E-1,-2.591297E-2],"default_left":[true,true,true,true,false,false,true,true,true,false,true,false,false,true,true,false,true,true,false,false,false,false,false,false,false],"id":11,"leaf_child_counts":[0,0,0,0,0,0,0,0,0,0,0,0,0,0,0,0,0,0,0,0,0,0,0,0,0],"left_children":[1,3,5,7,-1,-1,9,11,13,-1,15,-1,-1,17,19,-1,21,23,-1,-1,-1,-1,-1,-1,-1],"loss_changes":[1.9163813E1,5.0057644E1,5.5009484E-1,1.7539301E0,0E0,0E0,1.4058901E-3,7.7762336E-2,2.6032028E0,0E0,1.6577274E-4,0E0,0E0,1.3580923E0,3.007839E-4,0E0,1.9835192E-5,4.76748E-1,0E0,0E0,0E0,0E0,0E0,0E0,0E0],"parents":[2147483647,0,0,1,1,2,2,3,3,6,6,7,7,8,8,10,10,13,13,14,14,16,16,17,17],"right_children":[2,4,6,8,-1,-1,10,12,14,-1,16,-1,-1,18,20,-1,22,24,-1,-1,-1,-1,-1,-1,-1],"split_conditions":[4.8161462E2,4.784931E2,4.8713745E2,4.174525E2,6.6909796E-1,4.7386684E-2,4.9210248E2,4.072751E2,4.7286588E2,-8.544479E-3,5.006853E2,3.9093032E-2,-2.4813148E-3,4.707071E2,4.7549237E2,-2.547726E-3,5.2171466E2,4.4707526E2,2.8301042E-1,-6.8813874E-3,-2.6210665E-3,-1.4937157E-3,-8.410365E-4,1.4212109E-1,-7.7738916E-3],"split_indices":[0,0,0,0,0,0,0,0,0,0,0,0,0,0,0,0,0,0,0,0,0,0,0,0,0],"sum_hessian":[1.58E2,7.8E1,8E1,6.1E1,1.7E1,3.6E1,4.4E1,2.3E1,3.8E1,2E0,4.2E1,1.8E1,5E0,2.9E1,9E0,1.4E1,2.8E1,2.1E1,8E0,3E0,6E0,1.4E1,1.4E1,1.9E1,2E0],"tree_param":{"num_deleted":"0","num_feature":"1","num_nodes":"25","size_leaf_vector":"0"}},{"base_weights":[2.9699668E-1,5.4845774E-1,4.8077926E-2,2.3478952E-1,1.5984006E0,1.1184964E-1,-5.424994E-3,7.2291575E-2,3.2876801E-1,-2.2785274E-2,-4.087649E-3,9.327461E-2,-6.2032887E-3,4.3128306E-1,-1.1653947E-2,-6.1145416E-3,-2.8983026E-3,3.0510277E-1,6.918034E-1,-1.7776918E-2,-6.4902566E-3,-3.5849113E-3,-2.0184736E-3,3.3872262E-1,-2.0730376E-2],"default_left":[true,true,true,true,false,false,true,true,true,false,true,false,false,true,true,false,true,true,false,false,false,false,false,false,false],"id":12,"leaf_child_counts":[0,0,0,0,0,0,0,0,0,0,0,0,0,0,0,0,0,0,0,0,0,0,0,0,0],"left_children":[1,3,5,7,-1,-1,9,11,13,-1,15,-1,-1,17,19,-1,21,23,-1,-1,-1,-1,-1,-1,-1],"loss_changes":[9.925978E0,2.5642075E1,2.769766E-1,9.2305446E-1,0E0,0E0,9.516126E-4,4.010804E-2,1.3660622E0,0E0,8.593738E-5,0E0,0E0,7.75105E-1,2.0079454E-4,0E0,1.0282805E-5,2.480197E-1,0E0,0E0,0E0,0E0,0E0,0E0,0E0],"parents":[2147483647,0,0,1,1,2,2,3,3,6,6,7,7,8,8,10,10,13,13,14,14,16,16,17,17],"right_children":[2,4,6,8,-1,-1,10,12,14,-1,16,-1,-1,18,20,-1,22,24,-1,-1,-1,-1,-1,-1,-1],"split_conditions":[4.8161462E2,4.784931E2,4.8713745E2,4.174525E2,4.795202E-1,3.3554893E-2,4.9210248E2,4.072751E2,4.7286588E2,-6.8355827E-3,5.006853E2,2.7982384E-2,-1.8609867E-3,4.707071E2,4.7549237E2,-1.8343625E-3,5.2171466E2,4.4707526E2,2.0754103E-1,-5.3330753E-3,-1.9470771E-3,-1.0754735E-3,-6.055421E-4,1.0161679E-1,-6.2191132E-3],"split_indices":[0,0,0,0,0,0,0,0,0,0,0,0,0,0,0,0,0,0,0,0,0,0,0,0,0],"sum_hessian":[1.58E2,7.8E1,8E1,6.1E1,1.7E1,3.6E1,4.4E1,2.3E1,3.8E1,2E0,4.2E1,1.8E1,5E0,2.9E1,9E0,1.4E1,2.8E1,2.1E1,8E0,3E0,6E0,1.4E1,1.4E1,1.9E1,2E0],"tree_param":{"num_deleted":"0","num_feature":"1","num_nodes":"25","size_leaf_vector":"0"}},{"base_weights":[2.1308298E-1,3.94063E-1,3.394096E-2,1.6954279E-1,1.145518E0,7.9201505E-2,-4.0275124E-3,5.16926E-2,2.3771873E-1,-1.822822E-2,-2.9431023E-3,6.676512E-2,-4.6524755E-3,3.1199628E-1,-8.885779E-3,-4.4024694E-3,-2.086771E-3,2.1790896E-1,5.0732124E-1,-1.3777111E-2,-4.821335E-3,-2.5811335E-3,-1.4532903E-3,2.421875E-1,-1.6584301E-2],"default_left":[true,true,true,true,false,false,true,true,true,false,true,false,false,true,true,false,true,true,false,false,false,false,false,false,false],"id":13,"leaf_child_counts":[0,0,0,0,0,0,0,0,0,0,0,0,0,0,0,0,0,0,0,0,0,0,0,0,0],"left_children":[1,3,5,7,-1,-1,9,11,13,-1,15,-1,-1,17,19,-1,21,23,-1,-1,-1,-1,-1,-1,-1],"loss_changes":[5.141584E0,1.3134416E1,1.3951534E-1,4.858538E-1,0E0,0E0,6.3932507E-4,2.0692915E-2,7.1714234E-1,0E0,4.4550252E-5,0E0,0E0,4.4077826E-1,1.3238139E-4,0E0,5.3307594E-6,1.292659E-1,0E0,0E0,0E0,0E0,0E0,0E0,0E0],"parents":[2147483647,0,0,1,1,2,2,3,3,6,6,7,7,8,8,10,10,13,13,14,14,16,16,17,17],"right_children":[2,4,6,8,-1,-1,10,12,14,-1,16,-1,-1,18,20,-1,22,24,-1,-1,-1,-1,-1,-1,-1],"split_conditions":[4.8161462E2,4.784931E2,4.8713745E2,4.174525E2,3.436554E-1,2.3760453E-2,4.9210248E2,4.072751E2,4.7286588E2,-5.4684663E-3,5.006853E2,2.0029537E-2,-1.3957426E-3,4.707071E2,4.7549237E2,-1.3207409E-3,5.2171466E2,4.4707526E2,1.5219638E-1,-4.133133E-3,-1.4464005E-3,-7.7434006E-4,-4.359871E-4,7.265625E-2,-4.9752905E-3],"split_indices":[0,0,0,0,0,0,0,0,0,0,0,0,0,0,0,0,0,0,0,0,0,0,0,0,0],"sum_hessian":[1.58E2,7.8E1,8E1,6.1E1,1.7E1,3.6E1,4.4E1,2.3E1,3.8E1,2E0,4.2E1,1.8E1,5E0,2.9E1,9E0,1.4E1,2.8E1,2.1E1,8E0,3E0,6E0,1.4E1,1.4E1,1.9E1,2E0],"tree_param":{"num_deleted":"0","num_feature":"1","num_nodes":"25","size_leaf_vector":"0"}},{"base_weights":[1.5288329E-1,2.831421E-1,2.3953326E-2,1.2243701E-1,8.209517E-1,5.6083396E-2,-2.9970265E-3,3.696122E-2,1.7189808E-1,-1.4582575E-2,-2.1190343E-3,4.7789764E-2,-3.489365E-3,2.2572683E-1,-6.7779967E-3,-3.1697839E-3,-1.5024728E-3,1.5561244E-1,3.720368E-1,-1.0677259E-2,-3.5815611E-3,-1.8584033E-3,-1.0463775E-3,1.731638E-1,-1.3267443E-2],"default_left":[true,true,true,true,false,false,true,true,true,false,true,false,false,true,true,false,true,true,false,false,false,false,false,false,false],"id":14,"leaf_child_counts":[0,0,0,0,0,0,0,0,0,0,0,0,0,0,0,0,0,0,0,0,0,0,0,0,0],"left_children":[1,3,5,7,-1,-1,9,11,13,-1,15,-1,-1,17,19,-1,21,23,-1,-1,-1,-1,-1,-1,-1],"loss_changes":[2.6635053E0,6.727355E0,7.030733E-2,2.5576544E-1,0E0,0E0,4.2684007E-4,1.0679256E-2,3.7662852E-1,0E0,2.3095112E-5,0E0,0E0,2.4985945E-1,8.6396176E-5,0E0,2.7632195E-6,6.750703E-2,0E0,0E0,0E0,0E0,0E0,0E0,0E0],"parents":[2147483647,0,0,1,1,2,2,3,3,6,6,7,7,8,8,10,10,13,13,14,14,16,16,17,17],"right_children":[2,4,6,8,-1,-1,10,12,14,-1,16,-1,-1,18,20,-1,22,24,-1,-1,-1,-1,-1,-1,-1],"split_conditions":[4.8161462E2,4.784931E2,4.8713745E2,4.174525E2,2.4628551E-1,1.682502E-2,4.9210248E2,4.072751E2,4.7286588E2,-4.374773E-3,5.006853E2,1.433693E-2,-1.0468096E-3,4.707071E2,4.7549237E2,-9.509352E-4,5.2171466E2,4.4707526E2,1.11611046E-1,-3.203178E-3,-1.0744684E-3,-5.57521E-4,-3.1391325E-4,5.1949143E-2,-3.980233E-3],"split_indices":[0,0,0,0,0,0,0,0,0,0,0,0,0,0,0,0,0,0,0,0,0,0,0,0,0],"sum_hessian":[1.58E2,7.8E1,8E1,6.1E1,1.7E1,3.6E1,4.4E1,2.3E1,3.8E1,2E0,4.2E1,1.8E1,5E0,2.9E1,9E0,1.4E1,2.8E1,2.1E1,8E0,3E0,6E0,1.4E1,1.4E1,1.9E1,2E0],"tree_param":{"num_deleted":"0","num_feature":"1","num_nodes":"25","size_leaf_vector":"0"}},{"base_weights":[1.09694585E-1,2.0345147E-1,1.6898436E-2,8.842536E-2,5.8834964E-1,3.9712895E-2,-2.2356382E-3,2.6426507E-2,1.2431119E-1,-1.166606E-2,-1.5257101E-3,3.420728E-2,-2.6170264E-3,1.6332866E-1,-5.172361E-3,-2.282247E-3,-1.0817873E-3,1.1110962E-1,2.7282757E-1,-8.2748765E-3,-2.6605863E-3,-1.3380587E-3,-7.533968E-4,1.23812675E-1,-1.0613953E-2],"default_left":[true,true,true,true,false,false,true,true,true,false,true,false,false,true,true,false,true,true,false,false,false,false,false,false,false],"id":15,"leaf_child_counts":[0,0,0,0,0,0,0,0,0,0,0,0,0,0,0,0,0,0,0,0,0,0,0,0,0],"left_children":[1,3,5,7,-1,-1,9,11,13,-1,15,-1,-1,17,19,-1,21,23,-1,-1,-1,-1,-1,-1,-1],"loss_changes":[1.3799063E0,3.445569E0,3.5448E-2,1.3465741E-1,0E0,0E0,2.8347241E-4,5.51307E-3,1.9787753E-1,0E0,1.19723845E-5,0E0,0E0,1.4122409E-1,5.5912184E-5,0E0,1.4324687E-6,3.5331875E-2,0E0,0E0,0E0,0E0,0E0,0E0,0E0],"parents":[2147483647,0,0,1,1,2,2,3,3,6,6,7,7,8,8,10,10,13,13,14,14,16,16,17,17],"right_children":[2,4,6,8,-1,-1,10,12,14,-1,16,-1,-1,18,20,-1,22,24,-1,-1,-1,-1,-1,-1,-1],"split_conditions":[4.8161462E2,4.784931E2,4.8713745E2,4.174525E2,1.765049E-1,1.1913869E-2,4.9210248E2,4.072751E2,4.7286588E2,-3.4998183E-3,5.006853E2,1.0262185E-2,-7.8510796E-4,4.707071E2,4.7549237E2,-6.8467413E-4,5.2171466E2,4.4707526E2,8.184827E-2,-2.4824631E-3,-7.981759E-4,-4.0141764E-4,-2.2601904E-4,3.7143804E-2,-3.184186E-3],"split_indices":[0,0,0,0,0,0,0,0,0,0,0,0,0,0,0,0,0,0,0,0,0,0,0,0,0],"sum_hessian":[1.58E2,7.8E1,8E1,6.1E1,1.7E1,3.6E1,4.4E1,2.3E1,3.8E1,2E0,4.2E1,1.8E1,5E0,2.9E1,9E0,1.4E1,2.8E1,2.1E1,8E0,3E0,6E0,1.4E1,1.4E1,1.9E1,2E0],"tree_param":{"num_deleted":"0","num_feature":"1","num_nodes":"25","size_leaf_vector":"0"}},{"base_weights":[7.870821E-2,1.4619441E-1,1.1916629E-2,6.38656E-2,4.2164952E-1,2.8121123E-2,-1.6718798E-3,1.8893564E-2,8.9903116E-2,-9.33285E-3,-1.0985126E-3,2.4485374E-2,-1.962766E-3,1.1819029E-1,-3.9487183E-3,-1.6432137E-3,-7.788909E-4,7.932026E-2,2.0007366E-1,-6.4130295E-3,-1.9764379E-3,8.8525966E-2,-8.491163E-3],"default_left":[true,true,true,true,false,false,true,true,true,false,true,false,false,true,true,false,false,true,false,false,false,false,false],"id":16,"leaf_child_counts":[0,0,0,0,0,0,0,0,0,0,0,0,0,0,0,0,0,0,0,0,0,0,0],"left_children":[1,3,5,7,-1,-1,9,11,13,-1,15,-1,-1,17,19,-1,-1,21,-1,-1,-1,-1,-1],"loss_changes":[7.14952E-1,1.7646245E0,1.7882802E-2,7.090095E-2,0E0,0E0,1.8741244E-4,2.8470503E-3,1.04004055E-1,0E0,6.2063446E-6,0E0,0E0,7.961437E-2,3.592817E-5,0E0,7.426552E-7,1.8535748E-2,0E0,0E0,0E0,0E0,0E0],"parents":[2147483647,0,0,1,1,2,2,3,3,6,6,7,7,8,8,10,10,13,13,14,14,17,17],"right_children":[2,4,6,8,-1,-1,10,12,14,-1,16,-1,-1,18,20,-1,-1,22,-1,-1,-1,-1,-1],"split_conditions":[4.8161462E2,4.784931E2,4.8713745E2,4.174525E2,1.2649485E-1,8.436337E-3,4.9210248E2,4.072751E2,4.7286588E2,-2.799855E-3,5.006853E2,7.3456126E-3,-5.8882986E-4,4.707071E2,4.7549237E2,-4.929641E-4,-2.3366728E-4,4.4707526E2,6.00221E-2,-1.923909E-3,-5.929314E-4,2.655779E-2,-2.547349E-3],"split_indices":[0,0,0,0,0,0,0,0,0,0,0,0,0,0,0,0,0,0,0,0,0,0,0],"sum_hessian":[1.58E2,7.8E1,8E1,6.1E1,1.7E1,3.6E1,4.4E1,2.3E1,3.8E1,2E0,4.2E1,1.8E1,5E0,2.9E1,9E0,1.4E1,2.8E1,2.1E1,8E0,3E0,6E0,1.9E1,2E0],"tree_param":{"num_deleted":"0","num_feature":"1","num_nodes":"23","size_leaf_vector":"0"}},{"base_weights":[5.64774E-2,1.0505467E-1,8.40232E-3,4.6129823E-2,3.0218166E-1,1.9912926E-2,-1.2486755E-3,1.350698E-2,6.50226E-2,-7.4662804E-3,-7.8585016E-4,1.7526314E-2,-1.4720708E-3,8.553465E-2,-3.0157862E-3,-9.974627E-4,-3.2434266E-4,5.6615453E-2,1.4672215E-1,-4.9700974E-3,-1.4682104E-3,6.329594E-2,-6.7929304E-3],"default_left":[true,true,true,true,false,false,true,true,true,false,true,false,false,true,true,false,false,true,false,false,false,false,false],"id":17,"leaf_child_counts":[0,0,0,0,0,0,0,0,0,0,0,0,0,0,0,0,0,0,0,0,0,0,0],"left_children":[1,3,5,7,-1,-1,9,11,13,-1,15,-1,-1,17,19,-1,-1,21,-1,-1,-1,-1,-1],"loss_changes":[3.70439E-1,9.03699E-1,9.023059E-3,3.733459E-2,0E0,0E0,1.2362756E-4,1.470739E-3,5.4686606E-2,0E0,3.8758917E-6,0E0,0E0,4.4778064E-2,2.29473E-5,4.7579488E-7,0E0,9.749137E-3,0E0,0E0,0E0,0E0,0E0],"parents":[2147483647,0,0,1,1,2,2,3,3,6,6,7,7,8,8,10,10,13,13,14,14,17,17],"right_children":[2,4,6,8,-1,-1,10,12,14,-1,16,-1,-1,18,20,-1,-1,22,-1,-1,-1,-1,-1],"split_conditions":[4.8161462E2,4.784931E2,4.8713745E2,4.174525E2,9.06545E-2,5.9738783E-3,4.9210248E2,4.072751E2,4.7286588E2,-2.239884E-3,5.2171466E2,5.2578943E-3,-4.4162126E-4,4.707071E2,4.7549237E2,-2.992388E-4,-9.73028E-5,4.4707526E2,4.4016648E-2,-1.4910293E-3,-4.4046313E-4,1.8988783E-2,-2.0378793E-3],"split_indices":[0,0,0,0,0,0,0,0,0,0,0,0,0,0,0,0,0,0,0,0,0,0,0],"sum_hessian":[1.58E2,7.8E1,8E1,6.1E1,1.7E1,3.6E1,4.4E1,2.3E1,3.8E1,2E0,4.2E1,1.8E1,5E0,2.9E1,9E0,2.8E1,1.4E1,2.1E1,8E0,3E0,6E0,1.9E1,2E0],"tree_param":{"num_deleted":"0","num_feature":"1","num_nodes":"23","size_leaf_vector":"0"}},{"base_weights":[4.052697E-2,7.549414E-2,5.9228567E-3,3.3320308E-2,2.1656545E-1,1.4100565E-2,-9.3265565E-4,9.65542E-3,4.702895E-2,-5.9730248E-3,-5.593123E-4,1.2544971E-2,-1.1040618E-3,6.1905704E-2,-2.3041996E-3,-9.0382196E-4,-3.6183101E-4,4.0400635E-2,1.07595235E-1,-3.8518258E-3,-1.0906702E-3,4.525585E-2,-5.434344E-3],"default_left":[true,true,true,true,false,false,true,true,true,false,true,false,false,true,true,false,false,true,false,false,false,false,false],"id":18,"leaf_child_counts":[0,0,0,0,0,0,0,0,0,0,0,0,0,0,0,0,0,0,0,0,0,0,0],"left_children":[1,3,5,7,-1,-1,9,11,13,-1,15,-1,-1,17,19,-1,-1,21,-1,-1,-1,-1,-1],"loss_changes":[1.9194412E-1,4.6279588E-1,4.5542032E-3,1.9659556E-2,0E0,0E0,8.133969E-5,7.600121E-4,2.876541E-2,0E0,2.598441E-6,0E0,0E0,2.5129773E-2,1.4579826E-5,0E0,2.7882902E-7,5.141787E-3,0E0,0E0,0E0,0E0,0E0],"parents":[2147483647,0,0,1,1,2,2,3,3,6,6,7,7,8,8,10,10,13,13,14,14,17,17],"right_children":[2,4,6,8,-1,-1,10,12,14,-1,16,-1,-1,18,20,-1,-1,22,-1,-1,-1,-1,-1],"split_conditions":[4.8161462E2,4.784931E2,4.8713745E2,4.174525E2,6.496964E-2,4.2301696E-3,4.9210248E2,4.072751E2,4.7286588E2,-1.7919075E-3,5.006853E2,3.7634915E-3,-3.3121856E-4,4.707071E2,4.7549237E2,-2.711466E-4,-1.08549306E-4,4.4707526E2,3.227857E-2,-1.1555478E-3,-3.272011E-4,1.3576756E-2,-1.6303033E-3],"split_indices":[0,0,0,0,0,0,0,0,0,0,0,0,0,0,0,0,0,0,0,0,0,0,0],"sum_hessian":[1.58E2,7.8E1,8E1,6.1E1,1.7E1,3.6E1,4.4E1,2.3E1,3.8E1,2E0,4.2E1,1.8E1,5E0,2.9E1,9E0,1.4E1,2.8E1,2.1E1,8E0,3E0,6E0,1.9E1,2E0],"tree_param":{"num_deleted":"0","num_feature":"1","num_nodes":"23","size_leaf_vector":"0"}},{"base_weights":[2.9080594E-2,5.425222E-2,4.1714692E-3,2.4068872E-2,1.5520307E-1,9.984854E-3,-7.0112414E-4,6.901668E-3,3.4016155E-2,-4.77842E-3,-4.0035642E-4,8.979383E-3,-8.280426E-4,4.480807E-2,-1.7612154E-3,-6.507566E-4,-2.5703374E-4,2.8823854E-2,7.8901924E-2,-2.985165E-3,-8.102134E-4,3.235836E-2,-4.3474757E-3],"default_left":[true,true,true,true,false,false,true,true,true,false,true,false,false,true,true,false,false,true,false,false,false,false,false],"id":19,"leaf_child_counts":[0,0,0,0,0,0,0,0,0,0,0,0,0,0,0,0,0,0,0,0,0,0,0],"left_children":[1,3,5,7,-1,-1,9,11,13,-1,15,-1,-1,17,19,-1,-1,21,-1,-1,-1,-1,-1],"loss_changes":[9.94672E-2,2.369802E-1,2.3014278E-3,1.0352787E-2,0E0,0E0,5.327128E-5,3.9287866E-4,1.5137069E-2,0E0,1.3759186E-6,0E0,0E0,1.407465E-2,9.221163E-6,0E0,3.415223E-7,2.7200524E-3,0E0,0E0,0E0,0E0,0E0],"parents":[2147483647,0,0,1,1,2,2,3,3,6,6,7,7,8,8,10,10,13,13,14,14,17,17],"right_children":[2,4,6,8,-1,-1,10,12,14,-1,16,-1,-1,18,20,-1,-1,22,-1,-1,-1,-1,-1],"split_conditions":[4.8161462E2,4.784931E2,4.8713745E2,4.174525E2,4.6560925E-2,2.9954563E-3,4.9210248E2,4.072751E2,4.7286588E2,-1.433526E-3,5.006853E2,2.693815E-3,-2.484128E-4,4.707071E2,4.7549237E2,-1.9522698E-4,-7.7110126E-5,4.4707526E2,2.3670578E-2,-8.9554954E-4,-2.4306403E-4,9.707509E-3,-1.3042428E-3],"split_indices":[0,0,0,0,0,0,0,0,0,0,0,0,0,0,0,0,0,0,0,0,0,0,0],"sum_hessian":[1.58E2,7.8E1,8E1,6.1E1,1.7E1,3.6E1,4.4E1,2.3E1,3.8E1,2E0,4.2E1,1.8E1,5E0,2.9E1,9E0,1.4E1,2.8E1,2.1E1,8E0,3E0,6E0,1.9E1,2E0],"tree_param":{"num_deleted":"0","num_feature":"1","num_nodes":"23","size_leaf_vector":"0"}},{"base_weights":[2.0867063E-2,3.898801E-2,2.9359288E-3,1.7386366E-2,1.1122767E-1,7.0703225E-3,-5.287043E-4,4.9331784E-3,2.4604062E-2,-3.8227364E-3,-2.8659264E-4,6.4275013E-3,-6.2104064E-4,3.2434184E-2,-1.3467101E-3,-3.9377756E-4,-6.0262282E-5,2.0557716E-2,5.7861753E-2,-2.3135035E-3,-6.018696E-4,2.3135185E-2,-3.4779806E-3],"default_left":[true,true,true,true,false,false,true,true,true,false,true,false,false,true,true,false,false,true,false,false,false,false,false],"id":20,"leaf_child_counts":[0,0,0,0,0,0,0,0,0,0,0,0,0,0,0,0,0,0,0,0,0,0,0],"left_children":[1,3,5,7,-1,-1,9,11,13,-1,15,-1,-1,17,19,-1,-1,21,-1,-1,-1,-1,-1],"loss_changes":[5.1549263E-2,1.2134529E-1,1.1639948E-3,5.4513887E-3,0E0,0E0,3.479299E-5,2.0318688E-4,7.9683885E-3,0E0,1.0194158E-6,0E0,0E0,7.870186E-3,5.8086425E-6,8.1897724E-8,0E0,1.4433917E-3,0E0,0E0,0E0,0E0,0E0],"parents":[2147483647,0,0,1,1,2,2,3,3,6,6,7,7,8,8,10,10,13,13,14,14,17,17],"right_children":[2,4,6,8,-1,-1,10,12,14,-1,16,-1,-1,18,20,-1,-1,22,-1,-1,-1,-1,-1],"split_conditions":[4.8161462E2,4.784931E2,4.8713745E2,4.174525E2,3.33683E-2,2.121097E-3,4.9210248E2,4.072751E2,4.7286588E2,-1.146821E-3,5.2171466E2,1.9282504E-3,-1.863122E-4,4.707071E2,4.7549237E2,-1.1813327E-4,-1.8078685E-5,4.4707526E2,1.7358527E-2,-6.940511E-4,-1.8056089E-4,6.9405558E-3,-1.0433942E-3],"split_indices":[0,0,0,0,0,0,0,0,0,0,0,0,0,0,0,0,0,0,0,0,0,0,0],"sum_hessian":[1.58E2,7.8E1,8E1,6.1E1,1.7E1,3.6E1,4.4E1,2.3E1,3.8E1,2E0,4.2E1,1.8E1,5E0,2.9E1,9E0,2.8E1,1.4E1,2.1E1,8E0,3E0,6E0,1.9E1,2E0],"tree_param":{"num_deleted":"0","num_feature":"1","num_nodes":"23","size_leaf_vector":"0"}},{"base_weights":[1.4973568E-2,2.8018827E-2,2.0655552E-3,1.25596095E-2,7.971064E-2,5.006674E-3,-3.9859937E-4,3.5257488E-3,1.7796868E-2,-3.0581888E-3,-2.0377684E-4,4.6006627E-3,-4.6577057E-4,2.3479315E-2,-1.0301603E-3,1.465812E-2,4.2433422E-2,-1.792965E-3,-4.4710614E-4,1.6541291E-2,-2.7823846E-3],"default_left":[true,true,true,true,false,false,true,true,true,false,false,false,false,true,true,true,false,false,false,false,false],"id":21,"leaf_child_counts":[0,0,0,0,0,0,0,0,0,0,0,0,0,0,0,0,0,0,0,0,0],"left_children":[1,3,5,7,-1,-1,9,11,13,-1,-1,-1,-1,15,17,19,-1,-1,-1,-1,-1],"loss_changes":[2.6715878E-2,6.212895E-2,5.890328E-4,2.870638E-3,0E0,0E0,2.2693468E-5,1.0511582E-4,4.196546E-3,0E0,5.358287E-7,0E0,0E0,4.3939427E-3,3.6459187E-6,7.6857954E-4,0E0,0E0,0E0,0E0,0E0],"parents":[2147483647,0,0,1,1,2,2,3,3,6,6,7,7,8,8,13,13,14,14,15,15],"right_children":[2,4,6,8,-1,-1,10,12,14,-1,-1,-1,-1,16,18,20,-1,-1,-1,-1,-1],"split_conditions":[4.8161462E2,4.784931E2,4.8713745E2,4.174525E2,2.3913193E-2,1.5020024E-3,4.9210248E2,4.072751E2,4.7286588E2,-9.174567E-4,-6.1133054E-5,1.3801989E-3,-1.3973117E-4,4.707071E2,4.7549237E2,4.4707526E2,1.2730028E-2,-5.3788954E-4,-1.3413184E-4,4.9623875E-3,-8.3471544E-4],"split_indices":[0,0,0,0,0,0,0,0,0,0,0,0,0,0,0,0,0,0,0,0,0],"sum_hessian":[1.58E2,7.8E1,8E1,6.1E1,1.7E1,3.6E1,4.4E1,2.3E1,3.8E1,2E0,4.2E1,1.8E1,5E0,2.9E1,9E0,2.1E1,8E0,3E0,6E0,1.9E1,2E0],"tree_param":{"num_deleted":"0","num_feature":"1","num_nodes":"21","size_leaf_vector":"0"}},{"base_weights":[1.0745068E-2,2.013705E-2,1.4523333E-3,9.0728095E-3,5.712848E-2,3.5452328E-3,-3.0076926E-4,2.519887E-3,1.2872741E-2,-2.4465509E-3,-1.4406894E-4,3.2933261E-3,-3.49318E-4,1.6997334E-2,-7.883139E-4,1.0448018E-2,3.111818E-2,-1.3895482E-3,-3.3213518E-4,1.1826706E-2,-2.2259082E-3],"default_left":[true,true,true,true,false,false,true,true,true,false,false,false,false,true,true,true,false,false,false,false,false],"id":22,"leaf_child_counts":[0,0,0,0,0,0,0,0,0,0,0,0,0,0,0,0,0,0,0,0,0],"left_children":[1,3,5,7,-1,-1,9,11,13,-1,-1,-1,-1,15,17,19,-1,-1,-1,-1,-1],"loss_changes":[1.3847824E-2,3.1814966E-2,2.9826077E-4,1.5114029E-3,0E0,0E0,1.47785395E-5,5.441015E-5,2.2109048E-3,0E0,5.654893E-7,0E0,0E0,2.4493337E-3,2.2811846E-6,4.1073957E-4,0E0,0E0,0E0,0E0,0E0],"parents":[2147483647,0,0,1,1,2,2,3,3,6,6,7,7,8,8,13,13,14,14,15,15],"right_children":[2,4,6,8,-1,-1,10,12,14,-1,-1,-1,-1,16,18,20,-1,-1,-1,-1,-1],"split_conditions":[4.8161462E2,4.784931E2,4.8713745E2,4.174525E2,1.7138544E-2,1.0635699E-3,4.9210248E2,4.072751E2,4.7286588E2,-7.339653E-4,-4.3220683E-5,9.879979E-4,-1.0479541E-4,4.707071E2,4.7549237E2,4.4707526E2,9.335455E-3,-4.1686447E-4,-9.964056E-5,3.5480119E-3,-6.677725E-4],"split_indices":[0,0,0,0,0,0,0,0,0,0,0,0,0,0,0,0,0,0,0,0,0],"sum_hessian":[1.58E2,7.8E1,8E1,6.1E1,1.7E1,3.6E1,4.4E1,2.3E1,3.8E1,2E0,4.2E1,1.8E1,5E0,2.9E1,9E0,2.1E1,8E0,3E0,6E0,1.9E1,2E0],"tree_param":{"num_deleted":"0","num_feature":"1","num_nodes":"21","size_leaf_vector":"0"}},{"base_weights":[7.710719E-3,1.4472948E-2,1.0202642E-3,6.5541253E-3,4.094484E-2,2.510625E-3,-2.2781607E-4,1.8007122E-3,9.311248E-3,-1.9572403E-3,-1.01860525E-4,2.3573197E-3,-2.619972E-4,1.2305778E-2,-6.0346833E-4,7.444829E-3,2.2820791E-2,-1.0769004E-3,-2.4672598E-4,8.456421E-3,-1.780726E-3],"default_left":[true,true,true,true,false,false,true,true,true,false,false,false,false,true,true,true,false,false,false,false,false],"id":23,"leaf_child_counts":[0,0,0,0,0,0,0,0,0,0,0,0,0,0,0,0,0,0,0,0,0],"left_children":[1,3,5,7,-1,-1,9,11,13,-1,-1,-1,-1,15,17,19,-1,-1,-1,-1,-1],"loss_changes":[7.178774E-3,1.6292114E-2,1.5123925E-4,7.9578906E-4,0E0,0E0,9.603009E-6,2.8172486E-5,1.1653332E-3,0E0,5.8234673E-7,0E0,0E0,1.3634916E-3,1.4232332E-6,2.2037362E-4,0E0,0E0,0E0,0E0,0E0],"parents":[2147483647,0,0,1,1,2,2,3,3,6,6,7,7,8,8,13,13,14,14,15,15],"right_children":[2,4,6,8,-1,-1,10,12,14,-1,-1,-1,-1,16,18,20,-1,-1,-1,-1,-1],"split_conditions":[4.8161462E2,4.784931E2,4.8713745E2,4.174525E2,1.2283453E-2,7.531875E-4,4.9210248E2,4.072751E2,4.7286588E2,-5.871721E-4,-3.055816E-5,7.0719596E-4,-7.859916E-5,4.707071E2,4.7549237E2,4.4707526E2,6.8462375E-3,-3.2307013E-4,-7.401779E-5,2.5369264E-3,-5.342178E-4],"split_indices":[0,0,0,0,0,0,0,0,0,0,0,0,0,0,0,0,0,0,0,0,0],"sum_hessian":[1.58E2,7.8E1,8E1,6.1E1,1.7E1,3.6E1,4.4E1,2.3E1,3.8E1,2E0,4.2E1,1.8E1,5E0,2.9E1,9E0,2.1E1,8E0,3E0,6E0,1.9E1,2E0],"tree_param":{"num_deleted":"0","num_feature":"1","num_nodes":"21","size_leaf_vector":"0"}},{"base_weights":[5.532624E-3,1.0401403E-2,7.157586E-4,4.7341962E-3,2.9343924E-2,1.7775844E-3,-1.7320398E-4,1.2867227E-3,6.7343293E-3,-1.5657917E-3,-7.20187E-5,1.6873886E-3,-1.9650657E-4,8.908674E-3,-4.6213885E-4,5.302371E-3,1.673423E-2,6.046295E-3,-1.4245808E-3],"default_left":[true,true,true,true,false,false,true,true,true,false,false,false,false,true,false,true,false,false,false],"id":24,"leaf_child_counts":[0,0,0,0,0,0,0,0,0,0,0,0,0,0,0,0,0,0,0],"left_children":[1,3,5,7,-1,-1,9,11,13,-1,-1,-1,-1,15,-1,17,-1,-1,-1],"loss_changes":[3.7214626E-3,8.341823E-3,7.676569E-5,4.1884987E-4,0E0,0E0,6.228155E-6,1.459429E-5,6.143737E-4,0E0,5.9211834E-7,0E0,0E0,7.5790845E-4,8.8564525E-7,1.1870894E-4,0E0,0E0,0E0],"parents":[2147483647,0,0,1,1,2,2,3,3,6,6,7,7,8,8,13,13,15,15],"right_children":[2,4,6,8,-1,-1,10,12,14,-1,-1,-1,-1,16,-1,18,-1,-1,-1],"split_conditions":[4.8161462E2,4.784931E2,4.8713745E2,4.174525E2,8.803178E-3,5.3327536E-4,4.9210248E2,4.072751E2,4.7286588E2,-4.697375E-4,-2.160561E-5,5.062166E-4,-5.8951973E-5,4.707071E2,-1.3864166E-4,4.4707526E2,5.020269E-3,1.8138887E-3,-4.2737427E-4],"split_indices":[0,0,0,0,0,0,0,0,0,0,0,0,0,0,0,0,0,0,0],"sum_hessian":[1.58E2,7.8E1,8E1,6.1E1,1.7E1,3.6E1,4.4E1,2.3E1,3.8E1,2E0,4.2E1,1.8E1,5E0,2.9E1,9E0,2.1E1,8E0,1.9E1,2E0],"tree_param":{"num_deleted":"0","num_feature":"1","num_nodes":"19","size_leaf_vector":"0"}},{"base_weights":[3.97064E-3,7.477216E-3,5.016254E-4,3.4223052E-3,2.1028731E-2,1.2588887E-3,-1.3216055E-4,9.19203E-4,4.8749247E-3,-1.2526339E-3,-5.0914496E-5,1.2076403E-3,-1.4738242E-4,6.449856E-3,-3.373619E-4,3.774943E-3,1.2271881E-2,-7.3061604E-4,-6.4450716E-5,4.323387E-3,-1.1396656E-3],"default_left":[true,true,true,true,false,false,true,true,true,false,false,false,false,true,true,true,false,false,false,false,false],"id":25,"leaf_child_counts":[0,0,0,0,0,0,0,0,0,0,0,0,0,0,0,0,0,0,0,0,0],"left_children":[1,3,5,7,-1,-1,9,11,13,-1,-1,-1,-1,15,17,19,-1,-1,-1,-1,-1],"loss_changes":[1.9303833E-3,4.2690984E-3,3.9041748E-5,2.2095436E-4,0E0,0E0,4.032754E-6,7.561417E-6,3.2232655E-4,0E0,5.9803796E-7,0E0,0E0,4.2087666E-4,1.0261457E-6,6.422575E-5,0E0,0E0,0E0,0E0,0E0],"parents":[2147483647,0,0,1,1,2,2,3,3,6,6,7,7,8,8,13,13,14,14,15,15],"right_children":[2,4,6,8,-1,-1,10,12,14,-1,-1,-1,-1,16,18,20,-1,-1,-1,-1,-1],"split_conditions":[4.8161462E2,4.784931E2,4.8713745E2,4.174525E2,6.3086194E-3,3.7766664E-4,4.9210248E2,4.072751E2,4.7286588E2,-3.7579017E-4,-1.5274349E-5,3.622921E-4,-4.421473E-5,4.707071E2,4.7549237E2,4.4707526E2,3.6815645E-3,-2.1918482E-4,-1.9335215E-5,1.2970162E-3,-3.418997E-4],"split_indices":[0,0,0,0,0,0,0,0,0,0,0,0,0,0,0,0,0,0,0,0,0],"sum_hessian":[1.58E2,7.8E1,8E1,6.1E1,1.7E1,3.6E1,4.4E1,2.3E1,3.8E1,2E0,4.2E1,1.8E1,5E0,2.9E1,9E0,2.1E1,8E0,3E0,6E0,1.9E1,2E0],"tree_param":{"num_deleted":"0","num_feature":"1","num_nodes":"21","size_leaf_vector":"0"}},{"base_weights":[2.8486224E-3,5.373435E-3,3.5098236E-4,2.4717078E-3,1.5069749E-2,8.914406E-4,-1.0119403E-4,6.5661967E-4,3.5253079E-3,-1.0021068E-3,-3.5986304E-5,8.643175E-4,-1.1052688E-4,4.669569E-3,-2.6000588E-4,2.685891E-3,8.999718E-3,3.0912398E-3,-9.117325E-4],"default_left":[true,true,true,true,false,false,true,true,true,false,false,false,false,true,false,true,false,false,false],"id":26,"leaf_child_counts":[0,0,0,0,0,0,0,0,0,0,0,0,0,0,0,0,0,0,0],"left_children":[1,3,5,7,-1,-1,9,11,13,-1,-1,-1,-1,15,-1,17,-1,-1,-1],"loss_changes":[1.0007797E-3,2.1855007E-3,1.9885189E-5,1.162526E-4,0E0,0E0,2.6075293E-6,3.919564E-6,1.7013823E-4,0E0,6.01774E-7,0E0,0E0,2.3351639E-4,6.224695E-7,3.490082E-5,0E0,0E0,0E0],"parents":[2147483647,0,0,1,1,2,2,3,3,6,6,7,7,8,8,13,13,15,15],"right_children":[2,4,6,8,-1,-1,10,12,14,-1,-1,-1,-1,16,-1,18,-1,-1,-1],"split_conditions":[4.8161462E2,4.784931E2,4.8713745E2,4.174525E2,4.5209248E-3,2.674322E-4,4.9210248E2,4.072751E2,4.7286588E2,-3.0063206E-4,-1.0795891E-5,2.5929528E-4,-3.3158067E-5,4.707071E2,-7.8001765E-5,4.4707526E2,2.6999156E-3,9.2737196E-4,-2.7351975E-4],"split_indices":[0,0,0,0,0,0,0,0,0,0,0,0,0,0,0,0,0,0,0],"sum_hessian":[1.58E2,7.8E1,8E1,6.1E1,1.7E1,3.6E1,4.4E1,2.3E1,3.8E1,2E0,4.2E1,1.8E1,5E0,2.9E1,9E0,2.1E1,8E0,1.9E1,2E0],"tree_param":{"num_deleted":"0","num_feature":"1","num_nodes":"19","size_leaf_vector":"0"}},{"base_weights":[2.0438156E-3,3.8621826E-3,2.451139E-4,1.7865946E-3,1.07968645E-2,6.3117774E-4,-7.776337E-5,4.6898052E-4,2.551624E-3,-8.01685E-4,-2.5448757E-5,6.185707E-4,-8.288523E-5,3.3803796E-3,-1.8980521E-4,1.9100166E-3,6.5990025E-3,2.2104264E-3,-7.29387E-4],"default_left":[true,true,true,true,false,false,true,true,true,false,false,false,false,true,false,true,false,false,false],"id":27,"leaf_child_counts":[0,0,0,0,0,0,0,0,0,0,0,0,0,0,0,0,0,0,0],"left_children":[1,3,5,7,-1,-1,9,11,13,-1,-1,-1,-1,15,-1,17,-1,-1,-1],"loss_changes":[5.1909464E-4,1.1178002E-3,1.0145834E-5,6.1300176E-5,0E0,0E0,1.6838234E-6,2.0325597E-6,8.924861E-5,0E0,6.0410343E-7,0E0,0E0,1.2937211E-4,6.734034E-7,1.9056111E-5,0E0,0E0,0E0],"parents":[2147483647,0,0,1,1,2,2,3,3,6,6,7,7,8,8,13,13,15,15],"right_children":[2,4,6,8,-1,-1,10,12,14,-1,-1,-1,-1,16,-1,18,-1,-1,-1],"split_conditions":[4.8161462E2,4.784931E2,4.8713745E2,4.174525E2,3.2390596E-3,1.8935333E-4,4.9210248E2,4.072751E2,4.7286588E2,-2.405055E-4,-7.634628E-6,1.8557122E-4,-2.4865569E-5,4.707071E2,-5.6941568E-5,4.4707526E2,1.9797008E-3,6.631279E-4,-2.188161E-4],"split_indices":[0,0,0,0,0,0,0,0,0,0,0,0,0,0,0,0,0,0,0],"sum_hessian":[1.58E2,7.8E1,8E1,6.1E1,1.7E1,3.6E1,4.4E1,2.3E1,3.8E1,2E0,4.2E1,1.8E1,5E0,2.9E1,9E0,2.1E1,8E0,1.9E1,2E0],"tree_param":{"num_deleted":"0","num_feature":"1","num_nodes":"19","size_leaf_vector":"0"}},{"base_weights":[1.4661376E-3,2.775641E-3,1.708671E-4,1.2912006E-3,7.7345106E-3,4.4697683E-4,-5.9953498E-5,3.3504143E-4,1.8464987E-3,-2.7267152E-4,6.6810644E-5,4.4284368E-4,-6.2172614E-5,2.4466335E-3,-1.3855603E-4,1.356664E-3,4.8391554E-3,1.5798568E-3,-5.835096E-4],"default_left":[true,true,true,true,false,false,true,true,true,false,false,false,false,true,false,true,false,false,false],"id":28,"leaf_child_counts":[0,0,0,0,0,0,0,0,0,0,0,0,0,0,0,0,0,0,0],"left_children":[1,3,5,7,-1,-1,9,11,13,-1,-1,-1,-1,15,-1,17,-1,-1,-1],"loss_changes":[2.6921535E-4,5.7154364E-4,5.1890747E-6,3.2300457E-5,0E0,0E0,1.2316432E-6,1.0552264E-6,4.6799716E-5,4.6013963E-7,1.4082889E-7,0E0,0E0,7.166818E-5,7.05164E-7,1.0448584E-5,0E0,0E0,0E0],"parents":[2147483647,0,0,1,1,2,2,3,3,6,6,7,7,8,8,13,13,15,15],"right_children":[2,4,6,8,-1,-1,10,12,14,-1,-1,-1,-1,16,-1,18,-1,-1,-1],"split_conditions":[4.8161462E2,4.784931E2,4.8713745E2,4.174525E2,2.3203532E-3,1.3409306E-4,5.006853E2,4.072751E2,4.7286588E2,-8.180146E-5,2.0043193E-5,1.328531E-4,-1.8651785E-5,4.707071E2,-4.156681E-5,4.4707526E2,1.4517467E-3,4.7395707E-4,-1.7505289E-4],"split_indices":[0,0,0,0,0,0,0,0,0,0,0,0,0,0,0,0,0,0,0],"sum_hessian":[1.58E2,7.8E1,8E1,6.1E1,1.7E1,3.6E1,4.4E1,2.3E1,3.8E1,1.6E1,2.8E1,1.8E1,5E0,2.9E1,9E0,2.1E1,8E0,1.9E1,2E0],"tree_param":{"num_deleted":"0","num_feature":"1","num_nodes":"19","size_leaf_vector":"0"}},{"base_weights":[1.0529585E-3,1.9956343E-3,1.20559176E-4,9.3326817E-4,5.544027E-3,3.1664566E-4,-4.334657E-5,2.3914997E-4,1.3364878E-3,1.7711496E-3,-1.0114592E-4,9.640584E-4,3.5472447E-3,1.1304856E-3,-4.6680868E-4],"default_left":[true,true,true,true,false,false,false,false,true,true,false,true,false,false,false],"id":29,"leaf_child_counts":[0,0,0,0,0,0,0,0,0,0,0,0,0,0,0],"left_children":[1,3,5,7,-1,-1,-1,-1,9,11,-1,13,-1,-1,-1],"loss_changes":[1.395125E-4,2.926316E-4,2.617041E-6,1.7033071E-5,0E0,0E0,9.4934114E-7,5.473987E-7,2.4549634E-5,3.958436E-5,7.254468E-7,5.766693E-6,0E0,0E0,0E0],"parents":[2147483647,0,0,1,1,2,2,3,3,8,8,9,9,11,11],"right_children":[2,4,6,8,-1,-1,-1,-1,10,12,-1,14,-1,-1,-1],"split_conditions":[4.8161462E2,4.784931E2,4.8713745E2,4.174525E2,1.6632081E-3,9.49937E-5,-1.3003971E-5,7.1744995E-5,4.7286588E2,4.707071E2,-3.0343776E-5,4.4707526E2,1.0641734E-3,3.3914568E-4,-1.4004261E-4],"split_indices":[0,0,0,0,0,0,0,0,0,0,0,0,0,0,0],"sum_hessian":[1.58E2,7.8E1,8E1,6.1E1,1.7E1,3.6E1,4.4E1,2.3E1,3.8E1,2.9E1,9E0,2.1E1,8E0,1.9E1,2E0],"tree_param":{"num_deleted":"0","num_feature":"1","num_nodes":"15","size_leaf_vector":"0"}},{"base_weights":[7.562651E-4,1.4345113E-3,8.542909E-5,6.7432976E-4,3.973219E-3,2.24281E-4,-3.0636456E-5,1.7056118E-4,9.6705067E-4,1.2817775E-3,-7.383488E-5,6.837513E-4,2.6011998E-3,8.0814364E-4,-3.7344793E-4],"default_left":[true,true,true,true,false,false,false,false,true,true,false,true,false,false,false],"id":30,"leaf_child_counts":[0,0,0,0,0,0,0,0,0,0,0,0,0,0,0],"left_children":[1,3,5,7,-1,-1,-1,-1,9,11,-1,13,-1,-1,-1],"loss_changes":[7.222117E-5,1.4978116E-4,1.312261E-6,8.977802E-6,0E0,0E0,9.634628E-7,5.4820845E-7,1.2870831E-5,2.1892898E-5,7.38715E-7,3.194964E-6,0E0,0E0,0E0],"parents":[2147483647,0,0,1,1,2,2,3,3,8,8,9,9,11,11],"right_children":[2,4,6,8,-1,-1,-1,-1,10,12,-1,14,-1,-1,-1],"split_conditions":[4.8161462E2,4.784931E2,4.8713745E2,4.174525E2,1.1919658E-3,6.72843E-5,-9.190937E-6,5.1168357E-5,4.7286588E2,4.707071E2,-2.2150465E-5,4.4707526E2,7.8035996E-4,2.424431E-4,-1.1203438E-4],"split_indices":[0,0,0,0,0,0,0,0,0,0,0,0,0,0,0],"sum_hessian":[1.58E2,7.8E1,8E1,6.1E1,1.7E1,3.6E1,4.4E1,2.3E1,3.8E1,2.9E1,9E0,2.1E1,8E0,1.9E1,2E0],"tree_param":{"num_deleted":"0","num_feature":"1","num_nodes":"15","size_leaf_vector":"0"}},{"base_weights":[5.433135E-4,1.0314174E-3,6.0553997E-5,4.8705135E-4,2.849155E-3,3.0181077E-4,9.2309446E-4,1.2163445E-4,4.8464807E-4,1.906077E-3,-5.3899363E-5,5.7792664E-4,-2.9875836E-4],"default_left":[true,true,false,true,false,true,true,false,true,false,false,false,false],"id":31,"leaf_child_counts":[0,0,0,0,0,0,0,0,0,0,0,0,0],"left_children":[1,3,-1,5,-1,7,9,-1,11,-1,-1,-1,-1],"loss_changes":[3.740379E-5,7.678397E-5,6.583481E-7,4.729319E-6,0E0,1.4234829E-6,1.738936E-5,5.4362204E-7,1.7803109E-6,0E0,7.475749E-7,0E0,0E0],"parents":[2147483647,0,0,1,1,3,3,5,5,6,6,8,8],"right_children":[2,4,-1,6,-1,8,10,-1,12,-1,-1,-1,-1],"split_conditions":[4.8161462E2,4.784931E2,1.81662E-5,4.707071E2,8.5474655E-4,4.174525E2,4.7286588E2,3.649034E-5,4.4707526E2,5.7182316E-4,-1.616981E-5,1.73378E-4,-8.962751E-5],"split_indices":[0,0,0,0,0,0,0,0,0,0,0,0,0],"sum_hessian":[1.58E2,7.8E1,8E1,6.1E1,1.7E1,4.4E1,1.7E1,2.3E1,2.1E1,8E0,9E0,1.9E1,2E0],"tree_param":{"num_deleted":"0","num_feature":"1","num_nodes":"13","size_leaf_vector":"0"}},{"base_weights":[3.9001062E-4,7.412625E-4,4.261663E-5,3.5163414E-4,2.0421345E-3,2.1372752E-4,6.7686546E-4,1.3974508E-3,-3.934782E-5],"default_left":[true,true,false,true,false,false,true,false,false],"id":32,"leaf_child_counts":[0,0,0,0,0,0,0,0,0],"left_children":[1,3,-1,5,-1,-1,7,-1,-1],"loss_changes":[1.9370034E-5,3.9323593E-5,6.610149E-7,2.6361322E-6,0E0,7.093845E-7,9.344657E-6,0E0,7.535998E-7],"parents":[2147483647,0,0,1,1,3,3,6,6],"right_children":[2,4,-1,6,-1,-1,8,-1,-1],"split_conditions":[4.8161462E2,4.784931E2,1.278499E-5,4.707071E2,6.126404E-4,6.4118256E-5,4.7286588E2,4.1923526E-4,-1.1804346E-5],"split_indices":[0,0,0,0,0,0,0,0,0],"sum_hessian":[1.58E2,7.8E1,8E1,6.1E1,1.7E1,4.4E1,1.7E1,8E0,9E0],"tree_param":{"num_deleted":"0","num_feature":"1","num_nodes":"9","size_leaf_vector":"0"}},{"base_weights":[2.8007082E-4,5.329851E-4,2.9943654E-5,2.5360286E-4,1.4656915E-3,2.5220215E-5,3.876434E-4,5.1351165E-4,-2.8725713E-5,2.8114664E-4,1.0244581E-3],"default_left":[true,true,false,true,false,false,true,true,false,false,false],"id":33,"leaf_child_counts":[0,0,0,0,0,0,0,0,0,0,0],"left_children":[1,3,-1,5,-1,-1,7,9,-1,-1,-1],"loss_changes":[1.0042497E-5,2.0214246E-5,6.616412E-7,1.8882006E-6,0E0,5.2114063E-7,2.05865E-6,3.273759E-6,7.577632E-7,9.705872E-7,0E0],"parents":[2147483647,0,0,1,1,3,3,6,6,7,7],"right_children":[2,4,-1,6,-1,-1,8,10,-1,-1,-1],"split_conditions":[4.8161462E2,4.784931E2,8.983096E-6,4.174525E2,4.3970745E-4,7.566065E-6,4.7286588E2,4.707071E2,-8.617714E-6,8.434399E-5,3.0733744E-4],"split_indices":[0,0,0,0,0,0,0,0,0,0,0],"sum_hessian":[1.58E2,7.8E1,8E1,6.1E1,1.7E1,2.3E1,3.8E1,2.9E1,9E0,2.1E1,8E0],"tree_param":{"num_deleted":"0","num_feature":"1","num_nodes":"11","size_leaf_vector":"0"}},{"base_weights":[2.0098274E-4,3.8291753E-4,2.1058928E-5,1.8371969E-4,1.0477701E-3],"default_left":[true,true,false,false,false],"id":34,"leaf_child_counts":[0,0,0,0,0],"left_children":[1,3,-1,-1,-1],"loss_changes":[5.196705E-6,1.0270044E-5,6.620887E-7,9.953565E-7,0E0],"parents":[2147483647,0,0,1,1],"right_children":[2,4,-1,-1,-1],"split_conditions":[4.8161462E2,4.784931E2,6.3176785E-6,5.511591E-5,3.1433106E-4],"split_indices":[0,0,0,0,0],"sum_hessian":[1.58E2,7.8E1,8E1,6.1E1,1.7E1],"tree_param":{"num_deleted":"0","num_feature":"1","num_nodes":"5","size_leaf_vector":"0"}},{"base_weights":[1.4323655E-4,2.2421115E-4,-6.688154E-5,5.364534E-5,3.2915833E-4,5.473539E-4,1.1386098E-4,3.1195613E-4,7.523431E-4,7.0232817E-4,-7.057432E-5],"default_left":[true,true,false,false,true,true,false,true,false,false,false],"id":35,"leaf_child_counts":[0,0,0,0,0,0,0,0,0,0,0],"left_children":[1,3,-1,-1,5,7,-1,9,-1,-1,-1],"loss_changes":[2.7202575E-6,2.0408884E-6,9.225569E-7,5.8289856E-7,3.2730395E-6,1.454192E-6,0E0,2.7374922E-6,0E0,0E0,7.401995E-7],"parents":[2147483647,0,0,1,1,4,4,5,5,7,7],"right_children":[2,4,-1,-1,6,8,-1,10,-1,-1,-1],"split_conditions":[4.8713745E2,4.707071E2,-2.0064463E-5,1.6093603E-5,4.8161462E2,4.784931E2,3.4158296E-5,4.7286588E2,2.2570294E-4,2.1069846E-4,-2.1172298E-5],"split_indices":[0,0,0,0,0,0,0,0,0,0,0],"sum_hessian":[1.58E2,1.14E2,4.4E1,4.4E1,7E1,3.4E1,3.6E1,1.7E1,1.7E1,8E0,9E0],"tree_param":{"num_deleted":"0","num_feature":"1","num_nodes":"11","size_leaf_vector":"0"}},{"base_weights":[1.028182E-4,1.6065246E-4,-4.7265323E-5,-5.0555915E-5,2.1400407E-4,2.984193E-4,8.045661E-5,1.8103325E-4,5.361769E-4],"default_left":[true,true,false,false,true,true,false,false,false],"id":36,"leaf_child_counts":[0,0,0,0,0,0,0,0,0],"left_children":[1,3,-1,-1,5,7,-1,-1,-1],"loss_changes":[1.3877085E-6,1.3066747E-6,9.449098E-7,4.908543E-7,1.0131471E-6,1.4658617E-6,0E0,6.6131963E-7,0E0],"parents":[2147483647,0,0,1,1,4,4,5,5],"right_children":[2,4,-1,-1,6,8,-1,-1,-1],"split_conditions":[4.8713745E2,4.174525E2,-1.4179597E-5,-1.5166775E-5,4.8161462E2,4.784931E2,2.4136983E-5,5.4309978E-5,1.6085307E-4],"split_indices":[0,0,0,0,0,0,0,0,0],"sum_hessian":[1.58E2,1.14E2,4.4E1,2.3E1,9.1E1,5.5E1,3.6E1,3.8E1,1.7E1],"tree_param":{"num_deleted":"0","num_feature":"1","num_nodes":"9","size_leaf_vector":"0"}},{"base_weights":[7.354284E-5],"default_left":[false],"id":37,"leaf_child_counts":[0],"left_children":[-1],"loss_changes":[7.044568E-7],"parents":[2147483647],"right_children":[-1],"split_conditions":[2.2062854E-5],"split_indices":[0],"sum_hessian":[1.58E2],"tree_param":{"num_deleted":"0","num_feature":"1","num_nodes":"1","size_leaf_vector":"0"}},{"base_weights":[5.138143E-5],"default_left":[false],"id":38,"leaf_child_counts":[0],"left_children":[-1],"loss_changes":[7.0116494E-7],"parents":[2147483647],"right_children":[-1],"split_conditions":[1.5414429E-5],"split_indices":[0],"sum_hessian":[1.58E2],"tree_param":{"num_deleted":"0","num_feature":"1","num_nodes":"1","size_leaf_vector":"0"}},{"base_weights":[3.6161768E-5],"default_left":[false],"id":39,"leaf_child_counts":[0],"left_children":[-1],"loss_changes":[7.0170853E-7],"parents":[2147483647],"right_children":[-1],"split_conditions":[1.0848531E-5],"split_indices":[0],"sum_hessian":[1.58E2],"tree_param":{"num_deleted":"0","num_feature":"1","num_nodes":"1","size_leaf_vector":"0"}},{"base_weights":[2.5605374E-5],"default_left":[false],"id":40,"leaf_child_counts":[0],"left_children":[-1],"loss_changes":[7.0756846E-7],"parents":[2147483647],"right_children":[-1],"split_conditions":[7.681612E-6],"split_indices":[0],"sum_hessian":[1.58E2],"tree_param":{"num_deleted":"0","num_feature":"1","num_nodes":"1","size_leaf_vector":"0"}},{"base_weights":[1.8002078E-5],"default_left":[false],"id":41,"leaf_child_counts":[0],"left_children":[-1],"loss_changes":[7.081486E-7],"parents":[2147483647],"right_children":[-1],"split_conditions":[5.4006236E-6],"split_indices":[0],"sum_hessian":[1.58E2],"tree_param":{"num_deleted":"0","num_feature":"1","num_nodes":"1","size_leaf_vector":"0"}},{"base_weights":[1.2490161E-5],"default_left":[false],"id":42,"leaf_child_counts":[0],"left_children":[-1],"loss_changes":[7.032879E-7],"parents":[2147483647],"right_children":[-1],"split_conditions":[3.7470484E-6],"split_indices":[0],"sum_hessian":[1.58E2],"tree_param":{"num_deleted":"0","num_feature":"1","num_nodes":"1","size_leaf_vector":"0"}},{"base_weights":[9.155721E-6],"default_left":[false],"id":43,"leaf_child_counts":[0],"left_children":[-1],"loss_changes":[7.1238776E-7],"parents":[2147483647],"right_children":[-1],"split_conditions":[2.7467165E-6],"split_indices":[0],"sum_hessian":[1.58E2],"tree_param":{"num_deleted":"0","num_feature":"1","num_nodes":"1","size_leaf_vector":"0"}},{"base_weights":[6.6870602E-6],"default_left":[false],"id":44,"leaf_child_counts":[0],"left_children":[-1],"loss_changes":[7.1935443E-7],"parents":[2147483647],"right_children":[-1],"split_conditions":[2.0061182E-6],"split_indices":[0],"sum_hessian":[1.58E2],"tree_param":{"num_deleted":"0","num_feature":"1","num_nodes":"1","size_leaf_vector":"0"}},{"base_weights":[4.875901E-6],"default_left":[false],"id":45,"leaf_child_counts":[0],"left_children":[-1],"loss_changes":[7.223187E-7],"parents":[2147483647],"right_children":[-1],"split_conditions":[1.4627705E-6],"split_indices":[0],"sum_hessian":[1.58E2],"tree_param":{"num_deleted":"0","num_feature":"1","num_nodes":"1","size_leaf_vector":"0"}},{"base_weights":[3.6199747E-6],"default_left":[false],"id":46,"leaf_child_counts":[0],"left_children":[-1],"loss_changes":[7.2640404E-7],"parents":[2147483647],"right_children":[-1],"split_conditions":[1.0859925E-6],"split_indices":[0],"sum_hessian":[1.58E2],"tree_param":{"num_deleted":"0","num_feature":"1","num_nodes":"1","size_leaf_vector":"0"}},{"base_weights":[2.6728255E-6],"default_left":[false],"id":47,"leaf_child_counts":[0],"left_children":[-1],"loss_changes":[7.2790243E-7],"parents":[2147483647],"right_children":[-1],"split_conditions":[8.018477E-7],"split_indices":[0],"sum_hessian":[1.58E2],"tree_param":{"num_deleted":"0","num_feature":"1","num_nodes":"1","size_leaf_vector":"0"}},{"base_weights":[2.0454538E-6],"default_left":[false],"id":48,"leaf_child_counts":[0],"left_children":[-1],"loss_changes":[7.331034E-7],"parents":[2147483647],"right_children":[-1],"split_conditions":[6.136362E-7],"split_indices":[0],"sum_hessian":[1.58E2],"tree_param":{"num_deleted":"0","num_feature":"1","num_nodes":"1","size_leaf_vector":"0"}},{"base_weights":[1.6527637E-6],"default_left":[false],"id":49,"leaf_child_counts":[0],"left_children":[-1],"loss_changes":[7.364617E-7],"parents":[2147483647],"right_children":[-1],"split_conditions":[4.958291E-7],"split_indices":[0],"sum_hessian":[1.58E2],"tree_param":{"num_deleted":"0","num_feature":"1","num_nodes":"1","size_leaf_vector":"0"}},{"base_weights":[1.2987206E-6],"default_left":[false],"id":50,"leaf_child_counts":[0],"left_children":[-1],"loss_changes":[7.395072E-7],"parents":[2147483647],"right_children":[-1],"split_conditions":[3.896162E-7],"split_indices":[0],"sum_hessian":[1.58E2],"tree_param":{"num_deleted":"0","num_feature":"1","num_nodes":"1","size_leaf_vector":"0"}},{"base_weights":[9.994673E-7],"default_left":[false],"id":51,"leaf_child_counts":[0],"left_children":[-1],"loss_changes":[7.418753E-7],"parents":[2147483647],"right_children":[-1],"split_conditions":[2.998402E-7],"split_indices":[0],"sum_hessian":[1.58E2],"tree_param":{"num_deleted":"0","num_feature":"1","num_nodes":"1","size_leaf_vector":"0"}},{"base_weights":[7.160055E-7],"default_left":[false],"id":52,"leaf_child_counts":[0],"left_children":[-1],"loss_changes":[7.4430113E-7],"parents":[2147483647],"right_children":[-1],"split_conditions":[2.1480166E-7],"split_indices":[0],"sum_hessian":[1.58E2],"tree_param":{"num_deleted":"0","num_feature":"1","num_nodes":"1","size_leaf_vector":"0"}},{"base_weights":[6.367318E-7],"default_left":[false],"id":53,"leaf_child_counts":[0],"left_children":[-1],"loss_changes":[7.4506795E-7],"parents":[2147483647],"right_children":[-1],"split_conditions":[1.9101954E-7],"split_indices":[0],"sum_hessian":[1.58E2],"tree_param":{"num_deleted":"0","num_feature":"1","num_nodes":"1","size_leaf_vector":"0"}},{"base_weights":[5.6682984E-7],"default_left":[false],"id":54,"leaf_child_counts":[0],"left_children":[-1],"loss_changes":[7.45744E-7],"parents":[2147483647],"right_children":[-1],"split_conditions":[1.7004896E-7],"split_indices":[0],"sum_hessian":[1.58E2],"tree_param":{"num_deleted":"0","num_feature":"1","num_nodes":"1","size_leaf_vector":"0"}},{"base_weights":[5.013327E-7],"default_left":[false],"id":55,"leaf_child_counts":[0],"left_children":[-1],"loss_changes":[7.463911E-7],"parents":[2147483647],"right_children":[-1],"split_conditions":[1.5039981E-7],"split_indices":[0],"sum_hessian":[1.58E2],"tree_param":{"num_deleted":"0","num_feature":"1","num_nodes":"1","size_leaf_vector":"0"}},{"base_weights":[4.4504333E-7],"default_left":[false],"id":56,"leaf_child_counts":[0],"left_children":[-1],"loss_changes":[7.469456E-7],"parents":[2147483647],"right_children":[-1],"split_conditions":[1.33513E-7],"split_indices":[0],"sum_hessian":[1.58E2],"tree_param":{"num_deleted":"0","num_feature":"1","num_nodes":"1","size_leaf_vector":"0"}},{"base_weights":[3.975283E-7],"default_left":[false],"id":57,"leaf_child_counts":[0],"left_children":[-1],"loss_changes":[7.473992E-7],"parents":[2147483647],"right_children":[-1],"split_conditions":[1.192585E-7],"split_indices":[0],"sum_hessian":[1.58E2],"tree_param":{"num_deleted":"0","num_feature":"1","num_nodes":"1","size_leaf_vector":"0"}},{"base_weights":[3.5254368E-7],"default_left":[false],"id":58,"leaf_child_counts":[0],"left_children":[-1],"loss_changes":[7.478434E-7],"parents":[2147483647],"right_children":[-1],"split_conditions":[1.0576311E-7],"split_indices":[0],"sum_hessian":[1.58E2],"tree_param":{"num_deleted":"0","num_feature":"1","num_nodes":"1","size_leaf_vector":"0"}},{"base_weights":[3.1003086E-7],"default_left":[false],"id":59,"leaf_child_counts":[0],"left_children":[-1],"loss_changes":[7.482779E-7],"parents":[2147483647],"right_children":[-1],"split_conditions":[9.300926E-8],"split_indices":[0],"sum_hessian":[1.58E2],"tree_param":{"num_deleted":"0","num_feature":"1","num_nodes":"1","size_leaf_vector":"0"}},{"base_weights":[2.7612836E-7],"default_left":[false],"id":60,"leaf_child_counts":[0],"left_children":[-1],"loss_changes":[7.486097E-7],"parents":[2147483647],"right_children":[-1],"split_conditions":[8.283851E-8],"split_indices":[0],"sum_hessian":[1.58E2],"tree_param":{"num_deleted":"0","num_feature":"1","num_nodes":"1","size_leaf_vector":"0"}},{"base_weights":[2.4299905E-7],"default_left":[false],"id":61,"leaf_child_counts":[0],"left_children":[-1],"loss_changes":[7.4895235E-7],"parents":[2147483647],"right_children":[-1],"split_conditions":[7.289972E-8],"split_indices":[0],"sum_hessian":[1.58E2],"tree_param":{"num_deleted":"0","num_feature":"1","num_nodes":"1","size_leaf_vector":"0"}},{"base_weights":[2.1803491E-7],"default_left":[false],"id":62,"leaf_child_counts":[0],"left_children":[-1],"loss_changes":[7.4918444E-7],"parents":[2147483647],"right_children":[-1],"split_conditions":[6.5410475E-8],"split_indices":[0],"sum_hessian":[1.58E2],"tree_param":{"num_deleted":"0","num_feature":"1","num_nodes":"1","size_leaf_vector":"0"}},{"base_weights":[1.94992E-7],"default_left":[false],"id":63,"leaf_child_counts":[0],"left_children":[-1],"loss_changes":[7.493977E-7],"parents":[2147483647],"right_children":[-1],"split_conditions":[5.84976E-8],"split_indices":[0],"sum_hessian":[1.58E2],"tree_param":{"num_deleted":"0","num_feature":"1","num_nodes":"1","size_leaf_vector":"0"}},{"base_weights":[1.7255826E-7],"default_left":[false],"id":64,"leaf_child_counts":[0],"left_children":[-1],"loss_changes":[7.496203E-7],"parents":[2147483647],"right_children":[-1],"split_conditions":[5.176748E-8],"split_indices":[0],"sum_hessian":[1.58E2],"tree_param":{"num_deleted":"0","num_feature":"1","num_nodes":"1","size_leaf_vector":"0"}},{"base_weights":[1.5198715E-7],"default_left":[false],"id":65,"leaf_child_counts":[0],"left_children":[-1],"loss_changes":[7.4982387E-7],"parents":[2147483647],"right_children":[-1],"split_conditions":[4.559615E-8],"split_indices":[0],"sum_hessian":[1.58E2],"tree_param":{"num_deleted":"0","num_feature":"1","num_nodes":"1","size_leaf_vector":"0"}},{"base_weights":[1.3202522E-7],"default_left":[false],"id":66,"leaf_child_counts":[0],"left_children":[-1],"loss_changes":[7.5003675E-7],"parents":[2147483647],"right_children":[-1],"split_conditions":[3.9607567E-8],"split_indices":[0],"sum_hessian":[1.58E2],"tree_param":{"num_deleted":"0","num_feature":"1","num_nodes":"1","size_leaf_vector":"0"}},{"base_weights":[1.1875242E-7],"default_left":[false],"id":67,"leaf_child_counts":[0],"left_children":[-1],"loss_changes":[7.5016555E-7],"parents":[2147483647],"right_children":[-1],"split_conditions":[3.5625728E-8],"split_indices":[0],"sum_hessian":[1.58E2],"tree_param":{"num_deleted":"0","num_feature":"1","num_nodes":"1","size_leaf_vector":"0"}},{"base_weights":[1.0695566E-7],"default_left":[false],"id":68,"leaf_child_counts":[0],"left_children":[-1],"loss_changes":[7.502677E-7],"parents":[2147483647],"right_children":[-1],"split_conditions":[3.20867E-8],"split_indices":[0],"sum_hessian":[1.58E2],"tree_param":{"num_deleted":"0","num_feature":"1","num_nodes":"1","size_leaf_vector":"0"}},{"base_weights":[9.560407E-8],"default_left":[false],"id":69,"leaf_child_counts":[0],"left_children":[-1],"loss_changes":[7.503776E-7],"parents":[2147483647],"right_children":[-1],"split_conditions":[2.8681223E-8],"split_indices":[0],"sum_hessian":[1.58E2],"tree_param":{"num_deleted":"0","num_feature":"1","num_nodes":"1","size_leaf_vector":"0"}},{"base_weights":[8.4416484E-8],"default_left":[false],"id":70,"leaf_child_counts":[0],"left_children":[-1],"loss_changes":[7.5048916E-7],"parents":[2147483647],"right_children":[-1],"split_conditions":[2.5324946E-8],"split_indices":[0],"sum_hessian":[1.58E2],"tree_param":{"num_deleted":"0","num_feature":"1","num_nodes":"1","size_leaf_vector":"0"}},{"base_weights":[7.361548E-8],"default_left":[false],"id":71,"leaf_child_counts":[0],"left_children":[-1],"loss_changes":[7.506082E-7],"parents":[2147483647],"right_children":[-1],"split_conditions":[2.2084645E-8],"split_indices":[0],"sum_hessian":[1.58E2],"tree_param":{"num_deleted":"0","num_feature":"1","num_nodes":"1","size_leaf_vector":"0"}},{"base_weights":[6.4290546E-8],"default_left":[false],"id":72,"leaf_child_counts":[0],"left_children":[-1],"loss_changes":[7.5070056E-7],"parents":[2147483647],"right_children":[-1],"split_conditions":[1.9287164E-8],"split_indices":[0],"sum_hessian":[1.58E2],"tree_param":{"num_deleted":"0","num_feature":"1","num_nodes":"1","size_leaf_vector":"0"}},{"base_weights":[5.512961E-8],"default_left":[false],"id":73,"leaf_child_counts":[0],"left_children":[-1],"loss_changes":[7.507945E-7],"parents":[2147483647],"right_children":[-1],"split_conditions":[1.6538884E-8],"split_indices":[0],"sum_hessian":[1.58E2],"tree_param":{"num_deleted":"0","num_feature":"1","num_nodes":"1","size_leaf_vector":"0"}},{"base_weights":[4.6355265E-8],"default_left":[false],"id":74,"leaf_child_counts":[0],"left_children":[-1],"loss_changes":[7.50896E-7],"parents":[2147483647],"right_children":[-1],"split_conditions":[1.390658E-8],"split_indices":[0],"sum_hessian":[1.58E2],"tree_param":{"num_deleted":"0","num_feature":"1","num_nodes":"1","size_leaf_vector":"0"}},{"base_weights":[4.388345E-8],"default_left":[false],"id":75,"leaf_child_counts":[0],"left_children":[-1],"loss_changes":[7.509058E-7],"parents":[2147483647],"right_children":[-1],"split_conditions":[1.3165035E-8],"split_indices":[0],"sum_hessian":[1.58E2],"tree_param":{"num_deleted":"0","num_feature":"1","num_nodes":"1","size_leaf_vector":"0"}},{"base_weights":[4.141164E-8],"default_left":[false],"id":76,"leaf_child_counts":[0],"left_children":[-1],"loss_changes":[7.509156E-7],"parents":[2147483647],"right_children":[-1],"split_conditions":[1.24234925E-8],"split_indices":[0],"sum_hessian":[1.58E2],"tree_param":{"num_deleted":"0","num_feature":"1","num_nodes":"1","size_leaf_vector":"0"}},{"base_weights":[3.8986688E-8],"default_left":[false],"id":77,"leaf_child_counts":[0],"left_children":[-1],"loss_changes":[7.5092646E-7],"parents":[2147483647],"right_children":[-1],"split_conditions":[1.1696007E-8],"split_indices":[0],"sum_hessian":[1.58E2],"tree_param":{"num_deleted":"0","num_feature":"1","num_nodes":"1","size_leaf_vector":"0"}},{"base_weights":[3.6620307E-8],"default_left":[false],"id":78,"leaf_child_counts":[0],"left_children":[-1],"loss_changes":[7.509375E-7],"parents":[2147483647],"right_children":[-1],"split_conditions":[1.0986092E-8],"split_indices":[0],"sum_hessian":[1.58E2],"tree_param":{"num_deleted":"0","num_feature":"1","num_nodes":"1","size_leaf_vector":"0"}},{"base_weights":[3.453508E-8],"default_left":[false],"id":79,"leaf_child_counts":[0],"left_children":[-1],"loss_changes":[7.509548E-7],"parents":[2147483647],"right_children":[-1],"split_conditions":[1.0360525E-8],"split_indices":[0],"sum_hessian":[1.58E2],"tree_param":{"num_deleted":"0","num_feature":"1","num_nodes":"1","size_leaf_vector":"0"}},{"base_weights":[3.2449854E-8],"default_left":[false],"id":80,"leaf_child_counts":[0],"left_children":[-1],"loss_changes":[7.509721E-7],"parents":[2147483647],"right_children":[-1],"split_conditions":[9.734957E-9],"split_indices":[0],"sum_hessian":[1.58E2],"tree_param":{"num_deleted":"0","num_feature":"1","num_nodes":"1","size_leaf_vector":"0"}},{"base_weights":[3.0423205E-8],"default_left":[false],"id":81,"leaf_child_counts":[0],"left_children":[-1],"loss_changes":[7.5098967E-7],"parents":[2147483647],"right_children":[-1],"split_conditions":[9.126962E-9],"split_indices":[0],"sum_hessian":[1.58E2],"tree_param":{"num_deleted":"0","num_feature":"1","num_nodes":"1","size_leaf_vector":"0"}},{"base_weights":[2.8443411E-8],"default_left":[false],"id":82,"leaf_child_counts":[0],"left_children":[-1],"loss_changes":[7.510083E-7],"parents":[2147483647],"right_children":[-1],"split_conditions":[8.533024E-9],"split_indices":[0],"sum_hessian":[1.58E2],"tree_param":{"num_deleted":"0","num_feature":"1","num_nodes":"1","size_leaf_vector":"0"}},{"base_weights":[2.6463619E-8],"default_left":[false],"id":83,"leaf_child_counts":[0],"left_children":[-1],"loss_changes":[7.510269E-7],"parents":[2147483647],"right_children":[-1],"split_conditions":[7.939086E-9],"split_indices":[0],"sum_hessian":[1.58E2],"tree_param":{"num_deleted":"0","num_feature":"1","num_nodes":"1","size_leaf_vector":"0"}},{"base_weights":[2.45424E-8],"default_left":[false],"id":84,"leaf_child_counts":[0],"left_children":[-1],"loss_changes":[7.510457E-7],"parents":[2147483647],"right_children":[-1],"split_conditions":[7.36272E-9],"split_indices":[0],"sum_hessian":[1.58E2],"tree_param":{"num_deleted":"0","num_feature":"1","num_nodes":"1","size_leaf_vector":"0"}},{"base_weights":[2.3933232E-8],"default_left":[false],"id":85,"leaf_child_counts":[0],"left_children":[-1],"loss_changes":[7.510364E-7],"parents":[2147483647],"right_children":[-1],"split_conditions":[7.17997E-9],"split_indices":[0],"sum_hessian":[1.58E2],"tree_param":{"num_deleted":"0","num_feature":"1","num_nodes":"1","size_leaf_vector":"0"}},{"base_weights":[2.3324066E-8],"default_left":[false],"id":86,"leaf_child_counts":[0],"left_children":[-1],"loss_changes":[7.510271E-7],"parents":[2147483647],"right_children":[-1],"split_conditions":[6.99722E-9],"split_indices":[0],"sum_hessian":[1.58E2],"tree_param":{"num_deleted":"0","num_feature":"1","num_nodes":"1","size_leaf_vector":"0"}},{"base_weights":[2.2714898E-8],"default_left":[false],"id":87,"leaf_child_counts":[0],"left_children":[-1],"loss_changes":[7.5101775E-7],"parents":[2147483647],"right_children":[-1],"split_conditions":[6.81447E-9],"split_indices":[0],"sum_hessian":[1.58E2],"tree_param":{"num_deleted":"0","num_feature":"1","num_nodes":"1","size_leaf_vector":"0"}},{"base_weights":[2.2105732E-8],"default_left":[false],"id":88,"leaf_child_counts":[0],"left_children":[-1],"loss_changes":[7.510084E-7],"parents":[2147483647],"right_children":[-1],"split_conditions":[6.63172E-9],"split_indices":[0],"sum_hessian":[1.58E2],"tree_param":{"num_deleted":"0","num_feature":"1","num_nodes":"1","size_leaf_vector":"0"}},{"base_weights":[2.1496565E-8],"default_left":[false],"id":89,"leaf_child_counts":[0],"left_children":[-1],"loss_changes":[7.5099905E-7],"parents":[2147483647],"right_children":[-1],"split_conditions":[6.44897E-9],"split_indices":[0],"sum_hessian":[1.58E2],"tree_param":{"num_deleted":"0","num_feature":"1","num_nodes":"1","size_leaf_vector":"0"}},{"base_weights":[2.0945972E-8],"default_left":[false],"id":90,"leaf_child_counts":[0],"left_children":[-1],"loss_changes":[7.5098995E-7],"parents":[2147483647],"right_children":[-1],"split_conditions":[6.2837917E-9],"split_indices":[0],"sum_hessian":[1.58E2],"tree_param":{"num_deleted":"0","num_feature":"1","num_nodes":"1","size_leaf_vector":"0"}},{"base_weights":[2.0395378E-8],"default_left":[false],"id":91,"leaf_child_counts":[0],"left_children":[-1],"loss_changes":[7.5098086E-7],"parents":[2147483647],"right_children":[-1],"split_conditions":[6.1186136E-9],"split_indices":[0],"sum_hessian":[1.58E2],"tree_param":{"num_deleted":"0","num_feature":"1","num_nodes":"1","size_leaf_vector":"0"}},{"base_weights":[1.9844785E-8],"default_left":[false],"id":92,"leaf_child_counts":[0],"left_children":[-1],"loss_changes":[7.5097176E-7],"parents":[2147483647],"right_children":[-1],"split_conditions":[5.953436E-9],"split_indices":[0],"sum_hessian":[1.58E2],"tree_param":{"num_deleted":"0","num_feature":"1","num_nodes":"1","size_leaf_vector":"0"}},{"base_weights":[1.9294193E-8],"default_left":[false],"id":93,"leaf_child_counts":[0],"left_children":[-1],"loss_changes":[7.5096267E-7],"parents":[2147483647],"right_children":[-1],"split_conditions":[5.7882583E-9],"split_indices":[0],"sum_hessian":[1.58E2],"tree_param":{"num_deleted":"0","num_feature":"1","num_nodes":"1","size_leaf_vector":"0"}},{"base_weights":[1.8743599E-8],"default_left":[false],"id":94,"leaf_child_counts":[0],"left_children":[-1],"loss_changes":[7.509536E-7],"parents":[2147483647],"right_children":[-1],"split_conditions":[5.62308E-9],"split_indices":[0],"sum_hessian":[1.58E2],"tree_param":{"num_deleted":"0","num_feature":"1","num_nodes":"1","size_leaf_vector":"0"}},{"base_weights":[1.8193006E-8],"default_left":[false],"id":95,"leaf_child_counts":[0],"left_children":[-1],"loss_changes":[7.509445E-7],"parents":[2147483647],"right_children":[-1],"split_conditions":[5.457902E-9],"split_indices":[0],"sum_hessian":[1.58E2],"tree_param":{"num_deleted":"0","num_feature":"1","num_nodes":"1","size_leaf_vector":"0"}},{"base_weights":[1.7689272E-8],"default_left":[false],"id":96,"leaf_child_counts":[0],"left_children":[-1],"loss_changes":[7.509364E-7],"parents":[2147483647],"right_children":[-1],"split_conditions":[5.3067817E-9],"split_indices":[0],"sum_hessian":[1.58E2],"tree_param":{"num_deleted":"0","num_feature":"1","num_nodes":"1","size_leaf_vector":"0"}},{"base_weights":[1.7185537E-8],"default_left":[false],"id":97,"leaf_child_counts":[0],"left_children":[-1],"loss_changes":[7.509284E-7],"parents":[2147483647],"right_children":[-1],"split_conditions":[5.1556612E-9],"split_indices":[0],"sum_hessian":[1.58E2],"tree_param":{"num_deleted":"0","num_feature":"1","num_nodes":"1","size_leaf_vector":"0"}},{"base_weights":[1.6681803E-8],"default_left":[false],"id":98,"leaf_child_counts":[0],"left_children":[-1],"loss_changes":[7.509203E-7],"parents":[2147483647],"right_children":[-1],"split_conditions":[5.004541E-9],"split_indices":[0],"sum_hessian":[1.58E2],"tree_param":{"num_deleted":"0","num_feature":"1","num_nodes":"1","size_leaf_vector":"0"}},{"base_weights":[1.6178069E-8],"default_left":[false],"id":99,"leaf_child_counts":[0],"left_children":[-1],"loss_changes":[7.509123E-7],"parents":[2147483647],"right_children":[-1],"split_conditions":[4.8534208E-9],"split_indices":[0],"sum_hessian":[1.58E2],"tree_param":{"num_deleted":"0","num_feature":"1","num_nodes":"1","size_leaf_vector":"0"}}]},"name":"gbtree"},"learner_model_param":{"base_score":"5E-1","num_class":"0","num_feature":"1"},"objective":{"name":"reg:squarederror","reg_loss_param":{"scale_pos_weight":"1"}}},"version":[1,2,1]}